2.077506482601165771e-02
6.917304825037717819e-03
-7.865907624363899231e-03
-4.163292702287435532e-03
2.645151875913143158e-02
-1.161821000277996063e-02
-1.750589907169342041e-02
4.379678284749388695e-04
1.730282790958881378e-02
2.419054321944713593e-02
2.158100018277764320e-03
6.191054824739694595e-03
1.481129880994558334e-02
-3.089014906436204910e-03
3.662100294604897499e-03
1.663369126617908478e-02
2.386077539995312691e-03
3.632818115875124931e-04
4.117430746555328369e-02
9.799242950975894928e-03
4.227741155773401260e-03
-1.553494110703468323e-02
2.888987213373184204e-02
1.390299201011657715e-02
-1.273259613662958145e-02
-8.401308208703994751e-03
2.864200249314308167e-02
5.016889423131942749e-03
4.275723767932504416e-04
1.346594747155904770e-02
-6.268467754125595093e-03
8.222226053476333618e-03
2.167025208473205566e-02
3.013968653976917267e-02
5.401317961513996124e-03
2.945758774876594543e-02
4.656539764255285263e-03
2.716499753296375275e-02
1.687827985733747482e-03
-1.337098050862550735e-02
1.548730209469795227e-02
-4.187753424048423767e-03
-4.079992417246103287e-03
-5.683620460331439972e-03
9.838530793786048889e-03
-1.672292593866586685e-03
1.182768121361732483e-02
3.922143206000328064e-02
-9.293315932154655457e-03
-4.283702466636896133e-03
9.721108712255954742e-03
-9.440262801945209503e-03
1.107756048440933228e-02
-7.246759720146656036e-03
1.285724248737096786e-02
9.794362122192978859e-04
7.744925096631050110e-03
2.875205129384994507e-02
2.039192803204059601e-02
1.738045248202979565e-03
-7.790354080498218536e-03
-7.582229096442461014e-03
1.329892780631780624e-02
1.538579631596803665e-02
