2.387380925938487053e-03
2.315409248694777489e-03
4.668320529162883759e-03
-7.656262256205081940e-03
2.690429566428065300e-03
9.493599645793437958e-03
4.883683286607265472e-03
-2.239778550574555993e-04
-3.275272611062973738e-04
2.183402189984917641e-03
-3.774136304855346680e-03
-1.587648992426693439e-03
1.853210735134780407e-03
1.469918061047792435e-03
-2.090740716084837914e-03
-2.234302955912426114e-04
-7.896081660874187946e-04
3.691151039674878120e-03
-1.616956200450658798e-03
-1.169103896245360374e-03
2.845264971256256104e-03
8.123071864247322083e-03
3.329148981720209122e-03
-2.274610800668597221e-03
4.244106356054544449e-03
-4.732858214993029833e-04
7.240575272589921951e-03
1.565157086588442326e-03
7.929854909889400005e-04
1.893951703095808625e-04
8.279504254460334778e-03
1.705083297565579414e-03
-6.558699999004602432e-03
1.353654172271490097e-02
3.234714502468705177e-03
5.733055528253316879e-03
-2.660237019881606102e-03
-9.104850469157099724e-04
7.511010044254362583e-04
6.823490373790264130e-03
-2.011552423937246203e-04
-3.777996636927127838e-03
4.398362711071968079e-03
-6.664702668786048889e-03
-1.045170589350163937e-03
7.425708230584859848e-03
2.510439837351441383e-03
-1.903093798318877816e-04
5.601703654974699020e-03
4.119272809475660324e-03
4.421678022481501102e-04
-1.512374001322314143e-05
-5.341967567801475525e-03
-1.315323449671268463e-02
4.904352128505706787e-03
3.799775848165154457e-03
-3.211771603673696518e-03
1.360506378114223480e-02
2.218966692453250289e-04
1.480115461163222790e-03
9.595595474820584059e-05
1.321942661888897419e-03
5.580550059676170349e-03
-2.439724485157057643e-04
