4.226367454975843430e-04
1.174938865005970001e-03
0.000000000000000000e+00
7.190807373262941837e-04
3.877537965308874846e-04
9.442421724088490009e-04
8.531206985935568810e-04
-9.897791314870119095e-04
-7.058291521389037371e-05
2.096139951390796341e-06
4.739515425171703100e-04
1.357400557026267052e-03
4.554900806397199631e-05
-2.398225888100569136e-06
-8.510622137691825628e-05
-7.544310064986348152e-04
-1.214165022247470915e-04
-1.949955787949875230e-07
-2.891479525715112686e-04
-2.181880408897995949e-04
-1.185873406939208508e-03
2.159020223189145327e-04
-1.363698858767747879e-03
-5.520532795344479382e-05
-4.661854763980954885e-04
-4.360687744338065386e-04
1.263004727661609650e-03
2.815153566189110279e-04
5.394493346102535725e-04
1.475286262575536966e-04
9.094147826544940472e-04
-1.206981483846902847e-03
1.562328543514013290e-03
2.068466419586911798e-04
-1.167121081380173564e-04
-3.575990206172718899e-07
-1.286634360440075397e-04
-1.140193315222859383e-03
-7.174129714258015156e-04
5.364023309084586799e-06
3.779261314775794744e-04
1.908143516629934311e-03
8.708559907972812653e-04
-9.469220458413474262e-06
1.283335150219500065e-04
-1.070772705134004354e-04
-1.587734906934201717e-03
6.924177287146449089e-04
-5.199615843594074249e-04
-1.969613367691636086e-04
3.159244952257722616e-04
-1.115260383812710643e-04
2.429100859444588423e-04
-1.624166325200349092e-04
7.796715181029867381e-06
-1.421618275344371796e-03
1.039262744598090649e-03
1.061666771420277655e-04
3.268086293246597052e-04
4.318209248594939709e-04
-3.224969841539859772e-04
2.286991570144891739e-03
3.186965477652847767e-04
2.369278809055685997e-03
-6.956358556635677814e-04
-7.718170527368783951e-04
4.514340616879053414e-05
2.717718016356229782e-04
-4.918685881420969963e-04
0.000000000000000000e+00
2.062175481114536524e-04
-4.881887871306389570e-04
1.895172637887299061e-03
-1.486524979554815218e-05
7.641419069841504097e-04
7.785022608004510403e-04
8.723096689209342003e-04
1.653824438108131289e-04
9.272298484575003386e-10
-4.207342281006276608e-04
-1.951716985786333680e-04
3.624612581916153431e-04
1.201234408654272556e-03
-8.512193453498184681e-04
-8.942538406699895859e-04
8.175733382813632488e-04
-1.904339005704969168e-04
-1.489846908953040838e-04
-7.851206464692950249e-04
2.425051061436533928e-04
-7.620225660502910614e-04
-1.209905487485229969e-03
7.700726855546236038e-04
-2.404607221251353621e-04
0.000000000000000000e+00
2.349961505387909710e-05
-4.058915365021675825e-04
4.971449379809200764e-04
1.159097300842404366e-03
4.562106332741677761e-04
1.170201649074442685e-04
1.661930815316736698e-03
1.015410991385579109e-03
-5.656381836161017418e-04
1.209496185765601695e-04
-2.257313346490263939e-03
2.837692387402057648e-03
3.407136828172951937e-04
1.919827307574450970e-03
4.550431185634806752e-05
1.188353402540087700e-03
1.184590873890556395e-04
-2.242498740088194609e-04
-6.937642465345561504e-04
1.103256479837000370e-03
5.070712068118155003e-04
1.051149665727280080e-04
1.191053539514541626e-03
-5.983933224342763424e-04
1.909764134325087070e-03
1.374286948703229427e-04
-1.608040038263425231e-04
2.466775185894221067e-04
-2.110035158693790436e-03
1.056594657711684704e-03
-5.795235629193484783e-04
2.568249783507781103e-06
-1.753814052790403366e-03
-2.421648387098684907e-04
3.870294603984802961e-04
-4.149685264565050602e-04
-7.387019286397844553e-05
-1.933307794388383627e-05
-3.965134055761154741e-06
-1.594581757672131062e-03
8.370185969397425652e-04
-2.194546823375276290e-06
-4.010837059468030930e-03
-3.314699279144406319e-04
-1.455046003684401512e-03
1.348672201856970787e-03
-1.557453069835901260e-03
6.961871404200792313e-04
-4.930603899993002415e-04
1.701311906799674034e-03
-3.342482614243635908e-06
-5.941290510236285627e-05
-2.146086480934172869e-04
9.840439306572079659e-04
1.234065741300582886e-03
3.768224269151687622e-04
-2.738170442171394825e-04
0.000000000000000000e+00
-1.502798055298626423e-03
1.259023440070450306e-03
3.816074749920517206e-04
-1.058640889823436737e-03
-3.658507484942674637e-04
-7.282204460352659225e-04
2.715132141020148993e-04
1.193593998323194683e-04
4.874973965343087912e-04
1.224466395797207952e-04
2.241928130388259888e-03
-5.789973074570298195e-04
8.296250598505139351e-06
1.681438698142301291e-05
0.000000000000000000e+00
7.873503491282463074e-04
2.095085983455646783e-05
-9.230762370862066746e-04
1.017174916341900826e-03
-1.065437565557658672e-03
-6.714934716001152992e-05
1.443353394279256463e-04
3.320929128676652908e-03
-4.250516667525516823e-07
1.262973877601325512e-03
2.044277032837271690e-03
-4.022408276796340942e-03
1.637656008824706078e-03
1.317830057814717293e-03
9.425031603313982487e-04
2.134181340807117522e-05
3.424129681661725044e-03
-7.959714275784790516e-04
1.366370270261541009e-04
1.008048304356634617e-03
-9.025845065480098128e-05
-4.601160471793264151e-04
-1.345783704891800880e-03
-3.152375575155019760e-04
2.133492671418935061e-04
6.834786618128418922e-04
3.503186162561178207e-04
1.101999660022556782e-03
2.295742306159809232e-04
8.897040970623493195e-04
-1.299929572269320488e-03
-2.009219169849529862e-04
-9.676003246568143368e-04
1.250448753125965595e-03
-1.085064024664461613e-03
5.024385754950344563e-04
-2.403138350928202271e-04
-2.045558212557807565e-04
2.576240513008087873e-04
4.289282951503992081e-04
-6.596571620320901275e-05
7.861902704462409019e-04
5.590104265138506889e-04
-6.489169318228960037e-04
0.000000000000000000e+00
-6.753988418495282531e-05
-1.374388375552371144e-04
3.705899871420115232e-04
2.385561121627688408e-03
0.000000000000000000e+00
-2.776856417767703533e-04
5.066373851150274277e-04
6.295783678069710732e-04
1.193450181744992733e-03
-1.322926545981317759e-04
-2.513202838599681854e-03
6.185314850881695747e-05
3.001117147505283356e-04
7.134753977879881859e-04
1.358812587568536401e-04
1.398746273480355740e-03
-3.924511547666043043e-04
-9.091277206607628614e-06
-5.850750021636486053e-04
-4.237507528159767389e-04
5.099366535432636738e-04
4.162680124863982201e-05
1.113590587920043617e-05
1.017653921735472977e-04
-2.304310328327119350e-04
7.370120147243142128e-04
1.888275262899696827e-03
0.000000000000000000e+00
-1.282504526898264885e-03
-4.077809592217818135e-07
-5.029714884585700929e-05
9.826922323554754257e-04
8.372460724785923958e-04
-5.767957773059606552e-04
1.427675215381896123e-06
1.097752363421022892e-03
5.106910830363631248e-04
1.011655695037916303e-05
4.728817439172416925e-04
4.677407850977033377e-04
2.757888869382441044e-04
1.639587253521312959e-06
-1.031870138831436634e-03
1.456885220250114799e-04
5.538568948395550251e-04
7.843244820833206177e-04
3.136633022222667933e-04
7.286431500688195229e-04
-2.088645705953240395e-03
-3.837155236396938562e-05
8.030319586396217346e-04
1.133435798692516983e-04
-2.619955339469015598e-04
1.105678165913559496e-06
1.177440164610743523e-03
-1.894179831651854329e-06
-1.823763741413131356e-04
3.689455043058842421e-04
0.000000000000000000e+00
2.572743687778711319e-05
-2.110179048031568527e-03
1.183858475997112691e-04
-1.276672701351344585e-03
-2.765674726106226444e-04
-1.639326801523566246e-03
-4.539926012512296438e-04
1.213062321767210960e-03
2.213001716881990433e-04
-1.017879229038953781e-03
1.405247836373746395e-03
1.965980045497417450e-03
4.064355744048953056e-04
-1.087365262719686143e-06
-6.889375508762896061e-04
-2.022044936893507838e-04
7.307484338525682688e-05
-2.939475962193682790e-06
1.959973946213722229e-03
1.113291145884431899e-04
-1.859926560427993536e-04
1.101072179153561592e-03
-2.229767385870218277e-03
-4.077834601048380136e-04
1.480749006077530794e-06
-2.978743053972721100e-03
-9.645918180467560887e-05
-8.356584003195166588e-04
-3.027093480341136456e-04
1.968219439731910825e-04
-1.487235567765310407e-04
7.789563096594065428e-05
-6.909978692419826984e-04
-4.768666112795472145e-04
2.973909955471754074e-03
1.432182150892913342e-03
-1.929377322085201740e-05
5.964889423921704292e-04
3.311200125608593225e-04
4.056482066516764462e-05
-6.711792229907587171e-05
-6.369659677147865295e-04
1.164564964710734785e-04
2.531772479414939880e-03
-2.494099782779812813e-03
-3.747537266463041306e-04
-9.531302930554375052e-05
-1.602487172931432724e-03
3.164759546052664518e-04
2.985213359352201223e-04
1.178419101051986217e-03
-4.788957012351602316e-04
1.544678350910544395e-03
-2.848266158252954483e-04
3.442632732912898064e-04
1.057243207469582558e-04
-1.211647642776370049e-03
1.663613133132457733e-03
1.449790666811168194e-03
1.036369591020047665e-03
7.314583635888993740e-04
4.237434768583625555e-05
-1.878943177871406078e-03
7.561569800600409508e-04
5.779445637017488480e-04
8.023997652344405651e-04
-6.055600824765861034e-04
5.807440902572125196e-05
5.809300928376615047e-04
-2.482873853296041489e-03
-1.646772143431007862e-03
2.920671431638766080e-05
-3.079238522332161665e-04
-1.789626840036362410e-04
-9.663282980909571052e-05
0.000000000000000000e+00
8.042578701861202717e-05
5.144004244357347488e-04
-5.495348013937473297e-04
0.000000000000000000e+00
2.748892409726977348e-03
8.350173885673939367e-08
5.133739323355257511e-04
1.781843951903283596e-03
2.274786129419226199e-05
-6.474796100519597530e-04
-1.962001988431438804e-04
1.175486977444961667e-05
2.808796125464141369e-04
-1.096076593967154622e-04
2.885941648855805397e-04
4.924817858409369364e-06
1.227852917509153485e-04
8.778109622653573751e-05
4.968831126461736858e-05
-7.824673230061307549e-05
4.335511475801467896e-04
-7.352808461291715503e-05
-7.729145727353170514e-05
-6.473208777606487274e-04
3.127638774458318949e-05
1.761169987730681896e-03
2.495413413271307945e-03
-2.409511507721617818e-04
8.563841111026704311e-04
-1.101487214327789843e-04
4.684817686211317778e-04
-9.020970319397747517e-04
-8.678113090354599990e-07
2.192515057686250657e-05
1.258902898371161427e-06
3.744219839063589461e-06
-1.267992542125284672e-03
-1.075256805052049458e-04
1.334536587819457054e-03
1.280950731597840786e-03
1.178337377496063709e-03
-3.053291584365069866e-04
2.702932688407599926e-04
-1.007796847261488438e-03
4.600544052664190531e-04
5.317981704138219357e-04
3.075123240705579519e-04
-5.403725663200020790e-04
-5.828270222991704941e-04
-7.749557844363152981e-04
-2.580922562628984451e-03
0.000000000000000000e+00
-8.581403526477515697e-04
1.836605020798742771e-03
3.194142132997512817e-03
1.223146100528538227e-03
4.456429451238363981e-05
4.605744325090199709e-04
1.853048452176153660e-04
1.204939675517380238e-03
-2.737191098276525736e-04
2.188487087551038712e-06
-5.930720362812280655e-05
-5.052154301665723324e-04
-2.301812201039865613e-04
-2.204565797001123428e-03
-1.577253802679479122e-03
-2.013921737670898438e-03
1.220340636791661382e-04
5.191956879571080208e-04
-2.292650751769542694e-03
-6.453524110838770866e-04
7.640085095772519708e-05
-4.067506233695894480e-04
2.667990745976567268e-03
0.000000000000000000e+00
-1.758817816153168678e-03
-1.500003272667527199e-04
1.597648661118000746e-04
-1.063541421899572015e-04
1.186661305837333202e-03
3.256939235143363476e-04
4.829422396142035723e-04
-1.879044109955430031e-03
-1.312922395300120115e-04
-1.581699354574084282e-03
3.244281688239425421e-04
3.543991479091346264e-04
4.528053068497683853e-06
1.249965396709740162e-03
1.385556388413533568e-04
-6.777061116736149415e-06
-2.217475092038512230e-03
1.870442429208196700e-05
1.091339509002864361e-04
-3.971330297645181417e-04
1.518682343885302544e-03
-2.333532174816355109e-04
-9.010307257995009422e-05
-1.040639835991896689e-04
-3.715335915330797434e-04
1.548107597045600414e-03
-9.194453014060854912e-05
-2.414430637145414948e-04
-4.397468874230980873e-04
3.573934955056756735e-04
6.138045137049630284e-05
-4.635991354007273912e-04
1.636814093217253685e-03
5.398495122790336609e-04
1.345196156762540340e-03
-6.948068039491772652e-04
-7.860096520744264126e-04
-2.815784246195107698e-04
-2.238013848909758963e-06
-7.011427660472691059e-04
-5.473009077832102776e-04
2.953076545963995159e-05
-1.093782135285437107e-03
-8.609704091213643551e-04
1.305931014940142632e-03
-9.957227302948012948e-05
-6.226885598152875900e-04
-2.257195999845862389e-03
7.852641865611076355e-04
-1.241658581420779228e-03
1.937020570039749146e-04
2.448740648105740547e-03
8.457978838123381138e-04
-8.844797266647219658e-04
-2.642612089402973652e-04
1.034695305861532688e-03
-5.588292879110667855e-06
-7.781794693073607050e-07
-7.712413935223594308e-05
-1.607045531272888184e-03
1.656999374972656369e-04
6.247737328521907330e-04
-7.627792365383356810e-05
-2.966140527860261500e-05
7.426796364597976208e-04
-2.102784346789121628e-04
-1.965130422831862234e-06
-4.608491144608706236e-04
-7.556283380836248398e-04
1.347335200989618897e-04
-6.317928782664239407e-04
-3.275401249993592501e-04
-2.092214534059166908e-03
1.919956644997000694e-03
1.333457248620106839e-06
-1.625507866265252233e-04
1.630151527933776379e-03
3.295177011750638485e-04
5.692190025001764297e-04
-1.717134873615577817e-04
-2.786770055536180735e-04
1.736568519845604897e-04
4.571872996166348457e-04
0.000000000000000000e+00
-4.754590336233377457e-04
-1.217771321535110474e-03
-1.904244418255984783e-04
3.404942617635242641e-05
-1.181682891910895705e-04
-4.953269381076097488e-04
4.766120109707117081e-04
1.869058934971690178e-03
-5.592089146375656128e-04
6.982317427173256874e-04
1.232375325344037265e-05
-8.253756095655262470e-04
3.123265691101551056e-03
8.076943922787904739e-04
3.546487714629620314e-04
5.043342243880033493e-04
-4.631888295989483595e-04
9.763451525941491127e-04
1.756938145263120532e-04
-2.838138470906415023e-07
1.033780747093260288e-03
-5.377194611355662346e-04
-1.575448322910233401e-07
5.661384784616529942e-04
7.656220259377732873e-05
3.511706308927386999e-04
5.336106987670063972e-04
-4.522625204117503017e-06
-2.214717387687414885e-04
-7.050780695863068104e-04
1.246012398041784763e-03
-7.686538156121969223e-04
0.000000000000000000e+00
5.074507862445898354e-05
9.550748654874041677e-05
-1.134322010329924524e-04
0.000000000000000000e+00
9.570627007633447647e-04
3.418775158934295177e-04
-1.399282366037368774e-03
1.609022030606865883e-03
4.450217238627374172e-05
-4.325903864810243249e-05
6.284512928687036037e-04
-2.644492313265800476e-03
1.180508872494101524e-03
-2.350917493458837271e-04
9.162130299955606461e-04
5.019028321839869022e-04
3.553766873665153980e-04
1.568013452924787998e-03
-4.037044418510049582e-04
-2.333976408408489078e-05
-1.376604341203346848e-04
-1.046814257279038429e-03
-1.703927642665803432e-03
2.108882908942177892e-04
4.904491943307220936e-04
2.342804218642413616e-04
-1.065298216417431831e-03
-4.695138486567884684e-04
1.126141869463026524e-04
-2.110979257849976420e-04
4.494055465329438448e-04
-1.782225590432062745e-04
5.430387100204825401e-04
5.955839878879487514e-04
9.276206837967038155e-04
0.000000000000000000e+00
-2.044624307018239051e-05
-5.658277223119512200e-05
-2.040538704022765160e-03
-5.655403947457671165e-04
-4.880663182120770216e-04
2.100850455462932587e-03
0.000000000000000000e+00
6.373434007400646806e-05
-1.094747683964669704e-03
-1.194932148791849613e-03
1.722063025226816535e-04
3.507276298478245735e-03
-1.149109099060297012e-03
1.155248261056840420e-03
1.004527322947978973e-03
-8.584952447563409805e-04
1.760710263624787331e-03
3.999871842097491026e-05
0.000000000000000000e+00
9.744051494635641575e-04
-4.422240017447620630e-04
1.706047441984992474e-06
-1.525269181001931429e-04
-6.743620906490832567e-05
1.543339976706192829e-06
2.237139415228739381e-05
4.124979022890329361e-04
-4.140792007092386484e-04
2.197665307903662324e-04
-2.522331851650960743e-05
-1.727260241750627756e-04
-6.229316350072622299e-04
-7.427347009070217609e-04
-3.764530410990118980e-04
1.286111422814428806e-03
1.116959727369248867e-03
-3.913205364369787276e-05
-1.679266424616798759e-04
8.322866633534431458e-04
1.579651143401861191e-04
1.010929816402494907e-03
-6.870595971122384071e-04
1.074763131327927113e-03
-3.888391074724495411e-04
-2.847574069164693356e-04
-5.917016460443846881e-05
0.000000000000000000e+00
-3.079139860346913338e-04
-6.148567772470414639e-04
1.433004159480333328e-03
7.060702773742377758e-04
-2.100002020597457886e-04
0.000000000000000000e+00
-2.958777486128383316e-06
3.975204890593886375e-04
2.998435404151678085e-03
5.240026512183248997e-04
-4.801049944944679737e-04
8.759242336964234710e-05
5.418739601736888289e-05
1.755878794938325882e-03
4.534976687864400446e-05
1.365913078188896179e-03
-4.008903342764824629e-04
-3.370966587681323290e-04
4.123687394894659519e-04
-1.525571919046342373e-03
-2.660326892510056496e-03
6.429140921682119370e-05
-8.088315371423959732e-05
9.119901806116104126e-04
-1.010473119094967842e-03
-2.450344618409872055e-03
1.425444206688553095e-04
3.157288010697811842e-04
0.000000000000000000e+00
-1.957024214789271355e-04
6.979019235586747527e-05
-1.046958118422480766e-06
5.932010826654732227e-04
-4.884317968389950693e-05
-8.626685012131929398e-04
-1.393639831803739071e-04
-4.559893113764701411e-06
8.548784535378217697e-04
-2.211566898040473461e-04
2.870815340429544449e-03
-1.696454419288784266e-04
8.329985430464148521e-04
2.473080530762672424e-04
4.910342977382242680e-05
-4.731853841803967953e-04
-3.352012981849838980e-06
4.728820567834191024e-05
-4.362400795798748732e-04
-6.891998928040266037e-04
3.613606386352330446e-04
1.936774206114932895e-04
-3.170960917486809194e-05
-2.163013959943782538e-05
-2.580794272944331169e-03
-1.121793990023434162e-03
-1.853639150795061141e-05
3.260786979808472097e-05
-1.726894552120938897e-04
-4.332174139562994242e-04
-4.396270087454468012e-04
-1.764523098245263100e-03
-9.377335663884878159e-05
-3.446240443736314774e-04
-9.818015387281775475e-04
1.276515075005590916e-03
-9.913686662912368774e-04
2.218249028373975307e-05
-2.632803516462445259e-04
0.000000000000000000e+00
6.719795055687427521e-05
-7.025217637419700623e-04
-3.136638406431302428e-05
1.384249655529856682e-03
-3.073050538660027087e-05
-1.759583683451637626e-04
4.367000656202435493e-04
7.503037340939044952e-05
1.189285423606634140e-03
1.477008685469627380e-03
4.225214943289756775e-04
-1.725402253214269876e-04
4.080453654751181602e-04
-5.525810138351516798e-07
1.244565239176154137e-03
1.236905110999941826e-03
7.516330224461853504e-04
2.538413275033235550e-03
6.554899155162274837e-04
-4.151073808316141367e-04
1.679640146903693676e-03
-1.239674020325765014e-04
9.568347595632076263e-04
-1.407153788022696972e-03
-7.119545443856623024e-06
2.073843264952301979e-03
4.807999648619443178e-04
2.684577193576842546e-04
2.484030846972018480e-04
5.501612395164556801e-05
-8.475762442685663700e-04
-9.426155011169612408e-04
1.311589358010678552e-06
1.623510797799099237e-05
2.475361339747905731e-03
3.950544050894677639e-04
-1.779086887836456299e-03
9.041824960149824619e-04
5.544292507693171501e-04
2.347625922993756831e-06
-3.217962221242487431e-04
2.960940822958946228e-03
-1.358610577881336212e-03
1.780044753104448318e-03
6.703940453007817268e-04
-6.161323981359601021e-04
-6.335161160677671432e-04
-4.064365930389612913e-04
1.905889075715094805e-04
-3.658433852251619101e-04
-2.285380614921450615e-04
1.905960816657170653e-04
5.066442536190152168e-04
1.367938093608245254e-04
1.579806557856500149e-04
1.182267908006906509e-03
-6.641843356192111969e-04
-1.110068205889547244e-05
1.322649186477065086e-04
-7.698763511143624783e-04
1.643544295802712440e-03
4.698378033936023712e-04
2.512888517230749130e-03
-9.465534094488248229e-05
-3.752524731680750847e-03
-4.107570930500514805e-05
-1.395704166498035192e-04
-8.419883670285344124e-04
5.952068022452294827e-05
1.433968136552721262e-04
1.796820317395031452e-03
-9.002074948512017727e-04
1.129106502048671246e-03
-3.040750743821263313e-04
-9.429488563910126686e-04
5.327753024175763130e-04
-4.086506669409573078e-05
7.865773113735485822e-06
-4.558938599075190723e-05
3.592398483306169510e-03
-2.057270612567663193e-03
2.475339279044419527e-04
-1.464934466639533639e-04
4.731441731564700603e-04
-2.522465138099505566e-06
-3.455353362369351089e-05
-2.027880109380930662e-04
2.749569714069366455e-03
4.077480116393417120e-04
1.463803055230528116e-04
1.865529688075184822e-03
1.232629641890525818e-03
1.368838093185331672e-05
-6.298531661741435528e-05
-1.071712686098180711e-04
-4.085268010385334492e-04
-1.532521448098123074e-03
6.220197537913918495e-04
-9.976710425689816475e-04
-2.791058213915675879e-04
9.400375420227646828e-04
-6.720600504195317626e-05
-5.735077138524502516e-05
-7.735775434412062168e-04
-7.225289009511470795e-04
1.230942245911137434e-07
0.000000000000000000e+00
2.768661033769603819e-05
9.699404472485184669e-04
-1.561029785079881549e-04
-1.362137845717370510e-04
8.359549246961250901e-05
-4.574573831632733345e-04
-1.002341508865356445e-03
1.852893386967480183e-03
3.388222467037849128e-05
-4.855347651755437255e-05
-7.361054304055869579e-04
-2.637420948303770274e-09
1.101432717405259609e-03
-1.327384379692375660e-03
-6.850478821434080601e-04
6.162379868328571320e-04
2.047719666734337807e-03
7.336391718126833439e-04
4.516345798037946224e-04
-4.056635370943695307e-04
1.600975906512758229e-06
4.563432594295591116e-04
1.724869362078607082e-03
2.514284569770097733e-04
-3.466448746621608734e-03
3.037044662050902843e-04
-1.502350904047489166e-03
-5.179208237677812576e-04
-1.452902448363602161e-03
-1.830006513046100736e-04
-3.942833864130079746e-04
1.405908114975318313e-04
1.766989444149658084e-04
-5.724125658161938190e-04
-3.168393741361796856e-04
4.418640455696731806e-04
4.351731622591614723e-04
-8.540580747649073601e-04
7.106949924491345882e-04
8.175384718924760818e-04
-7.394835702143609524e-04
4.433860594872385263e-04
-1.312161097303032875e-03
-4.157278453931212425e-04
-1.359635149128735065e-03
4.796225694008171558e-04
3.424184105824679136e-04
2.050064969807863235e-03
-3.012135566677898169e-04
-4.526250413618981838e-04
-1.728926581563428044e-04
-1.541990903206169605e-03
-1.318520226050168276e-04
-2.456103684380650520e-04
2.685176732484251261e-04
-3.959399691666476429e-05
1.867303035396616906e-05
1.967457588762044907e-03
1.636437227716669440e-04
-3.299456147942692041e-04
6.805997109040617943e-04
-7.888360414654016495e-05
-4.731940571218729019e-04
-4.533308310783468187e-05
-1.574336667545139790e-03
-1.443036308046430349e-04
6.474147085100412369e-04
-2.640014645294286311e-05
-4.541935632005333900e-04
1.334045198746025562e-03
-4.877000756096094847e-04
1.776427379809319973e-03
-1.128188217990100384e-03
1.756369252689182758e-03
2.312013879418373108e-03
-1.955734565854072571e-03
7.386448560282588005e-04
-1.825204381020739675e-04
-1.025103265419602394e-03
1.497770938385656336e-07
2.580220578238368034e-03
2.086268505081534386e-04
6.180518994369776919e-07
4.105050538782961667e-05
-1.766504021361470222e-03
8.332541328854858875e-04
-1.361447993986075744e-05
9.451353107579052448e-04
-7.291439687833189964e-04
4.867847019340842962e-04
-1.718016278573486488e-06
0.000000000000000000e+00
-1.486838096752762794e-03
1.761177089065313339e-03
-4.133388283662497997e-04
4.489240527618676424e-04
6.012146477587521076e-04
2.683155180420726538e-04
2.576733240857720375e-04
2.116399351507425308e-03
-4.243646108079701662e-04
-5.305971717461943626e-04
-1.364431227557361126e-04
-2.071011345833539963e-03
6.010493380017578602e-04
-1.374723622575402260e-03
-2.481089322827756405e-04
-1.298451534239575267e-04
-2.193046733736991882e-03
3.020428121089935303e-03
5.102364229969680309e-04
2.213151659816503525e-03
2.652242869771725964e-07
1.613062224350869656e-03
1.230923080584034324e-04
-1.859167008660733700e-03
1.931325299665331841e-03
1.080242800526320934e-03
1.784210908226668835e-04
-5.068574682809412479e-04
2.763340262390556745e-06
-2.322328800801187754e-04
7.745124748907983303e-04
4.280406574252992868e-04
-2.364069077884778380e-04
-4.516519402386620641e-05
8.318299078382551670e-04
-1.951600133907049894e-04
-1.218221295857802033e-04
9.366892045363783836e-04
0.000000000000000000e+00
-1.741640851832926273e-03
1.909964834339916706e-03
-5.634689587168395519e-04
-3.129524702671915293e-05
-2.865218993974849582e-05
2.090527050313539803e-05
-7.863759528845548630e-04
-8.124143641907721758e-05
-1.371641177684068680e-03
-5.807715351693332195e-04
-3.925064578652381897e-03
-4.926673718728125095e-04
-1.418508356437087059e-03
5.626437254250049591e-03
-1.626015291549265385e-03
-3.684001057990826666e-05
7.130843587219715118e-04
4.613617784343659878e-04
-5.277279415167868137e-04
2.725101076066493988e-04
4.873269645031541586e-04
4.807845980394631624e-04
-1.738085411489009857e-04
-6.359476246871054173e-04
-7.221140549518167973e-04
-1.587357983225956559e-04
3.936786670237779617e-04
-2.008801093325018883e-03
1.024166181196051184e-06
-4.538579087238758802e-04
8.666284265927970409e-04
-3.165965608786791563e-04
5.507414243766106665e-05
-8.684216882102191448e-04
-5.799968494102358818e-04
-1.664406270720064640e-03
9.205349488183856010e-04
-1.190668903291225433e-03
-2.020472720687394030e-06
4.537470813374966383e-04
1.143687171861529350e-03
-7.562130922451615334e-04
-6.195415380716440268e-08
0.000000000000000000e+00
7.604538113810122013e-04
1.011225231195567176e-05
1.230588764883577824e-03
2.808490535244345665e-03
-2.366678090766072273e-03
-1.514289178885519505e-03
-1.307206694036722183e-03
-1.648595352889969945e-04
-4.655310931411804631e-06
1.026090234518051147e-03
6.056078291294397786e-06
-4.030262352898716927e-04
-1.775231445208191872e-03
-7.993461331352591515e-04
2.222420298494398594e-04
1.323094940744340420e-03
7.710644422331824899e-05
-1.743746688589453697e-04
5.192920798435807228e-04
6.810232880525290966e-04
1.222395454533398151e-03
-2.620720479171723127e-04
-3.493955126032233238e-03
1.528823986518546008e-06
-3.316453367006033659e-04
-5.170266376808285713e-04
3.138266329187899828e-04
1.679784327279776335e-04
-2.178072318201884627e-04
3.238559875171631575e-04
-1.442360924556851387e-03
4.865472146775573492e-05
3.770421026274561882e-03
-4.128864384256303310e-04
-2.506710643501719460e-06
-9.272139868699014187e-04
-7.429245742969214916e-04
-8.500678086420521140e-05
4.765779303852468729e-04
4.982581594958901405e-05
4.500611612456850708e-05
-2.269669203087687492e-03
3.620850911829620600e-04
-2.713724679779261351e-04
-8.666404755786061287e-04
-1.077226130291819572e-03
-8.321647328557446599e-06
-1.119720473070628941e-04
5.532722570933401585e-04
