-6.900723092257976532e-04
-7.119725923985242844e-04
4.418050870299339294e-03
4.639356862753629684e-03
-6.783940480090677738e-04
-2.135399263352155685e-03
6.136159063316881657e-04
4.673866787925362587e-04
1.482402294641360641e-04
-5.588852334767580032e-03
4.115934018045663834e-03
-3.637271933257579803e-03
2.128929365426301956e-03
-2.644541091285645962e-04
-1.792746246792376041e-03
1.354919513687491417e-03
-3.818352473899722099e-03
7.228499278426170349e-03
-3.636733454186469316e-04
2.061047707684338093e-04
-3.282592631876468658e-03
3.747588256374001503e-03
4.859039094299077988e-03
1.236086594872176647e-03
2.449655439704656601e-03
4.456726834177970886e-03
4.575734492391347885e-03
2.024188461291487329e-06
-6.790572078898549080e-04
7.251022849231958389e-03
-4.262285365257412195e-04
-9.319233358837664127e-04
1.798747252905741334e-04
3.249469678848981857e-03
5.901957047171890736e-04
3.899303963407874107e-03
-4.540718509815633297e-04
-2.537133696023374796e-04
-4.157529678195714951e-03
6.435511750169098377e-04
8.849818259477615356e-04
5.844323895871639252e-03
-3.505625762045383453e-03
1.746450318023562431e-03
-7.826049113646149635e-04
2.426629187539219856e-03
2.669303285074420273e-05
3.089298726990818977e-03
-6.776610971428453922e-04
-2.697383519262075424e-03
-2.064546570181846619e-03
4.185495432466268539e-03
1.551378227304667234e-04
-6.147314561530947685e-04
2.036266494542360306e-03
3.793276846408843994e-03
4.821686074137687683e-03
-2.645023865625262260e-03
2.135895483661442995e-04
2.816643063852097839e-05
-3.041252284674555995e-06
-9.077197755686938763e-04
5.565689876675605774e-03
2.849307376891374588e-03
3.944214433431625366e-03
1.680631074123084545e-03
2.529192250221967697e-03
-1.370733138173818588e-03
3.162611275911331177e-03
-2.430144231766462326e-03
-8.264684583991765976e-04
5.392254330217838287e-03
2.730361884459853172e-03
8.616470731794834137e-03
0.000000000000000000e+00
1.650501799304038286e-04
4.333323333412408829e-03
-7.841135375201702118e-04
9.221628308296203613e-03
-3.113055981884826906e-06
-4.372597206383943558e-03
1.731686294078826904e-03
-6.051217205822467804e-04
3.560419427230954170e-03
-5.145411705598235130e-04
6.715425406582653522e-04
5.770322866737842560e-03
5.878744414076209068e-04
6.946295034140348434e-03
4.058678634464740753e-03
-6.681279046460986137e-04
-1.151936710812151432e-03
-3.661071183159947395e-03
6.380707491189241409e-04
-1.328117446973919868e-03
2.384797844570130110e-04
-8.337681356351822615e-05
4.410136025398969650e-03
3.879062132909893990e-03
-3.636990149971097708e-04
-9.027039050124585629e-04
2.271740086143836379e-04
1.627118443138897419e-03
-1.613630680367350578e-03
1.637341338209807873e-03
-1.986783463507890701e-03
4.456492606550455093e-03
3.384915878996253014e-03
2.612871816381812096e-03
1.784589374437928200e-03
3.869408043101429939e-03
4.572547972202301025e-03
3.916925750672817230e-03
-1.885681762360036373e-03
1.957793254405260086e-03
6.719480006722733378e-05
7.884948281571269035e-04
6.009098142385482788e-03
2.812213031575083733e-03
1.015795161947607994e-03
-2.700345066841691732e-04
2.599201630800962448e-03
-1.053146115737035871e-04
1.648572040721774101e-03
-2.223656512796878815e-03
-2.500904025509953499e-03
5.976656102575361729e-04
9.581447811797261238e-04
2.811964077409356833e-04
3.348380094394087791e-03
9.927782230079174042e-04
-6.186152342706918716e-03
3.190287156030535698e-03
-3.610560088418424129e-04
2.838953514583408833e-04
0.000000000000000000e+00
-3.642946016043424606e-03
1.796685857698321342e-03
-3.460293810348957777e-04
1.378671149723231792e-03
-3.272894537076354027e-05
2.410012064501643181e-03
-5.618516588583588600e-04
4.556639760266989470e-04
4.835277504753321409e-04
1.474884629715234041e-04
-4.332352429628372192e-03
4.971161019057035446e-03
-7.885203672231000382e-07
1.040350645780563354e-03
-4.082161001861095428e-03
-8.687290246598422527e-04
-5.575702525675296783e-03
-1.721666776575148106e-03
-7.760414737276732922e-04
6.260213907808065414e-03
-2.455006819218397141e-03
-1.039141905494034290e-03
8.170848595909774303e-04
-2.513091894797980785e-04
0.000000000000000000e+00
4.478215705603361130e-04
0.000000000000000000e+00
-3.193095835740678012e-05
-8.249201346188783646e-04
1.939696725457906723e-03
2.577340410425676964e-06
-7.543523679487407207e-04
1.000579286483116448e-04
-3.709179116412997246e-03
-4.117827862501144409e-03
3.393564838916063309e-06
9.459237335249781609e-04
-2.232947386801242828e-03
1.785219646990299225e-04
-7.533879834227263927e-04
6.198081973707303405e-05
5.693386192433536053e-04
8.602566085755825043e-03
-3.219807753339409828e-03
1.564892358146607876e-03
9.904701728373765945e-04
3.469575429335236549e-03
-8.729532710276544094e-04
-3.385988064110279083e-03
-2.004341222345829010e-03
-2.211999380961060524e-03
5.811122828163206577e-04
3.260884201154112816e-03
-7.642395328730344772e-03
3.151667071506381035e-03
-1.148752488688842277e-07
-5.454706028103828430e-03
-3.436456201598048210e-03
6.248930003494024277e-03
-2.301666419953107834e-03
-5.721935885958373547e-04
3.196609904989600182e-04
-4.514418833423405886e-04
2.460134215652942657e-03
-9.515137207927182317e-05
7.661458104848861694e-03
-4.630454815924167633e-03
2.146687125787138939e-03
5.212434916757047176e-04
3.775807796046137810e-03
-1.128199510276317596e-03
2.149632200598716736e-05
-2.471445128321647644e-03
3.293125424534082413e-03
2.411330817267298698e-03
-9.089683298952877522e-04
-1.639213223825208843e-05
-2.958977165690157562e-05
4.105975676793605089e-04
5.576358176767826080e-03
2.611088333651423454e-03
4.671269096434116364e-03
4.558458924293518066e-03
2.075189695460721850e-04
-6.142559577710926533e-04
-1.782054896466434002e-04
-1.336618443019688129e-03
1.118273939937353134e-05
4.152192734181880951e-03
9.950419189408421516e-04
-2.056331577477976680e-04
5.558776669204235077e-03
6.943482439965009689e-04
-4.237370565533638000e-03
-6.974865682423114777e-04
-2.085568848997354507e-03
-3.390950150787830353e-03
-1.830127323046326637e-03
4.272948019206523895e-03
2.479786344338208437e-04
3.266775049269199371e-03
3.671794431284070015e-03
-4.366546636447310448e-04
-1.477998807786207180e-06
-1.055694650858640671e-03
0.000000000000000000e+00
-2.078465186059474945e-04
8.467726875096559525e-04
-1.149510899267625064e-05
-2.172766486182808876e-03
-3.369499609107151628e-06
-9.772451594471931458e-04
-2.203580690547823906e-03
7.700514856878726278e-07
2.426004357403144240e-04
2.370780566707253456e-03
-1.606015139259397984e-03
-2.840250272129196674e-05
-1.950952457264065742e-03
6.515441054943948984e-05
8.880894747562706470e-04
4.609017050825059414e-04
3.382358467206358910e-03
2.431306755170226097e-03
4.635925404727458954e-03
-1.074681174941360950e-03
-7.061578799039125443e-04
5.928548634983599186e-04
-3.204538254067301750e-03
-1.451775024179369211e-04
5.485362838953733444e-03
-1.898201182484626770e-03
-5.524603693629615009e-06
-2.255471144962939434e-06
2.994897542521357536e-03
9.005891042761504650e-04
-1.036044559441506863e-03
-2.723497571423649788e-03
-2.106947824358940125e-03
-4.512031591730192304e-05
2.096796873956918716e-03
1.483172294683754444e-03
6.432749330997467041e-03
8.826080709695816040e-03
4.452110733836889267e-03
-4.007807092420989648e-06
6.158786825835704803e-03
5.007175423088483512e-05
-1.930556027218699455e-04
3.297905204817652702e-03
-2.380994556006044149e-04
3.015912137925624847e-03
9.243621207133401185e-06
0.000000000000000000e+00
-6.371091585606336594e-04
5.611909436993300915e-04
-2.764603588730096817e-03
2.662513179529923946e-05
5.814933683723211288e-03
-1.509791938588023186e-03
-2.183533040806651115e-03
5.538182449527084827e-04
-3.393546910956501961e-03
-1.289879553951323032e-03
3.130767960101366043e-03
-2.321042586117982864e-03
-2.100263081956654787e-04
2.256873529404401779e-03
5.313969450071454048e-04
9.351086919195950031e-04
-2.391890855506062508e-03
-4.950916394591331482e-03
2.614422701299190521e-03
-1.196461264044046402e-03
8.088191389106214046e-04
2.044767607003450394e-03
1.584751647897064686e-03
-3.081108210608363152e-03
-2.391110407188534737e-03
9.987694211304187775e-04
-8.021063404157757759e-04
2.486447629053145647e-04
-1.856729737482964993e-03
-1.842911238782107830e-03
-6.339841056615114212e-04
-2.778884721919894218e-03
2.480867551639676094e-03
-6.672376766800880432e-04
-6.936058052815496922e-04
-5.561755970120429993e-04
-2.232516882941126823e-03
-3.568907914086594246e-06
6.190902786329388618e-04
-1.655030209803953767e-04
6.423504557460546494e-03
-1.473943237215280533e-03
2.506568096578121185e-03
7.723290938884019852e-03
-6.265058647841215134e-03
3.159581683576107025e-03
7.346552331000566483e-03
2.239377936348319054e-03
6.496636160591151565e-06
4.458470735698938370e-03
-1.858907751739025116e-03
-1.168904011137783527e-03
-1.040311763063073158e-03
-8.869887096807360649e-04
4.691025824286043644e-04
2.418295945972204208e-03
-1.889095176011323929e-03
-1.191521878354251385e-03
-3.035995410755276680e-03
1.242945785634219646e-03
8.909880416467785835e-04
3.449239593464881182e-04
7.645584642887115479e-03
-4.084023647010326385e-03
1.182177453301846981e-03
7.545814383774995804e-03
-1.262635807506740093e-03
-4.975240153726190329e-05
-4.979015793651342392e-04
-3.117345273494720459e-03
-1.676296582445502281e-03
1.154781412333250046e-02
2.927281195297837257e-03
1.202845014631748199e-03
-1.507311244495213032e-03
-1.657126995269209146e-04
-2.247838565381243825e-04
-8.560940841562114656e-06
4.361047176644206047e-04
1.211191411130130291e-03
4.087455570697784424e-03
-1.081890892237424850e-03
-3.044657933060079813e-04
8.260266622528433800e-04
-2.460653427988290787e-03
-2.476304303854703903e-03
2.708766376599669456e-03
1.797358389012515545e-03
5.156624130904674530e-03
-6.549427635036408901e-04
-1.359352027066051960e-04
1.370389363728463650e-04
7.486928254365921021e-03
4.139143973588943481e-03
-2.174682449549436569e-03
-3.706485964357852936e-03
-3.575224895030260086e-03
4.066530149430036545e-03
-3.680436173453927040e-03
-6.947773508727550507e-04
0.000000000000000000e+00
1.655548112466931343e-03
-9.168257820419967175e-04
-2.691845584195107222e-04
8.209398016333580017e-03
-1.510678441263735294e-03
2.274176338687539101e-03
1.165118737844750285e-04
4.320703446865081787e-04
1.380921021336689591e-04
3.961872775107622147e-03
-2.637258963659405708e-03
5.771060474216938019e-03
-1.292278291657567024e-03
-1.710412907414138317e-03
9.355463553220033646e-04
-2.602322979328164365e-07
-4.658382677007466555e-04
9.179215878248214722e-03
3.538178279995918274e-04
-1.876734429970383644e-03
-2.179322531446814537e-03
8.077427744865417480e-03
-3.936401102691888809e-03
9.609319968149065971e-04
-6.609029369428753853e-04
1.887780381366610527e-04
-8.657016442157328129e-04
-2.838496351614594460e-03
6.897946819663047791e-03
-1.819878467358648777e-03
2.890338422730565071e-03
1.984142931178212166e-03
3.773657837882637978e-03
-9.710683953016996384e-04
1.089009572751820087e-03
-3.091235877946019173e-03
-3.937191329896450043e-03
1.127181225456297398e-03
2.254371298477053642e-03
2.256449777632951736e-03
-2.543553709983825684e-03
5.057929549366235733e-03
1.610376988537609577e-03
1.766759320162236691e-03
-6.461396813392639160e-03
5.601929151453077793e-04
0.000000000000000000e+00
-1.883526783785782754e-05
2.199189737439155579e-03
-5.558307748287916183e-04
5.639870651066303253e-04
5.756862927228212357e-03
-3.637081477791070938e-03
-8.417120552621781826e-04
-1.954184845089912415e-03
2.928480273112654686e-03
-1.020804280415177345e-03
-3.936797380447387695e-03
-8.931483171181753278e-05
-4.141890909522771835e-03
7.793137803673744202e-03
4.329068178776651621e-04
3.753101918846368790e-04
4.220576374791562557e-04
8.850924496073275805e-05
-6.211482686921954155e-04
3.266847459599375725e-03
3.285513492301106453e-03
4.873864352703094482e-03
1.133033540099859238e-03
-2.118504839017987251e-03
-1.546803978271782398e-03
2.109573455527424812e-03
7.784551708027720451e-04
5.794807802885770798e-04
7.480619009584188461e-03
7.563069462776184082e-03
-2.158610295737162232e-04
1.896637608297169209e-03
6.201391806825995445e-05
-2.162576274713501334e-04
-5.945576704107224941e-04
-4.844139912165701389e-04
-6.680728984065353870e-04
6.473579443991184235e-03
-9.090467938221991062e-04
3.226507687941193581e-03
2.020656538661569357e-04
-1.609592465683817863e-03
4.240893293172121048e-03
1.936093576659914106e-05
2.158231218345463276e-04
1.655446249060332775e-04
3.601514890760881826e-06
6.266049458645284176e-04
1.128568314015865326e-03
-1.478556310757994652e-03
1.324176089838147163e-03
1.566149730933830142e-04
3.540479810908436775e-03
6.621557404287159443e-04
-1.848410349339246750e-03
-5.750679410994052887e-04
-5.043539931648410857e-05
-7.860004552640020847e-04
8.470580214634537697e-04
-8.421277743764221668e-05
1.463851076550781727e-04
-3.257215023040771484e-03
3.141031134873628616e-03
7.611094588355626911e-06
7.194107747636735439e-04
-3.328100079670548439e-03
8.307981624966487288e-05
-1.175738652818836272e-04
6.919406354427337646e-03
-4.844910654355771840e-05
-1.764837652444839478e-03
1.094827428460121155e-03
-1.096496009267866611e-03
7.188748568296432495e-04
4.073345044162124395e-04
3.127839183434844017e-03
-2.978486474603414536e-03
-1.584205892868340015e-04
3.538984339684247971e-03
3.712462494149804115e-03
7.828592206351459026e-04
1.439523912267759442e-04
2.660526894032955170e-03
-2.878736238926649094e-03
4.819319117814302444e-03
-3.201811978215118870e-06
-1.973521197214722633e-03
7.986039418028667569e-05
1.866431790404021740e-03
1.092407270334661007e-03
-5.226004403084516525e-03
4.847330041229724884e-03
-1.723662353469990194e-05
0.000000000000000000e+00
-2.542211404943373054e-06
1.449631061404943466e-03
-1.764317545394078479e-07
2.933942945674061775e-03
-4.546603187918663025e-03
-3.669065888971090317e-03
3.703162074089050293e-03
8.184321224689483643e-03
2.392859198153018951e-03
-1.092251972295343876e-03
-2.719156444072723389e-03
-1.064477837644517422e-03
-3.783045976888388395e-04
1.477533369325101376e-03
-4.051906056702136993e-03
-8.146652835421264172e-04
4.571784811560064554e-04
2.385004656389355659e-03
-2.697636373341083527e-04
4.263457376509904861e-04
3.977280575782060623e-03
-1.491462113335728645e-03
7.862739585107192397e-05
-8.822848903946578503e-04
-5.282873287796974182e-03
-2.367710694670677185e-03
7.707457989454269409e-03
4.484544508159160614e-03
-2.278304455103352666e-04
4.038826446048915386e-04
4.803290590643882751e-03
2.870062016882002354e-04
1.281835255213081837e-03
1.165035180747509003e-03
1.260062072105938569e-05
4.008358344435691833e-03
-1.701539498753845692e-03
-1.934613828780129552e-04
-3.261589212343096733e-03
2.239748602733016014e-03
-7.200149411801248789e-05
-6.581977941095829010e-03
2.404904535069363192e-06
6.584488786756992340e-03
-3.375259111635386944e-04
3.012088593095541000e-03
-3.571986919268965721e-03
3.540115896612405777e-03
-1.172315096482634544e-03
3.340303199365735054e-03
5.914348876103758812e-04
1.043337746523320675e-03
5.037679336965084076e-03
3.112745238468050957e-03
1.893342123366892338e-04
-2.382841375947464257e-05
-1.676101819612085819e-03
-7.577851874884800054e-07
1.717123268463183194e-06
5.018566269427537918e-03
-9.315193747170269489e-04
1.699902932159602642e-04
-3.418474225327372551e-03
8.813691325485706329e-03
-5.346707534044981003e-03
3.908118233084678650e-04
3.143742214888334274e-03
-2.482034964486956596e-03
-6.414965127987670712e-07
1.386298448778688908e-03
-2.109142020344734192e-03
3.082606708630919456e-03
-2.041063969954848289e-03
3.202087536919862032e-04
1.656176289543509483e-03
3.309074672870337963e-04
5.033116322010755539e-03
-2.749608211161103100e-05
-4.562993533909320831e-03
2.540174871683120728e-03
1.087414566427469254e-03
-1.519372686743736267e-03
3.139067674055695534e-03
-1.222096150740981102e-03
-3.893224289640784264e-03
2.810969715937972069e-03
-4.150751046836376190e-04
2.013288205489516258e-03
9.173810249194502831e-04
2.271703677251935005e-03
-3.956141299568116665e-04
-4.100877791643142700e-03
2.948350738734006882e-03
1.443914661649614573e-04
-7.940922514535486698e-04
2.746042096987366676e-03
2.878753235563635826e-03
2.967459382489323616e-03
5.406713113188743591e-03
-2.285199239850044250e-03
3.189919283613562584e-03
2.064473665086552501e-05
-3.085167380049824715e-03
2.874933183193206787e-03
-3.410651348531246185e-03
1.418416271917521954e-03
5.818951874971389771e-03
1.561371936986688524e-05
5.433528567664325237e-04
-3.629415063187479973e-03
-2.744958968833088875e-03
2.719976764637976885e-04
0.000000000000000000e+00
4.553500330075621605e-04
-1.583191260579042137e-05
2.183079253882169724e-03
-3.551406320184469223e-03
-2.530462516006082296e-04
3.206193214282393456e-03
-5.512605886906385422e-03
1.834176946431398392e-03
7.829888772903359495e-07
3.567697480320930481e-03
-1.360672467853873968e-04
4.800284281373023987e-03
1.390850637108087540e-03
-3.012909088283777237e-03
-9.254282340407371521e-04
2.785100601613521576e-03
-3.342880634590983391e-03
5.624341065413318574e-05
-2.167198807001113892e-03
-7.485578535124659538e-04
8.771251305006444454e-04
1.251219189725816250e-03
-1.360309834126383066e-04
-1.363086514174938202e-03
-2.699256874620914459e-03
-1.707032206468284130e-03
-3.507873974740505219e-03
-9.762899026100058109e-06
4.156562965363264084e-03
3.672745660878717899e-04
2.916484139859676361e-03
-9.101168834604322910e-04
1.003927609417587519e-04
3.838042262941598892e-03
-1.881231321021914482e-03
-5.272477865219116211e-03
-1.216843375004827976e-03
-3.935883287340402603e-04
-1.557518262416124344e-03
2.044782042503356934e-03
-2.274722326546907425e-03
-4.633233882486820221e-03
-1.421747729182243347e-03
1.105301780626177788e-03
1.648037112317979336e-03
3.101984737440943718e-03
-9.036367991939187050e-04
1.897183828987181187e-03
4.884493537247180939e-03
-2.898565726354718208e-04
-4.165494814515113831e-03
-2.161763841286301613e-03
-2.189993392676115036e-03
-3.981001675128936768e-03
-6.962479801586596295e-06
1.202406110678566620e-06
4.460936412215232849e-03
0.000000000000000000e+00
5.271632107906043530e-04
7.599531207233667374e-03
-6.671639857813715935e-04
-1.908168051159009337e-04
-8.527307654730975628e-04
-2.106292406097054482e-03
-3.221707185730338097e-03
-4.993706243112683296e-04
-2.640514401718974113e-03
-4.267377313226461411e-03
-1.151722899521701038e-04
9.802668355405330658e-04
-3.150970675051212311e-03
-6.268603556236485019e-06
-3.103315364569425583e-03
4.284716211259365082e-03
6.183873396366834641e-03
3.336149384267628193e-04
-3.277371288277208805e-04
5.812597228214144707e-04
-5.023677367717027664e-04
-5.768623850599396974e-06
2.770308356048190035e-07
-2.144904341548681259e-03
2.278969623148441315e-03
-7.576160132884979248e-04
1.242817379534244537e-03
2.478640992194414139e-03
-1.377396984025835991e-03
6.972288712859153748e-03
-2.308089518919587135e-03
3.678997745737433434e-04
-7.101530674844980240e-03
-1.148314913734793663e-03
2.332510921405628324e-04
2.407188061624765396e-03
-1.713294419459998608e-03
-1.392792677506804466e-03
1.410199329257011414e-03
2.568984404206275940e-03
-2.334484015591442585e-04
5.447066389024257660e-03
3.593701170757412910e-03
2.525213407352566719e-03
1.573667977936565876e-03
-1.902905205497518182e-04
-1.557240611873567104e-03
1.429888652637600899e-03
4.248241428285837173e-03
-3.742309854715131223e-05
2.815484767779707909e-03
1.811186783015727997e-03
7.533550524385645986e-05
2.151661283278372139e-05
-5.134411039762198925e-04
-2.948242472484707832e-04
-8.774878224357962608e-04
3.732166951522231102e-03
5.902632619836367667e-05
5.016342271119356155e-03
-7.121819862732081674e-07
-8.189764921553432941e-04
-1.306533929891884327e-03
5.823132232762873173e-04
1.992134843021631241e-03
4.610201285686343908e-04
1.662177732214331627e-03
5.375201813876628876e-03
9.711782331578433514e-04
-1.674509258009493351e-03
-1.889167586341500282e-03
-3.583658835850656033e-04
-4.756095586344599724e-04
-1.447201939299702644e-03
-2.499529393389821053e-03
3.945784177631139755e-03
5.487821530550718307e-03
1.708920695818960667e-03
1.750816474668681622e-03
5.938531830906867981e-04
3.999170847237110138e-03
1.132086967118084431e-03
1.749729388393461704e-03
-2.331895520910620689e-03
-1.796287600882351398e-03
1.512340037152171135e-03
-1.077079679816961288e-03
-3.425984410569071770e-03
-2.605763264000415802e-03
-4.913123790174722672e-03
5.651825922541320324e-04
1.832760404795408249e-03
1.155641875811852515e-04
-1.715042628347873688e-03
2.016008831560611725e-03
2.022609114646911621e-03
1.899366616271436214e-03
-2.190052764490246773e-03
1.241202116943895817e-03
-4.491918298299424350e-05
1.516679883934557438e-03
2.978661796078085899e-03
-1.182681648060679436e-03
1.132996694650501013e-04
-2.243774011731147766e-03
6.152547575766220689e-05
2.200568560510873795e-03
1.485120505094528198e-03
-1.347395125776529312e-03
1.224548439495265484e-03
1.077507622539997101e-03
-1.086797215975821018e-03
-1.406244118697941303e-03
2.793007297441363335e-03
1.100907102227210999e-03
2.255008323118090630e-03
-2.876489656046032906e-03
1.758544007316231728e-03
-1.597542432136833668e-03
3.259663702920079231e-03
5.533241201192140579e-04
-2.004584821406751871e-04
0.000000000000000000e+00
-4.218509886413812637e-03
4.281463101506233215e-03
1.708230585791170597e-03
-2.063031075522303581e-03
-4.947289125993847847e-04
2.505916054360568523e-04
-4.286443581804633141e-04
2.669485111255198717e-04
-1.265526632778346539e-03
8.563638402847573161e-07
-7.668891339562833309e-04
-5.365472752600908279e-03
1.702188281342387199e-03
4.406091647979337722e-06
4.327706992626190186e-03
-2.242437331005930901e-03
8.221355965360999107e-04
-3.599281655624508858e-03
5.456289276480674744e-03
7.826595101505517960e-04
1.745868474245071411e-03
-1.850135857239365578e-03
1.766654313541948795e-03
3.465529007371515036e-04
-1.284975005546584725e-04
2.028226619586348534e-03
0.000000000000000000e+00
1.561868411954492331e-04
7.577997748740017414e-04
-3.378012217581272125e-03
7.196353399194777012e-04
8.955696102930232882e-05
7.845311774872243404e-04
4.736542177852243185e-04
-1.610915758647024632e-03
1.680912333540618420e-03
7.294531445950269699e-03
-3.497542056720703840e-04
-1.442905631847679615e-03
-8.987005276139825583e-05
-1.526421285234391689e-03
-1.153945631813257933e-04
1.964210532605648041e-03
-2.705644816160202026e-03
3.570799715816974640e-03
2.872974844649434090e-03
-3.685190342366695404e-03
4.149654705543071032e-05
4.264580784365534782e-04
-1.303632627241313457e-03
1.098592110793106258e-05
1.055081142112612724e-03
4.278435837477445602e-03
-1.876102411188185215e-03
1.864467514678835869e-03
1.725948881357908249e-03
5.419522523880004883e-03
-4.342839529272168875e-04
-3.075670101679861546e-04
-6.163182115415111184e-05
7.076988928020000458e-03
2.372788032516837120e-03
-1.969903241842985153e-03
9.864789171842858195e-05
9.598585165804252028e-06
-7.652968633919954300e-04
9.914779802784323692e-04
-3.826237283647060394e-03
2.727997722104191780e-03
3.438045387156307697e-04
1.848063984652981162e-04
-3.103826893493533134e-04
-1.709622301859781146e-04
7.207237184047698975e-03
-2.778723137453198433e-03
3.181429347023367882e-03
3.049542894586920738e-03
3.143243666272610426e-04
-4.884414011030457914e-06
8.620547596365213394e-04
-3.429740667343139648e-03
7.777364226058125496e-04
-9.967273799702525139e-04
8.611256419044366339e-08
5.886532017029821873e-05
4.967737368133384734e-07
1.416438142769038677e-03
8.355588070116937160e-04
-4.125831648707389832e-03
-3.970108460634946823e-03
-1.613007771084085107e-05
-2.407861640676856041e-03
-6.931527052074670792e-03
-4.159019794315099716e-03
1.043123658746480942e-03
3.779263701289892197e-03
2.062519546598196030e-03
4.054033779539167881e-04
-4.009559052065014839e-04
-1.822506077587604523e-03
1.818920951336622238e-03
6.935800192877650261e-04
4.704826977103948593e-03
4.706238396465778351e-03
4.706886538770049810e-04
2.192869782447814941e-03
5.430159944808110595e-05
1.956995401997119188e-04
5.785171408206224442e-03
8.555693398193398025e-07
3.889093408361077309e-03
2.447437262162566185e-03
7.746108341962099075e-03
6.541285663843154907e-03
9.819228807828039862e-07
8.460585959255695343e-03
-6.526194192701950669e-05
3.610069863498210907e-03
-1.214707037433981895e-03
-3.221892984583973885e-03
5.204730667173862457e-03
2.151944329398247646e-07
-3.963786177337169647e-03
-1.913226587930694222e-04
-1.865788479335606098e-03
2.389171626418828964e-03
-8.899009117158129811e-05
-7.608408923260867596e-04
-1.452687778510153294e-03
-1.830770634114742279e-03
7.368291844613850117e-04
-2.047470305114984512e-03
5.548088229261338711e-04
-2.013063523918390274e-03
4.226948076393455267e-04
-1.421559718437492847e-03
7.478223997168242931e-04
2.427540719509124756e-03
-2.253114071208983660e-04
3.448855364695191383e-03
9.703534306026995182e-04
-4.919466096907854080e-03
-4.297460895031690598e-03
6.286472082138061523e-03
-7.469570846296846867e-04
1.885403471533209085e-04
2.680747071281075478e-03
-3.369199112057685852e-04
3.824571147561073303e-03
1.574590532982256263e-05
-1.475045224651694298e-03
2.372800838202238083e-03
5.276632029563188553e-03
3.200891951564699411e-04
-4.899969212601718027e-07
2.919154649134725332e-04
5.087674595415592194e-03
-1.829623128287494183e-03
2.040444407612085342e-03
5.598933901637792587e-03
-1.497648539952933788e-03
1.705790964479092509e-05
-1.168104354292154312e-03
-3.068427322432398796e-04
0.000000000000000000e+00
-4.144222475588321686e-03
-3.896947484463453293e-03
-1.682219008216634393e-04
-1.346558474324410781e-05
3.851626068353652954e-03
3.735776117537170649e-04
-1.567201223224401474e-03
-5.798162892460823059e-03
2.122984034940600395e-03
5.844499450176954269e-03
1.697919680736958981e-03
-4.774816799908876419e-03
1.904522068798542023e-03
-5.045739817433059216e-04
5.035120993852615356e-03
3.079490037634968758e-03
0.000000000000000000e+00
-1.616718363948166370e-03
3.694350365549325943e-03
2.387549029663205147e-03
-1.182537409476935863e-03
2.509012410882860422e-04
1.961504109203815460e-03
-6.574336905032396317e-03
-2.409152511972934008e-04
-8.246593642979860306e-04
-3.003610996529459953e-03
-3.777863923460245132e-03
-1.673256396315991879e-03
-2.732247347012162209e-03
-5.628266371786594391e-04
-1.022344105876982212e-03
1.268932130187749863e-03
