8.193212124751880765e-06
3.013998139067552984e-05
5.787873305962421000e-05
-1.834095746744424105e-05
9.371307783112570178e-07
-2.270255572511814535e-05
3.415322862565517426e-05
2.451033469696994871e-05
4.172961780568584800e-06
-4.682754297391511500e-05
7.600985099998069927e-06
1.201771192427258939e-05
-6.883581136207794771e-06
-4.925416942569427192e-05
4.527912096818909049e-06
1.286867245653411373e-06
-1.280774540646234527e-05
-8.699979844095651060e-06
-1.755423727445304394e-05
-5.519129626918584108e-05
-2.747586677287472412e-06
6.077529178583063185e-05
-2.489052894816268235e-05
-2.524561932659707963e-05
1.449774299544515088e-05
6.139208562672138214e-05
-6.031922021065838635e-05
-1.723362656775861979e-04
-6.148039392428472638e-05
3.279007432865910232e-05
3.399241541046649218e-05
3.552635462256148458e-05
-1.585675636306405067e-05
-3.507250312395626679e-06
-1.946157317433971912e-05
2.774033237074036151e-05
-2.878648274418083020e-06
8.305171650135889649e-05
-2.028413837251719087e-05
-5.626458732876926661e-05
1.402846191922435537e-05
3.786682646023109555e-05
-2.273083282489096746e-06
8.158041964634321630e-06
-2.940079320978838950e-05
-2.088063774863258004e-05
3.997801832156255841e-05
-2.259861867059953511e-05
-5.342194708646275103e-05
-8.427113789366558194e-05
7.777899554639589041e-06
6.821200258855242282e-06
-2.433365989418234676e-05
-1.052539155352860689e-04
1.295960100833326578e-05
6.684765685349702835e-05
-5.997572770866099745e-06
1.785485255823004991e-05
7.464228838216513395e-05
-3.135541192023083568e-05
-3.515052594593726099e-05
2.106772990373428911e-05
-4.200682815280742943e-05
-2.596590456960257143e-05
-5.258293185761431232e-06
-9.857185432338155806e-06
6.442501035053282976e-05
-2.519298686820548028e-05
5.454164420370943844e-05
5.968216100882273167e-06
-4.602514673024415970e-05
-9.933890396496281028e-05
1.812561094993725419e-05
-2.370252190075916587e-07
3.338294482091441751e-05
-4.394933421281166375e-05
-2.487313213350716978e-05
-7.694851547057623975e-07
-2.983498416142538190e-05
0.000000000000000000e+00
-1.597289337951224297e-05
6.748879968654364347e-05
-3.956339060096070170e-05
-5.377391971705947071e-06
-1.277237697649979964e-05
-1.909046295622829348e-05
-7.760142761981114745e-05
5.265801883069798350e-05
-2.834632141457404941e-05
2.479548493283800781e-05
1.646334567340090871e-06
-5.161487933946773410e-05
4.194275243207812309e-05
1.811545303098682780e-06
5.483017503138398752e-06
5.457142833620309830e-05
-4.335768153396202251e-06
3.135920633212663233e-05
-1.964669900189619511e-05
-8.623691246611997485e-05
4.332400465045793680e-07
9.557012958794075530e-08
7.581643330922815949e-06
-1.037792208080645651e-05
-3.789119546127039939e-06
-2.473251515766605735e-05
-4.121568781556561589e-05
-3.297954390291124582e-05
1.763022737577557564e-05
-4.536742198979482055e-05
9.945014608092606068e-05
1.137483268394134939e-04
7.675859524169936776e-05
0.000000000000000000e+00
2.399688128207344562e-07
-5.649959712172858417e-05
-1.118775116992765106e-06
2.950275302282534540e-05
5.702771090909664053e-07
-4.378275946237408789e-07
4.217658442939864472e-06
-1.229898771271109581e-05
-4.608409199136076495e-06
-5.393516403273679316e-05
-3.464427572907879949e-05
1.335742672381456941e-05
-1.261448232980910689e-06
-2.952868453576229513e-05
1.266566528101975564e-06
-4.650561095331795514e-06
7.987512617546599358e-06
-5.584720929618924856e-05
8.899395652406383306e-06
-1.878841248981188983e-05
7.259696303663076833e-06
-1.484488348069135100e-05
-1.889902705443091691e-06
-4.003603862656746060e-06
5.243919986241962761e-06
-7.295186514966189861e-05
1.275337217521155253e-05
2.401452775302459486e-06
4.562101366900606081e-06
3.596991518861614168e-05
-2.809556644933763891e-05
1.695211831247434020e-04
0.000000000000000000e+00
-1.361750037176534534e-07
-2.971519825223367661e-05
1.859675649029668421e-07
-6.134843715699389577e-05
-7.623172859894111753e-05
-2.573170422692783177e-05
-3.437932537053711712e-05
1.276582452192087658e-06
-1.189842987514566630e-05
4.339673978392966092e-05
-1.829849861678667367e-05
2.257591222587507218e-05
0.000000000000000000e+00
-1.731407610350288451e-05
2.287518100274610333e-06
2.592310556792654097e-05
2.952633985842112452e-05
3.379967529326677322e-05
-2.178902468585874885e-05
-2.436713202769169584e-06
1.178029742732178420e-05
-1.099200380849651992e-05
9.721740752866026014e-06
2.145904909411910921e-05
1.191473074868554249e-05
-4.828552118851803243e-05
-5.444675844046287239e-05
-1.122980975196696818e-04
7.591625944769475609e-06
-3.888528112838685047e-07
-5.024882921134121716e-05
2.267374657094478607e-05
1.615179462532978505e-05
5.815219628857448697e-05
2.177431088057346642e-05
7.289329369086772203e-05
-2.857537947420496494e-05
-1.283166238863486797e-05
-6.516033317893743515e-05
1.213634914165595546e-05
-1.126259521697647870e-04
-1.249971683137118816e-04
-2.719807525863870978e-05
-3.910436134901829064e-05
-1.930668531713308766e-06
-6.966574801481328905e-06
2.333985685254447162e-05
-4.869721306022256613e-05
1.333506588707678020e-05
4.817704757442697883e-05
-5.949005208094604313e-05
-6.612049764953553677e-05
3.184736488037742674e-05
-6.951600425963988528e-06
-5.603512181551195681e-05
-3.087005552515620366e-06
-9.776491424418054521e-06
-6.648427188338246197e-06
-2.545911411289125681e-05
-3.883631870849058032e-05
3.224956890335306525e-05
2.743767799984198064e-05
7.249336704262532294e-06
1.539488380331022199e-06
1.364073104923591018e-04
-2.115813549607992172e-05
-7.611261025886051357e-07
-5.813815005240030587e-05
5.034959394834004343e-05
9.555825818097218871e-05
3.782387648243457079e-05
-1.430128850188339129e-05
-8.340020940522663295e-06
3.244050822104327381e-05
3.946385913877747953e-05
0.000000000000000000e+00
6.109813693910837173e-05
1.312037929892539978e-04
-6.080550178921839688e-07
-4.608137169270776212e-05
-4.702707883552648127e-05
3.670866135507822037e-07
-4.538171924650669098e-05
1.021612479235045612e-05
-8.277710549009498209e-06
-2.281052911712322384e-05
-3.228394052712246776e-05
-1.145645819633500651e-05
-3.441931403358466923e-05
-2.695193870749790221e-05
-1.598586641193833202e-05
3.335907604196108878e-05
3.063500480493530631e-05
4.013601937913335860e-06
5.605894693871960044e-05
6.279384979279711843e-05
1.997083813876088243e-07
0.000000000000000000e+00
5.270647761790314689e-06
5.170155054656788707e-05
5.133832019055262208e-05
4.050278948852792382e-05
-2.056620905932504684e-05
-4.857928070123307407e-05
2.186715937568806112e-05
-4.620080289896577597e-06
-3.448509596637450159e-05
-4.320159496273845434e-05
3.684606417664326727e-05
-5.129315832164138556e-05
-2.901583866332657635e-05
1.572737892274744809e-05
-7.633110726601444185e-06
7.605206337757408619e-05
-5.648900696542114019e-05
-3.200990704499417916e-06
1.749697548802942038e-05
6.138176559034036472e-06
8.658797128191508818e-07
0.000000000000000000e+00
-1.651214734010864049e-05
-9.368309292767662555e-06
1.590469037182629108e-05
1.028347760438919067e-04
-1.088502176571637392e-04
5.611584128928370774e-06
1.901587347674649209e-05
1.484900622017448768e-05
-3.476248821243643761e-05
1.525921288703102618e-05
2.272507117595523596e-06
1.728355528030078858e-05
-1.474869532103184611e-05
1.320486899203388020e-05
-6.319656677078455687e-06
-2.805426629493013024e-05
-3.072110484936274588e-05
-1.494704247306799516e-05
2.866818067559506744e-05
-5.755889651481993496e-05
-8.768418410909362137e-06
3.288677908130921423e-05
-2.920884526247391477e-06
-3.734818164957687259e-05
2.167561615351587534e-05
-4.666061613534111530e-06
4.381042890599928796e-05
6.858975211798679084e-06
-2.750138264673296362e-05
7.377387373708188534e-05
-6.805513112340122461e-05
-1.450798590667545795e-04
-3.463430402916856110e-05
-1.794727268134010956e-06
4.237485336489044130e-05
5.331255124474409968e-06
0.000000000000000000e+00
4.192182245787989814e-08
-1.458878887206083164e-05
-3.331519837956875563e-05
3.355535227456130087e-05
-5.715162478736601770e-05
-8.787079423200339079e-05
5.733819853048771620e-05
-2.193928776250686496e-05
-1.776690078258980066e-05
-3.437702252995222807e-05
1.315064218943007290e-05
-3.111550540779717267e-05
1.328752987319603562e-04
6.201079031598055735e-06
9.154799045063555241e-06
7.163423106248956174e-06
6.722332909703254700e-05
-3.871912122122012079e-05
9.930766282195691019e-06
-1.232481281476793811e-06
9.285537089454010129e-06
2.707718886085785925e-05
5.360879731597378850e-05
-1.678381977399112657e-06
6.446083716582506895e-05
3.139414184261113405e-05
-4.714809256256558001e-05
-4.350330345914699137e-05
8.966051973402500153e-05
1.464644014959048945e-07
-1.674874692980665714e-05
2.315970050403848290e-05
-3.367692988831549883e-05
5.334708930604392663e-06
1.616554800420999527e-05
0.000000000000000000e+00
-1.680394962022546679e-05
-1.069966219802154228e-05
-1.362705916108097881e-05
-1.754472941684070975e-05
-4.569717930280603468e-06
-9.199252417602110654e-06
8.223501026805024594e-06
1.564158010296523571e-04
-4.974099283572286367e-05
-1.255025836144341156e-06
-5.147286356077529490e-05
1.449506817152723670e-05
5.002870011594495736e-07
-1.338744732493069023e-05
-3.791123162955045700e-05
5.351967047317884862e-07
-9.211963333655148745e-05
2.446114012855105102e-05
1.624058677407447249e-05
6.889610176585847512e-06
-8.067413727985695004e-05
-9.368432984047103673e-06
1.595887079020030797e-05
-2.115910319844260812e-06
-4.992971662431955338e-05
-7.224772957670211326e-07
1.840830736909992993e-05
-1.216894543176749721e-05
2.408353566352161579e-06
2.211750870628748089e-05
-6.222348019946366549e-06
1.702308964013354853e-06
1.787384098861366510e-05
-3.633183951023966074e-05
-5.525463348021730781e-05
4.378120502224192023e-05
8.149604582285974175e-07
-1.614580469322390854e-08
-2.280885746586136520e-05
4.937746325595071539e-06
-5.355390385375358164e-05
-3.833852679235860705e-05
3.263013240939471871e-06
7.399979949695989490e-05
-1.658311134633549955e-06
-1.714191785140428692e-05
-5.113679799251258373e-05
1.333921954937977716e-05
8.809724022285081446e-06
3.626953184721060097e-05
7.734356586297508329e-06
-1.007558410037745489e-07
3.252157694078050554e-05
-2.122390651493333280e-05
0.000000000000000000e+00
-3.744143759831786156e-05
-4.294616883271373808e-05
1.561417229822836816e-05
-1.345905820926418528e-05
-7.872110472817439586e-06
-6.365113222273066640e-06
3.470448427833616734e-05
8.896319195628166199e-05
-1.575776514073368162e-05
-2.741973366937600076e-05
1.016626083583105356e-05
1.407686340826330706e-07
-1.059485439327545464e-04
-4.850334789807675406e-06
-6.800868050049757585e-06
1.994801641558296978e-05
4.529517173068597913e-05
-4.570513920043595135e-05
-1.488060952397063375e-04
4.213944521325174719e-06
1.788128065527416766e-05
-1.914121094159781933e-05
1.016778423945652321e-05
-2.839426997525151819e-05
-1.490972317697014660e-05
2.205875489380559884e-06
1.864620207925327122e-05
-8.142657316057011485e-05
0.000000000000000000e+00
-3.360036862432025373e-05
-4.980178709956817329e-05
-6.096499873819993809e-07
8.563662049709819257e-06
2.405846771580399945e-06
-1.219143669004552066e-04
4.139800694247242063e-06
8.657542821310926229e-06
-6.571701305801980197e-06
2.436593240418005735e-05
1.252986021427204832e-05
-1.680632522038649768e-05
8.903555863071233034e-05
-8.019198503461666405e-06
-4.873557827522745356e-06
2.994105307152494788e-05
-4.994029586669057608e-05
4.632239142665639520e-05
-3.813460352830588818e-05
4.933361196890473366e-05
-8.233315384131856263e-06
-1.821540990931680426e-06
-1.205849548568949103e-05
-2.349337228224612772e-05
-2.884783896206499776e-07
-3.509046291583217680e-05
-2.977114490931853652e-05
-3.281122189946472645e-05
-2.735505404416471720e-06
-6.335476064123213291e-05
4.384125986689468846e-06
4.443782472662860528e-06
1.813575545384082943e-05
1.651202910579741001e-05
-3.019383075297810137e-05
4.581393682201451156e-07
-1.153122138930484653e-05
-1.205121634484385140e-06
9.633726222091354430e-06
-6.098561584622075316e-07
4.503540549194440246e-05
-6.424410798899771180e-07
2.064111322397366166e-05
5.762204636994283646e-06
1.279359707950789016e-06
-9.748104275786317885e-06
-1.503775820310693234e-05
1.102087662729900330e-05
-3.110085526714101434e-05
1.243149199581239372e-05
2.839870285242795944e-05
-2.957776086986996233e-05
1.581832066221977584e-06
2.793030762404669076e-05
-9.141838381765410304e-05
-6.351410411298274994e-05
-5.050540130469016731e-05
1.092378442990593612e-05
-1.660530870140064508e-06
-7.145920790208037943e-06
2.707976091187447309e-05
5.545216117752715945e-05
-8.116653771139681339e-05
1.909378806885797530e-05
3.274312621215358377e-05
-5.040206474404840264e-07
-6.085661516408436000e-05
-5.019020682084374130e-05
-3.420622306293807924e-05
-6.681851664325222373e-05
1.631820305192377418e-05
3.679233850562013686e-05
-9.387009413330815732e-06
-1.266299659619107842e-05
5.938161484664306045e-05
1.384457573294639587e-05
-1.386307703796774149e-04
3.208692942280322313e-05
-8.504481229465454817e-06
1.480932260164991021e-04
8.810367580736055970e-05
-1.102890455513261259e-04
0.000000000000000000e+00
-2.752667751337867230e-05
-3.669259967864491045e-06
1.227003212989075109e-05
3.413211015868000686e-05
9.255905752070248127e-05
5.402910755947232246e-05
-2.054356542657842510e-07
1.649539598247429240e-07
-2.155242327717132866e-05
-3.081228351220488548e-05
-2.321865758858621120e-05
2.119589771609753370e-05
-2.471708285156637430e-05
-2.206115823355503380e-05
-1.810357207432389259e-05
6.644353106821654364e-06
-4.395869109430350363e-05
1.848725878517143428e-05
-1.020287527353502810e-06
1.012882603390607983e-05
6.229508289834484458e-05
1.653789922784199007e-06
-2.459170173096936196e-05
-6.492334796348586679e-05
-1.076301487046293914e-04
-1.960419467650353909e-05
-4.958448016623151489e-07
-5.468631570693105459e-06
4.662575975089566782e-06
0.000000000000000000e+00
-4.371828254079446197e-05
3.583878424251452088e-05
6.563657370861619711e-05
2.705660517676733434e-05
0.000000000000000000e+00
-1.769535629136953503e-08
2.613296373965567909e-06
-8.016882929950952530e-05
-4.178474046057090163e-05
-6.858267624920699745e-07
9.816472447710111737e-05
-9.360785770695656538e-05
9.809352195588871837e-05
4.581485700327903032e-05
-4.089904177817516029e-05
2.380245678068604320e-05
5.561494253925047815e-05
-1.112080826715100557e-05
-4.354626798885874450e-05
-3.154048317810520530e-05
-1.795553998817922547e-07
-8.578882989240810275e-05
3.207456757081672549e-05
-4.830773832509294152e-06
3.827981345239095390e-05
-5.482816777657717466e-05
1.140552485594525933e-04
-4.066065957886166871e-05
2.844915252353530377e-05
-1.769861955835949630e-05
2.924348882515914738e-05
3.437259147176519036e-05
-9.305877028964459896e-07
-1.173328109871363267e-05
-1.498534038546495140e-05
3.666900283860741183e-06
-4.575701677822507918e-05
-1.195066852233139798e-05
2.113187747454503551e-06
-1.096919186238665134e-05
-6.050696902093477547e-05
0.000000000000000000e+00
-3.202856169082224369e-05
-1.313120355916908011e-05
-7.816909783286973834e-05
5.889319800189696252e-05
6.661204224656103179e-06
3.252769965911284089e-05
1.276343664358137175e-05
2.555458377173636109e-05
-2.440910611767321825e-05
5.095294909551739693e-05
-1.148863066191552207e-05
-1.709700154606252909e-05
1.561347926326561719e-05
-2.842547110049054027e-05
-8.785232239461038262e-07
-3.277523137512616813e-05
6.469176241807872429e-06
-6.518364534713327885e-05
5.539774974749889225e-06
-1.091428885047207586e-06
5.487076123245060444e-05
1.154598885477753356e-05
-1.435505146218929440e-05
4.504285698203602806e-06
-1.590793908690102398e-05
8.505472942488268018e-05
1.460764360672328621e-05
-1.377958142256829888e-05
-4.171464752289466560e-06
-7.497476326534524560e-05
2.473071617714595050e-05
1.795910065993666649e-04
-1.601259646122343838e-05
-3.545598883647471666e-05
-3.745398862520232797e-05
0.000000000000000000e+00
-2.350474278500769287e-05
5.121052527101710439e-05
2.221587692474713549e-06
1.569911887600028422e-06
-2.919756479968782514e-05
-1.079690991900861263e-05
1.103276099456707016e-05
-1.244189661520067602e-05
1.229473764396971092e-05
1.778421574272215366e-04
7.265152362379012629e-06
5.472462726174853742e-05
-1.760301711328793317e-05
-1.477472833357751369e-04
3.301558172097429633e-05
6.313869107543723658e-06
1.464502020098734647e-05
2.871729338949080557e-05
-7.659890252398326993e-05
-9.097935253521427512e-05
-7.181172804848756641e-06
-2.144286918337456882e-05
5.633905311697162688e-05
-3.153436409775167704e-05
5.693424463970586658e-05
-2.492127350706141442e-06
7.328393985517323017e-05
-7.307098712772130966e-05
-3.040966475964523852e-05
-2.095939271384850144e-05
-3.372226638020947576e-05
-1.341854567726841196e-05
8.965521556092426181e-05
8.466067083645612001e-05
-2.659296342244488187e-06
1.633737338124774396e-05
-9.020108336699195206e-06
-5.617822898784652352e-05
-1.748545764712616801e-05
-4.193257700535468757e-05
1.880547870314330794e-06
-6.575520092155784369e-05
7.095751789165660739e-05
-1.590009560459293425e-05
-5.736691491620149463e-06
-2.151631088054273278e-05
1.249391061719506979e-04
-2.796147236949764192e-05
0.000000000000000000e+00
-5.225955464993603528e-05
2.751310239546000957e-05
-2.989916538354009390e-05
3.663214010884985328e-05
-4.546408308669924736e-05
-5.372064606490312144e-07
6.605379439861280844e-06
-6.736640352755784988e-05
-3.963531071349279955e-06
2.108462649630382657e-05
3.662454673758475110e-06
-1.354181335955217946e-06
-1.063133095158264041e-05
9.343015335616655648e-06
-2.621406565594952554e-05
-2.425854472676292062e-05
2.294905425515025854e-05
-1.636429715290432796e-06
-1.319426701229531318e-07
3.405169263714924455e-05
-3.573554204194806516e-05
0.000000000000000000e+00
-3.040625415451359004e-05
7.979327165230643004e-06
-1.654800485084706452e-06
3.375882806722074747e-05
1.081144773706910200e-06
1.117939063988160342e-05
-2.939883052022196352e-05
3.892767199431546032e-05
-4.770150553667917848e-06
-6.317391125776339322e-06
2.252923195555922575e-06
-2.173410030081868172e-05
-2.234592466265894473e-05
8.361405889445450157e-06
-3.858176853555050911e-07
1.035164586937753484e-05
3.179699342581443489e-05
-7.071376330713974312e-06
-6.253295623537269421e-07
-2.793690555336070247e-06
6.355336518026888371e-05
2.821172893163748085e-05
-7.281664147740229964e-05
-2.310221316292881966e-05
4.593081757775507867e-05
3.090222526225261390e-05
-2.131839664798462763e-06
-1.850687294790986925e-05
-4.044094748678617179e-05
8.407212590100243688e-06
9.621164645068347454e-05
-3.183450462529435754e-05
-5.407088974607177079e-05
-1.385605355608277023e-05
-1.524541494291042909e-05
2.848039366654120386e-05
-5.024823258281685412e-05
1.385012437822297215e-04
6.986454650359519292e-07
-3.897855640389025211e-05
-6.216956990101607516e-06
-1.080079746316187084e-04
-8.176441951945889741e-06
-9.716943168314173818e-06
-1.274857204407453537e-04
-8.241982868639752269e-06
3.404356539249420166e-05
2.322753789485432208e-05
1.171387111753574573e-06
0.000000000000000000e+00
-2.704172402445692569e-05
-1.472208850827882998e-06
7.548020221292972565e-05
-1.734683610266074538e-05
-3.795142401941120625e-05
1.919739952427335083e-05
-5.344807505025528371e-05
1.241312202182598412e-05
-5.514871736522763968e-05
-2.252488957310561091e-05
-2.874004849218181334e-06
4.160474418313242495e-06
-1.081333812180673704e-05
1.267667994397925213e-05
5.615659119939664379e-07
7.312518391699995846e-06
-1.498214260209351778e-05
3.530532922013662755e-05
1.527874883322510868e-05
-3.292439214419573545e-05
-4.549894219962880015e-05
-1.206783508678199723e-05
-2.827774915203917772e-05
3.286494757048785686e-05
-2.659142774064093828e-05
2.807530108839273453e-06
-4.808633093489333987e-06
3.159695916110649705e-05
3.670591831905767322e-05
8.531339517503511161e-06
1.122734647651668638e-05
5.826946107845287770e-07
2.174810288124717772e-05
-4.381835242384113371e-05
1.542020982014946640e-05
-6.557162578246789053e-06
-6.148566171759739518e-05
-9.058396972250193357e-05
1.017770409816876054e-05
-3.605546589824371040e-05
-1.668350741965696216e-04
-2.179342845920473337e-05
-3.963829385611461475e-06
3.184804518241435289e-05
-4.551146048470400274e-05
8.641615067972452380e-07
-4.738185816677287221e-05
3.945692697016056627e-06
2.464987665007356554e-05
3.040583214897196740e-05
-4.134508344577625394e-05
1.601652911631390452e-05
-6.493179171229712665e-06
-3.068284422624856234e-05
-2.258707809232873842e-06
8.936618542065843940e-06
8.038773557927925140e-07
1.515182930234004743e-07
9.346442675450816751e-05
0.000000000000000000e+00
8.651486496091820300e-06
-1.998219340748619288e-05
-2.752192267507780343e-05
1.235364325111731887e-04
-4.112040187465026975e-05
-2.576727638370357454e-06
-5.465320555231301114e-06
-3.292729888926260173e-05
-6.091027444199426100e-06
-4.525329586613224819e-06
1.299915220442926511e-05
-9.898051212076097727e-05
1.299001087318174541e-05
-5.008387961424887180e-05
6.477840543084312230e-06
0.000000000000000000e+00
-3.638980342657305300e-05
-3.380879206815734506e-05
-3.377881967026041821e-06
2.254609171359334141e-06
1.293968216486973688e-05
3.785685112234205008e-05
-8.281947998511896003e-07
-8.851734492054674774e-07
-1.907949626911431551e-05
-9.868605957308318466e-06
5.135900937602855265e-05
3.122946873190812767e-05
2.978836528200190514e-05
2.145776306861080229e-05
-1.004019213723950088e-04
5.832859096699394286e-05
1.679994056758005172e-05
9.330623470304999501e-06
1.184975553769618273e-05
-3.851560450129909441e-06
2.258381937281228602e-05
3.742736112144484650e-07
-1.125628477893769741e-04
-7.554928743047639728e-05
1.602257361810188740e-05
-1.532700480311177671e-05
6.850490171927958727e-05
3.598995590436970815e-07
6.896203558426350355e-06
-2.945765299955382943e-05
-1.823123625399603043e-07
-3.950640166294761002e-05
-1.605918805580586195e-05
1.088230274035595357e-04
2.617758127598790452e-06
-2.709579712245613337e-05
8.269456156995147467e-05
-2.196843161073047668e-05
1.989951124414801598e-05
-5.291429624776355922e-05
-3.167066097375936806e-05
6.150588887976482511e-06
-9.086564887184067629e-07
-3.457895945757627487e-05
-5.460973625304177403e-06
-3.086787546635605395e-05
-2.793505154841113836e-05
5.272554972179932520e-06
-9.856747055891901255e-05
6.670001084785326384e-08
4.231897037243470550e-05
-7.451548071912839077e-07
2.521267379052005708e-05
-7.092580199241638184e-05
-2.822843998728785664e-05
-1.407121271768119186e-05
7.470497962458466645e-07
5.806600142932438757e-07
-3.620445568230934441e-06
2.600722552870138315e-07
-1.203883857670007274e-05
-1.578501396579667926e-04
-3.455201658653095365e-05
-6.272684345276502427e-07
3.089710298809222877e-05
-5.483146381379810919e-08
2.446591315674595535e-05
-1.166389483842067420e-04
5.928627160756150261e-06
-4.721480945590883493e-05
-4.808089579455554485e-05
0.000000000000000000e+00
1.816196345316711813e-05
-1.691804186521039810e-06
1.621404635443468578e-06
1.162643116003891919e-06
9.870583016891032457e-05
5.499804956343723461e-06
-3.367559838807210326e-05
2.125688297383021563e-06
-2.879926250898279250e-05
6.806381134083494544e-05
7.157399977586464956e-06
2.301514996361220255e-07
-2.700026016100309789e-05
6.900870062054309528e-07
-2.120185854437295347e-05
8.206379789044149220e-06
-2.837698957591783255e-05
4.155103852099273354e-06
1.016141759464517236e-04
-1.175891384264105000e-07
1.468862410547444597e-05
-1.345088776361080818e-06
5.198841336095938459e-06
4.341486032899410930e-07
2.504317762941354886e-06
9.018416676553897560e-06
-2.435728674754500389e-05
-1.101363595807924867e-04
-3.243239461880875751e-06
-1.137315484811551869e-05
8.529163096682168543e-06
5.913998393225483596e-07
2.979145756398793310e-05
1.353462903352919966e-05
-8.316601451952010393e-07
2.302689244970679283e-05
5.157951363798929378e-07
3.796107193920761347e-06
-5.328554470906965435e-05
1.993975274672266096e-05
-1.799722667783498764e-05
4.010084740002639592e-05
-3.408194606890901923e-05
1.368676407764723990e-06
-2.819520886987447739e-05
-1.848707142926286906e-08
-2.449464045639615506e-05
-1.061137663782574236e-05
1.116448402171954513e-04
-1.479120783187681809e-05
1.990937562368344516e-05
0.000000000000000000e+00
-4.195349902147427201e-05
-2.638827027112711221e-05
5.849621629749890417e-06
1.931985752889886498e-05
-3.400604327907785773e-05
-5.589995271293446422e-05
9.446766853216104209e-06
2.748322458501206711e-06
0.000000000000000000e+00
-4.323083885537926108e-06
3.051116618735250086e-05
1.071673864316835534e-06
-4.204799188300967216e-05
-4.159069248999003321e-06
3.534284405759535730e-05
1.625219374545849860e-05
3.321804342704126611e-07
2.302362190675921738e-05
-3.313051274744793773e-05
-7.178432861110195518e-05
0.000000000000000000e+00
1.879178307717666030e-05
-5.879197942704195157e-06
-2.382778347964631394e-06
-2.509479770651523722e-07
9.965775461751036346e-06
-1.660121961322147399e-05
-4.509261998464353383e-06
9.626335668144747615e-06
2.978945849463343620e-05
-3.623727479862282053e-06
4.407019878271967173e-05
1.618323221919126809e-05
-1.754388722474686801e-05
-1.373041013721376657e-04
1.148976443801075220e-04
3.322059637866914272e-05
-7.314496315302676521e-07
0.000000000000000000e+00
-1.685136376181617379e-04
-3.773174103116616607e-05
4.955350050295237452e-06
1.563116893521510065e-05
-8.097445970633998513e-05
4.842930138693191111e-05
1.281501463381573558e-04
-1.014462941384408623e-05
-1.277055616810685024e-05
-8.672255353303626180e-05
-2.455275171087123454e-05
7.619316420459654182e-06
3.401294816285371780e-05
-1.076342300621035974e-06
7.097153866197913885e-05
2.557536936365067959e-05
-1.838932348618982360e-07
-1.818583405110985041e-05
2.255869003420230001e-05
-1.104908733395859599e-06
1.255942970601608977e-05
2.686834704945795238e-05
1.843008794821798801e-05
3.972748527303338051e-05
2.337460728085716255e-06
-4.924305903841741383e-05
-1.116684070439077914e-04
-2.678317832760512829e-05
2.063221472781151533e-05
2.913023672590497881e-05
-1.163521665148437023e-04
-2.274743746966123581e-05
-6.969366222620010376e-05
-2.658763878571335226e-05
-1.304852503380971029e-06
1.221447860189073253e-06
1.511063019279390574e-04
8.355690079042688012e-05
-1.467687434342224151e-05
2.773788946797139943e-05
1.734996476443484426e-05
9.350579057354480028e-05
5.454544407257344574e-07
-4.458039256860502064e-05
-2.137243245670106262e-05
-6.635372119490057230e-05
1.925660944834817201e-05
-3.809366262430557981e-06
8.332961442647501826e-06
