2.877343073487281799e-02 4.285975918173789978e-02 -1.968019828200340271e-02 4.898290708661079407e-02 -1.389711163938045502e-02 -3.127380087971687317e-02 2.220876328647136688e-02 -5.921070463955402374e-03 3.593965619802474976e-02 4.313672333955764771e-02 -2.652577497065067291e-02 -4.885111749172210693e-02 -8.200267329812049866e-03 2.881129086017608643e-02 1.805415260605514050e-03 4.708083812147378922e-03 -1.363413990475237370e-03 4.367841035127639771e-02 1.474757865071296692e-02 -2.759325318038463593e-02 2.720770053565502167e-02 -1.051116827875375748e-02 1.921088062226772308e-02 -2.675525844097137451e-02 -3.339340444654226303e-03 -9.009285829961299896e-03 2.843707799911499023e-02 3.791573271155357361e-02 -1.082476414740085602e-02 2.067378908395767212e-02 3.040270693600177765e-02 2.792906574904918671e-02 -4.354029893875122070e-02 3.317911643534898758e-03 1.026005763560533524e-02 2.217727899551391602e-02 4.968306422233581543e-02 -4.492201283574104309e-02 1.082328334450721741e-02 3.658056631684303284e-02 -1.781634427607059479e-02 6.011437624692916870e-03 4.246050491929054260e-02 -3.014505654573440552e-02 3.388627618551254272e-02 4.601609706878662109e-02 2.701559802517294884e-03 -2.651029266417026520e-02 -4.074877593666315079e-03 -1.416799519211053848e-02 -4.594437777996063232e-02 -6.047540809959173203e-03 -2.052341355010867119e-03 -2.138297259807586670e-02 -1.955387741327285767e-02 4.563488438725471497e-02 -5.645734723657369614e-03 2.509752474725246429e-02 3.244049847126007080e-02 -2.407707087695598602e-02 -1.604527421295642853e-02 2.565265446901321411e-02 1.993848942220211029e-02 3.254172578454017639e-02 1.341316569596529007e-02 8.646595291793346405e-03 2.201090939342975616e-02 1.583490893244743347e-02 -2.975510247051715851e-02 -3.014967963099479675e-02 -3.895550593733787537e-02 3.769071027636528015e-02 3.686589747667312622e-02 2.473042905330657959e-02 4.783448576927185059e-02 -2.681107632815837860e-02 -9.574202820658683777e-03 -4.712216183543205261e-02 4.689395055174827576e-02 2.499534934759140015e-02 3.150171786546707153e-02 2.998684300109744072e-03 2.954217419028282166e-02 4.667832702398300171e-02 -1.315414439886808395e-02 -3.252907469868659973e-02 -3.212615847587585449e-02 -4.844859614968299866e-02 -4.017210006713867188e-02 1.825926825404167175e-02 -1.043243985623121262e-02 1.942979730665683746e-02 -8.469533175230026245e-03 1.091214548796415329e-02 1.179674081504344940e-02 -4.353807866573333740e-02 2.363172359764575958e-02 4.687138274312019348e-02 3.542133048176765442e-02 -3.119297558441758156e-03 -8.936518803238868713e-03 -2.542971447110176086e-02 -3.551493957638740540e-02 -3.620639815926551819e-02 1.132304593920707703e-02 -9.808667004108428955e-03 -4.704624786972999573e-02 -4.396264255046844482e-02 4.343452304601669312e-02 -1.742110028862953186e-02 5.431295372545719147e-03 4.401044920086860657e-02 3.998298197984695435e-02 -7.763468660414218903e-03 -2.325657755136489868e-02 1.410635188221931458e-03 9.616528637707233429e-03 1.150749996304512024e-02 -3.117938339710235596e-02 -3.181093139573931694e-03 -3.047683835029602051e-02 -3.554161172360181808e-03 4.745877534151077271e-02 -3.176336735486984253e-02 -4.573008045554161072e-02 -1.038471050560474396e-02 -4.025289043784141541e-02 4.494367539882659912e-02 -2.754374034702777863e-02 3.801003913395106792e-05 2.547368966042995453e-02 1.250875834375619888e-02 -3.391798958182334900e-02 3.763203741982579231e-03 -3.120141476392745972e-02 -3.493225201964378357e-02 -3.640471026301383972e-02 -8.880957961082458496e-03 2.622726373374462128e-02 -6.399440113455057144e-03 1.898108609020709991e-02 4.516666755080223083e-02 1.505916006863117218e-03 -3.441479802131652832e-02 1.301247719675302505e-02 -4.812046885490417480e-02 -2.513109333813190460e-02 2.618859708309173584e-02 -3.717778995633125305e-02 1.077719498425722122e-02 -3.286878019571304321e-02 -3.462352976202964783e-02 3.702790290117263794e-02 -2.733668684959411621e-02 -1.847138069570064545e-02 -4.509812220931053162e-02 -2.591375634074211121e-02 1.805878430604934692e-02 2.519822493195533752e-02 4.837493225932121277e-02 -1.266209129244089127e-02 -1.056335959583520889e-02 2.408244647085666656e-02 4.041237756609916687e-02 -4.913087561726570129e-02 3.962554037570953369e-02 -1.746937446296215057e-02 2.240626700222492218e-02 4.786264151334762573e-02 2.984519489109516144e-02 -4.596473649144172668e-02 3.804759308695793152e-02 -4.974196106195449829e-02 2.717998111620545387e-03 3.317555785179138184e-02 -3.408381342887878418e-02 4.301569238305091858e-02 3.463273867964744568e-02 -1.854471676051616669e-02 -3.104628995060920715e-02 2.432815358042716980e-02 -2.922953292727470398e-02 4.315320402383804321e-02 -1.418751850724220276e-02 7.671046536415815353e-03 3.946394100785255432e-02 4.198402166366577148e-02 -1.846054755151271820e-02 4.635642841458320618e-02 -3.739699721336364746e-02 -1.922665163874626160e-02 4.267379641532897949e-02 1.990802586078643799e-03 3.547860682010650635e-02 1.155370566993951797e-02 1.658220030367374420e-02 3.435614705085754395e-02 -3.104028478264808655e-02 1.345625892281532288e-02 -4.504389653448015451e-04 1.169443409889936447e-02 -3.005745820701122284e-02 2.110304310917854309e-02 -4.825647454708814621e-03 2.082042954862117767e-02 3.942853584885597229e-02 3.691160306334495544e-02 2.609364315867424011e-02 4.636596515774726868e-02 2.918923646211624146e-02 -1.999746821820735931e-02 3.468120843172073364e-02 4.965993389487266541e-02 -4.191005229949951172e-02 -1.647157408297061920e-02 2.276471816003322601e-02 -1.973298750817775726e-02 -1.533363293856382370e-02 4.974056500941514969e-03 -4.842456802725791931e-02 -4.744277894496917725e-02 4.856892302632331848e-02 3.156776353716850281e-02 3.914457932114601135e-02 -2.532742172479629517e-02 5.217665061354637146e-02 8.863502182066440582e-03 -3.253185376524925232e-02 -2.069409191608428955e-02 -2.314264886081218719e-02 9.996956214308738708e-03 -3.773725032806396484e-02 1.854445412755012512e-02 4.628641158342361450e-02 7.493000477552413940e-03 1.483307406306266785e-02 3.306311368942260742e-02 4.811457172036170959e-02 -6.041530054062604904e-03 -3.617124259471893311e-02 4.671592637896537781e-02 3.135016188025474548e-02 3.573258966207504272e-02 -4.715697094798088074e-02 -4.515943676233291626e-02 2.255178429186344147e-02 4.611262306571006775e-02 -4.357833787798881531e-02 -3.002584166824817657e-02 3.724859282374382019e-02 1.714216172695159912e-02 -1.107494439929723740e-02 2.921496517956256866e-02 8.336536586284637451e-03 3.471868857741355896e-02 4.335804283618927002e-02 3.369012847542762756e-02 -3.671646118164062500e-02 -2.255104295909404755e-02 4.000892862677574158e-02 6.769999861717224121e-03 2.564277499914169312e-02 -2.786757051944732666e-02 -2.285812422633171082e-02 2.333669178187847137e-02 -5.970147438347339630e-03 1.554759312421083450e-02 -3.715539351105690002e-02 4.488259181380271912e-02 1.167068141512572765e-03 -5.966260563582181931e-03 2.110760286450386047e-02 -3.274708613753318787e-02 -2.407226525247097015e-02 1.495105493813753128e-02 1.089743804186582565e-02 3.037654981017112732e-02 4.435782507061958313e-02 -1.066254545003175735e-02 -4.932374134659767151e-02 2.811499498784542084e-02 -3.642712719738483429e-03 3.199340775609016418e-02 1.998665370047092438e-02 1.677625626325607300e-02 -5.823723622597754002e-04 3.870547562837600708e-02 -3.134813532233238220e-02 -2.959492802619934082e-02 -3.688610717654228210e-02 1.713284477591514587e-02 -4.539733007550239563e-02 -3.216105327010154724e-02 -4.289047047495841980e-02 3.186745941638946533e-02 -2.725163474678993225e-02 3.205467388033866882e-02 -3.712673485279083252e-02 4.479491338133811951e-02 -2.571479417383670807e-02 -4.051630944013595581e-02 2.311949245631694794e-02 -3.809230029582977295e-02 -3.188448026776313782e-02 1.594909094274044037e-02 2.249508351087570190e-02 -4.151898995041847229e-02 4.303842037916183472e-02 -3.468129038810729980e-02 -2.793791517615318298e-02 -3.644319623708724976e-02 8.195696398615837097e-03 2.683663554489612579e-02 3.484961763024330139e-02 -2.949769236147403717e-02 -3.264835476875305176e-02 8.004585281014442444e-03 2.716908417642116547e-02 3.326435014605522156e-02 3.364475443959236145e-02 -3.052457049489021301e-02 4.859391227364540100e-02 3.214709833264350891e-02 -8.871304453350603580e-04 1.017796155065298080e-02 -3.053294308483600616e-02 -1.778846234083175659e-02 -6.100384052842855453e-03 2.883812645450234413e-03 1.579972729086875916e-02 -3.166883066296577454e-02 3.802480176091194153e-02 -2.866107597947120667e-02 4.211156070232391357e-02 1.953637413680553436e-02 -1.786583475768566132e-02 4.975352436304092407e-02 4.795671999454498291e-02 -4.537060111761093140e-02 4.316699877381324768e-02 -2.671445533633232117e-02 3.659154754132032394e-03 4.789430648088455200e-02 2.614941261708736420e-02 4.514345526695251465e-02 3.320887684822082520e-02 4.442963376641273499e-02 1.788852922618389130e-02 1.790348254144191742e-02 -1.494198688305914402e-03 -3.415424004197120667e-02 -2.346318960189819336e-02 5.889850202947854996e-03 3.573643416166305542e-02 -1.390160433948040009e-02 6.472875829786062241e-03 -3.884766623377799988e-02 2.594535984098911285e-02 3.921008855104446411e-02 3.144991025328636169e-02 -4.767590761184692383e-02 1.263189315795898438e-02 -1.629771548323333263e-03 3.260467574000358582e-02 1.274101622402667999e-02 -2.046720683574676514e-02 3.620586125180125237e-03 2.131570316851139069e-02 4.698058590292930603e-02 -4.389152303338050842e-02 9.472735109739005566e-04 -4.757940024137496948e-02 2.136247232556343079e-03 4.054374620318412781e-02 -2.200019359588623047e-02 -4.503583908081054688e-02 -4.625885933637619019e-02 -2.277608774602413177e-02 2.813197299838066101e-02 -3.677271772176027298e-03 -3.695291653275489807e-02 -6.342011503875255585e-03 1.605303026735782623e-02 1.352616492658853531e-02 4.209400340914726257e-02 -6.382333580404520035e-03 4.398009181022644043e-02 3.540761768817901611e-02 4.981796815991401672e-02 -5.876712501049041748e-03 4.257890954613685608e-02 -4.479671269655227661e-02 2.882641367614269257e-02 -3.561944887042045593e-02 -4.994556680321693420e-02 4.759377613663673401e-02 1.610037870705127716e-02 1.061869226396083832e-02 3.699868172407150269e-02 -4.381705448031425476e-02 1.687960885465145111e-02 -1.646974682807922363e-02 2.849330566823482513e-02 1.874222769401967525e-03 -3.459545969963073730e-02 -4.976833611726760864e-02 -2.193961665034294128e-02 1.995868049561977386e-02 -4.631841182708740234e-02 -4.639858752489089966e-02 4.916508495807647705e-02 -3.085230290889739990e-02 -3.642881661653518677e-02 3.783805295825004578e-02 -2.051964402198791504e-02 -3.895948873832821846e-03 -4.218276962637901306e-02 2.937300130724906921e-02 -1.299740630201995373e-03 3.499913588166236877e-02 2.251872327178716660e-03 3.368105366826057434e-02 -2.303836122155189514e-02 4.036180675029754639e-02 -2.560009015724062920e-03 -1.785413362085819244e-02 -3.250393271446228027e-02 3.367128595709800720e-02 -4.528546333312988281e-02 -4.936156794428825378e-02 1.216553896665573120e-02 4.708863049745559692e-02 -4.571284353733062744e-02 -3.093613125383853912e-02 -1.922291703522205353e-02 2.941048331558704376e-02 1.834222639445215464e-04 -1.872008666396141052e-02 -2.580435387790203094e-02 4.139784350991249084e-02 3.207137435674667358e-02 2.295865444466471672e-03 -3.249473497271537781e-02 -1.174785476177930832e-02 2.167100086808204651e-02 -3.106841817498207092e-02 3.986223414540290833e-02 1.962756365537643433e-02 -5.099364556372165680e-03 4.558943212032318115e-02 -3.899823501706123352e-02 1.548656728118658066e-02 2.674512937664985657e-02 2.559673273935914040e-03 -1.149916462600231171e-02 -1.377650909125804901e-02 4.837457463145256042e-02 -1.442801952362060547e-02 -1.595413428731262684e-03 5.121713876724243164e-02 4.549526795744895935e-02 -2.183585986495018005e-02 -4.480527713894844055e-02 -6.261091213673353195e-03 4.045353829860687256e-02 -2.583132870495319366e-02 -3.190139681100845337e-02 9.640655480325222015e-03 4.884775355458259583e-02 4.214109852910041809e-02 -4.197752475738525391e-02 -4.479974508285522461e-02 -2.788727730512619019e-02 1.007767743431031704e-03 4.490790888667106628e-02 -3.615776076912879944e-02 1.308439392596483231e-02 3.108214400708675385e-02 -4.221254214644432068e-02 3.872398659586906433e-02 -7.233961485326290131e-03 4.102900251746177673e-02 4.588128253817558289e-02 1.660511456429958344e-02 -2.327551366761326790e-03 -9.410137310624122620e-03 4.303254932165145874e-02 1.651580445468425751e-02 3.593336790800094604e-02 8.145633037202060223e-04 1.411394868046045303e-02 8.521975018084049225e-03 2.111343108117580414e-02 -4.156192764639854431e-02 -4.335894435644149780e-02 3.243862465023994446e-02 -1.034587528556585312e-02 -4.545263200998306274e-02 -2.263934537768363953e-02 -2.631869167089462280e-02 1.628850214183330536e-02 3.599014878273010254e-02 -3.013464435935020447e-02 9.310673922300338745e-03 6.051097065210342407e-03 -9.163426002487540245e-04 1.499273907393217087e-02 -2.168647758662700653e-02 -4.083940759301185608e-03 4.143394157290458679e-02 3.298249468207359314e-02 4.468452557921409607e-02 1.495272736065089703e-04 -2.987956441938877106e-02 1.349348295480012894e-02 4.386872053146362305e-02 -1.053959596902132034e-02 -6.469296757131814957e-03 8.214744739234447479e-03 4.182998090982437134e-02 2.945309132337570190e-02 4.287349060177803040e-02 2.698438428342342377e-02 5.564990453422069550e-03 4.283411893993616104e-03 -3.711229190230369568e-02 4.433614388108253479e-02 1.150157768279314041e-02 4.379472509026527405e-02 2.627909183502197266e-02 6.832330953329801559e-03 -4.981084913015365601e-02 -2.889206260442733765e-02 3.377965465188026428e-02 -2.688164450228214264e-02 1.141997240483760834e-02 -1.213077176362276077e-02 -4.398951306939125061e-02 4.846627637743949890e-02 4.242988303303718567e-02 4.432530701160430908e-02 -3.560996800661087036e-02 1.946763950400054455e-03 2.106137946248054504e-02 3.575044870376586914e-02 2.010136656463146210e-02 6.360837258398532867e-03 -4.842822998762130737e-02 -1.001733262091875076e-02 3.270646266173571348e-04 2.686921507120132446e-02 -1.778329350054264069e-02 4.068761691451072693e-02 -8.510212413966655731e-03 -4.224410653114318848e-02 -1.588637009263038635e-02 -1.274336501955986023e-02 3.504768712446093559e-03 2.266613580286502838e-02 8.010264486074447632e-03 -7.985927164554595947e-03 -6.803331896662712097e-03 -6.047120317816734314e-03 4.885375127196311951e-02 2.722812443971633911e-02 3.828381374478340149e-02 -4.595419764518737793e-02 -4.430910199880599976e-02 3.612318262457847595e-02 -6.558297318406403065e-04 -3.327357396483421326e-02 -4.358367621898651123e-02 3.451026231050491333e-02 -3.092906670644879341e-03 3.389815241098403931e-02 -1.363496296107769012e-02 -4.508407786488533020e-02 -1.336107263341546059e-03 4.489398002624511719e-02 3.218791633844375610e-02 -1.441949605941772461e-02 -1.851807907223701477e-02 7.368969265371561050e-03 4.523454979062080383e-02 1.854218728840351105e-02 -1.980800926685333252e-02 4.848789796233177185e-02 2.942885272204875946e-02 2.436170540750026703e-02 6.051845848560333252e-03 4.443830996751785278e-02 3.301815688610076904e-02 -4.212194762658327818e-04 1.073805429041385651e-02 -4.398389905691146851e-02 1.029407232999801636e-02 3.065899573266506195e-02 1.708146557211875916e-02 -1.942711696028709412e-02 -4.018234461545944214e-02 1.904328167438507080e-02 -2.099959366023540497e-02 4.342829808592796326e-02 -4.420914500951766968e-02 9.492444805800914764e-03 7.205416448414325714e-03 1.440294366329908371e-02 -4.561836645007133484e-02 -4.837727174162864685e-02 -7.251652423292398453e-03 -3.544610738754272461e-02 6.415387149900197983e-03 -2.740045078098773956e-02 5.789016722701489925e-04 4.596279934048652649e-02 2.126764319837093353e-02 -3.703819960355758667e-02 1.248890440911054611e-02 -2.423989400267601013e-02 -1.149675436317920685e-02 -3.471209853887557983e-02 2.657603845000267029e-02 4.778858646750450134e-02 4.863282293081283569e-02 1.762956008315086365e-02 4.163316637277603149e-02 1.305651292204856873e-02 1.764804683625698090e-02 -3.640275821089744568e-02 4.993489477783441544e-03 -2.977350726723670959e-02 2.838616818189620972e-02 7.320259697735309601e-03 -1.574085652828216553e-02 -1.745225116610527039e-02 -4.591631144285202026e-02 -3.320353478193283081e-02 -4.760436341166496277e-02 -4.099728167057037354e-02 4.068452864885330200e-02 -2.778256498277187347e-02 5.064721778035163879e-02 2.702712954487651587e-04 2.028537355363368988e-02 1.003428641706705093e-02 -4.380124434828758240e-02 -2.989741601049900055e-02 5.898341536521911621e-03 -2.536789700388908386e-02 4.198516532778739929e-02 2.396446838974952698e-02 3.164616599678993225e-02 1.503622252494096756e-02 -4.140392411500215530e-03 2.537306398153305054e-02 -3.683159127831459045e-03 -3.406303003430366516e-02 1.594427227973937988e-02 1.788651756942272186e-02 -2.489453367888927460e-02 1.198723725974559784e-02 -2.983518876135349274e-02 -3.582635428756475449e-03 -1.185344066470861435e-03 -4.393510147929191589e-02 1.836291328072547913e-02 -4.115248844027519226e-02 2.873026207089424133e-02 -3.996082395315170288e-02 -2.358895912766456604e-02 3.144837170839309692e-02 -8.438585326075553894e-03 -2.897380618378520012e-03 -3.949001431465148926e-02 -1.716587319970130920e-02 -1.720273308455944061e-02 1.622443646192550659e-02 -3.459208458662033081e-02 3.580353409051895142e-02 -1.461348216980695724e-02 -1.355939731001853943e-02 -1.918181218206882477e-02 -2.192919515073299408e-02 2.958442643284797668e-02 2.208291739225387573e-02 -3.571761772036552429e-02 1.360896974802017212e-02 7.138766348361968994e-03 -7.153962273150682449e-03 3.422416374087333679e-02 -2.368094585835933685e-02 -4.288233071565628052e-02 -1.836390793323516846e-02 -1.552476268261671066e-02 -3.393227607011795044e-02 -4.804044216871261597e-02 2.382236905395984650e-02 1.127260457724332809e-02 -4.019919782876968384e-02 3.502897452563047409e-03 -3.980896249413490295e-02 -3.308414295315742493e-02 -1.255994720850139856e-04 -4.757514223456382751e-02 2.661467157304286957e-02 5.107896029949188232e-02 1.960150338709354401e-02 -1.524035818874835968e-02 3.598942607641220093e-02 -1.758630387485027313e-02 3.014058060944080353e-02 -6.848805584013462067e-03 -1.945318095386028290e-02 2.943826466798782349e-02 -3.677883371710777283e-02 5.095265060663223267e-02 -3.110939264297485352e-02 5.536141339689493179e-03 2.335271611809730530e-02 3.341779112815856934e-02 6.074871402233839035e-03 -3.898782655596733093e-02 -2.839432284235954285e-02 8.660385385155677795e-03 -5.937400273978710175e-04 -1.475458405911922455e-02 3.507871925830841064e-02 -1.196126826107501984e-02 -9.467492811381816864e-03 -1.467029447667300701e-03 -1.536180544644594193e-02 4.341614246368408203e-02 -1.634075306355953217e-02 -4.715383425354957581e-02 -3.672144562005996704e-02 -3.884011134505271912e-02 -2.433169260621070862e-02 1.152055151760578156e-02 -6.658328493358567357e-05 -2.989179827272891998e-02 -1.647910661995410919e-02 -2.006340026855468750e-02 4.517662152647972107e-02 4.440825805068016052e-02 2.240962581709027290e-03 4.635375365614891052e-02 -4.362288862466812134e-02 1.815045997500419617e-02 -5.044458806514739990e-02 -3.524003177881240845e-02 4.432477988302707672e-03 6.187737017171457410e-05 2.031227946281433105e-02 4.010197892785072327e-02 1.706572435796260834e-02 4.661449790000915527e-02 3.958043456077575684e-02 3.680721670389175415e-02 2.393274940550327301e-02 2.314266003668308258e-02 -4.228349775075912476e-03 2.159978728741407394e-03 -3.172159940004348755e-02 9.518323466181755066e-03 4.307561740279197693e-02 -4.878433421254158020e-02 -1.152518205344676971e-02 -3.904898464679718018e-02 2.864004857838153839e-02 4.609134420752525330e-02 -2.367934025824069977e-02 3.256013989448547363e-02 4.296532273292541504e-02 -4.950918629765510559e-02 -3.612801060080528259e-02 1.210241485387086868e-02 -6.318728439509868622e-03 -4.558826610445976257e-02 -2.788945473730564117e-02 -7.520017214119434357e-03 -1.285951468162238598e-03 2.438455261290073395e-02 -2.434622682631015778e-02 -2.395453676581382751e-02 -1.803332380950450897e-02 6.899093277752399445e-03 9.016970172524452209e-03 2.645139023661613464e-02 1.413286942988634109e-02 3.183084726333618164e-02 -1.278355624526739120e-02 4.796279221773147583e-02 2.190694399178028107e-02 2.207212150096893311e-02 7.020303513854742050e-03 -1.030912715941667557e-02 3.053681552410125732e-02 3.143233805894851685e-02 4.024653881788253784e-02 3.094769455492496490e-02 2.795310132205486298e-02 -2.460336685180664062e-02 4.041455313563346863e-02 -1.402117195539176464e-03 2.747297473251819611e-02 3.317566961050033569e-02 3.556544333696365356e-02 -4.358597844839096069e-02 -4.601984471082687378e-02 -3.924925252795219421e-02 4.935351759195327759e-02 -4.453681036829948425e-02 5.537414923310279846e-03 -3.488321974873542786e-02 2.099121361970901489e-02 4.171048477292060852e-02 -2.650656737387180328e-02 -1.592738553881645203e-02 -2.954182215034961700e-02 -2.957614511251449585e-02 9.900311008095741272e-03 2.879088744521141052e-02 7.322780322283506393e-03 4.834957793354988098e-02 3.856107359752058983e-04 7.722224690951406956e-04 1.344764046370983124e-02 1.446367386961355805e-04 -2.301082573831081390e-02 -2.514496631920337677e-02 1.534526422619819641e-02 -4.099881276488304138e-02 -9.743100963532924652e-03 -3.217426687479019165e-02 8.880702778697013855e-03 2.766845747828483582e-02 6.102230399847030640e-03 -1.836650073528289795e-02 -4.080670326948165894e-02 -2.183686755597591400e-02 4.868946224451065063e-02 -1.011169236153364182e-02 3.349064663052558899e-02 4.857900738716125488e-02 4.618752375245094299e-02 -3.166736662387847900e-02 2.621464058756828308e-02 3.697703825309872627e-03 5.698324181139469147e-03 9.998120367527008057e-03 -4.047087579965591431e-02 1.936443708837032318e-02 -2.295099757611751556e-02 4.580395296216011047e-02 -8.844875992508605123e-05 -2.412355691194534302e-02 -1.779231429100036621e-02 -3.707594051957130432e-02 -1.057258620858192444e-02 -2.304098568856716156e-02 -3.988985717296600342e-02 3.315773326903581619e-03 -3.016182780265808105e-02 -1.901020668447017670e-02 2.267356729134917259e-03 -6.526312325149774551e-03 8.414870128035545349e-03 2.268487028777599335e-02 -2.872046083211898804e-03 3.871155157685279846e-02 2.320858836174011230e-02 -2.252535335719585419e-02 -1.271143555641174316e-02 3.698527812957763672e-02 4.127979278564453125e-02 1.502274244558066130e-04 4.400168359279632568e-02 -4.341711103916168213e-02 2.885247208178043365e-02 4.851149022579193115e-02 -1.657780259847640991e-02 -2.791226096451282501e-02 3.828942775726318359e-02 4.037632420659065247e-02 4.688060283660888672e-02 1.514883618801832199e-02 -7.110079750418663025e-03 -4.419234395027160645e-02 1.174750924110412598e-02 -4.748385772109031677e-02 -1.335930544883012772e-03 -3.493446111679077148e-02 -2.877378137782216072e-03 -4.164594411849975586e-02 4.112481325864791870e-02 4.519191011786460876e-02 -3.010785952210426331e-02 -4.143459349870681763e-02 3.403479466214776039e-03 -2.861423417925834656e-02 1.938657835125923157e-02 -1.883681677281856537e-02 3.462521359324455261e-02 -2.114322781562805176e-02 -4.538090899586677551e-02 1.512092910706996918e-02 -1.946025900542736053e-02 4.561557900160551071e-03 2.187922596931457520e-02 1.383282244205474854e-02 8.276322856545448303e-03 -9.708485566079616547e-03 -3.405041620135307312e-02 -4.326181020587682724e-03 -3.801487013697624207e-02 -2.769102808088064194e-03 3.292806819081306458e-02 -1.311364700086414814e-03 3.945806249976158142e-02 1.801192946732044220e-02 2.251038141548633575e-02 4.791430383920669556e-02 8.894925005733966827e-03 3.448268771171569824e-02 -2.259202674031257629e-02 -3.159949183464050293e-02 -1.210546353831887245e-03 1.286438852548599243e-02 1.523727457970380783e-02 4.470381245482712984e-04 2.717262692749500275e-02 2.710641548037528992e-02 3.533276170492172241e-02 1.494958251714706421e-02 -4.728946834802627563e-02 -4.232513252645730972e-03 4.017037153244018555e-02 2.302084863185882568e-02 4.230858385562896729e-02 4.011004418134689331e-02 1.662319339811801910e-02 -1.762972772121429443e-02 1.578021980822086334e-02 2.895486541092395782e-02 -3.251938894391059875e-02 -1.175215654075145721e-02 2.072370983660221100e-02 -3.505234792828559875e-02 3.213439136743545532e-02 3.703143075108528137e-02 -1.776739582419395447e-02 -3.068594960495829582e-03 -4.725644737482070923e-02 2.383696148172020912e-03 2.153968624770641327e-02 3.585314005613327026e-02 2.412750013172626495e-02 2.543605677783489227e-02 -1.166547834873199463e-02 4.247391596436500549e-02 3.817954799160361290e-03 -3.816185146570205688e-02 -2.412447240203619003e-03 -2.815626934170722961e-02 2.755518257617950439e-02 -1.440656650811433792e-02 4.236457496881484985e-02 1.971436664462089539e-03 2.401321195065975189e-02 -1.379487756639719009e-02 2.247159369289875031e-02 3.623028472065925598e-02 1.919079571962356567e-02 1.159175112843513489e-02 -6.039610132575035095e-03 4.926284402608871460e-02 -1.991678960621356964e-02 1.758178882300853729e-02 -2.817395143210887909e-02 1.976086199283599854e-02 4.148261249065399170e-02 3.582597896456718445e-02 2.535557933151721954e-02 2.400467731058597565e-02 -1.119240093976259232e-02 -1.566165313124656677e-02 6.464738864451646805e-03 1.650297269225120544e-02 -6.150627508759498596e-03 -3.665636852383613586e-02 -4.316465184092521667e-02 -4.389480873942375183e-02 2.645601518452167511e-02 -2.534781396389007568e-02 -3.165752068161964417e-02 -3.542401641607284546e-02 -2.503699623048305511e-02 3.212282434105873108e-02 3.864508867263793945e-02 -4.680672287940979004e-02 2.781404368579387665e-02 3.885810822248458862e-02 -4.221358522772789001e-02 1.841268129646778107e-02 3.290555998682975769e-02 1.245556212961673737e-02 -5.020871385931968689e-02 -1.696957647800445557e-02 3.928046673536300659e-02 1.160033047199249268e-02 -3.545113280415534973e-02 -6.289354525506496429e-03 -3.664926439523696899e-02 -2.975012362003326416e-02 2.466202899813652039e-02 4.109136015176773071e-02 -3.002204932272434235e-02 1.280743815004825592e-02 3.658247739076614380e-02 2.462604455649852753e-02 3.138397261500358582e-02 -2.863423526287078857e-02 -1.915040984749794006e-02 -2.234066091477870941e-02 2.830808982253074646e-02 2.549825794994831085e-02 1.955970004200935364e-02 -1.274175848811864853e-02 4.787920415401458740e-02 1.899420283734798431e-02 -2.396243996918201447e-02 2.907951548695564270e-02 3.433210402727127075e-02 3.574281930923461914e-02 -1.576356403529644012e-02 -7.400883827358484268e-03 4.809804260730743408e-03 2.600074000656604767e-02 1.040667947381734848e-02 -1.775297708809375763e-02 2.924713538959622383e-03 3.999229148030281067e-02 2.789330203086137772e-03 -1.163008343428373337e-02 -2.485656924545764923e-02 -2.962158806622028351e-02 -4.343274980783462524e-02 -1.320578809827566147e-02 -2.890750393271446228e-02 2.131275273859500885e-02 3.897720575332641602e-02 -1.729416102170944214e-02 -1.863253302872180939e-02 1.413849275559186935e-02 -1.440988387912511826e-02 -1.281656231731176376e-02 3.503996506333351135e-02 -3.070882521569728851e-02 -1.090594567358493805e-02 1.620516180992126465e-03 1.548027712851762772e-02 3.120053932070732117e-02 -4.534106701612472534e-02 -4.288304597139358521e-02 -4.289701581001281738e-02 -1.344204042106866837e-02 -2.389885671436786652e-02 -3.087837249040603638e-02 -4.234202951192855835e-02 -1.254850998520851135e-02 -1.746170409023761749e-02 -4.036429151892662048e-02 4.057631269097328186e-02 -2.749052643775939941e-02 3.521921858191490173e-02 -4.893031343817710876e-02 -5.479577463120222092e-03 -4.236833751201629639e-02 4.382570460438728333e-02 -3.386128321290016174e-02 -7.448242045938968658e-03 -2.906363224610686302e-03 -4.418770968914031982e-02 1.271175593137741089e-02 -3.120780736207962036e-02 -6.639876868575811386e-03 3.197361528873443604e-02 1.154935359954833984e-02 7.755591999739408493e-03 -9.825785644352436066e-03 3.090044856071472168e-02 6.980794947594404221e-03 4.804800823330879211e-02 -1.596690155565738678e-02 -3.634076938033103943e-02 -2.960772812366485596e-02 2.881219051778316498e-02 -7.024345453828573227e-03 3.035088256001472473e-02 -2.480637468397617340e-02 -2.276650443673133850e-02 3.716438636183738708e-02 4.933358356356620789e-02 -2.174045145511627197e-02 -3.855491802096366882e-02 2.771838568150997162e-02 -3.232008218765258789e-02 7.254630792886018753e-03 3.650694712996482849e-02 -8.148674853146076202e-03 -2.481934241950511932e-02 2.030176669359207153e-02 4.921543970704078674e-02 -2.232552506029605865e-02 -2.873633988201618195e-02 -2.425765246152877808e-02 -1.103864051401615143e-02 -1.509457826614379883e-02 -5.666946526616811752e-03 2.859415113925933838e-02 -1.689787954092025757e-02 3.810711950063705444e-02 1.111245993524789810e-02 -4.854347556829452515e-02 3.628764674067497253e-02 8.439893834292888641e-03 -3.585778549313545227e-02 2.487375028431415558e-02 4.019729420542716980e-02 4.214347526431083679e-02 -4.841469228267669678e-03 4.178818315267562866e-02 4.946045950055122375e-02 2.794816158711910248e-02 -2.091716416180133820e-02 2.025725506246089935e-02 3.355505317449569702e-02 2.157994545996189117e-02 -4.698728397488594055e-02 3.500118851661682129e-02 4.311331734061241150e-02 -4.536274820566177368e-02 1.997529156506061554e-02 -4.738496616482734680e-02 -1.264848839491605759e-02 1.908901892602443695e-02 -5.020580813288688660e-02 -5.001169815659523010e-02 3.095960058271884918e-02 -3.917912766337394714e-02 -3.067621961236000061e-02 1.843421533703804016e-02 1.778963766992092133e-02 -3.481254354119300842e-02 -7.332051172852516174e-03 -6.309846416115760803e-03 1.806720905005931854e-02 1.346407551318407059e-02 2.855252474546432495e-02 -2.066661417484283447e-02 1.132274046540260315e-02 5.666411947458982468e-03 2.955837361514568329e-02 -3.760831803083419800e-02 4.230548813939094543e-02 2.025973424315452576e-02 -4.722428694367408752e-02 -2.627929858863353729e-02 -3.272426500916481018e-02 2.792952954769134521e-02 4.825682565569877625e-02 -6.671941373497247696e-03 2.146933600306510925e-02 -3.701395168900489807e-02 -2.548199892044067383e-02 4.850348830223083496e-02 -6.323804147541522980e-03 2.433793805539608002e-02 -4.921886697411537170e-02 -3.380363434553146362e-02 -3.160623461008071899e-02 1.898602396249771118e-02 -2.443917840719223022e-02 -3.243234008550643921e-02 6.325466092675924301e-04 4.365133866667747498e-02 2.596837282180786133e-02 3.741214796900749207e-02 -4.591072350740432739e-02 1.101629808545112610e-02 4.384958185255527496e-03 2.506690286099910736e-02 -3.853124007582664490e-02 4.571560397744178772e-02 1.876902021467685699e-02 -1.464746147394180298e-02 -1.908645592629909515e-02 1.103697903454303741e-02 2.321094460785388947e-02 4.225347936153411865e-02 3.161025000736117363e-03 -3.020615130662918091e-02 -7.460867054760456085e-03 -2.797379903495311737e-02 2.567463926970958710e-02 -7.399910595268011093e-03 -2.355796471238136292e-02 1.235096994787454605e-02 1.414605323225259781e-02 4.798828065395355225e-02 -2.514003217220306396e-02 2.470388310030102730e-03 2.948949858546257019e-02 -1.307557988911867142e-02 2.127735689282417297e-02 -1.724330149590969086e-02 -2.390483021736145020e-02 2.269139327108860016e-02 -2.528344467282295227e-02 3.498248010873794556e-02 4.413006827235221863e-03 5.002848058938980103e-02 -3.900257125496864319e-02 9.540759958326816559e-03 -2.563170157372951508e-02 -2.950164116919040680e-02 4.176254570484161377e-02 -3.572516888380050659e-02 -2.184210903942584991e-02 -2.631811611354351044e-02 -1.976607926189899445e-02 -4.083656147122383118e-02 1.847554743289947510e-02 3.105534054338932037e-02 -1.341867167502641678e-02 7.713886443525552750e-03 2.420799434185028076e-02 4.470578208565711975e-02 4.745117574930191040e-02 -1.143796183168888092e-02 2.401455864310264587e-02 1.883738487958908081e-02 -7.340139243751764297e-03 1.463620085269212723e-02 2.081074565649032593e-02 -2.116674091666936874e-03 1.195019297301769257e-02 3.721221908926963806e-02 -2.925044670701026917e-02 -2.507250464987009764e-04 3.057714924216270447e-02 -4.187146574258804321e-02 5.173935089260339737e-03 -2.893852652050554752e-04 -5.919714923948049545e-03 -3.986704163253307343e-03 4.457642138004302979e-02 9.917753748595714569e-03 3.914139419794082642e-02 2.084567910060286522e-03 -4.673474282026290894e-02 3.174386546015739441e-02 -4.138104990124702454e-02 9.452854283154010773e-03 3.171806409955024719e-02 1.013057399541139603e-02 2.650642208755016327e-02 4.576455394271761179e-04 -4.566773027181625366e-02 4.060449451208114624e-02 -4.814158752560615540e-02 -3.023229166865348816e-02 -2.537374757230281830e-02 1.525158621370792389e-02 4.680439457297325134e-02 1.557500753551721573e-02 3.827457502484321594e-02 2.090385369956493378e-02 1.216682605445384979e-02 3.513653948903083801e-02 -3.023351728916168213e-02 9.534318931400775909e-03 1.262557227164506912e-02 -3.730678185820579529e-02 -3.676026826724410057e-03 -4.863686114549636841e-02 2.645180374383926392e-02 4.701723158359527588e-02 1.962642185389995575e-02 2.681639790534973145e-02 -6.316172890365123749e-03 -1.112542022019624710e-02 -7.178965024650096893e-03 -4.684082791209220886e-02 -1.756796985864639282e-02 -3.458932042121887207e-02 2.841775678098201752e-02 7.274943869560956955e-03 -2.706732228398323059e-02 -4.407935589551925659e-02 3.230530023574829102e-02 -1.606406457722187042e-02 -1.811719313263893127e-02 4.436318576335906982e-02 -3.958250861614942551e-03 -3.041012771427631378e-02 4.748027399182319641e-02 2.191329561173915863e-02 -2.906113676726818085e-02 -8.130144327878952026e-03 3.428909182548522949e-02 4.872502014040946960e-02 1.062629558145999908e-02 4.388824105262756348e-02 -3.514935448765754700e-02 1.362654753029346466e-02 2.334186621010303497e-02 3.065451793372631073e-02 4.761028662323951721e-02 9.262654930353164673e-03 -3.381016477942466736e-02 1.607039012014865875e-03 -4.896021261811256409e-02 1.360479043796658516e-03 3.469166904687881470e-02 -3.864799812436103821e-02 -2.653981093317270279e-03 1.707649230957031250e-02 3.951890766620635986e-02 -7.598512805998325348e-03 -5.626201163977384567e-03 1.010132301598787308e-02 3.954010084271430969e-02 8.389540947973728180e-03 2.700867690145969391e-02 -6.755454465746879578e-03 -2.738307788968086243e-02 3.246212005615234375e-02 4.662398248910903931e-02 -1.881282962858676910e-02 3.049895400181412697e-03 3.365162014961242676e-02 -1.786026544868946075e-02 3.606436029076576233e-02 -5.627018865197896957e-03 8.251849561929702759e-03 4.906944558024406433e-02 -8.218990638852119446e-03 3.915162011981010437e-02 4.745540395379066467e-02 -2.076948247849941254e-02 -2.494798973202705383e-02 -8.707132190465927124e-03 2.407667040824890137e-02 2.095083333551883698e-02 4.763888660818338394e-03 -4.482455179095268250e-02 -2.818818204104900360e-02 -3.802287951111793518e-02 -1.750447787344455719e-02 2.702387282624840736e-03 4.091534018516540527e-02 -1.058131549507379532e-02 -1.213052403181791306e-02 1.824883371591567993e-02 1.781488023698329926e-02 3.198023140430450439e-02 -4.386430978775024414e-02 -3.068193420767784119e-02 1.155184209346771240e-02 3.314600139856338501e-02 1.843093778006732464e-03 -6.768539547920227051e-03 -3.592604771256446838e-02 2.641124464571475983e-02 3.137806057929992676e-02 4.439349472522735596e-02 1.441914215683937073e-02 4.278044030070304871e-02 -3.159721940755844116e-02 4.513936862349510193e-02 -1.563705387525260448e-03 6.392205134034156799e-03 -1.931709982454776764e-02 4.113947600126266479e-02 -1.916560903191566467e-02 1.350555196404457092e-02 1.025916542857885361e-02 -1.638284511864185333e-02 -3.290033340454101562e-02 1.925081573426723480e-02 5.291464272886514664e-03 3.647210076451301575e-02 4.203247651457786560e-02 -6.940907333046197891e-03 4.966862127184867859e-02 4.693585634231567383e-02 2.086264081299304962e-02 7.936572656035423279e-03 1.442742440849542618e-02 4.114417359232902527e-02 -2.662155777215957642e-02 -3.808184713125228882e-02 4.153733700513839722e-02 -2.547912299633026123e-02 -1.152382232248783112e-02 -3.532569482922554016e-02 -3.748444467782974243e-02 -1.152425911277532578e-02 3.020435571670532227e-02 -3.389133140444755554e-02 2.728788647800683975e-03 -2.744916127994656563e-03 2.313715778291225433e-02 -2.983517199754714966e-02 4.189858958125114441e-02 -4.022337868809700012e-02 3.078221343457698822e-02 1.349710486829280853e-02 2.639595419168472290e-02 -2.790340594947338104e-02 -3.083396516740322113e-02 -7.943596690893173218e-03 -3.276586160063743591e-02 4.852044582366943359e-02 2.439525723457336426e-02 4.743032157421112061e-02 -5.010957643389701843e-02 -1.015501329675316811e-03 -1.195934484712779522e-03 1.645784080028533936e-02 1.448828540742397308e-02 7.229709997773170471e-03 1.724901981651782990e-02 2.860089391469955444e-02 -1.549467816948890686e-02 1.942626386880874634e-02 3.991388902068138123e-02 1.873348839581012726e-02 3.701081126928329468e-02 -2.724853716790676117e-02 2.636721543967723846e-02 4.075274989008903503e-02 -1.087785325944423676e-02 3.446778515353798866e-03 -1.138471905142068863e-02 -1.809129863977432251e-02 1.507625635713338852e-02 2.488320320844650269e-02 -3.432841598987579346e-02 -1.752240769565105438e-02 -2.950437599793076515e-03 -1.040850486606359482e-02 4.383685439825057983e-02 2.807280793786048889e-02 -3.035662695765495300e-03 3.972964733839035034e-02 -2.985562197864055634e-02 -3.725257888436317444e-02 -4.041219130158424377e-02 -3.716413676738739014e-02 -4.057895019650459290e-02 4.282176122069358826e-02 2.910739369690418243e-02 -4.509698227047920227e-02 3.001402691006660461e-02 -3.258125111460685730e-02 -2.151611261069774628e-02 -2.042197994887828827e-02 4.548848606646060944e-03 1.482293102890253067e-02 1.336177438497543335e-02 4.496383666992187500e-02 -2.168219722807407379e-02 2.690252289175987244e-02 -4.000283405184745789e-02 -3.418843820691108704e-02 3.128116950392723083e-02 4.551387578248977661e-02 4.157762229442596436e-02 -3.884255129378288984e-04 -1.525832898914813995e-02 1.669415086507797241e-02 -2.734664082527160645e-02 2.921280823647975922e-02 -5.032681860029697418e-03 2.613333519548177719e-03 1.453216001391410828e-02 -2.391092479228973389e-02 -2.669757604598999023e-02 -2.948025241494178772e-02 9.009638801217079163e-03 2.656185440719127655e-02 -1.835037954151630402e-02 -3.963411599397659302e-02 2.428266406059265137e-02 -2.313924767076969147e-02 4.038165882229804993e-02 4.998449236154556274e-02 4.136458784341812134e-02 2.456691302359104156e-02 -4.209367185831069946e-02 -4.637658130377531052e-03 3.367737680673599243e-02 -9.961440227925777435e-03 -1.731680892407894135e-02 -4.301901534199714661e-02 4.696458578109741211e-02 3.346449509263038635e-02 3.219462186098098755e-02 8.785188198089599609e-03 -3.159729763865470886e-02 3.346560522913932800e-02 2.962355688214302063e-02 -1.446564029902219772e-02 3.084415756165981293e-02 4.675708338618278503e-02 4.940497502684593201e-02 -2.812640508636832237e-03 -5.543336272239685059e-03 -4.157519340515136719e-02 4.292383790016174316e-02 -4.739020392298698425e-02 -6.436171010136604309e-03 -3.483202308416366577e-02 5.191978532820940018e-03 1.108856219798326492e-02 -1.776178739964962006e-02 -1.977001130580902100e-02 4.880696535110473633e-02 -3.831004351377487183e-02 3.648694977164268494e-02 -1.590809039771556854e-02 -2.264305576682090759e-02 3.941950574517250061e-02 -1.638698391616344452e-02 -5.844742525368928909e-03 1.441246923059225082e-02 4.554238636046648026e-03 -1.346282102167606354e-02 3.704658150672912598e-02 1.258356682956218719e-02 -4.716327786445617676e-02 1.256705820560455322e-02 -3.194468468427658081e-02 -4.076778143644332886e-02 4.454666376113891602e-02 4.526299610733985901e-02 3.546924795955419540e-03 -5.091120954602956772e-03 3.596437722444534302e-02 2.118475735187530518e-03 -3.442500904202461243e-02 7.833922281861305237e-03 -2.815954759716987610e-02 -2.037243917584419250e-02 2.001879736781120300e-02 4.993156343698501587e-02 3.457457572221755981e-02 -1.549372728914022446e-02 -2.898526936769485474e-02 4.714149981737136841e-02 -3.228427097201347351e-02 -8.936299942433834076e-03 -9.310631081461906433e-03 1.726708561182022095e-02 4.604339599609375000e-02 2.573308162391185760e-02 1.266609528101980686e-03 5.237830802798271179e-03 -9.952241554856300354e-03 2.776401676237583160e-02 3.600293770432472229e-02 1.359416823834180832e-02 -1.406054757535457611e-02 -5.786472931504249573e-03 4.661750420928001404e-02 4.569379240274429321e-02 -6.407268811017274857e-03 -4.960643500089645386e-02 -2.190485829487442970e-03 4.867647588253021240e-02 4.437060654163360596e-02 -3.675520792603492737e-02 -4.036390408873558044e-02 3.722469881176948547e-02 4.697283729910850525e-02 1.919108070433139801e-02 2.617286518216133118e-02 3.659458830952644348e-03 -4.413428157567977905e-02 -3.663912042975425720e-02 -3.685666993260383606e-02 1.317623816430568695e-02 4.548517987132072449e-02 -4.795166477560997009e-02 3.306894749402999878e-02 4.165852069854736328e-02 -1.456237304955720901e-02 2.196123264729976654e-02 -1.845150999724864960e-02 2.954365871846675873e-02 -2.386328205466270447e-02 1.626597903668880463e-02 -6.220557261258363724e-03 7.216955535113811493e-03 3.230369463562965393e-02 4.390551149845123291e-02 -4.434886574745178223e-02 -3.317931294441223145e-02 -1.607102900743484497e-02 -2.777999453246593475e-02 1.654758490622043610e-02 9.410703205503523350e-05 1.097372360527515411e-02 9.416125714778900146e-03 -2.004085481166839600e-02 -2.744447439908981323e-02 4.552637785673141479e-02 -1.519605331122875214e-02 -1.914996840059757233e-02 3.440673276782035828e-02 -1.594561710953712463e-02 3.615250065922737122e-02 1.114940084517002106e-02 -3.452613204717636108e-02 1.968431845307350159e-02 2.795528434216976166e-02 5.367262754589319229e-03 -4.745167493820190430e-02 -4.737467691302299500e-02 -9.770801290869712830e-03 -1.748579926788806915e-02 -5.046024452894926071e-03 -2.217250131070613861e-02 3.210728242993354797e-02 -1.724656438454985619e-03 2.765575796365737915e-02 4.142699390649795532e-02 3.270276635885238647e-02 4.397611320018768311e-02 5.003270879387855530e-02 -1.176021527498960495e-02 -1.537959743291139603e-02 -2.534636668860912323e-02 2.654669806361198425e-02 4.428071901202201843e-02 3.816389665007591248e-02 1.447884365916252136e-02 -3.232570365071296692e-02 3.995734080672264099e-02 -2.534254267811775208e-02 -3.556326264515519142e-03 1.442899182438850403e-02 -4.565077275037765503e-02 2.568891458213329315e-02 2.438286878168582916e-02 -3.405041247606277466e-02 2.847905829548835754e-02 3.981244564056396484e-02 1.740184798836708069e-02 3.925973176956176758e-02 -1.945726014673709869e-02 -1.393736340105533600e-02 2.738291025161743164e-02 4.822349175810813904e-02 2.680441178381443024e-02 2.544875629246234894e-02 -2.733582630753517151e-02 1.476496830582618713e-02 8.233635686337947845e-03 4.646536707878112793e-02 -2.354996278882026672e-02 -4.109143465757369995e-02 -9.944207035005092621e-03 -3.479041857644915581e-03 1.749163679778575897e-02 1.107335090637207031e-02 2.669295854866504669e-02 5.612008273601531982e-03 -1.157397171482443810e-03 9.639089927077293396e-03 -1.328897196799516678e-02 -5.729414988309144974e-03 4.900933802127838135e-02 2.187658660113811493e-02 -8.158670738339424133e-03 -2.589108049869537354e-02 5.439491724246181548e-05 2.730480208992958069e-02 -2.922551520168781281e-02 -4.925766587257385254e-02 -2.072969265282154083e-02 1.437553297728300095e-02 -3.783577308058738708e-02 -3.148936480283737183e-02 2.680572122335433960e-02 1.073246821761131287e-02 -4.859859123826026917e-02 1.196623500436544418e-02 2.897671610116958618e-02 -5.205285735428333282e-03 -5.179799627512693405e-03 1.641869917511940002e-02 4.534493386745452881e-02 -2.107723243534564972e-02 1.167044229805469513e-02 -2.715349942445755005e-02 -1.736722188070416451e-03 -4.832265153527259827e-02 3.008188121020793915e-02 -3.932179138064384460e-02 4.420924186706542969e-02 4.634325578808784485e-02 3.477846831083297729e-02 4.587034881114959717e-02 1.036162860691547394e-02 -4.694550111889839172e-02 -4.180310294032096863e-02 -4.819612577557563782e-02 4.868090525269508362e-02 5.103121325373649597e-02 -3.281847760081291199e-02 -2.550018578767776489e-02 4.817457869648933411e-02 3.133599460124969482e-02 -3.392134606838226318e-02 2.040476910769939423e-02 -3.281942382454872131e-02 -3.448105975985527039e-02 9.309461340308189392e-03 -4.092141240835189819e-02 -2.440073154866695404e-02 1.919664815068244934e-02 -8.009519660845398903e-04 3.184316307306289673e-02 -2.706434577703475952e-02 -3.913720697164535522e-02 1.560866553336381912e-02 -3.568146005272865295e-02 8.250414393842220306e-03 3.857847303152084351e-02 2.268367446959018707e-02 -7.346568163484334946e-03 3.484090045094490051e-02 1.306721754372119904e-02 -5.003116093575954437e-03 -1.655675470829010010e-03 6.553585408255457878e-04 3.287876024842262268e-02 -4.693571850657463074e-02 -9.978387504816055298e-03 2.777804154902696609e-03 -1.715327613055706024e-02 3.702158853411674500e-02 4.928423091769218445e-02 -2.320739999413490295e-02 -4.392392467707395554e-03 1.356929820030927658e-02 4.078551754355430603e-02 -4.135141894221305847e-02 1.208059862256050110e-02 -4.137217625975608826e-02 2.398000843822956085e-02 -1.920801401138305664e-02 3.266189619898796082e-02 3.313230723142623901e-02 4.386605322360992432e-02 2.687380090355873108e-02 2.489119023084640503e-02 -2.123505994677543640e-02 1.268151449039578438e-03 1.231826841831207275e-02 -3.172123432159423828e-02 4.077431559562683105e-02 -1.070256065577268600e-02 4.266069456934928894e-02 1.624584384262561798e-02 -1.372448354959487915e-02 4.358502477407455444e-02 1.902684452943503857e-03 1.296052336692810059e-02 -2.290130592882633209e-02 -3.242002800107002258e-02 3.150356933474540710e-02 -2.678389661014080048e-02 1.098557747900485992e-02 1.584136486053466797e-02 -3.344254335388541222e-03 -4.785573855042457581e-02 2.452109241858124733e-03 3.360578790307044983e-02 -3.700985386967658997e-02 1.759652420878410339e-02 -2.164770103991031647e-02 -2.533787488937377930e-02 1.134517602622509003e-02 4.413660615682601929e-02 1.754744164645671844e-02 3.344311937689781189e-02 -3.441173583269119263e-02 -3.994396701455116272e-02 3.484250977635383606e-02 -3.597619384527206421e-02 3.552109375596046448e-02 -3.516030684113502502e-02 4.358692467212677002e-02 6.932322867214679718e-03 1.887312158942222595e-02 -3.865203261375427246e-02 3.606773540377616882e-02 -4.843311756849288940e-02 -1.751954667270183563e-02 -1.493666134774684906e-02 2.735773287713527679e-02 4.870624840259552002e-02 -4.451813548803329468e-02 -4.734966158866882324e-02 4.434943571686744690e-02 3.017601929605007172e-02 4.977507889270782471e-02 -4.048857092857360840e-02 2.443729899823665619e-02 -3.963403776288032532e-02 8.816170506179332733e-03 4.988798405975103378e-03 2.816395647823810577e-02 2.259932924062013626e-03 2.843026630580425262e-02 5.839884281158447266e-03 -1.534217875450849533e-02 -4.799667373299598694e-02 -4.293908178806304932e-02 -1.045647449791431427e-02 2.206459641456604004e-02 -1.461509149521589279e-02 2.027705684304237366e-02 -3.841551393270492554e-02 -2.046085335314273834e-02 -1.143094059079885483e-02 1.712764054536819458e-02 -4.335252195596694946e-02 6.049037910997867584e-03 2.894923277199268341e-02 -1.148478128015995026e-02 2.646859921514987946e-02 4.080637916922569275e-02 5.456292070448398590e-03 -2.043151110410690308e-02 4.999670200049877167e-03 4.617620259523391724e-02 -4.680163413286209106e-02 -4.305766522884368896e-02 -2.355286292731761932e-02 -3.291296586394309998e-02 2.227236889302730560e-02 9.946411475539207458e-03 2.343637309968471527e-02 -4.084952548146247864e-02 3.275700844824314117e-03 2.748898044228553772e-02 -7.188703166320919991e-04 2.041339874267578125e-02 2.405356056988239288e-02 -3.256043419241905212e-02 4.107457399368286133e-02 -4.752118512988090515e-02 6.184474099427461624e-03 1.577967777848243713e-02 -2.152092382311820984e-02 -4.207260906696319580e-02 3.676829219330102205e-04 -4.193670675158500671e-02 -2.244896814227104187e-02 -5.221444647759199142e-03 -2.088415995240211487e-02 -3.392247110605239868e-02 -4.547342658042907715e-02 4.771171510219573975e-02 -2.243541926145553589e-02 1.173297967761754990e-02 -8.025347255170345306e-03 -6.500753806903958321e-04 3.426097333431243896e-02 -2.294031530618667603e-02 -6.782179698348045349e-03 1.527519803494215012e-02 1.735085621476173401e-02 3.230868652462959290e-02 1.214126124978065491e-02 -8.947629481554031372e-03 3.198339417576789856e-02 4.117416590452194214e-02 2.417400106787681580e-02 6.940403021872043610e-03 -4.148116800934076309e-03 -3.175246715545654297e-02 -2.427895367145538330e-02 4.954590275883674622e-02 -4.489724710583686829e-02 -1.141079887747764587e-02 -1.296703820116817951e-03 -1.056896988302469254e-02 -4.009025543928146362e-02 -3.161903098225593567e-02 -4.923463985323905945e-02 -1.042878348380327225e-02 2.534779952839016914e-03 -1.265204418450593948e-02 -2.913492359220981598e-02 4.100460559129714966e-02 -3.930868580937385559e-02 -2.994871512055397034e-02 1.327592693269252777e-02 -3.868474066257476807e-02 -3.377618640661239624e-02 3.682782500982284546e-02 3.811872750520706177e-02 4.646001756191253662e-02 2.120396308600902557e-02 -2.702431054785847664e-03 -1.114565879106521606e-02 -2.775700390338897705e-02 4.449956491589546204e-02 -3.667533025145530701e-02 -3.315330669283866882e-02 1.969737373292446136e-02 -4.529375955462455750e-02 1.056521083228290081e-03 3.901195526123046875e-02 -1.771073415875434875e-02 2.623327635228633881e-02 4.913727194070816040e-02 -1.629869639873504639e-02 2.595765329897403717e-02 1.663191802799701691e-02 -5.179357249289751053e-03 8.186947554349899292e-03 2.979799546301364899e-02 -1.642491109669208527e-02 -3.719379752874374390e-02 -1.235027983784675598e-02 4.452295228838920593e-02 2.596005797386169434e-02 -6.529143429361283779e-04 2.683233283460140228e-02 1.334444712847471237e-02 -1.937487348914146423e-02 -3.615764901041984558e-02 -2.872449532151222229e-02 -2.628657221794128418e-02 3.474517166614532471e-02 -6.500280927866697311e-03 1.453425548970699310e-02 3.333317488431930542e-02 -4.401114210486412048e-02 -2.303371392190456390e-02 1.314358669333159924e-03 3.918275237083435059e-02 -4.151010513305664062e-02 7.749419193714857101e-03 -4.938800632953643799e-02 -4.511409625411033630e-02 -3.454782813787460327e-02 1.229268731549382210e-03 1.382138207554817200e-02 -1.282115001231431961e-03 7.981437374837696552e-04 3.810333320870995522e-03 -3.649140894412994385e-02 1.699057407677173615e-02 -8.936323225498199463e-03 -2.932897768914699554e-02 -1.565025933086872101e-02 -2.619609422981739044e-02 4.468163475394248962e-02 2.032789587974548340e-02 3.311876952648162842e-02 -1.799696497619152069e-02 -7.499096449464559555e-03 4.989337921142578125e-02 4.156329855322837830e-02 -3.012854419648647308e-02 -1.699755340814590454e-02 -4.849257692694664001e-02 3.994634002447128296e-02 -2.690084464848041534e-02 1.304096821695566177e-02 2.034556120634078979e-03 4.651757702231407166e-02 4.789872467517852783e-02 1.217255648225545883e-02 3.254897147417068481e-02 2.073047682642936707e-02 3.788291290402412415e-02 -8.427986875176429749e-03 2.621305733919143677e-02 1.566822826862335205e-02 -3.526313928887248039e-03 1.369264349341392517e-02 2.161021158099174500e-02 -2.582832239568233490e-02 -2.898763865232467651e-03 -3.170245885848999023e-02 -3.833983466029167175e-02 4.404520243406295776e-02 4.849676042795181274e-03 1.460026483982801437e-03 6.746918428689241409e-03 -1.734779961407184601e-02 2.384387701749801636e-02 4.014644026756286621e-02 2.565441653132438660e-02 2.054591849446296692e-02 -2.878240495920181274e-02 2.843054942786693573e-02 3.332726657390594482e-02 -1.611945219337940216e-02 1.946048066020011902e-02 2.994750812649726868e-02 -3.465823829174041748e-02 4.642705619335174561e-02 4.501366987824440002e-02 -1.797480694949626923e-02 -2.342995069921016693e-02 -3.145291656255722046e-02 -3.881112486124038696e-02 -1.636516861617565155e-02 -1.838773954659700394e-03 -4.696889966726303101e-02 4.788896068930625916e-02 2.699832804501056671e-02 -1.448605954647064209e-02 -1.352496631443500519e-02 -3.601302579045295715e-02 -4.392291605472564697e-02 -1.181893609464168549e-02 -1.686123386025428772e-02 -4.130620509386062622e-02 -4.762622527778148651e-03 -1.206524111330509186e-02 -1.158454827964305878e-02 4.428060725331306458e-02 -2.545063197612762451e-02 -1.701250299811363220e-02 3.399234963580965996e-03 9.513915865682065487e-04 -7.449146825820207596e-03
-2.259525656700134277e-02 -1.621137931942939758e-02 7.075635250657796860e-03 -4.135593771934509277e-02 -4.944597184658050537e-02 -4.284877702593803406e-02 1.692100241780281067e-02 -2.027218975126743317e-02 -1.701524667441844940e-02 1.170047279447317123e-02 -1.333125028759241104e-02 2.366263791918754578e-02 -4.240934178233146667e-02 -3.474079817533493042e-02 -2.730176784098148346e-02 8.769828709773719311e-04 -2.329027839004993439e-02 3.756431862711906433e-02 -3.725308552384376526e-02 -6.017289590090513229e-03 -4.699340462684631348e-02 7.675031520193442702e-05 2.240344695746898651e-02 -1.703155040740966797e-02 1.842748373746871948e-02 -1.474796049296855927e-02 4.586953297257423401e-02 -8.570733480155467987e-04 -1.633377745747566223e-02 1.089157816022634506e-02 1.899877935647964478e-02 -5.271554924547672272e-03 -1.272662077099084854e-02 -3.659918904304504395e-02 -4.323681443929672241e-02 3.291369602084159851e-02 -7.636622525751590729e-03 -2.024440281093120575e-02 -3.005881980061531067e-02 1.617980562150478363e-02 -3.386704996228218079e-02 -4.190868884325027466e-02 9.335258044302463531e-03 2.236097119748592377e-03 -2.581421053037047386e-03 3.644298762083053589e-02 -3.131676930934190750e-03 3.475167974829673767e-02 4.149289801716804504e-03 -3.323084115982055664e-02 -2.713584108278155327e-03 2.098898217082023621e-02 -4.116193205118179321e-02 3.295592218637466431e-02 -3.986416757106781006e-02 1.672035083174705505e-02 4.048431292176246643e-02 -1.922405511140823364e-02 2.858164906501770020e-02 2.039226330816745758e-02 1.006792020052671432e-02 9.668044745922088623e-03 3.706447407603263855e-02 -3.517460136208683252e-04 -1.989113166928291321e-02 -3.484929725527763367e-02 4.837950691580772400e-02 -3.294110763818025589e-03 1.254545897245407104e-02 3.277966380119323730e-02 3.714891150593757629e-02 -4.163612797856330872e-02 -2.860883949324488640e-03 -2.296402491629123688e-02 -2.291663549840450287e-02 7.859066128730773926e-03 -7.982551120221614838e-03 -4.612400662153959274e-03 -1.311238273046910763e-03 -3.331448137760162354e-02 1.001382246613502502e-02 -9.581780061125755310e-03 -3.540528938174247742e-02 3.783451765775680542e-02 -2.161291614174842834e-02 -4.792762547731399536e-02 -4.322741180658340454e-02 -1.937730424106121063e-02 -1.394627336412668228e-02 -2.478958480060100555e-02 2.396446093916893005e-02 -3.897596895694732666e-02 2.908713743090629578e-02 3.337334096431732178e-02 -4.743982851505279541e-02 -4.542629420757293701e-02 1.301725208759307861e-02 -4.390545189380645752e-02 2.598955109715461731e-02 -4.016409441828727722e-02 3.189415670931339264e-03 -8.128806948661804199e-03 -2.646302431821823120e-02 -2.514000236988067627e-02 -2.408733777701854706e-02 3.557479009032249451e-02 -1.254491275176405907e-03 -1.529036462306976318e-02 -2.027568034827709198e-02 -3.236426040530204773e-03 -3.335561230778694153e-02 -2.805688977241516113e-02 1.003069896250963211e-02 -3.278940916061401367e-02 3.568557277321815491e-02 2.467368170619010925e-02 2.855269424617290497e-02 3.624278306961059570e-02 -2.918237447738647461e-02 2.535890601575374603e-02 1.794834248721599579e-02 -2.424773573875427246e-02 2.565652690827846527e-02 -4.033698886632919312e-02 -3.068944811820983887e-02 -3.858890384435653687e-02 4.495237767696380615e-02 -2.804318256676197052e-02 -6.148390471935272217e-03 -9.317300282418727875e-03 -4.842356592416763306e-02 -4.244993999600410461e-02 -1.610619947314262390e-02 -9.862683713436126709e-03 2.403428964316844940e-02 -1.536030974239110947e-02 4.145330563187599182e-02 -7.341071497648954391e-03 -4.171377979218959808e-03 4.619044438004493713e-02 4.197212308645248413e-02 -3.065264411270618439e-02 1.355913933366537094e-02 4.727803636342287064e-03 -2.235212549567222595e-02 -2.186231687664985657e-02 -1.732940413057804108e-02 -3.889589756727218628e-02 -8.558300905860960484e-04 2.028513886034488678e-02 4.693207517266273499e-02 1.340902969241142273e-02 4.930558800697326660e-02 1.645258069038391113e-02 6.931034848093986511e-03 -4.167704284191131592e-02 4.855540767312049866e-02 -4.984498023986816406e-03 -3.005825355648994446e-02 4.936180636286735535e-02 2.124704420566558838e-02 -2.405139058828353882e-02 4.394891113042831421e-02 4.638117551803588867e-02 4.318277910351753235e-02 4.037658497691154480e-02 1.056054700165987015e-02 -3.634886816143989563e-02 1.312482927460223436e-04 -6.471210625022649765e-03 2.234002947807312012e-02 4.143029078841209412e-02 -2.413887903094291687e-02 4.176285862922668457e-02 -2.103946730494499207e-02 6.786548998206853867e-03 -2.058006450533866882e-02 4.036016762256622314e-02 -3.633975610136985779e-02 2.445189468562602997e-02 1.060018874704837799e-02 -9.470824152231216431e-03 -2.787416987121105194e-02 8.805620484054088593e-03 -1.751004159450531006e-02 3.987049683928489685e-02 4.700692370533943176e-03 -2.671886608004570007e-02 -1.929431594908237457e-02 -5.342535208910703659e-03 2.251094020903110504e-02 -4.238565266132354736e-02 -4.226838797330856323e-02 -4.051554575562477112e-02 -4.670258983969688416e-02 3.145826747640967369e-03 -2.408483810722827911e-02 2.422415837645530701e-02 -2.574123628437519073e-02 -3.288248786702752113e-03 2.081830054521560669e-02 2.714642696082592010e-02 3.931623697280883789e-02 -2.666691318154335022e-02 4.489183053374290466e-02 -1.808457076549530029e-02 -4.488261044025421143e-02 -4.660215228796005249e-02 -1.199270877987146378e-02 1.409579347819089890e-02 1.637379638850688934e-02 -1.089492905884981155e-02 2.957008779048919678e-03 1.815749704837799072e-02 -3.085962496697902679e-02 -1.912738569080829620e-02 3.014658205211162567e-02 -2.059976197779178619e-02 -8.750208653509616852e-03 -9.459658525884151459e-03 -3.577761724591255188e-02 1.834433153271675110e-02 1.741599850356578827e-02 -4.918085783720016479e-02 -7.237918674945831299e-03 3.847329691052436829e-02 1.814640872180461884e-02 -2.821038663387298584e-02 -4.808061942458152771e-02 4.454229399561882019e-02 2.995393052697181702e-02 -1.782883703708648682e-02 2.147421427071094513e-02 -3.504211490508168936e-04 -2.416746504604816437e-02 -4.080249369144439697e-02 4.266906529664993286e-02 -1.091226376593112946e-02 2.817742340266704559e-02 -2.430693060159683228e-02 -2.039776556193828583e-02 -1.612258702516555786e-02 2.403930574655532837e-02 -3.913616016507148743e-02 3.655806183815002441e-02 -8.725126273930072784e-03 -3.248679637908935547e-02 3.540956974029541016e-02 8.513578213751316071e-03 1.443618163466453552e-02 -4.995345696806907654e-02 -1.888020150363445282e-02 4.467898979783058167e-02 5.246343091130256653e-03 -4.742342606186866760e-02 3.345162048935890198e-02 3.159242868423461914e-02 -1.530989352613687515e-02 1.000008895061910152e-03 4.285453632473945618e-02 3.793706372380256653e-02 4.563032835721969604e-02 -4.672943800687789917e-02 1.263695117086172104e-02 -1.601499877870082855e-02 -3.765049204230308533e-02 2.961521595716476440e-02 4.878197982907295227e-02 -4.903416708111763000e-02 3.911698609590530396e-02 1.318222202826291323e-04 3.651121258735656738e-02 -3.899763524532318115e-02 -3.807003051042556763e-02 2.278161235153675079e-02 -6.636666599661111832e-03 -2.915941551327705383e-02 -3.227822715416550636e-03 2.843181230127811432e-02 4.214050620794296265e-02 3.146395087242126465e-02 -4.368824511766433716e-02 -2.812221087515354156e-02 4.161047935485839844e-02 2.603025548160076141e-02 -3.306621313095092773e-02 -2.503115311264991760e-02 -1.244220510125160217e-02 -1.613775826990604401e-02 -2.532147616147994995e-02 4.527977667748928070e-03 5.057881027460098267e-02 -4.128756374120712280e-02 2.295876480638980865e-02 -4.209972918033599854e-02 1.667760498821735382e-02 -3.516178205609321594e-02 -1.697806455194950104e-02 4.711929708719253540e-02 2.297916263341903687e-02 2.336647547781467438e-02 -2.128250524401664734e-02 -2.878735028207302094e-02 -4.396726936101913452e-02 -3.209326788783073425e-02 2.218776196241378784e-02 1.097592874430119991e-03 1.601146720349788666e-02 9.097764268517494202e-03 -1.653551310300827026e-02 5.670991726219654083e-03 -6.519665475934743881e-03 -8.544395677745342255e-03 1.797658950090408325e-02 -3.116690926253795624e-02 4.183490201830863953e-02 -1.262986008077859879e-02 -4.702614992856979370e-02 -4.802767559885978699e-02 -1.274380832910537720e-02 -3.926134482026100159e-02 -1.944868639111518860e-02 -3.021984361112117767e-02 4.076321050524711609e-02 2.649929560720920563e-02 3.307535499334335327e-02 1.199728809297084808e-02 -1.531682442873716354e-02 -3.892387822270393372e-02 -9.694477543234825134e-03 -2.338121645152568817e-02 2.564283460378646851e-02 -2.260776609182357788e-02 -3.037068806588649750e-02 -4.013053327798843384e-02 4.888897761702537537e-03 -9.457361884415149689e-03 -4.454714804887771606e-02 2.987608313560485840e-02 2.127438411116600037e-02 3.764533251523971558e-02 3.785385563969612122e-02 -3.179879114031791687e-02 -4.005460813641548157e-02 3.767691180109977722e-02 4.753326997160911560e-02 -3.303689882159233093e-02 4.937782883644104004e-02 1.609376817941665649e-02 -3.205510973930358887e-02 -5.444352515041828156e-03 -1.721538603305816650e-02 2.281158976256847382e-02 -2.833574835676699877e-04 4.563777893781661987e-02 -5.386207252740859985e-03 -2.575312927365303040e-02 4.804036393761634827e-02 4.503989219665527344e-02 2.090288791805505753e-03 4.285738617181777954e-02 1.391168776899576187e-02 3.406190127134323120e-02 -4.055097326636314392e-02 1.708858646452426910e-02 3.770679980516433716e-02 -4.549972340464591980e-02 -4.728986695408821106e-02 -4.221402481198310852e-02 1.848460920155048370e-02 -4.194697737693786621e-02 -4.899429902434349060e-02 1.740897074341773987e-02 1.098475418984889984e-02 -2.798596024513244629e-02 1.736500114202499390e-02 -7.674694643355906010e-04 -2.378743328154087067e-02 9.537150152027606964e-03 -1.222161296755075455e-02 1.264106854796409607e-02 -4.001257196068763733e-02 3.743734583258628845e-02 -4.774180706590414047e-03 1.484306436032056808e-02 5.220460239797830582e-03 4.973290115594863892e-02 -3.152532130479812622e-02 -7.995534688234329224e-03 4.460179433226585388e-02 1.221801433712244034e-02 -4.336066171526908875e-02 -4.617388173937797546e-02 9.618748910725116730e-03 1.496874168515205383e-02 1.054108701646327972e-02 -6.466105580329895020e-03 3.527615964412689209e-02 -1.974844001233577728e-02 -2.791310846805572510e-02 1.407495141029357910e-02 -2.265455946326255798e-02 -2.967803552746772766e-02 5.467461422085762024e-03 1.484206132590770721e-02 2.868680097162723541e-02 4.292584490031003952e-03 1.198823656886816025e-02 4.885685071349143982e-02 4.870133474469184875e-02 -1.871342957019805908e-02 -9.892565198242664337e-03 2.717556059360504150e-02 2.205358073115348816e-02 1.877428777515888214e-02 2.146326191723346710e-02 -5.210330709815025330e-03 3.101030364632606506e-03 -2.534390660002827644e-04 1.785896718502044678e-02 -3.664875775575637817e-02 7.526141125708818436e-03 1.495691109448671341e-02 4.716914519667625427e-02 -7.260264363139867783e-03 6.333878263831138611e-03 -2.784303948283195496e-02 1.036124187521636486e-03 -2.400318905711174011e-02 -2.046017907559871674e-02 2.832141704857349396e-03 -4.377751797437667847e-02 4.839140176773071289e-02 1.947643235325813293e-02 4.995564743876457214e-02 -2.214203029870986938e-02 -7.508606184273958206e-03 3.057275898754596710e-02 3.541785851120948792e-02 -3.325745463371276855e-02 -1.935395970940589905e-02 -2.564436197280883789e-02 3.282203152775764465e-02 2.095471881330013275e-02 3.031508624553680420e-02 7.257170975208282471e-03 -3.537657111883163452e-02 1.458964403718709946e-02 -4.845087416470050812e-03 -1.263198256492614746e-02 -1.841877773404121399e-02 4.639329761266708374e-02 -3.082807548344135284e-02 2.653051353991031647e-02 1.931951753795146942e-02 -3.758138790726661682e-02 -3.489788621664047241e-02 -2.318480052053928375e-02 1.662816852331161499e-02 -4.022260010242462158e-02 -9.671457111835479736e-03 -2.087397128343582153e-02 -4.811501875519752502e-02 4.717834293842315674e-03 -2.657006494700908661e-02 3.284309990704059601e-03 2.580815460532903671e-03 -1.187815703451633453e-02 -2.970257773995399475e-02 -4.879293963313102722e-02 3.174725547432899475e-02 2.661965787410736084e-02 -1.694517210125923157e-02 2.314996905624866486e-02 -1.705581136047840118e-02 1.116015389561653137e-02 -2.263599820435047150e-02 -4.475426301360130310e-02 -1.893521100282669067e-02 5.474778823554515839e-03 -1.553949434310197830e-02 -1.202364265918731689e-02 -3.598763421177864075e-02 -2.586862631142139435e-02 -1.440642634406685829e-03 -4.236065596342086792e-02 -2.583169005811214447e-02 1.474909577518701553e-02 -3.921492025256156921e-02 -2.551644854247570038e-02 9.256121702492237091e-03 -1.384965609759092331e-02 -4.463444650173187256e-02 -2.471713349223136902e-02 -2.990540117025375366e-02 -4.489724338054656982e-02 -3.732550516724586487e-02 1.611754484474658966e-02 1.087889727205038071e-02 -1.556991972029209137e-02 -2.008895017206668854e-02 3.535892069339752197e-02 -4.142674058675765991e-02 -2.139502903446555138e-03 -3.482511237962171435e-05 -2.412868663668632507e-02 2.289081737399101257e-02 -4.971586540341377258e-02 1.671678968705236912e-03 2.829122729599475861e-02 4.053003713488578796e-02 -3.728978335857391357e-02 -4.029894247651100159e-02 -3.560562431812286377e-02 4.543004557490348816e-02 4.556147009134292603e-02 -3.958697244524955750e-02 -2.530546672642230988e-02 2.541001886129379272e-02 -2.413700334727764130e-02 9.568149223923683167e-03 2.240934036672115326e-02 3.440659958869218826e-03 2.625921554863452911e-02 4.009545221924781799e-02 -2.668616920709609985e-02 -5.773103330284357071e-03 3.742167726159095764e-02 -4.785107821226119995e-02 -4.139586538076400757e-02 -1.241667848080396652e-02 -3.393549937754869461e-03 -4.018060490489006042e-02 3.650068072602152824e-03 -3.730002418160438538e-02 -1.296829432249069214e-02 -5.944711621850728989e-03 4.414355382323265076e-02 -1.196197699755430222e-02 -2.409297227859497070e-02 1.895057410001754761e-02 -3.119900822639465332e-02 -4.448695108294487000e-02 -2.453042007982730865e-02 -1.919706538319587708e-02 5.031229183077812195e-02 8.839651010930538177e-03 -2.829012461006641388e-02 9.756129235029220581e-03 2.575810998678207397e-02 1.877982169389724731e-02 2.751712454482913017e-03 3.390694782137870789e-02 2.592412987723946571e-03 -2.921504154801368713e-02 1.489564310759305954e-02 8.760265074670314789e-03 -1.212892029434442520e-02 -3.203384205698966980e-02 -1.987508870661258698e-02 4.242115467786788940e-02 4.842888936400413513e-02 -1.352882571518421173e-02 -2.943926677107810974e-02 2.361115626990795135e-02 3.539398685097694397e-02 -1.030240859836339951e-02 -4.478892683982849121e-02 1.541803311556577682e-02 2.863719128072261810e-03 -2.949592843651771545e-02 -2.679967135190963745e-02 1.555646397173404694e-02 4.205526039004325867e-02 -1.883976045064628124e-03 -1.984806917607784271e-02 -3.393406048417091370e-02 -9.530949406325817108e-03 1.920387148857116699e-02 -5.066132172942161560e-02 -2.989216707646846771e-02 3.429526835680007935e-02 1.231653732247650623e-03 -1.333064679056406021e-02 -1.731485500931739807e-02 6.603081710636615753e-03 3.501437231898307800e-02 -4.634525254368782043e-02 -2.151588536798954010e-02 1.714572124183177948e-02 2.505264617502689362e-02 -4.573273286223411560e-02 2.907548472285270691e-02 -5.001634731888771057e-02 -1.771555654704570770e-02 -1.285259891301393509e-02 2.136852964758872986e-02 3.212371096014976501e-02 -3.988447412848472595e-02 -4.402308911085128784e-02 1.127765630371868610e-03 1.381071191281080246e-02 3.920595347881317139e-02 -4.170076549053192139e-02 2.393423393368721008e-02 3.596276417374610901e-02 1.922936551272869110e-02 -4.348995164036750793e-02 4.787043482065200806e-02 3.685406595468521118e-02 4.469618946313858032e-02 7.008718093857169151e-04 -1.648931298404932022e-03 2.316869795322418213e-02 -4.496801644563674927e-03 -1.603285409510135651e-02 3.632140532135963440e-02 3.684980422258377075e-02 3.290349990129470825e-02 -4.561502858996391296e-02 4.073140397667884827e-02 1.476598065346479416e-02 9.103625081479549408e-03 -4.707826301455497742e-02 -4.236118495464324951e-02 6.643335800617933273e-03 4.499680921435356140e-02 -4.304078966379165649e-02 4.165990278124809265e-02 4.056538641452789307e-02 4.136443138122558594e-02 -4.437038302421569824e-02 4.889302700757980347e-02 2.920242585241794586e-02 1.236442290246486664e-02 -1.656532287597656250e-02 5.026903934776782990e-03 1.478323340415954590e-02 2.703682752326130867e-03 1.025100145488977432e-02 -4.700371995568275452e-02 -2.908717095851898193e-02 -3.994249179959297180e-02 2.138682454824447632e-02 -1.848471723496913910e-02 -3.760561347007751465e-02 -3.169613331556320190e-02 3.193662315607070923e-02 -4.851824138313531876e-03 4.975329339504241943e-02 -2.184376493096351624e-02 3.419791534543037415e-02 -4.863358661532402039e-02 1.693396270275115967e-02 -1.456151157617568970e-02 2.952668815851211548e-02 -2.169270813465118408e-02 -3.816308826208114624e-02 2.467919141054153442e-02 2.739411406219005585e-02 -1.872086524963378906e-02 3.136746212840080261e-02 2.146430499851703644e-02 5.090180039405822754e-02 -5.771281663328409195e-03 -3.329137340188026428e-02 -2.705562673509120941e-02 4.845681786537170410e-02 4.111797735095024109e-02 -8.631102740764617920e-03 -2.623183466494083405e-02 4.312623664736747742e-02 4.692610818892717361e-03 -4.633191600441932678e-02 -8.352844044566154480e-03 4.689309000968933105e-02 8.923008106648921967e-03 -5.848921719007194042e-04 -4.059602320194244385e-02 5.849339067935943604e-03 2.388206869363784790e-02 2.558678761124610901e-02 4.845329374074935913e-02 4.266006126999855042e-02 6.818626541644334793e-03 -1.190159935504198074e-03 -4.745551943778991699e-02 -2.562008425593376160e-02 -4.267047718167304993e-02 -2.460800670087337494e-02 4.488038644194602966e-02 4.348907619714736938e-02 -4.130124300718307495e-02 -2.010642550885677338e-02 -9.751019999384880066e-03 -1.546313986182212830e-02 3.861320018768310547e-02 2.382832951843738556e-02 3.594352677464485168e-02 9.434957988560199738e-03 -2.640744857490062714e-02 4.195741191506385803e-02 -4.425413906574249268e-02 2.367785200476646423e-02 1.331009902060031891e-02 -3.640121594071388245e-02 3.017225675284862518e-02 4.500959813594818115e-02 1.203815080225467682e-02 -2.394683472812175751e-02 -3.723082318902015686e-02 -3.742391988635063171e-02 -2.761991880834102631e-02 -3.661842271685600281e-02 -4.588829725980758667e-02 -4.928989219479262829e-04 1.899687945842742920e-02 -4.267320036888122559e-03 2.471757866442203522e-02 -1.981146342586725950e-04 3.782439231872558594e-02 4.318942502140998840e-02 -4.235179722309112549e-02 3.356107696890830994e-02 1.596169173717498779e-02 4.231225699186325073e-02 -1.411450561136007309e-02 -1.777212694287300110e-02 -4.277469962835311890e-02 -1.515274494886398315e-02 1.681174151599407196e-02 3.642039746046066284e-02 -4.434641078114509583e-02 4.532456770539283752e-02 4.471705853939056396e-02 4.804602265357971191e-02 2.493276260793209076e-02 4.331994801759719849e-02 4.910833016037940979e-02 1.070251595228910446e-02 3.484711050987243652e-03 -3.311071917414665222e-02 -2.454374730587005615e-02 4.136611893773078918e-02 3.579217940568923950e-02 -4.613837227225303650e-02 4.278770461678504944e-02 5.297219104249961674e-05 -1.568809151649475098e-02 3.129531070590019226e-02 1.944956369698047638e-02 1.459917239844799042e-02 -4.149845242500305176e-02 2.533072233200073242e-02 3.694224357604980469e-02 3.767083957791328430e-02 2.370347641408443451e-02 -4.519494250416755676e-02 -1.150636281818151474e-02 4.901876673102378845e-02 -4.201565682888031006e-02 3.190669417381286621e-02 1.812708005309104919e-02 1.611035404494032264e-04 -1.899582915939390659e-03 3.352375701069831848e-02 -2.621126919984817505e-02 3.082297928631305695e-02 -2.026442065834999084e-02 2.479610964655876160e-02 2.061532810330390930e-02 3.883108496665954590e-02 -2.959149144589900970e-02 -3.297173976898193359e-02 -4.229096695780754089e-02 4.037819802761077881e-02 4.890895262360572815e-02 2.458565402776002884e-03 -4.273490235209465027e-02 -4.688828811049461365e-02 -3.027173690497875214e-02 -2.030969224870204926e-02 -2.490162476897239685e-02 -2.621356397867202759e-02 1.209616940468549728e-02 -4.375593736767768860e-02 -1.576179265975952148e-02 4.025791585445404053e-02 4.256668314337730408e-02 -5.746209993958473206e-03 2.700068522244691849e-03 -3.781527653336524963e-02 1.171930809505283833e-03 9.248178452253341675e-03 2.143226936459541321e-02 -2.580194734036922455e-02 -4.811340570449829102e-02 4.132583271712064743e-03 8.176739327609539032e-03 4.877045005559921265e-02 -8.612598176114261150e-04 3.357146680355072021e-02 -2.891019918024539948e-02 -2.737277746200561523e-02 4.564806446433067322e-02 2.495663054287433624e-02 2.599232830107212067e-02 -1.053918059915304184e-02 -1.898866030387580395e-04 8.278932422399520874e-03 -2.735159732401371002e-02 -3.561668854672461748e-04 -1.447847392410039902e-02 1.679013483226299286e-02 -2.938014920800924301e-03 -1.185284927487373352e-03 1.395109761506319046e-02 3.330801427364349365e-02 -7.859485223889350891e-03 -3.332765027880668640e-02 2.938871644437313080e-02 -3.822474554181098938e-02 3.560188040137290955e-02 3.621101006865501404e-02 4.202783480286598206e-02 2.259992063045501709e-02 3.697869926691055298e-02 -9.355648420751094818e-03 1.892969012260437012e-02 -4.150060936808586121e-02 1.843017525970935822e-02 2.589582838118076324e-02 8.465446531772613525e-03 3.353108093142509460e-02 3.983354941010475159e-02 1.582976058125495911e-02 -1.979418285191059113e-02 -2.897277288138866425e-02 1.660948270000517368e-03 2.660755068063735962e-02 2.668949402868747711e-02 -1.706609316170215607e-02 -2.642590552568435669e-02 -2.478907629847526550e-02 4.631361365318298340e-02 1.701065152883529663e-02 -2.715046890079975128e-02 -4.749893397092819214e-02 -4.496958106756210327e-02 4.294904321432113647e-02 1.253903750330209732e-02 -4.865688271820545197e-03 2.711895853281021118e-02 1.690110191702842712e-02 -2.223485335707664490e-02 2.943084575235843658e-02 -1.673909835517406464e-02 -1.557508576661348343e-02 9.876164840534329414e-04 -3.741014003753662109e-02 -4.132666159421205521e-03 -3.043758869171142578e-02 9.484458714723587036e-03 -1.791000016964972019e-03 3.914640843868255615e-02 -2.741592936217784882e-02 2.719185501337051392e-02 1.972852647304534912e-02 1.253021042793989182e-02 -3.909863997250795364e-03 -4.075483605265617371e-02 -1.634951308369636536e-02 -3.424527123570442200e-02 4.982063546776771545e-02 -4.275575280189514160e-02 6.790097337216138840e-03 1.666131243109703064e-02 4.654497373849153519e-03 -2.780048735439777374e-02 -4.176809266209602356e-02 -4.985259380191564560e-03 3.963913768529891968e-02 3.681539371609687805e-02 3.713676333427429199e-02 -8.500872179865837097e-03 4.058315604925155640e-02 1.471775397658348083e-02 1.619910076260566711e-02 2.101879008114337921e-02 -2.221607230603694916e-02 2.302449010312557220e-02 -2.085412479937076569e-02 9.786920621991157532e-03 4.817650094628334045e-02 -3.998059779405593872e-02 1.018595788627862930e-02 -3.151620924472808838e-02 1.100489310920238495e-02 2.069634199142456055e-02 -9.879370220005512238e-03 -2.439840510487556458e-02 9.756599552929401398e-03 -2.862487360835075378e-02 -1.216677110642194748e-02 -1.845069043338298798e-02 3.722646087408065796e-02 -3.890975378453731537e-03 6.348004098981618881e-04 -2.966763824224472046e-02 6.903300993144512177e-03 2.799899876117706299e-02 -3.998075053095817566e-02 -1.638158224523067474e-02 1.034267246723175049e-02 -4.308230429887771606e-02 -3.748974530026316643e-03 3.963193669915199280e-02 -1.743889227509498596e-02 -4.867441952228546143e-02 -1.629181206226348877e-02 4.208928346633911133e-02 2.979718893766403198e-02 3.123799106106162071e-03 3.585241734981536865e-02 -4.693588241934776306e-02 -1.884537562727928162e-02 -2.057978324592113495e-02 -3.753401711583137512e-02 -3.127604350447654724e-02 3.264169022440910339e-02 -1.830803975462913513e-02 2.946168743073940277e-02 -3.918827697634696960e-02 3.868930786848068237e-02 -3.735486418008804321e-02 2.254866849398240447e-04 -5.987944081425666809e-03 -1.283533312380313873e-02 4.815057665109634399e-02 -2.903235144913196564e-02 -2.437225915491580963e-02 2.742371894419193268e-02 -1.148178055882453918e-02 4.684574902057647705e-02 3.496041754260659218e-03 -6.220214534550905228e-03 9.770692326128482819e-03 -4.103279113769531250e-02 2.045166492462158203e-02 -2.179663814604282379e-02 -2.740595117211341858e-02 -3.308376669883728027e-02 -1.136301551014184952e-02 4.929790273308753967e-02 2.634542621672153473e-02 -2.447511814534664154e-02 2.477329038083553314e-02 2.138561941683292389e-02 8.754484355449676514e-03 -8.961227722465991974e-03 3.441131860017776489e-02 2.858953364193439484e-02 -3.074441105127334595e-02 4.699550196528434753e-02 -4.474915191531181335e-02 3.576763719320297241e-02 -2.017284743487834930e-02 3.401916474103927612e-02 9.975813329219818115e-03 4.913168027997016907e-02 2.437370643019676208e-02 -4.934908356517553329e-03 -2.740117721259593964e-02 -3.259957209229469299e-02 2.658203616738319397e-02 1.635789684951305389e-02 4.390994552522897720e-03 7.715712767094373703e-03 6.222546799108386040e-04 -1.192818116396665573e-02 1.555490074679255486e-03 -4.625269398093223572e-02 -1.000186707824468613e-02 -3.129443153738975525e-02 -5.040464550256729126e-02 -4.080600664019584656e-02 -1.167101692408323288e-02 -1.113746082410216331e-03 -2.599152177572250366e-02 4.385319724678993225e-02 -3.580052778124809265e-02 -1.269750483334064484e-02 -2.192436531186103821e-02 5.071962252259254456e-03 4.497218504548072815e-02 -3.080799430608749390e-02 4.228630568832159042e-03 -4.869100078940391541e-02 -3.094704076647758484e-02 -4.761971533298492432e-02 -2.031232602894306183e-02 6.225672550499439240e-04 9.994952939450740814e-03 5.125119909644126892e-02 -2.403052756562829018e-03 3.359642811119556427e-03 -2.416885457932949066e-02 1.566801592707633972e-02 -4.239845648407936096e-02 -3.907650709152221680e-02 -4.207273572683334351e-02 4.807643592357635498e-02 2.409566752612590790e-02 2.446530014276504517e-02 -1.212666835635900497e-02 -2.228895947337150574e-02 -2.678527124226093292e-02 5.094109103083610535e-02 1.204315107315778732e-02 -2.839696966111660004e-02 -3.129063174128532410e-02 -9.339283220469951630e-03 5.916524678468704224e-03 -1.229432038962841034e-02 4.201307892799377441e-02 -3.434164077043533325e-02 2.064949087798595428e-02 1.392423082143068314e-02 -3.671129047870635986e-02 -2.241662144660949707e-02 3.490428999066352844e-02 -4.020492732524871826e-02 -1.689302548766136169e-02 3.540318086743354797e-02 2.747108042240142822e-02 1.923598907887935638e-02 3.551732003688812256e-02 3.383650258183479309e-02 -4.625375568866729736e-02 2.639480866491794586e-02 4.571040719747543335e-02 -3.660108894109725952e-02 2.931038103997707367e-02 -2.744392622844316065e-05 2.989785186946392059e-02 1.316971890628337860e-02 3.479797765612602234e-02 -4.117023665457963943e-03 -1.862903870642185211e-02 -1.087344717234373093e-02 3.297119587659835815e-02 1.517455838620662689e-02 6.278214510530233383e-03 3.323399648070335388e-02 3.336484543979167938e-03 -2.098310180008411407e-02 -2.565044723451137543e-02 -2.864159271121025085e-02 2.141741290688514709e-02 -1.075277756899595261e-02 4.477692767977714539e-02 1.645608246326446533e-02 3.346696123480796814e-02 -5.721615161746740341e-03 -4.015618190169334412e-02 3.408446162939071655e-02 4.857999272644519806e-03 -2.743325941264629364e-02 7.595472969114780426e-03 5.019507929682731628e-02 4.329914599657058716e-02 4.390265792608261108e-02 -3.580350428819656372e-02 -1.652342267334461212e-02 7.390760350972414017e-03 3.750168532133102417e-02 1.847434230148792267e-02 -2.844868414103984833e-02 2.240332029759883881e-02 -1.480604149401187897e-02 1.320482790470123291e-02 4.095005616545677185e-02 -3.195115132257342339e-03 4.289641231298446655e-02 -1.145580224692821503e-02 5.026836413890123367e-03 2.971972525119781494e-02 7.782870437949895859e-03 -3.308214619755744934e-02 2.422655560076236725e-02 -2.595226094126701355e-02 -6.183401215821504593e-03 4.562264680862426758e-02 -3.344304859638214111e-02 -4.129350185394287109e-02 -3.599128127098083496e-02 -4.620511457324028015e-02 2.831919305026531219e-02 -3.158462420105934143e-02 -1.605181954801082611e-02 4.225840419530868530e-02 1.522756647318601608e-02 -4.585524275898933411e-02 4.136916249990463257e-02 -4.133072122931480408e-02 2.033207193017005920e-02 1.168310642242431641e-02 -1.246166136115789413e-02 -4.076530039310455322e-02 -1.594187691807746887e-02 4.935467150062322617e-03 -4.078475758433341980e-02 4.411821067333221436e-02 -2.942758798599243164e-02 4.767593368887901306e-02 2.968848124146461487e-02 3.120409324765205383e-02 -5.110677331686019897e-03 4.147132113575935364e-02 7.760369917377829552e-04 -1.721246540546417236e-02 -4.378182440996170044e-02 3.763870149850845337e-02 -1.930630020797252655e-02 4.537580907344818115e-02 -1.725626364350318909e-02 -1.065018307417631149e-02 4.187798500061035156e-02 -4.630162194371223450e-02 -4.633470997214317322e-02 2.916847914457321167e-02 4.567471146583557129e-02 4.308782890439033508e-02 3.926577419042587280e-02 1.304946094751358032e-02 4.313383623957633972e-02 2.338864840567111969e-02 2.315550111234188080e-02 -3.279793262481689453e-02 4.026292823255062103e-03 -4.201427847146987915e-02 -4.716869734693318605e-04 -3.666494786739349365e-02 -6.850166711956262589e-03 9.017972275614738464e-03 4.887529462575912476e-02 -1.590840704739093781e-02 4.351621959358453751e-03 1.428411575034260750e-03 1.386645250022411346e-02 2.944181859493255615e-02 -4.753534123301506042e-02 -3.755338862538337708e-02 3.426406905055046082e-02 -3.705208003520965576e-02 -2.181558683514595032e-02 2.263941243290901184e-02 3.432806208729743958e-02 -3.888581693172454834e-02 9.866106323897838593e-03 -2.861698903143405914e-02 3.655163571238517761e-02 3.138965740799903870e-02 4.520922899246215820e-03 -4.805048182606697083e-02 4.916368797421455383e-02 -5.681199487298727036e-03 -3.758838772773742676e-02 1.135697960853576660e-02 -6.670505274087190628e-03 -3.786588832736015320e-02 1.093441992998123169e-02 1.331795845180749893e-02 5.118309054523706436e-03 -3.384330868721008301e-02 4.989631474018096924e-02 -1.925415545701980591e-02 3.423962742090225220e-02 -4.004912078380584717e-02 4.270836338400840759e-02 1.076704356819391251e-02 -3.169820457696914673e-02 -3.872174769639968872e-02 1.025482360273599625e-02 -1.521623693406581879e-02 4.653485119342803955e-02 -3.930096700787544250e-02 8.922884240746498108e-03 -2.288446202874183655e-02 4.000248759984970093e-02 5.762028507888317108e-03 -1.920289546251296997e-02 -3.528385423123836517e-03 4.213822633028030396e-02 9.664741344749927521e-03 -9.220575913786888123e-03 3.485956043004989624e-02 3.631446510553359985e-02 -2.738071233034133911e-02 3.911632299423217773e-02 -4.459886252880096436e-02 3.780958428978919983e-02 -3.442605957388877869e-02 1.856416650116443634e-02 -1.012658607214689255e-02 4.323214665055274963e-02 -1.875025592744350433e-02 -4.264147020876407623e-03 4.658358544111251831e-02 -4.883430898189544678e-02 1.400043256580829620e-02 -3.126948140561580658e-03 4.624146095011383295e-04 -4.439512640237808228e-02 -6.711352150887250900e-03 -1.197922788560390472e-02 -2.397613227367401123e-02 -3.546739369630813599e-02 9.557631798088550568e-03 1.206716243177652359e-02 -1.870732568204402924e-02 -4.857092723250389099e-02 -8.785950485616922379e-04 1.673107407987117767e-02 2.037975192070007324e-02 -4.577717930078506470e-02 4.874105565249919891e-03 4.335636273026466370e-02 -4.260828718543052673e-02 4.659453779458999634e-02 2.528573572635650635e-02 -1.224921736866235733e-02 2.247724123299121857e-02 2.980778366327285767e-02 1.512774918228387833e-02 7.981281960383057594e-04 1.024011755362153053e-03 -3.465792164206504822e-02 -4.603861272335052490e-02 4.049209877848625183e-02 1.083476468920707703e-02 4.273129627108573914e-02 -1.640300452709197998e-02 4.722596704959869385e-02 1.643085479736328125e-02 -4.488177970051765442e-02 -2.890108339488506317e-02 -1.681970432400703430e-02 4.317074641585350037e-02 -4.021146148443222046e-02 9.947279468178749084e-03 -1.197197102010250092e-02 -1.187543198466300964e-02 5.325601901859045029e-03 1.319974567741155624e-02 4.373177886009216309e-02 3.123868256807327271e-02 3.455496160313487053e-03 3.353365510702133179e-02 -4.565403237938880920e-02 7.743444293737411499e-03 -3.550781309604644775e-02 -4.047275334596633911e-02 -1.471888739615678787e-02 -1.037783827632665634e-02 -1.121336314827203751e-02 -4.892459511756896973e-02 3.961271792650222778e-02 -2.477912046015262604e-02 3.438369557261466980e-02 -4.040164873003959656e-02 2.717922627925872803e-02 9.752045385539531708e-03 -1.396697200834751129e-02 -2.321557514369487762e-02 2.208239585161209106e-02 -1.035722624510526657e-02 -2.324312739074230194e-02 -1.123090554028749466e-02 3.315099328756332397e-02 -1.603415794670581818e-02 4.901515319943428040e-02 4.141284152865409851e-02 1.512244623154401779e-02 2.465900965034961700e-02 3.904247283935546875e-02 4.532107338309288025e-02 -4.406611993908882141e-02 2.780573442578315735e-02 -2.364518493413925171e-02 -4.612853005528450012e-02 5.056021735072135925e-02 -3.962754458189010620e-02 3.249495849013328552e-02 -3.155262907966971397e-03 9.840319864451885223e-03 -2.310400083661079407e-02 -1.691461540758609772e-02 3.951031342148780823e-02 -3.354768082499504089e-02 -1.932532526552677155e-02 1.887431554496288300e-02 8.821903727948665619e-03 4.131152480840682983e-02 -1.435350161045789719e-02 3.986648097634315491e-02 -1.549971941858530045e-02 -7.465808652341365814e-03 3.797752782702445984e-02 -1.090531237423419952e-02 -4.644993320107460022e-02 2.022439800202846527e-02 2.962557412683963776e-02 5.686091259121894836e-03 3.320356830954551697e-02 -1.078157965093851089e-02 -1.637249067425727844e-02 -4.338396340608596802e-02 -3.931689634919166565e-02 3.758122771978378296e-02 -4.910234361886978149e-03 6.247314624488353729e-03 1.630435511469841003e-02 3.139250725507736206e-02 -5.060336366295814514e-02 -1.396787166595458984e-02 -3.862755000591278076e-02 2.087661763653159142e-03 1.173799298703670502e-02 -3.615338727831840515e-02 4.791833087801933289e-02 -2.982218749821186066e-02 -2.789084985852241516e-02 -2.333327755331993103e-02 -6.754109635949134827e-03 -1.031384430825710297e-02 -4.078414291143417358e-02 3.255998343229293823e-02 -2.840242721140384674e-02 -4.072295501828193665e-02 -4.575457796454429626e-02 3.865157812833786011e-02 2.782346867024898529e-02 2.138972841203212738e-02 1.465343218296766281e-02 -4.693968966603279114e-02 -1.944669336080551147e-02 5.916487425565719604e-03 4.449577257037162781e-02 -3.931680321693420410e-02 -3.564319573342800140e-03 1.011550892144441605e-03 1.295329164713621140e-02 -1.375978160649538040e-02 2.553268522024154663e-02 -2.105168439447879791e-02 9.600581601262092590e-03 2.834507264196872711e-02 2.891558595001697540e-02 5.836453288793563843e-03 -3.882821649312973022e-02 3.219953179359436035e-02 -4.508821666240692139e-02 7.703814189881086349e-03 -3.202743455767631531e-02 4.095528274774551392e-02 3.029121644794940948e-02 -3.808471141383051872e-03 -6.987881846725940704e-03 -3.871162235736846924e-02 -2.481970004737377167e-02 4.816281422972679138e-02 3.723626583814620972e-02 3.904249891638755798e-02 -4.579249024391174316e-02 -2.110769599676132202e-02 -3.129399614408612251e-03 4.768347367644309998e-02 -1.587755233049392700e-02 -4.093340784311294556e-02 -2.249847864732146263e-03 -2.337613515555858612e-02 -2.224197983741760254e-02 -8.917761966586112976e-03 2.124325558543205261e-02 3.010731376707553864e-02 1.670945622026920319e-02 3.242413327097892761e-02 1.442956645041704178e-02 -7.884594611823558807e-03 -3.077899571508169174e-03 3.288606926798820496e-02 -1.197185553610324860e-02 -6.403686478734016418e-03 2.961393259465694427e-02 1.777023635804653168e-02 -7.065204554237425327e-04 -3.317406401038169861e-02 -4.060985520482063293e-02 1.899760216474533081e-03 -4.897561669349670410e-02 -3.401496633887290955e-02 4.013168625533580780e-03 -3.743472322821617126e-02 1.012313738465309143e-02 2.932005934417247772e-02 -3.040631860494613647e-02 -3.194787353277206421e-02 -4.539939016103744507e-02 7.750679738819599152e-03 -3.989993035793304443e-02 8.071356453001499176e-03 -2.205503359436988831e-02 1.398089714348316193e-02 2.327933907508850098e-02 1.966517046093940735e-02 -4.237981140613555908e-02 -2.931815385818481445e-02 2.775704115629196167e-02 1.362545043230056763e-02 -3.857228904962539673e-02 3.858094289898872375e-02 -4.073792137205600739e-03 5.033322796225547791e-02 3.062017075717449188e-02 -3.807450877502560616e-03 4.336582869291305542e-02 -4.052639752626419067e-02 4.897285625338554382e-02 -1.450778078287839890e-02 -5.415601190179586411e-03 -4.066650941967964172e-02 2.150485664606094360e-02 -1.459609810262918472e-02 4.289681464433670044e-02 -3.333798050880432129e-02 4.455964267253875732e-02 4.931784421205520630e-02 4.934613779187202454e-02 -1.441675517708063126e-02 -2.315438166260719299e-02 -1.092019490897655487e-02 6.950006354600191116e-03 -4.628451168537139893e-02 3.038264811038970947e-02 3.437256440520286560e-02 -6.655672565102577209e-03 -3.897118940949440002e-02 -2.339251153171062469e-02 -2.144546434283256531e-02 1.089805550873279572e-02 1.908398419618606567e-02 1.796180941164493561e-02 2.585589513182640076e-02 8.166381157934665680e-03 -3.382894769310951233e-02 2.893532626330852509e-02 -1.528928335756063461e-02 -1.017471076920628548e-04 -4.829464852809906006e-02 -1.524836011230945587e-02 1.921841874718666077e-02 -1.701668091118335724e-02 -2.107442356646060944e-02 2.188268303871154785e-02 3.619900345802307129e-02 -3.737592324614524841e-02 -4.540306329727172852e-02 -7.852683775126934052e-03 -4.072592779994010925e-02 2.265591919422149658e-02 -2.214078791439533234e-02 -2.762293256819248199e-02 -3.844304382801055908e-02 -7.985882461071014404e-03 4.388291272334754467e-04 3.966588899493217468e-02 -3.717570006847381592e-02 3.558004274964332581e-02 1.561259385198354721e-02 3.274574177339673042e-03 2.787398360669612885e-02 2.030749060213565826e-02 -3.307263180613517761e-02 2.940994128584861755e-02 7.169492542743682861e-03 1.856643706560134888e-02 -1.193024218082427979e-02 4.392318800091743469e-02 2.818692103028297424e-02 2.829981222748756409e-02 2.661485457792878151e-03 2.332418225705623627e-02 -1.091642770916223526e-02 1.033851318061351776e-02 -2.476602979004383087e-02 4.687708988785743713e-02 4.597072303295135498e-02 2.932079881429672241e-02 -3.951096162199974060e-02 2.872649813070893288e-03 -5.849451757967472076e-03 -7.102617993950843811e-03 2.600822970271110535e-02 3.957924619317054749e-02 -9.127953089773654938e-03 -4.899296164512634277e-02 -4.704992100596427917e-02 4.458970576524734497e-02 4.028974100947380066e-02 3.499125596135854721e-03 -3.730482421815395355e-03 1.852687634527683258e-02 -1.803058572113513947e-02 -7.024374324828386307e-03 4.737875610589981079e-02 2.969230711460113525e-02 -3.211131691932678223e-02 -3.557233512401580811e-02 8.415123447775840759e-03 1.269381120800971985e-02 -2.814652398228645325e-02 4.064806178212165833e-02 -1.021719165146350861e-02 9.121701121330261230e-03 2.578421868383884430e-02 -3.478211537003517151e-02 4.213478043675422668e-02 1.616352237761020660e-03 -4.463774710893630981e-02 2.454310469329357147e-02 -2.159539610147476196e-03 -4.444636404514312744e-02 -5.658223759382963181e-03 3.709197510033845901e-03 -3.278994560241699219e-02 -4.488345980644226074e-02 -2.242721989750862122e-02 3.000904992222785950e-02 1.967927813529968262e-02 -2.178499847650527954e-02 -1.989713869988918304e-02 -2.206430956721305847e-02 -4.134536534547805786e-02 4.549691826105117798e-02 -3.717691823840141296e-02 -3.687000274658203125e-02 -2.115337178111076355e-03 4.710058867931365967e-02 3.305022418498992920e-02 -1.532489061355590820e-02 1.692051067948341370e-02 -2.493701316416263580e-02 1.413038279861211777e-02 7.599327713251113892e-03 -4.217951372265815735e-02 2.447574213147163391e-02 -4.769986495375633240e-02 2.751843072474002838e-02 5.255418829619884491e-03 -1.861715503036975861e-02 1.068820338696241379e-02 3.004316054284572601e-02 7.525340188294649124e-03 -4.385508224368095398e-02 4.155911132693290710e-02 -1.204967778176069260e-02 -4.818265512585639954e-02 -4.411596804857254028e-02 3.569393977522850037e-02 2.400212921202182770e-02 2.552219107747077942e-02 4.523824527859687805e-02 4.666781984269618988e-03 2.870686165988445282e-02 1.225227257236838341e-03 4.651850461959838867e-02 -1.377089228481054306e-02 -4.229780659079551697e-02 -2.154847979545593262e-02 3.228261321783065796e-02 4.669235274195671082e-02 9.454998187720775604e-03 3.218663856387138367e-02 -1.562149450182914734e-02 6.103457883000373840e-03 -1.936940848827362061e-02 3.738476708531379700e-02 1.883944310247898102e-02 2.593540586531162262e-02 -4.008639231324195862e-02 1.303602568805217743e-02 -2.289480529725551605e-02 -4.529980197548866272e-02 1.747785136103630066e-02 4.370390251278877258e-02 -1.197667233645915985e-02 2.611614298075437546e-03 4.816921427845954895e-02 5.361686460673809052e-03 -1.338619389571249485e-03 3.871086612343788147e-02 -3.198026493191719055e-02 -4.653114825487136841e-02 -4.177541006356477737e-03 -4.106527566909790039e-02 -1.025504246354103088e-02 4.233280569314956665e-02 4.395014420151710510e-02 -4.863071069121360779e-02 -1.036159577779471874e-03 3.079897724092006683e-02 3.441520407795906067e-02 3.748890757560729980e-02 1.779584027826786041e-02 7.528911344707012177e-03 3.807822242379188538e-02 -2.858940325677394867e-02 -3.011037036776542664e-02 3.311922401189804077e-02 -2.460254170000553131e-02 -2.406237274408340454e-02 -1.614022441208362579e-02 1.990127004683017731e-02 2.169677615165710449e-02 -7.127747870981693268e-03 -3.521972894668579102e-02 -3.468122333288192749e-02 4.761929810047149658e-02 3.651971637737005949e-04 -2.805558033287525177e-02 -1.562085840851068497e-02 -3.215739503502845764e-03 2.104416675865650177e-02 4.793473333120346069e-02 -3.211941197514533997e-02 3.027556464076042175e-02 -1.188745442777872086e-02 -2.776858583092689514e-02 2.847055718302726746e-02 -4.774137213826179504e-02 2.367759309709072113e-02 -3.773897886276245117e-02 -2.140940539538860321e-02 -3.684744983911514282e-02 6.006485782563686371e-03 4.422071948647499084e-02 -4.078439623117446899e-02 -2.903981134295463562e-03 1.370461191982030869e-02 -3.022572211921215057e-02 -1.464165747165679932e-02 3.849199274554848671e-03 -3.913319855928421021e-02 -3.705084789544343948e-03 4.699344560503959656e-02 1.973005011677742004e-02 1.641307957470417023e-02 -5.275297444313764572e-03 3.421796113252639771e-02 -3.798100724816322327e-02 3.847271203994750977e-02 4.900764673948287964e-02 8.208381012082099915e-03 -2.875298634171485901e-02 -2.970550023019313812e-02 -5.553925875574350357e-03 4.237755388021469116e-02 -4.984286054968833923e-02 -1.821338199079036713e-02 -1.341339759528636932e-02 -4.456345736980438232e-02 2.395540475845336914e-02 5.338666494935750961e-03 -9.239709936082363129e-03 2.189260534942150116e-02 3.700095787644386292e-02 -1.749980077147483826e-02 5.425711628049612045e-03 3.313084691762924194e-02 -4.224054515361785889e-02 -8.639527368359267712e-04 4.460726864635944366e-03 -9.005603380501270294e-03 4.939618706703186035e-02 4.302246868610382080e-02 -4.087708145380020142e-02 3.282614424824714661e-02 2.076104097068309784e-02 -3.256080299615859985e-02 1.044364087283611298e-02 -3.348958864808082581e-02 3.030381631106138229e-03 -4.146616533398628235e-02 -1.524737686850130558e-03 -3.397493809461593628e-02 3.910041972994804382e-02 -6.748929619789123535e-03 -3.984081372618675232e-02 -1.099673192948102951e-02 -3.738468885421752930e-02 -1.719150878489017487e-02 4.782258719205856323e-02 -4.845184460282325745e-02 -3.469843417406082153e-02 -1.945507340133190155e-02 -4.275058209896087646e-02 1.939305290579795837e-02 -2.949770539999008179e-02 2.753070369362831116e-02 1.130739040672779083e-02 4.132539406418800354e-02 3.142211586236953735e-03 9.110823273658752441e-03 -6.132871378213167191e-03 3.887950628995895386e-02 1.564919715747237206e-03 9.334255591966211796e-04 -2.022249065339565277e-02 -1.591675169765949249e-02 -3.981233015656471252e-02 4.448502510786056519e-02 4.878012463450431824e-02 1.215941039845347404e-03 4.734434187412261963e-02 1.532966922968626022e-02 3.743659332394599915e-02 4.617488943040370941e-03 3.101803734898567200e-02 3.390395268797874451e-02 4.283766448497772217e-02 4.086847975850105286e-02 -4.085031803697347641e-03 -1.462746318429708481e-02 -3.013893030583858490e-03 -4.690750688314437866e-02 9.295958094298839569e-03 4.291732981801033020e-02 -3.129770606756210327e-02 -4.141030833125114441e-03 4.955891519784927368e-02 -1.582354307174682617e-02 1.883403956890106201e-02 -2.039969200268387794e-03 2.180531853809952736e-03 -4.060482606291770935e-02 2.099266275763511658e-02 -4.085599631071090698e-02 9.741527028381824493e-03 2.518483437597751617e-02 1.866627112030982971e-02 -2.647797390818595886e-02 -4.497450217604637146e-02 2.824290655553340912e-03 -2.295375801622867584e-02 -1.467727124691009521e-02 -4.280046850908547640e-04 4.360207542777061462e-02 8.590261451900005341e-03 2.767113968729972839e-02 -1.135188154876232147e-02 6.602365057915449142e-03 2.219248563051223755e-02 -2.500069327652454376e-02 2.962417900562286377e-02 -4.675183817744255066e-02 -2.691764011979103088e-02 1.060337293893098831e-02 -2.957137068733572960e-03 1.320484839379787445e-02 3.098884224891662598e-02 -2.302777953445911407e-02 1.433903444558382034e-02 -2.322285994887351990e-02 2.178257517516613007e-02 -4.491471499204635620e-02 3.984157368540763855e-02 3.104909509420394897e-02 4.912373423576354980e-02 -3.771280124783515930e-02 2.096303366124629974e-02 7.139050401747226715e-03 -4.958748817443847656e-02 2.741034142673015594e-02 2.742568217217922211e-02 1.733163185417652130e-02 8.923348039388656616e-03 -4.189996048808097839e-02 3.397731855511665344e-02 -1.175640150904655457e-02 -1.617846451699733734e-02 -4.146667942404747009e-02 -7.450889330357313156e-03 -8.403816027566790581e-04 3.888754919171333313e-02 4.100082814693450928e-02 -4.815477132797241211e-02 -3.404991328716278076e-02 2.133545232936739922e-03 3.944277763366699219e-02 4.295613616704940796e-02 1.278291922062635422e-02 -2.652735821902751923e-02 2.424596436321735382e-02 3.506121784448623657e-02 2.088509313762187958e-02 3.105536103248596191e-02 -2.303814329206943512e-02 2.430113963782787323e-02 2.291623316705226898e-02 1.582450233399868011e-02 -2.072059363126754761e-02 -2.545030601322650909e-02 4.158758372068405151e-02 7.714684121310710907e-03 -2.855610474944114685e-02 -2.513522282242774963e-02 -1.238008309155702591e-02 2.837008237838745117e-02 -6.993067217990756035e-04 -2.688909135758876801e-02 4.322310537099838257e-02 -4.600659012794494629e-02 4.838727042078971863e-02 1.940918527543544769e-02 3.588496521115303040e-02 1.507591735571622849e-02 -1.460007391870021820e-02 -3.607427701354026794e-02 1.376508269459009171e-02 3.634809330105781555e-02 1.219703909009695053e-02 -1.949041709303855896e-02 3.630067035555839539e-02 4.635537788271903992e-02 -4.053803160786628723e-02 -4.424691200256347656e-02 -3.583769500255584717e-02 -1.830106973648071289e-02 -3.586870059370994568e-02 -1.310523971915245056e-02 2.158893330488353968e-04 -2.014811150729656219e-02 3.725109249353408813e-02 -3.098195604979991913e-02 4.309762269258499146e-02 -1.094255875796079636e-02 -3.371294587850570679e-02 5.734174512326717377e-03 -6.745258811861276627e-03 9.853905066847801208e-03 -4.374885186553001404e-02 2.753852680325508118e-02 4.657368361949920654e-02 1.962683163583278656e-02 -3.939811140298843384e-02 -3.386196866631507874e-02 3.127321973443031311e-02 3.642314299941062927e-02 -2.258232608437538147e-02 -4.546175897121429443e-02 -4.771698266267776489e-03 4.608875885605812073e-02 -9.640157222747802734e-03 4.548345133662223816e-02 -3.817327693104743958e-02 -4.952304437756538391e-02 3.231422975659370422e-02 1.958682574331760406e-02 -1.810984313488006592e-02 -2.748317783698439598e-03 -2.936546131968498230e-02 2.874045446515083313e-02 -3.808843903243541718e-04 2.012387290596961975e-02 4.463483113795518875e-03 