1.529120840132236481e-02 2.520406153053045273e-03 7.408846914768218994e-02 8.762259781360626221e-02 7.045449316501617432e-02 -1.324406266212463379e-02 -3.615752607583999634e-02 5.462533608078956604e-02 -5.575016885995864868e-02 9.192983806133270264e-02 5.081374570727348328e-02 7.324873656034469604e-02 -2.971586398780345917e-02 6.086007878184318542e-02 7.226485759019851685e-02 -9.398994036018848419e-03 -1.282486715354025364e-03 -5.001629143953323364e-02 -5.248082056641578674e-02 -7.543473690748214722e-02 -1.419059187173843384e-02 6.578345596790313721e-02 -5.601129680871963501e-02 -5.857184901833534241e-02 4.663690179586410522e-02 5.299794953316450119e-03 8.486458659172058105e-02 -8.098614960908889771e-02 -1.218455657362937927e-02 5.351500958204269409e-02 5.952463671565055847e-02 1.420676149427890778e-02
4.001798480749130249e-02 -4.401205852627754211e-02 -1.037261076271533966e-02 4.376610741019248962e-02 5.999310314655303955e-02 -2.453736774623394012e-02 4.249568656086921692e-02 6.187520921230316162e-03 -3.600414842367172241e-02 9.001541882753372192e-02 5.735905840992927551e-02 -3.511036932468414307e-02 -6.519988924264907837e-02 2.691560192033648491e-03 4.468749463558197021e-02 -2.825143933296203613e-02 5.680508539080619812e-02 3.480158746242523193e-02 -2.858897484838962555e-02 4.258988797664642334e-02 7.260571420192718506e-02 2.347667329013347626e-02 7.501248270273208618e-02 5.821949988603591919e-02 4.822420701384544373e-02 -6.550083309412002563e-02 1.595270447432994843e-02 5.419736355543136597e-02 2.522289380431175232e-02 8.755020797252655029e-02 -6.815195083618164062e-02 1.221802434884011745e-03
7.247359026223421097e-03 4.596020653843879700e-02 5.870723351836204529e-02 -6.939592957496643066e-02 7.034860551357269287e-03 1.586282439529895782e-02 -8.163289725780487061e-02 7.625672034919261932e-03 -7.486765831708908081e-02 -2.162024937570095062e-02 -7.565680146217346191e-02 6.315032392740249634e-02 -1.746087521314620972e-02 -3.042268194258213043e-02 -2.474246174097061157e-02 2.152117900550365448e-02 7.253107614815235138e-03 6.079944595694541931e-02 1.513076946139335632e-03 1.282454933971166611e-02 3.034810721874237061e-02 -2.081568725407123566e-02 8.406073600053787231e-02 6.758365035057067871e-02 6.107120960950851440e-02 -1.325574144721031189e-02 3.866398707032203674e-02 -1.159153878688812256e-02 7.192481309175491333e-02 -3.989848867058753967e-02 3.361773490905761719e-02 2.255832776427268982e-02
3.015091456472873688e-02 1.131638418883085251e-02 6.017177179455757141e-02 -2.274378575384616852e-02 2.869649976491928101e-02 7.148303091526031494e-02 1.842153817415237427e-02 4.750425368547439575e-02 7.547277957201004028e-02 7.162237912416458130e-02 -5.024883523583412170e-02 5.723078548908233643e-02 8.258656412363052368e-02 2.764475345611572266e-02 6.095658615231513977e-02 5.515543371438980103e-02 -6.249052658677101135e-02 3.439208865165710449e-02 4.668177291750907898e-02 -2.835373766720294952e-02 1.046807784587144852e-02 -1.775897666811943054e-02 8.182211220264434814e-02 4.569085314869880676e-02 -2.401531673967838287e-02 -5.583360046148300171e-02 2.682029828429222107e-02 1.335881184786558151e-02 -4.981034621596336365e-02 3.155221045017242432e-02 3.572085872292518616e-02 -3.110322169959545135e-02
7.980518788099288940e-02 5.362958833575248718e-02 6.199613213539123535e-02 4.875074326992034912e-02 1.543699018657207489e-02 3.661313280463218689e-02 -5.497135594487190247e-02 -5.606036260724067688e-02 1.038205716758966446e-02 -5.828711763024330139e-02 7.616721838712692261e-02 -5.497508123517036438e-02 -5.730442702770233154e-02 3.052250016480684280e-03 1.835659891366958618e-02 -1.155243348330259323e-02 3.360621398314833641e-03 6.772568076848983765e-02 2.761541632935404778e-03 -3.935475274920463562e-02 5.528260022401809692e-02 4.927178472280502319e-02 -7.754594832658767700e-02 1.933706551790237427e-02 -3.676298633217811584e-02 4.095200449228286743e-02 2.365779131650924683e-02 -5.143661797046661377e-02 -2.346417494118213654e-02 -4.024456813931465149e-02 3.810584172606468201e-02 -4.149497672915458679e-02
6.528449803590774536e-02 -6.022909656167030334e-02 -8.162424713373184204e-02 6.606230512261390686e-03 1.021822076290845871e-02 -4.527687560766935349e-03 -4.395780712366104126e-02 3.270351141691207886e-02 -1.755970530211925507e-02 2.958255819976329803e-02 -5.371870100498199463e-02 5.989023298025131226e-02 -7.695920020341873169e-02 3.988569078501313925e-04 8.214380592107772827e-02 6.622537970542907715e-02 5.912876874208450317e-02 -2.466058358550071716e-02 6.128097325563430786e-02 -3.063598833978176117e-02 8.487118035554885864e-02 -7.454071193933486938e-02 2.289121598005294800e-02 -3.575070574879646301e-02 -8.245846629142761230e-02 -6.599362194538116455e-02 3.833056660369038582e-03 4.604227095842361450e-02 -4.194940626621246338e-02 -6.252653896808624268e-02 -2.641894971020519733e-04 -8.354277163743972778e-02
7.801899313926696777e-02 -4.679758101701736450e-02 8.362925797700881958e-02 -3.637374565005302429e-02 -4.825463518500328064e-02 2.136724814772605896e-02 -8.267328143119812012e-03 -3.478078171610832214e-02 -3.432653099298477173e-02 -3.056859970092773438e-02 2.032226882874965668e-02 8.737265318632125854e-02 4.641241952776908875e-02 -5.205895751714706421e-02 7.669786363840103149e-02 6.136092916131019592e-02 -4.566040635108947754e-02 -7.176219671964645386e-02 4.800864309072494507e-02 -2.316440269351005554e-02 3.910997137427330017e-02 4.641763865947723389e-02 2.600568346679210663e-02 3.285813331604003906e-02 -6.741390377283096313e-02 -5.006737634539604187e-02 4.825773462653160095e-02 8.324261871166527271e-04 3.170214826241135597e-03 3.305583074688911438e-02 -1.719761407002806664e-03 -4.977552965283393860e-02
4.120507463812828064e-02 6.772344559431076050e-02 -1.138153485953807831e-02 8.275660127401351929e-02 9.389100596308708191e-03 -7.276277244091033936e-02 -6.197261158376932144e-03 7.913784682750701904e-02 9.498256258666515350e-03 5.949278175830841064e-02 1.045773923397064209e-02 -3.945311531424522400e-02 -7.683237642049789429e-02 -9.825530461966991425e-03 1.021814718842506409e-02 6.157176196575164795e-02 -1.619327999651432037e-02 1.471372041851282120e-02 -5.170023068785667419e-02 4.873856529593467712e-02 -5.525340884923934937e-02 -7.097127381712198257e-03 -7.065664231777191162e-02 7.716631144285202026e-02 -9.210586547851562500e-03 -5.323680490255355835e-02 5.976780876517295837e-02 -6.250455230474472046e-02 -4.183140024542808533e-02 -2.333191037178039551e-02 7.428754121065139771e-02 -2.558971382677555084e-02
1.267661154270172119e-02 7.672127336263656616e-02 2.428314276039600372e-02 8.602967485785484314e-03 -1.237499900162220001e-02 7.301071286201477051e-02 5.129292607307434082e-03 -2.317387051880359650e-02 6.493271142244338989e-02 8.490587770938873291e-02 -3.177753090858459473e-02 8.062761276960372925e-02 -6.152373552322387695e-02 -2.504320628941059113e-02 -1.525413803756237030e-02 1.672171242535114288e-02 5.807583406567573547e-02 -5.367697030305862427e-02 3.507242351770401001e-02 -3.583457320928573608e-02 -2.631113678216934204e-02 -1.184409763664007187e-02 5.917705968022346497e-02 4.017717763781547546e-02 1.337402500212192535e-02 -2.866614796221256256e-02 5.942061543464660645e-02 1.779924333095550537e-02 -3.394743800163269043e-02 6.106482818722724915e-02 8.343795686960220337e-02 -3.445656970143318176e-02
-7.655810099095106125e-03 -2.685891278088092804e-02 6.229032762348651886e-03 -7.254518568515777588e-02 -4.146498069167137146e-02 -1.334604900330305099e-02 -1.832363754510879517e-02 -4.511561244726181030e-02 -6.406788527965545654e-02 6.773974746465682983e-02 1.591135375201702118e-02 7.248883694410324097e-02 4.603110253810882568e-03 5.435270816087722778e-02 -4.829183220863342285e-02 6.057420000433921814e-02 -5.037946254014968872e-02 3.729083016514778137e-02 -5.061814561486244202e-02 2.624420914798974991e-03 8.945595473051071167e-02 1.983784139156341553e-02 -4.628229141235351562e-02 8.927805721759796143e-02 7.766649872064590454e-02 5.063338577747344971e-02 6.531625241041183472e-02 -7.957693189382553101e-02 -8.386112004518508911e-02 -1.681117154657840729e-02 -5.063918232917785645e-02 5.356194917112588882e-03
1.381965354084968567e-02 5.656395852565765381e-02 -2.995416708290576935e-02 6.304989103227853775e-03 -2.553975582122802734e-02 -6.484848260879516602e-02 5.440119281411170959e-02 2.707930468022823334e-02 -1.141978241503238678e-02 4.556030407547950745e-02 7.744451053440570831e-03 3.853017464280128479e-02 5.721339583396911621e-02 8.096510544419288635e-03 9.492566436529159546e-02 6.334447860717773438e-02 -2.851970307528972626e-02 6.909521669149398804e-02 -2.548506297171115875e-02 -4.414701834321022034e-02 5.075894296169281006e-02 7.755574584007263184e-02 1.692670583724975586e-02 5.181856825947761536e-02 6.856866180896759033e-02 -7.903181016445159912e-02 3.604785539209842682e-03 -3.627274185419082642e-02 3.186031803488731384e-02 -6.142236664891242981e-02 -2.664198167622089386e-03 3.601695224642753601e-02
-4.986859858036041260e-02 4.973087459802627563e-02 -7.154588401317596436e-02 9.004320949316024780e-02 -4.370184987783432007e-02 -3.775472193956375122e-02 -6.283733248710632324e-02 3.729048743844032288e-02 1.625415310263633728e-02 -5.674733314663171768e-03 -4.144972562789916992e-02 6.423636525869369507e-02 -4.242704808712005615e-02 4.229603707790374756e-02 -4.062120988965034485e-02 -5.048309639096260071e-02 5.263686925172805786e-02 -3.898712992668151855e-02 -6.136707216501235962e-02 8.328023552894592285e-02 1.239318959414958954e-02 -1.262173987925052643e-02 2.041967213153839111e-02 -1.640067994594573975e-02 -1.268509123474359512e-02 -2.412177249789237976e-02 2.775206789374351501e-02 -6.123011931777000427e-02 4.743763059377670288e-02 2.600392326712608337e-02 4.860937595367431641e-02 5.418179184198379517e-02
3.512949869036674500e-02 6.292131543159484863e-02 -4.858943074941635132e-02 8.789940178394317627e-02 4.948607459664344788e-02 6.007820367813110352e-03 -8.508730679750442505e-02 -6.338036619126796722e-03 -2.304471656680107117e-02 3.105458803474903107e-03 -2.180146239697933197e-02 7.954408228397369385e-02 3.286321833729743958e-02 4.738872498273849487e-02 9.706128388643264771e-03 -3.035524860024452209e-02 3.582573682069778442e-02 -3.373754152562469244e-04 -2.772067673504352570e-02 -3.005330264568328857e-02 8.530373871326446533e-02 -8.490930497646331787e-02 -4.768238961696624756e-02 -8.666528388857841492e-03 2.923065237700939178e-02 1.219060178846120834e-02 -5.347957462072372437e-02 4.467656090855598450e-02 4.635613784193992615e-02 3.005525842308998108e-02 -2.313276566565036774e-02 -5.227106437087059021e-02
2.238554321229457855e-02 4.230786114931106567e-02 -2.690589986741542816e-02 8.510135114192962646e-02 8.933937549591064453e-02 -3.083470650017261505e-02 4.841993376612663269e-02 7.805176079273223877e-02 -5.523793399333953857e-03 3.409325331449508667e-02 7.514297962188720703e-02 4.734175652265548706e-02 -5.032189562916755676e-02 -6.088053807616233826e-02 -4.829905927181243896e-02 7.083806395530700684e-02 4.355470836162567139e-02 2.825710922479629517e-02 -5.874278768897056580e-02 1.475150510668754578e-02 -4.681874066591262817e-03 -1.265946589410305023e-02 -1.461415179073810577e-02 -6.327987462282180786e-02 4.199177026748657227e-03 -6.204629316926002502e-02 3.063072217628359795e-04 -1.076097227632999420e-02 1.670636795461177826e-02 -7.181458175182342529e-02 -8.433950692415237427e-02 6.386490911245346069e-02
-6.283300928771495819e-03 -6.851206067949533463e-03 -7.346150930970907211e-03 -3.696427214890718460e-03 -1.708585210144519806e-02 3.602400049567222595e-02 -5.459852144122123718e-02 3.898889571428298950e-02 -3.205291181802749634e-02 -6.974018365144729614e-02 7.963149808347225189e-03 -4.041976481676101685e-02 2.552774176001548767e-02 -6.782016903162002563e-02 4.634643718600273132e-02 -4.656023904681205750e-02 8.380442112684249878e-02 4.388000816106796265e-02 5.699834227561950684e-02 3.014029748737812042e-02 -4.283070564270019531e-02 -5.706318095326423645e-02 5.778220295906066895e-02 8.168017119169235229e-02 -2.965294197201728821e-02 -3.205317258834838867e-02 -1.801370084285736084e-02 -5.605900660157203674e-02 -8.432611823081970215e-03 -2.023758366703987122e-02 6.410794705152511597e-02 7.172908633947372437e-02
-9.143320843577384949e-03 6.404956430196762085e-02 4.415804892778396606e-02 4.679741710424423218e-02 3.269411250948905945e-02 -6.823508441448211670e-02 -6.966347992420196533e-02 -7.581721991300582886e-02 8.240330219268798828e-02 -6.809163838624954224e-02 1.729222014546394348e-02 -3.829697147011756897e-02 4.212291538715362549e-02 -7.264836877584457397e-02 2.770425565540790558e-02 8.411470055580139160e-02 8.019283413887023926e-02 1.597053185105323792e-02 -1.317387726157903671e-02 1.861104369163513184e-02 -3.262412175536155701e-02 -1.940307207405567169e-02 4.362962767481803894e-02 -1.466189976781606674e-02 -6.310891360044479370e-02 4.650909826159477234e-02 -6.077855452895164490e-02 -3.288407251238822937e-02 -6.170910224318504333e-02 -1.860682852566242218e-02 -5.069749802350997925e-02 1.196781732141971588e-02
-4.135279357433319092e-02 -3.039950504899024963e-02 -4.549469798803329468e-03 -3.863378986716270447e-02 4.880549013614654541e-02 8.024823665618896484e-02 -6.712003611028194427e-03 7.646396756172180176e-02 -3.971819300204515457e-03 -2.931385301053524017e-02 4.061900451779365540e-02 5.223644152283668518e-02 -2.525827847421169281e-02 -5.236832424998283386e-02 6.388276070356369019e-02 2.330063655972480774e-02 3.355219215154647827e-02 -3.108403086662292480e-02 -1.470730453729629517e-02 -5.592587962746620178e-02 7.904054224491119385e-02 -3.071656264364719391e-02 -5.471245944499969482e-02 2.025412768125534058e-02 1.356216613203287125e-02 -5.343921855092048645e-02 -4.677530005574226379e-02 -6.410065293312072754e-02 5.766720324754714966e-02 -8.127094805240631104e-02 -6.167743727564811707e-02 6.534764915704727173e-02
-7.149815093725919724e-03 -4.295607283711433411e-02 -5.205548554658889771e-02 -4.453243687748908997e-02 -4.545471444725990295e-02 1.728327758610248566e-02 5.681724473834037781e-02 3.761929273605346680e-02 2.586297132074832916e-02 1.236632582731544971e-03 6.946288980543613434e-03 -3.497556596994400024e-02 1.481513585895299911e-02 -1.021504402160644531e-02 -1.986980624496936798e-02 -3.706799075007438660e-02 6.031731609255075455e-03 5.974828079342842102e-02 3.126095747575163841e-03 -4.759597033262252808e-02 -6.063157320022583008e-02 1.898830756545066833e-02 3.526677563786506653e-02 8.282407373189926147e-02 2.275732345879077911e-02 1.333186309784650803e-02 -4.351794347167015076e-02 7.754092663526535034e-02 -6.267169117927551270e-02 3.065899200737476349e-02 8.006230741739273071e-02 -5.276643112301826477e-02
-6.877041608095169067e-02 -4.027131199836730957e-02 -8.402587473392486572e-02 -5.577927455306053162e-02 -7.600250840187072754e-02 7.881976664066314697e-03 -6.884623318910598755e-02 -6.005221232771873474e-02 -3.359019756317138672e-02 -4.084802046418190002e-02 -2.501887455582618713e-02 -7.190815359354019165e-02 1.305879093706607819e-02 -1.228267047554254532e-02 1.855033077299594879e-02 7.626072317361831665e-02 1.102116331458091736e-02 2.055134624242782593e-02 5.858828127384185791e-02 9.037691354751586914e-02 -3.965994715690612793e-02 -2.605007961392402649e-02 2.386299148201942444e-02 -2.078280411660671234e-02 6.535114347934722900e-02 -7.003558333963155746e-03 -3.958322107791900635e-03 -3.354955464601516724e-02 8.054941147565841675e-02 7.942356169223785400e-02 -3.993580117821693420e-02 -8.592704683542251587e-02
-7.464107125997543335e-02 2.079644426703453064e-02 -5.235194787383079529e-02 -4.709761217236518860e-02 4.755010083317756653e-02 7.959437370300292969e-02 4.650883004069328308e-02 5.545150488615036011e-02 -7.831582427024841309e-02 7.221298664808273315e-02 -3.080078214406967163e-02 -2.648602053523063660e-02 -2.144168689846992493e-02 -5.071920342743396759e-03 8.717199414968490601e-02 3.465622663497924805e-02 9.061207622289657593e-02 -3.992969170212745667e-02 -6.940861791372299194e-02 9.269820898771286011e-02 3.734894469380378723e-02 -6.251190602779388428e-02 -5.109102278947830200e-02 3.608484752476215363e-03 -1.153013296425342560e-02 3.059833683073520660e-02 -5.625627562403678894e-02 -2.934068068861961365e-02 -8.046060800552368164e-02 2.851401455700397491e-02 -8.237925916910171509e-02 -3.190252929925918579e-02
1.747314934618771076e-03 8.674436062574386597e-02 -8.040379732847213745e-02 5.567695945501327515e-02 2.143443934619426727e-02 7.823340594768524170e-02 -3.584506921470165253e-03 2.208139374852180481e-02 4.718434438109397888e-02 8.219495415687561035e-02 3.553141653537750244e-02 3.106546774506568909e-02 -3.144063428044319153e-02 -6.352871656417846680e-02 8.655703067779541016e-02 2.449858002364635468e-02 8.298945426940917969e-02 -3.302032873034477234e-02 1.843527890741825104e-02 1.796008646488189697e-02 5.414921045303344727e-02 -7.262058556079864502e-02 6.361172348260879517e-02 2.172118611633777618e-02 5.269155278801918030e-02 -3.451023250818252563e-02 4.511777311563491821e-02 2.199411578476428986e-02 7.068479806184768677e-02 3.766478970646858215e-02 3.795206919312477112e-02 -3.200931474566459656e-02
-4.237473011016845703e-02 2.349241450428962708e-02 4.433199018239974976e-02 3.061356954276561737e-02 6.572550535202026367e-02 -6.511770933866500854e-02 -8.111203461885452271e-02 -6.495463848114013672e-02 -1.596908830106258392e-02 -7.947270572185516357e-02 7.201015204191207886e-02 4.341137036681175232e-02 4.499607905745506287e-02 6.798360496759414673e-02 3.287542844191193581e-03 4.111890494823455811e-02 1.205665431916713715e-02 -6.749806553125381470e-02 -3.139377385377883911e-02 8.781071007251739502e-02 6.448978930711746216e-02 -4.161772504448890686e-02 8.837380260229110718e-02 -4.895117878913879395e-02 -7.169870287179946899e-02 5.036397278308868408e-02 7.171276211738586426e-02 -7.552049309015274048e-02 -6.303741782903671265e-02 2.676691673696041107e-02 -1.754781231284141541e-02 -3.710183547809720039e-03
-6.951554119586944580e-02 -3.965121507644653320e-02 6.778629869222640991e-02 7.375456392765045166e-02 -6.384538859128952026e-02 7.669012248516082764e-02 7.537991553544998169e-02 7.794322911649942398e-03 -3.409153223037719727e-02 -1.166858803480863571e-02 7.064599543809890747e-02 1.976706273853778839e-02 -6.673656404018402100e-02 2.562315575778484344e-02 -4.323356598615646362e-02 -1.445464696735143661e-02 5.510681122541427612e-02 2.597157098352909088e-02 1.458908990025520325e-02 2.593375369906425476e-02 -2.615336887538433075e-02 6.914298981428146362e-02 5.921797826886177063e-02 6.163458898663520813e-02 2.433427050709724426e-02 2.076353132724761963e-02 5.842392891645431519e-02 6.284002214670181274e-02 -8.119659870862960815e-02 5.851342342793941498e-03 3.106077387928962708e-02 -3.386891633272171021e-02
4.149195179343223572e-02 7.851032912731170654e-02 8.157364279031753540e-02 1.297385618090629578e-02 4.203792661428451538e-02 2.312518097460269928e-02 -4.708562791347503662e-02 8.479600399732589722e-02 -2.574128843843936920e-02 -7.802411168813705444e-02 8.121741563081741333e-02 6.970419734716415405e-02 -4.171914234757423401e-02 -5.982003360986709595e-02 9.197833947837352753e-03 -1.308396644890308380e-02 -2.599578164517879486e-02 6.222492828965187073e-02 6.202855706214904785e-02 6.780380010604858398e-02 3.040378913283348083e-02 -7.519826292991638184e-02 4.442062601447105408e-02 -3.610428050160408020e-02 -2.080453373491764069e-02 -5.645813420414924622e-02 -5.502490326762199402e-02 -1.284194830805063248e-02 7.027416676282882690e-02 -5.831357836723327637e-02 5.345370247960090637e-02 2.953222393989562988e-02
-6.531725823879241943e-02 5.619397386908531189e-02 -2.745380438864231110e-02 3.312079980969429016e-02 -8.668511174619197845e-03 -7.911138236522674561e-02 5.441515147686004639e-02 -2.277737669646739960e-02 -3.647423814982175827e-03 7.364421337842941284e-02 7.732792198657989502e-02 -5.929336324334144592e-02 5.447092279791831970e-02 8.095557987689971924e-02 1.915780943818390369e-03 5.868921056389808655e-02 1.188612449914216995e-02 -4.968672618269920349e-02 -1.004977896809577942e-02 4.439679905772209167e-02 7.400695234537124634e-02 -3.702363371849060059e-02 -6.687791645526885986e-02 4.646246880292892456e-02 4.065356403589248657e-02 8.110969327390193939e-03 -5.801504105329513550e-02 -8.030268549919128418e-02 -1.368605159223079681e-02 -2.253226004540920258e-02 7.953166961669921875e-02 2.756509697064757347e-03
