3.525815438479185104e-03 -5.628987774252891541e-02 1.213819254189729691e-03 8.307775110006332397e-02 -4.833957646042108536e-03 5.960108246654272079e-03 -3.934287279844284058e-02 -2.162529155611991882e-02 -1.190452929586172104e-02 -5.702262371778488159e-02 -6.422928720712661743e-02 -5.908760428428649902e-02 -7.362551987171173096e-02 -6.890713423490524292e-02 2.207565866410732269e-02 -1.265362463891506195e-02 -1.137537322938442230e-02 2.171541098505258560e-03 -8.447211980819702148e-02 5.638188123703002930e-02 3.173727169632911682e-02 -1.209943182766437531e-02 5.020029097795486450e-02 -6.765841506421566010e-03 -6.532444804906845093e-02 3.044625045731663704e-03 -3.337396308779716492e-02 -7.364108227193355560e-03 4.980973526835441589e-02 7.927335053682327271e-02 7.333967834711074829e-02 -8.486674726009368896e-02
-2.128058671951293945e-02 -5.049331486225128174e-02 7.387275248765945435e-02 -6.841403245925903320e-02 4.821544140577316284e-02 6.906001269817352295e-02 2.940749749541282654e-02 1.361230667680501938e-02 1.068341173231601715e-02 -7.677903026342391968e-02 -2.110476046800613403e-02 7.983586937189102173e-02 6.954280287027359009e-02 6.442750990390777588e-02 -4.884733259677886963e-02 -2.526342310011386871e-02 7.093854248523712158e-02 -4.205625504255294800e-02 -4.964150115847587585e-02 6.467945128679275513e-02 -8.101849257946014404e-02 -5.915068462491035461e-02 -2.060792222619056702e-02 -1.985502243041992188e-02 2.594561688601970673e-02 1.556908618658781052e-02 5.092497169971466064e-02 4.147815052419900894e-03 4.387823119759559631e-02 -8.026886731386184692e-02 -4.799179360270500183e-02 9.954167529940605164e-03
-2.085267007350921631e-02 5.604853853583335876e-02 -8.547832258045673370e-03 -1.939352601766586304e-02 8.131139725446701050e-02 -5.684193223714828491e-02 -5.649421364068984985e-02 7.520542293787002563e-02 -6.300798058509826660e-02 -4.246074333786964417e-02 -8.310052007436752319e-02 3.102490305900573730e-02 -3.277218714356422424e-02 -5.043115839362144470e-02 2.502131089568138123e-02 -7.812848780304193497e-04 -6.975262612104415894e-02 -5.652936547994613647e-02 -5.770924314856529236e-02 -5.812867730855941772e-02 8.249046653509140015e-02 7.975492626428604126e-02 -8.209181576967239380e-02 7.177606225013732910e-02 7.706411927938461304e-02 -2.095875330269336700e-02 -2.922402927652001381e-03 2.666443958878517151e-02 6.545713543891906738e-02 -4.506475105881690979e-02 -3.621810674667358398e-02 -2.041956409811973572e-02
-3.485667705535888672e-02 -5.952733382582664490e-02 -4.857833031564950943e-03 -8.321788161993026733e-03 -2.888283692300319672e-03 4.193072021007537842e-02 -4.361898079514503479e-02 -1.634315028786659241e-02 -1.822138577699661255e-02 2.892863377928733826e-02 -3.333148732781410217e-02 -4.102617502212524414e-02 5.944622214883565903e-03 8.156678080558776855e-02 -6.346254795789718628e-02 -4.914852231740951538e-02 -7.673893868923187256e-02 -6.852418184280395508e-02 8.259935677051544189e-02 -1.686377078294754028e-02 -5.919033288955688477e-02 -7.607098203152418137e-03 -2.903391793370246887e-02 6.546961609274148941e-03 -7.662291172891855240e-03 -7.878346741199493408e-02 -8.229385130107402802e-03 4.641963168978691101e-02 -6.650072336196899414e-02 -8.508251607418060303e-02 -8.183971047401428223e-02 4.425793886184692383e-02
3.244534879922866821e-02 5.090978927910327911e-03 -4.392741620540618896e-02 3.802943229675292969e-02 7.768203318119049072e-02 -3.069067932665348053e-02 2.871906384825706482e-02 -4.322544112801551819e-02 8.144826442003250122e-02 3.584120422601699829e-02 1.002349983900785446e-02 -7.480022311210632324e-02 2.659183461219072342e-03 5.435762554407119751e-02 5.975634790956974030e-03 5.971634387969970703e-02 -1.021729316562414169e-02 4.251641780138015747e-02 -2.430180832743644714e-02 -6.918203830718994141e-02 7.829780131578445435e-02 1.896362006664276123e-02 8.268380537629127502e-03 -6.049421499483287334e-04 1.157660444732755423e-04 6.879270821809768677e-02 -7.672073692083358765e-02 -5.791176110506057739e-02 -6.314766407012939453e-02 8.519835770130157471e-02 -2.954227663576602936e-02 -3.867747634649276733e-02
-4.390907287597656250e-02 4.455620050430297852e-02 -7.173603773117065430e-02 -7.033558934926986694e-02 -3.169949725270271301e-02 1.307565066963434219e-02 -2.195491082966327667e-02 4.411789774894714355e-02 6.697099655866622925e-02 -8.027563989162445068e-02 8.287516236305236816e-02 -4.765083640813827515e-02 6.419633328914642334e-02 1.127439830452203751e-02 7.427441328763961792e-02 -3.423563903197646141e-03 -3.679868206381797791e-02 5.749068409204483032e-02 -5.121870338916778564e-02 3.635369241237640381e-02 3.443956375122070312e-02 -7.817903906106948853e-02 -7.650356739759445190e-02 -1.249721646308898926e-02 -4.627297446131706238e-02 6.487001478672027588e-02 8.298042416572570801e-02 -3.807804733514785767e-02 -1.779676415026187897e-02 -7.105471193790435791e-02 4.686703532934188843e-02 3.610633686184883118e-02
9.242516942322254181e-03 6.647648662328720093e-02 8.488748222589492798e-03 6.049868464469909668e-02 -3.936475887894630432e-02 4.763021320104598999e-02 5.335466936230659485e-02 -5.322892963886260986e-02 -2.211568690836429596e-02 -3.557395935058593750e-02 6.970845907926559448e-02 4.688551276922225952e-02 7.867110520601272583e-02 -3.487462922930717468e-02 5.903256312012672424e-02 2.153760939836502075e-02 1.631005480885505676e-02 -2.035978622734546661e-02 1.545487903058528900e-02 7.872734218835830688e-02 1.981578208506107330e-02 -2.808494865894317627e-02 -8.196138590574264526e-02 6.221903860569000244e-02 -3.862766548991203308e-02 5.017410730943083763e-04 -4.603639617562294006e-02 6.253898888826370239e-02 -7.044560462236404419e-02 5.255304276943206787e-03 -3.245739638805389404e-02 -4.192205145955085754e-02
-3.011511638760566711e-02 6.864797323942184448e-02 3.162010014057159424e-02 -6.618388742208480835e-02 -5.867501720786094666e-02 2.376558491960167885e-03 -4.405424371361732483e-02 5.259979516267776489e-02 -1.451817154884338379e-02 -7.502340711653232574e-03 3.175567463040351868e-02 -6.318088620901107788e-02 7.764168083667755127e-02 2.620404586195945740e-02 2.256966009736061096e-02 -4.514527320861816406e-02 6.064099445939064026e-02 -7.138464599847793579e-02 -4.838325455784797668e-02 -2.244271524250507355e-02 2.140564844012260437e-02 -6.007175520062446594e-02 3.323096036911010742e-02 -8.108381181955337524e-02 6.680748611688613892e-02 -6.482807546854019165e-02 2.411122061312198639e-02 -4.055549949407577515e-02 -1.651837490499019623e-02 5.809225142002105713e-02 -3.602381795644760132e-02 -3.535950556397438049e-02
-5.504864826798439026e-02 -2.785111591219902039e-02 3.620641306042671204e-02 5.285424366593360901e-02 3.830661997199058533e-02 -1.534954085946083069e-02 -4.444790538400411606e-03 -3.819721564650535583e-02 4.599298909306526184e-02 -7.240577042102813721e-02 5.726357921957969666e-02 -5.508046969771385193e-02 5.274417810142040253e-03 -7.886265218257904053e-02 2.299159392714500427e-02 1.337596960365772247e-02 -5.471367388963699341e-02 -4.231492802500724792e-02 3.684378229081630707e-03 4.622928053140640259e-02 -1.085943542420864105e-02 -6.772923469543457031e-02 7.471822027582675219e-05 1.381662953644990921e-02 -5.120795592665672302e-02 3.756690025329589844e-02 7.093027234077453613e-02 -4.449896514415740967e-03 3.457591310143470764e-02 -7.758652418851852417e-02 -7.345940917730331421e-02 -2.851566858589649200e-02
-1.961415447294712067e-02 3.214941918849945068e-02 -3.270518779754638672e-02 5.615862086415290833e-02 -3.985203057527542114e-02 7.903853058815002441e-02 -7.364923506975173950e-02 7.793624699115753174e-02 -1.228341739624738693e-02 -3.294615447521209717e-02 -6.878366321325302124e-02 -4.778346791863441467e-02 -7.070257514715194702e-02 1.918108388781547546e-02 -2.704217098653316498e-02 -4.846953600645065308e-02 2.134781889617443085e-02 -6.083877012133598328e-02 6.796663254499435425e-02 -6.470357626676559448e-02 -2.253825776278972626e-02 -3.929743170738220215e-02 -2.512776292860507965e-02 -7.512427866458892822e-02 -2.434488385915756226e-02 -5.216828733682632446e-02 1.704102940857410431e-02 -8.210782706737518311e-02 -5.965327098965644836e-02 -6.149976979941129684e-03 7.187961786985397339e-02 -3.588245064020156860e-02
5.395806953310966492e-02 5.342136695981025696e-02 7.415083795785903931e-02 3.002286143600940704e-02 -6.788690388202667236e-02 -7.590255886316299438e-02 2.681199461221694946e-02 -2.313399314880371094e-02 6.698454916477203369e-02 1.083820685744285583e-02 -2.495190501213073730e-02 -4.807980358600616455e-02 -4.594493284821510315e-02 1.604763977229595184e-02 -7.340468466281890869e-02 7.388683408498764038e-02 4.523032344877719879e-03 7.080313563346862793e-02 4.644269123673439026e-02 2.528173290193080902e-02 -6.100280955433845520e-02 -5.341336503624916077e-02 3.392186015844345093e-02 6.703770905733108521e-02 6.264071166515350342e-02 4.760425537824630737e-02 -7.089940458536148071e-02 3.674809634685516357e-02 1.804945804178714752e-02 7.280649989843368530e-02 5.031607672572135925e-02 7.750197313725948334e-03
1.506161876022815704e-02 -5.944566428661346436e-02 3.731672465801239014e-02 7.172264903783798218e-02 -4.682137630879878998e-03 -6.986134499311447144e-02 -4.230809956789016724e-02 -4.335413221269845963e-03 -5.036946851760149002e-03 -7.163602113723754883e-02 6.849651038646697998e-02 3.509858623147010803e-02 -6.285913288593292236e-02 -3.719448298215866089e-02 8.315660804510116577e-02 -6.138410419225692749e-02 2.603623084723949432e-02 -7.507725805044174194e-02 -6.187091022729873657e-02 -1.243906654417514801e-02 8.288337290287017822e-02 -4.504431784152984619e-02 -6.489548832178115845e-02 9.711986407637596130e-03 -2.006957307457923889e-03 -2.829944714903831482e-02 2.653987705707550049e-02 -2.368828514590859413e-03 2.201919816434383392e-02 2.625850215554237366e-02 2.282721363008022308e-02 2.378926239907741547e-02
-5.249431356787681580e-02 -2.462451532483100891e-02 6.544639170169830322e-02 -4.893061146140098572e-02 5.338127259165048599e-03 -2.159476466476917267e-02 -3.515712544322013855e-02 5.144137889146804810e-02 -1.913153752684593201e-02 -8.406639099121093750e-02 -7.828901708126068115e-02 8.199630677700042725e-02 5.712924059480428696e-03 -5.230593308806419373e-02 -1.143908011727035046e-03 -4.165922850370407104e-02 -1.057331077754497528e-02 -3.934436291456222534e-02 -7.198928296566009521e-02 -4.455530084669589996e-03 -7.334559410810470581e-02 -3.650369867682456970e-02 -3.687226027250289917e-02 -2.901382744312286377e-02 -1.817893120460212231e-03 7.027289271354675293e-02 8.063919842243194580e-02 2.814954519271850586e-02 2.238638326525688171e-02 2.823208831250667572e-02 6.226006522774696350e-02 4.944242071360349655e-03
-3.415341675281524658e-02 -4.241124726831912994e-03 8.175033330917358398e-02 -1.513554062694311142e-02 -1.487644203007221222e-02 -3.267874941229820251e-02 -7.490602135658264160e-02 -8.273692801594734192e-03 7.818321883678436279e-02 -4.465217515826225281e-02 -7.641430012881755829e-03 4.209540411829948425e-02 -5.650967732071876526e-02 -3.592184185981750488e-02 -4.801439121365547180e-02 -5.481343343853950500e-02 2.717362344264984131e-02 -3.272362519055604935e-03 -5.763489753007888794e-02 -9.256243938580155373e-04 -3.297471208497881889e-03 6.777587532997131348e-02 4.252604022622108459e-02 2.050511306151747704e-03 -3.371894732117652893e-02 2.764668315649032593e-02 -4.586932808160781860e-02 -2.213708823546767235e-03 8.325784653425216675e-02 2.156389877200126648e-02 -2.783359400928020477e-02 -3.855703026056289673e-02
-3.613102063536643982e-02 2.510377578437328339e-02 -4.767755977809429169e-03 -5.614459142088890076e-02 -8.209893852472305298e-02 6.913139671087265015e-02 -2.736974507570266724e-02 -3.676330298185348511e-02 -6.219225376844406128e-02 1.870740763843059540e-02 1.962309889495372772e-02 7.055457681417465210e-02 3.446507081389427185e-02 5.277318134903907776e-02 3.442865610122680664e-02 -3.294016793370246887e-02 7.364613562822341919e-02 -6.130603700876235962e-02 6.695580482482910156e-02 -5.780979525297880173e-03 -2.423399314284324646e-02 -1.927726715803146362e-02 -9.070838801562786102e-03 7.143807411193847656e-02 1.074105408042669296e-02 8.185926079750061035e-02 6.365565210580825806e-02 -3.647308051586151123e-02 7.948365807533264160e-02 -6.622015684843063354e-02 -3.000293672084808350e-02 -3.321351110935211182e-02
3.308682516217231750e-02 6.951294094324111938e-02 -8.259545266628265381e-02 4.461497068405151367e-02 5.896257236599922180e-02 6.592888385057449341e-02 1.822876371443271637e-02 6.136304140090942383e-02 -8.713320828974246979e-03 -6.695612519979476929e-02 4.392045084387063980e-03 -7.910208404064178467e-02 5.743577703833580017e-02 -3.708688914775848389e-02 -4.997879639267921448e-02 -3.429195284843444824e-02 1.174845267087221146e-02 7.675284147262573242e-02 8.151319622993469238e-02 -3.950897976756095886e-02 -2.899269573390483856e-02 4.119128361344337463e-02 6.665387749671936035e-02 -7.293017953634262085e-02 8.498819172382354736e-02 -7.512679789215326309e-03 -7.820298522710800171e-02 -2.235478162765502930e-02 -2.945655770599842072e-02 -4.507641494274139404e-02 -4.014486819505691528e-02 3.452548384666442871e-02
-3.834106028079986572e-02 -5.972824245691299438e-02 5.357835814356803894e-02 -2.273885533213615417e-02 -5.767977982759475708e-02 8.430749177932739258e-02 7.194998860359191895e-02 5.419407784938812256e-02 -7.930589467287063599e-02 7.811643928289413452e-02 -6.246183067560195923e-02 -4.834849014878273010e-02 -1.301788259297609329e-02 1.351428031921386719e-02 -2.304742299020290375e-02 7.860305905342102051e-02 2.110926620662212372e-02 4.099718481302261353e-02 -5.461802333593368530e-02 8.328432589769363403e-02 8.009131997823715210e-02 8.192041516304016113e-02 8.386440575122833252e-02 -1.791372336447238922e-02 4.414517432451248169e-02 -3.001391328871250153e-02 -1.327157672494649887e-02 5.111785605549812317e-02 -2.308941259980201721e-02 -3.228934109210968018e-02 -7.883260957896709442e-03 5.926040932536125183e-02
6.988399475812911987e-02 -1.971995458006858826e-02 6.839504092931747437e-02 6.901229918003082275e-02 -9.088736027479171753e-03 5.583367496728897095e-02 -8.512612432241439819e-03 1.755039952695369720e-02 -4.923734813928604126e-02 3.666363656520843506e-02 7.150651887059211731e-03 2.899405779317021370e-03 -5.811641365289688110e-02 4.597887396812438965e-02 -2.040947042405605316e-02 -2.637127973139286041e-02 -6.189598143100738525e-02 5.728657543659210205e-02 1.233413070440292358e-02 -6.309179589152336121e-03 2.120924554765224457e-02 -3.127488493919372559e-02 -3.794467076659202576e-02 3.097106143832206726e-02 4.254586249589920044e-02 -6.579624861478805542e-02 -5.940880998969078064e-02 9.175498969852924347e-03 8.295285515487194061e-03 -2.100106142461299896e-02 -5.739478766918182373e-02 3.511042147874832153e-02
3.526865690946578979e-02 3.177029639482498169e-02 1.877815648913383484e-02 4.837677627801895142e-02 3.252346813678741455e-02 -2.548170275986194611e-03 -2.911242470145225525e-02 1.079012732952833176e-02 -5.604786798357963562e-03 -2.981402538716793060e-02 -4.581249505281448364e-02 4.625667259097099304e-02 7.376035302877426147e-02 -9.763605892658233643e-03 2.431287057697772980e-02 -6.304727494716644287e-02 6.488470733165740967e-02 3.713598847389221191e-02 -6.733592599630355835e-02 8.123815990984439850e-03 -6.451621651649475098e-02 -6.466539949178695679e-02 -5.406139045953750610e-02 1.947592757642269135e-02 -5.763668194413185120e-02 7.145740091800689697e-02 7.307855039834976196e-02 5.748850479722023010e-02 6.610052287578582764e-02 -7.436517626047134399e-02 -3.959148004651069641e-02 -6.330569833517074585e-02
1.694951951503753662e-02 -1.905979961156845093e-02 2.303766785189509392e-03 -8.277473598718643188e-02 8.505135774612426758e-03 -7.858773320913314819e-02 2.717666793614625931e-03 8.345742523670196533e-02 -1.695163175463676453e-02 -1.519540417939424515e-02 7.324787974357604980e-02 2.326144650578498840e-02 7.482536882162094116e-02 3.669502586126327515e-02 -5.667555332183837891e-02 1.103594712913036346e-02 3.936032950878143311e-02 3.527931869029998779e-02 2.829342707991600037e-02 -7.044728100299835205e-02 9.593701921403408051e-03 -7.752298563718795776e-02 -6.779799610376358032e-02 6.180054321885108948e-02 1.405682787299156189e-02 7.397733628749847412e-02 6.735968403518199921e-03 -3.323236480355262756e-02 -7.710097730159759521e-02 3.658261895179748535e-02 1.119728386402130127e-02 -4.352222383022308350e-02
-5.578597635030746460e-02 2.002188004553318024e-02 -4.844179376959800720e-02 -2.805379405617713928e-02 3.013683855533599854e-02 7.714278995990753174e-03 7.425850629806518555e-02 1.698146201670169830e-02 5.363532155752182007e-02 4.677142575383186340e-02 6.016488373279571533e-02 6.802882999181747437e-02 1.140888873487710953e-02 -8.220609277486801147e-03 -7.554350793361663818e-02 4.939726740121841431e-02 6.027170270681381226e-02 -5.471159517765045166e-02 -2.963437512516975403e-02 -7.234666496515274048e-02 -7.527147233486175537e-02 -4.967650398612022400e-02 -7.036996632814407349e-02 5.223326012492179871e-02 -6.989900767803192139e-02 -4.405517876148223877e-02 6.415930390357971191e-02 -7.923197746276855469e-02 -1.577381044626235962e-02 -4.639036953449249268e-02 2.618510462343692780e-02 -1.716511696577072144e-02
-6.302392482757568359e-02 -3.398567065596580505e-02 -7.394932210445404053e-02 -8.286902308464050293e-02 -6.555494852364063263e-03 9.011304937303066254e-03 3.686755895614624023e-02 1.029150374233722687e-02 -5.561587586998939514e-02 6.161152198910713196e-02 -2.223706617951393127e-02 -2.791415899991989136e-02 7.082684338092803955e-02 7.064443081617355347e-02 -7.973215728998184204e-02 -5.712024867534637451e-03 5.325082316994667053e-02 4.862646013498306274e-02 -2.780205197632312775e-02 2.203839831054210663e-02 7.684265822172164917e-02 6.513541936874389648e-02 3.255876898765563965e-02 2.423183806240558624e-02 3.795830160379409790e-02 2.619843184947967529e-02 1.153927762061357498e-02 3.261644765734672546e-02 -3.700971137732267380e-03 2.128996700048446655e-02 6.251242756843566895e-02 -3.548779338598251343e-02
-3.668287768959999084e-02 6.120216473937034607e-02 2.359714359045028687e-02 -2.294115722179412842e-03 3.263514488935470581e-02 8.129624277353286743e-02 -7.444738596677780151e-02 -7.461329549551010132e-02 2.953482791781425476e-02 5.101659521460533142e-02 2.266014553606510162e-02 -4.494445398449897766e-02 1.289193425327539444e-02 -4.133135545998811722e-03 3.579573333263397217e-02 -4.736689478158950806e-02 -3.061987832188606262e-02 6.033654883503913879e-02 -4.552475735545158386e-02 -6.261251866817474365e-02 -3.584276884794235229e-02 7.519545406103134155e-02 5.069300159811973572e-02 -8.104208856821060181e-02 7.151959836483001709e-02 -2.453576959669589996e-02 -6.235271319746971130e-02 -4.048901051282882690e-02 1.562459208071231842e-02 8.349119871854782104e-02 7.783749699592590332e-02 4.951225221157073975e-02
1.126807928085327148e-02 -7.273416221141815186e-02 8.230441808700561523e-02 -4.305817931890487671e-02 -4.526361823081970215e-02 -8.353301137685775757e-02 -7.294985651969909668e-02 -5.047487094998359680e-02 -8.812884800136089325e-03 -3.722046315670013428e-02 4.322519525885581970e-03 7.017323747277259827e-03 -1.619065739214420319e-02 1.782162114977836609e-02 3.151812124997377396e-03 -7.570961117744445801e-02 -6.620685756206512451e-02 3.369919583201408386e-02 -2.516240999102592468e-02 -6.729876156896352768e-03 -4.793024435639381409e-02 -4.862013086676597595e-02 7.772262394428253174e-02 -8.309317380189895630e-02 5.829202756285667419e-02 -5.562513694167137146e-02 -7.699293643236160278e-02 -5.715531110763549805e-02 -8.382155559957027435e-03 7.887057214975357056e-02 -2.349474467337131500e-02 -6.153713446110486984e-03
-4.764546453952789307e-02 -4.118455573916435242e-02 -5.289857462048530579e-02 -2.404817752540111542e-02 2.374866977334022522e-02 3.750687465071678162e-02 -3.552295267581939697e-02 2.899314649403095245e-02 2.197623252868652344e-02 5.578462779521942139e-02 -6.278596818447113037e-02 2.209937758743762970e-02 1.826609671115875244e-02 -2.924748510122299194e-02 4.030256718397140503e-02 -4.958757013082504272e-02 1.569120027124881744e-02 -5.900978669524192810e-02 7.464584708213806152e-02 1.745931804180145264e-02 -5.428757867775857449e-05 6.569743156433105469e-02 5.178913846611976624e-02 -2.868941798806190491e-02 -7.498046755790710449e-02 -2.507637441158294678e-02 -6.852871179580688477e-02 -5.785259976983070374e-02 6.457420438528060913e-02 1.780346222221851349e-02 -7.097056508064270020e-02 -5.925177410244941711e-02
