6.134740635752677917e-02 -5.849523842334747314e-02 -5.220158398151397705e-02 4.936998710036277771e-02 5.471757799386978149e-02 6.213451549410820007e-02 -6.444403529167175293e-02 1.656605862081050873e-02 4.053221270442008972e-02 -2.292887866497039795e-02
3.659041225910186768e-02 1.138496678322553635e-02 -3.793788701295852661e-02 -6.720694154500961304e-02 2.162051154300570488e-03 -5.504445359110832214e-02 -2.393062040209770203e-02 -4.095886647701263428e-02 -2.704658173024654388e-02 -2.517424151301383972e-02
3.347983211278915405e-02 1.687648147344589233e-02 -2.895055338740348816e-02 1.840605586767196655e-02 6.447988748550415039e-02 6.755571067333221436e-02 -6.389290839433670044e-02 3.990199416875839233e-02 -6.902076303958892822e-02 7.288527488708496094e-02
-1.327687408775091171e-02 6.544595211744308472e-02 -5.069849267601966858e-02 1.928725838661193848e-02 1.217279769480228424e-02 3.677122667431831360e-02 -9.215654805302619934e-03 3.045891225337982178e-02 3.933433815836906433e-02 -9.931812994182109833e-03
-3.542833030223846436e-03 6.423942744731903076e-02 2.236762549728155136e-03 -7.350032776594161987e-02 -5.231378600001335144e-02 5.419962480664253235e-02 6.105623021721839905e-02 -3.490144759416580200e-02 -1.718526147305965424e-02 -3.555348888039588928e-02
1.135196816176176071e-02 7.035586237907409668e-02 -6.854075193405151367e-02 2.083374001085758209e-02 4.266034811735153198e-02 5.894306302070617676e-02 4.929714649915695190e-02 1.199886761605739594e-02 -2.496343478560447693e-02 -6.461335718631744385e-02
2.064288035035133362e-02 6.949846446514129639e-02 1.669139415025711060e-02 2.684458345174789429e-02 6.744275242090225220e-02 3.842822089791297913e-02 -6.213116273283958435e-02 8.687338791787624359e-03 -3.717352170497179031e-03 -1.125874277204275131e-02
-8.139130659401416779e-04 -6.404037773609161377e-02 5.237330496311187744e-02 -6.583231687545776367e-02 2.669302001595497131e-02 -6.471698731184005737e-02 -5.023887380957603455e-02 -7.167913019657135010e-02 -5.435667559504508972e-02 1.280728355050086975e-02
-8.199418894946575165e-03 2.305095829069614410e-02 -6.775572896003723145e-02 1.424816343933343887e-02 7.185977697372436523e-02 -2.304597583133727312e-04 -4.299188777804374695e-02 -9.348596446216106415e-03 3.890585526823997498e-02 -2.375856228172779083e-02
2.638469636440277100e-02 3.963879495859146118e-02 1.487864530645310879e-03 -6.797306239604949951e-02 -1.628583413548767567e-03 7.136856019496917725e-02 2.866842783987522125e-03 -4.646988213062286377e-02 -7.525495439767837524e-02 3.001645207405090332e-02
1.729988120496273041e-02 7.563512027263641357e-02 6.164955347776412964e-02 3.544703871011734009e-02 6.135217845439910889e-02 -3.767081350088119507e-02 -4.495090991258621216e-02 8.110439404845237732e-03 2.502646530047059059e-04 -2.151161618530750275e-02
5.886029824614524841e-02 1.222477294504642487e-03 4.329411312937736511e-02 -6.964660860830917954e-05 3.082952462136745453e-02 6.571406871080398560e-02 4.673878848552703857e-02 -5.761203169822692871e-02 -3.501799702644348145e-02 4.094950482249259949e-02
-7.541474699974060059e-02 2.149953320622444153e-02 5.932886525988578796e-02 -3.142296895384788513e-02 -1.849648170173168182e-02 -4.022428393363952637e-02 -1.357336156070232391e-02 -3.324268758296966553e-02 -1.287923566997051239e-02 -6.535466015338897705e-02
-1.195137389004230499e-02 7.101981341838836670e-02 2.634583972394466400e-02 3.214012458920478821e-02 2.357661537826061249e-02 -2.741840295493602753e-02 -5.047769099473953247e-02 -8.798566646873950958e-03 4.825606942176818848e-02 2.189529314637184143e-02
6.087651848793029785e-02 -5.838830769062042236e-02 4.024909436702728271e-02 -1.454557012766599655e-02 -5.305127799510955811e-02 7.261519879102706909e-02 5.272346735000610352e-02 -2.486517652869224548e-02 5.287649855017662048e-02 -3.227128461003303528e-02
-5.564135313034057617e-02 -1.945276930928230286e-02 5.473324656486511230e-02 7.376958616077899933e-03 -3.923773765563964844e-04 -1.188417430967092514e-02 -2.127090655267238617e-02 -3.039325401186943054e-02 6.313250213861465454e-02 -6.339196860790252686e-02
-7.424432318657636642e-03 -7.490324974060058594e-02 -7.466790080070495605e-02 7.400777935981750488e-02 -4.695186764001846313e-02 -4.661823622882366180e-03 -7.216680794954299927e-02 1.336586661636829376e-02 8.066426962614059448e-03 -4.393361508846282959e-02
2.266837982460856438e-03 -1.457561645656824112e-02 7.377964258193969727e-02 1.363287563435733318e-03 -2.227423153817653656e-02 -2.495261840522289276e-02 4.647268354892730713e-02 -2.108198963105678558e-02 -7.320217043161392212e-02 6.764031946659088135e-02
-6.128180772066116333e-02 -5.382339656352996826e-02 6.146595347672700882e-03 1.824931590817868710e-03 6.071369629353284836e-03 -6.613454222679138184e-02 -8.160559460520744324e-03 1.710586249828338623e-03 2.650692127645015717e-02 -2.156160958111286163e-02
-1.054592337459325790e-02 -2.585614472627639771e-02 -3.199262917041778564e-02 1.539812423288822174e-02 3.082783147692680359e-02 5.462909489870071411e-02 6.218051421456038952e-04 2.506846503820270300e-04 2.690869197249412537e-02 -5.834410712122917175e-02
-6.412034481763839722e-02 -2.017075195908546448e-02 7.590919267386198044e-03 -6.040735170245170593e-02 4.420643672347068787e-02 -6.958611309528350830e-02 5.500072985887527466e-02 -4.989073425531387329e-02 -4.146941378712654114e-02 -1.847028732299804688e-02
4.075002670288085938e-02 2.335873991250991821e-02 -3.643762692809104919e-02 1.221631281077861786e-02 8.081791922450065613e-03 2.508578822016716003e-02 1.933937519788742065e-02 -7.588259130716323853e-02 -6.484505534172058105e-02 4.581342916935682297e-03
-3.602769970893859863e-02 -4.833740741014480591e-02 5.993716791272163391e-02 -5.639298353344202042e-03 -2.499934472143650055e-02 3.708623349666595459e-02 1.768708601593971252e-02 4.617365449666976929e-02 -3.347570821642875671e-02 7.256262004375457764e-02
-2.500181458890438080e-02 -3.608790785074234009e-02 -1.929044723510742188e-02 -6.247420981526374817e-02 -4.835563525557518005e-02 -1.396426744759082794e-02 -1.731522846966981888e-03 2.029555663466453552e-02 -5.360983684659004211e-02 -5.536597967147827148e-02
4.530164599418640137e-02 6.874896585941314697e-02 -6.564218550920486450e-02 -6.758386641740798950e-02 3.218938410282135010e-02 4.243065789341926575e-02 6.378264725208282471e-02 -4.481693357229232788e-02 -1.197300758212804794e-02 -4.597270488739013672e-02
6.473725289106369019e-02 3.829641640186309814e-02 1.807885617017745972e-02 -3.814964741468429565e-02 -6.753474473953247070e-02 7.109912484884262085e-02 -2.024152502417564392e-02 -4.481811448931694031e-02 5.146094784140586853e-02 -9.241309016942977905e-03
-2.984289266169071198e-02 -3.418650478124618530e-02 -7.113261520862579346e-02 3.865502402186393738e-02 -7.445448637008666992e-02 -2.838685363531112671e-02 7.097021490335464478e-02 4.440489038825035095e-02 4.020848125219345093e-02 -3.006630763411521912e-02
-5.652515590190887451e-02 -4.598832502961158752e-02 -6.311666965484619141e-02 2.517925575375556946e-03 1.959527842700481415e-02 9.521204978227615356e-03 1.651366986334323883e-02 6.251687556505203247e-02 -6.755906343460083008e-02 -1.585064269602298737e-02
-4.315330646932125092e-03 2.311432547867298126e-02 -7.631987333297729492e-02 -4.607243835926055908e-02 6.611894071102142334e-02 -3.398753236979246140e-03 -6.131223216652870178e-02 3.166554868221282959e-02 -1.561444159597158432e-02 -2.382554300129413605e-02
-7.058273255825042725e-02 4.705515876412391663e-02 4.239651560783386230e-02 -1.933276467025279999e-02 -2.474946342408657074e-02 8.752429857850074768e-03 -1.507081929594278336e-02 -1.745851151645183563e-02 -6.144983693957328796e-02 -4.372785985469818115e-02
2.857996709644794464e-02 2.937003783881664276e-02 4.708610102534294128e-02 -6.128377467393875122e-02 -7.330501079559326172e-02 -1.135282218456268311e-02 -1.819991692900657654e-02 2.986488118767738342e-02 -6.950970739126205444e-02 3.099381737411022186e-02
-1.398268062621355057e-02 -3.454772755503654480e-02 3.626243444159626961e-03 -2.178979665040969849e-02 7.322021573781967163e-02 3.310263529419898987e-02 -9.873610921204090118e-03 4.290856420993804932e-02 -6.320083048194646835e-03 -5.031838268041610718e-02
-3.785105422139167786e-02 4.884922876954078674e-02 -2.270535007119178772e-02 -5.545667558908462524e-02 -8.615356869995594025e-03 -3.590469015762209892e-03 4.709808155894279480e-03 6.131337210536003113e-02 -4.709245171397924423e-03 4.087067022919654846e-02
-3.419303148984909058e-02 -7.291064597666263580e-03 -3.669415018521249294e-04 -4.234981164336204529e-02 4.602733533829450607e-03 -6.006484478712081909e-02 -4.729812964797019958e-02 -1.256410498172044754e-03 2.201179275289177895e-03 5.023051053285598755e-02
-1.039687078446149826e-02 -3.165081609040498734e-03 5.056076869368553162e-02 -6.137485802173614502e-02 3.063212148845195770e-02 2.466507069766521454e-02 -1.240735407918691635e-03 1.267583202570676804e-02 2.225833944976329803e-02 -6.610588729381561279e-02
4.343769047409296036e-03 -3.976342082023620605e-02 -1.004080101847648621e-02 -8.160159923136234283e-03 3.691082447767257690e-02 -5.528673902153968811e-02 -6.027637422084808350e-02 5.386682227253913879e-02 9.849485941231250763e-04 -1.669458486139774323e-02
5.833640322089195251e-02 -3.015955910086631775e-02 1.582816988229751587e-02 9.710734011605381966e-04 6.228734552860260010e-02 2.223671600222587585e-02 -6.328953802585601807e-02 6.915084086358547211e-03 -4.896102845668792725e-02 7.606068998575210571e-02
4.774828441441059113e-03 -8.113959804177284241e-03 -6.886611692607402802e-03 3.955822438001632690e-02 1.919881440699100494e-02 5.107817798852920532e-02 -1.241583563387393951e-02 2.793951705098152161e-02 -6.532083451747894287e-02 2.852604165673255920e-02
2.222930314019322395e-03 -5.313452705740928650e-02 6.649322062730789185e-02 -6.987228244543075562e-02 -1.519913319498300552e-03 5.784532800316810608e-02 1.773832552134990692e-02 6.688157469034194946e-02 -2.728237956762313843e-02 -3.151443600654602051e-02
7.614544034004211426e-02 -7.124163210391998291e-02 -6.635488569736480713e-02 -1.660150848329067230e-02 -2.631071023643016815e-03 5.249114707112312317e-02 2.300990559160709381e-02 1.864605583250522614e-02 -5.605408176779747009e-02 4.355731606483459473e-02
5.107569694519042969e-02 5.741469934582710266e-02 4.799314774572849274e-03 -3.555906936526298523e-02 2.019161731004714966e-02 -1.845417171716690063e-02 6.321997195482254028e-02 5.585235077887773514e-03 1.916418410837650299e-02 -4.392978176474571228e-02
3.960607945919036865e-02 4.062445834279060364e-02 -9.505813941359519958e-03 2.366016432642936707e-02 7.430953532457351685e-02 -3.806722164154052734e-02 -1.458887383341789246e-02 7.230608910322189331e-02 2.210613526403903961e-02 2.688592486083507538e-02
2.338024787604808807e-02 -5.002375319600105286e-02 -5.461719632148742676e-02 6.625151634216308594e-02 6.515098363161087036e-02 -2.790470607578754425e-02 -7.599730510264635086e-03 -3.395548835396766663e-02 6.872586905956268311e-02 6.743450462818145752e-02
5.127797275781631470e-02 -3.665125742554664612e-02 6.476322561502456665e-02 5.500050261616706848e-02 -3.200162574648857117e-02 -4.776664078235626221e-02 3.122584521770477295e-02 7.559788972139358521e-02 4.554365947842597961e-02 -4.004106298089027405e-02
4.951155930757522583e-02 3.193789348006248474e-02 5.872039496898651123e-02 3.989380598068237305e-02 -3.777567297220230103e-02 -6.307146698236465454e-02 5.139113636687397957e-04 4.242739453911781311e-02 3.510971320793032646e-03 -1.813133992254734039e-02
2.602552622556686401e-02 6.989332847297191620e-03 -6.446944084018468857e-03 5.008713528513908386e-02 3.724555298686027527e-02 -5.144045874476432800e-02 -2.764874324202537537e-02 5.859750136733055115e-02 -7.550308853387832642e-02 -5.808697268366813660e-02
-5.755475722253322601e-04 -4.028381779789924622e-02 5.100792273879051208e-02 -6.401889026165008545e-02 -1.823377795517444611e-02 1.681379601359367371e-02 -5.841181799769401550e-02 2.055992744863033295e-02 -7.051310688257217407e-02 1.130630262196063995e-03
5.802864208817481995e-02 -1.399399433284997940e-02 5.235463753342628479e-02 7.472579926252365112e-02 -2.987894602119922638e-02 1.277757156640291214e-02 7.402864098548889160e-02 -5.424115061759948730e-02 5.189893022179603577e-02 -5.222564563155174255e-02
-2.831390500068664551e-02 -6.339173763990402222e-02 -2.723075076937675476e-02 -5.753706395626068115e-02 -7.393769919872283936e-02 -7.142712175846099854e-02 3.093080781400203705e-02 -6.056094169616699219e-02 1.917990483343601227e-02 -5.916766822338104248e-02
-6.752464920282363892e-02 -1.883045025169849396e-02 4.435642063617706299e-02 4.239791259169578552e-02 -1.543134544044733047e-02 5.919025465846061707e-02 -3.748760744929313660e-02 3.933531790971755981e-02 -5.830532312393188477e-02 7.489571813493967056e-03
1.329948659986257553e-02 3.830871731042861938e-02 -2.488350495696067810e-02 5.514617264270782471e-02 -7.599862664937973022e-02 -6.627456098794937134e-02 -6.502251327037811279e-02 -1.981322653591632843e-02 3.186380863189697266e-02 -1.596692763268947601e-02
-1.279796659946441650e-02 -4.193792119622230530e-02 -5.296390876173973083e-02 2.402295172214508057e-02 5.618977546691894531e-02 -8.375874720513820648e-03 4.119975119829177856e-02 -3.485904633998870850e-02 -3.491910547018051147e-02 -2.301219664514064789e-02
1.467660418711602688e-03 1.443577092140913010e-02 -6.739133037626743317e-03 1.874644868075847626e-02 -5.746212229132652283e-02 -4.244976863265037537e-02 -6.815538555383682251e-02 2.926279976963996887e-02 3.517369925975799561e-02 3.835760429501533508e-02
-3.360007330775260925e-02 5.786801874637603760e-02 5.085035413503646851e-02 -6.512214988470077515e-02 4.036749154329299927e-02 2.816093899309635162e-02 5.114134773612022400e-02 -5.020146071910858154e-02 4.484590142965316772e-02 -7.390329986810684204e-02
-6.958021223545074463e-02 -8.352422446478158236e-05 -7.362734526395797729e-02 -3.636630252003669739e-02 4.295171052217483521e-02 -7.376728951930999756e-02 6.533072143793106079e-02 -6.659766193479299545e-03 -7.129255682229995728e-02 -7.317142188549041748e-02
-5.649480596184730530e-02 -2.880547009408473969e-02 -7.243803888559341431e-02 -2.370748110115528107e-02 -2.628033980727195740e-02 -4.276017099618911743e-02 1.315208431333303452e-02 -4.686196520924568176e-02 -1.299995742738246918e-02 1.234237942844629288e-02
-6.213052198290824890e-02 3.296506777405738831e-02 -5.896458029747009277e-02 -2.019486576318740845e-02 3.985051810741424561e-02 -2.355497702956199646e-02 -4.123660549521446228e-02 4.883700609207153320e-02 -4.199743270874023438e-02 6.631432473659515381e-02
-1.888062059879302979e-02 2.642651647329330444e-02 6.208631023764610291e-02 7.155735045671463013e-02 3.475760295987129211e-02 4.854324460029602051e-02 2.610137127339839935e-02 6.194729357957839966e-02 -7.316699624061584473e-02 -4.189564287662506104e-02
5.286487936973571777e-02 -7.007148116827011108e-02 3.359363228082656860e-02 -5.683838576078414917e-02 6.690312922000885010e-02 -2.408255077898502350e-02 5.586290266364812851e-03 -2.899792511016130447e-03 3.737920150160789490e-02 -5.857255682349205017e-02
-3.384698939044028521e-04 1.126963831484317780e-02 -3.551972657442092896e-02 -6.041259318590164185e-02 -2.324610389769077301e-02 1.786250248551368713e-02 3.553411224856972694e-03 2.114811912178993225e-02 -6.495582638308405876e-04 6.349521130323410034e-02
3.298448771238327026e-02 -3.477816656231880188e-02 -1.904118992388248444e-02 6.376209203153848648e-03 -2.694941312074661255e-02 7.189733535051345825e-02 -6.461789458990097046e-02 -3.287466242909431458e-02 5.745204165577888489e-03 -1.555858366191387177e-02
6.921097636222839355e-03 4.220673069357872009e-02 3.144443035125732422e-02 2.074110507965087891e-02 -5.485370289534330368e-03 -4.048965498805046082e-02 7.471729815006256104e-02 7.479149103164672852e-02 -4.699143767356872559e-02 -7.573103159666061401e-02
-1.912362501025199890e-02 3.294271230697631836e-02 5.485452711582183838e-03 7.525830715894699097e-02 1.201553735882043839e-02 -1.037480216473340988e-02 -6.990831810981035233e-03 7.053666561841964722e-02 6.259568780660629272e-02 7.080204039812088013e-02
-1.691155321896076202e-02 6.092842668294906616e-02 1.841047592461109161e-02 -2.647461369633674622e-02 4.913464188575744629e-02 -3.361643850803375244e-02 -7.295997440814971924e-02 -4.020867403596639633e-03 -9.669564664363861084e-03 -4.757797718048095703e-02
1.262672152370214462e-02 -4.184465855360031128e-02 1.706303795799612999e-03 7.494901120662689209e-02 6.431491672992706299e-02 7.334690541028976440e-02 -7.431481033563613892e-02 3.335809335112571716e-02 -3.812275454401969910e-02 1.523596420884132385e-02
-3.547713905572891235e-02 5.073885433375835419e-03 -3.099443949759006500e-02 -2.377957850694656372e-02 2.085063047707080841e-02 -5.995306372642517090e-02 4.897953197360038757e-02 -7.470668293535709381e-03 1.848293840885162354e-02 -3.110760264098644257e-02
6.181361526250839233e-02 6.360661238431930542e-03 -4.774658754467964172e-02 4.429032653570175171e-02 5.826188251376152039e-02 3.961905464529991150e-02 -7.694612257182598114e-03 5.607834551483392715e-03 9.814963676035404205e-03 1.077603455632925034e-02
7.165793795138597488e-03 8.077826350927352905e-03 -4.869234934449195862e-02 -2.284268476068973541e-02 -3.994764760136604309e-02 7.215683162212371826e-02 -4.565496463328599930e-03 3.160890191793441772e-02 7.176643703132867813e-03 3.814598545432090759e-02
4.739541560411453247e-02 -7.181189209222793579e-02 -7.242313772439956665e-02 5.882186070084571838e-02 7.085966318845748901e-02 5.474573746323585510e-02 5.456128716468811035e-02 -3.918211907148361206e-03 6.755754351615905762e-02 -1.435735262930393219e-02
-3.989375010132789612e-02 -6.324573606252670288e-02 1.393423974514007568e-02 -4.033075645565986633e-02 2.179600298404693604e-02 -7.199640572071075439e-02 -5.956567823886871338e-02 -4.972351342439651489e-02 7.261268794536590576e-03 -5.961120873689651489e-02
4.704837128520011902e-02 -3.399539506062865257e-03 1.447186525911092758e-02 5.495859310030937195e-02 8.703409694135189056e-03 -6.517891306430101395e-04 -6.525520980358123779e-02 2.165894024074077606e-02 -4.902752861380577087e-02 2.627171762287616730e-02
-2.331962995231151581e-02 1.188745163381099701e-02 1.385042327456176281e-03 -1.985243521630764008e-02 1.948216930031776428e-02 1.254201028496026993e-02 -2.107029408216476440e-02 -4.062631353735923767e-02 -2.752688247710466385e-03 -7.473919074982404709e-03
-6.206274032592773438e-02 1.945944689214229584e-02 5.422315001487731934e-02 3.973991796374320984e-02 1.887683384120464325e-02 -5.025068670511245728e-02 -3.854664042592048645e-02 -6.619819253683090210e-02 -1.535070035606622696e-02 -3.948748484253883362e-02
-1.614317484200000763e-02 -2.645736560225486755e-02 -5.686082411557435989e-03 7.538290228694677353e-03 -2.561114355921745300e-02 -6.380514800548553467e-02 6.762206554412841797e-02 -5.002906545996665955e-02 3.594808652997016907e-02 -6.606345623731613159e-02
-5.052919965237379074e-03 8.996099233627319336e-03 -5.730252340435981750e-02 -7.573816925287246704e-02 -6.301640719175338745e-02 -6.708380766212940216e-03 5.746000260114669800e-02 -3.094223141670227051e-02 2.556845173239707947e-02 3.857652842998504639e-02
-4.783910512924194336e-02 -5.253497883677482605e-02 1.709023304283618927e-02 5.066388845443725586e-02 6.112467125058174133e-02 6.309758871793746948e-02 3.721332550048828125e-02 -1.690094918012619019e-02 -6.774095445871353149e-02 6.703621149063110352e-02
2.506927400827407837e-02 3.391535207629203796e-02 2.549808286130428314e-02 -2.955080708488821983e-03 -7.430437207221984863e-02 -3.382580727338790894e-02 2.299092710018157959e-02 -4.461784660816192627e-02 7.563226390630006790e-04 2.287469990551471710e-02
-5.690720677375793457e-02 -4.476514179259538651e-03 -6.600861251354217529e-02 6.451828032732009888e-02 7.037691026926040649e-02 -1.468752603977918625e-02 -1.600986532866954803e-02 -3.742521256208419800e-02 -6.295553594827651978e-02 -1.415676786564290524e-03
2.982980571687221527e-02 -2.432335354387760162e-02 -5.778906052000820637e-04 -5.400139489211142063e-04 6.248884275555610657e-02 5.749251320958137512e-02 3.343605622649192810e-02 5.447363853454589844e-02 1.831531152129173279e-02 4.528934881091117859e-02
-4.345963522791862488e-02 -3.719746600836515427e-04 3.923399373888969421e-02 3.705980256199836731e-02 -9.685095399618148804e-03 6.712231785058975220e-02 4.208380728960037231e-02 1.498972717672586441e-02 -3.389229252934455872e-02 5.488244816660881042e-03
-2.108301967382431030e-02 -3.066005744040012360e-02 4.479558393359184265e-02 -4.336329922080039978e-02 7.051149755716323853e-02 -3.221847116947174072e-02 -6.852392107248306274e-02 5.494405701756477356e-02 2.958251163363456726e-02 -3.641995787620544434e-02
5.800000578165054321e-02 1.454609818756580353e-02 -2.084027044475078583e-02 3.871258581057190895e-03 -1.267262641340494156e-02 4.066231101751327515e-02 3.009260445833206177e-02 5.598771944642066956e-02 -2.173072099685668945e-02 -2.444388158619403839e-02
-7.571814954280853271e-02 -4.597447812557220459e-02 4.722220450639724731e-02 4.083839803934097290e-02 6.168949231505393982e-02 -4.122953116893768311e-02 -1.880562491714954376e-02 3.712818026542663574e-02 -7.410050183534622192e-02 6.373140960931777954e-02
-6.575642526149749756e-02 1.090720575302839279e-02 2.828439930453896523e-03 2.076128311455249786e-02 -4.427270591259002686e-02 4.271239042282104492e-03 2.159870229661464691e-03 -3.873325511813163757e-02 2.231119945645332336e-02 -4.361402988433837891e-02
-5.909689143300056458e-02 5.705470591783523560e-02 4.110972210764884949e-02 7.743728929199278355e-05 6.206363812088966370e-02 8.251112885773181915e-03 -1.509989262558519840e-03 3.207444772124290466e-02 7.547673583030700684e-02 -5.974171683192253113e-02
6.652696989476680756e-03 2.580686938017606735e-03 -3.947016596794128418e-02 -7.579692453145980835e-02 1.853448525071144104e-02 -4.042397812008857727e-02 4.992013052105903625e-02 -2.545214071869850159e-02 4.290055949240922928e-03 -6.870580464601516724e-02
4.039744660258293152e-02 2.631659619510173798e-02 4.193721711635589600e-02 -6.964652985334396362e-02 -2.318043075501918793e-02 -6.313484162092208862e-02 -2.739591337740421295e-02 5.890006572008132935e-02 5.476590991020202637e-02 6.561885774135589600e-02
-3.699980676174163818e-02 -2.788428217172622681e-02 -5.372401699423789978e-02 3.976179659366607666e-02 6.166449189186096191e-02 -1.791886985301971436e-02 9.511269629001617432e-03 -7.745859771966934204e-02 7.710935920476913452e-02 6.080490350723266602e-02
-1.289397384971380234e-02 1.378403976559638977e-02 -3.314468637108802795e-02 1.292356057092547417e-03 5.996547639369964600e-02 1.153262145817279816e-02 2.427507378160953522e-02 -4.337520152330398560e-02 -3.281336650252342224e-02 5.306877568364143372e-02
-6.679582875221967697e-03 -5.682780593633651733e-02 4.895523563027381897e-02 -3.359648166224360466e-03 -1.109746564179658890e-02 -6.040959618985652924e-03 -4.701499268412590027e-02 1.329738879576325417e-03 -1.268917322158813477e-02 1.460208464413881302e-02
5.720400437712669373e-02 2.935878932476043701e-02 3.088469244539737701e-02 -5.649614706635475159e-02 1.380874775350093842e-02 6.362432241439819336e-02 -3.661996684968471527e-03 -1.938830129802227020e-02 -5.277931690216064453e-02 5.474925413727760315e-02
1.879078219644725323e-03 -8.588945493102073669e-03 -3.447670117020606995e-02 -6.170534063130617142e-03 -2.475451119244098663e-02 -5.704975500702857971e-02 4.989502206444740295e-02 -4.928366746753454208e-03 5.151953175663948059e-02 -3.586098551750183105e-02
4.180393181741237640e-03 3.529046103358268738e-02 5.679567344486713409e-03 4.479886218905448914e-02 -1.633073389530181885e-02 -3.667832911014556885e-02 6.722697615623474121e-02 7.156894356012344360e-02 -1.384198945015668869e-02 5.874995514750480652e-02
-2.459570951759815216e-02 -7.579029351472854614e-02 -5.350932106375694275e-02 -6.708888709545135498e-02 -4.747764766216278076e-02 -4.124722257256507874e-02 6.879059225320816040e-02 -6.884678453207015991e-02 -5.429619341157376766e-04 4.173883423209190369e-02
-6.326831132173538208e-02 2.384030073881149292e-02 3.845222294330596924e-03 -5.696334689855575562e-02 -6.299436092376708984e-02 5.699938535690307617e-02 7.352134585380554199e-02 -3.100779652595520020e-02 -5.405991524457931519e-02 -1.636992022395133972e-02
2.713296003639698029e-02 1.426951307803392410e-02 -6.128730624914169312e-02 1.603263057768344879e-02 -4.078261554241180420e-03 -3.768799826502799988e-02 -1.064314506947994232e-03 -5.570039525628089905e-02 -5.116820335388183594e-02 7.426087744534015656e-03
4.245235025882720947e-02 -2.283570729196071625e-02 -1.124146208167076111e-02 -3.301451727747917175e-02 1.757709309458732605e-02 6.580853462219238281e-02 -4.528811841737478971e-04 2.433867659419775009e-03 7.004572451114654541e-02 -6.115596741437911987e-02
4.430439323186874390e-02 -2.012954279780387878e-02 -4.581546783447265625e-02 3.330974280834197998e-02 -1.929222419857978821e-02 -9.989105165004730225e-03 3.895735740661621094e-02 6.493671797215938568e-03 -4.504719283431768417e-03 -2.839910797774791718e-02
-5.958105996251106262e-02 5.676710605621337891e-02 -6.964232027530670166e-02 -1.989694498479366302e-02 2.209063805639743805e-02 7.323604822158813477e-02 1.887278631329536438e-02 4.055500030517578125e-02 6.936299800872802734e-02 6.645741313695907593e-02
4.915673052892088890e-04 -3.995339944958686829e-02 -6.169445440173149109e-02 2.079204842448234558e-02 6.849282234907150269e-02 2.971662580966949463e-02 -7.673166692256927490e-02 -1.821909914724528790e-03 -1.179155986756086349e-02 -2.381292730569839478e-02
2.006149105727672577e-02 1.976917311549186707e-02 7.067160308361053467e-02 1.656003855168819427e-02 -5.416296049952507019e-02 -8.471037144772708416e-04 -5.527167581021785736e-03 5.289686471223831177e-02 -3.118016943335533142e-02 3.052633069455623627e-02
-6.076442077755928040e-02 3.432359173893928528e-02 -1.511638704687356949e-02 -6.305056065320968628e-02 2.324925363063812256e-02 -7.069825381040573120e-02 -1.682781614363193512e-03 1.689769513905048370e-02 -3.448115661740303040e-02 7.616309076547622681e-02
4.996248520910739899e-03 -7.515347003936767578e-02 7.320279721170663834e-03 -4.271306097507476807e-02 2.114067412912845612e-02 6.144659966230392456e-02 -6.012422591447830200e-02 -3.846187517046928406e-02 -1.471518259495496750e-02 1.143916510045528412e-02
1.084940601140260696e-02 8.154469542205333710e-03 6.718730181455612183e-02 -4.678905382752418518e-02 6.493955105543136597e-02 6.988124549388885498e-02 -4.836698621511459351e-02 7.450325787067413330e-02 5.487002898007631302e-03 5.661399569362401962e-03
1.733505725860595703e-02 -1.166430767625570297e-02 1.835034973919391632e-02 4.680946469306945801e-02 -2.078515850007534027e-02 -3.608725592494010925e-02 -1.896695978939533234e-02 3.289320319890975952e-02 -6.586690992116928101e-02 2.160065993666648865e-02
3.729948308318853378e-03 -5.823919177055358887e-02 -1.227234676480293274e-02 7.412274926900863647e-02 4.122925177216529846e-02 6.286337506026029587e-03 5.595329031348228455e-02 -1.158156432211399078e-02 1.291048154234886169e-02 5.794868047814816236e-05
-5.101644247770309448e-02 6.026919931173324585e-02 7.336722314357757568e-02 7.178121805191040039e-02 -6.126451864838600159e-02 2.855836413800716400e-02 -2.773413434624671936e-02 -4.219647496938705444e-02 -1.836585439741611481e-02 2.187098143622279167e-03
7.293505128473043442e-03 -2.152267843484878540e-02 7.474996149539947510e-02 6.266716867685317993e-02 7.016343623399734497e-02 6.050780788064002991e-02 1.876902952790260315e-02 5.963833630084991455e-02 -4.492136463522911072e-02 1.874512061476707458e-02
-1.535948272794485092e-02 3.384321928024291992e-02 1.717524370178580284e-03 -7.196507602930068970e-02 -5.392207205295562744e-02 -5.897699669003486633e-02 -6.976144015789031982e-02 -1.681412942707538605e-02 -6.450525671243667603e-02 -6.880128383636474609e-02
-6.813706457614898682e-02 -7.368113100528717041e-02 4.041593149304389954e-02 -1.747380383312702179e-02 4.995641857385635376e-02 -7.624818943440914154e-03 3.664683923125267029e-02 -6.078584119677543640e-02 -3.563727438449859619e-02 -3.687894716858863831e-02
-5.381761863827705383e-02 5.132125690579414368e-02 -5.573480576276779175e-02 -4.671103134751319885e-02 5.231757089495658875e-02 -1.601672917604446411e-02 -3.664297610521316528e-02 1.650581508874893188e-02 -6.050211563706398010e-02 5.565865710377693176e-02
-1.084501948207616806e-02 3.040524944663047791e-02 5.085156857967376709e-02 3.196505457162857056e-02 7.542911171913146973e-02 3.174817189574241638e-02 -2.678515203297138214e-02 -6.671465816907584667e-04 4.834851250052452087e-03 2.844884246587753296e-02
-3.379775956273078918e-02 -2.787207067012786865e-02 -3.451809985563158989e-03 3.570722788572311401e-02 -4.318359494209289551e-02 -3.061428852379322052e-02 -3.173585981130599976e-02 -1.850928924977779388e-02 -2.291331999003887177e-02 -7.188561558723449707e-02
-6.187683716416358948e-02 3.019982017576694489e-02 1.081171678379178047e-03 -9.414467960596084595e-03 -6.503441929817199707e-02 -2.939188666641712189e-02 3.370392601937055588e-03 -5.858234129846096039e-03 -9.330088272690773010e-03 7.135212421417236328e-02
1.365430466830730438e-02 6.588289886713027954e-02 -6.392192840576171875e-02 -1.094045862555503845e-02 -6.633070111274719238e-02 -5.017028748989105225e-02 -6.112607661634683609e-04 5.519130080938339233e-02 -2.406003139913082123e-02 5.178335681557655334e-02
-6.560990959405899048e-02 4.286848753690719604e-02 -2.460489282384514809e-03 -3.803466632962226868e-02 -1.586176082491874695e-02 -4.055120050907135010e-03 -6.362183392047882080e-02 -4.022136703133583069e-02 -5.640619620680809021e-02 4.351649433374404907e-02
-4.800414294004440308e-02 2.755036763846874237e-02 6.422550976276397705e-02 2.963327802717685699e-02 7.083173096179962158e-02 3.185765584930777550e-03 1.714208722114562988e-02 5.779688805341720581e-02 2.287177927792072296e-02 3.583678603172302246e-02
-3.700887411832809448e-02 -1.424502674490213394e-02 -8.156025782227516174e-03 -7.320935279130935669e-02 -2.929466590285301208e-02 6.993889063596725464e-02 5.023014545440673828e-02 -6.447750609368085861e-03 -2.864324301481246948e-02 4.124665632843971252e-02
-1.413172576576471329e-02 -1.076387055218219757e-02 3.240015357732772827e-02 4.259797185659408569e-02 -5.986366048455238342e-02 -2.436112053692340851e-02 4.859974607825279236e-02 -7.414811849594116211e-02 -3.932217136025428772e-03 6.598410755395889282e-02
1.277616992592811584e-02 6.781644374132156372e-02 -2.191216498613357544e-02 5.804526060819625854e-02 5.154787749052047729e-02 4.265870898962020874e-02 3.622538223862648010e-02 1.036852505058050156e-02 4.291652515530586243e-02 2.361989207565784454e-02
-5.525260046124458313e-02 -4.870331287384033203e-02 -1.800567843019962311e-02 -2.663766266778111458e-03 2.948220074176788330e-02 -5.242097377777099609e-02 6.609994918107986450e-02 2.657216228544712067e-02 -1.076392596587538719e-03 7.583837211132049561e-02
-1.627131178975105286e-02 6.940321181900799274e-04 1.907761581242084503e-02 -6.760829687118530273e-02 -7.130197435617446899e-02 3.439429402351379395e-02 -5.673389136791229248e-02 -4.666747525334358215e-02 3.571381047368049622e-02 -3.657390177249908447e-02
-4.485499486327171326e-02 5.127542465925216675e-02 5.572678521275520325e-02 -2.459090016782283783e-02 6.542634218931198120e-02 -6.606476753950119019e-02 6.208236888051033020e-02 -2.684756554663181305e-02 1.305073848925530910e-03 7.494956254959106445e-02
-4.518906772136688232e-02 -3.801002353429794312e-02 1.825721748173236847e-02 -5.388541147112846375e-02 1.963140256702899933e-02 -1.941367797553539276e-02 3.592807054519653320e-02 -1.184813771396875381e-02 -6.673415005207061768e-02 -3.060450218617916107e-02
-2.925886958837509155e-02 -2.537275140639394522e-04 -4.280348494648933411e-02 1.418987754732370377e-02 -1.456464454531669617e-02 -2.878616191446781158e-02 6.073576956987380981e-02 1.608767360448837280e-02 -3.814052417874336243e-02 -2.510777115821838379e-02
3.932787477970123291e-02 6.410886347293853760e-02 4.659826308488845825e-02 2.870486676692962646e-02 5.721978098154067993e-02 -3.887818381190299988e-02 -2.057867310941219330e-02 -8.775913156569004059e-03 6.217954307794570923e-02 5.727685615420341492e-02
1.892865076661109924e-02 9.179551154375076294e-03 3.659359365701675415e-02 -4.141025617718696594e-02 -4.041380807757377625e-02 -1.072658132761716843e-02 4.096413962543010712e-03 -3.057609871029853821e-02 -7.357312738895416260e-02 -1.259649544954299927e-02
-6.297698616981506348e-02 3.279352094978094101e-03 7.375717163085937500e-02 1.686352118849754333e-02 -4.929196089506149292e-02 3.925664722919464111e-02 2.633821777999401093e-02 2.921483106911182404e-02 4.396094009280204773e-03 -4.019306227564811707e-02
-4.819744080305099487e-02 -1.028166804462671280e-02 5.065870657563209534e-02 6.826344132423400879e-02 -1.839411910623311996e-03 1.335072447545826435e-04 4.127373173832893372e-02 -5.515787377953529358e-02 -4.801918566226959229e-02 7.520012557506561279e-02
-3.801175579428672791e-02 -6.301555782556533813e-02 1.405440829694271088e-02 6.145481951534748077e-03 1.878134906291961670e-02 -2.178283035755157471e-02 -3.568553552031517029e-02 4.933141544461250305e-02 -2.400114387273788452e-02 2.236958825960755348e-03
-6.110725179314613342e-02 -3.993224352598190308e-02 1.050413399934768677e-02 -6.576244533061981201e-02 -5.448995903134346008e-02 5.060683004558086395e-03 5.012806877493858337e-02 -4.298621043562889099e-02 -4.747768118977546692e-02 4.810716956853866577e-03
3.263255953788757324e-02 -3.307560086250305176e-02 1.353048253804445267e-02 6.927977502346038818e-02 -2.265367656946182251e-02 2.499045804142951965e-02 3.183145821094512939e-02 -1.146237924695014954e-02 -2.127779833972454071e-02 -7.189031690359115601e-02
6.940645631402730942e-03 -5.254555866122245789e-02 -3.071388602256774902e-02 -6.224250420928001404e-02 2.761520259082317352e-02 -7.083166390657424927e-02 -5.758780613541603088e-02 -1.936761662364006042e-02 2.606397308409214020e-02 2.831638976931571960e-02
-4.482212476432323456e-03 -2.817791886627674103e-02 2.566711977124214172e-02 -2.763229422271251678e-02 -2.055612392723560333e-02 6.124535202980041504e-02 -5.919111892580986023e-02 -6.814816594123840332e-02 7.124458998441696167e-02 -5.785056948661804199e-02
3.185107558965682983e-02 -1.368168275803327560e-03 3.615129739046096802e-02 1.742557273246347904e-03 2.373288758099079132e-02 -5.037022009491920471e-02 -3.500600531697273254e-02 2.828557603061199188e-02 7.294939830899238586e-03 -9.478216059505939484e-03
5.986826494336128235e-03 3.226074576377868652e-02 -5.638724565505981445e-02 -6.050025671720504761e-02 -6.695131212472915649e-02 -7.266957312822341919e-02 -5.119345616549253464e-03 7.480657100677490234e-02 -4.798830300569534302e-02 2.994505688548088074e-02
4.119068384170532227e-02 -6.152110174298286438e-02 -3.128992393612861633e-02 3.492682054638862610e-02 6.699853390455245972e-02 5.785549059510231018e-02 -1.048342976719141006e-02 -3.798360377550125122e-02 -6.556931883096694946e-02 5.470401048660278320e-02
5.172226577997207642e-02 -4.074442014098167419e-02 -4.123368859291076660e-02 -6.891065090894699097e-02 7.557130604982376099e-02 -4.669679328799247742e-02 3.397233411669731140e-02 -7.310848683118820190e-02 -5.449207033962011337e-03 -5.714761465787887573e-02
-7.499124109745025635e-02 -4.972939938306808472e-02 -6.805101037025451660e-02 2.994227595627307892e-02 -4.274034500122070312e-02 8.343635126948356628e-03 -6.694270670413970947e-02 1.134364213794469833e-02 -2.696739742532372475e-03 3.475870564579963684e-02
7.329437881708145142e-02 6.846915930509567261e-02 -5.401331186294555664e-02 -2.406132034957408905e-02 -4.201005026698112488e-02 2.232582867145538330e-02 -7.507426291704177856e-02 -5.041822046041488647e-02 -4.929665476083755493e-02 -5.998182296752929688e-02
-1.841199770569801331e-02 6.314484868198633194e-03 -4.147521406412124634e-02 4.569486901164054871e-02 -5.330227687954902649e-02 -7.174643874168395996e-02 -5.834350734949111938e-02 3.135173348709940910e-03 -4.993205424398183823e-03 6.705938279628753662e-02
5.013620853424072266e-02 -7.435324043035507202e-02 -3.219334036111831665e-02 -1.631705835461616516e-02 2.104940637946128845e-02 -2.166388183832168579e-02 -5.956772714853286743e-02 -5.409277230501174927e-02 4.598044231534004211e-02 4.943400993943214417e-02
3.805013000965118408e-02 1.803065650165081024e-02 -4.480378329753875732e-02 2.092996984720230103e-02 -5.194892641156911850e-03 -3.321935608983039856e-02 -2.195223234593868256e-02 4.595091938972473145e-02 6.747075356543064117e-03 -4.935983940958976746e-02
4.162191227078437805e-02 4.728081077337265015e-02 -2.135031297802925110e-02 1.168041396886110306e-02 -7.033316791057586670e-02 -1.874412782490253448e-02 5.958716571331024170e-02 -5.252587050199508667e-02 -6.532227247953414917e-02 -6.562019884586334229e-02
7.544543594121932983e-02 7.700441777706146240e-02 -2.875936590135097504e-02 -4.363860562443733215e-02 -7.571377605199813843e-02 -3.209508582949638367e-02 -2.663564495742321014e-02 -5.183910578489303589e-02 -5.770043283700942993e-02 -4.976630210876464844e-02
2.060061320662498474e-02 -4.460040479898452759e-02 3.012509830296039581e-02 -6.639250367879867554e-02 -1.608438789844512939e-02 4.577617719769477844e-02 -5.583652481436729431e-02 -4.613779857754707336e-02 1.899873092770576477e-02 6.206410005688667297e-02
-5.708343535661697388e-02 -7.400337606668472290e-02 -7.276006042957305908e-02 4.021446406841278076e-02 -3.460630029439926147e-02 5.097898840904235840e-02 -6.581984460353851318e-02 -4.823847115039825439e-02 2.546715550124645233e-02 -1.741108857095241547e-02
8.066724985837936401e-03 3.263455349951982498e-03 -1.241695974022150040e-02 2.188014611601829529e-02 -2.375151775777339935e-02 3.190397098660469055e-02 -9.517254307866096497e-03 -2.789069153368473053e-02 -2.634704858064651489e-02 1.525217294692993164e-02
-7.614376395940780640e-02 5.599309876561164856e-02 1.502457447350025177e-02 -1.939242146909236908e-02 -5.435651913285255432e-02 -7.276468724012374878e-02 5.486669763922691345e-02 -1.845826394855976105e-02 -6.358203291893005371e-02 5.921112373471260071e-02
-3.754114732146263123e-02 -1.858536526560783386e-02 1.171664102002978325e-03 1.661972724832594395e-03 4.689553752541542053e-02 -2.040911465883255005e-02 6.896879523992538452e-02 -4.805848002433776855e-03 -7.142823189496994019e-02 5.125290155410766602e-02
5.140768364071846008e-02 -4.302531108260154724e-02 4.684843122959136963e-02 -7.553549855947494507e-02 1.189661910757422447e-03 -4.138928279280662537e-02 -6.956792785786092281e-04 -1.942667365074157715e-02 -6.318761408329010010e-02 -4.383952915668487549e-02
6.482527405023574829e-02 -7.127237319946289062e-02 4.918522015213966370e-02 -5.906980857253074646e-02 5.537069588899612427e-02 -6.761783361434936523e-02 -3.272121399641036987e-02 1.956817321479320526e-02 6.423690915107727051e-02 2.362284064292907715e-02
-5.562377721071243286e-02 -1.635346561670303345e-02 -1.991555094718933105e-03 3.748515248298645020e-02 -7.580751925706863403e-02 4.866947978734970093e-02 -5.649264901876449585e-02 -4.471741616725921631e-03 -3.032887727022171021e-02 3.759618848562240601e-02
-3.601878508925437927e-02 2.679902687668800354e-02 -2.526472695171833038e-02 7.371500134468078613e-02 2.226189337670803070e-02 3.218246996402740479e-02 4.535414651036262512e-02 2.857101336121559143e-02 7.259164005517959595e-02 6.682463735342025757e-02
-1.556939538568258286e-02 2.733831526711583138e-03 -2.167602069675922394e-02 2.052733488380908966e-02 7.518158107995986938e-02 5.472714453935623169e-02 -7.906249724328517914e-03 -5.451964214444160461e-02 -6.792652606964111328e-02 -7.277771085500717163e-02
-2.642815560102462769e-02 4.440886154770851135e-02 -4.036303237080574036e-02 -2.373888902366161346e-02 -4.525928944349288940e-02 4.362622275948524475e-02 -1.474814582616090775e-02 -7.234935462474822998e-02 -6.864587962627410889e-02 5.142850801348686218e-02
-2.139324694871902466e-02 2.258270420134067535e-02 -5.607527121901512146e-02 -6.132354214787483215e-02 -2.880543097853660583e-02 3.967428207397460938e-02 2.135382592678070068e-02 2.653606049716472626e-02 -3.300068527460098267e-02 -3.288372978568077087e-02
4.030206426978111267e-02 6.660293787717819214e-02 2.829243615269660950e-02 1.885473728179931641e-02 -3.999688476324081421e-02 -5.018447712063789368e-02 -4.315343499183654785e-02 -1.304692006669938564e-03 5.432565137743949890e-02 6.097052618861198425e-02
-6.039056181907653809e-02 3.639204055070877075e-02 7.498723454773426056e-03 7.219172269105911255e-02 6.275343149900436401e-02 2.564209699630737305e-02 -1.582456193864345551e-02 -3.357277810573577881e-02 -7.411908358335494995e-02 -5.643855407834053040e-02
-2.826967090368270874e-02 2.913620136678218842e-02 -5.224730446934700012e-02 7.736675441265106201e-02 5.329220369458198547e-02 5.973669234663248062e-03 4.770514555275440216e-03 -7.431845366954803467e-02 -2.795575000345706940e-02 -5.030459538102149963e-02
4.431157186627388000e-02 5.036120861768722534e-02 4.986820742487907410e-03 4.384955391287803650e-02 -5.088313296437263489e-02 5.886004120111465454e-02 -7.088998332619667053e-03 5.675345659255981445e-02 7.137501239776611328e-02 5.269934982061386108e-02
-1.078411238268017769e-03 -2.144583500921726227e-02 2.560246177017688751e-02 9.197331964969635010e-03 1.832188293337821960e-02 -3.791116178035736084e-02 4.745812341570854187e-02 8.572672493755817413e-03 -1.173963304609060287e-02 -6.145596504211425781e-02
1.247392967343330383e-02 5.609048530459403992e-02 1.369081810116767883e-02 -2.693331614136695862e-02 -1.600620336830615997e-02 -5.164828523993492126e-02 5.045818910002708435e-02 3.489016788080334663e-03 -5.475020408630371094e-02 7.225363701581954956e-02
-6.298588961362838745e-02 3.414437174797058105e-02 5.167864635586738586e-02 3.230295376852154732e-03 -9.700023569166660309e-03 -3.872753307223320007e-02 8.497287635691463947e-04 -7.092829048633575439e-02 3.107802243903279305e-03 6.853857636451721191e-02
2.502142917364835739e-03 -3.602692112326622009e-02 2.002838812768459320e-02 -2.840875834226608276e-02 -6.834672391414642334e-02 3.959752246737480164e-02 2.925238572061061859e-03 6.954330205917358398e-02 -7.922188378870487213e-03 5.505993217229843140e-02
-1.267350092530250549e-02 5.383690353482961655e-03 -2.141240052878856659e-02 5.194935202598571777e-02 2.107878029346466064e-02 1.551343686878681183e-02 5.860301852226257324e-02 2.635170519351959229e-02 -2.063451893627643585e-02 -3.757551684975624084e-02
2.606061287224292755e-02 1.645592600107192993e-02 4.257363826036453247e-02 6.181563809514045715e-02 6.113274767994880676e-02 5.645458772778511047e-02 -5.446732509881258011e-03 -4.622550681233406067e-02 -5.225813016295433044e-02 1.854966208338737488e-02
-5.497156083583831787e-02 -3.205561637878417969e-02 6.562823057174682617e-02 2.854318916797637939e-02 -5.727532878518104553e-02 -5.445278808474540710e-02 -5.589371919631958008e-02 6.342813372611999512e-02 -4.193330556154251099e-02 -5.762574076652526855e-02
2.599882520735263824e-02 -4.760444164276123047e-02 1.389907114207744598e-02 2.202602848410606384e-02 6.695626676082611084e-02 -2.534945495426654816e-03 -7.394585758447647095e-02 -1.462467573583126068e-02 -6.467568874359130859e-02 1.983482204377651215e-02
2.391810266999527812e-04 -7.143165171146392822e-02 9.060681797564029694e-03 -4.225621372461318970e-02 7.497090101242065430e-02 -5.054945498704910278e-02 5.584206059575080872e-02 9.056434035301208496e-03 -6.596323847770690918e-02 -4.780585318803787231e-02
-6.087135057896375656e-03 3.446409478783607483e-02 2.858190424740314484e-02 7.180229574441909790e-02 -3.503056988120079041e-02 1.938127912580966949e-02 -5.107337981462478638e-02 5.141786113381385803e-02 -1.293314900249242783e-02 -2.528068423271179199e-02
-4.547986760735511780e-02 -5.882063508033752441e-02 4.364047944545745850e-02 5.469275265932083130e-02 6.295049190521240234e-02 9.366313926875591278e-03 3.548211231827735901e-02 -1.602560468018054962e-02 6.683491170406341553e-02 8.214592002332210541e-03
5.728609859943389893e-02 -7.170055061578750610e-02 3.142894420307129622e-04 -5.393496248871088028e-03 4.407199472188949585e-02 -1.149054430425167084e-02 -1.594412024132907391e-03 5.993446335196495056e-02 -5.626107379794120789e-02 1.466664299368858337e-02
-1.353193074464797974e-03 1.244984846562147141e-02 -1.772686839103698730e-02 4.812702536582946777e-02 4.320473968982696533e-02 7.420696318149566650e-02 4.242063686251640320e-02 -2.674414217472076416e-02 -2.747015841305255890e-02 1.090897247195243835e-02
-7.749815285205841064e-02 -2.945416048169136047e-02 4.755578935146331787e-02 -3.331356868147850037e-02 5.384083092212677002e-02 6.445864681154489517e-03 -1.351590547710657120e-02 -3.234209120273590088e-02 5.165294930338859558e-02 -7.081606984138488770e-02
-5.530550703406333923e-02 3.911612182855606079e-02 -7.569689303636550903e-02 7.179193943738937378e-02 5.102713778614997864e-02 -4.074430558830499649e-03 4.155118018388748169e-02 -4.289036616683006287e-02 -5.435890331864356995e-02 7.125200331211090088e-02
3.743020817637443542e-02 4.910179600119590759e-02 8.577843196690082550e-03 3.732178732752799988e-02 7.581458985805511475e-02 9.180548600852489471e-03 -6.082731485366821289e-02 7.206615060567855835e-02 4.291559383273124695e-02 6.459297984838485718e-02
5.964319035410881042e-02 6.025291979312896729e-02 -7.489453256130218506e-02 -4.045008495450019836e-02 3.828353807330131531e-02 -5.096846073865890503e-02 -2.593153342604637146e-02 2.931857667863368988e-02 -4.192590713500976562e-02 3.394384309649467468e-02
5.209022387862205505e-02 -5.186717957258224487e-02 -1.744066551327705383e-02 -7.470732927322387695e-02 4.940218059346079826e-04 -5.788495764136314392e-02 -3.768657892942428589e-02 -3.844959661364555359e-02 7.354208081960678101e-02 -1.750977896153926849e-02
-6.518110632896423340e-02 3.807076811790466309e-02 4.911923035979270935e-02 -7.404775917530059814e-02 2.934149093925952911e-02 1.726785674691200256e-02 5.506359785795211792e-02 3.174647316336631775e-02 -7.114956527948379517e-02 3.519395738840103149e-02
-6.441195309162139893e-02 6.263798475265502930e-02 3.915727883577346802e-02 -4.263829812407493591e-02 4.917209222912788391e-02 -1.407068781554698944e-02 -1.478169672191143036e-02 -1.427687983959913254e-02 -7.593277096748352051e-02 -5.777517706155776978e-02
-3.406215831637382507e-02 -1.890249550342559814e-02 -5.082385987043380737e-02 -4.157301783561706543e-02 3.390308236703276634e-03 -3.344739601016044617e-02 2.770838700234889984e-02 5.092008039355278015e-02 -5.466855689883232117e-02 4.957264661788940430e-02
-1.926228590309619904e-02 -1.654502563178539276e-02 -1.204439159482717514e-02 3.877761587500572205e-02 -4.242315888404846191e-03 -6.090549752116203308e-02 6.858538091182708740e-02 -6.736239790916442871e-02 5.941959470510482788e-02 -6.637217849493026733e-02
-4.988210648298263550e-02 1.107673533260822296e-02 7.414760440587997437e-02 8.908352814614772797e-03 -3.368087112903594971e-02 -2.273074723780155182e-02 4.888435080647468567e-02 2.355397865176200867e-02 6.273352354764938354e-02 -4.953891411423683167e-02
-1.795367151498794556e-02 1.740341261029243469e-02 -6.500550359487533569e-02 -7.341401278972625732e-02 2.424657531082630157e-02 -5.833488330245018005e-02 1.155840605497360229e-02 -2.277345769107341766e-02 -4.101321846246719360e-02 6.627396494150161743e-02
4.655302315950393677e-02 -6.696197390556335449e-02 6.055532023310661316e-03 -6.391423195600509644e-02 -2.879698760807514191e-02 -5.440631881356239319e-02 6.794136017560958862e-02 -7.159219682216644287e-02 5.504152923822402954e-02 -4.219032078981399536e-02
-5.873768031597137451e-02 2.994614094495773315e-02 3.954286873340606689e-02 -6.926722824573516846e-02 3.539118915796279907e-02 -1.680012606084346771e-02 -6.354934722185134888e-02 4.228279367089271545e-02 -6.129961460828781128e-02 -4.363299813121557236e-03
3.450261056423187256e-02 -1.781387720257043839e-03 3.322703763842582703e-02 2.102890610694885254e-02 -7.425560057163238525e-02 -7.438146322965621948e-02 -7.437718659639358521e-02 -4.425536468625068665e-02 -4.225379973649978638e-02 -6.100047007203102112e-02
-3.897455334663391113e-02 7.031245529651641846e-02 1.361844316124916077e-02 -6.438519805669784546e-02 -4.363168403506278992e-02 -3.171419352293014526e-02 -5.902599170804023743e-02 -7.828565314412117004e-03 2.817201055586338043e-02 6.282601505517959595e-02
1.210257876664400101e-02 -1.124839996919035912e-03 4.837364330887794495e-02 -1.660188776440918446e-03 -7.445690035820007324e-02 -5.685137957334518433e-02 -2.537779742851853371e-03 -3.076364845037460327e-02 8.604029193520545959e-03 -2.983203902840614319e-02
6.701832264661788940e-02 6.955451797693967819e-03 3.266207873821258545e-02 -1.356651633977890015e-02 -6.023883819580078125e-02 2.254471927881240845e-02 -2.689557708799839020e-02 4.436536878347396851e-02 4.565585404634475708e-02 -6.488041486591100693e-03
-5.432229116559028625e-02 1.398298516869544983e-02 5.705240368843078613e-02 4.258524999022483826e-02 1.697245426476001740e-02 1.892392151057720184e-02 -5.857486277818679810e-02 -1.288687344640493393e-02 2.896658331155776978e-02 1.456925179809331894e-02
1.231670659035444260e-02 -1.091268286108970642e-02 5.312449857592582703e-02 -3.429817780852317810e-02 5.418511107563972473e-02 -7.054632063955068588e-03 -7.816601544618606567e-03 6.062562018632888794e-02 -6.813693046569824219e-02 7.425630837678909302e-02
5.487313121557235718e-02 -3.177285194396972656e-02 -6.928779929876327515e-02 -6.839074194431304932e-02 2.304061874747276306e-02 -5.099154263734817505e-02 4.643151909112930298e-02 6.103172153234481812e-02 -4.013065993785858154e-02 1.094844378530979156e-02
-6.160359364002943039e-03 2.742571569979190826e-02 4.832268133759498596e-02 1.907687820494174957e-02 -2.301869727671146393e-02 -3.084456920623779297e-02 2.485172450542449951e-02 6.167952716350555420e-02 -3.939962014555931091e-02 -2.574603818356990814e-02
-3.793277963995933533e-02 -4.729551821947097778e-02 5.844170227646827698e-02 -4.823689907789230347e-02 -7.062049210071563721e-02 5.789769440889358521e-02 -1.510330103337764740e-02 4.377132281661033630e-03 -5.268892645835876465e-02 -1.108546182513237000e-02
-5.595515668392181396e-02 5.715138837695121765e-02 1.014873012900352478e-02 -3.412509337067604065e-02 -1.429127901792526245e-02 1.225078105926513672e-02 -7.504169642925262451e-02 -1.074245572090148926e-02 2.582128532230854034e-02 -6.255690008401870728e-02
-3.036971390247344971e-02 5.846361070871353149e-02 7.013145834207534790e-02 2.857387252151966095e-02 5.296795070171356201e-02 4.033141583204269409e-02 -6.915426254272460938e-02 4.169436171650886536e-02 2.894027903676033020e-02 -5.826843157410621643e-02
4.542207345366477966e-02 2.301371097564697266e-02 -5.745923146605491638e-02 3.973877802491188049e-02 -2.094502188265323639e-02 2.928860113024711609e-02 -6.846518069505691528e-02 6.003159657120704651e-02 2.481892891228199005e-02 2.118457667529582977e-02
-2.480630017817020416e-02 9.766454808413982391e-03 3.019088879227638245e-02 -2.674172818660736084e-02 -1.776662282645702362e-02 -7.224118709564208984e-02 3.004247322678565979e-02 -2.021231874823570251e-02 5.260017514228820801e-02 -2.593426220118999481e-02
7.808769441908225417e-05 -6.252029538154602051e-02 7.184891402721405029e-02 4.996409639716148376e-02 -3.882832825183868408e-02 2.109588868916034698e-02 3.332287073135375977e-02 -6.444169208407402039e-03 -4.275161027908325195e-02 5.886791646480560303e-02
1.588476076722145081e-02 -3.147180750966072083e-02 4.574938677251338959e-03 6.170055270195007324e-02 -6.464378535747528076e-02 -2.055187709629535675e-02 6.984589248895645142e-02 -5.792314931750297546e-02 -7.428129762411117554e-02 5.643228441476821899e-02
-3.776350617408752441e-02 -3.966331481933593750e-02 -6.715406477451324463e-02 -2.842681109905242920e-02 2.015958167612552643e-02 5.176836624741554260e-02 -5.438525602221488953e-02 6.229108572006225586e-02 6.449442356824874878e-02 -5.750443786382675171e-02
-3.458277508616447449e-02 5.112486332654953003e-02 2.498881518840789795e-02 -2.040043659508228302e-02 -5.451614037156105042e-02 9.815108031034469604e-03 -5.394622310996055603e-02 -4.643475264310836792e-02 6.899795681238174438e-02 4.721903800964355469e-02
-3.933788463473320007e-02 -2.129950560629367828e-02 4.674281924962997437e-02 -7.496440410614013672e-02 4.045498743653297424e-02 6.788606196641921997e-02 5.908704921603202820e-02 2.025387808680534363e-02 -1.602538861334323883e-02 -4.040852934122085571e-02
-2.145667187869548798e-02 -1.650233985856175423e-03 -1.742888428270816803e-02 -4.763708636164665222e-02 -5.989626422524452209e-02 6.696287542581558228e-02 -4.826626181602478027e-02 5.995228141546249390e-02 -7.200004160404205322e-02 3.360114619135856628e-02
-5.094964802265167236e-02 5.983178317546844482e-02 -2.622526884078979492e-02 -6.074598524719476700e-03 -5.429099872708320618e-02 1.969004981219768524e-03 5.962245166301727295e-02 -3.832480683922767639e-02 6.279891729354858398e-02 -2.286721579730510712e-02
-4.286704584956169128e-02 4.159204661846160889e-02 -5.741956084966659546e-02 -1.820338331162929535e-02 6.142743676900863647e-02 6.175449863076210022e-02 1.228125300258398056e-02 -6.042549014091491699e-02 -2.519149333238601685e-02 1.907979883253574371e-02
1.768518798053264618e-02 -3.088588826358318329e-02 -3.409587964415550232e-02 3.685382381081581116e-02 5.185354128479957581e-02 -5.481692403554916382e-02 -4.225071147084236145e-02 -6.706228852272033691e-02 -5.568438395857810974e-02 -6.627690047025680542e-02
-3.127790696453303099e-04 4.484813287854194641e-02 1.624067127704620361e-02 -5.361901223659515381e-02 -5.119998008012771606e-02 -4.398201406002044678e-02 7.943122647702693939e-03 4.460864141583442688e-02 -2.525143884122371674e-02 -3.222881257534027100e-02
2.108596637845039368e-02 -3.861456364393234253e-02 7.780671119689941406e-03 4.806997627019882202e-02 -4.959968850016593933e-02 3.558469191193580627e-02 2.868326008319854736e-02 6.278085708618164062e-02 -3.788262605667114258e-02 2.474117837846279144e-02
-1.672365516424179077e-02 -3.589830175042152405e-02 5.390229448676109314e-02 1.687918230891227722e-02 6.893112789839506149e-03 -6.926598399877548218e-02 7.750069350004196167e-02 -5.302170291543006897e-02 9.598647244274616241e-03 2.300153672695159912e-02
-1.131391525268554688e-02 3.573922067880630493e-02 -1.585381850600242615e-02 5.337865650653839111e-02 7.546493411064147949e-02 -6.290663778781890869e-02 -4.211944341659545898e-02 -1.134599000215530396e-02 -6.443068385124206543e-03 1.991005986928939819e-02
-4.095671325922012329e-02 6.652942299842834473e-02 -4.182861745357513428e-02 6.956809014081954956e-02 9.521738626062870026e-03 -7.119101285934448242e-02 -9.908524341881275177e-03 -2.594753913581371307e-02 -2.010804973542690277e-02 -6.440382450819015503e-02
-4.857699945569038391e-02 4.253525659441947937e-02 -6.409918516874313354e-02 -7.368669658899307251e-02 1.297101937234401703e-02 -4.217966273427009583e-02 2.702890150249004364e-02 -3.590980917215347290e-02 -3.392481431365013123e-02 1.144939102232456207e-02
7.280939072370529175e-02 2.266181632876396179e-02 -3.615329042077064514e-02 -1.322948560118675232e-02 -2.739447809290140867e-04 -1.165773626416921616e-02 1.518878899514675140e-02 2.581163868308067322e-02 -6.082808133214712143e-03 -2.560415491461753845e-02
-3.379475697875022888e-02 3.209587186574935913e-02 -5.576556548476219177e-02 -8.165072649717330933e-04 -6.639464944601058960e-02 -2.693986333906650543e-02 -2.698242291808128357e-02 2.260770881548523903e-03 9.297793731093406677e-03 2.471622638404369354e-02
-7.162089645862579346e-02 3.943571448326110840e-02 7.039241492748260498e-02 7.607556879520416260e-03 5.285267531871795654e-02 5.701433122158050537e-02 3.030165284872055054e-02 1.546625047922134399e-02 -2.655314281582832336e-02 5.480135977268218994e-02
-4.441570490598678589e-02 8.705652318894863129e-03 -5.741941183805465698e-02 4.916993156075477600e-02 -6.847730278968811035e-02 7.593628019094467163e-02 5.594120919704437256e-02 2.574891410768032074e-02 -2.290855720639228821e-02 8.875307627022266388e-03
4.143348895013332367e-03 -1.958968304097652435e-02 6.090689450502395630e-02 -1.274577062577009201e-02 1.495275832712650299e-02 -1.051761396229267120e-02 -1.733193174004554749e-02 -3.404914587736129761e-02 4.436198249459266663e-02 -7.335178554058074951e-02
2.854371070861816406e-02 4.463419690728187561e-02 3.961072489619255066e-02 -1.742617459967732430e-03 -7.338485121726989746e-02 -5.314003303647041321e-02 -3.736221790313720703e-02 -2.470259927213191986e-02 -6.553551554679870605e-02 -4.278117045760154724e-02
-2.153273485600948334e-02 -7.143315859138965607e-03 5.914936587214469910e-02 -1.590169034898281097e-02 4.540356248617172241e-02 -4.869381338357925415e-02 -3.935049474239349365e-02 -1.164499763399362564e-02 3.455667058005928993e-03 5.569221824407577515e-02
5.356522276997566223e-02 3.312703222036361694e-02 -3.806991130113601685e-02 7.449229806661605835e-02 -5.584906041622161865e-02 7.735277060419321060e-03 -1.465241517871618271e-02 -5.495552346110343933e-02 4.638506472110748291e-02 3.110685572028160095e-02
-3.985692933201789856e-02 5.469160899519920349e-02 3.043139725923538208e-02 -3.555067256093025208e-02 6.073044613003730774e-02 3.297346085309982300e-02 2.228774502873420715e-02 -7.632770389318466187e-02 -5.378751084208488464e-02 1.081056892871856689e-02
4.906853288412094116e-02 5.359555035829544067e-02 7.585589773952960968e-03 4.787679295986890793e-03 7.550265640020370483e-02 -1.513327471911907196e-02 6.551209092140197754e-02 -5.253370478749275208e-02 -2.725440450012683868e-02 7.401948422193527222e-02
-4.280419647693634033e-02 -7.922453433275222778e-02 2.165168896317481995e-02 -5.670857429504394531e-02 -2.154859714210033417e-02 6.180888041853904724e-02 -4.994399845600128174e-02 1.438017096370458603e-02 -6.528099626302719116e-02 -4.084804654121398926e-02
6.189199164509773254e-02 5.931947380304336548e-04 7.128942012786865234e-02 -7.396072149276733398e-02 -1.088808663189411163e-02 6.117166206240653992e-02 2.021313644945621490e-02 -5.502612516283988953e-02 -6.509165465831756592e-02 -6.333722267299890518e-03
-1.724057458341121674e-02 -6.393451988697052002e-02 -6.314193829894065857e-03 4.601807892322540283e-02 2.778667584061622620e-02 -1.121300086379051208e-02 -1.739562302827835083e-02 -2.730992808938026428e-02 -6.410884112119674683e-02 -6.751585006713867188e-02
-6.691406667232513428e-02 5.538967996835708618e-02 3.450795263051986694e-02 -1.873864978551864624e-02 -5.637380480766296387e-02 -3.501139581203460693e-02 3.803747147321701050e-02 -5.441860482096672058e-02 4.334004130214452744e-03 6.194769963622093201e-02
-6.320245563983917236e-03 -3.868858516216278076e-02 -1.862984709441661835e-02 4.582217708230018616e-02 -3.123442642390727997e-02 -4.864232148975133896e-03 -4.728723317384719849e-02 1.046831719577312469e-02 -3.372460231184959412e-02 2.081627398729324341e-02
-2.509071864187717438e-02 -2.885983325541019440e-02 7.924237288534641266e-03 2.034948766231536865e-02 -1.401613466441631317e-02 -7.520634680986404419e-02 -2.297477610409259796e-02 -7.217896729707717896e-02 5.826308391988277435e-03 -3.827167302370071411e-02
7.255955040454864502e-02 -7.110662758350372314e-02 1.063821138814091682e-03 7.031276822090148926e-03 -1.763436198234558105e-02 -1.707253605127334595e-02 5.054150894284248352e-02 -4.059628397226333618e-02 -7.407215889543294907e-03 -3.291332349181175232e-02
6.891539786010980606e-03 5.642074346542358398e-02 -6.446909159421920776e-02 2.268646284937858582e-02 7.351299375295639038e-02 7.629930507391691208e-03 6.110436469316482544e-02 -4.347707331180572510e-02 -2.828441560268402100e-03 -7.665514014661312103e-03
-3.824627399444580078e-02 1.399675942957401276e-02 -3.453417867422103882e-02 -4.020300880074501038e-02 4.358681663870811462e-02 -7.218109909445047379e-03 -2.282806672155857086e-02 1.296631246805191040e-02 1.160930003970861435e-02 -1.064419001340866089e-02
4.658903554081916809e-02 6.263721734285354614e-02 -4.474348574876785278e-02 -5.476250499486923218e-02 -6.692281365394592285e-02 -8.829055353999137878e-03 -1.654312573373317719e-02 -4.034861177206039429e-02 -9.591569192707538605e-03 2.565583027899265289e-02
1.849604025483131409e-02 7.639377843588590622e-03 6.607624888420104980e-02 -4.834531620144844055e-02 5.246617645025253296e-02 1.250605843961238861e-02 4.432709142565727234e-02 3.481108695268630981e-02 -2.175107970833778381e-02 7.303444296121597290e-02
-4.198804125189781189e-02 -1.893581822514533997e-02 -6.799534708261489868e-02 6.737130135297775269e-02 -3.058109432458877563e-02 6.408084928989410400e-02 1.637189276516437531e-02 -6.339898705482482910e-02 -5.686253309249877930e-02 4.219884052872657776e-03
-3.969277814030647278e-02 7.156192511320114136e-02 -4.120761528611183167e-03 -3.196981549263000488e-02 1.148866396397352219e-02 6.585323065519332886e-02 -7.138419896364212036e-02 -2.110725454986095428e-02 3.105635009706020355e-02 1.285134814679622650e-02
8.088803850114345551e-03 -2.737757051363587379e-03 3.879855945706367493e-02 5.485298484563827515e-02 9.148464538156986237e-03 -3.880640864372253418e-02 6.990300863981246948e-02 1.539090415462851524e-03 -3.402724117040634155e-02 -6.476634740829467773e-02
6.337707862257957458e-03 -7.342974096536636353e-02 -1.567870378494262695e-02 -2.856765873730182648e-02 5.964561831206083298e-03 6.977795809507369995e-02 7.909337989985942841e-03 -4.150814190506935120e-02 5.381997302174568176e-02 4.653647541999816895e-03
4.097469896078109741e-02 -5.415439605712890625e-03 6.738759577274322510e-02 -5.442594736814498901e-02 -1.306175440549850464e-02 -5.560365691781044006e-02 4.527374356985092163e-02 -2.456456795334815979e-02 -7.023257762193679810e-02 -3.934381529688835144e-02
-2.365861088037490845e-02 3.521855175495147705e-02 1.095925457775592804e-02 1.385497208684682846e-02 5.526768416166305542e-02 1.362967491149902344e-02 -1.407127548009157181e-02 3.691709041595458984e-02 -6.038775667548179626e-02 1.346258074045181274e-02
4.971568286418914795e-02 3.721588850021362305e-02 -4.421794041991233826e-02 -4.438074678182601929e-02 3.244217857718467712e-02 -5.077099427580833435e-02 -1.907006464898586273e-02 -1.833889074623584747e-02 5.150534212589263916e-02 -2.161334641277790070e-02
-2.991484664380550385e-02 -1.669051498174667358e-02 7.326070219278335571e-03 -4.230127111077308655e-02 4.758972674608230591e-02 4.444321244955062866e-02 -4.994424059987068176e-02 -2.130203694105148315e-02 4.554038494825363159e-02 5.547669529914855957e-02
-4.034611396491527557e-03 2.402012050151824951e-02 5.002664402127265930e-02 -6.750965025275945663e-03 5.252194032073020935e-02 1.211007125675678253e-02 1.392777077853679657e-02 -6.244083400815725327e-03 -3.069488797336816788e-03 -5.286183953285217285e-02
-5.812344327569007874e-02 3.407126525416970253e-03 -6.760095059871673584e-02 4.952603578567504883e-02 4.861123859882354736e-02 -1.712347380816936493e-02 -4.125973209738731384e-03 1.765360496938228607e-02 -3.780619427561759949e-02 3.080617822706699371e-02
-1.804165728390216827e-02 -5.962667986750602722e-02 -7.438888400793075562e-02 -6.332013756036758423e-02 4.584534466266632080e-02 6.089659780263900757e-02 -5.868030339479446411e-02 5.755615979433059692e-02 5.269017815589904785e-02 -7.128839194774627686e-02
2.322656661272048950e-02 -1.196127414004877210e-04 -7.479272037744522095e-02 -2.519134897738695145e-03 2.882961882278323174e-03 -3.606563899666070938e-03 6.681896746158599854e-02 1.876461878418922424e-02 -4.530967772006988525e-02 -6.983479857444763184e-02
-2.985199214890599251e-03 5.903888121247291565e-02 -5.821052938699722290e-02 1.249346695840358734e-02 6.250909715890884399e-02 -6.760736554861068726e-02 -5.636380612850189209e-02 -1.695862039923667908e-02 -1.413578819483518600e-02 2.498430572450160980e-02
-5.103749036788940430e-02 1.841607037931680679e-03 5.868178606033325195e-02 -5.891792010515928268e-03 1.852126792073249817e-02 -3.002661652863025665e-02 4.364046826958656311e-02 -2.954058116301894188e-03 -3.731731325387954712e-02 -6.075668707489967346e-02
3.280451893806457520e-02 -7.384265959262847900e-02 1.463420782238245010e-02 -6.020138505846261978e-03 -4.584674257785081863e-03 -3.207745403051376343e-02 5.138115957379341125e-02 -2.704801969230175018e-02 3.027917584404349327e-03 -1.500633172690868378e-02
-3.933373838663101196e-02 -5.614349246025085449e-02 4.981597512960433960e-02 -1.231431867927312851e-02 5.544012412428855896e-02 -1.710070995613932610e-03 1.351711247116327286e-02 -7.082599401473999023e-02 2.997710742056369781e-02 -1.880875788629055023e-02
-5.604095757007598877e-03 -1.983283460140228271e-02 -6.404246389865875244e-02 6.684568710625171661e-03 -5.747604370117187500e-02 1.703917607665061951e-02 -5.634219571948051453e-02 1.611394062638282776e-02 -7.029789965599775314e-03 2.733798138797283173e-02
2.643383108079433441e-02 -9.607674553990364075e-03 -1.177718862891197205e-02 4.062196984887123108e-02 -4.581740498542785645e-02 4.662929102778434753e-02 -2.348440326750278473e-02 1.092047803103923798e-02 3.998057916760444641e-02 -4.681850597262382507e-02
-4.277501627802848816e-02 -3.361556306481361389e-02 4.631249979138374329e-02 -3.343177214264869690e-02 -7.507009804248809814e-02 -2.955743297934532166e-02 3.090338967740535736e-02 -4.644264467060565948e-03 -1.516614202409982681e-02 -5.034144222736358643e-02
5.886278674006462097e-02 -1.378480065613985062e-02 6.186627969145774841e-02 3.493699058890342712e-02 6.289459764957427979e-02 5.890911445021629333e-02 1.973949139937758446e-03 -4.343610629439353943e-02 5.835362896323204041e-02 -5.208575353026390076e-02
3.459211066365242004e-02 6.295539438724517822e-02 3.801134601235389709e-02 -4.346306622028350830e-02 -1.668719761073589325e-02 4.632756114006042480e-02 6.746597588062286377e-02 5.855580791831016541e-03 -2.488771080970764160e-02 -5.503113940358161926e-02
-3.690505027770996094e-02 2.951725199818611145e-02 -6.506442278623580933e-02 1.521671935915946960e-02 2.075638063251972198e-02 -3.777405992150306702e-02 2.851951122283935547e-02 -1.909980550408363342e-02 4.006822407245635986e-02 -3.728426620364189148e-02
4.269974306225776672e-02 3.446847200393676758e-02 2.203557640314102173e-02 -5.254208110272884369e-03 3.229503706097602844e-02 5.030773952603340149e-02 3.272263705730438232e-02 -3.195344284176826477e-02 -3.440942242741584778e-02 1.386877056211233139e-02
2.432129159569740295e-02 6.095912307500839233e-02 4.454869031906127930e-02 -6.495041400194168091e-02 -6.574858725070953369e-02 -6.019277125597000122e-02 7.717303186655044556e-02 -1.595323346555233002e-02 -2.360665239393711090e-02 -7.168975472450256348e-02
-4.746968299150466919e-02 5.381488800048828125e-02 -2.857949212193489075e-02 -2.999858744442462921e-02 8.120726794004440308e-03 -7.007311563938856125e-03 6.485268822871148586e-04 -1.830097474157810211e-02 -5.588637664914131165e-02 -5.923328176140785217e-02
1.603257469832897186e-02 -3.023005789145827293e-03 5.621200427412986755e-02 -4.246663674712181091e-02 4.984138906002044678e-02 9.672462940216064453e-03 7.027417421340942383e-02 -4.522404819726943970e-02 4.012937471270561218e-02 5.247621610760688782e-02
-1.970363408327102661e-02 -3.409167751669883728e-02 -9.846474276855587959e-04 1.830352470278739929e-02 3.498768433928489685e-02 -2.769060200080275536e-03 -5.908627063035964966e-02 3.546807914972305298e-02 -7.315608859062194824e-02 -1.456489413976669312e-02
6.593382358551025391e-02 -3.680841298773884773e-03 -8.295061998069286346e-03 -6.794715672731399536e-02 4.443138465285301208e-02 -3.340282663702964783e-02 -5.881973356008529663e-02 2.339612878859043121e-02 1.632677158340811729e-03 -1.138682197779417038e-02
7.100410014390945435e-02 -2.041528746485710144e-02 -7.194259762763977051e-02 -7.245770841836929321e-02 2.924047224223613739e-02 -7.033227384090423584e-02 6.370844691991806030e-02 -7.205471396446228027e-02 4.980124905705451965e-02 2.977599203586578369e-02
-1.861033961176872253e-02 -6.813120841979980469e-02 3.701147437095642090e-02 2.547086915001273155e-03 -3.853999078273773193e-02 -6.752818077802658081e-02 -3.601568192243576050e-02 7.539928704500198364e-02 -2.760142274200916290e-02 -1.028894167393445969e-02
3.792270272970199585e-02 3.015724010765552521e-02 6.344580650329589844e-02 -7.288289070129394531e-02 8.936313912272453308e-03 6.117595732212066650e-02 5.367966741323471069e-02 7.120560109615325928e-02 -8.199528791010379791e-03 -5.661301687359809875e-02
7.628339529037475586e-02 -3.126806393265724182e-02 4.672279581427574158e-03 -5.459035933017730713e-02 6.062584742903709412e-02 -4.768515750765800476e-02 2.560277283191680908e-02 5.192274972796440125e-02 -1.303387712687253952e-02 -1.187147479504346848e-02
-6.420936435461044312e-02 -7.170014828443527222e-02 4.353995900601148605e-03 -7.362581789493560791e-02 4.430110007524490356e-02 1.411439385265111923e-03 1.794068329036235809e-02 -4.732273519039154053e-02 -6.264074146747589111e-02 -7.378872833214700222e-04
-3.998830169439315796e-02 -6.676641851663589478e-02 -2.353480271995067596e-02 -6.674160249531269073e-03 5.286946892738342285e-02 5.109959468245506287e-02 4.534351825714111328e-02 5.867385491728782654e-02 1.245337724685668945e-02 2.658009342849254608e-02
5.820398032665252686e-02 -6.160592660307884216e-03 -3.752875700592994690e-02 1.608570292592048645e-02 1.758628338575363159e-02 -3.794603515416383743e-03 -2.598039805889129639e-02 -2.411249093711376190e-03 1.353553589433431625e-02 2.788356505334377289e-02
6.658746302127838135e-02 -1.463711634278297424e-02 -4.601918905973434448e-02 -2.087328210473060608e-02 7.175706326961517334e-03 -1.323848217725753784e-02 4.081775993108749390e-02 -8.610129356384277344e-03 -2.609100192785263062e-02 6.060639023780822754e-02
2.705977857112884521e-02 -5.620027333498001099e-02 -3.193529695272445679e-02 -5.685216281563043594e-03 -5.253565311431884766e-02 -8.398493751883506775e-03 3.925411030650138855e-02 2.014390006661415100e-02 -7.607062906026840210e-02 -1.198256853967905045e-02
6.942164152860641479e-02 3.317075595259666443e-02 -1.924802549183368683e-02 -1.292634475976228714e-02 6.570100039243698120e-02 4.608147218823432922e-02 -3.137519583106040955e-02 -5.429085809737443924e-03 4.149958491325378418e-02 1.751227863132953644e-02
2.310409769415855408e-02 7.348894327878952026e-02 -4.198322445154190063e-02 -4.005376249551773071e-02 6.722266227006912231e-02 2.867904305458068848e-02 -6.532799452543258667e-02 1.942615583539009094e-02 -7.205049623735249043e-04 6.983724236488342285e-02
2.893810905516147614e-02 -4.885999485850334167e-02 7.246736437082290649e-02 5.468366667628288269e-02 -1.944640837609767914e-02 -1.163390558212995529e-02 -1.132637541741132736e-02 -2.738094702363014221e-02 3.220793977379798889e-02 -2.959550358355045319e-02
5.899652093648910522e-02 6.818532012403011322e-03 -2.685053087770938873e-02 5.758034437894821167e-02 4.216507822275161743e-02 -1.402646303176879883e-02 1.110554207116365433e-03 5.460589006543159485e-02 -2.531793341040611267e-02 -1.470166631042957306e-02
-7.125113904476165771e-02 5.584383383393287659e-02 5.052792653441429138e-02 -1.115246023982763290e-02 -4.936064127832651138e-03 -4.287913441658020020e-02 5.314596462994813919e-03 -6.211664155125617981e-02 2.352724783122539520e-02 3.521074354648590088e-02
6.360856443643569946e-02 -4.464924708008766174e-02 8.797146379947662354e-03 6.238920986652374268e-02 7.543809711933135986e-03 -5.377112701535224915e-02 -3.652527928352355957e-02 -1.889145188033580780e-02 -3.642376884818077087e-02 4.442942887544631958e-02
6.432819366455078125e-02 3.326745331287384033e-02 -6.546398252248764038e-02 -4.223069176077842712e-02 -1.271250471472740173e-02 6.882929056882858276e-02 -2.608082629740238190e-02 2.176308818161487579e-02 -6.128146499395370483e-02 -6.572287529706954956e-02
1.301482226699590683e-02 4.026180505752563477e-02 6.606131047010421753e-02 -1.428926363587379456e-02 -2.397801913321018219e-02 6.588263064622879028e-02 1.548612397164106369e-02 6.633935868740081787e-02 -7.761081680655479431e-03 -1.029409933835268021e-02
-1.719688763841986656e-03 -3.368872404098510742e-02 1.350518502295017242e-02 5.289628356695175171e-02 4.929332807660102844e-02 -9.526277892291545868e-03 1.051773130893707275e-02 6.900548934936523438e-02 4.286185721866786480e-04 -4.801821708679199219e-02
1.917572459205985069e-03 6.353154033422470093e-02 1.425461098551750183e-02 -7.482425775378942490e-03 -7.102166116237640381e-02 2.461271733045578003e-02 2.879964374005794525e-02 -5.404577776789665222e-02 -5.214052274823188782e-02 6.622560322284698486e-02
-3.989296779036521912e-02 -1.624278165400028229e-02 -7.375854998826980591e-02 3.892283188179135323e-03 7.502341270446777344e-02 -1.899234019219875336e-02 -4.179534688591957092e-02 -5.633923411369323730e-02 6.768455356359481812e-02 4.893072322010993958e-02
4.452129080891609192e-02 -1.585629768669605255e-02 -1.385971531271934509e-02 2.713700756430625916e-02 -2.562209218740463257e-02 3.393865004181861877e-02 7.040116935968399048e-02 7.302948832511901855e-02 7.410240918397903442e-02 1.681420952081680298e-02
1.322126854211091995e-02 -3.743484616279602051e-02 -7.416573911905288696e-02 -7.406417746096849442e-03 -4.203564301133155823e-02 -4.727267101407051086e-02 5.645914003252983093e-02 -3.427157411351799965e-03 6.717249751091003418e-02 4.054519161581993103e-02
6.255862116813659668e-02 -4.503109306097030640e-02 -2.400665171444416046e-02 6.104374304413795471e-02 -6.660246849060058594e-02 -4.461760446429252625e-02 4.226760193705558777e-02 -4.500798508524894714e-02 5.932037904858589172e-02 3.065355308353900909e-02
-5.925653036683797836e-03 -7.545324042439460754e-03 3.667004033923149109e-02 1.525812968611717224e-02 -6.032837554812431335e-02 5.006051063537597656e-02 3.795386105775833130e-02 -6.770361959934234619e-02 -2.211295254528522491e-02 -5.229099094867706299e-02
2.535005658864974976e-02 4.409287124872207642e-03 -6.745770573616027832e-02 4.777960479259490967e-02 1.466902345418930054e-02 7.551892846822738647e-02 1.815915852785110474e-02 -3.513784334063529968e-02 5.563486739993095398e-02 -5.020442232489585876e-02
-3.088722238317131996e-03 5.669918656349182129e-02 4.558818787336349487e-02 6.834045983850955963e-03 2.629330568015575409e-02 -3.670987673103809357e-03 4.041884094476699829e-02 -2.682422520592808723e-03 6.386928260326385498e-02 5.436764657497406006e-02
7.713801227509975433e-03 7.511252164840698242e-02 1.106594409793615341e-02 -9.250223636627197266e-03 -4.626265540719032288e-02 -7.268491387367248535e-02 2.875056117773056030e-02 7.573260366916656494e-02 -4.159495234489440918e-02 -3.710443899035453796e-02
-4.602462798357009888e-02 -3.578328341245651245e-02 -1.287378743290901184e-02 6.781608611345291138e-02 -8.366588503122329712e-03 6.228650361299514771e-02 4.178720712661743164e-02 -7.091520726680755615e-02 1.986375544220209122e-03 -6.895057111978530884e-02
-3.212404204532504082e-03 -3.021696209907531738e-02 4.766782745718955994e-02 -1.073811855167150497e-02 -6.532786786556243896e-02 -5.057873204350471497e-02 -6.447627395391464233e-02 1.882207207381725311e-02 -2.483993954956531525e-02 -2.023505046963691711e-02
6.592441350221633911e-02 -3.392816334962844849e-02 -1.884066872298717499e-02 3.824067860841751099e-02 6.639240682125091553e-02 3.793439269065856934e-02 3.688934817910194397e-02 1.926416717469692230e-02 4.591628164052963257e-02 9.215201251208782196e-03
4.547046124935150146e-02 -5.548479035496711731e-03 2.864669822156429291e-02 6.997743248939514160e-02 4.623850062489509583e-02 -6.486336141824722290e-02 4.243863746523857117e-02 -1.338396035134792328e-02 -2.700455021113157272e-03 -4.567711800336837769e-02
-5.860035866498947144e-02 -5.699086189270019531e-02 5.999847874045372009e-02 -6.710932403802871704e-02 -5.083550140261650085e-02 -2.273591468110680580e-03 1.754916273057460785e-02 -4.362112283706665039e-02 4.332224652171134949e-02 -1.715544797480106354e-02
-3.528384491801261902e-02 4.912278801202774048e-02 -1.359198521822690964e-02 2.589445374906063080e-02 -6.084512174129486084e-02 -8.488953113555908203e-03 3.215876594185829163e-02 1.423705276101827621e-02 -1.022651884704828262e-02 -8.143142797052860260e-03
5.756314843893051147e-03 -3.380709514021873474e-02 4.679817333817481995e-02 2.289240434765815735e-02 -1.903829723596572876e-02 6.126013025641441345e-02 -5.963990837335586548e-02 -6.621835380792617798e-02 -1.058586407452821732e-02 2.703285589814186096e-02
-1.341882254928350449e-02 -3.691710764542222023e-03 -3.382522612810134888e-02 4.113509878516197205e-02 -5.344488658010959625e-03 4.660113900899887085e-02 2.935661189258098602e-02 3.131530806422233582e-02 -1.778593100607395172e-02 -1.625601947307586670e-02
6.047981232404708862e-02 1.384400238748639822e-04 1.413621194660663605e-02 2.000221237540245056e-02 -3.177515696734189987e-03 -6.621009111404418945e-02 -6.462018936872482300e-02 -5.943835526704788208e-02 -2.729990333318710327e-02 -4.627189785242080688e-02
-2.408946678042411804e-02 5.796579644083976746e-02 3.283016383647918701e-02 2.094106562435626984e-02 1.978230103850364685e-02 -3.179139271378517151e-02 -1.966152153909206390e-02 -4.169878593529574573e-06 2.803226560354232788e-02 2.280846238136291504e-02
6.522287428379058838e-02 6.019588559865951538e-02 -5.486597120761871338e-02 -3.848262131214141846e-03 4.202995076775550842e-02 -3.858347237110137939e-02 -5.668320134282112122e-02 -6.598397344350814819e-02 2.240571565926074982e-02 5.526496563106775284e-03
2.354173548519611359e-02 -6.409558653831481934e-02 3.158388286828994751e-02 -4.819643869996070862e-02 5.307983607053756714e-02 3.643174842000007629e-02 6.129517033696174622e-02 -1.021370850503444672e-02 -4.447032138705253601e-02 -4.670295491814613342e-02
-6.275828182697296143e-02 -7.207721471786499023e-02 6.024428829550743103e-02 2.338346559554338455e-03 -1.665149815380573273e-02 -5.053509026765823364e-02 -6.906163616804406047e-05 -3.247137367725372314e-02 2.921612001955509186e-02 6.078962981700897217e-02
4.669455066323280334e-02 1.180384214967489243e-02 5.823490023612976074e-02 4.091076087206602097e-03 -5.092690885066986084e-02 2.215882204473018646e-02 4.721845500171184540e-03 6.463005393743515015e-02 6.688969675451517105e-03 -6.562655419111251831e-02
-4.122975468635559082e-02 -6.440781056880950928e-02 -2.262208051979541779e-02 2.611910365521907806e-02 1.705287955701351166e-02 3.096172958612442017e-02 -5.289711058139801025e-02 1.090395031496882439e-03 9.723979048430919647e-03 -2.890924550592899323e-02
2.629108913242816925e-02 -6.336468458175659180e-02 -5.983307585120201111e-02 -8.562377654016017914e-03 1.834268798120319843e-03 5.756970867514610291e-02 7.414987683296203613e-02 1.998001895844936371e-02 -7.527142763137817383e-02 6.740988790988922119e-02
-1.791852526366710663e-02 -2.986958995461463928e-02 -2.726059406995773315e-02 -2.298773825168609619e-02 3.921654447913169861e-02 -1.714921928942203522e-02 4.505699127912521362e-02 6.078391522169113159e-02 -3.300671279430389404e-02 3.469325974583625793e-02
-1.451843511313199997e-02 1.813021302223205566e-02 1.328993961215019226e-02 4.423064365983009338e-02 2.817209344357252121e-03 4.438582435250282288e-02 -7.461319863796234131e-02 -6.246048957109451294e-02 5.476727336645126343e-02 4.171643778681755066e-02
-1.373731158673763275e-02 4.702317714691162109e-02 1.570082036778330803e-03 -3.673443570733070374e-02 5.696399509906768799e-02 -7.503080368041992188e-02 4.862195253372192383e-02 -7.110582292079925537e-02 -4.858180508017539978e-02 -1.890093088150024414e-03
7.393149286508560181e-02 -1.245843432843685150e-02 -5.234434455633163452e-02 8.021916262805461884e-03 1.406311243772506714e-02 6.786508113145828247e-02 4.016049951314926147e-02 1.420118007808923721e-02 3.284771740436553955e-02 -5.737378075718879700e-02
-3.777377307415008545e-02 1.366820931434631348e-02 7.553815096616744995e-02 6.396713107824325562e-02 4.170731827616691589e-02 -2.994873328134417534e-03 -4.555012658238410950e-02 -5.558901652693748474e-02 4.340614005923271179e-02 -3.596663102507591248e-02
5.014305002987384796e-03 3.892314061522483826e-02 3.290453553199768066e-02 -3.457714989781379700e-02 -1.547980401664972305e-02 -2.018004469573497772e-02 1.597439497709274292e-02 -5.881165340542793274e-02 -3.834261372685432434e-02 -5.001788213849067688e-02
-6.308170966804027557e-03 -2.115973457694053650e-02 2.919589355587959290e-02 4.035202786326408386e-03 -6.980376318097114563e-03 7.344389706850051880e-02 -1.200268603861331940e-02 1.244993135333061218e-02 -6.703513860702514648e-02 4.065087996423244476e-03
-1.390078105032444000e-02 -6.216638721525669098e-04 6.524696201086044312e-02 5.283734574913978577e-02 -1.955172047019004822e-02 1.878104545176029205e-02 5.502926558256149292e-02 -5.363054201006889343e-02 -5.752550065517425537e-02 -4.618647973984479904e-03
1.868125982582569122e-02 5.677645653486251831e-02 7.415571063756942749e-02 2.675603376701474190e-03 -3.624424338340759277e-02 -1.947107957676053047e-03 2.931101247668266296e-02 8.940989151597023010e-03 4.760093241930007935e-02 -2.871973812580108643e-02
2.420194912701845169e-03 5.341017618775367737e-02 -4.807767923921346664e-03 6.211898475885391235e-02 -4.298995807766914368e-02 3.278623521327972412e-02 -2.309821732342243195e-02 -4.501915350556373596e-02 -5.184654518961906433e-02 -6.642187386751174927e-02
7.075382745824754238e-04 1.570492982864379883e-02 1.687631756067276001e-02 1.408946514129638672e-02 4.091310873627662659e-02 2.858256548643112183e-02 2.665083669126033783e-02 -6.747367233037948608e-02 1.433204486966133118e-02 -6.207039952278137207e-02
1.265843212604522705e-02 8.031769539229571819e-04 -5.724716559052467346e-02 -6.700433045625686646e-02 -2.517049200832843781e-02 2.851498872041702271e-02 4.428215697407722473e-02 -6.955322623252868652e-02 2.040700754150748253e-03 4.318065941333770752e-02
6.207055598497390747e-02 4.628611356019973755e-02 6.042654067277908325e-02 6.298410892486572266e-02 3.619999811053276062e-02 4.479450732469558716e-02 3.931113332509994507e-02 -1.478928979486227036e-02 9.672679007053375244e-03 -4.321975260972976685e-02
7.613912969827651978e-02 -6.247810646891593933e-02 7.507748901844024658e-02 2.169976942241191864e-03 4.477588832378387451e-02 7.543279230594635010e-02 2.913440391421318054e-02 2.802071534097194672e-02 -6.198275461792945862e-02 -4.974403604865074158e-02
1.485057640820741653e-02 -1.219633128494024277e-02 6.407215446233749390e-02 4.146587476134300232e-02 2.419855212792754173e-03 3.302472876384854317e-03 3.344225510954856873e-02 1.601684466004371643e-02 5.420504882931709290e-02 -3.778816759586334229e-02
-5.888870358467102051e-02 1.059854682534933090e-02 -6.941713392734527588e-02 -1.042857579886913300e-02 -3.303190693259239197e-02 -2.955705113708972931e-02 -6.182134896516799927e-02 4.433967918157577515e-02 -2.269812300801277161e-02 -5.436238273978233337e-02
-5.631570145487785339e-02 5.711812525987625122e-02 4.701421037316322327e-02 -6.526292115449905396e-02 -6.032396107912063599e-02 -5.910876765847206116e-02 2.705633454024791718e-02 1.908455975353717804e-02 -1.515287347137928009e-02 -2.701680921018123627e-02
1.255976408720016479e-02 -5.754348263144493103e-02 2.726421132683753967e-02 -4.583362117409706116e-02 4.046760872006416321e-02 -5.405275896191596985e-02 -2.038118802011013031e-02 5.543823912739753723e-02 -3.278054296970367432e-03 -4.183945059776306152e-02
-2.562061697244644165e-02 2.192229777574539185e-02 2.115133218467235565e-02 -3.917516767978668213e-02 3.999903053045272827e-02 1.514901779592037201e-02 -5.664037540555000305e-02 -9.704182855784893036e-03 1.183137763291597366e-02 2.551798522472381592e-02
2.385343238711357117e-02 3.804525732994079590e-02 -1.414800621569156647e-02 2.031278982758522034e-02 5.354011803865432739e-02 6.048620492219924927e-02 -5.066467449069023132e-02 -1.251925015822052956e-03 -8.618098683655261993e-03 -6.633888930082321167e-03
4.528556391596794128e-02 -3.121683374047279358e-02 7.452200353145599365e-02 9.982218034565448761e-03 4.569925367832183838e-02 5.439689010381698608e-02 4.735361412167549133e-02 2.940554404631257057e-03 -1.636094599962234497e-02 -9.922357276082038879e-04
7.575636357069015503e-02 -7.121267169713973999e-02 -1.659841276705265045e-02 -4.511850327253341675e-02 -1.287400443106889725e-02 4.714694991707801819e-02 -1.792189141269773245e-04 -7.246210426092147827e-02 2.307135239243507385e-02 3.147606924176216125e-02
-5.886185541749000549e-02 6.405684165656566620e-03 -3.413004055619239807e-02 7.615890353918075562e-02 -3.075618855655193329e-02 -7.554098963737487793e-02 -7.300554215908050537e-02 -3.104695305228233337e-02 -3.683488443493843079e-02 5.924015864729881287e-02
-3.090237081050872803e-02 6.717286258935928345e-02 -2.984439767897129059e-02 3.876680508255958557e-02 1.386538706719875336e-02 2.836087532341480255e-02 -2.614168077707290649e-02 6.354247033596038818e-02 3.886726871132850647e-02 7.802513893693685532e-03
2.784827724099159241e-02 2.782962284982204437e-02 -6.886115670204162598e-02 -1.936072669923305511e-02 9.547230787575244904e-03 -5.772045254707336426e-02 4.659349471330642700e-02 -6.556354463100433350e-02 4.371578991413116455e-02 -7.439556717872619629e-02
1.251372601836919785e-02 7.578950375318527222e-02 7.338850945234298706e-02 3.403054550290107727e-02 7.353921979665756226e-02 2.701021917164325714e-02 -7.626345008611679077e-02 -5.504127964377403259e-02 -7.127847522497177124e-02 -1.431212946772575378e-02
5.172250419855117798e-02 -7.754129357635974884e-03 4.297696799039840698e-02 5.629552155733108521e-02 6.015257164835929871e-02 -5.426574870944023132e-02 -7.195518165826797485e-02 5.203010886907577515e-02 1.784894242882728577e-02 -5.430332571268081665e-02
-5.760473757982254028e-02 6.155756860971450806e-02 4.007828980684280396e-02 -7.194869965314865112e-02 2.674987167119979858e-02 5.781320855021476746e-02 5.345034226775169373e-02 5.993340536952018738e-02 4.159574955701828003e-02 -1.967592909932136536e-02
3.672940284013748169e-02 -5.435188114643096924e-02 -3.481496497988700867e-02 5.422820150852203369e-02 4.764281213283538818e-02 2.160448394715785980e-02 -3.135838732123374939e-02 -4.569169599562883377e-03 -6.670944392681121826e-02 2.428987622261047363e-02
1.350392680615186691e-02 3.028782829642295837e-02 -9.871187619864940643e-03 -5.284391343593597412e-02 6.447566300630569458e-02 3.189478814601898193e-02 4.445879161357879639e-02 1.654972136020660400e-02 -6.675304472446441650e-02 4.338886064942926168e-04
5.748825892806053162e-02 5.889430642127990723e-02 -3.755959123373031616e-02 -6.397902965545654297e-02 -2.883052453398704529e-02 5.085887759923934937e-02 -7.505600899457931519e-02 -3.645478561520576477e-02 -8.684280328452587128e-03 2.717494778335094452e-02
-7.417907565832138062e-02 2.430769614875316620e-02 9.317345917224884033e-03 7.730756886303424835e-03 -4.612267017364501953e-02 -5.932493600994348526e-03 3.704549744725227356e-02 -4.736096598207950592e-03 1.719948370009660721e-03 5.746144801378250122e-02
-4.717415198683738708e-02 5.776452273130416870e-02 3.886172175407409668e-02 -7.129897177219390869e-02 4.612892121076583862e-02 5.413429066538810730e-02 -3.778221830725669861e-02 2.692630514502525330e-02 1.277306396514177322e-02 -7.136198878288269043e-02
-4.740523174405097961e-03 -9.925756603479385376e-03 -6.728172302246093750e-02 -3.384805843234062195e-02 1.831603050231933594e-02 -1.926631294190883636e-02 1.733411662280559540e-02 6.853967439383268356e-03 5.918169394135475159e-03 5.358574166893959045e-02
6.783884484320878983e-03 -5.743876844644546509e-02 6.054414063692092896e-02 -1.536840386688709259e-02 -2.837373316287994385e-02 2.283636247739195824e-03 -5.367587506771087646e-02 2.177837118506431580e-02 -6.906774640083312988e-02 3.064893372356891632e-02
3.989988565444946289e-02 -6.262610852718353271e-02 -7.414131611585617065e-02 -5.339632555842399597e-02 2.933813445270061493e-02 4.923510923981666565e-02 7.265189290046691895e-02 -4.366609081625938416e-02 4.999527707695960999e-02 6.311066448688507080e-02
-4.096794128417968750e-02 4.320944845676422119e-02 6.857503205537796021e-02 -7.046010345220565796e-02 -1.894577965140342712e-02 1.373213343322277069e-02 3.505721688270568848e-02 4.605716094374656677e-02 2.864678949117660522e-02 -7.401781529188156128e-02
2.268651314079761505e-02 2.135654352605342865e-02 6.156414374709129333e-02 -4.207252711057662964e-02 1.405669096857309341e-02 5.689785629510879517e-02 7.605268806219100952e-02 4.878185427514836192e-05 5.234207957983016968e-02 -2.850507618859410286e-03
-5.841702595353126526e-02 -5.001564696431159973e-02 -3.153543919324874878e-02 3.345226496458053589e-02 -5.687862168997526169e-03 6.570752710103988647e-02 -1.042172312736511230e-02 1.289297826588153839e-02 -1.237950939685106277e-02 6.615431606769561768e-02
-3.741029649972915649e-02 4.818879440426826477e-02 -1.513647101819515228e-02 4.223789647221565247e-02 9.571341797709465027e-03 -7.058501243591308594e-02 -6.685530394315719604e-02 -2.341262809932231903e-02 3.143344074487686157e-02 -3.334194421768188477e-02
-6.313912570476531982e-02 6.144252419471740723e-02 6.408229470252990723e-02 -2.534535527229309082e-02 2.683009207248687744e-02 -6.054702401161193848e-02 -6.474734097719192505e-02 5.846075713634490967e-03 3.629364073276519775e-02 -5.623439326882362366e-02
4.593013599514961243e-02 6.477807462215423584e-02 -3.586605563759803772e-02 -7.020996510982513428e-02 -1.108632981777191162e-02 -4.231216735206544399e-04 -2.370659820735454559e-02 4.370430484414100647e-03 3.142642602324485779e-02 -5.251482501626014709e-02
-1.278499420732259750e-02 3.439155593514442444e-02 3.256788104772567749e-02 1.078505162149667740e-02 -2.057765983045101166e-02 3.304537385702133179e-02 -5.412825569510459900e-02 1.015917211771011353e-02 3.347890451550483704e-02 2.621737308800220490e-02
-1.776924915611743927e-02 -5.144922435283660889e-02 1.347499340772628784e-02 1.909086015075445175e-03 3.634721785783767700e-02 -1.836282946169376373e-02 2.741192840039730072e-02 3.132732957601547241e-02 -5.051985010504722595e-02 -5.354539304971694946e-02
5.700200796127319336e-02 -6.758061796426773071e-02 6.098197400569915771e-02 -6.743498146533966064e-02 -1.137738674879074097e-02 2.347975969314575195e-03 7.056984305381774902e-02 -6.025977805256843567e-02 -1.387926563620567322e-02 -3.833600878715515137e-02
-2.046871231868863106e-03 6.835563480854034424e-02 1.754938252270221710e-02 -7.135905791074037552e-03 3.221673890948295593e-02 1.702624931931495667e-02 7.016301900148391724e-02 -3.211829066276550293e-02 1.511420216411352158e-02 -4.323781281709671021e-02
-3.266821056604385376e-02 6.286644935607910156e-02 -6.368000805377960205e-02 -3.209234029054641724e-02 3.772929683327674866e-02 9.670878760516643524e-03 -3.871061280369758606e-02 5.303677543997764587e-02 3.632331266999244690e-02 -2.186845615506172180e-02
-1.850925153121352196e-03 1.058379095047712326e-02 -6.538465619087219238e-02 5.900717899203300476e-02 -3.526062518358230591e-02 -3.481115028262138367e-02 3.250095993280410767e-02 2.850900031626224518e-02 3.949697315692901611e-02 2.663979865610599518e-02
-4.539142176508903503e-02 1.258539687842130661e-02 -3.862847015261650085e-02 -1.289143599569797516e-02 5.562078207731246948e-02 -8.830295875668525696e-03 -3.156480193138122559e-02 7.538395375013351440e-02 4.302060976624488831e-02 3.957732394337654114e-02
-3.008395060896873474e-02 6.734830886125564575e-02 1.920365728437900543e-02 -3.497529029846191406e-02 -1.056409347802400589e-02 -7.409183681011199951e-02 1.302184164524078369e-02 6.145978812128305435e-03 -7.410555332899093628e-02 7.397924363613128662e-02
3.387254104018211365e-02 -2.294926159083843231e-02 4.458286613225936890e-02 -4.309143871068954468e-02 -2.493638172745704651e-02 1.522337738424539566e-02 6.904476135969161987e-02 -3.666074713692069054e-03 5.955212190747261047e-02 5.299828574061393738e-02
-7.101324200630187988e-02 -5.096998438239097595e-02 1.944802887737751007e-02 5.531629174947738647e-02 5.943961441516876221e-02 -7.404914498329162598e-02 1.167969778180122375e-02 -1.681995205581188202e-02 -3.878658264875411987e-02 3.841034322977066040e-02
6.016952171921730042e-02 5.804565548896789551e-02 4.704575613141059875e-02 5.456755682826042175e-02 4.175786394625902176e-03 5.271976068615913391e-02 7.237287610769271851e-02 -1.982135511934757233e-02 -2.135337144136428833e-02 3.698219731450080872e-02
3.919705003499984741e-02 1.424645015504211187e-04 1.709356717765331268e-02 5.647062882781028748e-02 -7.597278058528900146e-02 -1.486925128847360611e-02 -3.708775620907545090e-03 -6.480656564235687256e-02 -2.023495733737945557e-02 -2.716735377907752991e-02
-1.059372816234827042e-02 -2.233364433050155640e-02 2.504124492406845093e-02 4.789963737130165100e-02 -6.051439791917800903e-02 7.143277674913406372e-02 7.273382693529129028e-02 1.702414941973984241e-03 4.961238056421279907e-02 6.109036132693290710e-02
-3.787494823336601257e-02 -4.672034084796905518e-02 -6.399420555680990219e-03 1.062373630702495575e-02 5.197600461542606354e-03 -3.449701471254229546e-03 -7.398171722888946533e-02 5.410422384738922119e-02 -4.152378439903259277e-02 -6.628635525703430176e-02
-2.249751798808574677e-02 -1.294571068137884140e-02 -6.659264862537384033e-02 4.843167215585708618e-02 4.084279015660285950e-02 5.905358120799064636e-03 3.733373805880546570e-02 2.526390552520751953e-02 1.195762213319540024e-02 4.861667379736900330e-02
4.317883029580116272e-02 -8.636032231152057648e-03 7.544961571693420410e-02 -4.180470108985900879e-02 -7.481343299150466919e-02 -3.122717142105102539e-02 -1.334958802908658981e-02 9.757579304277896881e-03 -2.601616084575653076e-02 -5.700963735580444336e-02
-1.407684758305549622e-02 -1.151247788220643997e-02 -7.232721894979476929e-02 5.738173611462116241e-03 -5.941291339695453644e-03 -3.398052975535392761e-02 5.256803240627050400e-03 3.071396797895431519e-02 -1.166028436273336411e-02 2.125133574008941650e-02
6.622128933668136597e-02 -4.165698960423469543e-02 5.083293840289115906e-02 4.660988599061965942e-02 -6.757209450006484985e-02 2.986807376146316528e-02 -2.887026406824588776e-03 5.729383602738380432e-02 -2.401127479970455170e-02 4.616438597440719604e-02
9.672245010733604431e-03 7.163660973310470581e-02 5.340505018830299377e-02 -7.376930210739374161e-03 -7.425101846456527710e-02 6.232019886374473572e-02 3.983907867223024368e-03 4.641215503215789795e-02 -4.006325453519821167e-02 -1.646892167627811432e-02
2.478189393877983093e-02 -1.645331270992755890e-02 -5.487396195530891418e-02 1.000520586967468262e-02 -1.227395143359899521e-02 -1.361975539475679398e-02 6.780864298343658447e-02 4.778746888041496277e-02 4.059662576764822006e-03 5.050083622336387634e-02
2.235303446650505066e-02 -3.652789071202278137e-02 -4.272263124585151672e-02 7.231700420379638672e-02 5.107937380671501160e-03 3.024009987711906433e-02 -2.129090949892997742e-02 -2.172922715544700623e-02 1.534260809421539307e-02 1.977623440325260162e-02
-4.948746412992477417e-02 1.027529593557119370e-02 -4.614414647221565247e-02 -1.620594784617424011e-02 -1.451923139393329620e-02 6.538274139165878296e-02 7.058743387460708618e-02 -4.187725111842155457e-02 5.318611115217208862e-02 2.967519126832485199e-02
5.637988075613975525e-02 2.518165111541748047e-02 4.827567934989929199e-02 -5.169360898435115814e-03 6.499411165714263916e-02 3.070073900744318962e-03 5.589133128523826599e-02 -6.272461265325546265e-02 1.442791614681482315e-02 -5.000849440693855286e-02
-4.193061217665672302e-02 -2.203130163252353668e-02 -3.925921022891998291e-02 -1.023889891803264618e-02 -5.012703314423561096e-02 5.584736913442611694e-02 5.586539581418037415e-02 3.644418343901634216e-02 1.398648601025342941e-02 -6.002882495522499084e-02
-6.835703551769256592e-02 -1.224541291594505310e-02 3.615558892488479614e-02 5.919177457690238953e-02 7.499000430107116699e-02 2.558609470725059509e-02 8.054469712078571320e-03 9.704712778329849243e-03 3.894636780023574829e-02 7.073304802179336548e-02
-1.748957112431526184e-02 4.342394322156906128e-02 -4.877336695790290833e-02 -2.774360589683055878e-02 -6.140049546957015991e-02 -6.234028190374374390e-02 1.915831491351127625e-02 -3.166348487138748169e-02 4.505047947168350220e-02 6.380014121532440186e-02
-5.919664725661277771e-02 1.040516234934329987e-02 2.852650545537471771e-02 -2.473021484911441803e-02 8.660322055220603943e-03 8.361545391380786896e-03 -1.429857313632965088e-02 4.944046214222908020e-02 -3.457475081086158752e-02 -4.732918739318847656e-02
6.175151094794273376e-02 4.629512131214141846e-02 -3.846640139818191528e-02 -3.371726721525192261e-02 -3.387677669525146484e-02 6.329217553138732910e-02 -3.696073312312364578e-03 3.292391449213027954e-02 7.388340681791305542e-02 3.508034627884626389e-03
4.900318756699562073e-02 1.937654800713062286e-02 2.952932938933372498e-02 3.396540880203247070e-02 5.588024854660034180e-02 -5.805085599422454834e-02 8.463916368782520294e-03 -6.880272924900054932e-02 -2.712216041982173920e-02 1.138047035783529282e-02
5.123497918248176575e-02 2.229901589453220367e-02 -6.913650035858154297e-02 -5.999553482979536057e-03 1.226046774536371231e-02 5.582109838724136353e-02 -7.581280171871185303e-02 -6.979307532310485840e-02 -6.958875805139541626e-02 5.896239727735519409e-02
-4.141162615269422531e-03 -6.950612366199493408e-02 1.624380052089691162e-02 -4.089196771383285522e-02 -5.648665875196456909e-02 6.062071770429611206e-02 -2.393597736954689026e-02 6.540665775537490845e-02 -4.610747843980789185e-02 -3.997176419943571091e-03
-2.597522735595703125e-02 -6.458037346601486206e-02 -5.650647729635238647e-02 3.634462133049964905e-02 -7.529271394014358521e-02 2.710248343646526337e-02 -5.696838349103927612e-02 2.966979704797267914e-02 4.873440414667129517e-02 1.119284145534038544e-02
-2.092115394771099091e-02 -1.586880162358283997e-02 -5.755592137575149536e-02 6.325317919254302979e-02 3.350909333676099777e-03 1.751841790974140167e-02 -1.587089523673057556e-02 -7.535593956708908081e-02 -1.097616739571094513e-02 -1.514441519975662231e-02
-7.468415051698684692e-02 -1.302315294742584229e-02 -6.794524192810058594e-02 -2.314084582030773163e-02 6.618127971887588501e-02 3.295671939849853516e-02 -5.631183832883834839e-02 1.492857094854116440e-02 4.706016927957534790e-02 3.489039093255996704e-02
-1.844006963074207306e-02 -3.403275460004806519e-02 3.031631186604499817e-02 -1.290299836546182632e-02 5.467123165726661682e-02 3.402869030833244324e-02 4.834499210119247437e-02 7.056380063295364380e-02 -5.370993539690971375e-02 -2.041143737733364105e-02
-2.193373255431652069e-02 -6.874532997608184814e-02 3.324061259627342224e-02 2.050080150365829468e-02 2.384763956069946289e-02 6.423203647136688232e-02 -8.447828702628612518e-03 -4.195977747440338135e-02 7.127112895250320435e-02 3.572219051420688629e-03
-5.613733455538749695e-02 6.746097654104232788e-02 3.028059750795364380e-02 -3.437734395265579224e-02 4.462304338812828064e-02 -2.263754047453403473e-02 -5.735493078827857971e-02 3.986598923802375793e-02 4.370894283056259155e-02 -6.141181662678718567e-02
5.597217381000518799e-02 5.159382149577140808e-02 5.218961089849472046e-02 -7.275542616844177246e-02 6.577849388122558594e-02 -4.458412155508995056e-02 2.260467410087585449e-02 6.493956595659255981e-02 -2.933086268603801727e-02 -6.427361071109771729e-02
-5.147491768002510071e-02 -6.055062636733055115e-02 -7.806761562824249268e-02 -7.103379070758819580e-02 3.582344949245452881e-02 2.415294013917446136e-02 -6.387749314308166504e-02 2.345552667975425720e-02 5.931048095226287842e-02 5.929109826683998108e-02
1.854769513010978699e-02 4.534325003623962402e-02 -3.047027438879013062e-02 -6.463569402694702148e-02 -5.622878205031156540e-03 -5.429796501994132996e-02 -3.277752548456192017e-02 3.561444953083992004e-02 -1.198269799351692200e-02 -2.858334593474864960e-02
6.252048909664154053e-02 3.337071463465690613e-02 3.160140663385391235e-02 -5.572311207652091980e-02 -9.792597033083438873e-03 5.984238162636756897e-02 5.628562718629837036e-02 -1.131750736385583878e-02 6.979151815176010132e-02 1.507630944252014160e-02
-1.446966454386711121e-02 4.104410111904144287e-02 7.488083560019731522e-03 -6.235472485423088074e-02 -3.506798669695854187e-02 -9.414801374077796936e-03 -4.774913564324378967e-02 -4.953221976757049561e-02 -2.398362942039966583e-02 6.378025561571121216e-02
2.047881484031677246e-03 1.813207753002643585e-02 7.384219765663146973e-02 1.597476564347743988e-02 1.935146562755107880e-02 2.671927772462368011e-02 -8.726515807211399078e-03 6.233082711696624756e-02 -5.175204202532768250e-02 2.363101951777935028e-02
