1.376058310270309448e-01 1.162331327795982361e-01 4.289731755852699280e-02 -6.307306466624140739e-04 7.691107690334320068e-02 8.105871826410293579e-02 -2.967893891036510468e-02 -6.311030685901641846e-02 -6.131384521722793579e-02 5.478377267718315125e-02 2.759796939790248871e-02 -4.471345990896224976e-02 -7.169397920370101929e-02 -8.510671555995941162e-02 -1.768832281231880188e-02 6.216848269104957581e-02 9.030765295028686523e-02 -1.003041118383407593e-01 2.776630781590938568e-02 7.649721577763557434e-03 -2.067669853568077087e-02 4.718924872577190399e-03 -2.509463764727115631e-02 -5.486703664064407349e-02 -2.313947491347789764e-02 1.547423843294382095e-02 -7.504878938198089600e-02 9.650724008679389954e-03 -2.667293138802051544e-02 -5.909861624240875244e-02 -3.011603839695453644e-02 1.686247438192367554e-02
1.013934686779975891e-01 -2.485560998320579529e-02 -6.932266801595687866e-02 -3.247988875955343246e-03 -4.969547316431999207e-02 -1.553316134959459305e-02 3.862646594643592834e-02 -1.586401462554931641e-02 1.024619489908218384e-01 3.308849409222602844e-02 1.508680135011672974e-01 -1.315976958721876144e-02 -1.108759827911853790e-02 3.714720904827117920e-02 5.012166500091552734e-02 -7.057498395442962646e-02 2.150649279356002808e-01 -9.144673496484756470e-02 -1.368727535009384155e-02 9.383890032768249512e-02 5.541554465889930725e-02 1.928910054266452789e-02 3.894478082656860352e-02 -6.065296754240989685e-02 4.961131140589714050e-02 5.902011319994926453e-02 -3.218236193060874939e-02 2.026840895414352417e-01 2.811153978109359741e-02 7.276924699544906616e-02 -5.197670310735702515e-02 -3.907052055001258850e-02
-2.280842280015349388e-03 1.096933335065841675e-01 -3.115443512797355652e-02 3.119057230651378632e-02 -6.802947074174880981e-02 8.428433537483215332e-02 1.315539330244064331e-01 -1.380549743771553040e-02 -6.692196428775787354e-02 1.100058853626251221e-01 8.043842017650604248e-02 -3.794432431459426880e-02 1.453329324722290039e-01 3.098488599061965942e-02 7.609983533620834351e-02 -4.858691990375518799e-02 1.888113766908645630e-01 -7.506415992975234985e-02 -2.497057616710662842e-02 -3.731640428304672241e-02 3.350443392992019653e-02 -5.872072279453277588e-02 -2.262638509273529053e-02 -3.606833145022392273e-02 -1.484514679759740829e-02 3.714811056852340698e-02 -1.287012826651334763e-03 2.528044283390045166e-01 -1.097297575324773788e-02 2.717003040015697479e-02 4.695880040526390076e-02 -5.097382515668869019e-02
3.477273136377334595e-02 6.509056687355041504e-02 9.145168960094451904e-02 5.763912573456764221e-02 5.550928413867950439e-02 2.043943852186203003e-03 1.058890819549560547e-01 7.685969024896621704e-02 -7.496957480907440186e-02 1.158827319741249084e-01 1.179366186261177063e-01 8.386794477701187134e-02 3.614664077758789062e-02 -2.891410700976848602e-02 1.299369782209396362e-01 -1.861985772848129272e-02 1.180906966328620911e-01 4.776695743203163147e-02 8.917072415351867676e-02 9.251657873392105103e-02 2.073604427278041840e-02 -4.923697188496589661e-02 -4.750573635101318359e-02 8.839360624551773071e-02 8.013653010129928589e-02 -7.771339733153581619e-03 6.470844894647598267e-02 2.697003781795501709e-01 1.171468477696180344e-02 -8.376223593950271606e-02 1.117033660411834717e-01 -5.151649937033653259e-02
-7.182709127664566040e-02 -7.345046848058700562e-02 7.510156184434890747e-02 2.866609580814838409e-02 -8.272396028041839600e-02 1.019661426544189453e-01 5.777030438184738159e-02 8.239470422267913818e-02 5.802810192108154297e-04 1.395718008279800415e-01 -4.996414110064506531e-02 1.563672348856925964e-02 3.853964060544967651e-02 -2.457365579903125763e-02 9.398888796567916870e-02 1.605750769376754761e-01 -8.534460514783859253e-02 7.807747274637222290e-02 4.900474101305007935e-02 -2.306472323834896088e-02 1.251514554023742676e-01 1.042286381125450134e-01 1.370590832084417343e-02 8.551231771707534790e-02 5.758579075336456299e-02 5.989310517907142639e-02 8.920952677726745605e-02 1.325944215059280396e-01 4.153424501419067383e-02 9.475383907556533813e-02 1.992936618626117706e-02 -3.209197893738746643e-02
1.548416316509246826e-01 2.980294264853000641e-02 1.188617106527090073e-02 -2.483500726521015167e-02 -5.638259649276733398e-02 -4.955973010510206223e-03 -5.597023293375968933e-02 1.040535494685173035e-01 3.380170837044715881e-02 -3.560148552060127258e-02 1.515223234891891479e-01 8.233227767050266266e-03 -3.202896565198898315e-02 -5.239904299378395081e-02 -1.591812446713447571e-02 8.741698414087295532e-02 1.571900844573974609e-01 3.401776403188705444e-02 5.894275754690170288e-02 -5.885113403201103210e-02 8.627006411552429199e-02 -2.656923606991767883e-02 -1.732561923563480377e-02 -2.866568602621555328e-02 -5.130465328693389893e-02 -9.022711962461471558e-02 -6.023330241441726685e-02 1.475639641284942627e-02 1.089546307921409607e-01 -2.162851160392165184e-03 2.273697219789028168e-02 -8.325166255235671997e-02
1.953084319829940796e-01 5.952081829309463501e-02 -8.002532273530960083e-02 6.430078297853469849e-02 3.444613516330718994e-02 -9.044890850782394409e-02 -1.304269023239612579e-02 -1.944447495043277740e-02 8.679713308811187744e-02 -3.596239909529685974e-02 1.808051764965057373e-01 3.039095178246498108e-02 1.364886611700057983e-01 4.220202565193176270e-03 -2.992022782564163208e-02 7.763228565454483032e-02 1.908813714981079102e-01 -7.277636229991912842e-02 5.796237289905548096e-02 -8.477772586047649384e-03 5.931985750794410706e-02 -8.552002906799316406e-02 3.190704807639122009e-02 -7.052323967218399048e-02 9.449578821659088135e-03 -6.125720962882041931e-02 -4.494677484035491943e-02 2.806395292282104492e-01 2.805941924452781677e-02 -6.348297744989395142e-02 -6.682100147008895874e-02 -5.482144281268119812e-02
5.698893964290618896e-02 -2.797928266227245331e-02 9.989701211452484131e-03 1.216154173016548157e-02 -8.388032019138336182e-02 -3.885042294859886169e-02 -3.062318451702594757e-02 1.876898854970932007e-01 3.121834248304367065e-02 -1.498364936560392380e-02 7.871408015489578247e-02 -1.403248682618141174e-02 1.577026247978210449e-01 8.510938286781311035e-02 9.744451940059661865e-02 -2.483362145721912384e-02 1.023242250084877014e-01 -6.651804316788911819e-03 -4.577005654573440552e-02 -4.552013427019119263e-02 1.028955429792404175e-01 -3.293843567371368408e-02 -3.823795169591903687e-02 -5.267207324504852295e-02 1.839854009449481964e-02 7.408549636602401733e-02 -7.166703045368194580e-02 2.914413809776306152e-01 5.587738379836082458e-02 -6.016514077782630920e-02 2.660760283470153809e-02 -2.964797429740428925e-02
-7.672921568155288696e-02 1.017857063561677933e-02 1.161896064877510071e-01 3.625976666808128357e-02 1.086551602929830551e-02 -3.894224762916564941e-02 1.238462328910827637e-01 1.813704818487167358e-01 4.545566439628601074e-02 1.166801229119300842e-01 1.492201387882232666e-01 2.448669262230396271e-02 6.311959028244018555e-02 3.196895495057106018e-02 5.494800582528114319e-02 1.479314416646957397e-01 1.267281919717788696e-01 2.740530297160148621e-02 -3.883102443069219589e-03 -3.017984330654144287e-02 9.805690497159957886e-02 6.948110461235046387e-02 -3.965154755860567093e-03 -3.361977264285087585e-02 3.357200324535369873e-02 7.992070168256759644e-02 6.200068816542625427e-02 2.594303190708160400e-01 4.069615900516510010e-02 -3.638683632016181946e-02 8.109822869300842285e-02 -7.273104786872863770e-02
-4.669856280088424683e-02 -8.419689536094665527e-02 1.670313775539398193e-01 1.322778761386871338e-01 -4.599781334400177002e-02 -6.855618953704833984e-02 -3.544353414326906204e-03 1.768836379051208496e-01 8.483750373125076294e-02 1.219691634178161621e-01 3.726795688271522522e-02 1.179415881633758545e-01 4.188265278935432434e-02 -8.512518554925918579e-02 1.233360916376113892e-02 1.910885870456695557e-01 4.258631914854049683e-02 1.355778425931930542e-01 -4.770166799426078796e-02 5.086128041148185730e-02 1.581759424880146980e-03 1.618980988860130310e-02 9.738117456436157227e-02 1.678425818681716919e-02 8.865548670291900635e-02 1.517341583967208862e-01 4.716681316494941711e-03 2.491212636232376099e-01 2.138292044401168823e-02 -4.931744933128356934e-02 3.404672257602214813e-03 5.229373276233673096e-02
7.897409051656723022e-02 5.815518274903297424e-02 -5.232277512550354004e-02 1.692914515733718872e-01 -4.255273193120956421e-02 1.397311408072710037e-02 7.473131269216537476e-02 7.752595841884613037e-02 7.792817056179046631e-02 -2.235342375934123993e-02 4.293692111968994141e-02 -4.503565654158592224e-02 4.222922399640083313e-02 3.706604614853858948e-02 5.792338401079177856e-02 -2.842210419476032257e-02 1.403304636478424072e-01 -2.812883257865905762e-02 1.167777832597494125e-02 1.963604986667633057e-02 1.967607438564300537e-02 1.844507083296775818e-02 1.260630637407302856e-01 -4.058540239930152893e-02 -5.704914778470993042e-02 -6.931949406862258911e-02 -1.014446280896663666e-02 9.554571658372879028e-02 3.296185284852981567e-02 -3.572010248899459839e-02 -2.962688915431499481e-02 -3.456243500113487244e-02
2.214289009571075439e-01 4.136360436677932739e-02 5.407869070768356323e-02 1.553775519132614136e-01 9.022631682455539703e-03 -8.315162360668182373e-02 8.607432246208190918e-02 1.870388239622116089e-01 -2.343264035880565643e-02 -1.039260104298591614e-01 8.148055523633956909e-02 -5.328842997550964355e-02 1.452385187149047852e-01 -7.141520082950592041e-02 5.845675617456436157e-02 1.069598197937011719e-01 2.982332408428192139e-01 7.416631281375885010e-02 3.367836773395538330e-02 1.598521508276462555e-02 7.768941670656204224e-02 -8.473065495491027832e-02 1.333516687154769897e-01 -6.877245754003524780e-02 -1.587931066751480103e-02 3.512762114405632019e-02 -4.560098797082901001e-02 2.525007128715515137e-01 5.962385330349206924e-03 1.222639065235853195e-02 2.970943599939346313e-02 6.843589246273040771e-02
2.637752704322338104e-02 3.753676265478134155e-02 1.174466907978057861e-01 1.764619201421737671e-01 7.817067950963973999e-02 6.364865601062774658e-02 4.622992500662803650e-02 9.538310021162033081e-02 7.201890647411346436e-02 -8.356704562902450562e-02 7.850592024624347687e-03 -1.265291497111320496e-02 1.271704584360122681e-01 2.834318578243255615e-02 8.323239535093307495e-02 3.199239447712898254e-02 3.216591179370880127e-01 1.165107265114784241e-01 1.489762216806411743e-02 -8.191043511033058167e-03 7.426398247480392456e-02 4.193558543920516968e-02 3.757816553115844727e-02 3.207679092884063721e-02 -8.685445785522460938e-02 1.164017766714096069e-01 -1.446635462343692780e-02 2.096254974603652954e-01 -2.214663848280906677e-02 6.949697434902191162e-02 6.945363432168960571e-02 -4.804534092545509338e-02
7.803298532962799072e-02 -3.786709532141685486e-02 3.118045441806316376e-02 1.290186792612075806e-01 -4.129849374294281006e-02 -6.733153015375137329e-02 8.705528080463409424e-02 1.102776080369949341e-01 -2.133072167634963989e-02 -4.420862719416618347e-02 -4.296300560235977173e-02 7.810181379318237305e-02 3.758549317717552185e-02 -4.444662481546401978e-03 2.723145997151732445e-03 7.379700988531112671e-02 2.982130944728851318e-01 1.487026065587997437e-01 2.661367505788803101e-02 -8.354498445987701416e-02 -1.362381689250469208e-02 -1.330481097102165222e-02 6.049188971519470215e-02 -2.199599146842956543e-02 -3.180408477783203125e-02 2.421533465385437012e-01 -7.669559121131896973e-02 1.207556501030921936e-01 4.765849933028221130e-02 3.468692302703857422e-02 9.421623498201370239e-02 8.305480331182479858e-02
-4.772878810763359070e-02 -2.920242398977279663e-02 3.483767062425613403e-02 8.984550950117409229e-04 7.324826717376708984e-02 3.410109318792819977e-03 2.043536491692066193e-02 1.080761924386024475e-01 3.876965120434761047e-02 -9.307507425546646118e-03 1.561212074011564255e-02 3.635580092668533325e-02 -6.228718906641006470e-02 -7.600151747465133667e-02 -6.066092848777770996e-02 1.414750814437866211e-01 1.816081106662750244e-01 2.509410260245203972e-03 2.211415767669677734e-02 -1.429695915430784225e-02 1.012114733457565308e-01 9.148703515529632568e-02 1.089767515659332275e-01 -1.112023182213306427e-02 -6.457670778036117554e-02 2.545022368431091309e-01 -5.242224410176277161e-02 2.057549059391021729e-01 -4.887858405709266663e-02 5.640029534697532654e-02 5.775333195924758911e-02 -6.283850222826004028e-02
2.232191711664199829e-01 3.106684423983097076e-03 7.109003607183694839e-03 1.315153092145919800e-01 2.131030149757862091e-02 3.269124031066894531e-02 -6.850694119930267334e-02 1.500152796506881714e-01 -4.158108681440353394e-02 -7.709417492151260376e-02 5.419261008501052856e-02 7.472781091928482056e-02 6.893685460090637207e-02 8.426813781261444092e-02 -3.139209747314453125e-02 -1.052241772413253784e-02 1.579091548919677734e-01 2.266461402177810669e-01 -4.179741069674491882e-02 -3.066463023424148560e-02 -1.415306795388460159e-02 -5.824541300535202026e-02 1.446559131145477295e-01 -5.096510052680969238e-02 8.339945226907730103e-02 1.183075383305549622e-01 -1.728899404406547546e-02 6.430979818105697632e-02 2.801718749105930328e-02 6.709346920251846313e-02 6.146924197673797607e-02 -6.990219652652740479e-02
2.243783175945281982e-01 -3.725670278072357178e-02 1.009937822818756104e-01 4.380916059017181396e-02 -3.505125641822814941e-02 5.080076307058334351e-02 -1.884024962782859802e-02 2.095803916454315186e-01 -6.397488713264465332e-02 1.188301388174295425e-02 5.573371797800064087e-02 -7.140937447547912598e-02 1.595229357481002808e-01 2.093621343374252319e-02 1.390568614006042480e-01 6.477956473827362061e-02 2.153532803058624268e-01 2.877218425273895264e-01 7.784693501889705658e-03 1.629470847547054291e-02 -6.000470370054244995e-02 8.299992978572845459e-02 9.911765903234481812e-02 -7.432104647159576416e-02 2.942153997719287872e-02 1.776690930128097534e-01 -5.671308934688568115e-02 1.206822767853736877e-01 -1.202268898487091064e-02 -3.477915748953819275e-02 -8.772145211696624756e-02 -2.964996360242366791e-02
1.692840456962585449e-01 -4.478887096047401428e-02 -8.513490669429302216e-03 1.672786474227905273e-01 -5.521686747670173645e-02 -1.560036744922399521e-02 -1.041139694279991090e-04 7.667694985866546631e-02 -5.008051544427871704e-02 -8.877538144588470459e-02 4.149636719375848770e-03 -2.439599484205245972e-02 2.827571518719196320e-02 3.285610303282737732e-02 1.526265740394592285e-01 1.074792630970478058e-02 3.089216649532318115e-01 2.650725841522216797e-01 1.681603491306304932e-02 -4.921732097864151001e-02 -4.185753688216209412e-02 -3.874222189188003540e-02 5.225981026887893677e-02 1.230387110263109207e-02 3.921509161591529846e-02 2.763182818889617920e-01 3.301548212766647339e-02 1.369483023881912231e-01 6.121005117893218994e-02 3.767035156488418579e-02 -2.515380643308162689e-02 -7.866492122411727905e-02
1.088494881987571716e-01 5.674580857157707214e-02 -2.214063331484794617e-02 9.172365814447402954e-02 -7.752855867147445679e-02 -7.777570933103561401e-02 1.237248303368687630e-03 1.003538370132446289e-01 -3.427764773368835449e-02 -4.619479179382324219e-02 6.617333739995956421e-02 -3.175979107618331909e-02 6.650020834058523178e-03 4.287436231970787048e-02 1.027856990694999695e-01 1.306780129671096802e-01 3.095434606075286865e-01 1.638112515211105347e-01 4.852471500635147095e-02 -1.879201643168926239e-02 -6.996703147888183594e-02 7.317029684782028198e-02 -1.667318865656852722e-02 -5.489231552928686142e-03 -3.490120917558670044e-02 2.571491599082946777e-01 6.913308054208755493e-02 1.779458522796630859e-01 9.052248299121856689e-02 -3.888716548681259155e-02 2.840529009699821472e-02 8.389215916395187378e-02
8.069066703319549561e-02 -5.673657637089490891e-03 1.389677375555038452e-01 -1.737994328141212463e-02 6.315478682518005371e-02 7.344331592321395874e-02 1.013293210417032242e-02 4.538969323039054871e-02 -2.093500271439552307e-02 1.694726571440696716e-02 -1.775693334639072418e-02 1.101455166935920715e-01 -7.096651941537857056e-02 1.585066877305507660e-02 -2.712730132043361664e-02 1.712533682584762573e-01 2.945650815963745117e-01 1.624047607183456421e-01 9.202880412340164185e-02 -4.145952314138412476e-02 -3.369883447885513306e-02 7.178881764411926270e-02 2.122960053384304047e-02 2.461114153265953064e-02 3.055507317185401917e-02 2.807800471782684326e-01 -1.717718690633773804e-02 1.388464123010635376e-01 -6.960760802030563354e-02 -7.323805987834930420e-02 4.890057444572448730e-02 -6.715695559978485107e-02
7.672046869993209839e-02 1.096589863300323486e-01 -5.136485025286674500e-02 3.568575531244277954e-02 -5.528034642338752747e-02 3.461952134966850281e-02 -6.973297148942947388e-02 2.240100502967834473e-02 -5.467169359326362610e-02 5.105993524193763733e-02 -6.739507615566253662e-02 7.228770852088928223e-02 1.421814560890197754e-01 -4.613525420427322388e-02 5.866855010390281677e-02 -4.262750968337059021e-02 3.659578040242195129e-02 2.226817011833190918e-01 -3.511064872145652771e-02 2.901059575378894806e-02 -6.807447224855422974e-02 6.347217410802841187e-02 -5.865402054041624069e-03 2.258275449275970459e-02 1.665890589356422424e-02 1.812704056501388550e-01 -6.402996927499771118e-02 7.901235669851303101e-02 -3.168040141463279724e-02 6.998709589242935181e-02 -7.820517569780349731e-02 7.227928936481475830e-02
1.611813902854919434e-01 5.366936326026916504e-02 5.888502299785614014e-02 -1.395588647574186325e-02 -4.354824125766754150e-02 -6.991057097911834717e-02 -1.996820792555809021e-02 1.497581154108047485e-01 1.447026268579065800e-03 -7.874112576246261597e-02 -6.922255456447601318e-02 5.452608689665794373e-02 1.523708999156951904e-01 -3.273566067218780518e-02 8.521038293838500977e-02 -6.563470512628555298e-02 7.365066558122634888e-02 2.882684171199798584e-01 -3.516777069307863712e-04 -2.878967858850955963e-02 3.635722771286964417e-02 6.222643423825502396e-05 1.220353990793228149e-01 -1.359193027019500732e-02 -8.861494064331054688e-02 9.602566063404083252e-02 -4.302148893475532532e-02 1.113083660602569580e-01 3.041214123368263245e-02 7.786332070827484131e-02 -5.539358779788017273e-02 -6.452945992350578308e-03
1.472958624362945557e-01 -7.969320565462112427e-02 4.307359829545021057e-02 7.533179223537445068e-02 7.527809590101242065e-02 -6.796687841415405273e-02 -4.570580273866653442e-02 8.697585016489028931e-02 -6.316520273685455322e-02 -9.548684954643249512e-02 4.426238883752375841e-04 7.434453070163726807e-02 5.120973661541938782e-02 -7.733223587274551392e-02 6.568149477243423462e-02 6.661185994744300842e-03 7.247569411993026733e-02 2.025617212057113647e-01 -4.922095686197280884e-02 1.053440421819686890e-01 -3.381714969873428345e-02 8.977858722209930420e-02 9.071987867355346680e-02 -3.947443887591362000e-02 -3.500637784600257874e-02 2.786608338356018066e-01 -1.173720695078372955e-02 -1.875607669353485107e-02 2.137876115739345551e-02 -4.095506295561790466e-02 -1.867598108947277069e-02 -3.288726136088371277e-02
8.071862161159515381e-02 1.509498804807662964e-02 1.919880323112010956e-02 -5.416083708405494690e-02 -6.653801351785659790e-02 2.918766345828771591e-03 -5.611341074109077454e-02 -9.845402091741561890e-03 1.886368729174137115e-02 -4.448280483484268188e-02 -6.258763372898101807e-02 9.043076634407043457e-02 -6.094506755471229553e-02 2.461015246808528900e-02 -4.762198403477668762e-02 1.343792080879211426e-01 1.771786957979202271e-01 1.917808353900909424e-01 -4.212851449847221375e-02 3.076717071235179901e-02 -4.511316865682601929e-02 1.273899525403976440e-01 -1.530326623469591141e-02 -6.218791007995605469e-02 -5.643230304121971130e-02 2.778290510177612305e-01 -8.868519216775894165e-02 4.754670709371566772e-02 -5.377542972564697266e-02 7.321988791227340698e-02 -4.555414989590644836e-02 1.899563893675804138e-02
9.860616922378540039e-02 -5.719793215394020081e-02 5.921718105673789978e-02 -7.037381082773208618e-02 4.028812050819396973e-02 -4.276720061898231506e-02 -5.661044642329216003e-02 3.959301859140396118e-02 -8.757199347019195557e-02 -1.309385639615356922e-03 5.212397873401641846e-02 6.541478633880615234e-02 -3.363919258117675781e-02 -4.981153458356857300e-02 6.579302996397018433e-02 5.097394436597824097e-02 2.078137844800949097e-01 4.238576442003250122e-02 -3.676896542310714722e-02 2.558852732181549072e-02 -1.282755564898252487e-02 -1.666899654082953930e-03 8.835142850875854492e-02 -7.749668508768081665e-02 6.966697424650192261e-02 1.375917792320251465e-01 4.318876191973686218e-02 -6.628849357366561890e-02 -5.951740965247154236e-02 5.911789089441299438e-02 -1.489030476659536362e-02 -3.110055997967720032e-02
