3.183462098240852356e-02 1.744449138641357422e-02 4.837953671813011169e-02 -3.623884171247482300e-02 -2.979546412825584412e-02 4.159546270966529846e-02 -1.853795722126960754e-02 2.180404588580131531e-02 3.575135394930839539e-02 4.990022629499435425e-02 2.943619340658187866e-02 -3.321427851915359497e-02 -4.408682510256767273e-02 -3.213659860193729401e-03 -1.460787281394004822e-02 -2.180608920753002167e-02 -3.093344345688819885e-02 1.410131156444549561e-02 -1.536686532199382782e-02 -4.184900317341089249e-03 -6.203933153301477432e-04 3.456748649477958679e-02 3.800787031650543213e-02 2.484117262065410614e-02 -3.907425701618194580e-02 3.105400875210762024e-02 2.439795620739459991e-02 3.906551748514175415e-02 -9.210196323692798615e-03 4.861520603299140930e-02 4.695694893598556519e-02 -1.220773439854383469e-02 3.067939542233943939e-02 1.343543920665979385e-02 -1.282988395541906357e-02 -1.374586485326290131e-02 4.242407530546188354e-02 2.727103978395462036e-02 -2.496277540922164917e-02 -4.544667527079582214e-02 4.996388033032417297e-02 2.937706559896469116e-02 1.466991100460290909e-02 -3.102861717343330383e-02 1.431265100836753845e-02 1.561340410262346268e-02 -8.745457045733928680e-03 -2.719912491738796234e-02 1.191378757357597351e-02 3.034589812159538269e-02 1.288428530097007751e-02 -3.071313537657260895e-02 7.236840203404426575e-03 -2.887880988419055939e-02 3.060475923120975494e-02 -2.861647307872772217e-02 1.039284747093915939e-02 2.772388688754290342e-04 -3.885009512305259705e-02 3.369172662496566772e-02 -3.630170971155166626e-02 3.073848970234394073e-02 -4.041106253862380981e-02 2.867501229047775269e-02 2.065493725240230560e-02 2.409273386001586914e-02 -2.810424193739891052e-02 -1.185340806841850281e-02 -4.243319481611251831e-02 -1.676202192902565002e-02 3.389003872871398926e-02 3.301998972892761230e-02 -1.342995371669530869e-02 -1.321166940033435822e-02 -3.821799531579017639e-02 -3.758716955780982971e-02 1.245728787034749985e-02 -4.872075095772743225e-02 -1.943608932197093964e-02 -8.633540011942386627e-03 -2.840399742126464844e-02 -4.992707446217536926e-02 -2.706613577902317047e-02 -2.792246267199516296e-02 1.574158482253551483e-02 -1.357795577496290207e-02 4.547024145722389221e-02 1.584618166089057922e-02 -3.538879007101058960e-02 -1.440299395471811295e-02 2.204656600952148438e-03 -3.010310418903827667e-02 2.211484871804714203e-02 -3.456586226820945740e-02 4.102283343672752380e-02 -1.500450354069471359e-02 7.437215652316808701e-03 -4.307884350419044495e-02 4.047243855893611908e-03 1.019593700766563416e-02 -3.214317932724952698e-02 1.209347415715456009e-02 1.129354233853518963e-03 7.296052295714616776e-03 -2.552088908851146698e-02 -6.222325842827558517e-03 1.418911386281251907e-02 -3.403749316930770874e-03 2.340674586594104767e-02 -1.593074761331081390e-02 -3.469002246856689453e-02 -2.956293895840644836e-02 3.503593429923057556e-02 6.954174023121595383e-03 -3.770589083433151245e-02 1.213379204273223877e-02 -3.404115512967109680e-02 -8.822920732200145721e-03 -1.463610865175724030e-02 -3.388541936874389648e-02 1.362220942974090576e-02 -4.648949205875396729e-02 -3.586705401539802551e-02 1.806299667805433273e-03 -2.466006018221378326e-02 -3.761129826307296753e-02 4.004796221852302551e-02 2.589602582156658173e-02 1.528333965688943863e-02 -2.668217755854129791e-02 4.033732041716575623e-02 3.247416391968727112e-02 4.222544655203819275e-02 -4.815719276666641235e-02 3.898886591196060181e-02 -6.450754590332508087e-03 -4.862824082374572754e-02 -4.773503541946411133e-02 -2.757093124091625214e-02 3.338541463017463684e-02 4.967663064599037170e-02 -3.590844338759779930e-03 -2.488251030445098877e-02 9.480566950514912605e-04 -4.478179663419723511e-02 -4.229526966810226440e-02 -2.487279288470745087e-02 -2.600234933197498322e-02 2.178375609219074249e-02 3.144810721278190613e-02 -2.693428099155426025e-02 -3.881647810339927673e-02 3.320503979921340942e-02 -3.128862380981445312e-02 -1.025424804538488388e-02 6.629448849707841873e-03 1.208407804369926453e-02 1.561764534562826157e-02 4.036202561110258102e-03 2.484423480927944183e-02 -3.254074975848197937e-02 -4.307220876216888428e-02 -4.215809330344200134e-02 3.650946915149688721e-02 -2.674065344035625458e-02 3.834928572177886963e-02 -3.856305405497550964e-02 2.575560286641120911e-02 -1.265932992100715637e-02 8.362828521057963371e-04 -1.033651176840066910e-02 4.967200011014938354e-02 7.971309125423431396e-03 9.943374432623386383e-03 -2.353386580944061279e-02 -3.061183728277683258e-02 4.063333198428153992e-02 -3.994004800915718079e-02 -2.116437070071697235e-02 -1.403905265033245087e-02 1.263859402388334274e-02 -4.561104997992515564e-02 1.594699174165725708e-02 -2.182194404304027557e-02 -2.956654131412506104e-02 4.867323860526084900e-02 -2.972671389579772949e-02 4.567567631602287292e-02 -1.716736331582069397e-02 -1.361537817865610123e-02 -2.362575195729732513e-02 -1.246987376362085342e-02 1.499810814857482910e-02 -6.886937189847230911e-03 -2.299667894840240479e-02 -3.176461160182952881e-02 -1.083870418369770050e-02 3.422477841377258301e-02 1.055554114282131195e-02 -2.886462770402431488e-02 2.862248010933399200e-02 9.450639598071575165e-03 8.083634078502655029e-03 4.915288835763931274e-02 4.144541546702384949e-02 -2.658760733902454376e-02 4.214647784829139709e-02 -1.270710583776235580e-02 1.286991033703088760e-02 -1.043312530964612961e-02 4.040404409170150757e-02 2.390608191490173340e-03 -2.786079794168472290e-02 3.021266497671604156e-02 1.916249655187129974e-02 -1.228896342217922211e-02 3.984019532799720764e-02 4.581226035952568054e-02 1.908369734883308411e-02 -3.961588442325592041e-02 1.967794727534055710e-03 -4.043024405837059021e-02 -2.193433605134487152e-02 2.420742809772491455e-02 -3.900692984461784363e-02 -3.900749608874320984e-02 1.961789093911647797e-02 -3.569020330905914307e-02 2.249311655759811401e-02 -3.569740429520606995e-02 -2.703762426972389221e-02 4.967628419399261475e-02 3.770258650183677673e-02 -7.198804523795843124e-03 -1.170425396412611008e-02 5.776990205049514771e-03 3.638325957581400871e-03 3.047800436615943909e-02 3.382665663957595825e-02 4.748918861150741577e-02 2.742138132452964783e-02 1.203819550573825836e-02 -1.678720116615295410e-02 -4.394723847508430481e-02 -4.159234929829835892e-03 2.065008319914340973e-02 -3.575817123055458069e-02 7.892698980867862701e-03 -1.069153100252151489e-02 -4.548502713441848755e-02 3.495951741933822632e-02 3.590499609708786011e-02 -1.359276194125413895e-02 6.247577723115682602e-03 -3.324798122048377991e-02 1.260665338486433029e-02 -4.263123869895935059e-02 2.602007053792476654e-02 4.043608903884887695e-02 4.545926302671432495e-02 -4.216624796390533447e-02 6.924458313733339310e-03 -2.729275636374950409e-02 -1.339812763035297394e-02 -2.040451020002365112e-02 5.598528776317834854e-03 4.640427976846694946e-02 -2.669459581375122070e-02 -1.581338606774806976e-02 3.572999313473701477e-02 2.105784788727760315e-02 -4.022188484668731689e-02 -3.466699644923210144e-02 -3.319033980369567871e-02 -3.811804950237274170e-02 -1.201377063989639282e-02 1.110207755118608475e-02 -7.944075390696525574e-03 2.814360894262790680e-02 3.645835444331169128e-02 -2.046416327357292175e-02 4.470493644475936890e-02 -3.725545480847358704e-02 3.629270568490028381e-02 4.957058280706405640e-02 -3.847282752394676208e-02 4.790598526597023010e-02 1.005855016410350800e-02 4.923646524548530579e-02 -3.481835126876831055e-02 3.534081578254699707e-02 -5.712345242500305176e-03 -1.988486945629119873e-02 4.996187239885330200e-02 9.738035500049591064e-03 -3.405518829822540283e-02 -8.510723710060119629e-03 2.328944392502307892e-02 4.867994040250778198e-02 -2.947816438972949982e-02 -1.421341858804225922e-02 7.064860779792070389e-03 1.651676185429096222e-02 -4.460255801677703857e-02 3.983949497342109680e-02 1.422890461981296539e-03 -2.539924345910549164e-02 -2.657979167997837067e-02 2.376061677932739258e-02 1.888232119381427765e-02 3.554015979170799255e-02 2.715379558503627777e-02 -1.965924166142940521e-02 -2.707300707697868347e-02 -2.625474520027637482e-02 3.782324120402336121e-02 -3.890529647469520569e-02 2.100010961294174194e-02 5.482200649566948414e-04 -1.834692619740962982e-02 -7.961386814713478088e-03 -3.576352819800376892e-02 4.364333301782608032e-02 -3.528955578804016113e-02 1.818466745316982269e-02 2.823957800865173340e-02 -4.382149875164031982e-02 -2.333639189600944519e-02 3.423808887600898743e-02 -2.140019461512565613e-02 -1.937278546392917633e-03 -4.307517409324645996e-02 4.377489909529685974e-02 3.969091176986694336e-02 1.386190950870513916e-02 -2.847699634730815887e-02 1.706573180854320526e-03 2.645683847367763519e-02 4.902426153421401978e-02 4.951681196689605713e-02 -3.568717837333679199e-02 -1.074633211828768253e-03 7.468602154403924942e-03 3.400915861129760742e-02 1.865429803729057312e-02 1.278167311102151871e-02 -6.906789727509021759e-03 -3.105477243661880493e-02 3.586608171463012695e-02 -8.629444986581802368e-03 -4.664658382534980774e-02 1.190701685845851898e-02 2.585368230938911438e-02 -3.905703127384185791e-02 9.070877917110919952e-03 -8.066568989306688309e-04 -4.968060553073883057e-02 2.874055504798889160e-02 -3.443849831819534302e-02 4.006094112992286682e-02 -6.595283746719360352e-03 -3.645475581288337708e-02 -4.429890587925910950e-02 3.740944340825080872e-02 -2.391586638987064362e-02 -2.324792742729187012e-02 -1.530801644548773766e-03 -3.663965314626693726e-02 3.631387278437614441e-02 1.014041807502508163e-02 -3.119165636599063873e-02 -3.365977481007575989e-02 3.551093861460685730e-02 4.007029160857200623e-02 -4.739701375365257263e-02 -1.077381614595651627e-02 -1.376182585954666138e-02 -1.732886210083961487e-02 3.577777743339538574e-02 4.935346916317939758e-02 4.652639478445053101e-02 1.924956589937210083e-02 -2.056487649679183960e-02 -1.635046862065792084e-02 -3.948525339365005493e-02 -1.729010418057441711e-02 1.840129494667053223e-02 -9.740233421325683594e-03 4.219584167003631592e-02 1.429429277777671814e-02 2.550285682082176208e-02 8.402185514569282532e-03 -6.681172177195549011e-03 -4.876782745122909546e-02 2.553157694637775421e-02 -4.504454135894775391e-02 4.466553684324026108e-03 1.720994152128696442e-02 -3.554584830999374390e-02 4.830344393849372864e-02 9.874896146357059479e-03 -3.465727344155311584e-02 -4.251032322645187378e-02 4.391615465283393860e-02 4.742111638188362122e-02 2.795821614563465118e-02 -1.178576704114675522e-02 -4.163309931755065918e-02 -4.846366867423057556e-02 -3.953078016638755798e-02 -7.432010024785995483e-03 3.431667387485504150e-02 1.046079769730567932e-02 -2.219322510063648224e-02 3.628594055771827698e-02 -2.928980998694896698e-02 -1.520218234509229660e-02 6.786233861930668354e-04 3.224104642868041992e-02 1.304667908698320389e-02 1.865046843886375427e-02 1.205631718039512634e-02 4.451060667634010315e-02 -4.713546857237815857e-02 4.404687136411666870e-02 -8.132035844027996063e-03 -1.856495253741741180e-02 2.879083901643753052e-02 -2.526082471013069153e-02 2.199693582952022552e-02 3.651519864797592163e-02 1.069775596261024475e-02 -3.812478482723236084e-02 -4.569431766867637634e-03 1.575188478454947472e-03 2.177094481885433197e-02 2.326934970915317535e-02 7.746475748717784882e-03 2.508953027427196503e-02 -4.703683406114578247e-02 5.892467219382524490e-03 -2.345305122435092926e-02 2.093294821679592133e-02 -1.401850208640098572e-02 -2.781737409532070160e-02 -1.330480631440877914e-02 -3.092756308615207672e-02 1.957689784467220306e-02 1.987078785896301270e-02 1.159041374921798706e-02 -2.574189938604831696e-02 -1.410553790628910065e-02 -3.959964215755462646e-02 3.096667490899562836e-02 8.966044522821903229e-03 -2.570110000669956207e-02 2.098723500967025757e-02 4.041102528572082520e-02 1.441506855189800262e-02 -3.657886385917663574e-02 -1.150576956570148468e-02 -3.607232496142387390e-02 -3.505015373229980469e-02 -3.033249825239181519e-02 1.295261364430189133e-02 -2.242922782897949219e-02 2.480311505496501923e-02 2.624743804335594177e-02 3.113429807126522064e-02 -2.567411959171295166e-02 -3.189239650964736938e-02 -2.970004267990589142e-02 -4.500273615121841431e-03 4.199460148811340332e-02 4.275474697351455688e-02 1.231951871886849403e-03 4.319503903388977051e-02 -1.588392071425914764e-02 1.600936055183410645e-02 3.064864128828048706e-02 -2.669872157275676727e-02 -7.783644832670688629e-03 4.638244397938251495e-03 -9.674969478510320187e-04 -1.270048692822456360e-02 1.467004977166652679e-02 2.877164445817470551e-02 1.574253663420677185e-02 2.250472828745841980e-02 4.647505655884742737e-02 4.718221258372068405e-03 3.592934086918830872e-02 -2.685130387544631958e-02 -4.395070672035217285e-02 -4.974237084388732910e-02 -3.229500725865364075e-02 -1.878877356648445129e-02 4.169147089123725891e-02 3.726179152727127075e-02 -5.512148607522249222e-03 -4.532217234373092651e-02 -3.092438168823719025e-02 1.331949327141046524e-02 3.953706845641136169e-02 -5.463732872158288956e-03 -4.829307273030281067e-02 1.969523960724473000e-03 -4.845424741506576538e-02 2.204774878919124603e-02 2.881049178540706635e-02 3.926187753677368164e-02 -2.179508842527866364e-02 4.384630173444747925e-02 4.046132415533065796e-02 6.398005876690149307e-03 4.901685193181037903e-02 -8.812057785689830780e-03 2.304715849459171295e-02 -1.590292528271675110e-02 -2.367546223104000092e-02 -2.494033798575401306e-02 2.698176540434360504e-02 -2.574209310114383698e-02 -1.324756816029548645e-02 -2.072551473975181580e-02 -1.976386830210685730e-02 4.926458746194839478e-02 3.037860733456909657e-04 4.823126643896102905e-02 -4.648518189787864685e-02 -2.073360607028007507e-02 5.731118377298116684e-03 4.804048314690589905e-02 -2.299922285601496696e-03 3.406693413853645325e-02 9.187611751258373260e-03 -4.541775584220886230e-02 -4.768755659461021423e-02 -4.609705135226249695e-02 -1.603720895946025848e-02 -3.443777933716773987e-02 4.839733988046646118e-02 -4.810915794223546982e-03 -2.262410242110490799e-03 7.096913177520036697e-03 2.522345073521137238e-02 6.498134229332208633e-03 -4.522536322474479675e-02 2.133339457213878632e-02 1.028005592525005341e-02 -3.542136400938034058e-02 -1.115313731133937836e-02 -6.712520495057106018e-03 1.063721068203449249e-02 3.938155248761177063e-02 4.104865714907646179e-03 -1.394986733794212341e-02 1.217872276902198792e-02 8.778781630098819733e-03 2.113661915063858032e-02 -1.155450660735368729e-02 2.747224457561969757e-02 2.606181427836418152e-02 -3.016932122409343719e-02 -4.512299597263336182e-02 -4.298072308301925659e-02 -6.224378012120723724e-03 2.741510421037673950e-02 1.840189471840858459e-02 2.335090935230255127e-02 -4.015696048736572266e-02 -2.656848356127738953e-02 3.783714026212692261e-02 -4.369569197297096252e-02 -3.517861664295196533e-02 1.350365951657295227e-02 -3.631456568837165833e-02 -3.197556734085083008e-02 -3.758624941110610962e-02 1.737790927290916443e-02 -4.051705449819564819e-02 9.962356649339199066e-03 -9.700600989162921906e-03 -3.417183086276054382e-02 -1.951188407838344574e-02 4.991824924945831299e-02 -4.077424108982086182e-02 -2.608734555542469025e-02 -3.616252541542053223e-02 1.950287632644176483e-02 -1.445603650063276291e-02 2.764723449945449829e-02 4.611329734325408936e-02 1.374133955687284470e-02 -2.342507988214492798e-02 5.996315740048885345e-04 3.002294152975082397e-02 3.040454350411891937e-02 3.808135911822319031e-02 2.686830237507820129e-02 4.884187504649162292e-02 2.721989154815673828e-02 -3.556403145194053650e-02 -4.684608429670333862e-02 -4.421277437359094620e-03 -2.327463356778025627e-03 -3.639167919754981995e-02 4.341111704707145691e-02 9.726695716381072998e-03 1.661471836268901825e-02 2.270136214792728424e-02 -1.282970886677503586e-02 -3.831973671913146973e-02 -1.568606868386268616e-02 1.068975869566202164e-02 -2.319920808076858521e-02 4.699414968490600586e-02 -1.823824597522616386e-03 -3.269848600029945374e-02 4.152594879269599915e-02 -4.788003861904144287e-02 -4.266189411282539368e-02 2.173947542905807495e-02 -3.334200009703636169e-02 -2.496188320219516754e-02 3.912199661135673523e-02 -8.820217917673289776e-04 4.290378466248512268e-02 -3.417596220970153809e-02 3.393441438674926758e-02 -1.695929095149040222e-02 4.720831755548715591e-03 1.253724214620888233e-03 -2.638808917254209518e-03 -2.283676061779260635e-03 4.294046014547348022e-02 2.824998088181018829e-02 -3.892416507005691528e-02 -1.725327223539352417e-03 4.664283618330955505e-02 -4.579693995765410364e-05 -3.152678906917572021e-02 3.640776127576828003e-02 4.753298684954643250e-02 1.990991458296775818e-02 8.628607611171901226e-04 4.639915376901626587e-02 3.447324410080909729e-02 5.245265550911426544e-03 -3.910879045724868774e-02 4.308646544814109802e-02 -1.816103816963732243e-03 -2.995836175978183746e-02 -1.071926672011613846e-02 -1.562798768281936646e-02 -2.651089616119861603e-02 -2.564372494816780090e-03 1.858907192945480347e-02 -4.717626050114631653e-02 1.545815845020115376e-03 -1.081733964383602142e-03 -2.966071106493473053e-02 -7.254533004015684128e-03 3.379041701555252075e-02 -2.450755052268505096e-02 -7.340712472796440125e-03 -1.716216467320919037e-02 3.905890882015228271e-02 3.437928482890129089e-02 -4.948711022734642029e-02 2.940029837191104889e-02 -3.452770784497261047e-02 1.271572057157754898e-02 -2.454008534550666809e-02 1.348051894456148148e-02 -2.040329203009605408e-02 4.121058434247970581e-02 1.908332854509353638e-02 2.285313606262207031e-02 8.886669762432575226e-03 2.449884451925754547e-02 3.744189441204071045e-02 -1.667343266308307648e-02 -1.590813323855400085e-02 -3.226609900593757629e-02 -1.994315162301063538e-02 4.888246208429336548e-02 -4.633662104606628418e-02 -1.319269929081201553e-02 -3.816825151443481445e-02 1.519707869738340378e-02 -1.987662352621555328e-02 -1.644322299398481846e-03 -2.912526391446590424e-02 3.244747873395681381e-03 -5.362356081604957581e-03 -1.844183541834354401e-02 -2.838563732802867889e-02 3.147937357425689697e-03 -4.149353876709938049e-02 4.246076568961143494e-02 -4.796098917722702026e-03 1.087260060012340546e-02 -3.568342328071594238e-02 1.570479758083820343e-02 -1.899027451872825623e-02 4.611018300056457520e-02 -4.528761655092239380e-02 -4.940298944711685181e-02 -4.784273356199264526e-02 5.972734186798334122e-03 2.720423974096775055e-02 3.075922839343547821e-02 -3.692669421434402466e-02 -1.364286988973617554e-02 4.366604611277580261e-02 -3.378084674477577209e-02 8.737344294786453247e-03 -4.562516137957572937e-02 -2.676666900515556335e-02 2.373504079878330231e-02 -1.166514120995998383e-02 4.594927653670310974e-02 -2.856088057160377502e-02 4.473287239670753479e-02 -2.875090949237346649e-02 2.787773124873638153e-02 -2.369262976571917534e-03 -1.918168738484382629e-02 4.908512160181999207e-02 -3.079095482826232910e-02 4.354182258248329163e-02 -4.368658736348152161e-02 7.343740668147802353e-03 -2.676261961460113525e-02 1.982825249433517456e-02 2.579241804778575897e-02 2.969677373766899109e-02 4.241961240768432617e-02 -4.119542986154556274e-02 -4.757662117481231689e-02 4.347256850451231003e-03 2.363404631614685059e-02 -4.581729415804147720e-03 2.055301889777183533e-02 1.612641476094722748e-02 1.418436225503683090e-02 -2.272884361445903778e-02 2.755311131477355957e-02 4.224747791886329651e-02 3.253126516938209534e-02 3.742203861474990845e-02 -2.582586184144020081e-02 -2.122465148568153381e-02 -3.008032031357288361e-02 1.386416237801313400e-02 -6.616143044084310532e-03 1.940124109387397766e-02 -1.324094831943511963e-02 -6.914749741554260254e-03 -3.221595287322998047e-02 2.764312736690044403e-02 2.949472889304161072e-02 2.108268812298774719e-02 1.684701070189476013e-02 -2.264105156064033508e-02 1.543388701975345612e-02 -4.280779510736465454e-02 4.088336601853370667e-02 3.052668645977973938e-02 3.816083818674087524e-02 2.115496993064880371e-02 -2.386022172868251801e-02 4.243757203221321106e-02 -4.046858847141265869e-02 3.853320702910423279e-02 -2.503755502402782440e-02 1.297646388411521912e-02 -3.477193787693977356e-02 1.692535728216171265e-02 3.886996954679489136e-02 3.981897607445716858e-02 1.228565443307161331e-02 -4.762798920273780823e-02 -4.910173267126083374e-02 3.621122986078262329e-02 -1.388190034776926041e-02 -1.226145960390567780e-02 2.846353687345981598e-02 -3.990238159894943237e-02 4.693757370114326477e-02 9.085527621209621429e-03 3.407135978341102600e-02 -2.614004723727703094e-02 -4.257475584745407104e-02 -3.987018391489982605e-02 4.839625954627990723e-02 3.342733532190322876e-02 3.025982715189456940e-02 -1.871353201568126678e-02 -3.415329381823539734e-02 -2.258284948766231537e-02 3.037200868129730225e-02 2.460262924432754517e-02 4.745692014694213867e-02 2.032622881233692169e-02 1.707522943615913391e-02 -3.052515350282192230e-02 1.656003110110759735e-02 -3.101205639541149139e-02 -9.044335223734378815e-03 -2.650335058569908142e-02 -4.763584211468696594e-02 -3.387238830327987671e-02 -1.039247680455446243e-02 3.717846795916557312e-02 -1.571694621816277504e-03 3.529894351959228516e-02 3.691587969660758972e-02 9.797429665923118591e-03 -2.830360271036624908e-02 -8.011995232664048672e-04 7.281993515789508820e-03 3.594363853335380554e-02 -1.355442218482494354e-02 2.275750972330570221e-02 -3.869890933856368065e-03 3.252936899662017822e-02 4.874186217784881592e-02 2.489973232150077820e-02 4.248834028840065002e-02 2.352643199265003204e-02 4.483828321099281311e-02 8.429200388491153717e-03 -4.953111335635185242e-02 -2.243567258119583130e-02 -3.385570645332336426e-02 -1.852240646257996559e-03 1.065937150269746780e-02 1.209388021379709244e-02 -4.993252456188201904e-02 -2.237428165972232819e-02 4.338563885539770126e-03 4.157937318086624146e-02 -3.784269466996192932e-02 4.496188834309577942e-02 -8.449891582131385803e-03 1.729991100728511810e-02 4.652876034379005432e-02 3.256899118423461914e-02 -2.067336346954107285e-03 4.392034932971000671e-02 -3.554239124059677124e-02 2.074330486357212067e-02 -2.497775014489889145e-03 1.337512861937284470e-02 -4.016589745879173279e-02 2.950110286474227905e-02 4.285261966288089752e-03 2.866573818027973175e-02 7.071984931826591492e-03 -1.233690045773983002e-02 -1.188671682029962540e-02 4.212884232401847839e-02 3.622903674840927124e-02 2.830479666590690613e-02 6.630882620811462402e-03 1.869309134781360626e-02 4.903596825897693634e-03 3.862516582012176514e-02 5.406059790402650833e-04 2.426834404468536377e-02 -5.886348430067300797e-03 1.967991702258586884e-02 4.376009106636047363e-03 -3.756661340594291687e-02 1.572413835674524307e-03 2.014886215329170227e-02 -2.820953354239463806e-02 -2.477456443011760712e-02 -3.328330069780349731e-02 -2.444626949727535248e-02 -1.392369531095027924e-02 -1.763799786567687988e-02 -2.863759174942970276e-02 -3.404168412089347839e-02 -3.395134210586547852e-02 -4.761342331767082214e-02 4.051065072417259216e-02 5.411102320067584515e-04 -3.007481573149561882e-03 2.289886353537440300e-03 -2.675447845831513405e-03 1.344626303762197495e-02 -2.803032845258712769e-02 4.285901784896850586e-02 -4.615278914570808411e-02 -2.183589711785316467e-02 -3.748456016182899475e-02 -4.742383584380149841e-02 2.340317517518997192e-02 -9.264472872018814087e-03 1.040432322770357132e-02 1.966366544365882874e-03 4.160128161311149597e-02 -2.253535389900207520e-02 -4.637395590543746948e-02 -1.963301934301853180e-02 -3.320790454745292664e-02 4.147652164101600647e-02 -1.810386218130588531e-02 -4.486944898962974548e-02 2.644214592874050140e-02 8.640545420348644257e-03 -2.878637984395027161e-02 -7.520480081439018250e-03 9.750230237841606140e-03 2.102945186197757721e-02 -1.265135966241359711e-02 -3.508817777037620544e-02 -3.464858606457710266e-02 2.252139337360858917e-02 4.834123328328132629e-02 -2.542493119835853577e-02 4.201383888721466064e-02 4.692894220352172852e-02 2.990446053445339203e-02 -1.912209764122962952e-02 -1.214760448783636093e-02 -3.700438886880874634e-02 -3.754920512437820435e-02 -5.334510933607816696e-03 -7.971720770001411438e-03 4.274988546967506409e-02 -3.289589285850524902e-02 -1.395659707486629486e-02 1.748442067764699459e-03 2.000923035666346550e-03 4.700621962547302246e-02 -9.315696544945240021e-03 -1.496490463614463806e-02 -4.790861532092094421e-02 -2.617136761546134949e-02 -3.932522237300872803e-02 4.761262238025665283e-02 -2.886736299842596054e-03 2.199769951403141022e-02 4.942413792014122009e-02 -4.644665122032165527e-02 -1.443702634423971176e-02 2.980680577456951141e-02 -3.936828300356864929e-02 -3.815180063247680664e-02 -2.071372233331203461e-02 -3.098414745181798935e-03 2.436032332479953766e-02 -5.533594638109207153e-03 -2.302609756588935852e-02 -4.502943716943264008e-03 -2.902320399880409241e-02 -3.662971407175064087e-02 -3.480954095721244812e-03 -3.702076151967048645e-02 2.147786132991313934e-02 3.380407392978668213e-02 -4.305097460746765137e-02 1.057025883346796036e-02 -1.355887390673160553e-02 3.522245958447456360e-02 3.353205695748329163e-02 -4.127714037895202637e-02 1.323363278061151505e-02 4.620976746082305908e-02 -3.241651132702827454e-02 -2.081048302352428436e-02 -4.341766610741615295e-02 3.017238341271877289e-02 -2.219969406723976135e-02 4.471440240740776062e-02 2.598150633275508881e-03 -4.350931197404861450e-02 -1.811569236451759934e-04 6.735594943165779114e-03 7.626404985785484314e-03 2.802019380033016205e-02 -2.825288474559783936e-02 3.037845529615879059e-02 -4.519984498620033264e-02 2.601788751780986786e-02 -4.096828401088714600e-02 -2.436050586402416229e-02 4.567037522792816162e-02 1.312770880758762360e-02 3.696451708674430847e-02 2.495069056749343872e-02 -3.523447364568710327e-02 -1.920463144779205322e-02 -3.855122253298759460e-02 -3.579059988260269165e-02 2.970521152019500732e-02 -2.100136689841747284e-02 -1.995327323675155640e-02 -4.202700778841972351e-02 -2.706305822357535362e-03 1.823400519788265228e-02 -6.942321546375751495e-03 -2.132910303771495819e-02 -3.240992501378059387e-02 4.751636460423469543e-02 -3.419818729162216187e-02 -3.789953142404556274e-02 -4.020918905735015869e-02 -1.160949468612670898e-02 -1.497873221524059772e-03 -3.847145289182662964e-02 1.300981547683477402e-02 -1.419640704989433289e-02 -1.433194335550069809e-02 1.331143267452716827e-02 2.188919484615325928e-02 4.724380001425743103e-02 2.195526659488677979e-02 -1.715001650154590607e-02 3.644299879670143127e-02 -2.176809310913085938e-02 -9.410075843334197998e-03 -3.660579770803451538e-02 -2.678189240396022797e-02 1.928266324102878571e-02 -6.984920240938663483e-03 2.069302275776863098e-02 8.237524889409542084e-04 -3.266367316246032715e-02 1.883727125823497772e-02 -1.511302543804049492e-03 -4.718660190701484680e-02 -4.201439023017883301e-02 -1.445609144866466522e-03 -4.890404175966978073e-03 4.135625809431076050e-02 -3.097422607243061066e-02 -1.166170835494995117e-02 -1.409829128533601761e-02 4.149254783987998962e-02 -4.740295931696891785e-02 -1.583681441843509674e-02 -8.570414967834949493e-03 4.837771877646446228e-02 -2.975539676845073700e-02 -3.615650907158851624e-02 2.191026881337165833e-02 6.054223980754613876e-03 -3.437167778611183167e-02 1.808964461088180542e-02 4.464275762438774109e-02 2.685786224901676178e-02 -6.142206024378538132e-03 2.087103389203548431e-02 -1.024816837161779404e-02 3.466447442770004272e-02 -2.416411973536014557e-02 -4.325947910547256470e-02 2.392187900841236115e-02 4.126194491982460022e-02 -4.973048809915781021e-03 1.749779842793941498e-02 -1.991070620715618134e-02 -3.919773921370506287e-02 4.325387999415397644e-02 -4.402381926774978638e-02 7.628937251865863800e-03 4.692529514431953430e-02 1.410816330462694168e-02 -2.072524838149547577e-02 -4.308682307600975037e-02 4.489709809422492981e-02 -3.145283088088035583e-02 -2.092235162854194641e-02 3.741040453314781189e-02 3.274577483534812927e-02 2.732138335704803467e-02 -7.153557147830724716e-03 4.748498648405075073e-02 -1.726600900292396545e-02 -1.612932235002517700e-02 -2.695144526660442352e-02 2.436890825629234314e-02 4.289015196263790131e-03 4.089336469769477844e-02 -2.775254100561141968e-02 4.493026807904243469e-02 2.651391737163066864e-02 -2.504853531718254089e-02 -3.306067362427711487e-02 -4.538175836205482483e-02 8.555397391319274902e-03 4.505314305424690247e-02 4.539706930518150330e-02 4.346368834376335144e-03 -9.091354906558990479e-03 -3.587136417627334595e-02 -4.285438358783721924e-02 -1.174495089799165726e-02 3.701544553041458130e-02 2.270791679620742798e-02 1.141752023249864578e-02 1.043055579066276550e-02 2.629289403557777405e-02 3.433859441429376602e-03 -2.243011072278022766e-02 3.939320519566535950e-02 -2.423138357698917389e-02 -1.060351636260747910e-02 1.694252155721187592e-02 -8.006654679775238037e-03 3.860511258244514465e-02 1.866233721375465393e-02 4.797287285327911377e-02 2.901331055909395218e-03 4.348302632570266724e-02 -1.336746383458375931e-02 -1.838082820177078247e-02 1.562681607902050018e-02 3.595284372568130493e-02 -9.763763286173343658e-03 -4.259172454476356506e-02 -3.373694419860839844e-02 -3.894905326887965202e-03 3.584030643105506897e-02 -1.916322857141494751e-02 -3.296392783522605896e-02 -6.380969192832708359e-03 -1.340817753225564957e-02 -1.270385738462209702e-02 1.710011251270771027e-02 -8.160312660038471222e-03 4.039957746863365173e-02 2.574049122631549835e-02 1.234476920217275620e-03 -2.997650532051920891e-03 -2.581967413425445557e-02 4.785129427909851074e-02 -7.648403756320476532e-03 6.769224070012569427e-03 -5.453153513371944427e-03 -2.020496875047683716e-02 -1.043003145605325699e-02 2.826217375695705414e-02 -2.745072729885578156e-02 4.626333713531494141e-02 -1.099030766636133194e-02 1.701851934194564819e-02 -3.334886580705642700e-02 -4.063521511852741241e-03 1.477073412388563156e-02 2.981380932033061981e-02 1.505987625569105148e-02 3.620019927620887756e-02 -1.792294904589653015e-02 -3.364736586809158325e-02 1.102503109723329544e-02 2.426821365952491760e-02 4.701697267591953278e-03 2.904949337244033813e-02 -4.905818961560726166e-03 4.538843780755996704e-02 1.873912476003170013e-02 -4.358076676726341248e-02 -1.678192988038063049e-02 4.081296175718307495e-02 -2.408348768949508667e-02 4.062839597463607788e-02 3.800741583108901978e-02 3.117801062762737274e-02 4.698470979928970337e-02 -3.332664817571640015e-02 -3.622137010097503662e-02 -1.351488661020994186e-02 2.188503742218017578e-03 1.332352496683597565e-02 -6.232737563550472260e-03 5.557840224355459213e-03 -4.052572697401046753e-02 -3.572229994460940361e-03 2.325374633073806763e-02 2.704916149377822876e-02 4.564449191093444824e-02 -3.430050984025001526e-02 -1.491227932274341583e-02 -2.944606170058250427e-02 -2.356040477752685547e-02 -4.567548632621765137e-02 2.040070109069347382e-02 -1.077236328274011612e-02 -2.291384339332580566e-02 1.373729947954416275e-02 -4.565815627574920654e-02 1.418758183717727661e-02 2.662492915987968445e-02 2.928101457655429840e-02 3.838259726762771606e-02 -2.401596400886774063e-03 -7.463798858225345612e-03 -1.428608875721693039e-02 -1.013760734349489212e-02 2.202007547020912170e-02 4.393694922327995300e-02 1.470206119120121002e-02 -1.651854290685150772e-05 -3.309489786624908447e-02 -8.213678374886512756e-03 2.014619484543800354e-02 3.457986563444137573e-02 -1.013701502233743668e-02 4.000300541520118713e-02 2.508232183754444122e-02 -1.534043066203594208e-02 3.148307651281356812e-02 -3.434121236205101013e-02 -1.694681495428085327e-02 -2.967505529522895813e-02 -4.910491034388542175e-02 2.253190055489540100e-02 2.594387158751487732e-02 -1.449916977435350418e-02 -4.494826868176460266e-02 -2.350078336894512177e-02 4.808528348803520203e-02 -3.506953641772270203e-02 6.923117209225893021e-03 -4.386541992425918579e-02 -4.700181260704994202e-02 -3.431347757577896118e-02 3.929637745022773743e-02 2.641411684453487396e-02 3.626230359077453613e-02 -4.281759634613990784e-02 -4.436336457729339600e-03 1.897699013352394104e-02 1.220321934670209885e-02 4.668531473726034164e-03 -1.457195356488227844e-02 -3.562204074114561081e-03 4.743985831737518311e-03 -3.074016980826854706e-02 -3.641870617866516113e-02 3.017875365912914276e-03 1.846699416637420654e-02 4.388520866632461548e-02 -3.394122421741485596e-02 -2.191346697509288788e-02 1.878808625042438507e-02 5.625913850963115692e-03 -4.312874004244804382e-02 3.096988797187805176e-02 4.322844743728637695e-02 -2.795391529798507690e-02 -8.647213689982891083e-03 4.487420991063117981e-02 -1.955621689558029175e-02 -4.987413808703422546e-02 1.184428203850984573e-02 -2.885875292122364044e-02 3.388635441660881042e-02 4.520838707685470581e-02 -1.704809442162513733e-02 2.243481948971748352e-02 -4.660743102431297302e-02 3.807940334081649780e-02 -4.111861065030097961e-02 -3.892388567328453064e-02 2.103715203702449799e-02 3.773296624422073364e-02 -4.400553926825523376e-02 4.212613031268119812e-02 -4.282155260443687439e-02 4.428115487098693848e-02 3.280676435679197311e-03 -1.651642657816410065e-02 1.995017938315868378e-02 1.195492804981768131e-04 -3.463036566972732544e-02 7.669882383197546005e-03 -2.193964086472988129e-02 -9.647363796830177307e-03 -3.812640532851219177e-02 -3.877909108996391296e-02 1.865887781605124474e-03 -1.465262938290834427e-02 -1.665457524359226227e-02 4.717420786619186401e-02 4.038905352354049683e-02 1.775316894054412842e-02 -2.939665131270885468e-02 -4.636432230472564697e-02 1.326938718557357788e-02 -3.946831077337265015e-02 -3.680288419127464294e-02 -1.398347783833742142e-02 -4.001058638095855713e-03 4.171627014875411987e-02 -3.496082499623298645e-02 -1.382123026996850967e-02 2.166417427361011505e-02 1.279138773679733276e-02 3.706205263733863831e-02 -7.278435397893190384e-03 1.281036250293254852e-02 2.685540169477462769e-02 -3.886305261403322220e-03 4.263276979327201843e-02 -4.673385247588157654e-02 -1.331141870468854904e-02 2.980335615575313568e-02 1.370592601597309113e-02 -3.546638786792755127e-02 4.198482260107994080e-02 -9.865106083452701569e-03 -4.083832353353500366e-02 3.093744628131389618e-02 -1.056152209639549255e-02 -3.397163748741149902e-02 3.936605900526046753e-02 -9.182531386613845825e-03 4.923163726925849915e-02 3.936306014657020569e-02 -8.191362954676151276e-03 4.237608984112739563e-02 -2.877880632877349854e-02 4.332437738776206970e-02 -3.253977000713348389e-02 6.279175635427236557e-03 4.910289123654365540e-02 -2.488338574767112732e-02 -3.788706660270690918e-02 7.324791513383388519e-03 4.018310084939002991e-02 5.700439680367708206e-03 3.995345532894134521e-02 -2.647394128143787384e-02 4.639510530978441238e-03 3.542138263583183289e-02 -4.342629015445709229e-02 3.866190835833549500e-02 -4.416243731975555420e-02 3.485466167330741882e-02 -2.322555333375930786e-02 -1.229661982506513596e-02 2.933954261243343353e-02 -2.691205404698848724e-02 -2.761790715157985687e-02 -1.774196047335863113e-03 2.295574732124805450e-02 -1.855029352009296417e-02 1.572690904140472412e-02 -4.846096562687307596e-04 -2.047731354832649231e-02 3.937688842415809631e-02 -4.389965906739234924e-02 -3.998797014355659485e-02 4.395504295825958252e-02 1.357864029705524445e-02 3.324484825134277344e-02 1.373692974448204041e-02 -4.413848370313644409e-02 -4.926144611090421677e-03 4.554087668657302856e-02 5.931384861469268799e-03 2.676052041351795197e-02 -2.550064120441675186e-03 2.433871850371360779e-02 1.683599688112735748e-02 1.695851981639862061e-02 4.031739011406898499e-02 5.429376382380723953e-03 -4.805958271026611328e-02 1.689274981617927551e-02 3.925513476133346558e-02 -2.728439681231975555e-02 -4.767196625471115112e-02 2.233984693884849548e-02 -1.466047368012368679e-03 4.011275619268417358e-02 4.944717884063720703e-02 -3.807567059993743896e-02 8.891034871339797974e-03 -1.395914051681756973e-02 2.807293832302093506e-02 -3.910454735159873962e-02 -1.060871127992868423e-02 -4.216748755425214767e-03 6.787084508687257767e-03 1.233339961618185043e-02 9.422270581126213074e-03 4.867789521813392639e-02 -3.723162040114402771e-02 -7.576419971883296967e-03 -4.857108741998672485e-02 1.388683542609214783e-02 4.406595975160598755e-02 2.389159239828586578e-02 -3.294308111071586609e-02 6.863633170723915100e-03 -3.191081434488296509e-02 -1.967057213187217712e-02 -2.126773260533809662e-02 -2.343839965760707855e-02 -1.932732574641704559e-02 -3.215281059965491295e-03 2.904150821268558502e-02 3.610565885901451111e-02 2.436840534210205078e-02 8.646524511277675629e-03 -4.204656928777694702e-02 -3.762205317616462708e-02 9.196347557008266449e-03 -1.872187294065952301e-02 1.419874560087919235e-02 8.950158953666687012e-03 8.364950306713581085e-03 4.114326834678649902e-02 2.015297301113605499e-02 -3.563890233635902405e-02 6.827172357589006424e-03 3.962058108299970627e-03 3.243179619312286377e-02 -4.815367236733436584e-02 -3.678700327873229980e-02 -4.880998283624649048e-02 2.101762220263481140e-02 -1.583480834960937500e-02 4.215861484408378601e-02 2.871840633451938629e-02 -4.903525859117507935e-02 2.492571249604225159e-02 -6.810589693486690521e-03 -1.303038559854030609e-02 -2.174649573862552643e-02 3.467560186982154846e-02 9.613018482923507690e-03 3.317783772945404053e-02 -3.149964287877082825e-02 -2.211147220805287361e-03 -2.992196753621101379e-02 1.763061620295047760e-02 -2.227595448493957520e-02 -4.515207558870315552e-02 -1.374059263616800308e-02 7.938802242279052734e-03 -2.265082858502864838e-02 -6.223698146641254425e-03 -2.269254811108112335e-02 4.237658157944679260e-02 -1.179167721420526505e-02 4.630741477012634277e-02 -2.140243165194988251e-02 -4.234649240970611572e-03 -3.884300962090492249e-02 -6.928884889930486679e-03 3.266097512096166611e-03 -4.065306857228279114e-02 -4.776875488460063934e-03 3.071700222790241241e-02 -1.829120516777038574e-02 1.379523612558841705e-02 -2.638035267591476440e-02 -2.366560883820056915e-02 1.322688627988100052e-02 -2.276431070640683174e-03 4.064028337597846985e-02 3.092294931411743164e-02 -2.955638058483600616e-02 -1.928487792611122131e-02 1.310954242944717407e-02 -3.907096013426780701e-02 2.132020331919193268e-02 -5.230004899203777313e-03 -4.139430448412895203e-02 1.091221719980239868e-02 7.344790268689393997e-03 4.130880162119865417e-02 -2.860162034630775452e-02 -4.025299102067947388e-02 -2.557332441210746765e-02 -3.310998529195785522e-02 3.224592655897140503e-02 -2.244138531386852264e-02 -2.076725102961063385e-02 7.994851330295205116e-05 1.617663912475109100e-02 3.144067525863647461e-02 3.487253934144973755e-02 1.599482446908950806e-02 2.128282189369201660e-02 6.225652992725372314e-03 1.658223196864128113e-02 -2.977631986141204834e-02 -4.537271335721015930e-02 1.521621551364660263e-02 -3.931631147861480713e-02 -3.597277030348777771e-02 2.172074653208255768e-02 4.921531677246093750e-02 -2.026325277984142303e-02 4.946056008338928223e-02 -1.141410414129495621e-02 2.738461457192897797e-02 -3.700300678610801697e-02 2.047785324975848198e-03 -4.027237743139266968e-02 -3.575781732797622681e-02 3.065810725092887878e-02 -4.420118033885955811e-02 -4.318934679031372070e-02 2.195167355239391327e-02 -2.140092663466930389e-02 3.952203691005706787e-02 4.541129618883132935e-02 3.082104772329330444e-02 -2.370280772447586060e-02 2.883526496589183807e-02 -4.742102324962615967e-02 -1.626699417829513550e-02 6.164829246699810028e-03 -5.093632265925407410e-03 2.520829997956752777e-02 -7.506310939788818359e-03 2.740410156548023224e-02 -3.007835522294044495e-02 2.026176638901233673e-02 4.910130426287651062e-02 -3.586746379733085632e-02 -3.892585262656211853e-02 -1.135835051536560059e-02 3.905530273914337158e-02 -2.288353070616722107e-02 4.302084073424339294e-02 -4.908445104956626892e-02 4.050824046134948730e-02 1.360974553972482681e-02 4.303491488099098206e-02 -4.732190072536468506e-02 2.031400054693222046e-02 -2.337052114307880402e-02 -1.411742530763149261e-02 -4.184623062610626221e-02 -2.650607563555240631e-02 -1.293565379455685616e-03 -2.765088155865669250e-02 -3.814518451690673828e-02 2.345191314816474915e-02 9.817858226597309113e-03 -2.853993885219097137e-02 -2.831897512078285217e-02 -3.151265904307365417e-02 1.574983447790145874e-02 1.767727360129356384e-02 -2.884542942047119141e-02 3.101965645328164101e-03 6.077901460230350494e-03 2.959532663226127625e-02 -9.389379993081092834e-03 3.770007565617561340e-02 1.913514360785484314e-02 -2.460970170795917511e-02 -4.868959542363882065e-03 -1.769382506608963013e-02 1.077739428728818893e-02 -2.892501838505268097e-02 -2.159197442233562469e-02 1.057141646742820740e-02 -1.237320993095636368e-02 -3.838805481791496277e-02 -1.776282303035259247e-02 -7.046505343168973923e-03 4.507107660174369812e-02 4.983321204781532288e-02 3.621608018875122070e-03 -3.504240512847900391e-02 1.961128786206245422e-02 1.885571889579296112e-02 1.785266026854515076e-02 3.543492406606674194e-02 -1.788886450231075287e-02 -3.523217141628265381e-02 -2.208957448601722717e-02 4.550557583570480347e-02 -3.721168031916022301e-03 4.228703677654266357e-02 1.007826812565326691e-02 1.316971424967050552e-02 -2.722541242837905884e-02 -1.942857541143894196e-02 2.497453428804874420e-02 -2.547588385641574860e-02 4.436725378036499023e-02 -1.028492115437984467e-02 8.604827336966991425e-03 -2.434789948165416718e-02 -5.018825177103281021e-03 -2.041026204824447632e-02 -2.163201756775379181e-02 1.218600943684577942e-02 4.837511852383613586e-02 -5.457211285829544067e-03 4.120714962482452393e-02 3.297817707061767578e-02 -2.714987657964229584e-02 2.222052589058876038e-02 -4.717991873621940613e-02 2.361087873578071594e-02 -3.962899371981620789e-02 -8.681415580213069916e-03 -1.810702728107571602e-03 -1.233415212482213974e-02 -1.455190358683466911e-03 2.367039769887924194e-02 -3.944295272231101990e-02 -3.024602308869361877e-02 -2.128071337938308716e-02 1.650786027312278748e-02 -5.064785480499267578e-03 4.328880459070205688e-02 -3.102082014083862305e-02 -4.677776992321014404e-02 -2.051805518567562103e-02 7.837207987904548645e-03 -4.456861689686775208e-02 3.057899139821529388e-02 2.496208995580673218e-02 -1.074695680290460587e-02 4.304204881191253662e-02 -4.741952568292617798e-02 -1.825243607163429260e-02 -1.628187112510204315e-02 9.889455512166023254e-03 -2.599371364340186119e-03 3.243959695100784302e-02 2.062840387225151062e-02 -3.429271280765533447e-02 -9.550856426358222961e-03 -3.054116107523441315e-02 2.294494956731796265e-02 2.317875251173973083e-02 -1.342666149139404297e-02 4.629161953926086426e-02 -1.160148810595273972e-02 -2.061539329588413239e-02 -9.959951043128967285e-03 -3.540375735610723495e-03 -1.790935546159744263e-02 -4.148601368069648743e-02 3.371814265847206116e-02 -3.656166046857833862e-02 -3.003837773576378822e-03 4.801001772284507751e-02 1.251010224223136902e-03 1.508038770407438278e-02 3.868385404348373413e-02 -2.051048353314399719e-02 -6.035205442458391190e-03 -1.077955588698387146e-02 -5.504942499101161957e-03 1.135262101888656616e-02 -2.368003828451037407e-03 1.268541626632213593e-02 4.254107549786567688e-02 3.062054142355918884e-02 -4.127023369073867798e-02 -4.116918146610260010e-02 -4.942359030246734619e-02 1.420673169195652008e-02 1.084653753787279129e-02 -4.924053791910409927e-03 3.230687975883483887e-02 3.915933892130851746e-02 -2.206662483513355255e-02 4.762599989771842957e-02 -2.906117774546146393e-02 1.188930706121027470e-03 -9.658798575401306152e-03 -4.556063935160636902e-02 2.648131921887397766e-03 1.828289963304996490e-02 -4.593520984053611755e-02 4.300433024764060974e-02 -2.546455338597297668e-02 4.656091704964637756e-02 -4.047742113471031189e-02 4.458635114133358002e-03 1.217834651470184326e-02 -8.540974929928779602e-03 1.287247147411108017e-02 9.540422819554805756e-03 -2.541111782193183899e-02 4.200505837798118591e-02 -4.318425059318542480e-02 -4.794432967901229858e-02 4.912333562970161438e-02 -3.065747208893299103e-02 2.890366502106189728e-02 -3.602361679077148438e-02 -3.300917148590087891e-02 3.111973032355308533e-02 4.113053157925605774e-02 1.945080421864986420e-02 4.324720054864883423e-02 3.758265450596809387e-02 4.971629753708839417e-02 7.246857974678277969e-03 -3.982419520616531372e-02 2.866662852466106415e-02 2.070180326700210571e-02 -2.682337909936904907e-02 -4.281112924218177795e-02 -3.415294224396348000e-03 3.815179690718650818e-02 2.584896236658096313e-02 -2.752424217760562897e-03 2.196797169744968414e-02 -1.630142144858837128e-02 -3.240132704377174377e-02 2.951388619840145111e-02 -4.653621092438697815e-02 -2.890646271407604218e-02 1.490454282611608505e-02 -3.711559996008872986e-02 2.250755950808525085e-02 2.738517150282859802e-02 -2.519566565752029419e-02 6.899029947817325592e-03 4.841578006744384766e-02 3.662393987178802490e-02 4.869962483644485474e-02 3.629993274807929993e-02 5.371632869355380535e-04 3.267722204327583313e-02 1.782661490142345428e-02 2.868421003222465515e-02 -1.690635271370410919e-02 -4.392946511507034302e-02 1.118201762437820435e-02 9.054420515894889832e-03 9.930055588483810425e-03 -1.449314504861831665e-02 4.536705464124679565e-02 2.342630736529827118e-02 -7.233997341245412827e-03 -3.432784229516983032e-02 -1.291519124060869217e-02 1.976049272343516350e-03 1.291275210678577423e-02 2.803370170295238495e-02 -4.588302224874496460e-02 1.088639907538890839e-02 -1.812699809670448303e-02 4.285277798771858215e-03 3.427861491218209267e-03 -2.295993454754352570e-02 -4.026245325803756714e-02 -2.122669480741024017e-02 -1.286350656300783157e-02 3.741225227713584900e-02 -2.566815540194511414e-02 2.620889618992805481e-02 4.640856385231018066e-02 2.522097527980804443e-02 -2.629343047738075256e-02 -3.026178479194641113e-02 -1.576584763824939728e-02 -2.617902308702468872e-02 2.218918874859809875e-03 4.177217558026313782e-02 1.437716931104660034e-02 9.861914440989494324e-03 -4.903249070048332214e-02 -1.023230701684951782e-02 2.248560776934027672e-03 -1.675252802670001984e-02 -3.799183527007699013e-03 2.294448576867580414e-02 3.737157955765724182e-02 2.815772593021392822e-02 8.330559358000755310e-04 4.087191075086593628e-02 2.958202548325061798e-02 2.384771127253770828e-03 1.176619715988636017e-02 4.363900423049926758e-02 4.866257682442665100e-02 3.731837123632431030e-02 4.887074604630470276e-02 -4.239809140563011169e-02 -2.124850288964807987e-05 -4.881653934717178345e-02 2.088261023163795471e-02 -4.339957609772682190e-02 -1.446182932704687119e-02 -2.126603759825229645e-02 -4.421778023242950439e-02 -2.394129335880279541e-02 -1.160918455570936203e-02 1.279096677899360657e-02 -3.557688742876052856e-02 -4.108773544430732727e-03 -4.858426749706268311e-02 3.174405544996261597e-02 -7.109334226697683334e-03 1.506884489208459854e-02 2.938746660947799683e-02 4.320024978369474411e-03 4.639382287859916687e-02 -2.246554009616374969e-02 -4.478619992733001709e-02 1.413651835173368454e-02 2.893034135922789574e-03 4.685071855783462524e-02 9.896132396534085274e-04 1.011185720562934875e-02 -2.880604378879070282e-02 4.201937466859817505e-02 2.457028720527887344e-03 1.536145154386758804e-02 -3.489894047379493713e-02 4.389142245054244995e-02 2.089217305183410645e-02 -2.590030990540981293e-02 7.416711654514074326e-03 -1.816812343895435333e-02 -3.253427147865295410e-02 4.298887029290199280e-02 3.343088179826736450e-02 1.747901178896427155e-02 2.031677588820457458e-02 -3.340191394090652466e-02 -9.975901804864406586e-03 -1.959802582859992981e-02 3.193607926368713379e-02 -3.426631540060043335e-02 2.518013678491115570e-02 -2.686383761465549469e-02 2.976448833942413330e-02 3.432533890008926392e-02 2.745790965855121613e-02 -3.763215243816375732e-02 -3.887188388034701347e-03 -2.881873771548271179e-02 -4.643324017524719238e-02 -2.381889894604682922e-02 -4.799490422010421753e-02 -3.633633628487586975e-02 -3.123153001070022583e-02 -1.965004205703735352e-02 -4.745468497276306152e-03 -4.402491822838783264e-02 -2.899887971580028534e-02 -3.467021882534027100e-02 -2.360911481082439423e-02 2.366290800273418427e-02 -5.654945503920316696e-03 -7.075039669871330261e-03 -2.087492309510707855e-02 1.200751215219497681e-02 -3.051429614424705505e-02 -3.442262858152389526e-02 1.146170403808355331e-02 -1.395536493510007858e-02 -2.804630994796752930e-02 -4.125624150037765503e-02 -1.603958941996097565e-02 3.974896669387817383e-02 -1.708801835775375366e-02 -9.261952713131904602e-03 1.660811714828014374e-02 3.121501579880714417e-02 1.151461899280548096e-02 -4.324206337332725525e-02 3.016320616006851196e-02 3.065446577966213226e-02 9.940194897353649139e-03 -8.570312522351741791e-03 3.724565496668219566e-03 -1.085015200078487396e-02 3.473285958170890808e-02 1.433487166650593281e-03 1.451301481574773788e-02 3.887204825878143311e-02 2.866034768521785736e-02 -2.337891981005668640e-02 2.393501577898859978e-03 -3.792436420917510986e-02 1.757357269525527954e-02 -1.068820245563983917e-02 1.061026751995086670e-02 -1.005017012357711792e-02 -1.729303039610385895e-02 -3.588383272290229797e-02 9.570381604135036469e-03 -1.302796509116888046e-02 -2.066184580326080322e-02 1.566479355096817017e-02 -3.889460116624832153e-02 1.621942035853862762e-02 -1.559794507920742035e-02 2.914381772279739380e-02 -3.967267926782369614e-03 -5.560286808758974075e-03 2.850950881838798523e-02 -1.735603064298629761e-02 -2.586565539240837097e-02 4.605981986969709396e-03 3.741232678294181824e-02 -4.874876234680414200e-03 1.736970990896224976e-02 -7.271794602274894714e-03 3.923911973834037781e-02 -2.475068438798189163e-03 -2.746824175119400024e-04 -3.655679523944854736e-02 -8.056696504354476929e-03 -3.828112781047821045e-02 4.945640638470649719e-02 2.430774969980120659e-03 4.003384150564670563e-03 9.372228756546974182e-03 -1.769345812499523163e-02 -2.783957868814468384e-02 -1.757957041263580322e-02 -2.388058416545391083e-02 3.582833334803581238e-02 -3.314993903040885925e-02 -2.698383666574954987e-02 2.890912070870399475e-02 -8.962970227003097534e-03 2.505672536790370941e-02 2.651128731667995453e-02 -7.173521444201469421e-03 3.261144086718559265e-02 -1.417957991361618042e-02 -7.457452360540628433e-03 -1.582770794630050659e-02 3.676959499716758728e-02 -9.707199409604072571e-03 -4.363729059696197510e-02 -4.640068113803863525e-02 3.217979893088340759e-02 -9.505199268460273743e-03 -1.654552854597568512e-02 -2.420162549242377281e-03 2.113397791981697083e-02 2.357963658869266510e-02 2.836505137383937836e-02 2.117719413945451379e-04 1.174844428896903992e-02 -3.885915502905845642e-02 7.632363587617874146e-03 4.142718017101287842e-02 3.947367891669273376e-02 -9.636230766773223877e-03 2.516775764524936676e-02 2.352957054972648621e-02 1.629780605435371399e-02 -4.903723299503326416e-02 -4.402984678745269775e-02 2.307091653347015381e-02 -2.765306970104575157e-03 -3.692059218883514404e-02 -3.076274693012237549e-02 3.589302301406860352e-02 4.625961557030677795e-02 1.799035072326660156e-02 2.981070801615715027e-02 -2.343921735882759094e-02 -2.027776464819908142e-02 -4.419494792819023132e-02 -2.768932899925857782e-04 -4.732243716716766357e-02 1.104448083788156509e-02 -2.139405161142349243e-02 4.611011222004890442e-02 4.247381910681724548e-02 4.201160743832588196e-02 -1.845367439091205597e-02 2.938864938914775848e-02 -1.316567510366439819e-02 6.089130416512489319e-03 -9.389691054821014404e-03 -1.530902227386832237e-03 4.750105738639831543e-02 2.886962518095970154e-02 -4.867563396692276001e-02 3.831782564520835876e-02 4.106809198856353760e-02 -3.762629255652427673e-02 -4.598775506019592285e-02 -4.243179038166999817e-02 3.612124547362327576e-02 1.024265214800834656e-02 -9.881328791379928589e-03 4.203935619443655014e-03 -3.355174884200096130e-02 3.434813395142555237e-02 -3.865671902894973755e-02 -2.326890453696250916e-02 -7.302877027541399002e-03 -4.739223420619964600e-02 -8.221847936511039734e-03 -4.104606807231903076e-02 -2.192111872136592865e-02 1.222006278112530708e-03 -7.760616485029459000e-03 3.702914342284202576e-02 2.502406761050224304e-02 2.605856396257877350e-02 -4.390423744916915894e-02 3.297287225723266602e-02 -4.089260846376419067e-02 1.355275511741638184e-03 2.039930224418640137e-02 -1.653344254009425640e-03 1.649518124759197235e-02 2.323115617036819458e-02 -3.890262171626091003e-02 -4.129203036427497864e-03 -1.348579395562410355e-02 4.093893989920616150e-02 3.916550427675247192e-02 -4.985832422971725464e-02 4.996438696980476379e-02 -4.068680852651596069e-02 4.708896577358245850e-02 -1.738191209733486176e-02 2.824115566909313202e-02 -1.631840947084128857e-03 -4.963659867644309998e-02 -4.643956199288368225e-02 1.066830195486545563e-02 -1.174803730100393295e-02 2.503722533583641052e-02 2.905079722404479980e-02 4.020540416240692139e-02 -4.224732145667076111e-02 5.782355088740587234e-03 -1.250638999044895172e-02 7.427180185914039612e-03 -8.837092318572103977e-04 -9.237050544470548630e-04 -7.333057001233100891e-03
2.238607220351696014e-02 6.533245090395212173e-03 -3.006824851036071777e-02 -2.339973812922835350e-03 -3.303240612149238586e-02 -1.994585432112216949e-02 3.518358990550041199e-02 -2.291749976575374603e-02 9.873274713754653931e-03 3.678181394934654236e-02 -1.069859322160482407e-02 -2.388486079871654510e-02 -1.601952128112316132e-02 2.506019733846187592e-02 2.365044504404067993e-02 3.198796883225440979e-02 -4.964612424373626709e-02 -1.495940238237380981e-02 3.457274660468101501e-02 -2.299374528229236603e-02 3.265133500099182129e-02 -3.136921674013137817e-02 4.097424075007438660e-02 1.147011294960975647e-02 -1.175090484321117401e-02 -2.123137190937995911e-02 -3.445412591099739075e-02 -2.543313242495059967e-02 -4.227485507726669312e-02 2.012548595666885376e-02 3.490501269698143005e-02 2.734146267175674438e-02 -2.562663704156875610e-02 -2.738622389733791351e-02 1.772527582943439484e-02 -4.795534163713455200e-02 -1.248544640839099884e-02 2.132594771683216095e-02 2.079520188271999359e-02 -4.905104637145996094e-02 -2.087195031344890594e-02 -1.589053682982921600e-02 -3.182942420244216919e-02 -2.641235291957855225e-02 3.387532383203506470e-02 4.620880261063575745e-02 -4.893757775425910950e-02 -4.951487481594085693e-02 3.566697984933853149e-02 2.419188246130943298e-02 4.926786944270133972e-02 3.641410171985626221e-02 5.699463654309511185e-03 4.347345605492591858e-02 -1.496842131018638611e-02 -3.746864572167396545e-02 2.581876143813133240e-02 -3.832339867949485779e-02 1.997829042375087738e-02 4.670103639364242554e-02 -4.441907629370689392e-02 -3.546967357397079468e-02 2.142970450222492218e-02 2.135517820715904236e-02 3.740661218762397766e-02 2.711789868772029877e-02 4.370512813329696655e-02 -4.576085880398750305e-02 5.637317430227994919e-03 -4.599581286311149597e-02 -2.129692211747169495e-02 4.935600608587265015e-02 -4.626262933015823364e-02 -3.486282005906105042e-02 -3.507417067885398865e-02 3.582076355814933777e-02 3.125103190541267395e-02 -1.992039754986763000e-02 -3.698045760393142700e-02 -1.890878006815910339e-02 3.844218328595161438e-02 5.153392441570758820e-03 1.269057975150644779e-03 -9.754274971783161163e-03 -1.426926534622907639e-02 3.284550085663795471e-02 3.132628649473190308e-02 -1.175518520176410675e-02 -4.330471158027648926e-02 2.633117884397506714e-02 4.939692444168031216e-04 2.791180834174156189e-02 -4.512174800038337708e-02 -2.283020503818988800e-02 2.568349428474903107e-02 -4.772224649786949158e-02 1.616083900444209576e-03 -2.169424854218959808e-02 1.435297075659036636e-02 1.564450678415596485e-03 -1.020126976072788239e-03 2.792374230921268463e-02 4.497613385319709778e-02 2.920721657574176788e-02 -3.597119450569152832e-02 1.047505717724561691e-02 3.166814567521214485e-03 2.052952768281102180e-03 1.574483327567577362e-02 3.081835992634296417e-02 -1.827301271259784698e-02 2.031617984175682068e-02 7.591195404529571533e-03 -3.721345961093902588e-02 -2.349238470196723938e-02 4.832243174314498901e-02 6.250938866287469864e-03 1.605576090514659882e-02 -3.566985949873924255e-03 1.207369752228260040e-02 -2.047770284116268158e-02 -2.640386112034320831e-02 4.974637925624847412e-02 -2.192636206746101379e-02 2.032864140346646309e-03 -7.586575229652225971e-04 3.727648407220840454e-02 -4.029572010040283203e-02 -3.544858843088150024e-02 -1.378976553678512573e-02 -1.058758702129125595e-02 3.964331746101379395e-02 4.887648392468690872e-04 2.217173762619495392e-02 3.571233898401260376e-02 -2.231126092374324799e-02 2.142689190804958344e-02 2.790107764303684235e-02 3.289997577667236328e-03 -4.903289675712585449e-02 -2.056597440969198942e-04 -3.054917603731155396e-02 1.545364875346422195e-02 4.415963590145111084e-02 2.401608787477016449e-02 -3.646454587578773499e-02 -3.602919355034828186e-02 1.676959916949272156e-02 1.113368384540081024e-02 7.303345948457717896e-03 -4.187483713030815125e-02 1.681220158934593201e-02 1.879149302840232849e-02 -6.277924869209527969e-03 -2.977367490530014038e-02 3.140816837549209595e-02 -4.764861427247524261e-03 3.616587445139884949e-02 -2.328728139400482178e-02 4.695067554712295532e-02 -1.368558313697576523e-02 2.303001657128334045e-02 4.810215532779693604e-02 -4.520978778600692749e-03 -3.271904960274696350e-02 -2.521582134068012238e-02 -2.800935320556163788e-02 -1.026600692421197891e-02 1.138466759584844112e-03 3.595144301652908325e-02 -1.400208938866853714e-02 4.077496007084846497e-02 4.168353602290153503e-02 -2.868055924773216248e-02 -3.447943180799484253e-02 1.481699664145708084e-02 -4.511347785592079163e-02 -3.869380056858062744e-02 3.210537834092974663e-03 4.442755505442619324e-02 -3.126455470919609070e-02 -1.912355795502662659e-02 1.639553904533386230e-02 -4.018293321132659912e-02 -3.360842913389205933e-02 1.349127199500799179e-02 -1.067625172436237335e-02 3.111541271209716797e-02 -1.731262356042861938e-02 -1.597174070775508881e-02 -2.065545879304409027e-02 2.465172484517097473e-02 -1.627344824373722076e-02 1.986338570713996887e-02 2.397441677749156952e-02 4.938834533095359802e-02 -1.856213784776628017e-03 1.848966628313064575e-02 -5.594966467469930649e-03 -4.742090776562690735e-02 3.292616456747055054e-02 -2.813881495967507362e-03 1.160767767578363419e-02 -3.362235799431800842e-02 4.054393246769905090e-02 -2.786619961261749268e-02 6.840162910521030426e-03 -2.369785867631435394e-02 -3.981323912739753723e-02 -5.714684724807739258e-03 -1.466245111078023911e-02 2.674823999404907227e-02 4.796358197927474976e-02 -4.956359788775444031e-02 4.762135073542594910e-02 -2.958258800208568573e-02 1.231750845909118652e-02 -2.187700709328055382e-03 -4.283866286277770996e-02 1.815433800220489502e-02 -1.464967709034681320e-02 -4.777605459094047546e-02 1.388974371366202831e-03 -3.608959959819912910e-03 2.266187779605388641e-02 -1.158552803099155426e-02 3.506442159414291382e-02 2.947501651942729950e-02 1.450327131897211075e-02 1.252927724272012711e-02 -1.962610706686973572e-02 4.301898553967475891e-02 3.751655295491218567e-02 -2.447319589555263519e-02 2.863157913088798523e-02 -3.072024509310722351e-02 -2.983305417001247406e-02 1.702886540442705154e-03 3.533311560750007629e-02 4.461837932467460632e-03 3.253302536904811859e-03 1.180415623821318150e-03 2.195607870817184448e-02 -2.412704937160015106e-02 2.030482329428195953e-02 -4.558714851737022400e-02 -3.632666170597076416e-02 -1.027778163552284241e-02 3.721033409237861633e-02 -4.254612699151039124e-02 3.826683387160301208e-02 3.463744744658470154e-02 7.349465158767998219e-04 1.933488808572292328e-02 4.104655236005783081e-02 -2.359552774578332901e-03 -4.393647890537977219e-03 -4.896534606814384460e-02 -7.660660892724990845e-03 3.903301060199737549e-02 -3.310773894190788269e-02 -4.131626337766647339e-03 -4.642306640744209290e-02 3.851823508739471436e-02 4.286336526274681091e-02 -8.687076158821582794e-03 -3.336379537358880043e-03 4.851918295025825500e-02 -3.250414505600929260e-02 2.658370323479175568e-02 -4.516041371971368790e-04 -4.641646146774291992e-02 -4.155534505844116211e-02 -1.167476456612348557e-02 3.345685824751853943e-02 2.816071920096874237e-02 -8.921687491238117218e-03 4.003291204571723938e-02 3.666129708290100098e-02 -2.592159435153007507e-02 3.642843337729573250e-03 -1.363199390470981598e-02 -8.168027736246585846e-03 -4.398662596940994263e-02 -4.219678416848182678e-02 -1.866810210049152374e-02 2.229820936918258667e-02 4.189709201455116272e-03 -1.477835793048143387e-02 4.496934264898300171e-02 2.548636496067047119e-02 2.106372732669115067e-03 -4.369636252522468567e-02 9.928785730153322220e-04 -7.621490862220525742e-03 -7.485539652407169342e-03 1.162459049373865128e-02 3.904478624463081360e-02 -2.614991366863250732e-02 4.339762404561042786e-02 -2.290175482630729675e-02 9.702416136860847473e-03 -3.111274354159832001e-02 3.425275906920433044e-02 3.261318057775497437e-02 -1.336927432566881180e-02 -9.054764173924922943e-03 3.135978803038597107e-02 4.260002821683883667e-02 -2.848854847252368927e-02 -1.729663275182247162e-02 -3.600380616262555122e-03 6.288731470704078674e-03 4.147733747959136963e-02 2.024234831333160400e-02 -3.991593141108751297e-03 -4.933213815093040466e-02 1.387164741754531860e-02 -2.675705123692750931e-03 2.545031905174255371e-02 -1.075652427971363068e-02 -1.210112590342760086e-02 -1.070586312562227249e-02 6.860004272311925888e-03 2.706670900806784630e-03 1.123813260346651077e-02 4.086633399128913879e-02 1.363453548401594162e-02 -1.341793127357959747e-02 4.675021767616271973e-02 -1.126607693731784821e-02 2.225402928888797760e-02 -4.819825664162635803e-02 -8.750655688345432281e-03 2.514760941267013550e-03 -1.425745151937007904e-02 -4.866665974259376526e-02 3.267893940210342407e-02 1.110835559666156769e-02 -1.580514758825302124e-02 1.785873807966709137e-02 3.459555655717849731e-02 2.629259042441844940e-02 -2.399436756968498230e-02 -3.944603726267814636e-02 -1.116524450480937958e-02 2.746892720460891724e-02 7.624714053235948086e-04 2.477177046239376068e-02 -2.265219949185848236e-02 4.107473790645599365e-02 3.211873397231101990e-02 -6.489869672805070877e-03 2.538808807730674744e-02 4.737983271479606628e-02 2.444876171648502350e-02 -4.932969063520431519e-02 -2.197598479688167572e-02 -3.422835841774940491e-02 -3.807868808507919312e-02 1.826325058937072754e-02 4.562254622578620911e-02 1.685189665295183659e-03 1.796025969088077545e-02 -1.927941478788852692e-02 3.346689790487289429e-02 1.771878078579902649e-02 -2.904182299971580505e-02 3.083863854408264160e-02 -2.278879471123218536e-02 -1.929152570664882660e-02 -4.951244965195655823e-02 2.656435593962669373e-02 2.683052979409694672e-02 -2.374700270593166351e-03 -4.872623458504676819e-02 4.812051728367805481e-02 -2.341599762439727783e-02 -3.223615884780883789e-02 -4.326250031590461731e-02 3.558532625902444124e-04 3.637733310461044312e-02 7.704065501457080245e-05 -2.401464618742465973e-02 7.917376235127449036e-03 4.987607523798942566e-02 -4.863088484853506088e-03 -1.994428224861621857e-02 -1.113287545740604401e-02 4.783348366618156433e-02 -9.697601199150085449e-03 1.883817464113235474e-02 5.610007327049970627e-03 -1.532412599772214890e-02 -4.940557293593883514e-03 4.170372709631919861e-02 -2.462447853758931160e-03 -2.058382891118526459e-02 -1.636581867933273315e-02 -3.132988931611180305e-03 3.609472885727882385e-02 -3.975342586636543274e-02 -3.558403626084327698e-02 1.172545738518238068e-02 3.388567641377449036e-02 1.150126196444034576e-02 -3.472013771533966064e-02 -3.060036711394786835e-02 3.591038286685943604e-02 -3.169430652633309364e-03 4.206954315304756165e-02 1.476901303976774216e-02 3.865090385079383850e-02 3.256341442465782166e-02 2.309506200253963470e-02 6.560000125318765640e-03 2.798078395426273346e-02 2.302906848490238190e-02 3.151353821158409119e-02 1.773764565587043762e-02 -4.393777996301651001e-02 3.840698301792144775e-02 4.472769331187009811e-03 -1.274895388633012772e-02 -3.168464079499244690e-02 3.287144005298614502e-02 1.486486382782459259e-02 3.789490461349487305e-02 -2.628391422331333160e-02 -3.625930845737457275e-02 -3.459085524082183838e-02 1.840935647487640381e-02 -9.917632676661014557e-03 1.236957032233476639e-02 -2.160610398277640343e-03 2.093998342752456665e-02 -4.895272105932235718e-02 -1.203869003802537918e-02 -3.871162235736846924e-02 -1.259831245988607407e-02 -2.062503062188625336e-02 -3.383990377187728882e-02 -2.305020019412040710e-02 5.052907858043909073e-03 -3.533245297148823738e-03 -7.518143858760595322e-03 -9.848603978753089905e-03 2.777812443673610687e-02 -1.765542477369308472e-02 -4.652909561991691589e-02 -2.536243991926312447e-03 -2.757332473993301392e-02 2.024345099925994873e-02 3.275660797953605652e-02 1.444694492965936661e-02 -2.515651285648345947e-02 2.677176147699356079e-02 -4.179278388619422913e-02 -1.157291606068611145e-02 4.216441139578819275e-02 -2.849326841533184052e-02 1.503050699830055237e-02 3.947407752275466919e-02 -8.076880127191543579e-03 3.133449703454971313e-02 3.867547959089279175e-02 -1.340498030185699463e-02 4.468660429120063782e-02 -3.653541952371597290e-02 -1.543028652667999268e-02 -1.541803311556577682e-02 -4.158758744597434998e-02 -2.996014803647994995e-02 1.524379011243581772e-02 -4.003227129578590393e-02 3.491929918527603149e-02 3.829554468393325806e-02 -1.802826859056949615e-02 -3.712584078311920166e-02 2.310573682188987732e-02 -3.646862134337425232e-02 -2.645479328930377960e-02 -7.924904348328709602e-04 2.419588342308998108e-02 1.148563437163829803e-02 4.937416687607765198e-02 -3.287959471344947815e-02 1.309428550302982330e-02 3.362439572811126709e-02 2.562125958502292633e-02 -9.840531129157170653e-05 4.854005761444568634e-03 2.558028884232044220e-02 4.220053181052207947e-02 -4.925628006458282471e-02 3.939701244235038757e-02 -3.281786106526851654e-03 1.178785343654453754e-03 1.396927330642938614e-02 3.438796103000640869e-02 3.755072131752967834e-02 2.611650852486491203e-03 -2.211693301796913147e-02 3.154394030570983887e-02 -1.218983344733715057e-02 3.361114487051963806e-02 -1.594634912908077240e-02 -3.883359953761100769e-02 -4.554048925638198853e-02 3.834258019924163818e-02 -8.495700545608997345e-03 -2.982569113373756409e-02 -3.443410247564315796e-02 -2.622481994330883026e-02 -2.506926655769348145e-03 1.933043077588081360e-02 1.670235767960548401e-02 4.803441464900970459e-02 -4.802552983164787292e-02 2.165839262306690216e-02 -2.750657731667160988e-03 -2.611514180898666382e-02 4.589428380131721497e-02 -1.578015834093093872e-02 4.473217297345399857e-03 1.446280628442764282e-02 -3.162664070259779692e-04 -3.024414554238319397e-02 -2.650916203856468201e-02 -3.525983542203903198e-02 -9.502002969384193420e-03 2.322113700211048126e-02 -1.657576300203800201e-02 -3.481796756386756897e-02 -2.733829803764820099e-02 4.413751512765884399e-02 3.608512459322810173e-03 -3.480463847517967224e-02 -1.547431480139493942e-02 3.541043400764465332e-02 1.734546385705471039e-02 1.934074237942695618e-02 -1.439064217265695333e-04 2.923189289867877960e-02 -8.619130589067935944e-03 1.323206350207328796e-02 -3.640150884166359901e-03 -3.556289523839950562e-02 -6.756193004548549652e-03 5.367088597267866135e-03 1.440175343304872513e-02 1.726851053535938263e-02 2.702088654041290283e-02 -4.714843630790710449e-02 2.496460266411304474e-02 4.486763104796409607e-02 -1.369122532196342945e-03 -4.496225342154502869e-02 -1.545200124382972717e-02 -2.772035449743270874e-02 -3.820035606622695923e-02 -1.577160879969596863e-02 -2.114340459229424596e-04 -1.805935986340045929e-02 -4.116801917552947998e-02 -4.673024639487266541e-02 -3.573177754878997803e-02 3.837105631828308105e-02 4.587607458233833313e-02 -4.283408075571060181e-02 9.936240501701831818e-03 -3.124733828008174896e-02 4.617918655276298523e-02 -2.771192789077758789e-02 -2.604947239160537720e-02 3.243643045425415039e-02 -3.643675893545150757e-02 3.750690817832946777e-02 -3.867627307772636414e-02 -4.400678724050521851e-02 2.306357212364673615e-02 -2.459013275802135468e-02 1.286120992153882980e-02 -1.184182614088058472e-02 4.116019606590270996e-02 -1.421132870018482208e-02 1.641555689275264740e-02 -4.363199695944786072e-02 -2.047602552920579910e-03 -4.586839303374290466e-02 1.227545645087957382e-02 2.188992127776145935e-02 2.252165973186492920e-02 -4.977435991168022156e-02 2.397906937403604388e-04 -3.030283935368061066e-02 -3.256095200777053833e-02 5.333807319402694702e-03 4.859608784317970276e-02 -4.576773941516876221e-02 -4.572816193103790283e-02 4.946796968579292297e-02 -1.224656682461500168e-02 -2.627142891287803650e-02 -1.824132166802883148e-02 2.459374442696571350e-02 3.482275456190109253e-02 2.705669030547142029e-02 -1.559264864772558212e-02 4.582290723919868469e-02 1.700716279447078705e-02 -2.195428684353828430e-02 -1.885538548231124878e-02 1.059902459383010864e-02 -4.248613491654396057e-02 2.964909933507442474e-02 1.115995645523071289e-02 8.842775598168373108e-03 -2.643588930368423462e-02 -3.843672946095466614e-02 3.741162270307540894e-02 3.815757110714912415e-02 3.869173675775527954e-02 3.603146970272064209e-02 -2.916551567614078522e-02 3.641185164451599121e-02 4.262983798980712891e-02 4.931734129786491394e-02 2.755262888967990875e-02 -2.927868254482746124e-02 -2.565138274803757668e-03 -3.183481469750404358e-02 -3.151414170861244202e-02 1.220642402768135071e-02 -3.157892823219299316e-02 -4.598805308341979980e-02 4.204196482896804810e-02 -4.508460685610771179e-02 1.856673625297844410e-03 -6.919607054442167282e-03 -2.069200202822685242e-02 4.767241701483726501e-02 4.595339670777320862e-02 -7.081895135343074799e-03 1.829870231449604034e-02 3.115381300449371338e-02 -4.839352890849113464e-02 -1.418443303555250168e-02 -1.941225724294781685e-03 -3.678068891167640686e-02 -1.282670348882675171e-02 -5.606973543763160706e-03 -3.922646492719650269e-02 -4.076786339282989502e-02 2.478191442787647247e-02 3.693408891558647156e-02 3.733056038618087769e-02 4.225844144821166992e-02 3.498699143528938293e-02 -1.904074475169181824e-02 -2.972523495554924011e-02 3.890113905072212219e-02 -2.986719459295272827e-02 -1.786641590297222137e-02 4.878025874495506287e-02 4.295570775866508484e-02 3.659836715087294579e-03 -2.453694306313991547e-02 3.783463314175605774e-02 1.196020003408193588e-02 -3.652959689497947693e-02 -1.819960772991180420e-02 -4.656807705760002136e-02 1.952977664768695831e-02 2.214228734374046326e-03 -4.839073866605758667e-03 -1.179117010906338692e-03 -4.239428043365478516e-02 -3.128099068999290466e-02 1.307321508647873998e-04 -1.259032823145389557e-02 -3.368102759122848511e-02 -3.831228986382484436e-02 3.111913055181503296e-02 3.808464854955673218e-02 8.826902136206626892e-03 -2.778557594865560532e-03 -3.267754614353179932e-02 6.463400088250637054e-03 -4.759032744914293289e-03 2.027202025055885315e-02 2.355716750025749207e-02 -4.418851062655448914e-02 -4.318259283900260925e-02 -4.932164028286933899e-02 -4.436770826578140259e-02 -4.610406607389450073e-02 -2.476564608514308929e-02 -5.201092921197414398e-03 -1.327839307487010956e-02 -4.226646199822425842e-02 4.877766966819763184e-02 9.756903164088726044e-03 1.195654738694429398e-02 3.896821662783622742e-02 -1.292626559734344482e-02 8.224253542721271515e-03 4.377833753824234009e-02 1.975541934370994568e-02 4.547322168946266174e-03 -2.054748591035604477e-03 -3.154490515589714050e-02 4.137611761689186096e-02 -4.468577355146408081e-02 1.278025563806295395e-02 4.689903929829597473e-02 3.041440621018409729e-03 2.142499200999736786e-03 2.331891655921936035e-02 -1.163104735314846039e-02 4.856998473405838013e-02 4.874259978532791138e-02 3.150020912289619446e-02 -2.512528561055660248e-02 -4.785664007067680359e-02 4.596675559878349304e-02 -3.023747913539409637e-02 -3.804889321327209473e-02 -2.748563326895236969e-02 1.764135784469544888e-03 6.351748015731573105e-03 -2.874815091490745544e-02 4.679045174270868301e-03 2.809837460517883301e-02 -4.635670781135559082e-02 4.217532277107238770e-02 -4.386914893984794617e-02 4.613194987177848816e-02 1.884713396430015564e-02 1.074851397424936295e-02 -2.352838777005672455e-02 2.689832821488380432e-02 -1.923490874469280243e-02 3.776360303163528442e-02 -2.747206762433052063e-02 1.280037127435207367e-02 -4.092394188046455383e-02 -3.411054983735084534e-02 -4.242781549692153931e-02 -3.033385798335075378e-02 -4.510582610964775085e-02 1.840438344515860081e-03 -1.306824386119842529e-02 4.547137022018432617e-02 3.848811611533164978e-02 4.625884816050529480e-02 -9.299431927502155304e-03 4.133079946041107178e-02 -4.586907476186752319e-02 2.006356418132781982e-02 -1.042360719293355942e-02 -3.398476541042327881e-02 3.173585981130599976e-02 4.433381184935569763e-02 -3.936054185032844543e-02 4.602162912487983704e-02 1.213482487946748734e-02 -1.570903882384300232e-02 -2.518284134566783905e-02 4.917794466018676758e-02 -3.169644251465797424e-02 -4.988211393356323242e-02 3.442497551441192627e-02 -6.411324720829725266e-03 2.582943812012672424e-02 1.451863348484039307e-02 -2.825017645955085754e-02 3.448893129825592041e-02 -3.175627812743186951e-02 3.312059491872787476e-02 -1.086911885067820549e-03 -1.645518653094768524e-02 2.599791996181011200e-02 3.096545860171318054e-02 6.578538101166486740e-03 1.075934525579214096e-02 -1.631473656743764877e-03 -4.557292163372039795e-02 2.971011959016323090e-02 6.401346530765295029e-03 -4.794469848275184631e-02 3.695177659392356873e-02 -4.237318038940429688e-02 -3.055130876600742340e-02 -4.836714640259742737e-02 -4.671694710850715637e-02 2.458350500091910362e-03 7.504762150347232819e-03 -3.567728772759437561e-02 -3.256146982312202454e-02 7.240559905767440796e-03 -2.727538347244262695e-02 7.655562367290258408e-03 -4.330078512430191040e-02 3.110540565103292465e-03 -4.225969314575195312e-02 3.493340313434600830e-02 1.426085596904158592e-03 1.546628493815660477e-02 -3.872893750667572021e-02 -1.664915308356285095e-02 -9.442266076803207397e-03 -4.783406853675842285e-02 3.347827494144439697e-02 1.847776956856250763e-02 -3.951766714453697205e-02 3.100585378706455231e-02 -2.639698050916194916e-02 3.226383402943611145e-02 2.536738663911819458e-02 4.922620579600334167e-02 -3.210707008838653564e-02 -2.787421829998493195e-02 9.531848132610321045e-03 -1.201036851853132248e-02 -4.041315242648124695e-02 4.344192147254943848e-02 4.246665164828300476e-03 2.069548889994621277e-02 4.737586248666048050e-03 1.476129167713224888e-03 -3.679490834474563599e-02 -3.543286398053169250e-02 -3.409617021679878235e-02 -1.858116313815116882e-02 8.781265467405319214e-03 -4.690320044755935669e-02 2.569401636719703674e-02 -1.053270976990461349e-02 -4.053010046482086182e-02 4.406052082777023315e-02 -1.954525709152221680e-02 -3.480997309088706970e-02 -2.814023382961750031e-02 4.909164831042289734e-02 -2.722514979541301727e-02 6.930515170097351074e-03 3.716412698850035667e-03 3.318737819790840149e-02 -9.734186343848705292e-03 3.959262371063232422e-02 2.183145098388195038e-02 2.834163792431354523e-02 -3.738122805953025818e-02 3.603276610374450684e-02 -3.464017435908317566e-02 -1.689977507339790463e-04 1.901137828826904297e-02 -4.688238352537155151e-02 1.853167824447154999e-02 2.277386002242565155e-02 -6.419022101908922195e-03 1.495813857764005661e-02 -4.275810346007347107e-02 7.114211563020944595e-03 -2.273571304976940155e-02 -4.609492793679237366e-02 -3.594013676047325134e-02 2.568487077951431274e-02 8.397439494729042053e-03 4.413928836584091187e-02 -3.418710827827453613e-02 2.862292109057307243e-03 -9.934685193002223969e-03 -1.101092435419559479e-02 1.661382243037223816e-02 2.003643102943897247e-02 3.568280488252639771e-02 -1.356852054595947266e-02 1.827955059707164764e-02 2.569561824202537537e-02 6.691112648695707321e-03 1.471362449228763580e-02 3.769727051258087158e-02 3.900191187858581543e-02 -8.121306076645851135e-03 3.137576952576637268e-02 6.130949128419160843e-03 4.745369032025337219e-02 -4.280350729823112488e-02 2.966452389955520630e-02 5.838328506797552109e-03 3.647251054644584656e-02 -1.371082616969943047e-03 -4.885667189955711365e-02 -2.815818227827548981e-02 -1.899528503417968750e-02 -2.968092449009418488e-03 3.320376947522163391e-02 2.009022608399391174e-02 1.318479981273412704e-02 -3.339210525155067444e-02 -2.650655992329120636e-02 3.262251988053321838e-02 -1.739473640918731689e-02 -4.477678611874580383e-02 -2.908823825418949127e-02 4.934508353471755981e-02 -6.711708847433328629e-04 9.775251150131225586e-03 3.134205471724271774e-03 -5.096366629004478455e-03 2.519877627491950989e-02 3.703222051262855530e-02 3.584253415465354919e-02 3.887655958533287048e-02 -1.346147526055574417e-02 3.425197675824165344e-02 -3.425538539886474609e-02 -1.123539172112941742e-02 -2.947084605693817139e-03 -8.031633682548999786e-03 2.522572502493858337e-02 -1.908386126160621643e-02 4.232339188456535339e-02 -3.125542029738426208e-02 4.447542876005172729e-02 1.377623621374368668e-02 4.096398130059242249e-02 3.444126248359680176e-02 3.438842669129371643e-02 3.277927264571189880e-02 -4.454170912504196167e-02 1.919894479215145111e-02 9.309299290180206299e-03 4.749701172113418579e-02 -1.279374118894338608e-02 -4.573081061244010925e-02 -1.968853548169136047e-02 -3.508286923170089722e-02 -4.577929526567459106e-02 -3.383084014058113098e-02 1.400178764015436172e-02 7.572283037006855011e-03 -3.447216749191284180e-02 2.735950984060764313e-02 -2.079269848763942719e-02 -3.794574737548828125e-02 -4.750181734561920166e-02 1.827307790517807007e-02 4.300135374069213867e-02 2.363354898989200592e-02 -4.954825341701507568e-02 2.544620633125305176e-02 -1.885818503797054291e-02 4.454209282994270325e-02 4.349527880549430847e-02 4.350250959396362305e-02 -3.159076347947120667e-02 -1.897138776257634163e-03 -3.732721507549285889e-02 -4.152392596006393433e-02 1.210899557918310165e-02 -3.286373242735862732e-02 1.163060124963521957e-02 -2.202224277425557375e-04 -1.520299352705478668e-02 -9.294303134083747864e-03 2.036281861364841461e-02 1.719246618449687958e-02 1.900840550661087036e-02 -4.515572264790534973e-02 3.778835013508796692e-02 3.419105336070060730e-02 -4.792202264070510864e-02 3.947468101978302002e-02 -8.715092204511165619e-03 1.747029088437557220e-02 -4.793091490864753723e-02 -1.328322011977434158e-02 -1.376737840473651886e-02 -2.828645892441272736e-02 1.005235780030488968e-02 -2.873701602220535278e-02 3.267580643296241760e-02 -1.664723828434944153e-02 -2.469609864056110382e-02 8.429773151874542236e-03 6.091210525482892990e-03 -4.266010224819183350e-02 6.738232914358377457e-03 -3.957675397396087646e-02 -1.743608526885509491e-02 1.774835586547851562e-02 -8.288084529340267181e-03 -2.313382178544998169e-02 -3.082448616623878479e-03 2.442395314574241638e-02 -6.432881578803062439e-03 -1.852992177009582520e-02 -2.559285238385200500e-02 -3.271941468119621277e-02 -2.694804407656192780e-02 -3.368571167811751366e-03 -2.254854328930377960e-02 -7.843321189284324646e-03 2.371676824986934662e-02 -4.048755392432212830e-02 -1.120676845312118530e-02 5.072010098956525326e-04 -2.525547333061695099e-02 1.266825105994939804e-02 -2.256050333380699158e-02 -3.448344394564628601e-02 2.006492577493190765e-02 -1.475077494978904724e-02 4.200025647878646851e-02 2.763888798654079437e-02 -5.972896236926317215e-03 -2.644721604883670807e-02 4.253400024026632309e-03 -2.022924274206161499e-02 7.899260148406028748e-03 4.752337187528610229e-02 1.623770780861377716e-02 -2.928289212286472321e-02 3.757769241929054260e-02 -3.622530773282051086e-02 2.086080377921462059e-03 4.335255920886993408e-02 -6.445101462304592133e-03 2.311088517308235168e-02 -2.564742416143417358e-02 -3.202147409319877625e-02 1.227683760225772858e-02 -3.565024584531784058e-02 3.046482428908348083e-02 -4.133522883057594299e-02 3.384433686733245850e-02 -2.227099053561687469e-02 2.514596283435821533e-02 1.926044560968875885e-02 4.320593923330307007e-02 3.918180242180824280e-02 1.115406304597854614e-02 -2.608976326882839203e-02 4.327060654759407043e-03 -2.957326918840408325e-02 3.742536902427673340e-02 -9.886037558317184448e-03 4.936853796243667603e-02 -4.777472838759422302e-02 -6.332570686936378479e-03 1.833721622824668884e-02 -3.244772553443908691e-02 1.819120720028877258e-02 2.019525319337844849e-02 -4.644051939249038696e-02 2.538216114044189453e-02 3.368303412571549416e-03 -4.767354205250740051e-02 2.734297187998890877e-03 -1.627923548221588135e-02 -6.736030918546020985e-04 1.765899010933935642e-03 5.747878924012184143e-03 2.524967305362224579e-02 -2.902858518064022064e-02 -1.402366627007722855e-02 -2.920189127326011658e-02 4.285629466176033020e-02 -3.883673623204231262e-02 -2.035745792090892792e-02 -3.677028417587280273e-02 4.952229931950569153e-02 -1.675353036262094975e-03 -3.768464922904968262e-02 -2.757380902767181396e-02 1.371491607278585434e-02 1.845368370413780212e-02 3.606415539979934692e-02 -1.468297746032476425e-02 1.313897687941789627e-02 -2.356432005763053894e-02 -8.865143172442913055e-03 4.816625267267227173e-02 4.005699604749679565e-02 -3.191190958023071289e-02 4.352105036377906799e-02 -2.592887729406356812e-02 -8.172037079930305481e-03 -1.404679473489522934e-02 -1.046471670269966125e-02 -5.602594465017318726e-03 3.560011461377143860e-02 -4.803859069943428040e-02 -3.612661734223365784e-02 3.180352598428726196e-02 3.684737905859947205e-02 3.724460303783416748e-02 2.555237337946891785e-02 4.346079751849174500e-02 4.610200598835945129e-02 -3.037804365158081055e-02 2.898337878286838531e-02 -1.267513539642095566e-02 6.784492172300815582e-03 -4.906582459807395935e-02 -7.834754884243011475e-03 -3.654079511761665344e-02 -3.222702071070671082e-02 -1.760875247418880463e-02 -2.763333544135093689e-02 -1.538491994142532349e-02 -2.282577008008956909e-02 -2.905266173183917999e-02 3.237363882362842560e-03 4.547224938869476318e-02 2.891418151557445526e-02 2.463597990572452545e-02 -2.587902545928955078e-02 1.493667811155319214e-02 -6.376415491104125977e-03 -3.509161993861198425e-02 -4.268610849976539612e-02 -2.496360139048192650e-06 -1.265064720064401627e-02 4.896033089607954025e-03 2.323154173791408539e-02 1.005764212459325790e-02 1.565966289490461349e-03 5.899703595787286758e-03 -2.220432646572589874e-02 -1.243458036333322525e-02 2.335566654801368713e-02 3.378674760460853577e-02 -4.664671793580055237e-02 -3.061923198401927948e-02 2.406395226716995239e-02 -4.720855504274368286e-02 2.575585991144180298e-02 -2.636437304317951202e-02 -2.424059249460697174e-02 -3.343690186738967896e-02 1.491047535091638565e-02 -1.282940153032541275e-02 -5.727015435695648193e-03 4.330505803227424622e-02 -3.070116229355335236e-02 -3.221176564693450928e-02 3.728599846363067627e-02 -4.285990446805953979e-02 3.234760370105504990e-03 4.253695532679557800e-02 3.179081901907920837e-02 -1.322353607974946499e-03 -4.336142539978027344e-02 2.135539660230278969e-03 5.375997629016637802e-03 3.697569714859127998e-03 -1.050780247896909714e-02 1.540057174861431122e-02 3.649836778640747070e-02 -4.316556453704833984e-02 -1.176477875560522079e-02 -2.669499022886157036e-03 3.100356832146644592e-02 -4.436078667640686035e-02 -9.357356466352939606e-03 2.271122299134731293e-02 -4.414990171790122986e-02 -3.627638891339302063e-02 -4.370081052184104919e-02 3.158731013536453247e-02 8.466407656669616699e-03 2.250170707702636719e-02 3.857315331697463989e-02 2.522185072302818298e-02 1.451998483389616013e-02 1.297837402671575546e-02 2.850024320650845766e-04 -1.110434648580849171e-03 -1.611238718032836914e-02 5.562106613069772720e-03 -5.855233874171972275e-03 -7.458302658051252365e-03 -2.643207088112831116e-02 3.104088641703128815e-02 2.566932700574398041e-02 -3.309655934572219849e-02 6.421240977942943573e-03 2.098255977034568787e-02 2.087777294218540192e-02 -3.180859610438346863e-02 2.547825314104557037e-02 2.898622117936611176e-02 1.483282633125782013e-02 1.973880454897880554e-02 -4.588981717824935913e-02 -3.700334951281547546e-02 7.462033536285161972e-03 -1.644267328083515167e-02 4.968215897679328918e-02 -4.135110601782798767e-02 -4.941442981362342834e-02 -3.939983248710632324e-02 1.952907629311084747e-02 4.467651620507240295e-02 -1.310947258025407791e-02 2.134842053055763245e-02 1.335491705685853958e-02 4.177597537636756897e-02 -2.526018209755420685e-02 2.579431049525737762e-02 -4.053461179137229919e-02 -1.483302470296621323e-02 -3.706570342183113098e-02 -3.961416333913803101e-02 5.105983465909957886e-03 -3.177117928862571716e-02 -1.257801335304975510e-02 1.133050303906202316e-02 -1.697168685495853424e-02 -1.208345871418714523e-02 -3.914618864655494690e-02 -1.169184688478708267e-02 4.947689175605773926e-02 2.640922740101814270e-02 4.866969306021928787e-03 1.048428821377456188e-03 -1.737043075263500214e-02 1.447289530187845230e-02 -4.176495596766471863e-02 -1.127792801707983017e-02 4.743548855185508728e-02 -1.102802623063325882e-02 -2.815571986138820648e-02 -4.135640710592269897e-02 2.525449730455875397e-03 -1.539872493594884872e-02 6.538907065987586975e-03 1.401470880955457687e-02 2.626947499811649323e-02 -7.822200655937194824e-03 -5.015191622078418732e-03 1.980496756732463837e-02 -3.497197851538658142e-02 -4.424743726849555969e-02 -3.486741334199905396e-02 -3.865760564804077148e-02 4.463046044111251831e-02 2.462790720164775848e-02 -3.484435379505157471e-02 -4.721580073237419128e-02 1.795797608792781830e-02 1.439104136079549789e-02 2.382224053144454956e-02 -1.673912443220615387e-02 3.973660059273242950e-03 -8.414727635681629181e-03 3.539626020938158035e-03 3.925292938947677612e-02 3.657644987106323242e-02 1.550462003797292709e-02 1.253867521882057190e-02 -9.433539584279060364e-03 -2.074024174362421036e-03 -2.689125388860702515e-02 -1.313147787004709244e-02 1.343279238790273666e-02 -2.371294610202312469e-02 4.007088020443916321e-02 -4.671458527445793152e-02 1.653679646551609039e-02 2.570685558021068573e-02 -2.070664614439010620e-02 3.820077702403068542e-02 4.835569858551025391e-02 1.893939077854156494e-02 6.686671636998653412e-03 5.416744388639926910e-03 -1.028005382977426052e-03 -3.126948839053511620e-03 -3.899744153022766113e-02 -2.459549158811569214e-02 4.935307428240776062e-02 -4.393836855888366699e-02 4.172522202134132385e-02 9.419568814337253571e-03 -1.524979993700981140e-02 -1.829884015023708344e-02 2.215553261339664459e-02 -2.418091148138046265e-02 -1.044182572513818741e-02 -2.366872318089008331e-02 2.268990874290466309e-02 4.474358260631561279e-02 1.481307111680507660e-02 4.009694606065750122e-02 1.542187761515378952e-02 -3.615821525454521179e-02 -1.481713354587554932e-02 -1.714121922850608826e-02 -4.011613875627517700e-02 -4.773558303713798523e-02 -2.868509106338024139e-02 -4.832244664430618286e-02 1.682525873184204102e-02 7.996027357876300812e-03 -2.127259410917758942e-02 -4.099902510643005371e-02 3.672540560364723206e-02 -1.821980252861976624e-02 -4.307765886187553406e-02 -1.112145371735095978e-03 4.426467791199684143e-02 2.100304700434207916e-02 3.497850522398948669e-02 2.658364549279212952e-02 2.245299750939011574e-03 -4.243387840688228607e-03 4.961569979786872864e-02 -1.934542693197727203e-02 1.883796975016593933e-02 -4.916152358055114746e-02 -4.814010486006736755e-02 2.305979467928409576e-02 1.243712846189737320e-02 2.889655530452728271e-03 -2.785759977996349335e-02 4.370443895459175110e-02 -1.426625624299049377e-02 -4.622972384095191956e-02 2.665945701301097870e-02 3.556609898805618286e-02 4.471592977643013000e-02 -2.736224606633186340e-02 -1.584287965670228004e-03 4.936074838042259216e-02 2.476536855101585388e-02 -2.614257298409938812e-02 9.230886935256421566e-04 -9.850566275417804718e-03 4.332132264971733093e-02 -3.755497932434082031e-02 7.462456822395324707e-03 -2.598103508353233337e-02 1.186493504792451859e-02 -1.209303643554449081e-02 1.050749141722917557e-02 1.541508245281875134e-03 1.113351061940193176e-02 3.595444932579994202e-02 4.627163708209991455e-02 4.968960955739021301e-02 -3.099379315972328186e-02 3.807250037789344788e-02 2.838552172761410475e-04 -4.444913472980260849e-03 -3.769233077764511108e-02 3.719248622655868530e-02 -4.422405734658241272e-02 -1.838527619838714600e-02 3.311122953891754150e-02 2.346544712781906128e-02 3.984695300459861755e-02 -3.022085875272750854e-03 -2.212833799421787262e-02 -2.855670824646949768e-02 2.992218546569347382e-02 1.148248091340065002e-02 -1.332364394329488277e-03 -6.611629389226436615e-03 -1.663237251341342926e-02 3.035902790725231171e-02 4.383495450019836426e-02 4.333392158150672913e-02 -3.647644817829132080e-02 -3.001417219638824463e-02 2.352282172068953514e-03 -5.794025491923093796e-03 -3.508665785193443298e-02 4.212689399719238281e-02 3.119253180921077728e-02 4.547069594264030457e-02 -4.375036805868148804e-02 -4.584788531064987183e-02 -1.699173636734485626e-02 -1.590079441666603088e-02 -1.839615032076835632e-02 -1.081172004342079163e-02 1.744393445551395416e-02 -1.469764485955238342e-02 4.624842479825019836e-02 -2.713076770305633545e-02 -3.433049097657203674e-02 -4.092743620276451111e-02 -1.952431350946426392e-02 3.458994254469871521e-02 1.354696601629257202e-02 9.982661344110965729e-03 -1.619942113757133484e-02 -8.960442617535591125e-03 -1.092530414462089539e-02 -1.842747069895267487e-02 -4.012657329440116882e-02 3.682599216699600220e-02 9.000433608889579773e-03 -1.013552211225032806e-02 -4.961946979165077209e-02 -1.223570108413696289e-02 -3.613931685686111450e-02 -1.090964418835937977e-03 -3.562549874186515808e-02 -1.008471380919218063e-02 -3.657364845275878906e-02 3.816231340169906616e-02 -2.784641273319721222e-02 -9.259632788598537445e-03 -4.970650374889373779e-02 4.663885012269020081e-02 2.344504930078983307e-02 1.238982565701007843e-02 2.120788395404815674e-02 -2.786405570805072784e-02 -2.212665043771266937e-02 4.627696424722671509e-02 -3.801368921995162964e-02 3.366337716579437256e-02 7.666051387786865234e-04 2.385536208748817444e-02 -9.119877591729164124e-03 -2.695259265601634979e-02 -4.772173240780830383e-02 1.217693183571100235e-02 -1.026463415473699570e-02 1.137656997889280319e-02 4.511637240648269653e-02 -3.590841963887214661e-02 -3.777975589036941528e-02 4.302148148417472839e-02 -3.305577114224433899e-02 -2.947679162025451660e-02 -2.471830695867538452e-02 -4.399635642766952515e-02 3.395166248083114624e-02 2.268411451950669289e-03 -8.789503015577793121e-03 -2.717304788529872894e-02 -2.640099450945854187e-02 -2.036658348515629768e-03 3.517929464578628540e-02 1.273719780147075653e-02 -7.780700456351041794e-03 2.208523079752922058e-02 4.338364303112030029e-02 2.609400078654289246e-02 -4.788393899798393250e-02 2.973695099353790283e-02 2.250005863606929779e-02 -3.405508026480674744e-02 -1.196395047008991241e-02 -1.922128163278102875e-02 -5.636369809508323669e-03 -2.598798833787441254e-02 2.817176980897784233e-03 -4.758427292108535767e-02 1.345204096287488937e-02 7.628111634403467178e-03 -1.704198867082595825e-02 -1.407944480888545513e-03 4.486906901001930237e-02 5.078434012830257416e-03 7.168103009462356567e-03 -9.503079578280448914e-03 3.287819772958755493e-02 -6.541097071021795273e-03 3.387666493654251099e-02 -3.206063434481620789e-02 -2.833097428083419800e-02 -1.310984976589679718e-02 -4.685641825199127197e-02 2.408247208222746849e-03 6.637190002948045731e-03 -2.057651244103908539e-02 -4.144346341490745544e-02 -9.863058105111122131e-03 -3.435863181948661804e-02 -1.895147934556007385e-02 4.825714975595474243e-02 -3.954038023948669434e-02 -3.250893577933311462e-02 4.190462827682495117e-02 3.569995611906051636e-02 3.818400576710700989e-02 3.231377899646759033e-02 5.514617660082876682e-04 -1.761285029351711273e-02 -4.471367225050926208e-02 4.729220271110534668e-02 -1.440988015383481979e-02 7.722098962403833866e-04 -4.033495485782623291e-02 -1.735705323517322540e-02 1.192024257034063339e-02 3.306649625301361084e-03 -1.309252995997667313e-02 -1.364777609705924988e-02 3.385281190276145935e-02 1.024993136525154114e-02 4.541555419564247131e-03 -3.163186833262443542e-02 4.598705470561981201e-02 2.920651063323020935e-02 7.946361787617206573e-03 -4.807350412011146545e-02 -4.324114695191383362e-02 2.013862878084182739e-02 3.591020125895738602e-03 4.104358330368995667e-02 1.516076643019914627e-02 -2.209951169788837433e-02 3.986177593469619751e-02 -3.482330963015556335e-02 -3.332014894112944603e-03 -3.583115339279174805e-02 -2.249204926192760468e-02 2.849845960736274719e-02 2.833563089370727539e-02 -2.930519357323646545e-02 -1.252046506851911545e-02 2.279436402022838593e-02 -3.140563610941171646e-03 3.595517203211784363e-02 -8.434685878455638885e-04 4.537161067128181458e-02 3.634789586067199707e-02 2.684800326824188232e-02 3.378333523869514465e-02 -2.868722565472126007e-02 8.888282813131809235e-03 2.506653405725955963e-02 -1.135251019150018692e-02 2.249491401016712189e-02 -4.896396398544311523e-02 -4.783590510487556458e-02 -1.405802648514509201e-02 2.357183210551738739e-02 3.861563652753829956e-02 4.925860837101936340e-02 3.633599728345870972e-02 1.270655728876590729e-02 -8.316787891089916229e-03 -3.938722610473632812e-02 -3.410819917917251587e-02 1.102017518132925034e-02 -9.710602462291717529e-03 -4.957292973995208740e-02 -4.717696458101272583e-02 -6.251997780054807663e-03 4.807658493518829346e-02 1.515939645469188690e-02 1.328626554459333420e-02 1.158966124057769775e-02 2.824970707297325134e-02 1.629124954342842102e-02 -1.214806549251079559e-02 3.085862658917903900e-02 3.965238854289054871e-02 -4.587454348802566528e-02 -3.412454947829246521e-02 2.389538101851940155e-02 -3.100479207932949066e-02 1.033751480281352997e-02 1.632275246083736420e-02 -1.113663055002689362e-02 -7.813132833689451218e-04 -2.553135529160499573e-02 4.798257723450660706e-02 -8.105801418423652649e-03 -2.995675802230834961e-02 -3.754735365509986877e-02 -4.393774643540382385e-02 4.189332574605941772e-02 4.692728631198406219e-03 -3.951151296496391296e-02 4.435022175312042236e-02 -5.634581320919096470e-04 -9.446342475712299347e-03 -4.692666977643966675e-02 4.185170307755470276e-02 4.150430113077163696e-02 3.345547243952751160e-02 -4.402907565236091614e-02 3.180551156401634216e-02 -3.033758886158466339e-02 -3.195776045322418213e-02 4.381233081221580505e-02 2.502854913473129272e-02 -3.099857270717620850e-02 2.552306652069091797e-02 -3.973716497421264648e-02 -1.029566396027803421e-02 3.288166224956512451e-02 -1.277870871126651764e-02 4.135720431804656982e-02 4.061017930507659912e-02 7.279143668711185455e-03 -3.048018924891948700e-02 4.566875100135803223e-02 8.629820309579372406e-03 3.930769115686416626e-02 -2.807371318340301514e-02 -2.907415293157100677e-02 -1.453206129372119904e-02 -4.180306103080511093e-03 -2.496913634240627289e-02 3.064168430864810944e-02 1.334596611559391022e-02 -1.936481520533561707e-02 2.131468616425991058e-03 -4.653538390994071960e-02 8.516157977283000946e-03 2.108221314847469330e-02 3.673199191689491272e-02 8.881541900336742401e-03 -1.827931031584739685e-02 4.454658180475234985e-02 -1.993630826473236084e-02 4.763022065162658691e-02 3.601088374853134155e-02 -3.521352261304855347e-02 3.747824952006340027e-02 -4.049294069409370422e-02 4.233174026012420654e-02 -4.929279908537864685e-02 1.120988512411713600e-03 -1.087798736989498138e-02 -4.538366571068763733e-02 -7.462600711733102798e-03 -1.521767117083072662e-02 -4.636994376778602600e-02 2.172146551311016083e-02 -3.137531876564025879e-02 -2.153609506785869598e-02 -4.755539447069168091e-02 9.189290925860404968e-03 1.065144035965204239e-02 -1.728875376284122467e-02 3.533439338207244873e-02 -1.870949380099773407e-02 -3.595178201794624329e-02 -3.551263734698295593e-02 3.077552095055580139e-02 -2.704767137765884399e-02 5.953110288828611374e-03 3.379966318607330322e-02 -2.489878796041011810e-02 -3.900515288114547729e-02 -3.750891610980033875e-02 3.912084922194480896e-02 4.160256125032901764e-03 8.376637473702430725e-03 -3.171041235327720642e-02 -4.645829275250434875e-02 4.496676474809646606e-02 -1.598093658685684204e-02 -3.187531605362892151e-02 -1.323389075696468353e-02 1.955161616206169128e-02 2.342420630156993866e-02 4.023033007979393005e-02 -3.998488187789916992e-02 1.852313615381717682e-02 2.510613016784191132e-02 -2.420587651431560516e-02 1.429414004087448120e-02 -4.424600675702095032e-02 2.538307197391986847e-02 2.498650364577770233e-02 -9.750485420227050781e-03 -4.280289635062217712e-02 -4.516507685184478760e-02 1.551603991538286209e-02 -3.256549313664436340e-02 7.649468723684549332e-03 3.220874443650245667e-02 1.457824744284152985e-02 3.816825523972511292e-02 -1.296024583280086517e-02 1.642140001058578491e-02 -1.606281101703643799e-02 -4.552581906318664551e-02 1.922846585512161255e-02 -3.005773015320301056e-02 -1.360045187175273895e-02 -1.170402858406305313e-02 -1.680011488497257233e-02 7.933458313345909119e-03 2.999077923595905304e-02 3.669527918100357056e-02 -8.321033790707588196e-03 -2.843283675611019135e-02 4.404569417238235474e-02 -6.675157696008682251e-03 -1.430768333375453949e-02 -9.862899780273437500e-03 -4.625850170850753784e-02 3.428127383813261986e-03 -1.980309560894966125e-02 -3.950208798050880432e-02 -2.397885732352733612e-02 -2.897376753389835358e-02 1.831648312509059906e-02 3.396201878786087036e-02 -2.849288098514080048e-02 -3.432921133935451508e-03 1.662172749638557434e-02 4.717317596077919006e-02 -2.633171714842319489e-02 -3.825702145695686340e-02 3.169424086809158325e-02 2.734860405325889587e-02 -2.401179168373346329e-03 -1.726339198648929596e-02 -3.644209355115890503e-02 1.845306903123855591e-02 -2.146666124463081360e-02 -4.509500414133071899e-02 -2.355160564184188843e-02 2.749734930694103241e-02 -3.571904450654983521e-02 -5.255434196442365646e-03 -3.136784955859184265e-02 -2.282294444739818573e-02 -2.715105563402175903e-02 -4.790748655796051025e-02 5.210774485021829605e-03 -1.463969331234693527e-02 4.041675478219985962e-02 -2.480271970853209496e-03 -3.099466674029827118e-02 2.589836902916431427e-02 3.712659701704978943e-02 4.283266142010688782e-02 -2.092938311398029327e-02 4.090851917862892151e-02 -1.327831018716096878e-02 -3.337948024272918701e-02 -2.475223131477832794e-02 4.701463133096694946e-02 -4.916205257177352905e-02 -4.337058216333389282e-02 -1.077876240015029907e-02 -4.630809649825096130e-02 -3.036751598119735718e-02 2.597928233444690704e-02 -4.627827927470207214e-02 -1.497041527181863785e-02 -2.262433245778083801e-02 -3.760840743780136108e-02 3.531149774789810181e-02 -1.370138674974441528e-02 4.920877888798713684e-02 3.543674945831298828e-02 4.834506660699844360e-02 -1.257093530148267746e-02 -3.621635958552360535e-02 -7.903004065155982971e-03 -2.614594250917434692e-02 -2.854060148820281029e-03 -2.389868162572383881e-02 -3.786863759160041809e-02 -2.201800048351287842e-02 -1.285745762288570404e-03 -1.200425345450639725e-02 4.926318675279617310e-02 2.948080934584140778e-02 2.977600879967212677e-02 -2.708821371197700500e-02 4.173092171549797058e-02 1.740675047039985657e-02 -1.744966767728328705e-02 4.438798129558563232e-02 -4.942959174513816833e-02 -1.610990613698959351e-02 -4.490715637803077698e-02 3.958831727504730225e-02 -3.831017762422561646e-02 -1.762739196419715881e-02 -2.975153923034667969e-02 -1.244582328945398331e-02 2.572351833805441856e-03 3.326159715652465820e-02 2.082815207540988922e-02 -2.088357135653495789e-02 3.680781926959753036e-03 -2.091009356081485748e-02 1.283286372199654579e-03 2.442634897306561470e-03 -2.131484262645244598e-02 -9.585889987647533417e-03 -2.677829749882221222e-02 -1.463737804442644119e-02 -3.467249497771263123e-02 -3.177797421813011169e-02 -3.935822471976280212e-02 -4.720880091190338135e-02 -3.122871741652488708e-02 3.434086963534355164e-02 -1.383232604712247849e-02 -2.192160114645957947e-02 -1.805932447314262390e-02 3.455628454685211182e-02 3.719232231378555298e-02 -1.406836137175559998e-02 2.895650453865528107e-02 -4.020106419920921326e-02 2.345414273440837860e-02 -3.724725544452667236e-02 1.843641698360443115e-02 4.824818670749664307e-02 6.758082192391157150e-03 -3.868956491351127625e-02 -4.426453635096549988e-02 4.055485874414443970e-02 -3.730108961462974548e-02 -4.492481797933578491e-02 2.011411823332309723e-02 -4.479887709021568298e-02 -1.030304282903671265e-02 4.896388854831457138e-04 2.233309112489223480e-02 -6.365310866385698318e-03 -4.012596979737281799e-02 3.036068752408027649e-02 2.829203568398952484e-02 -4.796401411294937134e-02 2.779954485595226288e-02 -6.506899371743202209e-03 -1.008465304039418697e-03 -6.644921842962503433e-03 4.960627108812332153e-02 -4.938429221510887146e-02 -4.985054954886436462e-02 3.315238654613494873e-02 3.328965604305267334e-02 6.508214399218559265e-03 1.988030225038528442e-02 3.028135560452938080e-02 4.915082454681396484e-02 2.501286566257476807e-02 -2.992929704487323761e-02 4.055769741535186768e-02 -3.164654225111007690e-02 -1.934380643069744110e-02 5.384140182286500931e-03 4.682514443993568420e-02 -6.213238928467035294e-03 5.300381220877170563e-03 -3.619114309549331665e-02 2.142377942800521851e-02 -6.870716810226440430e-03 3.102083317935466766e-02 -1.524627860635519028e-02 1.737358793616294861e-02 -3.441198170185089111e-02 -9.844633750617504120e-03 4.668389260768890381e-02 -2.482730522751808167e-02 -4.341224953532218933e-02 