-9.339416399598121643e-03 6.943969428539276123e-02 2.886910550296306610e-02 6.008158251643180847e-02 1.817836053669452667e-02 -7.050570100545883179e-02 -3.306356957182288170e-03 1.184398867189884186e-02 -2.864830382168292999e-02 9.996491484344005585e-03
-7.201964408159255981e-02 -6.400128453969955444e-02 5.188756063580513000e-02 4.963212460279464722e-02 -5.810763686895370483e-02 -6.851056963205337524e-02 -3.076047264039516449e-02 7.559739798307418823e-02 2.048544399440288544e-02 3.043380007147789001e-02
1.133341249078512192e-02 6.400915980339050293e-02 -2.878302335739135742e-02 -2.042453363537788391e-02 -2.075157500803470612e-02 -4.154220968484878540e-02 3.437631204724311829e-02 -1.494049001485109329e-02 -1.281904894858598709e-02 -1.198343001306056976e-02
7.484792917966842651e-02 -6.492519378662109375e-02 -5.100414156913757324e-02 5.539902672171592712e-02 6.312233954668045044e-02 1.956514455378055573e-02 5.152801424264907837e-02 2.889613434672355652e-02 4.824350774288177490e-02 -3.666047006845474243e-02
2.909541502594947815e-02 -2.953580394387245178e-02 -2.969135716557502747e-02 -3.451438993215560913e-02 -6.431011855602264404e-02 -5.259090289473533630e-02 7.411415129899978638e-02 -3.342818468809127808e-02 5.094384029507637024e-02 4.682281613349914551e-02
-3.736281394958496094e-02 -2.451873617246747017e-03 2.396971359848976135e-02 3.616772219538688660e-02 1.017686724662780762e-02 -6.194226909428834915e-03 5.295316129922866821e-02 3.145121783018112183e-02 6.358472257852554321e-02 3.301043063402175903e-02
-4.564734920859336853e-02 -3.656995669007301331e-02 -7.237426936626434326e-03 -3.435222432017326355e-03 -8.436367847025394440e-03 -5.238806083798408508e-02 4.826841875910758972e-02 -2.096742391586303711e-02 -3.769706189632415771e-02 -7.454778254032135010e-02
-2.765181288123130798e-02 7.311468571424484253e-02 -3.986635804176330566e-02 -3.938680142164230347e-02 -7.018087804317474365e-02 4.173863306641578674e-02 5.823110789060592651e-02 -7.443766575306653976e-03 -3.574227169156074524e-02 7.270084321498870850e-02
6.276753544807434082e-02 2.150329388678073883e-02 7.513826340436935425e-02 3.004641458392143250e-02 6.073880568146705627e-02 -2.599267475306987762e-02 -6.544379889965057373e-02 -4.548371955752372742e-02 -7.261054217815399170e-02 5.128383263945579529e-02
-5.439984798431396484e-02 2.161335665732622147e-03 1.325736381113529205e-02 1.824049465358257294e-02 -7.462030649185180664e-02 1.382331550121307373e-02 -4.235792532563209534e-02 3.439083695411682129e-02 1.836051978170871735e-02 3.612192347645759583e-02
3.400018904358148575e-04 -5.311255529522895813e-02 -6.553657352924346924e-02 3.939943853765726089e-03 -1.634486019611358643e-02 -3.266340121626853943e-02 3.412969876080751419e-03 -5.185033194720745087e-03 -4.054361581802368164e-02 -2.861911244690418243e-02
3.515860065817832947e-02 5.973400920629501343e-02 6.266294419765472412e-02 -2.582606114447116852e-02 -4.947150498628616333e-02 -5.793729051947593689e-02 7.524973899126052856e-02 3.644169121980667114e-02 6.515081226825714111e-02 6.721014529466629028e-02
4.845042526721954346e-02 4.342139884829521179e-02 -5.918200686573982239e-02 -7.313435524702072144e-02 4.493054002523422241e-02 -3.787813475355505943e-03 -6.447579711675643921e-02 -7.298853248357772827e-02 -2.620954439043998718e-02 -4.559025168418884277e-02
-6.715279072523117065e-02 -7.583216577768325806e-02 -2.087566442787647247e-02 1.520185917615890503e-02 3.757865400984883308e-03 4.466518759727478027e-02 -7.222149521112442017e-02 -4.851988330483436584e-02 5.778634455054998398e-03 -3.605808690190315247e-02
-6.345963478088378906e-02 1.704648509621620178e-02 5.352490022778511047e-02 -6.937941163778305054e-02 5.500242486596107483e-02 5.345313251018524170e-02 3.451837226748466492e-02 6.606803275644779205e-03 -4.344996996223926544e-03 -1.037392392754554749e-02
-5.126934498548507690e-02 2.453131973743438721e-02 -7.292104512453079224e-02 6.492210179567337036e-02 1.869639195501804352e-02 4.279404878616333008e-02 -3.206709399819374084e-02 -3.934013098478317261e-02 -3.206573659554123878e-03 -2.742129005491733551e-02
4.458039626479148865e-02 -5.316733941435813904e-02 1.648084633052349091e-02 -4.082746803760528564e-02 4.650969430804252625e-02 -7.865644991397857666e-03 -6.701809912919998169e-02 5.359646864235401154e-03 5.580897629261016846e-02 -4.077924042940139771e-02
7.515351474285125732e-02 -6.243084371089935303e-02 -4.221664369106292725e-02 4.207849130034446716e-02 5.396325886249542236e-02 6.879246979951858521e-02 -2.176897786557674408e-02 2.063699252903461456e-02 -2.899864874780178070e-02 -7.115381956100463867e-02
6.145460158586502075e-02 5.954346805810928345e-02 7.007405906915664673e-02 2.199083007872104645e-02 -2.500166557729244232e-02 -7.412407547235488892e-02 -3.710119053721427917e-02 7.306718081235885620e-02 4.382034391164779663e-02 -3.376594558358192444e-02
3.917748574167490005e-03 -5.525560677051544189e-02 -4.371997341513633728e-02 4.772105067968368530e-02 -9.778117761015892029e-03 4.010736197233200073e-02 2.285178937017917633e-02 6.264164298772811890e-02 7.174006104469299316e-02 8.505310863256454468e-03
4.290665313601493835e-02 -5.108517408370971680e-02 -6.235976144671440125e-02 -3.739130124449729919e-02 -6.740150600671768188e-02 -3.286535292863845825e-02 -1.955825835466384888e-02 5.479988455772399902e-02 6.663154810667037964e-02 -2.150217071175575256e-02
4.514124244451522827e-02 1.435596588999032974e-02 -4.207424819469451904e-02 7.421448826789855957e-02 -6.201539561152458191e-02 -3.459307178854942322e-02 -3.103596530854701996e-02 4.851118847727775574e-02 -7.148511707782745361e-02 -6.764881312847137451e-02
-1.128247473388910294e-02 2.044809609651565552e-02 6.045870482921600342e-02 -8.580651134252548218e-03 5.535464268177747726e-03 -3.552687913179397583e-02 4.304016754031181335e-02 -4.105038940906524658e-02 3.287814091891050339e-03 -5.678808316588401794e-02
2.727392874658107758e-02 -7.430399954319000244e-02 5.671374499797821045e-03 4.416226595640182495e-02 -5.295026302337646484e-02 -6.487761437892913818e-02 -8.316481485962867737e-03 4.739546030759811401e-02 6.371324509382247925e-02 5.252407118678092957e-02
-7.097880542278289795e-02 4.737865552306175232e-02 1.005423162132501602e-02 4.897325858473777771e-02 -6.409534811973571777e-02 2.274907566606998444e-02 -5.895364284515380859e-02 5.567198619246482849e-02 -3.715834394097328186e-02 -1.236896496266126633e-02
4.372606985270977020e-03 4.526622220873832703e-02 4.136184602975845337e-02 4.251842945814132690e-02 5.654035508632659912e-02 -3.945289179682731628e-02 -8.972689509391784668e-03 -1.253892318345606327e-03 6.594405323266983032e-02 -6.008714810013771057e-02
4.239492863416671753e-02 -3.175959363579750061e-02 -7.167223840951919556e-02 -6.056208163499832153e-02 3.420328721404075623e-02 5.426131188869476318e-02 -1.258192816749215126e-03 -6.854971498250961304e-02 7.502686977386474609e-02 5.176174640655517578e-02
6.266910582780838013e-02 -6.994552910327911377e-02 7.288186997175216675e-02 1.849494688212871552e-02 5.626000836491584778e-02 -7.245200872421264648e-02 3.011151589453220367e-02 6.051301211118698120e-02 -1.352247968316078186e-02 -7.324770558625459671e-03
5.741398781538009644e-04 -6.285961717367172241e-02 -2.107047103345394135e-02 2.010565809905529022e-02 -6.062269583344459534e-02 9.560901671648025513e-03 7.397847622632980347e-02 3.520001843571662903e-02 7.242428511381149292e-02 4.732325673103332520e-02
-6.628045439720153809e-02 6.865336000919342041e-02 1.478967443108558655e-02 5.543585866689682007e-02 2.130075357854366302e-03 7.278730720281600952e-02 5.243027582764625549e-02 7.103484869003295898e-02 2.119052968919277191e-02 -3.336794301867485046e-02
-4.745280742645263672e-02 7.338851690292358398e-02 -5.143789574503898621e-03 -8.499424904584884644e-03 6.154688075184822083e-02 6.204022467136383057e-02 -7.131163030862808228e-02 -4.416398331522941589e-02 -7.299263030290603638e-02 -4.901206493377685547e-02
5.158465728163719177e-02 -1.207626331597566605e-02 2.554956357926130295e-03 -5.120548978447914124e-02 5.417730659246444702e-03 -7.461023330688476562e-02 1.539427973330020905e-02 -2.963600866496562958e-02 -2.662573382258415222e-02 -7.102414965629577637e-02
2.504814602434635162e-02 6.328606605529785156e-02 3.683818131685256958e-02 6.640615314245223999e-02 4.835382103919982910e-02 5.549703910946846008e-02 -4.141376540064811707e-02 3.863980621099472046e-02 -1.116767153143882751e-02 -2.766489051282405853e-03
4.394235461950302124e-02 -6.573858857154846191e-02 -5.369955673813819885e-02 -5.411250889301300049e-02 -4.181389883160591125e-02 -6.917737424373626709e-02 3.768168762326240540e-02 -1.573202013969421387e-02 2.926706150174140930e-02 -2.636001631617546082e-02
4.239296168088912964e-02 3.333527594804763794e-02 -3.435214236378669739e-02 6.109271198511123657e-02 4.955350235104560852e-02 6.405132263898849487e-02 -1.827584579586982727e-02 6.714811921119689941e-02 5.634658038616180420e-02 4.743855446577072144e-02
5.456040147691965103e-03 1.631616055965423584e-02 6.593662500381469727e-02 -1.095889415591955185e-02 -2.699040621519088745e-02 1.238324563018977642e-03 -8.623024914413690567e-04 2.725540101528167725e-02 -6.664320081472396851e-02 1.270825788378715515e-02
-1.261367369443178177e-02 -9.020962752401828766e-03 -1.888695545494556427e-02 4.160942509770393372e-03 -7.569070905447006226e-02 6.940993666648864746e-02 -1.031795702874660492e-02 -3.915801271796226501e-02 -1.036396436393260956e-02 -2.413113834336400032e-03
1.892441138625144958e-02 1.445012073963880539e-02 6.186882033944129944e-02 -5.075867101550102234e-02 2.473321743309497833e-02 -6.683640927076339722e-02 3.696784749627113342e-02 -7.211939082480967045e-04 1.066311448812484741e-02 -1.562268845736980438e-02
1.534301787614822388e-02 3.560090670362114906e-03 7.320254296064376831e-02 7.132505625486373901e-02 7.221256196498870850e-02 -5.452722311019897461e-02 4.959084838628768921e-02 -6.912271678447723389e-02 4.931827634572982788e-02 6.379533559083938599e-02
-6.870499998331069946e-02 -3.386114910244941711e-02 -7.073268294334411621e-02 8.427199907600879669e-03 6.914275884628295898e-02 6.538695842027664185e-02 -2.612229064106941223e-02 1.954193785786628723e-02 5.873159319162368774e-02 3.324769064784049988e-02
-4.486580938100814819e-02 -3.254778310656547546e-02 9.962301701307296753e-03 1.603429438546299934e-03 -4.637861996889114380e-02 4.661807417869567871e-02 -5.586726218461990356e-02 -5.038170143961906433e-02 5.375952646136283875e-02 1.413275580853223801e-02
5.525029078125953674e-02 -2.998594939708709717e-02 -1.149663142859935760e-02 -5.107328668236732483e-02 -7.288470119237899780e-02 -3.355333209037780762e-02 7.238188385963439941e-02 9.995135478675365448e-03 1.462926063686609268e-02 4.924034699797630310e-02
-4.007944464683532715e-02 -2.468594163656234741e-02 -6.927951425313949585e-02 2.675297111272811890e-02 4.005146399140357971e-02 4.531078971922397614e-03 4.105695709586143494e-02 3.026302345097064972e-02 -2.218570094555616379e-03 2.302734553813934326e-02
1.566964387893676758e-02 -6.074279546737670898e-02 -1.042661443352699280e-02 3.254700824618339539e-02 -8.296536980196833611e-04 -6.583765149116516113e-02 3.097875788807868958e-02 1.913499087095260620e-02 -6.276784837245941162e-02 6.299717724323272705e-02
-1.769100502133369446e-02 -6.264298409223556519e-02 -5.235867574810981750e-02 4.649585857987403870e-02 5.292906612157821655e-02 -2.170897088944911957e-02 -2.828102372586727142e-02 4.124989733099937439e-02 -1.519806776195764542e-02 -3.678545355796813965e-02
-4.698567464947700500e-02 -5.232289433479309082e-02 -3.452827036380767822e-02 2.108203619718551636e-02 -1.387947611510753632e-02 -1.470111310482025146e-02 -4.551012814044952393e-02 -2.645711414515972137e-02 -5.129189789295196533e-02 -7.434128969907760620e-02
-2.038532868027687073e-02 -1.348187681287527084e-02 7.126679271459579468e-02 -5.369692575186491013e-03 7.649162318557500839e-03 6.335029006004333496e-02 3.364104032516479492e-02 -6.155261769890785217e-02 1.690218970179557800e-02 -6.255964934825897217e-02
1.538283005356788635e-02 -3.975157812237739563e-02 -7.435388863086700439e-02 -6.413439661264419556e-02 3.435659036040306091e-02 1.232747081667184830e-02 1.681141741573810577e-02 5.216385051608085632e-02 2.687442116439342499e-02 -1.906952261924743652e-02
-6.036096066236495972e-02 -1.477403100579977036e-02 -4.490421712398529053e-02 -8.610419929027557373e-03 -3.296392038464546204e-02 -2.838811464607715607e-02 6.961711496114730835e-02 1.544024981558322906e-02 5.339425057172775269e-02 -6.965501606464385986e-02
4.111092537641525269e-02 9.685722179710865021e-03 6.102191749960184097e-03 -7.581564784049987793e-02 -7.247248291969299316e-02 3.340139612555503845e-02 -3.826789557933807373e-02 -1.237087044864892960e-02 -9.035018272697925568e-03 -4.866266623139381409e-02
-2.489451318979263306e-02 4.126290604472160339e-02 -7.139137387275695801e-02 7.000066339969635010e-02 -5.471783503890037537e-02 6.452877819538116455e-02 -7.582219690084457397e-02 2.353261411190032959e-02 -3.851527348160743713e-02 4.949753358960151672e-02
2.829144708812236786e-02 4.143773578107357025e-03 5.443938821554183960e-02 -2.111641503870487213e-02 4.164032172411680222e-03 1.810487918555736542e-02 5.682865902781486511e-02 -3.898794064298272133e-03 4.622772336006164551e-02 -6.684606522321701050e-02
7.210419327020645142e-02 3.990986198186874390e-02 2.749070152640342712e-02 -6.495890021324157715e-02 4.045058041810989380e-02 -3.373882174491882324e-02 2.545353583991527557e-02 -3.407835960388183594e-02 5.269226804375648499e-02 -1.630186103284358978e-03
-3.838989138603210449e-02 -6.719845533370971680e-02 -4.976550489664077759e-02 -6.730061769485473633e-02 3.817465901374816895e-02 -4.750236496329307556e-02 5.884031206369400024e-02 4.944235458970069885e-02 -1.222636830061674118e-02 7.350008189678192139e-02
6.958315521478652954e-02 4.684401303529739380e-02 -4.846227169036865234e-02 6.002038344740867615e-02 1.468389388173818588e-02 2.367257885634899139e-02 6.803988665342330933e-02 -3.161774203181266785e-02 5.959798023104667664e-02 6.297399103641510010e-02
6.148779019713401794e-02 5.796791985630989075e-02 -4.243039712309837341e-02 -1.397071056999266148e-03 3.519301535561680794e-03 5.221510771661996841e-03 -7.601706776767969131e-03 1.253121625632047653e-02 -1.114343013614416122e-02 5.443058535456657410e-02
6.056258454918861389e-02 1.743035158142447472e-03 -6.966177374124526978e-02 5.036800354719161987e-02 7.373140007257461548e-02 -4.439672455191612244e-02 4.311037063598632812e-02 2.272764779627323151e-02 6.315065920352935791e-02 -3.370469808578491211e-02
-4.944841936230659485e-02 1.703518629074096680e-02 -3.300389647483825684e-02 -6.747180968523025513e-02 -5.121577531099319458e-02 -4.119009152054786682e-02 5.849001184105873108e-02 -4.726554080843925476e-02 3.232870483770966530e-03 1.954094693064689636e-02
-2.810516022145748138e-02 -1.108393538743257523e-02 -1.562451105564832687e-02 6.699498742818832397e-02 5.509746447205543518e-02 1.331736706197261810e-02 -5.968180485069751740e-03 1.653008908033370972e-02 3.404831513762474060e-02 3.299124166369438171e-02
-4.778302460908889771e-02 -2.616055496037006378e-02 4.105493426322937012e-03 4.825688153505325317e-02 3.494033589959144592e-02 -3.612402081489562988e-02 -2.591050229966640472e-02 -6.097254529595375061e-02 -2.551672421395778656e-02 -1.066120062023401260e-02
3.992194682359695435e-02 -3.842630237340927124e-02 4.763632640242576599e-02 6.885886192321777344e-02 -5.161072593182325363e-03 7.024947553873062134e-02 -5.403732880949974060e-02 6.763316690921783447e-03 1.688765734434127808e-02 6.710114330053329468e-02
6.161908060312271118e-02 4.479097202420234680e-03 6.688310950994491577e-02 -7.142674177885055542e-02 -1.912168785929679871e-02 1.221014745533466339e-02 -2.776273898780345917e-02 5.558421462774276733e-02 6.995019316673278809e-02 -9.234465658664703369e-03
-3.107202798128128052e-02 1.265306212007999420e-02 5.013245716691017151e-02 6.831191480159759521e-02 -1.010872982442378998e-02 4.338202625513076782e-02 6.806330382823944092e-02 5.603744089603424072e-02 4.533068463206291199e-02 7.839931175112724304e-03
6.752981245517730713e-02 -5.654914677143096924e-02 7.364051043987274170e-02 -7.195975631475448608e-02 6.810006499290466309e-02 4.046745970845222473e-02 1.465433742851018906e-02 3.374982625246047974e-02 -4.678788408637046814e-02 6.559708714485168457e-02
7.093944400548934937e-02 7.604669034481048584e-02 2.995063783600926399e-03 -1.754177361726760864e-02 -6.642736494541168213e-02 4.192942287772893906e-03 -1.651245355606079102e-02 -5.564717575907707214e-02 -5.071565508842468262e-02 -5.678255483508110046e-02
-2.108366042375564575e-02 -2.145515568554401398e-02 7.539540529251098633e-03 2.245752140879631042e-02 -4.608874674886465073e-03 3.230219706892967224e-02 -5.562014877796173096e-02 1.498700398951768875e-02 9.505487978458404541e-03 -3.978551551699638367e-02
5.228443443775177002e-02 -3.940677642822265625e-02 6.109272688627243042e-02 -6.916466634720563889e-03 4.613205417990684509e-02 4.619668424129486084e-02 2.377908304333686829e-02 7.192771136760711670e-02 -1.826558436732739210e-04 9.006445296108722687e-03
-4.367989674210548401e-02 6.401854008436203003e-02 2.408264204859733582e-03 2.835808694362640381e-02 -4.808548092842102051e-02 2.511710487306118011e-02 5.825755000114440918e-02 -3.445087000727653503e-02 1.474418025463819504e-02 -4.330560099333524704e-03
3.770295158028602600e-02 5.814516544342041016e-02 8.084599860012531281e-03 3.230310231447219849e-02 5.729281902313232422e-02 2.434305287897586823e-02 -7.239682227373123169e-02 3.783805668354034424e-02 -5.613810569047927856e-02 -6.162440776824951172e-02
4.453653097152709961e-02 5.557607859373092651e-02 -3.885744512081146240e-02 4.662353545427322388e-03 3.956048563122749329e-02 3.049554303288459778e-02 5.693506076931953430e-02 5.087693780660629272e-02 6.345724314451217651e-02 -1.967741176486015320e-02
-1.106391660869121552e-02 9.057730436325073242e-03 7.074224203824996948e-02 2.199758030474185944e-02 2.817294001579284668e-02 -2.075495384633541107e-02 5.643244460225105286e-02 6.634100526571273804e-02 -3.623041848186403513e-04 -1.295717782340943813e-03
1.375260762870311737e-02 -2.850946038961410522e-02 5.026640743017196655e-02 -2.328010648488998413e-02 -1.194199430756270885e-03 -1.839938014745712280e-02 6.624692678451538086e-02 -1.275395159609615803e-03 -7.839834433980286121e-04 -4.054899327456951141e-03
4.083045944571495056e-02 5.578541383147239685e-02 -7.602460682392120361e-02 -2.329583279788494110e-02 1.939800940454006195e-02 -4.391323029994964600e-02 -1.375838741660118103e-02 -7.114265859127044678e-02 -5.279150791466236115e-03 -5.489624664187431335e-02
-7.702234433963894844e-04 -4.673783108592033386e-02 -7.277291268110275269e-02 1.234218757599592209e-02 -4.530704021453857422e-02 -3.148835850879549980e-03 -6.023448333144187927e-02 -5.529651045799255371e-02 -7.556071504950523376e-03 6.670049577951431274e-02
4.578518122434616089e-02 4.365900997072458267e-03 -3.626798046752810478e-03 5.309744924306869507e-02 -7.845576852560043335e-03 4.417940229177474976e-02 -5.729423835873603821e-02 4.357485473155975342e-02 -5.480234324932098389e-02 -1.343397889286279678e-03
-1.904527284204959869e-02 7.114446908235549927e-02 4.571110010147094727e-02 -4.101228341460227966e-02 1.898746006190776825e-02 5.973282456398010254e-02 -3.771965205669403076e-02 3.981610387563705444e-02 -7.294028252363204956e-02 -6.936413794755935669e-02
7.182215899229049683e-02 -4.765172302722930908e-02 -4.135777056217193604e-02 2.307982742786407471e-02 7.152337580919265747e-02 -6.907314062118530273e-02 -1.497037056833505630e-02 -2.885967493057250977e-02 -7.757996208965778351e-03 5.394294857978820801e-02
4.955474659800529480e-02 -1.259927451610565186e-02 6.932390388101339340e-03 -4.310923069715499878e-02 5.425414443016052246e-02 -5.286706238985061646e-02 1.045252103358507156e-02 8.964855223894119263e-03 5.274558812379837036e-02 -6.304807960987091064e-02
5.185809731483459473e-02 7.778685074299573898e-03 4.489814862608909607e-02 2.694051526486873627e-02 -1.653175987303256989e-02 6.972952396608889103e-04 -1.676936261355876923e-02 -2.253921329975128174e-02 5.321286991238594055e-02 6.404098123311996460e-02
4.959498345851898193e-02 -6.257747858762741089e-02 -1.607630029320716858e-02 -6.656933575868606567e-02 6.977634131908416748e-02 -2.570461109280586243e-02 1.157629489898681641e-02 4.954455792903900146e-02 1.870311051607131958e-02 -5.223445221781730652e-02
-6.471908837556838989e-02 -4.133167862892150879e-02 5.360265076160430908e-02 9.431429207324981689e-03 -2.427064999938011169e-02 2.405259944498538971e-02 -1.080807577818632126e-02 6.642448157072067261e-02 -4.759489092975854874e-03 6.162756308913230896e-02
3.970531281083822250e-03 1.703605428338050842e-02 -1.722899638116359711e-02 6.187333539128303528e-02 -2.918168529868125916e-02 5.911562964320182800e-02 3.093609027564525604e-02 -1.362466439604759216e-02 6.766564399003982544e-02 3.247600421309471130e-02
4.777927696704864502e-02 -1.428446359932422638e-02 -4.529907554388046265e-02 2.773841656744480133e-02 -1.588516985066235065e-03 5.711849033832550049e-02 -6.208150088787078857e-02 -5.697108805179595947e-02 7.041031867265701294e-02 6.147072836756706238e-02
-1.048177946358919144e-02 6.849994510412216187e-02 4.324137046933174133e-02 -6.408154219388961792e-02 5.735146813094615936e-03 -2.924275770783424377e-02 4.303102195262908936e-02 5.345825850963592529e-02 2.509364392608404160e-03 -3.830457851290702820e-02
1.302121113985776901e-02 1.026156730949878693e-02 4.540152847766876221e-02 5.805508047342300415e-02 -3.833134099841117859e-02 -1.727996207773685455e-02 -4.926207475364208221e-03 -3.140182932838797569e-03 -4.740307480096817017e-02 4.299992322921752930e-02
-2.688992023468017578e-02 3.195500373840332031e-02 7.286396622657775879e-02 5.783719941973686218e-03 -2.777302265167236328e-02 6.241904199123382568e-02 -1.838256604969501495e-02 -6.730267405509948730e-02 4.707669466733932495e-02 -1.025424618273973465e-02
-6.714066863059997559e-02 4.153823480010032654e-02 3.887221682816743851e-03 -5.240763351321220398e-02 -4.529172554612159729e-02 5.789033696055412292e-02 2.544084377586841583e-02 -2.844224125146865845e-02 7.401319686323404312e-03 2.463226392865180969e-02
-2.913691475987434387e-02 -6.316674500703811646e-02 -6.277509033679962158e-02 6.323630362749099731e-02 7.043098658323287964e-02 -2.307553216814994812e-02 -7.300565391778945923e-02 -1.645012758672237396e-02 -3.795748576521873474e-02 4.008912295103073120e-02
4.187298566102981567e-02 -1.148944441229104996e-02 -1.070826110662892461e-04 1.554530858993530273e-02 3.207815065979957581e-02 -7.535025477409362793e-02 -3.066437877714633942e-02 5.454533919692039490e-02 -4.413094371557235718e-02 3.697185590863227844e-02
5.456321686506271362e-02 6.390935927629470825e-02 5.772995576262474060e-02 6.087652966380119324e-02 -6.192138418555259705e-02 3.727727010846138000e-02 -6.043917313218116760e-02 -5.594736337661743164e-02 -4.938973113894462585e-02 4.685091227293014526e-02
-6.739924103021621704e-02 6.490135937929153442e-02 6.361795961856842041e-02 -4.346517845988273621e-02 -6.381623446941375732e-02 2.673005312681198120e-02 -2.446597442030906677e-02 4.734520241618156433e-02 2.741489373147487640e-02 4.246618226170539856e-02
-3.876953199505805969e-02 1.928846165537834167e-02 -4.330697283148765564e-02 8.965797722339630127e-03 -5.900381878018379211e-02 5.188991501927375793e-02 -2.185490168631076813e-02 -4.384034872055053711e-02 8.587099611759185791e-03 5.077962577342987061e-02
2.402042225003242493e-02 3.804587572813034058e-02 3.247961029410362244e-02 -2.831735415384173393e-03 -2.007261104881763458e-02 -6.156884878873825073e-02 -1.298628561198711395e-02 4.386573284864425659e-02 -7.442542165517807007e-02 2.349457517266273499e-02
-7.457602769136428833e-02 6.243737041950225830e-02 -6.404858082532882690e-02 5.181746929883956909e-02 -5.326312035322189331e-02 5.953598394989967346e-02 1.492558140307664871e-02 5.299494601786136627e-03 2.635492943227291107e-02 5.488791316747665405e-02
1.698635332286357880e-02 6.386560201644897461e-02 -7.604732364416122437e-02 5.768780596554279327e-03 -2.396046184003353119e-02 4.556215181946754456e-02 4.002146795392036438e-02 -1.599526777863502502e-02 -5.303979292511940002e-02 3.695549815893173218e-02
6.019822880625724792e-02 -1.965183392167091370e-02 -7.292447239160537720e-02 -4.020478203892707825e-02 -5.123355239629745483e-02 7.349281013011932373e-02 5.011487379670143127e-02 1.867383159697055817e-02 -5.347494408488273621e-02 -1.000462099909782410e-02
7.102870196104049683e-02 -4.775551706552505493e-02 2.291417494416236877e-02 -3.589008748531341553e-02 -2.642032131552696228e-02 2.164743840694427490e-02 -5.196521803736686707e-02 2.387137897312641144e-02 -1.218768488615751266e-02 -2.733065746724605560e-03
1.990706659853458405e-02 3.937732055783271790e-02 -2.190787531435489655e-02 6.106710433959960938e-02 5.841809511184692383e-02 3.042324073612689972e-02 2.233782596886157990e-02 4.006205126643180847e-02 -5.437289178371429443e-02 1.623289100825786591e-02
1.645944453775882721e-02 2.227164106443524361e-03 3.157991543412208557e-02 -3.706546872854232788e-02 3.338683769106864929e-02 -1.050916872918605804e-02 3.284215554594993591e-02 -8.663322776556015015e-03 6.832137703895568848e-02 -7.397856563329696655e-02
-4.573263972997665405e-02 2.785076200962066650e-02 -5.372443795204162598e-02 -1.646840199828147888e-02 3.224349394440650940e-02 4.784335196018218994e-02 -2.227177284657955170e-02 -5.809707567095756531e-02 8.017199113965034485e-03 -7.052254676818847656e-02
-5.876449868083000183e-03 2.963330969214439392e-02 7.355932146310806274e-02 4.962830990552902222e-02 -4.214775934815406799e-02 2.407280355691909790e-02 -3.938924148678779602e-02 -3.653459483757615089e-03 4.903581365942955017e-02 5.363495647907257080e-02
-1.615771465003490448e-02 -4.129857197403907776e-02 6.778019014745950699e-03 7.332528941333293915e-03 2.906480571255087852e-03 1.422736793756484985e-03 -2.210811339318752289e-02 -6.241943687200546265e-02 -2.670621126890182495e-02 5.775747820734977722e-02
7.369502633810043335e-02 1.459060609340667725e-02 1.941170915961265564e-02 -6.685011833906173706e-02 6.776988506317138672e-02 -5.752105638384819031e-02 5.005908384919166565e-02 -3.276614472270011902e-02 -5.226164590567350388e-03 -6.664179265499114990e-02
-3.254554793238639832e-02 -2.007122896611690521e-02 -4.531237110495567322e-02 -6.806638836860656738e-02 2.863819338381290436e-02 3.999952971935272217e-02 -4.602899029850959778e-02 4.507456347346305847e-02 -1.933311857283115387e-02 -2.851555123925209045e-02
-7.397372275590896606e-02 -2.670953050255775452e-02 8.453525602817535400e-03 -5.976451188325881958e-02 1.802947372198104858e-02 5.447358358651399612e-03 -1.837312243878841400e-02 -7.067263126373291016e-02 -4.210502840578556061e-03 -3.117697685956954956e-02
-7.295764982700347900e-02 4.856968764215707779e-03 -3.612539730966091156e-03 -6.205892935395240784e-02 5.123875290155410767e-02 1.061181910336017609e-02 -1.410721894353628159e-02 -2.853192016482353210e-02 -2.882795222103595734e-02 -9.292045608162879944e-03
7.056008279323577881e-02 3.008864074945449829e-02 1.409062650054693222e-03 -3.162633255124092102e-02 5.270932987332344055e-02 6.620353460311889648e-02 -6.847634166479110718e-02 -2.838554605841636658e-02 -6.863332539796829224e-02 -7.147579640150070190e-02
-2.610320458188652992e-03 -2.496573701500892639e-02 -2.726874500513076782e-02 -6.715075112879276276e-03 1.068945392034947872e-03 -4.551924392580986023e-02 -6.526423245668411255e-02 -4.927339032292366028e-02 -1.903037354350090027e-02 6.183155626058578491e-02
6.245042011141777039e-02 -1.780228503048419952e-02 -5.994120985269546509e-02 -3.774849697947502136e-02 -3.123089671134948730e-02 1.527968421578407288e-02 8.278657682240009308e-03 4.457082599401473999e-03 8.864388801157474518e-03 -2.732439199462532997e-03
-4.584227874875068665e-02 -1.170971989631652832e-02 -4.925978556275367737e-02 6.706777960062026978e-02 4.096247628331184387e-02 -7.034105807542800903e-02 -6.685087084770202637e-02 -1.080156955868005753e-02 4.036621749401092529e-02 3.981024771928787231e-02
6.377926468849182129e-02 -6.401320546865463257e-02 2.635395340621471405e-02 -4.232900589704513550e-02 4.283067584037780762e-02 6.926342099905014038e-02 6.129301711916923523e-02 7.333786785602569580e-02 -5.276743322610855103e-02 -6.902924925088882446e-02
-1.273135375231504440e-02 -3.202740848064422607e-02 4.004308208823204041e-02 7.277343422174453735e-02 -2.785297296941280365e-02 4.814640060067176819e-02 -9.791963733732700348e-03 5.643342062830924988e-02 -2.479699812829494476e-02 3.006461448967456818e-02
-6.532025337219238281e-02 -4.186512529850006104e-02 6.892874091863632202e-02 -3.179881349205970764e-02 6.096955761313438416e-02 5.390715226531028748e-02 -3.475480526685714722e-02 3.882548585534095764e-02 6.015615910291671753e-02 -1.605761237442493439e-02
-5.120078101754188538e-02 -3.725811839103698730e-03 7.126326858997344971e-02 6.556923687458038330e-02 5.528540909290313721e-02 -4.682249575853347778e-02 6.467616558074951172e-02 -4.077313840389251709e-02 2.284415066242218018e-02 2.429642528295516968e-02
-6.931192427873611450e-02 -2.443631552159786224e-02 -3.828027052804827690e-03 2.471630647778511047e-02 2.131236158311367035e-02 -3.447446599602699280e-02 9.607253596186637878e-03 -1.319249533116817474e-02 -4.993785917758941650e-02 -5.418994277715682983e-02
-5.891092121601104736e-02 9.950055740773677826e-03 2.342854067683219910e-02 1.991632394492626190e-02 -1.063211471773684025e-03 -3.823919594287872314e-02 -2.627633139491081238e-02 6.176092848181724548e-02 5.751456320285797119e-02 7.219979166984558105e-02
-4.014616459608078003e-02 -2.365847118198871613e-02 1.079960074275732040e-02 -4.143557697534561157e-02 -7.231848686933517456e-02 3.710129857063293457e-02 -2.114477753639221191e-02 6.205189228057861328e-02 5.414677038788795471e-02 -2.042880468070507050e-02
-7.399469614028930664e-02 6.370479613542556763e-02 2.036558464169502258e-03 -7.166016846895217896e-02 1.369995065033435822e-02 2.908668853342533112e-02 -1.238075457513332367e-02 1.098999008536338806e-02 3.480546921491622925e-02 -7.096713036298751831e-02
9.360840544104576111e-03 3.447003196924924850e-03 6.124638766050338745e-02 -2.510359510779380798e-02 -4.839601367712020874e-02 -6.489765946753323078e-04 -1.012739725410938263e-02 -7.093773037195205688e-02 7.420954853296279907e-02 -3.939314931631088257e-02
6.858789920806884766e-02 3.062069974839687347e-02 -5.352307483553886414e-02 3.308893740177154541e-02 -5.290934443473815918e-02 -9.355017915368080139e-03 -9.338572272099554539e-04 -3.602862358093261719e-02 -9.238140191882848740e-04 -6.912809610366821289e-02
5.705372616648674011e-02 2.424667403101921082e-02 -1.724513806402683258e-02 4.745343327522277832e-02 -1.150166802108287811e-02 -6.473775953054428101e-03 -7.226968556642532349e-02 2.730753459036350250e-02 6.317771971225738525e-02 6.068755686283111572e-02
-1.350563764572143555e-02 -3.773429617285728455e-02 -5.403615906834602356e-02 -2.585118077695369720e-02 6.901480257511138916e-02 -3.168602660298347473e-02 -1.334850769490003586e-02 2.126537822186946869e-02 -3.620982542634010315e-02 4.657331481575965881e-02
-3.612669184803962708e-02 -3.083645924925804138e-02 3.950489684939384460e-02 2.238137181848287582e-03 3.947899118065834045e-02 -5.505678709596395493e-03 -6.230763345956802368e-02 -3.010964486747980118e-03 -2.496741339564323425e-02 -1.427864748984575272e-02
-3.516423702239990234e-02 -1.597057469189167023e-02 5.741674918681383133e-03 2.413207106292247772e-02 -3.049688786268234253e-02 1.619484275579452515e-02 -6.361147016286849976e-02 -4.025092348456382751e-02 7.091097999364137650e-03 3.005800582468509674e-02
-4.510902240872383118e-02 5.542012304067611694e-02 7.459681481122970581e-02 2.526144310832023621e-02 -9.917019866406917572e-03 7.315286248922348022e-02 -2.245331183075904846e-02 6.346330791711807251e-02 2.844029851257801056e-02 -6.032704375684261322e-03
4.669334739446640015e-02 7.456899434328079224e-02 3.013383783400058746e-02 6.610352545976638794e-02 2.235006913542747498e-02 1.116274576634168625e-02 -4.732884932309389114e-03 -5.310617387294769287e-02 -5.276943370699882507e-02 -6.194950640201568604e-02
-3.849887847900390625e-02 -1.972369384020566940e-03 9.138218127191066742e-03 -4.631050303578376770e-02 6.371033936738967896e-02 -5.129428207874298096e-02 -9.753248654305934906e-03 -1.349223405122756958e-02 -3.487668186426162720e-02 1.056144014000892639e-03
-4.411085322499275208e-02 -3.685364127159118652e-02 5.459035746753215790e-03 3.492278978228569031e-02 7.116097211837768555e-02 4.600151628255844116e-02 1.875543268397450447e-03 -6.423859298229217529e-02 1.220298185944557190e-02 -3.806655108928680420e-02
-3.383801877498626709e-02 -6.464228034019470215e-02 -1.081609912216663361e-02 -3.799683973193168640e-02 6.855659931898117065e-02 -8.419439196586608887e-03 -3.928896412253379822e-02 -1.236276701092720032e-02 -3.309901431202888489e-02 5.154773965477943420e-02
2.723125368356704712e-02 -3.593583032488822937e-02 -6.939318031072616577e-02 4.577828571200370789e-02 1.459497213363647461e-02 -1.424285955727100372e-02 2.226023562252521515e-02 2.471839776262640953e-03 -3.839904069900512695e-02 4.575741291046142578e-02
6.932915002107620239e-02 1.484007388353347778e-02 4.095892235636711121e-02 6.607721745967864990e-02 2.947020344436168671e-02 6.757113337516784668e-02 -7.490313053131103516e-02 2.235269173979759216e-02 6.086094072088599205e-04 -4.957345500588417053e-02
-5.138556286692619324e-02 4.723932966589927673e-02 -6.894972920417785645e-02 4.415602982044219971e-02 1.338301226496696472e-02 2.869412489235401154e-02 4.103209823369979858e-02 -3.442978486418724060e-02 7.372168451547622681e-02 6.853781640529632568e-02
-2.208754420280456543e-02 4.612037912011146545e-02 -6.080708652734756470e-02 3.774278610944747925e-02 -7.561993598937988281e-02 2.697531506419181824e-02 4.419855773448944092e-02 -3.506988659501075745e-02 3.501527383923530579e-02 -1.855198293924331665e-02
4.849282279610633850e-02 -2.739558741450309753e-02 5.409154668450355530e-02 7.141904532909393311e-02 6.619330961257219315e-03 -2.248329482972621918e-02 4.311404749751091003e-02 -9.837574325501918793e-03 4.665187746286392212e-02 6.489153206348419189e-02
-5.179651826620101929e-02 3.500419855117797852e-02 1.477919053286314011e-02 8.557972498238086700e-03 2.593212574720382690e-02 7.351550459861755371e-02 2.936933934688568115e-02 1.700873300433158875e-02 2.231287024915218353e-02 -6.293643265962600708e-02
-5.432304739952087402e-02 -2.159517444670200348e-02 7.146923989057540894e-02 7.367124408483505249e-02 3.296050801873207092e-02 -2.015805803239345551e-03 6.749498844146728516e-02 -4.703573510050773621e-02 8.516162633895874023e-03 7.362301647663116455e-02
5.090523883700370789e-02 2.200830727815628052e-02 -4.220863804221153259e-02 1.456181146204471588e-02 -1.073294784873723984e-02 5.060183256864547729e-02 4.257914423942565918e-02 7.175935804843902588e-02 -5.013988702557981014e-04 6.982120126485824585e-02
-3.428554162383079529e-02 -2.674510516226291656e-02 1.152566354721784592e-02 -5.088061094284057617e-02 5.030983593314886093e-03 -6.260839849710464478e-02 5.757190287113189697e-02 -6.354386359453201294e-02 2.064965665340423584e-02 -2.386149764060974121e-02
1.636302657425403595e-02 -1.267830934375524521e-02 -6.627340614795684814e-02 -3.936868533492088318e-02 -5.051947012543678284e-02 7.237295061349868774e-02 -7.481598109006881714e-02 1.928376033902168274e-02 -9.455291554331779480e-03 -7.413819432258605957e-02
7.343842089176177979e-02 -3.784248977899551392e-02 -5.942613258957862854e-02 -3.944800049066543579e-02 4.699085652828216553e-02 -3.842202201485633850e-02 5.766283348202705383e-02 -1.449973881244659424e-02 -6.380921602249145508e-02 6.231800839304924011e-02
2.346030669286847115e-03 1.404851209372282028e-02 5.596880987286567688e-02 -5.376811325550079346e-02 1.579437963664531708e-02 8.731392445042729378e-04 -6.673302501440048218e-02 4.436148330569267273e-02 -7.120448350906372070e-02 -5.787611380219459534e-02
-4.805438965559005737e-02 4.596193134784698486e-02 4.494170099496841431e-02 3.899835422635078430e-02 6.541644036769866943e-02 7.296285033226013184e-02 -3.551034023985266685e-03 3.918182849884033203e-02 3.649853542447090149e-02 -5.732391029596328735e-02
4.850558564066886902e-02 4.513615369796752930e-02 5.200814083218574524e-02 1.855964586138725281e-02 -1.352630648761987686e-02 7.616053521633148193e-02 -7.165537774562835693e-02 2.884466387331485748e-02 4.265293106436729431e-02 5.715925246477127075e-02
3.851886093616485596e-02 7.506501674652099609e-02 3.870934993028640747e-02 7.012069225311279297e-02 2.772526629269123077e-02 7.014335691928863525e-02 3.148875758051872253e-02 7.090324163436889648e-02 -1.907199155539274216e-03 -1.408692821860313416e-02
2.595547400414943695e-02 -5.494501441717147827e-02 7.046984881162643433e-02 1.294764131307601929e-02 1.324084494262933731e-02 4.959096387028694153e-02 -2.766905166208744049e-02 -6.899791210889816284e-02 -5.969916284084320068e-02 4.229889437556266785e-02
-7.207342237234115601e-02 2.154572680592536926e-02 -2.523251436650753021e-02 -7.581457495689392090e-02 -5.048732087016105652e-02 -2.726642228662967682e-02 -1.894781552255153656e-02 6.459056586027145386e-02 3.044035285711288452e-02 4.581791907548904419e-02
2.886853367090225220e-02 -4.565440863370895386e-02 6.084473431110382080e-02 4.096582531929016113e-03 -4.797367006540298462e-02 6.535589694976806641e-02 5.915856361389160156e-02 1.655366271734237671e-02 -4.680771380662918091e-02 1.370398700237274170e-02
-1.664975844323635101e-02 -5.488470569252967834e-02 4.349894821643829346e-02 2.800029702484607697e-02 4.845453798770904541e-02 -3.695472702383995056e-02 -5.822060257196426392e-02 -6.084374710917472839e-02 -4.730924591422080994e-02 2.371645346283912659e-02
-4.073540680110454559e-03 -7.063739746809005737e-02 6.222098693251609802e-02 4.901144187897443771e-03 -3.742090426385402679e-03 -5.647675693035125732e-02 -7.045542448759078979e-02 4.224766045808792114e-02 2.637353166937828064e-02 5.145116895437240601e-02
-3.683434799313545227e-02 5.702647939324378967e-02 -3.785948082804679871e-02 -5.908452719449996948e-02 3.599327430129051208e-02 -3.261040523648262024e-02 1.738675870001316071e-02 5.547669157385826111e-02 5.443774163722991943e-02 -6.264189630746841431e-02
5.070337653160095215e-02 -4.061821103096008301e-02 5.329080671072006226e-02 -7.591216266155242920e-02 3.071982786059379578e-02 -7.246071845293045044e-02 -5.894597619771957397e-02 -1.026825886219739914e-02 7.406277954578399658e-02 -5.224326252937316895e-02
-1.868047006428241730e-02 1.715444959700107574e-02 1.007595006376504898e-02 -1.734800264239311218e-02 -5.649821087718009949e-02 -4.945912584662437439e-02 -4.003666713833808899e-02 -2.241447009146213531e-02 7.130223512649536133e-02 7.111463695764541626e-02
4.880152642726898193e-02 6.754737347364425659e-02 6.046181544661521912e-02 -2.376385591924190521e-02 3.231988474726676941e-02 -2.641848847270011902e-02 2.538128988817334175e-03 2.063982561230659485e-02 4.657789692282676697e-02 -5.688514932990074158e-02
-3.811923414468765259e-02 -1.885519549250602722e-02 -3.948557749390602112e-02 6.701472401618957520e-02 3.220252320170402527e-02 -2.366289496421813965e-03 -9.454512037336826324e-03 6.367895752191543579e-02 -1.860714145004749298e-02 -1.958949118852615356e-02
-6.984874606132507324e-02 5.083590373396873474e-02 -2.232661936432123184e-03 -1.731393672525882721e-02 6.459821946918964386e-03 -2.292691543698310852e-02 6.560694426298141479e-02 -3.028661943972110748e-02 -5.698731541633605957e-02 -6.796434521675109863e-02
-5.378160625696182251e-02 -2.917127497494220734e-02 -5.780052021145820618e-02 -9.776500985026359558e-03 -4.235481843352317810e-02 3.461983054876327515e-02 -1.787346601486206055e-02 1.678447239100933075e-02 1.418121345341205597e-02 4.060696810483932495e-02
1.469105388969182968e-02 -4.341638460755348206e-02 -3.410059586167335510e-02 -3.713561594486236572e-02 -5.925100296735763550e-02 -1.668635383248329163e-02 1.820206455886363983e-02 5.692142248153686523e-02 -5.503694713115692139e-02 4.406731575727462769e-02
-6.722209602594375610e-02 6.426388025283813477e-02 7.871183566749095917e-03 -2.481461688876152039e-02 4.768189415335655212e-02 -6.706450879573822021e-02 5.486412718892097473e-02 -3.550779074430465698e-02 -3.370578959584236145e-02 3.504393622279167175e-02
-4.823210090398788452e-02 1.248393394052982330e-02 -1.989043131470680237e-02 3.240466862916946411e-02 -7.922001183032989502e-03 3.569364920258522034e-02 1.170944236218929291e-02 7.066791504621505737e-02 -3.368047997355461121e-02 -1.153884083032608032e-02
2.222247421741485596e-02 -3.524908795952796936e-02 -2.096176519989967346e-02 -4.608776420354843140e-02 5.477355420589447021e-02 -1.222070306539535522e-02 5.690313875675201416e-02 2.294892817735671997e-02 4.452300816774368286e-02 6.557622551918029785e-02
-4.607624560594558716e-02 2.955399453639984131e-02 3.390236571431159973e-02 -6.313364952802658081e-02 -5.573290586471557617e-02 2.807028964161872864e-02 5.488731339573860168e-02 -2.202111482620239258e-02 -6.393942981958389282e-02 5.407426506280899048e-02
-4.920724406838417053e-02 -7.075319439172744751e-02 7.791141048073768616e-03 -3.032738901674747467e-02 4.705769941210746765e-02 -4.088744521141052246e-02 -5.145593732595443726e-02 -3.742192313075065613e-02 2.928827330470085144e-02 6.992401182651519775e-02
-5.282169580459594727e-02 2.216316759586334229e-02 -2.468423731625080109e-02 -1.189876161515712738e-02 -7.937230169773101807e-03 -3.212168812751770020e-02 -2.568941097706556320e-03 4.869248345494270325e-02 4.769928380846977234e-02 -6.547886878252029419e-02
-5.474418774247169495e-02 -2.540555223822593689e-02 -7.258761674165725708e-02 3.165408596396446228e-02 -7.066529989242553711e-02 -2.049575001001358032e-02 -7.676199078559875488e-03 2.957531251013278961e-03 -6.244838610291481018e-02 4.325583949685096741e-02
-9.963978081941604614e-03 3.490817919373512268e-02 3.291871398687362671e-02 -2.017850987613201141e-03 5.040081217885017395e-02 5.137781426310539246e-02 -3.876350820064544678e-02 -2.657802402973175049e-02 4.716403782367706299e-02 1.448728144168853760e-02
1.495592575520277023e-02 4.621316492557525635e-02 -1.493745949119329453e-02 5.300495773553848267e-02 -9.872276335954666138e-03 9.534440934658050537e-03 -6.575582921504974365e-02 -3.367612138390541077e-02 5.336913466453552246e-02 -3.329782932996749878e-02
4.524277895689010620e-02 9.354327805340290070e-03 6.187165528535842896e-02 -5.891960859298706055e-02 1.324828621000051498e-02 -4.404914751648902893e-02 -2.810539864003658295e-02 -6.712859123945236206e-02 6.911405920982360840e-02 -2.882073447108268738e-02
4.409214854240417480e-02 3.797471895813941956e-02 -6.973063200712203979e-02 -2.391091920435428619e-02 1.506863441318273544e-02 -8.540065959095954895e-03 4.214541241526603699e-02 -2.174173481762409210e-02 -2.146009914577007294e-02 1.563163660466670990e-02
1.236404664814472198e-02 -7.249281555414199829e-02 -5.649182945489883423e-02 -2.038178220391273499e-02 -2.442360622808337212e-03 1.086551509797573090e-02 6.949064880609512329e-02 6.301697809249162674e-03 -3.691128641366958618e-02 4.194173496216535568e-03
-5.064575001597404480e-02 -2.871892414987087250e-02 1.982473395764827728e-02 4.641273990273475647e-02 3.358934819698333740e-02 6.719615310430526733e-02 -7.029996067285537720e-02 4.131085053086280823e-02 6.069286540150642395e-02 1.769971661269664764e-02
5.099140480160713196e-02 -6.400074809789657593e-02 1.819422235712409019e-03 6.159980967640876770e-02 -4.536017403006553650e-02 -6.353738158941268921e-02 -3.648625686764717102e-02 4.000850394368171692e-02 6.105344742536544800e-03 3.351084142923355103e-02
2.074818499386310577e-02 5.303050205111503601e-02 -6.559319794178009033e-02 -2.428452298045158386e-02 7.470367103815078735e-02 -6.536500155925750732e-02 6.980952620506286621e-02 6.423417478799819946e-02 7.195758819580078125e-02 -7.210872322320938110e-02
-3.794441698119044304e-03 9.606732637621462345e-04 7.563959807157516479e-02 -6.530044972896575928e-02 6.179103627800941467e-03 3.758517280220985413e-02 3.194563463330268860e-02 1.078235823661088943e-02 3.648107498884201050e-02 -4.609235003590583801e-02
2.621640264987945557e-02 -6.742375344038009644e-02 2.094164304435253143e-02 -7.491476088762283325e-02 -1.353731099516153336e-02 4.950685054063796997e-02 -3.568028286099433899e-02 5.630370602011680603e-02 5.152419582009315491e-02 6.356766819953918457e-02
3.558414429426193237e-02 -1.666159741580486298e-02 6.494699418544769287e-02 -5.864482372999191284e-02 2.511908113956451416e-02 -2.481039427220821381e-02 1.044045947492122650e-02 -7.482645660638809204e-02 6.884822994470596313e-02 -6.531332433223724365e-02
-5.764283612370491028e-02 -6.158902123570442200e-02 4.443256556987762451e-02 2.836008323356509209e-03 5.962511152029037476e-02 -2.443289570510387421e-02 6.883601844310760498e-02 3.832995519042015076e-02 -5.719620734453201294e-02 -1.710569672286510468e-02
7.502166181802749634e-02 -3.097288496792316437e-02 3.598229587078094482e-02 -2.184354700148105621e-02 5.072268098592758179e-02 4.957515001296997070e-02 2.563647367060184479e-02 2.986502600833773613e-03 1.863026060163974762e-02 -6.960062682628631592e-02
2.502526529133319855e-02 4.900941997766494751e-02 -4.465525597333908081e-02 -6.176360324025154114e-02 -6.987178325653076172e-02 -5.890120193362236023e-02 -6.030195578932762146e-02 -3.887318447232246399e-02 -2.709520794451236725e-02 2.684864960610866547e-02
6.388400495052337646e-02 3.447342291474342346e-02 -3.443741798400878906e-02 -1.353687699884176254e-02 1.058983267284929752e-03 -6.630711257457733154e-02 6.459103524684906006e-02 6.186962127685546875e-02 7.342831790447235107e-02 -3.756071999669075012e-02
-4.232760053128004074e-03 -7.381071895360946655e-02 -6.810969114303588867e-02 -4.530644789338111877e-02 2.546447096392512321e-03 5.518661811947822571e-02 1.381804421544075012e-02 5.186700820922851562e-02 -5.197075381875038147e-02 -6.424107402563095093e-02
-5.016049370169639587e-02 4.842587281018495560e-03 2.144966507330536842e-03 -2.146604657173156738e-02 -3.120960853993892670e-02 -4.545469582080841064e-02 2.258351072669029236e-02 8.683098480105400085e-03 -5.988367646932601929e-02 5.272642150521278381e-02
-6.521443277597427368e-02 -1.357044279575347900e-02 -1.987508870661258698e-02 1.315683964639902115e-02 8.891469798982143402e-03 2.613588236272335052e-03 -1.696040481328964233e-02 7.036832720041275024e-02 -3.078167513012886047e-02 -2.331724762916564941e-02
4.001505672931671143e-02 -6.892963498830795288e-02 3.541693091392517090e-02 -3.128689527511596680e-02 -7.541250437498092651e-02 7.426749914884567261e-02 7.210391759872436523e-02 6.992214918136596680e-02 -4.202108457684516907e-02 6.985759735107421875e-02
4.258764907717704773e-02 -7.352290302515029907e-02 3.590175881981849670e-02 1.704353280365467072e-02 3.988767974078655243e-03 -4.435206204652786255e-02 5.166204273700714111e-02 -7.687434554100036621e-03 5.364101380109786987e-02 2.966667897999286652e-02
7.200541347265243530e-02 -4.228121787309646606e-02 -6.937921978533267975e-03 2.735659666359424591e-02 -6.595632433891296387e-02 -1.168503146618604660e-02 -5.720379203557968140e-02 8.664453402161598206e-03 -4.609035328030586243e-02 3.583138436079025269e-02
3.074473887681961060e-02 -2.406514948233962059e-03 -7.214783225208520889e-03 -3.728548064827919006e-02 5.095767974853515625e-02 -7.166604697704315186e-02 1.762191765010356903e-02 -7.338268309831619263e-02 1.948056370019912720e-02 5.163192376494407654e-02
-5.594968795776367188e-03 7.210649549961090088e-02 3.784886002540588379e-02 -1.085941120982170105e-02 -3.449454158544540405e-02 6.254268437623977661e-02 -5.867385305464267731e-03 4.676603525876998901e-02 6.894901162013411522e-05 -8.993529714643955231e-03
-1.375453732907772064e-02 -6.726624816656112671e-02 6.165049597620964050e-02 -3.497306490316987038e-03 -3.610441088676452637e-02 -6.909253448247909546e-02 2.516238950192928314e-02 9.411170030944049358e-04 2.528573153540492058e-03 -4.458735696971416473e-03
-6.678203493356704712e-02 3.840446099638938904e-02 -5.805889144539833069e-03 -4.311313107609748840e-02 5.849112570285797119e-02 4.708985239267349243e-02 -2.949798107147216797e-02 -3.261691331863403320e-02 -7.025850564241409302e-02 -5.889688152819871902e-03
4.292392358183860779e-02 7.302431762218475342e-02 -1.001490396447479725e-03 5.011506378650665283e-02 4.783617332577705383e-03 -4.196695238351821899e-02 -7.215834408998489380e-02 -1.297533046454191208e-02 -1.022218726575374603e-02 -3.965186327695846558e-02
4.451316222548484802e-02 2.614275366067886353e-02 -6.577052921056747437e-02 -4.068419709801673889e-02 -3.057043813169002533e-02 5.113440752029418945e-02 -6.912425160408020020e-02 7.042150199413299561e-02 -2.134557627141475677e-02 -5.301694944500923157e-02
6.756922602653503418e-02 -6.520446389913558960e-03 5.153011530637741089e-02 -7.454477250576019287e-02 2.096807770431041718e-02 -6.869187206029891968e-02 4.031005129218101501e-02 2.753511257469654083e-02 3.109815763309597969e-03 6.621909886598587036e-02
-7.373390346765518188e-02 -4.490649793297052383e-03 3.974884003400802612e-02 -5.697946250438690186e-02 1.893376186490058899e-02 -5.794959142804145813e-03 1.098515372723340988e-02 -7.242494262754917145e-03 1.323540322482585907e-02 -6.108242645859718323e-02
6.912769377231597900e-02 2.897276543080806732e-02 -5.968789383769035339e-02 1.559970714151859283e-02 -5.799109581857919693e-03 -5.462535191327333450e-03 3.188861161470413208e-02 6.084610521793365479e-02 3.359276801347732544e-02 -5.001229234039783478e-03
5.146536603569984436e-02 -5.373138934373855591e-02 4.571238160133361816e-02 5.740776658058166504e-02 6.324601918458938599e-02 3.248891606926918030e-02 -3.232985734939575195e-02 -3.645209223031997681e-02 1.595371030271053314e-02 -3.882368281483650208e-02
2.809560671448707581e-02 -7.152111828327178955e-02 2.204890921711921692e-02 2.737786620855331421e-02 -3.472345322370529175e-02 -4.268245398998260498e-02 -4.091137554496526718e-03 -8.206731639802455902e-03 -3.712177649140357971e-02 2.348840422928333282e-02
-6.678353995084762573e-03 1.189032569527626038e-02 -7.583647221326828003e-02 6.244260445237159729e-02 3.117541037499904633e-02 2.945190295577049255e-02 -6.648734211921691895e-02 -3.528809174895286560e-02 7.485988736152648926e-02 5.796386301517486572e-02
2.281013689935207367e-02 4.613465443253517151e-02 2.263422124087810516e-02 -5.545385554432868958e-02 -5.549786239862442017e-02 4.014606121927499771e-03 -3.511295095086097717e-02 6.034114956855773926e-02 -7.413751631975173950e-02 2.489583194255828857e-02
-4.620254784822463989e-02 5.933748930692672729e-02 6.853064894676208496e-02 -4.651321843266487122e-02 -5.336992442607879639e-02 -5.445137247443199158e-02 4.055363684892654419e-02 -2.349620684981346130e-02 -9.778691455721855164e-03 3.209942951798439026e-02
-7.580161094665527344e-02 5.567494407296180725e-02 4.009443148970603943e-02 -3.531429916620254517e-02 -3.307592123746871948e-02 6.920712441205978394e-02 -1.908426173031330109e-03 -4.299340024590492249e-02 -1.341681834310293198e-02 5.390795413404703140e-03
2.447335608303546906e-02 -2.719762921333312988e-02 -5.566467996686697006e-03 3.266289085149765015e-02 5.861861258745193481e-02 5.624543502926826477e-02 -7.403359562158584595e-02 5.187067389488220215e-02 2.722126059234142303e-02 -4.485810548067092896e-02
7.155253738164901733e-02 -3.158755972981452942e-02 -1.285615190863609314e-02 -2.009341493248939514e-02 2.654008939862251282e-02 -2.476273663341999054e-02 -2.717051282525062561e-02 7.294977456331253052e-02 -1.949463598430156708e-02 -5.621827766299247742e-02
9.567763656377792358e-03 2.202920056879520416e-02 -6.347631663084030151e-02 5.145602300763130188e-02 4.322432726621627808e-02 -2.727827616035938263e-02 -4.094399511814117432e-03 6.584229320287704468e-02 4.618430137634277344e-02 -1.005129236727952957e-02
-6.877358257770538330e-02 1.031470578163862228e-02 4.856331273913383484e-02 -5.209373310208320618e-02 -9.752664482221007347e-04 -7.379437237977981567e-02 -3.423381969332695007e-02 2.416547760367393494e-02 -4.184616729617118835e-02 1.333560887724161148e-02
4.006390273571014404e-02 -1.753289811313152313e-02 -7.259815186262130737e-02 -8.700038306415081024e-03 1.552684139460325241e-02 7.419621199369430542e-02 4.395585134625434875e-02 5.876557156443595886e-02 1.788767171092331409e-03 5.943022668361663818e-02
4.458553344011306763e-02 4.356012865900993347e-02 2.998361736536026001e-02 -2.066616341471672058e-02 -4.162591323256492615e-02 4.430602863430976868e-02 6.282261013984680176e-02 -8.892719633877277374e-03 -3.000605618581175804e-03 -2.385940030217170715e-02
-5.220522731542587280e-02 3.067525685764849186e-04 -5.844546947628259659e-03 3.789182007312774658e-02 -7.097476162016391754e-03 6.153027340769767761e-02 -4.905528575181961060e-02 5.173714458942413330e-02 -1.603503338992595673e-02 -7.418730854988098145e-02
3.600755706429481506e-02 -6.914480030536651611e-02 2.955527976155281067e-03 -2.127328887581825256e-02 3.049227409064769745e-02 7.126285135746002197e-02 3.092380939051508904e-03 -1.850446313619613647e-02 -4.397931694984436035e-02 2.850026637315750122e-02
-5.434679612517356873e-02 6.991343945264816284e-02 2.459778077900409698e-02 4.758732393383979797e-03 -3.871298581361770630e-02 2.878955192863941193e-02 6.783273816108703613e-02 -6.994517892599105835e-02 -3.775513917207717896e-02 -1.091968640685081482e-02
-1.148749049752950668e-02 1.861588470637798309e-02 6.812703609466552734e-02 2.704244665801525116e-02 -3.755488619208335876e-02 -5.295360088348388672e-02 4.943940043449401855e-02 -4.849787056446075439e-02 7.236685603857040405e-02 2.822440303862094879e-02
7.719385903328657150e-03 -6.000877916812896729e-02 -5.808440502732992172e-03 -6.188918650150299072e-02 -2.141339145600795746e-02 -3.775257244706153870e-02 -5.627204477787017822e-02 -7.163244485855102539e-02 5.293032899498939514e-02 5.777144804596900940e-02
-1.128486078232526779e-02 -4.813299328088760376e-02 -3.568280860781669617e-02 4.419355839490890503e-02 -2.666937885805964470e-03 -4.235397279262542725e-02 -3.995149210095405579e-02 6.451447308063507080e-02 6.586798280477523804e-02 6.206721067428588867e-02
1.951102726161479950e-02 6.782680749893188477e-02 -2.479468658566474915e-02 6.210081279277801514e-02 6.180854141712188721e-02 5.803576856851577759e-02 4.059876874089241028e-02 -4.963317513465881348e-02 1.357971318066120148e-02 5.312656983733177185e-02
7.035957276821136475e-02 2.040291205048561096e-02 -2.362900599837303162e-02 7.201509177684783936e-02 2.645113877952098846e-02 -5.876360833644866943e-02 1.869548670947551727e-02 2.879238687455654144e-02 -5.685055255889892578e-02 -7.351421564817428589e-02
-5.721951648592948914e-02 1.685124263167381287e-02 -6.423294544219970703e-02 -1.499478518962860107e-02 5.976823717355728149e-02 -5.937970802187919617e-02 -6.322014331817626953e-02 -2.079656906425952911e-02 -7.155288010835647583e-02 -4.365868866443634033e-02
5.930045247077941895e-02 2.390429936349391937e-02 5.452398210763931274e-02 -3.153991699218750000e-02 1.133148465305566788e-02 -6.833370029926300049e-02 -9.456542320549488068e-03 -7.219216972589492798e-02 -2.511408179998397827e-02 6.273736804723739624e-02
4.956129565834999084e-02 5.621973052620887756e-02 -5.992022529244422913e-02 9.334739297628402710e-03 -7.062901277095079422e-03 -7.109840959310531616e-02 -6.653115898370742798e-02 -7.546139415353536606e-03 5.184492841362953186e-02 -7.034919410943984985e-02
2.398940548300743103e-02 -7.027814537286758423e-02 -3.710836172103881836e-02 1.772465929388999939e-02 4.249253869056701660e-02 1.553662819787859917e-03 2.177342027425765991e-02 -1.558349654078483582e-02 1.303880289196968079e-02 -2.145956270396709442e-02
4.501859843730926514e-02 2.619011141359806061e-02 -4.204175248742103577e-02 6.749404221773147583e-02 -1.866147853434085846e-02 3.543123975396156311e-02 5.252577736973762512e-02 -2.533919923007488251e-02 3.205509111285209656e-02 -2.859259396791458130e-02
6.722547113895416260e-02 -6.326093524694442749e-02 2.287450060248374939e-02 4.041919019073247910e-03 -6.887038052082061768e-02 -4.186196997761726379e-02 -2.213608473539352417e-02 -2.177439071238040924e-02 2.955444529652595520e-02 -2.137034200131893158e-02
7.742641493678092957e-03 2.929132245481014252e-02 -4.085624590516090393e-02 -4.766845330595970154e-02 -4.318042844533920288e-02 -5.327527970075607300e-02 -6.004421971738338470e-03 1.518521551042795181e-02 -6.200201436877250671e-02 3.812699392437934875e-02
4.960549622774124146e-02 3.545496240258216858e-02 6.349867582321166992e-02 -1.973266713321208954e-02 -3.810530528426170349e-02 9.457591222599148750e-04 -5.060704797506332397e-02 5.294710025191307068e-02 -3.827340435236692429e-03 -1.967068389058113098e-02
-7.052625715732574463e-02 -3.860305622220039368e-02 -3.149823471903800964e-02 7.158361375331878662e-02 -5.985248461365699768e-02 -4.176229611039161682e-02 2.830921113491058350e-02 -6.614261120557785034e-02 5.238592624664306641e-02 4.573898762464523315e-02
-6.681015715003013611e-03 4.425747320055961609e-02 1.161934062838554382e-02 1.886188634671270847e-03 3.710581362247467041e-02 -6.034689396619796753e-02 -4.240218177437782288e-02 4.126469790935516357e-02 -5.560323223471641541e-02 -2.444913052022457123e-02
-2.756862901151180267e-02 5.739215761423110962e-02 -6.159269809722900391e-02 -2.380488067865371704e-02 -6.711222976446151733e-02 -1.118482369929552078e-02 3.045749152079224586e-03 5.558138340711593628e-02 2.819888852536678314e-02 4.411451891064643860e-02
-7.357052713632583618e-02 3.443246707320213318e-02 -5.709233507513999939e-02 4.446930065751075745e-02 -6.812176853418350220e-02 -6.891063600778579712e-02 3.230010345578193665e-02 1.562630757689476013e-02 1.223252341151237488e-02 3.446679562330245972e-03
5.738660320639610291e-02 -6.323370337486267090e-02 4.458722472190856934e-02 -3.103327006101608276e-02 5.778028815984725952e-02 -1.063151843845844269e-02 3.205875679850578308e-02 -5.531498463824391365e-04 5.235859006643295288e-02 5.772226676344871521e-02
1.815633475780487061e-02 -4.666233435273170471e-02 -2.951836027204990387e-02 -5.432093888521194458e-02 1.186860539019107819e-02 4.327684640884399414e-03 3.754981607198715210e-02 -3.906906396150588989e-02 -4.157574847340583801e-02 5.289884749799966812e-03
1.650362089276313782e-02 -1.489695999771356583e-02 -8.197233080863952637e-03 -1.881429809145629406e-03 2.061638049781322479e-02 -5.359280854463577271e-02 -3.807877749204635620e-02 -2.398302033543586731e-02 4.231081902980804443e-02 -1.966820098459720612e-02
4.981037601828575134e-02 5.165773909538984299e-03 5.069680139422416687e-02 -2.494722791016101837e-02 3.504693508148193359e-02 6.445837765932083130e-02 -6.090509239584207535e-03 1.156180817633867264e-02 -3.672373667359352112e-02 -1.354803238064050674e-02
-1.003834418952465057e-02 -2.183716557919979095e-02 -7.198986411094665527e-02 -2.474722824990749359e-02 -1.944008655846118927e-02 -1.480359863489866257e-02 5.322717502713203430e-02 -7.114963233470916748e-02 2.846644818782806396e-02 1.299386750906705856e-02
-5.968244746327400208e-02 -4.632161930203437805e-02 -6.252363324165344238e-02 -3.724980726838111877e-02 1.195085328072309494e-02 -2.934517338871955872e-02 -3.098379448056221008e-02 6.090818345546722412e-02 4.327007383108139038e-02 -2.805484458804130554e-02
-4.914390668272972107e-02 1.560882385820150375e-02 -7.436490058898925781e-02 5.896778032183647156e-02 -4.026612266898155212e-02 -5.157719831913709641e-03 -5.315440241247415543e-03 5.997638776898384094e-02 2.983383834362030029e-03 -5.839684978127479553e-02
6.160397827625274658e-02 -5.998018663376569748e-03 -5.778482928872108459e-02 2.080389484763145447e-02 -6.872945278882980347e-02 -5.559528619050979614e-02 -8.133774623274803162e-03 -4.701432958245277405e-02 -2.911796607077121735e-02 -2.947106771171092987e-02
-4.560679662972688675e-03 -3.773577511310577393e-02 -3.259121440351009369e-03 2.094013150781393051e-03 -2.628219872713088989e-02 -6.419220566749572754e-02 6.054922565817832947e-02 -2.505739219486713409e-02 4.740748554468154907e-02 -1.753882132470607758e-02
4.712836816906929016e-02 -5.587987229228019714e-02 4.706431180238723755e-02 -5.243677645921707153e-02 3.040149994194507599e-02 2.948884852230548859e-03 -5.599576979875564575e-02 2.250056341290473938e-02 -3.348882123827934265e-02 -2.363601885735988617e-02
-4.368793219327926636e-02 2.226175740361213684e-02 7.346000522375106812e-02 -2.844065427780151367e-02 4.493006970733404160e-03 -6.330215837806463242e-03 2.426274353638291359e-03 1.195160206407308578e-02 -6.064924877136945724e-03 -8.507659076713025570e-04
-2.960219979286193848e-02 4.790666326880455017e-02 -2.923083957284688950e-03 4.073555395007133484e-02 6.068430095911026001e-02 5.532484874129295349e-02 -9.184269234538078308e-03 -3.622703254222869873e-02 5.921585485339164734e-02 -6.317146122455596924e-02
5.949959531426429749e-02 -3.624898940324783325e-02 -4.878389462828636169e-02 -5.422866716980934143e-02 -4.385189339518547058e-02 -5.191915109753608704e-02 -5.814122408628463745e-02 -1.464089006185531616e-02 -1.310386415570974350e-02 -7.384522259235382080e-02
3.095814213156700134e-02 6.130440533161163330e-02 4.695848375558853149e-02 4.341125313658267260e-04 2.771760709583759308e-02 -6.441062688827514648e-02 -6.539628654718399048e-02 4.639264568686485291e-02 -2.433834969997406006e-02 -9.078444913029670715e-03
3.011397784575819969e-03 -9.239649400115013123e-03 -7.389425486326217651e-02 -1.995031908154487610e-02 5.118488892912864685e-02 -6.386288255453109741e-02 -7.313305139541625977e-02 3.687636181712150574e-02 -5.675610527396202087e-02 -2.161226607859134674e-02
-9.198814630508422852e-03 -1.362910144962370396e-03 -4.714548215270042419e-02 -2.958775497972965240e-02 3.880323469638824463e-02 -7.181400060653686523e-02 7.057397812604904175e-02 -6.467600911855697632e-02 -4.953982308506965637e-03 -6.374193727970123291e-02
-3.503567352890968323e-02 5.981760844588279724e-02 -2.785370126366615295e-02 -4.963294416666030884e-02 -1.306186430156230927e-02 5.275744572281837463e-02 -1.726380176842212677e-02 -6.240300461649894714e-02 -4.829435795545578003e-02 6.901297718286514282e-02
1.530115399509668350e-02 -5.837655067443847656e-02 -3.727399185299873352e-02 4.902708344161510468e-03 -5.194497853517532349e-02 -1.520085986703634262e-02 -4.865779355168342590e-02 6.418519467115402222e-02 1.484239101409912109e-02 -4.307560622692108154e-02
-6.352682411670684814e-02 -3.019746020436286926e-02 -5.689547955989837646e-02 -6.389418244361877441e-02 4.007217288017272949e-02 -5.547739565372467041e-02 1.010078936815261841e-02 6.706662476062774658e-03 3.007881343364715576e-02 -5.005385354161262512e-02
-2.426072023808956146e-02 1.106911618262529373e-02 7.479692995548248291e-02 -2.780844829976558685e-02 4.958130791783332825e-02 7.238646596670150757e-02 5.062554776668548584e-02 -1.821759506128728390e-03 5.813318118453025818e-02 3.498595952987670898e-02
1.499514793977141380e-03 -2.566442638635635376e-02 -6.124500930309295654e-02 -7.240720093250274658e-02 6.790471822023391724e-02 -7.495000958442687988e-02 -7.175830006599426270e-02 -3.497399389743804932e-02 6.837904453277587891e-02 6.550130899995565414e-03
-9.173035621643066406e-03 -3.215971216559410095e-02 1.398737425915896893e-03 2.572648599743843079e-02 -2.151369117200374603e-02 -1.521213632076978683e-02 7.132246345281600952e-02 4.682645946741104126e-02 -5.518740974366664886e-03 -5.580110475420951843e-02
-4.657698795199394226e-02 3.551482781767845154e-02 -4.814913496375083923e-02 1.299591362476348877e-02 -8.964773267507553101e-03 1.190189272165298462e-02 -1.323973201215267181e-02 4.970862716436386108e-02 -3.955748304724693298e-02 9.807370603084564209e-03
2.881767973303794861e-02 -5.944776907563209534e-02 2.199580892920494080e-02 6.897951662540435791e-02 -3.211833536624908447e-02 -5.105401948094367981e-02 -2.615214511752128601e-02 -2.968798205256462097e-02 1.352721452713012695e-02 6.825473159551620483e-02
-5.072109401226043701e-02 -5.906382203102111816e-02 -6.731593608856201172e-02 5.376022774726152420e-03 5.985166411846876144e-03 -1.066807424649596214e-03 4.237806051969528198e-02 -5.183046683669090271e-02 6.281296163797378540e-02 -6.687234342098236084e-02
5.336230993270874023e-02 9.546989575028419495e-03 6.486587971448898315e-02 1.412657275795936584e-02 2.006000094115734100e-02 3.601481765508651733e-02 4.884144291281700134e-02 5.066966265439987183e-02 2.511192671954631805e-02 -7.509870082139968872e-02
-2.656572498381137848e-02 1.428276486694812775e-02 -4.777391999959945679e-02 1.432325132191181183e-02 5.449195206165313721e-02 -9.885537438094615936e-03 -3.450677264481782913e-03 1.230725925415754318e-02 2.439521253108978271e-02 -6.916048377752304077e-02
-3.548609092831611633e-02 9.583911858499050140e-03 -1.976969838142395020e-02 2.117012813687324524e-02 1.281439512968063354e-02 -7.671349681913852692e-03 5.478854477405548096e-02 -3.411777690052986145e-02 5.815710127353668213e-02 -6.289308518171310425e-02
4.282668605446815491e-02 1.787857525050640106e-02 1.781667582690715790e-02 3.403070196509361267e-02 2.910633757710456848e-02 1.136291585862636566e-02 -4.717337712645530701e-02 -4.998954012989997864e-02 5.301133915781974792e-02 5.632713809609413147e-02
-5.369802191853523254e-02 6.985442340373992920e-02 -9.943539276719093323e-03 -6.374634057283401489e-02 -9.492979384958744049e-03 7.580748200416564941e-02 6.969758868217468262e-02 3.469029441475868225e-02 5.296005681157112122e-02 2.264517731964588165e-02
-7.297017425298690796e-02 1.565674506127834320e-02 -1.899811439216136932e-02 -5.415777489542961121e-02 -5.662719160318374634e-02 5.217400193214416504e-02 1.032770983874797821e-02 -6.339819729328155518e-02 -5.956974811851978302e-03 4.861015081405639648e-02
-4.261720925569534302e-03 -4.645722731947898865e-02 -2.968436852097511292e-02 -7.127644121646881104e-02 -6.334526836872100830e-02 -5.403628945350646973e-02 -6.857182085514068604e-02 -7.130578160285949707e-02 -8.279656060039997101e-03 5.220449343323707581e-02
7.534202188253402710e-02 1.527608279138803482e-02 -1.538994256407022476e-02 -1.818986795842647552e-02 6.992684677243232727e-03 6.516657304018735886e-03 -3.455226868391036987e-02 -2.632969617843627930e-02 -4.498919472098350525e-02 4.135722294449806213e-02
-4.080976545810699463e-02 -7.387151569128036499e-02 -2.126381546258926392e-02 -1.437298115342855453e-02 -3.173788636922836304e-02 -3.056931681931018829e-02 -2.261767722666263580e-02 -2.397003956139087677e-02 -4.461288079619407654e-02 -4.058219864964485168e-02
-6.401422619819641113e-02 -5.370631441473960876e-02 3.904203185811638832e-03 -6.441388977691531181e-04 -1.205703336745500565e-02 2.032946422696113586e-02 -5.767911672592163086e-02 1.518711540848016739e-02 -5.379774421453475952e-02 -5.683984234929084778e-02
-3.915363550186157227e-02 -7.126354426145553589e-02 7.266996055841445923e-02 7.246925681829452515e-02 7.269589602947235107e-02 4.567195102572441101e-02 2.815097384154796600e-02 -3.250508755445480347e-02 7.455150783061981201e-02 1.331836171448230743e-02
6.567750871181488037e-02 -2.467771060764789581e-02 -3.315943479537963867e-02 4.904044046998023987e-02 -1.897609978914260864e-02 -6.605555862188339233e-02 7.088226079940795898e-02 6.660953164100646973e-02 -5.809785053133964539e-02 7.916083559393882751e-03
-4.567761346697807312e-02 -5.112410522997379303e-03 4.491245001554489136e-02 4.929339885711669922e-02 -1.686139032244682312e-02 -1.868974976241588593e-02 5.618084967136383057e-02 6.500766426324844360e-02 -7.811068207956850529e-04 -7.236576080322265625e-02
-4.175342246890068054e-02 -3.156179934740066528e-02 -2.241173945367336273e-02 -4.337885417044162750e-03 -3.583399578928947449e-02 5.595132708549499512e-02 -5.872345715761184692e-02 7.115645706653594971e-02 -7.515408098697662354e-02 -4.097190871834754944e-02
-3.210099786520004272e-02 3.439803421497344971e-02 -4.819175694137811661e-03 -4.649638384580612183e-02 -7.516895979642868042e-02 4.688496887683868408e-02 4.395647346973419189e-02 2.063556760549545288e-02 -2.392600476741790771e-02 -2.919161133468151093e-02
7.571923732757568359e-02 4.371687024831771851e-02 -5.828175693750381470e-02 -2.022789046168327332e-02 1.898515969514846802e-02 3.227909654378890991e-02 -4.021154344081878662e-02 -1.240490376949310303e-02 -4.318756610155105591e-02 1.413235068321228027e-02
-7.366504520177841187e-02 -2.153266966342926025e-02 -3.660364449024200439e-02 -4.810334369540214539e-02 -1.543369982391595840e-02 3.125793486833572388e-02 -1.516298111528158188e-02 -1.373688317835330963e-02 -1.136047299951314926e-02 1.220284961163997650e-02
1.888048090040683746e-02 -2.145810052752494812e-02 -8.786689490079879761e-03 -4.476010426878929138e-02 2.581325918436050415e-02 6.456353515386581421e-02 1.085832901298999786e-02 -3.991326689720153809e-02 6.491825729608535767e-02 1.647221483290195465e-02
6.219242140650749207e-02 3.433528123423457146e-03 4.825264215469360352e-02 2.043012715876102448e-02 6.596150249242782593e-02 4.442387819290161133e-02 3.686847165226936340e-02 -2.691834792494773865e-02 -4.734012857079505920e-02 -3.244275599718093872e-02
-5.159989371895790100e-02 -2.089595980942249298e-02 -2.248282171785831451e-02 -6.861862540245056152e-02 -4.348804801702499390e-02 7.166756689548492432e-02 -2.522496320307254791e-02 4.828573390841484070e-02 7.000173628330230713e-02 -5.614949041046202183e-04
6.566395610570907593e-02 -3.185267001390457153e-02 5.826888978481292725e-02 5.810869112610816956e-02 7.408496737480163574e-02 -5.957924574613571167e-02 -6.560034304857254028e-02 1.030763145536184311e-03 5.455947294831275940e-02 -2.360282279551029205e-02
-1.890063658356666565e-02 7.369727641344070435e-02 2.149642072618007660e-02 -4.341741651296615601e-02 2.351597882807254791e-02 -1.795355975627899170e-02 -5.569694936275482178e-02 -1.880084536969661713e-02 -4.443483799695968628e-02 4.475462809205055237e-02
5.393506959080696106e-02 7.561259716749191284e-02 1.192967873066663742e-02 1.862733624875545502e-02 -1.122316904366016388e-02 3.793007927015423775e-03 2.929747104644775391e-02 -1.769356057047843933e-02 3.262946382164955139e-02 3.581261262297630310e-02
2.725470252335071564e-02 -3.502108901739120483e-02 1.514136977493762970e-02 1.379694789648056030e-03 3.830179199576377869e-02 3.439129795879125595e-03 -3.090237267315387726e-02 6.549413502216339111e-02 2.069439925253391266e-02 -6.784927845001220703e-02
-4.341341555118560791e-03 5.412346869707107544e-02 5.400927364826202393e-02 -4.107202216982841492e-02 -6.894355267286300659e-02 6.432174891233444214e-02 -4.054772481322288513e-02 -2.881834283471107483e-02 6.737961620092391968e-02 4.840386658906936646e-02
2.454285044223070145e-03 1.713767461478710175e-02 -7.148478925228118896e-02 -6.672331690788269043e-02 -2.719235233962535858e-02 -1.212206948548555374e-02 1.736028119921684265e-02 4.969261214137077332e-02 -3.369487076997756958e-02 1.621569320559501648e-02
-7.179221510887145996e-02 5.293253436684608459e-02 -4.976263642311096191e-02 -2.209046483039855957e-02 -7.062381505966186523e-02 6.533292680978775024e-02 -5.239984020590782166e-02 -7.298725843429565430e-02 3.694196417927742004e-02 -7.573337107896804810e-02
-2.927456051111221313e-02 4.943836852908134460e-02 7.181289047002792358e-02 1.887491717934608459e-02 -6.485092919319868088e-03 7.617987692356109619e-02 -2.371422387659549713e-02 -3.627389669418334961e-02 -5.997592955827713013e-02 6.674311310052871704e-02
4.495254904031753540e-02 -6.090962886810302734e-02 -2.892588078975677490e-02 2.663172781467437744e-02 1.654536114074289799e-03 -6.091746687889099121e-02 3.457128256559371948e-02 -2.165314368903636932e-02 2.166068553924560547e-02 5.998994410037994385e-02
1.116854045540094376e-02 7.075596600770950317e-02 -2.811319753527641296e-02 5.520481616258621216e-02 1.601172611117362976e-02 -9.828971698880195618e-03 1.780411228537559509e-02 -3.392292931675910950e-02 4.428602010011672974e-02 -3.201613947749137878e-02
3.807601332664489746e-02 -3.037685155868530273e-02 -1.329497899860143661e-02 -5.209971219301223755e-03 -6.244456022977828979e-02 -1.841993629932403564e-02 5.687979981303215027e-02 -6.616964936256408691e-02 -2.187787927687168121e-02 -5.165635421872138977e-02
3.670679777860641479e-02 5.434484407305717468e-02 -6.120035424828529358e-02 -3.491046652197837830e-02 -2.791650127619504929e-03 3.054535016417503357e-02 -5.001545324921607971e-02 7.593588531017303467e-02 -7.482130825519561768e-02 1.360684074461460114e-02
3.533459082245826721e-02 2.588585577905178070e-02 5.309985950589179993e-02 -4.320626705884933472e-02 1.315926481038331985e-02 -5.175284296274185181e-02 -6.931140273809432983e-02 8.341889828443527222e-03 4.410845413804054260e-02 9.910114109516143799e-03
3.327490761876106262e-02 -6.767825782299041748e-02 6.965226680040359497e-02 2.675311453640460968e-02 4.036810994148254395e-02 -5.827817693352699280e-02 -5.516790226101875305e-02 -4.530280083417892456e-02 -3.529306501150131226e-02 -5.586834624409675598e-02
-2.790989913046360016e-02 -1.929893158376216888e-02 -1.060915831476449966e-02 -7.004294544458389282e-02 5.004624649882316589e-02 -1.367789600044488907e-02 -1.500205788761377335e-02 -2.674044668674468994e-02 -2.535934746265411377e-02 -7.092067599296569824e-02
-3.194132447242736816e-02 1.070732064545154572e-02 1.498816162347793579e-02 -3.043085802346467972e-03 -5.413197353482246399e-02 -5.539336800575256348e-02 1.557024102658033371e-02 -3.315447270870208740e-02 -7.102590799331665039e-02 5.686555523425340652e-03
4.784064367413520813e-02 -1.479903329163789749e-02 1.110887154936790466e-02 -3.746108710765838623e-02 -5.691333487629890442e-02 -8.940362371504306793e-03 2.078830823302268982e-02 4.228345677256584167e-02 -2.034165151417255402e-02 5.357706174254417419e-02
7.266199588775634766e-02 6.662153452634811401e-02 -2.466508373618125916e-02 3.442889079451560974e-02 7.605800032615661621e-02 7.348804920911788940e-02 4.531985905487090349e-04 5.490560829639434814e-02 -4.604746773838996887e-02 9.638224728405475616e-03
5.922330915927886963e-02 6.694740802049636841e-02 -2.462419867515563965e-02 -1.778240501880645752e-02 -6.219186633825302124e-02 -1.225118030561134219e-04 -2.549033239483833313e-02 -3.207636997103691101e-02 -5.523809045553207397e-02 -6.688323628623038530e-05
-6.444305181503295898e-02 4.699436482042074203e-03 -7.250266522169113159e-02 -6.286001205444335938e-02 -3.772610425949096680e-02 6.601808965206146240e-02 4.179942235350608826e-02 7.411938160657882690e-02 4.807482287287712097e-02 -1.169406343251466751e-02
5.658135283738374710e-03 -7.291337847709655762e-02 -5.245533958077430725e-02 -1.296860724687576294e-02 5.725105851888656616e-02 -3.242508322000503540e-02 4.118315503001213074e-02 5.880231410264968872e-02 -2.538869716227054596e-02 2.585255913436412811e-02
2.064916864037513733e-02 6.955727934837341309e-02 2.015376836061477661e-02 -1.729735359549522400e-02 -6.576516479253768921e-02 -3.167527914047241211e-02 6.174626946449279785e-02 -2.102383784949779510e-02 -2.502079308032989502e-02 -3.042460232973098755e-02
-5.271592736244201660e-02 8.568597957491874695e-03 3.915126994252204895e-02 1.607562787830829620e-02 -5.368007719516754150e-02 -7.415761053562164307e-02 3.566457703709602356e-02 4.747993126511573792e-02 -3.832320123910903931e-02 -6.669877469539642334e-02
1.248748973011970520e-02 -3.938690945506095886e-02 -3.045403771102428436e-02 -6.061415746808052063e-02 1.769446767866611481e-02 -5.000806227326393127e-02 7.525727618485689163e-03 2.779453247785568237e-02 -5.931356921792030334e-02 -9.604476392269134521e-03
5.988955125212669373e-02 -1.259049167856574059e-03 -3.715953230857849121e-02 -5.556114017963409424e-02 3.887890279293060303e-02 2.122778259217739105e-02 -3.407449647784233093e-02 6.053283065557479858e-02 6.221942976117134094e-02 -6.249371170997619629e-02
-6.793912500143051147e-02 -4.478511586785316467e-02 -4.608235135674476624e-02 4.493902251124382019e-02 -3.903959691524505615e-02 3.591016680002212524e-02 4.964853823184967041e-02 2.845625020563602448e-02 3.835656121373176575e-02 7.517004013061523438e-02
-5.375829339027404785e-02 5.570539459586143494e-02 2.771393768489360809e-02 -6.589122861623764038e-02 -5.385354906320571899e-02 3.082176670432090759e-02 -4.064214229583740234e-02 9.217030368745326996e-03 2.316364087164402008e-02 1.365088857710361481e-02
-1.705852150917053223e-02 -6.590791791677474976e-02 4.730326309800148010e-02 6.709899753332138062e-02 5.032552406191825867e-02 5.223744735121726990e-02 -2.204651013016700745e-02 -2.546963840723037720e-02 -4.152213037014007568e-02 -4.672454670071601868e-03
-6.196263059973716736e-02 -2.351089753210544586e-02 -6.600300967693328857e-02 1.811679452657699585e-02 -1.424009259790182114e-02 -9.367808699607849121e-03 -3.507233038544654846e-02 -5.792339891195297241e-02 3.099266253411769867e-02 6.693010777235031128e-02
-1.266343798488378525e-02 -5.299563705921173096e-02 -2.897400781512260437e-02 -6.833189725875854492e-02 3.957135602831840515e-02 -7.606597989797592163e-02 6.111617013812065125e-02 -1.647872477769851685e-02 5.890754982829093933e-02 4.057738557457923889e-02
-4.604750126600265503e-02 8.495150133967399597e-03 3.144064173102378845e-02 7.431622594594955444e-02 -6.979723274707794189e-02 2.300073625519871712e-03 6.154142692685127258e-02 -2.617255784571170807e-02 -1.604046486318111420e-02 -1.637443341314792633e-02
6.056418269872665405e-02 4.966940730810165405e-03 5.936867371201515198e-02 -4.370723851025104523e-03 4.764457792043685913e-02 -2.061075763776898384e-03 7.455211598426103592e-04 -3.792601451277732849e-02 -4.070907086133956909e-02 -4.589477903209626675e-04
-4.437884315848350525e-02 -7.218328863382339478e-02 -6.467325985431671143e-02 2.004274725914001465e-02 -3.712582215666770935e-02 -2.031597495079040527e-02 1.866211742162704468e-02 5.235099792480468750e-02 2.372355759143829346e-02 -2.731950953602790833e-02
2.938558720052242279e-02 4.683507233858108521e-02 3.498087823390960693e-02 -2.305714227259159088e-02 1.722931116819381714e-02 4.062723740935325623e-02 -3.908822685480117798e-02 -1.303378958255052567e-02 -2.041905187070369720e-02 5.662934854626655579e-02
5.649825185537338257e-02 -4.246168583631515503e-02 1.725675724446773529e-02 -2.650130353868007660e-02 5.441872030496597290e-02 -7.387586683034896851e-02 5.055685713887214661e-02 -4.751608520746231079e-02 3.010981529951095581e-02 7.512140274047851562e-02
-6.677959859371185303e-02 6.491838395595550537e-02 1.995091699063777924e-02 -5.221337825059890747e-02 5.742626637220382690e-02 -3.723119571805000305e-02 -4.234801232814788818e-02 3.796640411019325256e-02 4.003954306244850159e-02 5.407764110714197159e-03
1.149486284703016281e-02 -3.975428640842437744e-02 -1.714667864143848419e-02 7.071190327405929565e-02 -5.944250896573066711e-02 -2.272530226036906242e-03 -1.448518503457307816e-02 -3.856364265084266663e-02 -4.914654418826103210e-02 -1.432299427688121796e-02
-4.161311686038970947e-02 -3.139767423272132874e-02 -4.725106805562973022e-02 -1.002055592834949493e-02 -7.163079082965850830e-02 1.532130409032106400e-02 3.585813567042350769e-02 -1.730425574351102114e-04 2.956366911530494690e-02 6.536562740802764893e-02
-7.416506856679916382e-02 5.003481730818748474e-02 -5.329761281609535217e-02 1.439112983644008636e-02 -2.424656413495540619e-02 1.154943462461233139e-02 -5.167031288146972656e-02 -6.572515517473220825e-02 -3.366062417626380920e-02 4.286234453320503235e-02
7.109679281711578369e-02 -5.159160122275352478e-02 -2.483252622187137604e-02 -7.517718523740768433e-02 -5.596126616001129150e-02 5.701525136828422546e-02 6.586487591266632080e-02 3.276160359382629395e-02 -5.569904670119285583e-02 -3.134779632091522217e-02
-2.955934219062328339e-02 -5.045054480433464050e-02 2.050724066793918610e-02 -1.344162691384553909e-02 -1.783496700227260590e-04 5.599442403763532639e-03 2.598758600652217865e-02 3.738075029104948044e-03 7.414413988590240479e-02 1.040031667798757553e-03
7.244405895471572876e-02 4.760711744893342257e-04 -4.458408802747726440e-03 -4.747103899717330933e-02 4.340670257806777954e-02 3.056681714951992035e-02 7.620157673954963684e-03 3.366759791970252991e-02 -5.759223923087120056e-02 -6.461703032255172729e-02
-1.775282435119152069e-02 -5.276224017143249512e-02 -3.121520206332206726e-02 -1.552480831742286682e-02 9.331965819001197815e-03 2.614480070769786835e-02 -3.545444458723068237e-02 2.363772690296173096e-02 7.317703217267990112e-02 3.821546956896781921e-02
-7.370853424072265625e-02 -3.786552324891090393e-02 3.394394367933273315e-02 3.599450364708900452e-02 -4.676647484302520752e-02 -1.936981640756130219e-02 -1.673293672502040863e-02 -2.972083166241645813e-02 -2.864878997206687927e-02 2.067876793444156647e-02
-1.402535103261470795e-02 7.169946283102035522e-02 6.163847073912620544e-02 -7.432518899440765381e-02 -4.835443943738937378e-02 -3.842245787382125854e-02 -7.483196258544921875e-02 -6.008204072713851929e-03 6.657110899686813354e-02 7.564897183328866959e-03
6.556165963411331177e-02 2.666041487827897072e-03 -6.132803112268447876e-02 2.365406788885593414e-02 -5.588534846901893616e-02 -1.185790356248617172e-02 -6.978000700473785400e-02 4.550334066152572632e-02 -7.323923707008361816e-02 6.459374725818634033e-02
-5.077272281050682068e-02 1.970635727047920227e-03 -2.825135923922061920e-02 5.061302334070205688e-02 -3.391290782019495964e-03 -1.444946043193340302e-02 -2.795176021754741669e-02 -5.232593044638633728e-02 6.516297906637191772e-02 -3.747539594769477844e-02
-2.166653610765933990e-02 -4.001397639513015747e-02 -2.617847360670566559e-02 4.933486226946115494e-03 -3.093634732067584991e-02 -3.632587566971778870e-02 5.909280851483345032e-02 5.442776530981063843e-02 -3.279923461377620697e-03 5.908536538481712341e-02
2.850734442472457886e-02 1.359307090751826763e-03 7.065907120704650879e-02 -3.680028393864631653e-02 2.136723324656486511e-02 6.954005360603332520e-02 -2.953983284533023834e-02 5.918286740779876709e-02 -4.803827404975891113e-02 1.380732282996177673e-02
-5.924506857991218567e-02 3.050624579191207886e-02 -6.122938171029090881e-02 -2.651516115292906761e-03 4.279714485164731741e-04 -4.017251078039407730e-03 -6.115425005555152893e-02 -1.668779551982879639e-02 -2.376974746584892273e-02 -3.541061282157897949e-02
-1.543466094881296158e-02 -6.803185492753982544e-02 -3.681406378746032715e-02 -1.203749608248472214e-02 6.308015901595354080e-03 -4.736974462866783142e-02 -7.325558364391326904e-02 -3.267253935337066650e-02 -2.044012211263179779e-02 5.838910490274429321e-02
3.750707209110260010e-02 -3.743890672922134399e-02 4.442221671342849731e-02 -7.413294166326522827e-02 -9.827946312725543976e-03 -8.002668619155883789e-03 2.317545004189014435e-02 -3.936995565891265869e-02 -2.050278708338737488e-02 -4.803725704550743103e-02
-5.518778041005134583e-02 -8.055471815168857574e-03 5.631026998162269592e-02 -7.430755347013473511e-02 -2.205128967761993408e-02 5.356933176517486572e-02 3.004374727606773376e-02 5.496488884091377258e-02 -4.538130015134811401e-02 7.538653910160064697e-02
4.048977419734001160e-02 -1.105998549610376358e-02 -3.976455330848693848e-02 4.731022939085960388e-02 -1.059354282915592194e-02 6.091437116265296936e-02 -5.906252935528755188e-02 -5.881046503782272339e-02 3.024116531014442444e-02 -5.899753421545028687e-02
-4.834111407399177551e-02 3.844449296593666077e-02 2.046436816453933716e-02 -2.087892964482307434e-02 -4.913797974586486816e-02 -7.001784443855285645e-02 -6.537762936204671860e-03 7.478171959519386292e-03 -1.484389416873455048e-02 -3.026861324906349182e-02
4.497943818569183350e-02 -7.044870406389236450e-02 -3.462062776088714600e-02 -6.943154335021972656e-02 -4.181025177240371704e-02 6.938050687313079834e-02 -5.636035650968551636e-02 -5.397823452949523926e-02 1.811635866761207581e-02 -4.383144155144691467e-02
5.005771666765213013e-02 1.080070063471794128e-02 2.315156534314155579e-02 3.526182472705841064e-02 -1.747022010385990143e-02 -5.822535138577222824e-03 -4.897958040237426758e-02 -5.496827512979507446e-02 4.784357547760009766e-02 -6.498406082391738892e-02
-6.760922074317932129e-02 2.016650140285491943e-02 -3.001654753461480141e-03 -3.642912954092025757e-02 -6.893590092658996582e-02 -8.296946063637733459e-03 4.419983830302953720e-03 3.186056762933731079e-02 -2.715745568275451660e-02 7.408510148525238037e-02
3.014154732227325439e-02 -5.362048000097274780e-02 -7.420531660318374634e-02 -3.641360090114176273e-04 -5.995753034949302673e-02 1.265400554984807968e-02 -6.846222281455993652e-02 -5.318548530340194702e-02 -4.329757019877433777e-02 1.580942608416080475e-02
2.956141158938407898e-02 2.758265100419521332e-02 3.309789299964904785e-02 1.396287884563207626e-02 9.135468862950801849e-03 -6.140610948204994202e-02 -3.051668964326381683e-02 1.936118933372199535e-03 7.228491455316543579e-02 6.188391521573066711e-02
6.376570463180541992e-02 -1.089915912598371506e-02 6.130862608551979065e-02 -5.823985114693641663e-02 5.889729410409927368e-02 2.779167145490646362e-02 -3.583392128348350525e-03 -4.083971306681632996e-02 -1.992996409535408020e-02 3.413888916838914156e-04
3.253189846873283386e-02 7.414616644382476807e-02 6.649138778448104858e-02 -3.189258975908160210e-03 1.801082864403724670e-02 -6.223930045962333679e-02 -1.352519169449806213e-02 -7.357449829578399658e-02 -3.277562558650970459e-03 5.505799502134323120e-02
-5.477060005068778992e-02 -6.657246500253677368e-02 4.867914319038391113e-02 5.511378869414329529e-02 4.945441335439682007e-02 -5.490580946207046509e-02 1.264924462884664536e-02 -2.238437160849571228e-02 4.489361122250556946e-02 -6.790544092655181885e-02
-6.049671024084091187e-02 2.425034530460834503e-02 -3.512397035956382751e-02 5.794474855065345764e-02 -6.176817417144775391e-02 4.731548950076103210e-02 3.758207336068153381e-02 -3.706749528646469116e-02 -3.985770419239997864e-02 -3.232087707147002220e-03
4.279651120305061340e-02 1.602129451930522919e-02 -7.524471729993820190e-02 -6.999003142118453979e-02 -1.322030555456876755e-02 8.740926161408424377e-03 -2.582496963441371918e-02 2.480863034725189209e-02 4.552523791790008545e-02 -7.212496548891067505e-02
-8.122604340314865112e-03 -6.340699642896652222e-02 -2.778672613203525543e-02 -6.495354324579238892e-02 -7.072270661592483521e-02 -4.211217164993286133e-02 -5.252560600638389587e-02 -2.959231473505496979e-02 -3.072563000023365021e-02 -3.803016990423202515e-02
-7.235037535429000854e-02 4.133971780538558960e-02 4.287989065051078796e-02 -6.492954492568969727e-02 7.417654246091842651e-02 4.682031273841857910e-02 2.681873971596360207e-03 2.730118669569492340e-02 -4.340437427163124084e-02 -6.203978508710861206e-02
-6.683580577373504639e-02 -6.396498531103134155e-02 -6.554231792688369751e-02 -2.220205776393413544e-02 -6.563033908605575562e-02 -3.118070773780345917e-02 5.383097007870674133e-02 -6.349033117294311523e-02 -5.844812467694282532e-02 4.042638093233108521e-02
7.198937237262725830e-03 4.575081169605255127e-03 -2.356685698032379150e-02 -5.141561478376388550e-02 -2.037645131349563599e-02 -5.156568437814712524e-02 3.282094746828079224e-02 4.758570343255996704e-02 -3.196413442492485046e-02 4.509270936250686646e-02
6.575142592191696167e-02 -1.025211252272129059e-02 6.955315917730331421e-02 -3.211952745914459229e-02 1.445113215595483780e-02 5.986846610903739929e-02 -4.820781573653221130e-02 2.028485946357250214e-02 5.466403067111968994e-02 3.387312218546867371e-02
1.987991388887166977e-03 3.872878104448318481e-02 -2.793223224580287933e-02 1.012074761092662811e-02 3.335494175553321838e-02 -3.762416169047355652e-02 -5.137900635600090027e-02 1.394469663500785828e-02 -6.841416656970977783e-02 -7.100987434387207031e-02
1.781933382153511047e-02 -4.976341500878334045e-02 -2.510619722306728363e-02 -5.524543300271034241e-02 -1.134144421666860580e-02 -2.915302477777004242e-02 -6.915213074535131454e-03 -7.375269383192062378e-02 3.053015796467661858e-03 -7.281739264726638794e-02
-3.553313761949539185e-02 7.923847064375877380e-03 -3.611346334218978882e-02 2.559360489249229431e-02 3.235716745257377625e-02 1.161934807896614075e-02 4.410842806100845337e-02 2.218216843903064728e-02 2.797080576419830322e-02 -3.448826819658279419e-02
-3.447863832116127014e-02 -1.289936620742082596e-02 -6.982865743339061737e-03 2.028840035200119019e-02 3.271209541708230972e-03 1.007862202823162079e-02 5.365470051765441895e-02 -6.715054810047149658e-02 -1.801136322319507599e-02 7.131321728229522705e-02
4.004399850964546204e-02 -1.875331252813339233e-02 -2.838264405727386475e-02 7.283984217792749405e-03 2.491352334618568420e-02 -4.605327732861042023e-03 5.464127659797668457e-02 -1.789374835789203644e-02 1.975090615451335907e-02 -6.165589392185211182e-02
-3.681667521595954895e-02 -2.390549890697002411e-02 7.280575484037399292e-02 4.983692988753318787e-02 -1.226011104881763458e-02 5.636533023789525032e-04 -3.113533370196819305e-02 1.754290424287319183e-02 -5.934325978159904480e-02 -2.021460607647895813e-02
-6.119702011346817017e-02 6.507751345634460449e-02 7.438772171735763550e-02 -6.719623506069183350e-02 -5.293372087180614471e-03 2.605978772044181824e-02 -7.002283632755279541e-02 4.682032018899917603e-02 -5.802262201905250549e-02 -1.489237602800130844e-02
-6.713820993900299072e-02 -3.168740123510360718e-02 2.862701937556266785e-02 -3.477640450000762939e-02 6.131223216652870178e-02 -4.024334996938705444e-02 -1.958184316754341125e-02 -7.547142356634140015e-02 5.773036554455757141e-02 6.742546707391738892e-02
-1.993517624214291573e-03 -1.031709648668766022e-02 -6.077767908573150635e-02 -1.838610507547855377e-02 6.337963044643402100e-02 1.676157861948013306e-02 5.857452005147933960e-02 3.682896867394447327e-02 -6.599132716655731201e-02 5.203124508261680603e-02
-5.260174721479415894e-02 -4.085228219628334045e-02 2.381400950253009796e-02 -6.704906374216079712e-02 1.546606607735157013e-02 1.752935536205768585e-02 6.139255315065383911e-02 5.741509050130844116e-02 9.349573403596878052e-03 -6.093878764659166336e-03
-2.130455709993839264e-02 -6.510521471500396729e-02 -3.381035849452018738e-02 -3.073887899518013000e-03 4.206451028585433960e-02 -6.617828458547592163e-02 -3.217171411961317062e-03 -3.233981132507324219e-02 2.439918555319309235e-02 7.126595824956893921e-02
2.605289593338966370e-02 -5.486994236707687378e-02 -7.354943454265594482e-02 -5.230556800961494446e-02 -2.985734678804874420e-02 3.526213392615318298e-02 2.686275355517864227e-02 6.730882078409194946e-02 8.764030411839485168e-03 7.555309683084487915e-02
1.817884296178817749e-02 -2.669755741953849792e-02 7.212968170642852783e-02 -2.210554433986544609e-03 2.958774752914905548e-02 -3.907734528183937073e-02 3.327417746186256409e-02 2.052687294781208038e-02 5.578215792775154114e-02 7.300785928964614868e-02
-3.499824181199073792e-02 -4.061546176671981812e-02 3.810313716530799866e-02 6.242034491151571274e-03 7.069733738899230957e-02 1.360885612666606903e-02 -4.489503055810928345e-02 -3.660281747579574585e-02 4.017711151391267776e-03 6.177817285060882568e-02
-3.176763653755187988e-02 -3.200691426172852516e-03 -5.444479361176490784e-02 5.154685303568840027e-02 -7.464509108103811741e-04 8.622282184660434723e-03 4.559218650683760643e-04 6.319572031497955322e-02 -4.844331741333007812e-02 -3.872065991163253784e-02
-6.126540154218673706e-02 4.361908417195081711e-03 3.589799255132675171e-02 6.211074441671371460e-02 7.300804555416107178e-02 4.355946555733680725e-02 -6.418492645025253296e-02 4.561210796236991882e-02 -6.233364343643188477e-02 3.109611570835113525e-02
-3.835354745388031006e-02 -6.067773327231407166e-02 -8.708973415195941925e-03 -1.260430738329887390e-02 -6.409345567226409912e-02 -7.205709069967269897e-02 -1.226497348397970200e-02 7.452949881553649902e-02 -5.271114036440849304e-02 -4.869478568434715271e-02
-8.687734603881835938e-03 1.542502897791564465e-03 7.189364638179540634e-03 6.495656073093414307e-02 -7.321317493915557861e-02 -5.461819469928741455e-02 4.255474358797073364e-02 -7.249826937913894653e-02 1.902908645570278168e-02 8.406029082834720612e-03
6.396598368883132935e-02 5.833995342254638672e-02 4.789253696799278259e-02 6.167328730225563049e-02 -6.996838003396987915e-02 -3.036153875291347504e-02 2.724641747772693634e-02 2.282399684190750122e-02 -7.491460442543029785e-02 2.749282121658325195e-02
1.483238488435745239e-02 -1.016413420438766479e-02 -5.452485010027885437e-02 3.107409551739692688e-02 7.321952283382415771e-02 -7.565068453550338745e-02 -7.224181294441223145e-02 -2.660934254527091980e-02 6.493184715509414673e-02 -5.429923906922340393e-02
-6.720691174268722534e-02 -9.936846792697906494e-03 2.470029518008232117e-02 5.096656084060668945e-02 -7.608051598072052002e-02 -5.931936949491500854e-02 -2.319307997822761536e-02 -3.345128893852233887e-02 5.830578878521919250e-02 -2.874965406954288483e-02
7.475288212299346924e-02 -4.706363659352064133e-03 6.960995495319366455e-02 -5.604484677314758301e-02 -4.962468892335891724e-02 -6.352861225605010986e-02 -2.904832176864147186e-02 -1.226477138698101044e-02 -3.635487332940101624e-02 -3.321891650557518005e-02
1.625934615731239319e-02 6.910262256860733032e-02 3.951610997319221497e-02 1.311222463846206665e-02 -7.325601577758789062e-02 3.037259727716445923e-02 -8.100861683487892151e-03 1.936980523169040680e-02 -1.411813404411077499e-02 -1.732211560010910034e-02
6.710822880268096924e-02 3.965993970632553101e-02 3.894345462322235107e-02 -2.664682269096374512e-02 -2.705203741788864136e-02 -2.414986491203308105e-02 7.129175937734544277e-04 -2.959182299673557281e-02 7.490845769643783569e-02 -2.582388557493686676e-02
5.572164058685302734e-02 6.039537861943244934e-02 5.221936479210853577e-02 6.210975348949432373e-02 4.135024547576904297e-02 2.663517184555530548e-02 -7.360549271106719971e-02 -3.400467708706855774e-02 -2.447005361318588257e-02 -3.799165785312652588e-02
4.276255145668983459e-02 -3.635120391845703125e-02 -1.755588501691818237e-02 5.505546182394027710e-02 1.047632377594709396e-02 -4.381871595978736877e-02 -5.734134092926979065e-02 5.001313239336013794e-02 -1.346555165946483612e-02 3.659842908382415771e-02
6.259190291166305542e-02 -2.561995387077331543e-02 4.244895279407501221e-02 6.091902032494544983e-04 4.088160395622253418e-02 -4.304545372724533081e-02 4.950403422117233276e-02 -1.826575584709644318e-02 3.381640091538429260e-02 3.503312915563583374e-02
-4.302282631397247314e-02 3.229136019945144653e-02 -5.584697239100933075e-03 2.343615749850869179e-03 7.928051636554300785e-04 5.546509847044944763e-02 7.446265220642089844e-02 -3.883739188313484192e-02 6.404496729373931885e-02 5.673499405384063721e-02
-2.948786132037639618e-02 1.054527051746845245e-02 -7.283083349466323853e-02 -1.108857803046703339e-02 1.514792162925004959e-02 -1.409678254276514053e-02 -3.730839118361473083e-02 -8.795272558927536011e-03 -7.338938862085342407e-02 -4.131601005792617798e-02
2.095482684671878815e-02 1.769002899527549744e-02 -6.767372786998748779e-02 1.604675501585006714e-02 -2.738381270319223404e-03 5.186733230948448181e-02 -1.518094819039106369e-02 6.729864329099655151e-02 -1.650430820882320404e-02 1.930255256593227386e-02
-2.512380294501781464e-02 -6.811144948005676270e-02 7.577604614198207855e-03 -2.232515998184680939e-02 6.609024107456207275e-02 3.466979786753654480e-02 -2.844460494816303253e-02 -6.837549805641174316e-02 -3.303077816963195801e-02 5.027307197451591492e-02
2.285466715693473816e-02 2.194477804005146027e-02 -6.563957314938306808e-03 5.024137347936630249e-02 2.375785261392593384e-02 -5.548366159200668335e-02 -1.205023005604743958e-02 -1.935071311891078949e-03 4.047673940658569336e-02 -5.587127059698104858e-02
5.721323657780885696e-03 -6.959340721368789673e-02 1.355004683136940002e-02 -4.643158987164497375e-02 -1.049185451120138168e-02 1.440595556050539017e-02 2.835838496685028076e-02 6.704467535018920898e-02 6.764582544565200806e-02 3.367854515090584755e-03
-2.457959949970245361e-02 2.170742861926555634e-02 -3.679637610912322998e-02 -6.594198197126388550e-02 3.816431388258934021e-02 -3.772676363587379456e-02 -3.239101544022560120e-02 -4.179988056421279907e-02 -3.686605021357536316e-02 2.189048938453197479e-02
4.355280473828315735e-02 4.480308294296264648e-02 -4.593350365757942200e-02 -2.995009301230311394e-03 -5.910314619541168213e-02 2.916476316750049591e-02 1.382028497755527496e-02 4.307609423995018005e-02 -5.514075979590415955e-02 5.659224838018417358e-02
7.366229593753814697e-02 6.107912957668304443e-02 2.927572093904018402e-02 -6.062966585159301758e-02 -5.220124870538711548e-02 2.499744668602943420e-02 1.005618181079626083e-02 -3.092433139681816101e-02 7.780244108289480209e-03 6.064525619149208069e-02
-3.719422966241836548e-02 1.946150138974189758e-02 1.829129271209239960e-02 -4.029997065663337708e-02 -5.453539267182350159e-02 4.012655932456254959e-03 2.428054437041282654e-02 -3.421439975500106812e-02 4.478595033288002014e-02 -5.091707222163677216e-03
-3.732043132185935974e-02 -5.021578073501586914e-02 5.827614665031433105e-02 2.752291620709002018e-04 3.191324323415756226e-02 3.171550109982490540e-02 -2.142475545406341553e-02 -5.956069566309452057e-03 -7.609060406684875488e-02 5.477868393063545227e-02
-5.971546098589897156e-02 -3.254655748605728149e-02 2.468659169971942902e-02 2.868543565273284912e-02 -6.064382195472717285e-02 7.486935704946517944e-02 -3.890561312437057495e-02 -5.021157115697860718e-02 -4.377498105168342590e-02 3.051332756876945496e-02
-3.618976846337318420e-02 2.223827689886093140e-02 -7.035332173109054565e-02 -5.354578793048858643e-02 -2.137517370283603668e-02 -7.733064121566712856e-04 2.088106051087379456e-02 3.472752124071121216e-02 -9.189940057694911957e-03 1.264776010066270828e-02
-7.556624710559844971e-02 6.545574218034744263e-02 2.210509730502963066e-03 2.238348685204982758e-02 -5.093605071306228638e-02 -3.244906896725296974e-03 -1.766123995184898376e-02 -5.061808228492736816e-02 -3.246736899018287659e-02 -5.554889515042304993e-02
-5.001741647720336914e-02 6.632215529680252075e-02 5.351930856704711914e-02 6.964915990829467773e-02 -3.788937628269195557e-02 -5.891667678952217102e-03 -5.764207337051630020e-03 -7.537803798913955688e-02 -5.589524284005165100e-02 -6.301731616258621216e-02
3.259751573204994202e-02 2.881059236824512482e-02 1.131185051053762436e-02 5.478821694850921631e-02 -5.506443977355957031e-02 -6.086253374814987183e-02 -5.965233594179153442e-02 -5.324391648173332214e-02 -6.443239003419876099e-02 -6.993628293275833130e-02
6.622853130102157593e-02 1.231022272258996964e-02 -7.034505158662796021e-02 5.094138905405998230e-02 -3.176781535148620605e-02 -3.251881897449493408e-02 5.081144347786903381e-02 -3.077148087322711945e-02 -2.375936321914196014e-02 -3.148136660456657410e-02
1.779943704605102539e-02 -5.812141671776771545e-02 -1.018164958804845810e-02 2.859684266149997711e-02 4.487471655011177063e-02 1.128096226602792740e-02 4.863711446523666382e-02 1.033769734203815460e-02 2.580158971250057220e-02 5.502333398908376694e-03
6.210374459624290466e-02 3.713132441043853760e-02 2.950415201485157013e-02 1.858204416930675507e-02 -5.332703515887260437e-02 4.847641661763191223e-02 -3.956808522343635559e-02 -6.851787865161895752e-02 -2.675371617078781128e-02 -4.956405237317085266e-02
-1.571462489664554596e-02 -8.156994357705116272e-03 -2.516051754355430603e-02 -9.441178292036056519e-03 -6.129082292318344116e-02 3.323169797658920288e-02 -3.974136337637901306e-02 3.341991826891899109e-02 4.173827357590198517e-03 -3.023485466837882996e-02
2.371690794825553894e-02 -2.256533876061439514e-02 -6.270328909158706665e-02 6.789385341107845306e-03 -4.245417937636375427e-02 7.225795835256576538e-02 6.007856503129005432e-02 -2.429302036762237549e-02 -3.015129268169403076e-02 -6.439267843961715698e-02
6.840102374553680420e-02 -6.316121667623519897e-02 -6.273519992828369141e-02 -3.118483722209930420e-02 -5.810515582561492920e-02 -5.657685920596122742e-02 -5.139852687716484070e-02 -3.736251592636108398e-02 4.041224345564842224e-02 -3.431625664234161377e-02
2.629848569631576538e-02 -3.125403448939323425e-02 5.371624720282852650e-04 6.998953223228454590e-02 -4.872196167707443237e-02 -2.561486093327403069e-03 -6.449842453002929688e-02 -3.888671100139617920e-02 6.500226259231567383e-02 1.539970934391021729e-02
