1.577385887503623962e-02 2.648681169375777245e-03 7.445994764566421509e-02 8.869560062885284424e-02 7.075452804565429688e-02 -1.333819702267646790e-02 -3.618279471993446350e-02 5.471343919634819031e-02 -5.574759468436241150e-02 9.296966344118118286e-02 5.079147964715957642e-02 7.382085919380187988e-02 -2.970730327069759369e-02 6.100467965006828308e-02 7.352201640605926514e-02 -9.141570888459682465e-03 -1.170238945633172989e-03 -4.971569031476974487e-02 -5.240024998784065247e-02 -7.520543783903121948e-02 -1.347032468765974045e-02 6.595621258020401001e-02 -5.559249967336654663e-02 -5.817053094506263733e-02 4.685336723923683167e-02 5.265022162348031998e-03 8.560963720083236694e-02 -8.095683157444000244e-02 -1.193412207067012787e-02 5.399918928742408752e-02 5.996320024132728577e-02 1.415342651307582855e-02
4.062500968575477600e-02 -4.369333758950233459e-02 -1.005348470062017441e-02 4.479701817035675049e-02 6.037093326449394226e-02 -2.466034516692161560e-02 4.247801005840301514e-02 6.240876391530036926e-03 -3.599633648991584778e-02 9.107931703329086304e-02 5.732264369726181030e-02 -3.436708450317382812e-02 -6.520003080368041992e-02 2.831280464306473732e-03 4.594139382243156433e-02 -2.765500918030738831e-02 5.705542489886283875e-02 3.508779779076576233e-02 -2.845071814954280853e-02 4.289622977375984192e-02 7.349926233291625977e-02 2.354664541780948639e-02 7.585991173982620239e-02 5.894156545400619507e-02 4.859911277890205383e-02 -6.550166010856628418e-02 1.696188189089298248e-02 5.425246432423591614e-02 2.542923763394355774e-02 8.808664977550506592e-02 -6.766191124916076660e-02 1.202420680783689022e-03
7.939308881759643555e-03 4.644279181957244873e-02 5.902989953756332397e-02 -6.868312507867813110e-02 7.528656162321567535e-03 1.579085923731327057e-02 -8.163578063249588013e-02 7.799664512276649475e-03 -7.486888021230697632e-02 -2.062937803566455841e-02 -7.583253085613250732e-02 6.392262876033782959e-02 -1.746640726923942566e-02 -3.028791956603527069e-02 -2.382846735417842865e-02 2.238305658102035522e-02 7.609632331877946854e-03 6.111765280365943909e-02 1.725308247841894627e-03 1.325004920363426208e-02 3.113785386085510254e-02 -2.078649029135704041e-02 8.503625541925430298e-02 6.854549050331115723e-02 6.155749410390853882e-02 -1.325434632599353790e-02 3.975715115666389465e-02 -1.153641007840633392e-02 7.199588418006896973e-02 -3.944203257560729980e-02 3.413460031151771545e-02 2.254405058920383453e-02
3.092624433338642120e-02 1.183825731277465820e-02 6.059179455041885376e-02 -2.226608246564865112e-02 2.918383479118347168e-02 7.158125936985015869e-02 1.842279545962810516e-02 4.778793081641197205e-02 7.547832280397415161e-02 7.255551218986511230e-02 -5.056419968605041504e-02 5.782545357942581177e-02 8.254557102918624878e-02 2.782593294978141785e-02 6.157224997878074646e-02 5.602946877479553223e-02 -6.203741580247879028e-02 3.467718511819839478e-02 4.689901322126388550e-02 -2.788888104259967804e-02 1.110602915287017822e-02 -1.771478913724422455e-02 8.264975249767303467e-02 4.676469415426254272e-02 -2.363056130707263947e-02 -5.580357462167739868e-02 2.778325974941253662e-02 1.338867656886577606e-02 -4.985767230391502380e-02 3.189901262521743774e-02 3.623902797698974609e-02 -3.115766681730747223e-02
8.070565015077590942e-02 5.410266667604446411e-02 6.247231736779212952e-02 4.922579228878021240e-02 1.571318320930004120e-02 3.690742328763008118e-02 -5.496607720851898193e-02 -5.580389127135276794e-02 1.041790749877691269e-02 -5.757218599319458008e-02 7.570710033178329468e-02 -5.457494780421257019e-02 -5.739246681332588196e-02 3.275543451309204102e-03 1.873634383082389832e-02 -1.097193360328674316e-02 3.851415356621146202e-03 6.794510781764984131e-02 2.827786607667803764e-03 -3.895305842161178589e-02 5.574244633316993713e-02 4.939391091465950012e-02 -7.709371298551559448e-02 2.028016559779644012e-02 -3.646205738186836243e-02 4.105538129806518555e-02 2.448115497827529907e-02 -5.142982676625251770e-02 -2.348252385854721069e-02 -4.005306959152221680e-02 3.854997828602790833e-02 -4.153118282556533813e-02
6.552772223949432373e-02 -5.998027324676513672e-02 -8.145903795957565308e-02 7.782503962516784668e-03 1.053333561867475510e-02 -4.595501814037561417e-03 -4.396864771842956543e-02 3.295824676752090454e-02 -1.748054660856723785e-02 3.074572049081325531e-02 -5.348418653011322021e-02 6.068167462944984436e-02 -7.695224136114120483e-02 4.272941441740840673e-04 8.365172892808914185e-02 6.666993349790573120e-02 5.948388949036598206e-02 -2.450174652040004730e-02 6.134226918220520020e-02 -3.055272810161113739e-02 8.588338643312454224e-02 -7.447065412998199463e-02 2.353876084089279175e-02 -3.511550650000572205e-02 -8.219294995069503784e-02 -6.599348783493041992e-02 4.430360626429319382e-03 4.607276618480682373e-02 -4.161558300256729126e-02 -6.218790262937545776e-02 2.148726052837446332e-04 -8.357299119234085083e-02
7.840202748775482178e-02 -4.632443562150001526e-02 8.372783660888671875e-02 -3.516635671257972717e-02 -4.783437028527259827e-02 2.133939415216445923e-02 -8.271033875644207001e-03 -3.452809900045394897e-02 -3.424370288848876953e-02 -2.939022704958915710e-02 2.046856470406055450e-02 8.839313685894012451e-02 4.640939086675643921e-02 -5.202090367674827576e-02 7.810311019420623779e-02 6.215194985270500183e-02 -4.511636868119239807e-02 -7.166124880313873291e-02 4.811799898743629456e-02 -2.295044250786304474e-02 4.023934155702590942e-02 4.643276333808898926e-02 2.704440057277679443e-02 3.375172615051269531e-02 -6.702882796525955200e-02 -5.006735399365425110e-02 4.911746084690093994e-02 8.596811676397919655e-04 3.370619844645261765e-03 3.353258967399597168e-02 -1.195149496197700500e-03 -4.979527369141578674e-02
4.167735949158668518e-02 6.840053945779800415e-02 -1.127142738550901413e-02 8.369933068752288818e-02 9.999865666031837463e-03 -7.262976467609405518e-02 -6.195343565195798874e-03 7.948987185955047607e-02 9.562902152538299561e-03 6.068157404661178589e-02 1.041144877672195435e-02 -3.849599882960319519e-02 -7.683834433555603027e-02 -9.770683012902736664e-03 1.114832237362861633e-02 6.252186745405197144e-02 -1.551102194935083389e-02 1.485856343060731888e-02 -5.154724046587944031e-02 4.914548993110656738e-02 -5.428096279501914978e-02 -7.068422157317399979e-03 -6.957223266363143921e-02 7.819692790508270264e-02 -8.649890311062335968e-03 -5.323707312345504761e-02 6.069581583142280579e-02 -6.249565258622169495e-02 -4.186080768704414368e-02 -2.282778359949588776e-02 7.479529082775115967e-02 -2.565327472984790802e-02
1.326683163642883301e-02 7.745076715946197510e-02 2.450644224882125854e-02 9.233277291059494019e-03 -1.175274048000574112e-02 7.329404354095458984e-02 5.139872431755065918e-03 -2.282452769577503204e-02 6.498274952173233032e-02 8.598092943429946899e-02 -3.197718784213066101e-02 8.138756453990936279e-02 -6.154907867312431335e-02 -2.496041916310787201e-02 -1.472958549857139587e-02 1.755404658615589142e-02 5.885059759020805359e-02 -5.348789691925048828e-02 3.522593155503273010e-02 -3.536408022046089172e-02 -2.553865313529968262e-02 -1.179063506424427032e-02 6.010536104440689087e-02 4.126330092549324036e-02 1.389736216515302658e-02 -2.863915637135505676e-02 6.023979559540748596e-02 1.780056580901145935e-02 -3.400174900889396667e-02 6.148976460099220276e-02 8.387883007526397705e-02 -3.455382958054542542e-02
-6.950540933758020401e-03 -2.621736191213130951e-02 6.587384268641471863e-03 -7.205214351415634155e-02 -4.102965071797370911e-02 -1.294230297207832336e-02 -1.830713823437690735e-02 -4.484298825263977051e-02 -6.400173157453536987e-02 6.860081106424331665e-02 1.560161914676427841e-02 7.311258465051651001e-02 4.472617059946060181e-03 5.444224923849105835e-02 -4.791883751749992371e-02 6.103181466460227966e-02 -4.961635544896125793e-02 3.755225613713264465e-02 -5.058640614151954651e-02 3.050559200346469879e-03 9.000667929649353027e-02 1.997311040759086609e-02 -4.569917172193527222e-02 9.031996130943298340e-02 7.809825241565704346e-02 5.074702948331832886e-02 6.601732969284057617e-02 -7.957532256841659546e-02 -8.385040611028671265e-02 -1.656851544976234436e-02 -5.037366226315498352e-02 5.293285939842462540e-03
1.376891788095235825e-02 5.704833939671516418e-02 -3.002474084496498108e-02 7.460216060280799866e-03 -2.527515217661857605e-02 -6.486744433641433716e-02 5.438648164272308350e-02 2.747386880218982697e-02 -1.122826896607875824e-02 4.653097689151763916e-02 8.090349845588207245e-03 3.932941332459449768e-02 5.717067047953605652e-02 8.089177310466766357e-03 9.642100334167480469e-02 6.396996229887008667e-02 -2.779134921729564667e-02 6.923879683017730713e-02 -2.547246031463146210e-02 -4.403177276253700256e-02 5.171602964401245117e-02 7.756987214088439941e-02 1.769146881997585297e-02 5.251672118902206421e-02 6.899098306894302368e-02 -7.903083413839340210e-02 4.004254471510648727e-03 -3.626720979809761047e-02 3.214804455637931824e-02 -6.122629716992378235e-02 -2.336671110242605209e-03 3.597746044397354126e-02
-4.982921481132507324e-02 5.041295662522315979e-02 -7.174253463745117188e-02 9.126909077167510986e-02 -4.325626417994499207e-02 -3.762969747185707092e-02 -6.283959746360778809e-02 3.768254071474075317e-02 1.642201654613018036e-02 -4.755587782710790634e-03 -4.119044914841651917e-02 6.519408524036407471e-02 -4.246898368000984192e-02 4.229211062192916870e-02 -3.936616703867912292e-02 -4.961590841412544250e-02 5.363741517066955566e-02 -3.891190513968467712e-02 -6.131790578365325928e-02 8.358172327280044556e-02 1.348246913403272629e-02 -1.262639649212360382e-02 2.148817479610443115e-02 -1.562979631125926971e-02 -1.217655744403600693e-02 -2.411907166242599487e-02 2.831452339887619019e-02 -6.122855842113494873e-02 4.758399352431297302e-02 2.634906210005283356e-02 4.889821633696556091e-02 5.412588641047477722e-02
3.521454706788063049e-02 6.374102830886840820e-02 -4.878842085599899292e-02 8.889906108379364014e-02 5.013774335384368896e-02 6.328820716589689255e-03 -8.508352935314178467e-02 -5.958089139312505722e-03 -2.293147332966327667e-02 3.989063668996095657e-03 -2.166354283690452576e-02 8.034440129995346069e-02 3.282610699534416199e-02 4.737563431262969971e-02 1.049122028052806854e-02 -2.946186251938343048e-02 3.694534674286842346e-02 -2.502176794223487377e-04 -2.757413499057292938e-02 -2.953374013304710388e-02 8.627481758594512939e-02 -8.490634709596633911e-02 -4.657129943370819092e-02 -7.861835882067680359e-03 2.992345020174980164e-02 1.219341997057199478e-02 -5.294058099389076233e-02 4.466902464628219604e-02 4.632708802819252014e-02 3.048464469611644745e-02 -2.291805110871791840e-02 -5.237381160259246826e-02
2.255267463624477386e-02 4.314255714416503906e-02 -2.695558220148086548e-02 8.582308143377304077e-02 8.997532725334167480e-02 -3.038351982831954956e-02 4.844437167048454285e-02 7.840003818273544312e-02 -5.455460865050554276e-03 3.484896197915077209e-02 7.518001645803451538e-02 4.783896356821060181e-02 -5.036075413227081299e-02 -6.087241321802139282e-02 -4.781212657690048218e-02 7.155560702085494995e-02 4.470642283558845520e-02 2.837460860610008240e-02 -5.860166624188423157e-02 1.544446870684623718e-02 -4.009378608316183090e-03 -1.265141461044549942e-02 -1.368111092597246170e-02 -6.244657188653945923e-02 4.854418337345123291e-03 -6.202085688710212708e-02 7.760708103887736797e-04 -1.077018305659294128e-02 1.671349816024303436e-02 -7.148360460996627808e-02 -8.415507525205612183e-02 6.374356895685195923e-02
-5.989269819110631943e-03 -6.125621963292360306e-03 -7.189488969743251801e-03 -3.178743412718176842e-03 -1.656324230134487152e-02 3.660298511385917664e-02 -5.455730482935905457e-02 3.918877989053726196e-02 -3.201282024383544922e-02 -6.913702934980392456e-02 7.916021160781383514e-03 -3.999620303511619568e-02 2.536077424883842468e-02 -6.783300638198852539e-02 4.676808416843414307e-02 -4.630547761917114258e-02 8.486858010292053223e-02 4.412140697240829468e-02 5.707059055566787720e-02 3.086866252124309540e-02 -4.245141893625259399e-02 -5.702347308397293091e-02 5.837873741984367371e-02 8.246749639511108398e-02 -2.919650264084339142e-02 -3.199009969830513000e-02 -1.762006804347038269e-02 -5.606077611446380615e-02 -8.392370305955410004e-03 -2.000474184751510620e-02 6.415446102619171143e-02 7.164691388607025146e-02
-9.307383559644222260e-03 6.449856609106063843e-02 4.398068785667419434e-02 4.779647663235664368e-02 3.299141302704811096e-02 -6.812243908643722534e-02 -6.966949254274368286e-02 -7.551995664834976196e-02 8.252660930156707764e-02 -6.740134209394454956e-02 1.784283109009265900e-02 -3.772433102130889893e-02 4.215610772371292114e-02 -7.270510494709014893e-02 2.903614565730094910e-02 8.476576954126358032e-02 8.133598417043685913e-02 1.609980128705501556e-02 -1.316900551319122314e-02 1.889996230602264404e-02 -3.186270967125892639e-02 -1.936651021242141724e-02 4.436402767896652222e-02 -1.416830718517303467e-02 -6.269770860671997070e-02 4.656174778938293457e-02 -6.047006323933601379e-02 -3.287570178508758545e-02 -6.156404688954353333e-02 -1.852991059422492981e-02 -5.057229846715927124e-02 1.193212345242500305e-02
-4.147855192422866821e-02 -2.980483509600162506e-02 -4.819006193429231644e-03 -3.769834339618682861e-02 4.921324178576469421e-02 8.056102693080902100e-02 -6.713154260069131851e-03 7.673889398574829102e-02 -3.842622507363557816e-03 -2.872901223599910736e-02 4.115866124629974365e-02 5.281903222203254700e-02 -2.526548504829406738e-02 -5.246591195464134216e-02 6.497807055711746216e-02 2.413513325154781342e-02 3.477273881435394287e-02 -3.101345710456371307e-02 -1.461873389780521393e-02 -5.538531020283699036e-02 7.997643202543258667e-02 -3.071126155555248260e-02 -5.377254635095596313e-02 2.074496075510978699e-02 1.409517694264650345e-02 -5.339591205120086670e-02 -4.631688445806503296e-02 -6.409761309623718262e-02 5.770584568381309509e-02 -8.106953650712966919e-02 -6.157154589891433716e-02 6.529148668050765991e-02
-7.251526694744825363e-03 -4.227687790989875793e-02 -5.227837711572647095e-02 -4.381115734577178955e-02 -4.504556581377983093e-02 1.779250800609588623e-02 5.683161318302154541e-02 3.788332268595695496e-02 2.595230937004089355e-02 1.742818043567240238e-03 7.470794022083282471e-03 -3.466070815920829773e-02 1.478011906147003174e-02 -1.032281387597322464e-02 -1.917122490704059601e-02 -3.629540279507637024e-02 7.193776313215494156e-03 5.978668853640556335e-02 3.358109854161739349e-03 -4.674081504344940186e-02 -5.985419452190399170e-02 1.898631453514099121e-02 3.627121821045875549e-02 8.336488157510757446e-02 2.343934588134288788e-02 1.337846554815769196e-02 -4.310609772801399231e-02 7.753092795610427856e-02 -6.270714104175567627e-02 3.090334869921207428e-02 8.021567761898040771e-02 -5.284497886896133423e-02
-6.879878044128417969e-02 -3.959313407540321350e-02 -8.401897549629211426e-02 -5.523686856031417847e-02 -7.563245296478271484e-02 8.476549759507179260e-03 -6.882412731647491455e-02 -5.983068421483039856e-02 -3.356017917394638062e-02 -4.041098058223724365e-02 -2.461407892405986786e-02 -7.179172337055206299e-02 1.301530655473470688e-02 -1.234404556453227997e-02 1.909091323614120483e-02 7.680961489677429199e-02 1.211609877645969391e-02 2.062899433076381683e-02 5.882335454225540161e-02 9.145996719598770142e-02 -3.912843018770217896e-02 -2.604831010103225708e-02 2.463412098586559296e-02 -2.027379721403121948e-02 6.600383669137954712e-02 -6.942881271243095398e-03 -3.700136672705411911e-03 -3.356417641043663025e-02 8.055529743432998657e-02 7.963047921657562256e-02 -3.974581509828567505e-02 -8.595113456249237061e-02
-7.456339150667190552e-02 2.135761827230453491e-02 -5.211328715085983276e-02 -4.666579514741897583e-02 4.794056341052055359e-02 8.024736493825912476e-02 4.659289121627807617e-02 5.556568503379821777e-02 -7.830481976270675659e-02 7.259057462215423584e-02 -3.051508031785488129e-02 -2.632607147097587585e-02 -2.160703763365745544e-02 -5.070894956588745117e-03 8.765067905187606812e-02 3.477162867784500122e-02 9.159502387046813965e-02 -3.975942358374595642e-02 -6.928949803113937378e-02 9.380461275577545166e-02 3.761539608240127563e-02 -6.250154227018356323e-02 -5.071300640702247620e-02 3.990150522440671921e-03 -1.104316208511590958e-02 3.071240149438381195e-02 -5.604539439082145691e-02 -2.934352494776248932e-02 -8.042953163385391235e-02 2.871089242398738861e-02 -8.236043900251388550e-02 -3.188924118876457214e-02
1.502349739894270897e-03 8.703816682100296021e-02 -8.049698919057846069e-02 5.645542964339256287e-02 2.167515270411968231e-02 7.850833982229232788e-02 -3.605092642828822136e-03 2.218685857951641083e-02 4.712764173746109009e-02 8.269496262073516846e-02 3.625048696994781494e-02 3.141682595014572144e-02 -3.134177625179290771e-02 -6.360629200935363770e-02 8.766223490238189697e-02 2.509196475148200989e-02 8.408912271261215210e-02 -3.295918181538581848e-02 1.851346157491207123e-02 1.844803802669048309e-02 5.474589765071868896e-02 -7.260003685951232910e-02 6.424140930175781250e-02 2.192466706037521362e-02 5.309635400772094727e-02 -3.440512344241142273e-02 4.540888220071792603e-02 2.201428450644016266e-02 7.065696269273757935e-02 3.767620772123336792e-02 3.797926008701324463e-02 -3.200956806540489197e-02
-4.255452007055282593e-02 2.388108149170875549e-02 4.419744014739990234e-02 3.136714920401573181e-02 6.599394232034683228e-02 -6.472218036651611328e-02 -8.112414926290512085e-02 -6.491482257843017578e-02 -1.595222577452659607e-02 -7.910532504320144653e-02 7.279288768768310547e-02 4.372250661253929138e-02 4.507638886570930481e-02 6.784255057573318481e-02 4.135211464017629623e-03 4.183785244822502136e-02 1.303106173872947693e-02 -6.752580404281616211e-02 -3.120577335357666016e-02 8.861882984638214111e-02 6.524826586246490479e-02 -4.162085801362991333e-02 8.916481584310531616e-02 -4.881554841995239258e-02 -7.130837440490722656e-02 5.051439628005027771e-02 7.211697101593017578e-02 -7.551553845405578613e-02 -6.309182941913604736e-02 2.683547511696815491e-02 -1.748242415487766266e-02 -3.744062967598438263e-03
-6.963405013084411621e-02 -3.920965269207954407e-02 6.782052665948867798e-02 7.436849921941757202e-02 -6.367061287164688110e-02 7.734002918004989624e-02 7.537430524826049805e-02 7.877782918512821198e-03 -3.402875736355781555e-02 -1.136769540607929230e-02 7.146052271127700806e-02 1.988793909549713135e-02 -6.673082709312438965e-02 2.548860386013984680e-02 -4.271427914500236511e-02 -1.381335873156785965e-02 5.596838518977165222e-02 2.595270425081253052e-02 1.487069297581911087e-02 2.699486725032329559e-02 -2.551748603582382202e-02 6.913590431213378906e-02 6.000866740942001343e-02 6.184292957186698914e-02 2.480293251574039459e-02 2.089997939765453339e-02 5.875082314014434814e-02 6.282779574394226074e-02 -8.127580583095550537e-02 5.884312558919191360e-03 3.122288547456264496e-02 -3.392435982823371887e-02
4.143841937184333801e-02 7.893811911344528198e-02 8.184630423784255981e-02 1.344593241810798645e-02 4.219138622283935547e-02 2.381304651498794556e-02 -4.709477722644805908e-02 8.486951887607574463e-02 -2.568985894322395325e-02 -7.782477140426635742e-02 8.191370218992233276e-02 6.974678486585617065e-02 -4.172232747077941895e-02 -5.988215655088424683e-02 9.580790996551513672e-03 -1.267682109028100967e-02 -2.523895539343357086e-02 6.230956315994262695e-02 6.232634186744689941e-02 6.899999827146530151e-02 3.084307163953781128e-02 -7.519894838333129883e-02 4.496245831251144409e-02 -3.589626774191856384e-02 -2.033071964979171753e-02 -5.632469058036804199e-02 -5.489956215023994446e-02 -1.285879407078027725e-02 7.020402699708938599e-02 -5.829821527004241943e-02 5.363049730658531189e-02 2.956644445657730103e-02
-6.528812646865844727e-02 5.654652044177055359e-02 -2.702788449823856354e-02 3.350412473082542419e-02 -8.520461618900299072e-03 -7.854689657688140869e-02 5.441062152385711670e-02 -2.272134274244308472e-02 -3.604632103815674782e-03 7.376269251108169556e-02 7.787595689296722412e-02 -5.922983586788177490e-02 5.435679480433464050e-02 8.104114979505538940e-02 2.251660451292991638e-03 5.875936895608901978e-02 1.259199623018503189e-02 -4.945605620741844177e-02 -9.837849996984004974e-03 4.558109119534492493e-02 7.419559359550476074e-02 -3.700566664338111877e-02 -6.667410582304000854e-02 4.655200988054275513e-02 4.105729237198829651e-02 8.315449580550193787e-03 -5.790580809116363525e-02 -8.030585944652557373e-02 -1.373007707297801971e-02 -2.244137600064277649e-02 7.958076149225234985e-02 2.818739041686058044e-03
