-1.632992294616997242e-03 7.532280683517456055e-02 6.068188324570655823e-02 -3.131021186709403992e-02 -1.005200389772653580e-02 3.759630769491195679e-02 3.599569573998451233e-02 4.229170270264148712e-03 6.280687451362609863e-02 -4.558719322085380554e-02
5.475378036499023438e-02 -1.764420233666896820e-02 3.610526397824287415e-02 7.195315510034561157e-02 -3.715829178690910339e-02 4.305784031748771667e-02 -7.405219227075576782e-02 -3.429860621690750122e-02 -2.260124310851097107e-02 1.209692005068063736e-02
1.448568515479564667e-02 6.018757075071334839e-02 -5.948875471949577332e-02 5.636577308177947998e-02 3.447015210986137390e-02 6.423926353454589844e-02 4.570698738098144531e-02 4.512380063533782959e-02 -9.179185330867767334e-02 7.252772152423858643e-02
4.116158559918403625e-02 6.592186540365219116e-02 5.876598879694938660e-02 -3.132916614413261414e-02 7.418131828308105469e-02 -3.935860469937324524e-02 -7.326181232929229736e-02 6.381402909755706787e-02 -5.028249230235815048e-03 2.798546105623245239e-02
9.134414047002792358e-02 -5.540493875741958618e-02 6.153515540063381195e-03 2.751126140356063843e-02 5.160970240831375122e-02 -6.454611662775278091e-03 8.514548838138580322e-02 -8.538208901882171631e-02 -2.583409100770950317e-02 -7.119765877723693848e-02
-2.138076350092887878e-02 -5.746707692742347717e-02 8.338792622089385986e-02 1.295486371964216232e-02 -6.668187677860260010e-02 4.958513751626014709e-02 5.014069378376007080e-02 -2.702530007809400558e-03 1.023459713906049728e-02 -9.253510273993015289e-03
-1.806410215795040131e-02 -6.187130883336067200e-02 7.173778861761093140e-02 -1.577681861817836761e-02 -6.569680571556091309e-02 -1.879896037280559540e-02 3.066406585276126862e-02 1.347768492996692657e-02 4.906765744090080261e-02 3.740940243005752563e-02
-7.924301177263259888e-02 -6.242217496037483215e-02 6.967753916978836060e-02 -1.633067615330219269e-02 -8.369701355695724487e-02 1.098244171589612961e-02 -8.686424791812896729e-02 4.358643665909767151e-02 6.210042163729667664e-02 6.486529111862182617e-02
7.141749560832977295e-02 4.092900454998016357e-02 -2.892268262803554535e-02 -3.174184588715434074e-03 3.521476686000823975e-02 -2.514201588928699493e-02 4.364020004868507385e-02 4.555546492338180542e-02 -3.119031712412834167e-02 5.762805417180061340e-02
6.305281072854995728e-02 -4.306584224104881287e-02 -4.343696311116218567e-02 5.745091289281845093e-02 -3.405177593231201172e-02 2.183084376156330109e-02 3.194908052682876587e-02 -6.283412128686904907e-02 5.766215920448303223e-02 5.814759433269500732e-02
-4.480212926864624023e-02 5.745125934481620789e-02 5.214713141322135925e-02 -7.270568609237670898e-02 2.445326931774616241e-02 3.327905386686325073e-02 -7.705163210630416870e-02 1.006098696961998940e-03 -8.342848718166351318e-02 2.628152444958686829e-02
-2.739746868610382080e-02 -2.094683237373828888e-02 -5.568264424800872803e-02 8.677911013364791870e-02 3.236917778849601746e-02 -9.062867611646652222e-02 1.009947713464498520e-02 -4.915979877114295959e-02 4.423120617866516113e-02 -4.110602661967277527e-02
-8.539232611656188965e-02 -5.143486708402633667e-02 8.081027120351791382e-02 -7.406122982501983643e-02 3.165690694004297256e-03 7.222209870815277100e-02 -7.026610523462295532e-02 2.026549167931079865e-02 -7.597364485263824463e-02 5.166982486844062805e-02
-3.808194398880004883e-02 6.820271164178848267e-02 -3.325794590637087822e-03 1.036897860467433929e-02 -3.431468456983566284e-02 7.884272374212741852e-03 1.314427331089973450e-02 6.871535629034042358e-02 6.652226299047470093e-02 3.958955779671669006e-02
-7.523339986801147461e-02 -5.148373544216156006e-02 -5.024855211377143860e-02 2.633231505751609802e-02 -2.412023581564426422e-02 5.538754910230636597e-02 2.022023499011993408e-02 -7.329995930194854736e-02 2.115929871797561646e-02 6.536077708005905151e-02
-4.476880282163619995e-02 -1.637585088610649109e-02 -1.347193960100412369e-03 4.651380330324172974e-02 -6.807721406221389771e-02 7.990827411413192749e-02 1.088845171034336090e-02 -8.272408694028854370e-02 -5.924398079514503479e-02 -5.998040363192558289e-02
-5.925793945789337158e-02 -2.415286749601364136e-02 5.232050642371177673e-02 3.942044451832771301e-02 1.518980227410793304e-02 3.784192027524113655e-03 -8.400771766901016235e-03 -5.700105056166648865e-02 1.577762514352798462e-02 7.257524132728576660e-02
4.303853958845138550e-02 5.794322490692138672e-02 7.795407623052597046e-02 -2.770251221954822540e-02 -6.152568385004997253e-02 -8.594673126935958862e-03 6.213560327887535095e-02 4.272208316251635551e-04 6.749375164508819580e-02 -1.016062572598457336e-01
-4.576198756694793701e-02 6.020409613847732544e-02 8.331541717052459717e-02 7.017913460731506348e-02 5.251432582736015320e-02 -2.461614087224006653e-02 7.055223686620593071e-04 -7.384856045246124268e-02 -7.714028656482696533e-02 2.153817377984523773e-02
-4.301942884922027588e-02 4.178051650524139404e-02 6.535311788320541382e-02 3.914793953299522400e-02 1.947381347417831421e-02 1.304697804152965546e-02 -3.356473287567496300e-03 4.927664250135421753e-02 5.701834708452224731e-02 -2.568628080189228058e-02
-5.929106101393699646e-02 5.857766047120094299e-02 -6.094604730606079102e-02 -6.165749952197074890e-02 -2.818674035370349884e-02 7.406614255160093307e-03 -4.973514378070831299e-02 -2.814818546175956726e-02 -5.478356033563613892e-02 2.099447511136531830e-02
1.511172764003276825e-02 5.837975814938545227e-02 -7.996742427349090576e-02 8.476541191339492798e-02 7.447353750467300415e-02 4.935781657695770264e-02 2.014488680288195610e-03 -9.344437718391418457e-02 -5.746588855981826782e-02 4.367817565798759460e-02
1.225552055984735489e-02 2.171829901635646820e-02 -5.331188812851905823e-02 -1.039441898465156555e-01 -3.316508373245596886e-03 3.889665752649307251e-02 1.412441674619913101e-02 -4.528691247105598450e-02 7.590533047914505005e-02 5.147251859307289124e-02
-3.989291936159133911e-02 1.455043908208608627e-02 4.573266953229904175e-02 -4.907967522740364075e-02 2.225553384050726891e-03 -3.543458878993988037e-02 -4.351425915956497192e-02 -6.469894200563430786e-03 -2.692654728889465332e-02 -2.043793722987174988e-02
4.829785600304603577e-02 6.794384121894836426e-02 -7.206978648900985718e-02 7.913586497306823730e-02 -3.887600824236869812e-02 -2.101068198680877686e-02 -2.098207920789718628e-02 5.412052199244499207e-02 -8.504842221736907959e-02 2.024504914879798889e-02
-3.669120371341705322e-02 4.345849156379699707e-03 -2.758331224322319031e-02 5.234272778034210205e-02 -6.806287914514541626e-02 3.199413791298866272e-02 -5.419933050870895386e-02 8.661011606454849243e-02 6.698044389486312866e-02 -6.030759587883949280e-02
-4.431340470910072327e-02 -2.004551514983177185e-02 -7.548023760318756104e-02 -3.477829322218894958e-02 -5.961216241121292114e-02 7.063012570142745972e-02 -8.141618967056274414e-02 5.838982015848159790e-02 7.176627963781356812e-02 -4.971285909414291382e-02
-1.327746547758579254e-02 -3.289604559540748596e-02 -7.810871582478284836e-03 6.588578224182128906e-02 5.709377303719520569e-02 5.041848123073577881e-02 6.217893958091735840e-02 -1.280025020241737366e-02 2.090913616120815277e-02 -5.787795875221490860e-03
1.551763433963060379e-02 -5.134180653840303421e-03 9.786574169993400574e-03 5.032375454902648926e-02 -3.303629904985427856e-02 8.371716737747192383e-02 -7.872112840414047241e-02 -1.978425867855548859e-02 -4.196977615356445312e-02 6.975339353084564209e-02
-6.650190800428390503e-02 2.216877974569797516e-02 -4.611144959926605225e-02 -6.593000143766403198e-02 1.611999981105327606e-02 2.700262889266014099e-02 -1.011317316442728043e-02 5.918106436729431152e-02 -8.990228921175003052e-02 7.550407201051712036e-02
-2.378240227699279785e-02 -2.018548548221588135e-03 1.120493561029434204e-02 -3.037579543888568878e-02 7.063497602939605713e-02 2.464084327220916748e-02 -4.671349003911018372e-02 -4.853180795907974243e-02 7.120243459939956665e-02 -8.377101272344589233e-03
4.649470373988151550e-02 6.292708963155746460e-02 8.244641125202178955e-02 2.129669860005378723e-02 -4.237931966781616211e-02 -9.341082721948623657e-02 -2.022594213485717773e-03 -2.339628897607326508e-02 1.886427775025367737e-02 1.852144673466682434e-02
5.753626301884651184e-02 4.758565686643123627e-03 4.862355068325996399e-03 3.674581274390220642e-02 3.056247159838676453e-02 4.752285405993461609e-02 -4.537990689277648926e-02 -7.288847863674163818e-02 1.495176274329423904e-02 7.101119309663772583e-02
5.012506246566772461e-02 2.764786593616008759e-02 1.963984221220016479e-02 -5.853527411818504333e-02 3.729212656617164612e-02 -6.222853064537048340e-02 -4.482663795351982117e-02 4.000734165310859680e-02 -7.163941115140914917e-02 2.082732506096363068e-02
-1.592239923775196075e-02 -1.367704360745847225e-03 -4.333515837788581848e-02 4.181856662034988403e-02 -6.665024906396865845e-02 6.022457405924797058e-02 4.330480078351683915e-05 -8.615525439381599426e-03 -4.373777657747268677e-02 4.644246771931648254e-02
-3.549006534740328789e-03 6.813068687915802002e-02 6.549445539712905884e-02 -6.971816997975111008e-03 7.257793098688125610e-02 -6.345003843307495117e-02 3.343843296170234680e-02 -2.796500455588102341e-03 -6.871507316827774048e-02 -7.346207648515701294e-02
-2.919066138565540314e-02 6.869900040328502655e-03 -4.005599766969680786e-02 5.905888974666595459e-02 -4.971153661608695984e-02 4.016085062175989151e-03 3.308204934000968933e-03 -2.511802129447460175e-02 -7.006137073040008545e-02 -6.385714560747146606e-02
-4.775289446115493774e-02 4.813994839787483215e-02 -5.545861274003982544e-02 -3.694515302777290344e-02 -3.366532921791076660e-02 7.206954807043075562e-02 -6.056902557611465454e-02 -2.343959175050258636e-02 5.917955655604600906e-03 3.740723058581352234e-02
-1.924809627234935760e-02 -3.781596943736076355e-02 5.920930206775665283e-02 4.482312873005867004e-02 -8.026350289583206177e-02 -5.945861339569091797e-02 -2.294327691197395325e-02 -8.255570381879806519e-02 2.568426169455051422e-02 3.174824640154838562e-02
-7.527472078800201416e-02 -1.159167196601629257e-02 -9.006371349096298218e-02 -1.829500868916511536e-02 -1.777500286698341370e-02 4.827412962913513184e-02 -4.960709810256958008e-02 3.801496699452400208e-02 -4.726248979568481445e-02 6.016303971409797668e-02
-2.532911859452724457e-02 2.747362479567527771e-02 -6.046096980571746826e-02 7.933914661407470703e-02 -3.906263038516044617e-02 6.305723916739225388e-03 3.196514025330543518e-02 4.234759509563446045e-02 -7.001366466283798218e-02 -8.821036666631698608e-02
6.566904485225677490e-02 -4.471066221594810486e-02 2.599219977855682373e-02 -5.516269057989120483e-02 6.957566738128662109e-02 3.983134403824806213e-02 1.708286441862583160e-02 -7.424337416887283325e-02 2.302645705640316010e-02 9.000843856483697891e-04
1.300308108329772949e-02 -1.586015336215496063e-02 -3.154230117797851562e-02 8.327843993902206421e-02 6.843135505914688110e-02 2.468551741912961006e-03 8.010888472199440002e-03 -2.342263050377368927e-02 7.901785522699356079e-02 -5.442332103848457336e-02
-2.836690098047256470e-02 6.214753910899162292e-02 4.205010086297988892e-02 3.123999573290348053e-02 -6.607855856418609619e-02 3.077870793640613556e-02 -8.992741256952285767e-02 5.308966338634490967e-02 -4.422766342759132385e-02 -2.467119693756103516e-02
5.657820031046867371e-02 1.967255771160125732e-02 -8.000118285417556763e-02 7.082781940698623657e-02 -7.104104757308959961e-02 3.988347481936216354e-03 -4.433640837669372559e-02 -3.247824683785438538e-02 2.802917920053005219e-02 -2.120769955217838287e-02
-1.865969225764274597e-02 3.983401507139205933e-02 -3.490090742707252502e-02 -1.085208449512720108e-02 2.495689317584037781e-02 2.996958047151565552e-02 -7.948749698698520660e-03 -4.340961948037147522e-02 3.980321437120437622e-02 -5.628605931997299194e-02
2.236565202474594116e-02 6.648582965135574341e-02 -6.177022308111190796e-02 -9.183634072542190552e-03 -5.059796944260597229e-02 2.617504261434078217e-02 -3.712681308388710022e-02 -2.715069055557250977e-02 6.598111987113952637e-02 -6.811472028493881226e-02
4.380457848310470581e-02 4.945895820856094360e-02 -5.025630071759223938e-02 -5.142703652381896973e-02 -8.255743980407714844e-02 2.705537527799606323e-02 4.456051811575889587e-02 9.841635078191757202e-02 -3.486141934990882874e-02 -9.697477333247661591e-03
3.842614218592643738e-02 -1.744872145354747772e-02 -6.111615151166915894e-02 -1.803919300436973572e-02 -6.352397799491882324e-02 7.287038862705230713e-02 4.892929270863533020e-02 4.694070294499397278e-02 -3.540128841996192932e-02 1.625154912471771240e-02
3.056125715374946594e-02 1.932337321341037750e-02 6.481078267097473145e-02 8.050411939620971680e-02 6.160294637084007263e-02 -7.370854914188385010e-02 -2.396631799638271332e-02 -2.026075497269630432e-02 -1.952098682522773743e-02 6.316275149583816528e-02
-1.767013594508171082e-02 -4.103540256619453430e-02 9.483090788125991821e-02 -2.177152223885059357e-02 -1.854081451892852783e-02 -3.989754617214202881e-02 -9.498248249292373657e-02 -3.458213433623313904e-02 -1.069927494972944260e-02 -5.050688982009887695e-02
6.001555919647216797e-02 1.938891224563121796e-02 4.520072042942047119e-02 9.060358628630638123e-03 2.973477356135845184e-02 1.431928109377622604e-02 -7.382584363222122192e-02 7.142008841037750244e-02 -9.151820093393325806e-02 -6.675703078508377075e-02
-2.720444463193416595e-02 2.320403419435024261e-02 8.962276577949523926e-02 -3.400527685880661011e-02 2.520189620554447174e-03 -2.325795404613018036e-02 -1.049179770052433014e-02 -1.969999074935913086e-02 8.773719519376754761e-02 -2.897711843252182007e-02
-7.062746584415435791e-02 2.695794962346553802e-02 -8.390809595584869385e-02 3.016844391822814941e-02 1.512300129979848862e-02 -5.426426976919174194e-02 6.267733871936798096e-02 3.875349462032318115e-02 1.439185906201601028e-02 -2.948015555739402771e-02
1.766496920026838779e-03 3.594850003719329834e-02 1.322669256478548050e-02 6.707240641117095947e-02 2.525977790355682373e-02 -1.516786217689514160e-02 -7.397902756929397583e-02 6.562125869095325470e-03 1.466286182403564453e-02 -1.345947384834289551e-02
-2.208126522600650787e-02 1.066535059362649918e-02 2.315796539187431335e-02 -7.617267221212387085e-02 3.343000262975692749e-02 3.779974579811096191e-02 3.434008359909057617e-02 7.713771611452102661e-02 -5.158992484211921692e-03 -3.384536132216453552e-02
-6.008768826723098755e-02 3.415386006236076355e-02 8.237829431891441345e-03 6.972947716712951660e-02 8.922564238309860229e-02 -2.248451113700866699e-02 2.866945229470729828e-02 -2.096355333924293518e-02 -7.229451835155487061e-02 5.021415278315544128e-02
-4.391829296946525574e-02 -4.472205415368080139e-02 1.847285218536853790e-02 -2.252590097486972809e-02 -2.113498002290725708e-02 -4.647501558065414429e-02 6.387827545404434204e-02 -7.639415562152862549e-02 -5.927996337413787842e-02 -5.731341242790222168e-02
3.369024023413658142e-02 -3.829933330416679382e-02 -2.719086129218339920e-03 -7.844181358814239502e-02 2.561705373227596283e-02 -6.712940335273742676e-02 -2.731323428452014923e-02 -3.231545537710189819e-02 3.204559162259101868e-02 5.215496942400932312e-02
-5.410725623369216919e-02 3.954924643039703369e-02 6.878032814711332321e-03 5.935208871960639954e-02 -7.567697763442993164e-02 -6.194211076945066452e-03 6.232638657093048096e-02 4.035520926117897034e-02 4.364067316055297852e-02 2.454170212149620056e-02
5.842932034283876419e-03 9.022464044392108917e-03 -7.831760495901107788e-02 6.787444651126861572e-02 5.907082557678222656e-02 -5.339752137660980225e-02 3.561929613351821899e-02 -8.245629817247390747e-02 8.294363319873809814e-02 4.220377281308174133e-02
5.535987392067909241e-02 3.200728073716163635e-02 2.798126079142093658e-02 -4.719794727861881256e-03 5.066567659378051758e-02 -4.004701913800090551e-04 4.239100217819213867e-02 -6.679603457450866699e-02 6.615265156142413616e-04 -4.218424111604690552e-02
-5.121840629726648331e-03 1.647527888417243958e-02 -4.707214236259460449e-02 -7.885307818651199341e-02 6.560633331537246704e-02 -6.378680467605590820e-02 -4.424533993005752563e-02 8.604507893323898315e-02 -2.110288478434085846e-02 2.024606801569461823e-02
-2.158391103148460388e-02 6.507542729377746582e-02 6.498922407627105713e-02 4.644806310534477234e-02 -1.176269608549773693e-03 -5.710376054048538208e-02 3.827921301126480103e-02 5.323521792888641357e-02 1.500048860907554626e-02 1.912401872687041759e-03
-4.410488158464431763e-02 -2.051421441137790680e-02 -3.609139844775199890e-02 -3.070710413157939911e-02 7.915762066841125488e-02 2.317628078162670135e-02 -7.160621136426925659e-02 1.206505694426596165e-03 6.155423074960708618e-02 -7.605851441621780396e-02
1.518809888511896133e-02 8.323822915554046631e-02 5.567954108119010925e-02 4.509594291448593140e-02 -4.390649870038032532e-02 -1.203920785337686539e-02 2.580594737082719803e-03 3.645265847444534302e-02 6.623458862304687500e-02 -2.083151601254940033e-03
-7.681129872798919678e-02 7.518091704696416855e-03 2.707440219819545746e-02 3.606113791465759277e-02 -8.339034765958786011e-02 -4.964736476540565491e-02 -2.149026654660701752e-02 -7.277195900678634644e-02 9.541593492031097412e-02 -4.441958293318748474e-02
6.394708901643753052e-02 -1.977523602545261383e-02 -5.277034267783164978e-02 -6.836634129285812378e-02 -3.829592466354370117e-02 -2.928141318261623383e-02 4.484517499804496765e-02 6.721606478095054626e-03 6.022560968995094299e-02 -1.206510141491889954e-02
1.791283302009105682e-02 -4.046571254730224609e-02 7.823231630027294159e-03 6.608156114816665649e-02 9.144189767539501190e-03 5.144312977790832520e-02 -5.851292237639427185e-02 6.220002099871635437e-02 -7.061778753995895386e-02 -3.297335654497146606e-02
7.137192040681838989e-02 -7.203455269336700439e-02 -3.951056394726037979e-03 -8.174566179513931274e-02 1.933871209621429443e-02 -7.513839751482009888e-02 7.280167937278747559e-02 -6.275444477796554565e-02 -3.757447004318237305e-02 -2.814268320798873901e-02
7.696776837110519409e-02 -3.044247627258300781e-02 -3.557761013507843018e-02 -6.823711842298507690e-02 4.971081018447875977e-02 -1.933163404464721680e-02 2.082931995391845703e-02 4.860724136233329773e-02 -3.522494807839393616e-02 5.408679321408271790e-02
-3.622981533408164978e-02 6.266905367374420166e-02 1.756301894783973694e-02 -2.466247975826263428e-02 -2.983284182846546173e-02 -5.626619607210159302e-02 7.032002508640289307e-02 5.616961792111396790e-02 -7.889627665281295776e-02 -6.687158253043889999e-03
-2.569453045725822449e-02 5.718257278203964233e-02 1.543185673654079437e-02 7.989486306905746460e-02 3.665196895599365234e-02 -1.672174036502838135e-02 -4.006841406226158142e-02 6.337829679250717163e-02 -1.139833964407444000e-02 -8.325830847024917603e-02
6.116603687405586243e-02 7.129657268524169922e-02 -5.213703960180282593e-02 -8.497284352779388428e-02 3.719150274991989136e-02 4.749942943453788757e-02 -7.184293866157531738e-02 6.622400879859924316e-02 -4.362125322222709656e-02 6.662769615650177002e-02
-8.331313729286193848e-03 6.447198987007141113e-02 6.235603988170623779e-02 -7.323842495679855347e-02 7.072797417640686035e-02 -3.433535620570182800e-02 4.760368168354034424e-02 -1.911623403429985046e-02 -7.162234932184219360e-02 -5.926197767257690430e-02
-1.585142873227596283e-02 1.846111938357353210e-02 -4.455212131142616272e-02 -3.072049096226692200e-02 -1.051772385835647583e-02 4.011640325188636780e-02 3.538703545928001404e-02 5.406017228960990906e-02 -1.937951706349849701e-02 -4.029124602675437927e-02
5.773356184363365173e-02 5.821720138192176819e-02 -4.109705984592437744e-02 -4.247839003801345825e-02 -5.072850733995437622e-03 7.320610433816909790e-02 -2.486519329249858856e-02 9.374917298555374146e-02 -7.222830504179000854e-02 6.127119064331054688e-03
1.633686944842338562e-02 2.384640462696552277e-02 -6.694627553224563599e-02 4.686630889773368835e-02 8.899176493287086487e-03 -1.079249102622270584e-02 -2.970322221517562866e-02 3.580882912501692772e-03 6.767903268337249756e-02 -7.623934186995029449e-03
-8.334382623434066772e-02 8.943612128496170044e-02 -3.475829586386680603e-02 -5.151471495628356934e-02 -2.865383774042129517e-02 -3.922177478671073914e-02 9.312888234853744507e-02 1.264800899662077427e-03 4.519908502697944641e-02 -1.048841327428817749e-01
1.828309521079063416e-02 5.701603367924690247e-02 5.224070511758327484e-03 -5.721452459692955017e-02 -3.198742866516113281e-02 1.400869991630315781e-02 2.459037117660045624e-02 3.462165221571922302e-02 6.089357286691665649e-02 3.013094142079353333e-02
2.727853693068027496e-02 5.010341480374336243e-02 6.657129526138305664e-02 6.635637581348419189e-02 -7.323370873928070068e-02 -6.959562748670578003e-02 -1.942071318626403809e-02 -1.185510680079460144e-02 5.413967743515968323e-02 6.177970021963119507e-02
6.094394996762275696e-02 -4.996543005108833313e-02 6.879369169473648071e-02 2.769060432910919189e-03 -8.467105031013488770e-02 -3.859059186652302742e-03 7.519216090440750122e-02 6.973329931497573853e-02 2.078912034630775452e-02 -2.438763529062271118e-02
-7.177054136991500854e-02 -6.160142272710800171e-02 -2.257027849555015564e-02 1.954911649227142334e-02 1.205183658748865128e-02 6.221000105142593384e-02 6.202956661581993103e-02 4.481181129813194275e-02 -5.925132706761360168e-02 -1.482154522091150284e-02
2.802610164508223534e-03 8.702071756124496460e-02 4.299804940819740295e-02 5.633249413222074509e-03 8.711161091923713684e-03 -4.842358827590942383e-02 -7.276676595211029053e-02 4.459409043192863464e-02 -1.863284781575202942e-02 4.824459552764892578e-02
2.916663885116577148e-03 -4.230197519063949585e-02 7.041309028863906860e-02 1.757359132170677185e-02 -2.140119438990950584e-03 5.723783373832702637e-02 1.151923462748527527e-02 -3.072617761790752411e-02 -3.212758526206016541e-02 6.226048618555068970e-02
-4.163785651326179504e-02 -3.396841138601303101e-02 5.217026919126510620e-02 -1.093074213713407516e-02 2.336326986551284790e-03 -7.062585651874542236e-02 -4.028596356511116028e-02 4.146023094654083252e-02 3.796164318919181824e-02 -7.670321315526962280e-02
-1.871797442436218262e-02 3.849718719720840454e-02 6.582716852426528931e-02 -7.183380424976348877e-02 -2.784268185496330261e-02 -5.687263607978820801e-02 -8.693335950374603271e-02 3.062056005001068115e-02 -4.360638558864593506e-02 -8.536633849143981934e-02
6.127050891518592834e-02 5.763687938451766968e-02 -7.374868728220462799e-03 -8.243213407695293427e-03 2.960443869233131409e-02 7.667492330074310303e-02 -4.794763773679733276e-02 2.535871416330337524e-02 -3.760892525315284729e-02 2.381801977753639221e-02
-1.695176586508750916e-02 6.154593080282211304e-02 4.407965019345283508e-02 -5.282096192240715027e-02 2.832447923719882965e-02 -8.253093808889389038e-02 -7.574041187763214111e-02 -1.413364242762327194e-02 -5.824893340468406677e-02 5.809203162789344788e-02
6.163902580738067627e-02 -7.365912199020385742e-02 6.497205048799514771e-02 -6.083533912897109985e-02 -1.756785996258258820e-02 -1.714685931801795959e-02 9.749229997396469116e-02 -7.245040033012628555e-03 -6.100981682538986206e-02 6.360887736082077026e-02
6.197451800107955933e-02 3.001427836716175079e-02 -3.167790174484252930e-02 -1.450527552515268326e-02 2.165869995951652527e-02 -6.204306706786155701e-02 7.246650755405426025e-02 -7.535999268293380737e-02 2.266060188412666321e-02 5.931668449193239212e-03
-1.275667455047369003e-02 -7.229126989841461182e-02 2.913140878081321716e-02 -1.630814932286739349e-02 -6.134191900491714478e-02 -3.309029340744018555e-02 -1.570918038487434387e-02 -2.385304495692253113e-02 -2.252128720283508301e-02 1.889626123011112213e-02
-6.071104109287261963e-02 -4.752642288804054260e-02 4.630289599299430847e-02 4.040256515145301819e-02 -2.263049595057964325e-02 -7.062766700983047485e-02 -2.857457287609577179e-02 -6.571233272552490234e-02 -5.001636967062950134e-02 -3.933041542768478394e-02
-1.934258639812469482e-02 8.898116648197174072e-02 4.545705765485763550e-02 3.849068284034729004e-02 -7.340598106384277344e-02 -5.241846665740013123e-02 -7.643236964941024780e-02 4.531803354620933533e-02 -3.701254958286881447e-03 2.578213438391685486e-02
3.579850308597087860e-03 -2.962073497474193573e-02 6.155046448111534119e-02 4.880300909280776978e-02 -1.046986039727926254e-02 -9.279364719986915588e-03 2.481891401112079620e-02 8.198741823434829712e-02 -8.692222088575363159e-02 4.812620952725410461e-02
4.012447595596313477e-02 5.501082167029380798e-02 -4.475679993629455566e-02 5.367282032966613770e-02 3.918671980500221252e-02 7.456132024526596069e-02 3.994407504796981812e-02 2.704280614852905273e-02 -2.651543542742729187e-02 1.288172323256731033e-02
7.081653177738189697e-02 2.196949720382690430e-02 3.399547189474105835e-02 -7.616507261991500854e-02 6.674191355705261230e-02 4.800892993807792664e-02 5.228852480649948120e-02 5.470168963074684143e-02 5.950860679149627686e-02 3.793863207101821899e-02
2.956697344779968262e-02 9.129893034696578979e-02 -2.801823429763317108e-02 1.712375879287719727e-02 -2.800920605659484863e-02 -4.561122879385948181e-02 -4.063878208398818970e-02 5.133146792650222778e-02 -8.490584045648574829e-02 2.792657818645238876e-03
5.772357061505317688e-02 -6.094866618514060974e-02 -2.498307265341281891e-02 3.540896624326705933e-02 7.152785360813140869e-02 1.376445521600544453e-03 1.533586718142032623e-02 -8.377287536859512329e-02 -1.003099419176578522e-02 5.856923386454582214e-02
3.071555495262145996e-02 -1.606898568570613861e-02 -8.007446303963661194e-03 4.647728800773620605e-02 -3.463846072554588318e-02 5.689491331577301025e-02 -2.425287663936614990e-02 -4.581170901656150818e-02 -2.897136099636554718e-02 4.944759234786033630e-02
-7.390669733285903931e-02 -6.738166511058807373e-02 -6.114731729030609131e-02 -2.735343948006629944e-02 5.915461480617523193e-02 5.257328227162361145e-02 -1.540007255971431732e-02 2.082911133766174316e-02 7.251674681901931763e-02 -4.428011551499366760e-02
2.028656937181949615e-02 1.227373629808425903e-02 -4.887524619698524475e-02 -6.641596555709838867e-02 -1.392730884253978729e-02 -4.886236786842346191e-02 -3.125326940789818764e-03 7.417589426040649414e-02 4.480720683932304382e-02 -3.208843246102333069e-02
6.128242611885070801e-02 7.337919622659683228e-02 -8.076624944806098938e-03 7.944451645016670227e-03 4.759097099304199219e-02 -1.567516883369535208e-04 -4.222652688622474670e-02 5.485204234719276428e-02 8.428929001092910767e-02 7.163208723068237305e-02
-8.998513966798782349e-02 -3.290905430912971497e-02 -3.158545121550559998e-02 7.808008696883916855e-03 7.994635403156280518e-02 4.275736212730407715e-02 -3.895011544227600098e-02 -5.359246209263801575e-02 6.486755609512329102e-02 -2.397717442363500595e-03
6.332199275493621826e-02 6.750399619340896606e-02 5.729909613728523254e-02 1.099200453609228134e-02 3.832370787858963013e-02 1.510370429605245590e-02 -7.098282873630523682e-02 -3.752062842249870300e-02 -1.394419930875301361e-03 9.184786677360534668e-02
6.555495411157608032e-02 -4.783431813120841980e-02 -7.805068045854568481e-03 -4.131228104233741760e-02 -5.704779550433158875e-02 -1.293707173317670822e-02 -5.502381548285484314e-02 4.038839414715766907e-02 5.341450218111276627e-03 -6.883617490530014038e-02
-4.788021370768547058e-02 -5.904414504766464233e-02 -3.380933776497840881e-02 -9.569969773292541504e-02 4.412220045924186707e-02 -6.357237696647644043e-02 2.164661511778831482e-02 -2.631813660264015198e-02 -4.573623463511466980e-02 5.271139368414878845e-02
4.165116325020790100e-02 4.878102242946624756e-02 7.654106710106134415e-03 5.132891982793807983e-02 6.356681697070598602e-04 -4.241310432553291321e-02 -2.894242666661739349e-02 -5.907793343067169189e-02 -1.805147156119346619e-03 -4.582707583904266357e-02
-2.009998261928558350e-02 -6.566510349512100220e-02 5.813425406813621521e-02 1.287128962576389313e-02 -6.846317648887634277e-02 4.254820197820663452e-02 -5.911048129200935364e-02 6.732334196567535400e-02 6.871506571769714355e-02 4.252150654792785645e-02
1.868551038205623627e-02 -3.428183495998382568e-02 -1.359808724373579025e-02 5.556860566139221191e-02 3.916630987077951431e-03 -5.501508712768554688e-03 -2.847210876643657684e-02 -5.341219902038574219e-02 6.620068848133087158e-02 -7.323587685823440552e-02
-2.362773381173610687e-02 -2.206420339643955231e-02 1.017558737657964230e-03 -1.270887674763798714e-03 7.501094788312911987e-02 -1.670747762545943260e-03 -1.259106490761041641e-02 1.010558847337961197e-02 -8.500784635543823242e-02 3.680697083473205566e-02
7.316957414150238037e-02 2.718447707593441010e-02 3.966271877288818359e-03 -2.083535864949226379e-02 -1.443164050579071045e-02 4.353665560483932495e-02 -1.229901891201734543e-02 -3.377609699964523315e-02 7.886288315057754517e-02 1.839796081185340881e-03
8.166795223951339722e-02 3.946062177419662476e-03 1.430592220276594162e-02 -2.100977301597595215e-02 -4.010886326432228088e-02 -1.058565638959407806e-02 3.501114621758460999e-02 3.387027233839035034e-02 -4.606946557760238647e-02 8.233601599931716919e-02
7.510290294885635376e-02 -8.631093055009841919e-02 5.706048384308815002e-02 -4.533711448311805725e-02 2.698282524943351746e-02 5.131261423230171204e-02 -5.433232337236404419e-02 1.009401381015777588e-01 -2.871963568031787872e-02 8.261949755251407623e-03
4.182692989706993103e-02 -7.107053697109222412e-02 1.269909925758838654e-02 -3.273294493556022644e-02 -7.472324371337890625e-02 6.245525926351547241e-02 -5.685810931026935577e-03 5.337301641702651978e-02 -5.244167149066925049e-02 -7.702974230051040649e-02
-5.648545920848846436e-03 -5.388461053371429443e-02 6.844646763056516647e-03 -8.090155571699142456e-02 4.388862848281860352e-02 7.427404820919036865e-02 -1.853637211024761200e-02 1.477210503071546555e-02 -1.309160958044230938e-03 2.842574566602706909e-02
-1.327511854469776154e-03 2.795007266104221344e-02 -9.639552794396877289e-03 3.209051489830017090e-02 2.972963824868202209e-02 4.568981751799583435e-02 1.830632798373699188e-02 2.439855365082621574e-03 -6.704266369342803955e-02 -3.274557879194617271e-03
-6.828179210424423218e-02 -2.526992699131369591e-03 -6.075259670615196228e-02 8.345501869916915894e-02 -5.160503461956977844e-02 6.192962080240249634e-02 8.829583413898944855e-03 6.123280897736549377e-02 -1.804656907916069031e-02 8.744876086711883545e-02
4.877754300832748413e-02 6.684975232928991318e-03 -1.962748914957046509e-02 -1.506276545114815235e-03 7.772614248096942902e-03 9.319255501031875610e-02 5.565650016069412231e-02 -5.896599963307380676e-02 -7.020860910415649414e-02 -6.526231765747070312e-02
2.013819292187690735e-03 -6.784653663635253906e-02 3.987650200724601746e-02 -5.504448339343070984e-02 6.140824034810066223e-02 -2.337556332349777222e-02 -6.034665927290916443e-02 1.678776182234287262e-02 2.861213125288486481e-02 5.581688508391380310e-02
-2.627705223858356476e-02 8.512684144079685211e-03 -5.369780212640762329e-02 -4.142665769904851913e-03 1.197140105068683624e-02 2.124356478452682495e-02 -3.748745843768119812e-02 -2.285579964518547058e-02 -1.959429495036602020e-02 7.026216387748718262e-02
1.529520843178033829e-02 -3.203642787411808968e-03 1.754283905029296875e-02 -2.048163674771785736e-02 6.684746593236923218e-02 1.131857559084892273e-02 8.245712518692016602e-02 4.540076944977045059e-03 -8.617319911718368530e-02 3.847468271851539612e-02
-5.144545808434486389e-03 4.470241069793701172e-02 -5.897453427314758301e-02 -3.304500877857208252e-02 6.840820424258708954e-04 -2.678831294178962708e-02 -1.242914702743291855e-02 3.394751250743865967e-02 -5.415238812565803528e-02 -3.617288917303085327e-02
4.604296013712882996e-02 2.364073507487773895e-02 1.477769855409860611e-02 6.831145379692316055e-03 4.485392943024635315e-02 7.337177544832229614e-02 -5.677086859941482544e-02 3.089507296681404114e-02 -2.720305509865283966e-02 5.740727111697196960e-02
-7.733689993619918823e-02 -4.447364434599876404e-02 8.107823133468627930e-02 -6.432472262531518936e-03 7.086642831563949585e-02 1.471953839063644409e-02 9.995962679386138916e-02 1.288664247840642929e-02 -7.415062189102172852e-02 3.443094342947006226e-02
-1.925769262015819550e-02 4.495218396186828613e-02 6.071480363607406616e-02 -2.009561285376548767e-02 -2.928747795522212982e-02 9.708982892334461212e-03 3.216676414012908936e-02 6.196940690279006958e-02 -5.746291950345039368e-02 -4.742104187607765198e-02
-1.732506789267063141e-02 4.217990115284919739e-02 7.267471402883529663e-03 -5.926228687167167664e-02 -2.127361297607421875e-02 -3.052053041756153107e-02 8.413597941398620605e-02 -7.765690982341766357e-02 5.174541845917701721e-03 3.392131254076957703e-02
3.026959113776683807e-02 5.761989206075668335e-02 -3.035622276365756989e-02 -1.519848592579364777e-02 1.580017432570457458e-02 8.131643757224082947e-03 5.602516978979110718e-02 -5.253681167960166931e-02 4.977845586836338043e-03 2.811129763722419739e-02
1.256224885582923889e-02 -1.645926758646965027e-02 -4.009179770946502686e-02 7.619060110300779343e-03 7.010868936777114868e-02 5.627668648958206177e-02 1.939965598285198212e-02 2.287580072879791260e-02 -5.203139036893844604e-03 2.391587804595474154e-05
2.404032088816165924e-02 1.025159098207950592e-02 1.739386469125747681e-02 -6.147069111466407776e-02 1.781099475920200348e-02 -8.720254898071289062e-02 -3.817478939890861511e-02 1.599498651921749115e-02 -4.234724212437868118e-03 -4.514866322278976440e-02
-5.877532996237277985e-03 2.566745132207870483e-02 -3.828331083059310913e-02 8.475165814161300659e-03 8.278962224721908569e-02 4.648026451468467712e-02 -1.030707824975252151e-02 5.735893547534942627e-02 -3.417282178997993469e-02 -6.678209453821182251e-02
2.679576724767684937e-02 -6.932663172483444214e-02 1.630947552621364594e-02 6.716700643301010132e-02 -2.388946898281574249e-02 7.656143046915531158e-03 -7.732301205396652222e-02 -8.241406828165054321e-02 1.120584383606910706e-01 8.285016566514968872e-02
-3.815020620822906494e-02 6.071798875927925110e-02 -3.122818656265735626e-02 -6.629808992147445679e-02 -8.460061997175216675e-02 -2.776506729423999786e-02 6.943973898887634277e-02 6.200304627418518066e-02 -2.200671099126338959e-02 7.949157804250717163e-02
-5.690675973892211914e-02 4.889839887619018555e-02 -6.873751431703567505e-02 9.237141348421573639e-03 -2.363668568432331085e-02 -5.349200218915939331e-02 -1.193672604858875275e-02 -7.400772720575332642e-02 -2.432590723037719727e-02 4.688659217208623886e-03
4.668211191892623901e-02 4.385138303041458130e-02 -6.694141775369644165e-02 7.783596217632293701e-02 -5.369654670357704163e-02 4.673298448324203491e-02 4.475131258368492126e-02 -1.519273035228252411e-02 -1.130044553428888321e-02 8.102208375930786133e-02
6.617891788482666016e-02 -5.403770506381988525e-02 4.758208990097045898e-02 -4.312770441174507141e-02 7.248017191886901855e-02 6.178656220436096191e-02 4.379069805145263672e-02 1.498751342296600342e-03 1.471644639968872070e-02 -1.407746225595474243e-02
4.870511963963508606e-02 -2.412545494735240936e-02 -5.292598530650138855e-02 8.358164131641387939e-02 -7.230324205011129379e-03 2.450668811798095703e-02 -2.085134387016296387e-02 -8.272741734981536865e-02 5.154099781066179276e-03 -6.718948483467102051e-02
-8.817264437675476074e-02 -2.029756084084510803e-02 -1.669904589653015137e-02 -1.681412383913993835e-02 8.188457041978836060e-02 5.712569132447242737e-02 -1.571279391646385193e-02 3.587197512388229370e-02 5.196062102913856506e-02 -5.377345159649848938e-02
4.964956641197204590e-02 -3.569039702415466309e-02 -5.002933368086814880e-02 -1.887972466647624969e-02 4.091496393084526062e-02 -1.977108884602785110e-03 -2.988056978210806847e-03 -1.886651851236820221e-02 -2.290581911802291870e-02 -2.864801697432994843e-02
-7.343645393848419189e-02 5.615459382534027100e-02 3.003912046551704407e-02 -6.398520618677139282e-02 -1.601244695484638214e-02 2.346285618841648102e-02 5.953909829258918762e-02 -7.654969394207000732e-02 7.888474315404891968e-02 6.539240479469299316e-02
5.417557060718536377e-02 1.790014095604419708e-02 -4.795034602284431458e-02 -2.893066778779029846e-02 8.071463555097579956e-02 -9.565076977014541626e-02 7.519412040710449219e-02 4.737976565957069397e-02 7.518418878316879272e-02 -8.592517673969268799e-02
1.148182153701782227e-02 8.273213356733322144e-02 5.768596008419990540e-02 6.319323927164077759e-02 6.760438438504934311e-03 -6.084359809756278992e-02 5.088840797543525696e-02 7.654737681150436401e-02 -3.691658750176429749e-02 6.583225727081298828e-02
3.166798502206802368e-02 -2.099823206663131714e-02 3.312233090400695801e-02 -3.370659798383712769e-02 -5.593487620353698730e-02 -4.541680961847305298e-02 -6.200037896633148193e-02 1.178641058504581451e-02 3.285649046301841736e-02 -5.976033955812454224e-02
7.146759331226348877e-02 -6.515338271856307983e-02 4.124531522393226624e-02 -7.446552067995071411e-02 3.498367965221405029e-02 -7.328780833631753922e-03 5.991339311003684998e-02 7.136679440736770630e-02 -6.152289733290672302e-02 4.896522732451558113e-04
5.449942499399185181e-02 4.612839967012405396e-02 -3.280208259820938110e-02 7.704479247331619263e-02 5.991635099053382874e-02 -6.567113846540451050e-02 -5.821419507265090942e-02 -5.660798400640487671e-02 -4.247484728693962097e-02 -2.258356101810932159e-02
-7.712295651435852051e-02 -6.598471105098724365e-02 8.292416483163833618e-02 -6.037382874637842178e-03 2.053416334092617035e-02 -5.995390191674232483e-02 -5.586574319750070572e-03 3.307457268238067627e-02 7.103756070137023926e-02 -9.133198298513889313e-03
7.159490138292312622e-02 1.894473657011985779e-02 -4.979825392365455627e-02 -4.245927929878234863e-02 5.114492378197610378e-04 -5.858858674764633179e-02 6.861586868762969971e-02 -7.148803770542144775e-02 -5.223281309008598328e-02 3.066293429583311081e-03
-1.224046573042869568e-02 3.792336210608482361e-02 5.416365806013345718e-03 4.690242558717727661e-02 3.801236674189567566e-02 1.019384339451789856e-02 -1.043785065412521362e-01 2.004945650696754456e-02 5.329792201519012451e-02 8.239307254552841187e-02
6.483383476734161377e-02 -1.172183081507682800e-03 -1.282162033021450043e-03 1.207548659294843674e-02 -3.992154449224472046e-02 -8.613642305135726929e-03 6.773173809051513672e-02 8.898030035197734833e-03 2.490050531923770905e-02 -2.164076454937458038e-02
7.490105181932449341e-02 2.314780466258525848e-02 -9.677546098828315735e-03 3.706192597746849060e-02 -8.158343844115734100e-03 2.914319559931755066e-02 -8.258060552179813385e-04 -8.131563663482666016e-02 -7.198026776313781738e-02 -7.058478891849517822e-02
-3.341022878885269165e-02 -4.631196707487106323e-02 4.271635040640830994e-02 5.134454369544982910e-02 -3.416556492447853088e-02 -8.888280950486660004e-03 -7.521700114011764526e-02 4.642359539866447449e-02 3.628384321928024292e-02 -1.180460210889577866e-02
1.975186541676521301e-02 -6.593167781829833984e-02 -5.801961570978164673e-02 -6.330282241106033325e-02 -1.141178701072931290e-02 8.566627278923988342e-03 6.205259356647729874e-03 3.713658824563026428e-02 6.005140766501426697e-02 4.224126785993576050e-02
2.101582475006580353e-02 -6.785219907760620117e-02 -1.263443031348288059e-03 4.916538950055837631e-03 8.659197390079498291e-02 1.063180156052112579e-02 3.116312250494956970e-02 -6.076101213693618774e-02 1.443815138190984726e-02 -7.436808943748474121e-02
6.001822650432586670e-02 2.666522748768329620e-02 -7.786371745169162750e-03 5.855440348386764526e-02 6.754423677921295166e-02 -7.248631864786148071e-02 -7.496392726898193359e-02 -3.948161320295184851e-04 4.901228472590446472e-02 -2.894602715969085693e-02
-3.509929776191711426e-02 -6.062448397278785706e-02 5.667122825980186462e-02 4.212254285812377930e-02 -7.593066245317459106e-02 -1.666085980832576752e-02 5.298750847578048706e-02 6.905546039342880249e-02 -1.115104369819164276e-02 -2.955414354801177979e-02
-1.922194845974445343e-02 1.866892166435718536e-02 -8.288732729852199554e-03 -8.962840586900711060e-02 3.985870257019996643e-02 1.518998946994543076e-02 -1.586064323782920837e-02 -1.887897402048110962e-02 8.566031605005264282e-02 7.108973711729049683e-02
1.262594014406204224e-02 -7.602598518133163452e-02 -7.935000956058502197e-02 6.542367488145828247e-02 -1.718791015446186066e-02 2.334800362586975098e-02 6.436795741319656372e-02 -3.767783194780349731e-02 4.935503751039505005e-02 8.460181206464767456e-02
-5.751945823431015015e-02 9.779200889170169830e-03 4.724053433164954185e-04 -6.030103564262390137e-02 2.320787310600280762e-02 4.747471772134304047e-03 7.824401371181011200e-03 -2.382189594209194183e-02 -7.462108135223388672e-02 6.319209933280944824e-02
-3.240450751036405563e-03 4.556141048669815063e-02 -1.070480607450008392e-02 -1.714979298412799835e-02 -3.459768742322921753e-02 1.861628703773021698e-02 -6.587650626897811890e-02 2.687385305762290955e-02 -7.816496491432189941e-02 -6.081015616655349731e-02
4.005453549325466156e-03 3.078446164727210999e-02 7.377270143479108810e-03 1.369300298392772675e-03 -4.099796526134014130e-03 -5.391908064484596252e-02 6.698248907923698425e-03 -2.827266603708267212e-02 6.602477282285690308e-02 -4.451089724898338318e-02
-3.179675713181495667e-02 -4.786706343293190002e-02 3.227651864290237427e-02 -3.290501609444618225e-02 -1.751232519745826721e-02 -1.413674280047416687e-02 -5.701541900634765625e-03 -3.542649000883102417e-02 3.141020238399505615e-02 5.906909704208374023e-02
4.056807374581694603e-04 4.211760312318801880e-02 -3.315474838018417358e-02 4.075273871421813965e-02 -2.004525251686573029e-02 -1.000158209353685379e-02 2.541485987603664398e-02 -1.045097131282091141e-02 -4.029749706387519836e-02 1.061678980477154255e-03
4.652987420558929443e-02 -6.533518433570861816e-02 -2.846974134445190430e-02 -6.974919140338897705e-02 -4.331578686833381653e-02 -6.357998400926589966e-02 3.548628091812133789e-02 -5.270291119813919067e-02 6.419697403907775879e-02 5.481114983558654785e-02
1.800370030105113983e-02 -1.392999850213527679e-02 -1.348829735070466995e-02 -6.098440662026405334e-02 5.156525969505310059e-02 2.306743152439594269e-02 1.400635857135057449e-02 3.940086066722869873e-02 4.288878664374351501e-02 6.465360522270202637e-02
6.384023278951644897e-02 7.322064042091369629e-02 3.881128504872322083e-02 3.033764846622943878e-02 2.768064662814140320e-02 -6.588420271873474121e-02 -6.673780828714370728e-02 5.087060108780860901e-02 4.237924143671989441e-02 -5.234113335609436035e-02
3.089685365557670593e-02 -2.799681155011057854e-03 7.708215713500976562e-02 -2.187522873282432556e-02 7.901325821876525879e-02 -2.953005954623222351e-03 8.929032832384109497e-03 7.370899617671966553e-02 -4.901182372123003006e-03 -2.514132671058177948e-02
-1.737210154533386230e-02 6.076116580516099930e-03 -1.255295891314744949e-02 6.623922288417816162e-02 -4.581817239522933960e-02 1.253335922956466675e-02 -3.216222161427140236e-03 -1.211379561573266983e-02 -4.857179149985313416e-02 -3.113695047795772552e-02
3.285310044884681702e-02 3.435418754816055298e-02 5.043110623955726624e-02 5.044474825263023376e-02 -3.208346664905548096e-02 5.565863102674484253e-02 -4.952125251293182373e-02 1.804210618138313293e-02 7.125423848628997803e-02 -5.632616952061653137e-02
1.728391274809837341e-02 -2.374591678380966187e-02 1.458479091525077820e-02 5.176755599677562714e-03 5.431922152638435364e-02 -4.752619192004203796e-02 2.319449000060558319e-02 -8.382205851376056671e-03 1.762455143034458160e-02 2.841675840318202972e-02
3.107358515262603760e-02 -1.435772795230150223e-02 6.186025589704513550e-02 2.227329835295677185e-02 2.222459577023983002e-02 -7.954612374305725098e-02 -8.181789517402648926e-02 -1.835451833903789520e-02 -2.521453239023685455e-02 -2.342284657061100006e-02
5.078048259019851685e-02 -4.588507115840911865e-02 1.803839020431041718e-02 6.910244375467300415e-02 -9.404407441616058350e-02 2.209784835577011108e-02 2.692076191306114197e-02 -7.130847871303558350e-02 6.515562534332275391e-02 -3.003494814038276672e-02
7.272485643625259399e-02 6.835869699716567993e-02 1.810988178476691246e-03 6.364929676055908203e-02 6.289830803871154785e-02 -6.318885367363691330e-03 -7.503637671470642090e-02 -2.480236440896987915e-02 -2.963646873831748962e-02 1.961480453610420227e-02
-2.970892004668712616e-02 3.741263225674629211e-02 -2.108706720173358917e-02 -1.619269140064716339e-02 5.617950856685638428e-02 6.281550228595733643e-02 6.166917085647583008e-02 6.974822282791137695e-02 -4.470687732100486755e-02 -1.654488407075405121e-02
4.884926974773406982e-02 7.996478118002414703e-03 7.115335017442703247e-02 -6.639757752418518066e-02 4.192140698432922363e-02 -3.654257580637931824e-02 4.757805168628692627e-02 6.225015968084335327e-02 -6.060086935758590698e-02 2.170084603130817413e-02
2.337949909269809723e-02 2.966087777167558670e-03 3.426809236407279968e-02 6.756175309419631958e-02 1.146712433546781540e-02 5.130166932940483093e-02 -1.698072068393230438e-03 4.261312261223793030e-02 -2.546308934688568115e-02 5.999385565519332886e-02
6.811202317476272583e-02 -5.045045912265777588e-02 -6.252386420965194702e-02 -7.119314372539520264e-02 -5.524011701345443726e-02 5.472600087523460388e-02 1.078670192509889603e-02 2.619887329638004303e-02 -6.581652164459228516e-02 -2.247844822704792023e-02
4.020070657134056091e-02 -4.994097724556922913e-02 2.112358435988426208e-02 -6.210830435156822205e-02 -3.166087903082370758e-03 1.347258780151605606e-02 3.000177070498466492e-02 -1.911678584292531013e-03 -6.365559995174407959e-02 4.478754103183746338e-02
6.852952390909194946e-02 6.816260516643524170e-02 -1.059253793209791183e-02 -2.916082739830017090e-02 6.965953111648559570e-02 3.309023007750511169e-02 -2.310092747211456299e-02 -3.890703991055488586e-02 1.847479678690433502e-02 4.156588576734066010e-03
-7.408042997121810913e-02 8.601996302604675293e-02 -7.634136080741882324e-02 -4.376305639743804932e-02 -6.076962128281593323e-02 5.063433572649955750e-02 6.871146708726882935e-02 -6.536506116390228271e-03 2.133703045547008514e-02 -1.279532071202993393e-02
2.147049643099308014e-03 6.185209378600120544e-02 -4.664611443877220154e-02 -7.281976751983165741e-03 -8.013837039470672607e-02 -1.088500488549470901e-02 5.581993237137794495e-02 1.916992850601673126e-02 3.433923795819282532e-02 7.602476328611373901e-02
-6.938119232654571533e-02 6.799390166997909546e-02 -4.018573462963104248e-02 2.321041189134120941e-02 2.534522116184234619e-02 3.033534623682498932e-02 1.057115197181701660e-02 5.157708376646041870e-02 6.784116476774215698e-02 -7.605002820491790771e-02
7.332402747124433517e-03 8.509966544806957245e-03 2.512415498495101929e-02 3.851064294576644897e-02 -7.104206085205078125e-02 2.690860442817211151e-02 -8.977046236395835876e-03 9.430825710296630859e-02 -6.058496609330177307e-02 7.176740467548370361e-02
3.482774272561073303e-02 -1.010168623179197311e-02 -6.245231721550226212e-03 -4.579450935125350952e-02 2.283267490565776825e-02 3.663722798228263855e-02 3.551797941327095032e-02 4.940964747220277786e-03 -7.758101075887680054e-02 -2.388716908171772957e-03
6.843343377113342285e-02 -4.363619536161422729e-02 4.146100953221321106e-02 -4.710001870989799500e-02 7.882916182279586792e-02 -5.876736249774694443e-03 -4.739589989185333252e-02 1.493483595550060272e-02 -7.660579681396484375e-02 6.918980740010738373e-03
-5.202802643179893494e-02 -6.958750635385513306e-02 1.881012693047523499e-02 3.108521923422813416e-02 -2.805156819522380829e-02 6.712385267019271851e-02 -1.175796799361705780e-02 -5.904782935976982117e-02 4.123645648360252380e-02 1.894042082130908966e-02
8.054940402507781982e-02 2.881181053817272186e-02 2.887873165309429169e-02 5.997509881854057312e-02 -2.785446494817733765e-02 -4.739632830023765564e-02 -1.839373819530010223e-02 -1.011561229825019836e-02 2.050929469987750053e-03 8.836324512958526611e-02
-6.952659040689468384e-02 -1.575184985995292664e-02 -3.864101320505142212e-02 8.252754807472229004e-02 5.714330822229385376e-02 -2.520222961902618408e-02 -7.864489406347274780e-02 1.020686328411102295e-02 -1.394252525642514229e-03 4.631757736206054688e-02
6.584724038839340210e-02 1.840607076883316040e-02 -4.601546376943588257e-02 8.861747384071350098e-02 -6.260040402412414551e-02 8.666310459375381470e-02 7.853852212429046631e-02 2.651927806437015533e-02 -4.900129139423370361e-02 -7.009962201118469238e-02
-1.713722012937068939e-02 2.838705852627754211e-02 9.946855157613754272e-02 -3.647983819246292114e-02 3.193333745002746582e-02 5.243214219808578491e-02 4.649033397436141968e-02 1.196714211255311966e-02 3.975140303373336792e-02 -5.101551115512847900e-02
7.379441708326339722e-02 -1.777624525129795074e-02 1.903199218213558197e-02 1.573529280722141266e-02 4.497686773538589478e-02 -4.696398973464965820e-02 1.003424171358346939e-02 -7.144799083471298218e-02 1.336071640253067017e-02 8.904234319925308228e-02
4.931496828794479370e-02 -3.311240300536155701e-02 5.855352431535720825e-02 4.040584899485111237e-03 8.154869079589843750e-02 -7.275550812482833862e-02 -7.587531115859746933e-03 -6.259638816118240356e-02 -9.380678646266460419e-03 -2.701332047581672668e-02
5.448867753148078918e-02 -9.590145200490951538e-03 7.484840601682662964e-02 -4.711363837122917175e-02 -3.962620347738265991e-02 -1.503893360495567322e-02 -2.094249054789543152e-02 -2.955062687397003174e-02 1.407064218074083328e-02 -2.070410177111625671e-02
-3.271864354610443115e-02 -6.828880310058593750e-02 1.064359247684478760e-01 5.818049237132072449e-02 -7.216314971446990967e-02 -4.567335546016693115e-02 1.903270184993743896e-02 -4.567537829279899597e-02 -3.283039852976799011e-02 -2.434437535703182220e-02
7.606481760740280151e-02 -3.376286104321479797e-02 -3.350087627768516541e-02 5.790539458394050598e-02 -3.847429528832435608e-02 5.622817575931549072e-02 -1.966179348528385162e-02 -8.081562817096710205e-02 -5.554843321442604065e-02 7.844695448875427246e-02
-8.880317211151123047e-02 -6.795471906661987305e-02 6.104262080043554306e-03 2.976450696587562561e-02 8.229635655879974365e-02 9.665590524673461914e-02 -5.142588913440704346e-02 1.329909451305866241e-02 1.421152614057064056e-02 3.321050107479095459e-02
9.484930895268917084e-03 6.731645762920379639e-02 -5.453265085816383362e-02 -3.727064654231071472e-02 3.221276402473449707e-02 6.773908436298370361e-02 -3.506869450211524963e-02 5.762651935219764709e-02 -7.957573235034942627e-02 7.216815650463104248e-02
-4.560075327754020691e-02 -2.658537589013576508e-02 9.199257940053939819e-03 -4.941067472100257874e-02 1.728610717691481113e-03 2.932594902813434601e-02 4.703181609511375427e-02 6.967982649803161621e-02 -2.279921248555183411e-02 -3.535980824381113052e-03
-1.402172632515430450e-02 3.774001076817512512e-02 3.965229168534278870e-02 4.822152201086282730e-03 5.078096315264701843e-02 3.268165513873100281e-02 2.601299248635768890e-02 2.384082414209842682e-02 -4.209759086370468140e-02 9.125163406133651733e-02
2.530854940414428711e-02 -2.773113921284675598e-02 7.603164017200469971e-02 2.807201445102691650e-02 2.232568152248859406e-02 -3.848641365766525269e-02 2.172177471220493317e-02 2.055309014394879341e-03 -3.660830855369567871e-02 2.432120591402053833e-02
-8.436466753482818604e-02 -6.507520098239183426e-03 5.956451222300529480e-02 -5.300588905811309814e-02 -3.407734259963035583e-02 7.551957853138446808e-03 -7.239602506160736084e-02 -7.780479639768600464e-02 2.053244598209857941e-02 8.070600777864456177e-02
5.606745555996894836e-02 -6.850885599851608276e-02 -5.665307864546775818e-02 -7.190205156803131104e-02 3.015277348458766937e-02 -3.426426555961370468e-03 3.016894496977329254e-02 1.509142108261585236e-02 -1.795523054897785187e-02 -4.407502338290214539e-02
-6.560194492340087891e-02 5.470361933112144470e-02 6.281092762947082520e-02 -7.392704486846923828e-02 -3.576712682843208313e-02 -7.079881429672241211e-02 -7.627200800925493240e-03 9.903014637529850006e-03 8.561608195304870605e-02 8.077223598957061768e-02
6.116794794797897339e-02 -5.047482252120971680e-02 3.492972999811172485e-02 2.362493611872196198e-02 -7.134243845939636230e-02 -4.222520440816879272e-02 -2.229126729071140289e-02 -5.740874633193016052e-02 3.590488806366920471e-02 -1.360376249067485332e-03
4.016864113509654999e-03 5.116501450538635254e-02 -7.000774890184402466e-02 -6.020371220074594021e-04 -7.798985391855239868e-02 2.639389829710125923e-03 -7.048494648188352585e-03 4.562220349907875061e-02 2.995877899229526520e-02 -7.359307259321212769e-02
1.228590263053774834e-03 -2.072018804028630257e-03 3.085053153336048126e-02 3.588236123323440552e-02 5.636109784245491028e-02 -7.423581182956695557e-02 -4.020439460873603821e-02 5.568337067961692810e-02 5.747585743665695190e-02 2.073642984032630920e-02
4.642850160598754883e-02 5.114724859595298767e-02 4.725470393896102905e-02 1.611122675240039825e-02 -4.518809914588928223e-02 5.693766474723815918e-02 6.234140694141387939e-02 4.883063584566116333e-02 2.265558019280433655e-02 -6.979235261678695679e-02
7.277340441942214966e-02 -6.104565784335136414e-02 6.894750893115997314e-02 8.044864982366561890e-02 -9.079057723283767700e-02 -6.735032796859741211e-02 -5.355247110128402710e-02 5.856766179203987122e-02 3.074033185839653015e-02 -6.452919542789459229e-02
-6.928122788667678833e-02 -3.211693465709686279e-02 6.926713138818740845e-02 -4.257966950535774231e-02 -1.316025666892528534e-02 -1.006626896560192108e-02 -4.582938272505998611e-04 -3.374187275767326355e-02 -3.776484355330467224e-02 -9.169947355985641479e-03
4.816674441099166870e-02 8.457776159048080444e-02 -6.162661686539649963e-02 -7.956628501415252686e-02 5.004945024847984314e-02 -1.082034874707460403e-02 -1.014423742890357971e-02 -6.893087178468704224e-02 -9.569830261170864105e-03 9.420959395356476307e-04
-5.935747921466827393e-02 -5.623578652739524841e-02 -2.090732194483280182e-02 -5.373525992035865784e-02 -4.303494840860366821e-02 9.320871531963348389e-02 -6.910172849893569946e-02 6.706491112709045410e-02 -5.185012519359588623e-02 2.000701241195201874e-02
6.584008038043975830e-02 6.964750587940216064e-02 6.302759796380996704e-02 4.998894408345222473e-02 -9.598724544048309326e-02 -7.387556135654449463e-02 -4.311400651931762695e-02 -1.241793762892484665e-02 3.803021460771560669e-02 1.506031677126884460e-02
-8.344368077814579010e-03 -2.133793011307716370e-02 -5.621271580457687378e-02 1.927741989493370056e-02 2.832989953458309174e-02 3.756291419267654419e-02 3.069215267896652222e-02 -7.911650091409683228e-02 -6.770229898393154144e-03 6.446693092584609985e-02
5.207964777946472168e-02 6.800254434347152710e-02 -1.490440685302019119e-02 -1.560576166957616806e-02 -7.694312371313571930e-03 -1.069636736065149307e-02 -1.937591820023953915e-03 4.947726801037788391e-02 -8.032095618546009064e-03 3.338645771145820618e-02
-2.138824947178363800e-02 -4.471039399504661560e-02 1.246243342757225037e-02 5.604279786348342896e-02 -1.318224053829908371e-02 -1.405652612447738647e-02 -8.369737304747104645e-03 7.978454232215881348e-03 5.286694038659334183e-03 2.451705373823642731e-02
-4.623752087354660034e-02 3.378292545676231384e-03 2.152840606868267059e-02 4.736231267452239990e-02 5.225612595677375793e-02 -5.272741429507732391e-03 5.766756832599639893e-02 6.110972911119461060e-02 2.154023619368672371e-03 -4.643981158733367920e-02
4.120804741978645325e-02 3.908887133002281189e-02 -7.690011709928512573e-02 -7.361283153295516968e-02 7.184217683970928192e-03 8.813361078500747681e-02 -5.040416121482849121e-02 7.088490575551986694e-02 3.793800622224807739e-02 -6.233570724725723267e-02
7.687292061746120453e-03 5.754803493618965149e-02 7.712258398532867432e-02 -6.782065331935882568e-02 -1.523850671947002411e-02 3.136176988482475281e-02 -3.563049435615539551e-02 -1.428450923413038254e-02 3.924143034964799881e-03 -4.160379245877265930e-02
-2.895203791558742523e-02 -5.172158405184745789e-02 -5.339490622282028198e-02 -2.033519186079502106e-02 2.944370964542031288e-03 8.535815030336380005e-02 -8.311750739812850952e-02 6.370463967323303223e-02 -2.622221037745475769e-02 6.150192394852638245e-02
-7.801990956068038940e-02 4.549988731741905212e-02 2.601279690861701965e-02 7.113800942897796631e-02 9.173619002103805542e-02 -6.280328333377838135e-02 -6.949345022439956665e-02 3.757245093584060669e-02 4.139557946473360062e-03 4.929157346487045288e-02
4.496063292026519775e-02 2.227305248379707336e-02 5.314529687166213989e-02 5.194209143519401550e-02 -3.990115970373153687e-02 -6.876225769519805908e-02 5.031967908143997192e-02 -5.038993433117866516e-02 7.428845274262130260e-04 2.155900746583938599e-02
-6.402549892663955688e-02 5.169915035367012024e-02 -4.438273608684539795e-02 6.331971287727355957e-02 3.126429393887519836e-02 -2.337608486413955688e-02 2.639777772128582001e-02 -5.803892388939857483e-02 -4.325209185481071472e-02 8.434256166219711304e-02
-1.644236594438552856e-02 -3.751688450574874878e-02 -3.617310523986816406e-02 -5.766069889068603516e-02 4.967921879142522812e-03 -4.197898879647254944e-02 3.105158545076847076e-02 -4.750743508338928223e-02 5.067383870482444763e-03 4.321376234292984009e-02
-5.025109741836786270e-03 6.340914964675903320e-02 2.491433732211589813e-02 -5.952912196516990662e-02 -1.656150259077548981e-02 2.580215036869049072e-02 2.663584984838962555e-02 -3.799804300069808960e-02 -6.540250778198242188e-02 -5.420437082648277283e-02
-7.344295829534530640e-02 5.024791508913040161e-02 4.958016052842140198e-02 4.043557867407798767e-02 6.825564801692962646e-02 5.063099414110183716e-02 -5.842155963182449341e-02 3.981661051511764526e-02 6.796353310346603394e-02 -1.257644966244697571e-03
7.430732995271682739e-02 5.030738189816474915e-03 1.897550188004970551e-02 3.916854411363601685e-02 2.897904068231582642e-02 6.512829661369323730e-02 2.669448032975196838e-02 7.810118049383163452e-02 -3.170483931899070740e-02 -1.962557621300220490e-02
-6.665240228176116943e-02 -2.958905696868896484e-02 5.313074961304664612e-02 5.732836201786994934e-03 -1.485501136630773544e-02 5.607248097658157349e-02 5.124144256114959717e-02 -6.004368886351585388e-02 -5.058868974447250366e-02 -1.539575122296810150e-02
2.265381440520286560e-02 -8.507155813276767731e-03 -8.366527967154979706e-03 5.276205763220787048e-02 -5.140278115868568420e-02 -4.799368605017662048e-02 -5.767847597599029541e-02 -2.162874490022659302e-02 -1.702790521085262299e-02 1.452677510678768158e-02
-8.111544698476791382e-02 6.654283404350280762e-02 -7.218800485134124756e-02 9.574464708566665649e-02 -4.565651761367917061e-04 -5.262118950486183167e-02 3.376038372516632080e-02 3.826390579342842102e-02 -6.860764324665069580e-02 -3.655813634395599365e-02
-7.287254929542541504e-02 1.928868517279624939e-02 9.129840135574340820e-02 -4.179646819829940796e-02 5.878127366304397583e-02 -3.901462256908416748e-02 6.427373737096786499e-02 -9.867448359727859497e-03 -5.469137057662010193e-02 2.895534597337245941e-02
4.607724025845527649e-02 7.303640246391296387e-02 4.713059589266777039e-02 -6.904626637697219849e-02 6.515995413064956665e-02 -1.836243458092212677e-02 1.270458754152059555e-02 -3.398474305868148804e-02 2.678516693413257599e-02 -2.260710671544075012e-02
8.109421283006668091e-02 -6.840512901544570923e-02 2.145662717521190643e-02 -6.431010365486145020e-02 -8.027794212102890015e-02 4.737834259867668152e-02 2.830534055829048157e-02 1.507329195737838745e-02 7.630778104066848755e-02 -4.904604051262140274e-03
5.344567447900772095e-02 3.427436575293540955e-02 -6.179227307438850403e-02 4.067509993910789490e-02 4.537852108478546143e-02 -4.585119336843490601e-02 6.649432331323623657e-02 -5.064639821648597717e-02 -4.120021313428878784e-02 3.831955045461654663e-02
-6.897988729178905487e-03 4.234748333692550659e-02 8.831882476806640625e-02 -5.309904739260673523e-02 -4.152483865618705750e-02 6.896995753049850464e-02 -1.016533654183149338e-02 -5.724553763866424561e-02 -1.378468610346317291e-02 -7.639627903699874878e-02
7.514025270938873291e-02 7.582954317331314087e-02 -1.604351960122585297e-02 -7.382613420486450195e-02 -6.997480988502502441e-02 6.625568866729736328e-02 -4.360714554786682129e-02 -8.690088056027889252e-03 3.108514286577701569e-02 2.013043500483036041e-02
-7.588557153940200806e-02 4.365880042314529419e-02 4.144555330276489258e-02 -5.698674917221069336e-02 -5.351420864462852478e-02 -1.829489506781101227e-02 3.713685646653175354e-02 2.438106760382652283e-02 -5.799748003482818604e-02 -8.377084136009216309e-02
-2.070016227662563324e-02 7.692411076277494431e-03 5.822204425930976868e-02 -2.930506132543087006e-02 -3.791382478084415197e-04 -2.601563744246959686e-02 6.121958419680595398e-02 -5.175169557332992554e-03 -2.154347673058509827e-02 -1.583415269851684570e-02
-7.352662086486816406e-02 -2.225654013454914093e-02 -1.928830891847610474e-02 -4.392579570412635803e-02 8.235677331686019897e-02 -8.881145715713500977e-02 -1.512544928118586540e-03 3.388392180204391479e-02 3.435066714882850647e-02 -4.882492870092391968e-02
-8.254712820053100586e-02 2.005927637219429016e-02 7.864513993263244629e-02 8.207567781209945679e-02 -6.669200956821441650e-02 6.992982327938079834e-02 -1.062353700399398804e-01 7.239412516355514526e-02 8.267213590443134308e-03 -7.197991013526916504e-02
-3.859278187155723572e-02 -5.598413757979869843e-03 5.969999823719263077e-03 -5.048346240073442459e-03 2.865295670926570892e-02 -9.530623792670667171e-04 -5.888563767075538635e-02 -2.797652781009674072e-02 6.472110748291015625e-02 6.802849471569061279e-02
-3.401804715394973755e-02 -6.133232638239860535e-02 -6.638654321432113647e-02 4.066094383597373962e-02 -6.845899671316146851e-02 -9.045569226145744324e-03 3.891284391283988953e-02 -1.228967867791652679e-02 2.167055616155266762e-03 -4.132047295570373535e-03
-1.551925390958786011e-02 -7.650966942310333252e-02 -7.008964195847511292e-03 2.847528830170631409e-02 -3.526850789785385132e-02 5.880420655012130737e-02 -4.353574290871620178e-02 6.765489280223846436e-02 -7.241326570510864258e-02 7.555051147937774658e-02
-3.551608324050903320e-02 1.980961114168167114e-02 5.436420440673828125e-03 4.809314012527465820e-02 -5.680948495864868164e-03 1.854523271322250366e-02 -5.529007688164710999e-02 3.359213471412658691e-03 -4.622766375541687012e-02 -2.890799939632415771e-02
3.971997648477554321e-02 -1.094512827694416046e-02 5.560307204723358154e-02 -5.913997069001197815e-02 -1.532589364796876907e-02 3.642941638827323914e-02 -6.107157096266746521e-02 1.104115601629018784e-02 -6.253540515899658203e-02 -5.406592041254043579e-02
-5.325205624103546143e-02 -2.248408086597919464e-02 1.281887199729681015e-02 6.188283115625381470e-02 -7.073219865560531616e-02 5.386246368288993835e-02 3.461681678891181946e-02 7.106570154428482056e-02 1.077047549188137054e-02 6.265830993652343750e-02
5.158828571438789368e-03 -7.534234225749969482e-02 -3.472172841429710388e-02 -2.314524957910180092e-03 -2.205089107155799866e-02 5.485285446047782898e-02 -2.796315215528011322e-02 6.373032182455062866e-02 -9.763597510755062103e-03 7.175619155168533325e-02
4.550654441118240356e-02 -1.333046145737171173e-02 8.964075148105621338e-02 1.895147189497947693e-02 5.272431764751672745e-03 -4.955547675490379333e-02 -5.105065554380416870e-02 1.840550266206264496e-02 -2.942502126097679138e-02 4.869763180613517761e-02
-4.236700013279914856e-02 7.028482109308242798e-02 -1.808459311723709106e-02 -4.689315706491470337e-02 -2.896622195839881897e-02 1.613125577569007874e-02 -6.151355430483818054e-02 6.759396195411682129e-02 -6.236454099416732788e-02 -4.716338962316513062e-02
2.372898720204830170e-02 -3.339780494570732117e-02 6.352838128805160522e-02 -1.594050601124763489e-02 1.439489424228668213e-02 3.584858402609825134e-02 7.199709117412567139e-02 -1.922367257066071033e-03 -2.363123372197151184e-02 7.151971012353897095e-02
1.947960443794727325e-02 4.068549722433090210e-02 5.974194407463073730e-02 3.946744650602340698e-02 2.420076169073581696e-02 4.428363218903541565e-02 -1.641502045094966888e-02 -4.612824320793151855e-02 4.209744185209274292e-02 -2.757275849580764771e-02
-3.820368275046348572e-02 2.002712897956371307e-02 -6.243995949625968933e-02 -9.972819127142429352e-03 -1.827539061196148396e-03 -4.211908206343650818e-02 7.523036748170852661e-02 3.906022012233734131e-02 5.723319947719573975e-02 -4.490337148308753967e-02
8.130103349685668945e-02 -8.021572977304458618e-02 -5.616847798228263855e-02 3.248256165534257889e-03 5.966302379965782166e-02 2.364820428192615509e-02 2.063177991658449173e-03 -2.320829406380653381e-02 -6.809820979833602905e-02 5.337263643741607666e-02
3.365504741668701172e-02 7.426989078521728516e-02 -2.875892817974090576e-02 -4.748852923512458801e-02 7.920249551534652710e-02 6.450238078832626343e-02 -3.349060565233230591e-02 -3.873301669955253601e-03 -7.477548904716968536e-03 -2.782394178211688995e-02
-1.759379869326949120e-03 -1.109623257070779800e-02 6.420229375362396240e-02 7.225307822227478027e-02 5.256046727299690247e-02 1.249875966459512711e-02 -9.015876054763793945e-02 -1.145889703184366226e-02 -1.068454887717962265e-02 -2.924608066678047180e-02
-2.999291382730007172e-02 -4.052701964974403381e-02 -1.618136279284954071e-02 4.877779260277748108e-02 -6.629252806305885315e-03 -6.181443855166435242e-02 7.513075321912765503e-02 4.418195039033889771e-02 -6.334907561540603638e-02 -2.689746208488941193e-02
7.466625422239303589e-02 -5.595122277736663818e-02 -5.263162776827812195e-02 5.493864044547080994e-02 -9.722168743610382080e-02 9.930311143398284912e-02 -1.276984531432390213e-02 4.327165707945823669e-02 -6.710491329431533813e-02 5.821705982089042664e-02
-6.645891815423965454e-02 -3.315873444080352783e-02 7.488248497247695923e-02 -1.560087595134973526e-02 4.371515661478042603e-02 2.210577577352523804e-02 3.111836314201354980e-02 2.993942610919475555e-02 -5.130530521273612976e-02 -6.483319401741027832e-02
6.094544380903244019e-02 6.934281438589096069e-02 -7.722163200378417969e-02 -4.151941835880279541e-02 -6.862424314022064209e-02 -6.013824045658111572e-02 2.198731061071157455e-03 4.619630053639411926e-02 -5.866152048110961914e-02 -7.325085997581481934e-02
-5.666224658489227295e-02 1.099701505154371262e-02 -3.355706110596656799e-02 -6.780745834112167358e-02 -2.053017355501651764e-02 -5.590882152318954468e-02 -4.444573074579238892e-02 -1.804071292281150818e-02 6.367240101099014282e-02 -4.772578552365303040e-02
-4.947378858923912048e-02 6.642328202724456787e-02 1.300123520195484161e-02 5.279085040092468262e-02 -3.883571922779083252e-02 5.954711139202117920e-02 -3.204434365034103394e-02 8.288170211017131805e-03 -4.258311167359352112e-02 -3.317645937204360962e-02
7.888385653495788574e-02 3.197127580642700195e-02 -3.818367421627044678e-02 4.336671903729438782e-02 -1.409034617245197296e-02 8.430571854114532471e-02 1.575608551502227783e-02 -4.071630164980888367e-02 -8.563546091318130493e-02 4.094621166586875916e-02
7.223706226795911789e-03 6.643233448266983032e-02 -4.246553406119346619e-02 -5.899143591523170471e-02 3.446675091981887817e-02 -6.803248822689056396e-02 -5.294121056795120239e-02 8.405967801809310913e-02 -1.300358492881059647e-02 6.341831386089324951e-02
-2.555095031857490540e-02 2.274172008037567139e-02 6.007996946573257446e-02 -5.246052518486976624e-02 -5.591776967048645020e-02 5.356060713529586792e-02 7.414830476045608521e-02 1.445166952908039093e-02 1.133126765489578247e-02 2.821457339450716972e-03
-6.791826337575912476e-02 -5.983610451221466064e-02 -7.942800410091876984e-03 1.799734495580196381e-02 -7.325832545757293701e-02 2.792908623814582825e-02 4.114778339862823486e-02 6.088357418775558472e-02 2.996171824634075165e-03 -1.813199743628501892e-02
-9.195562452077865601e-03 7.531577721238136292e-03 -9.202808141708374023e-03 -4.279448837041854858e-02 -6.563957035541534424e-02 -2.897672168910503387e-02 -1.413093414157629013e-03 -4.098434746265411377e-02 2.098822593688964844e-02 -5.945364758372306824e-02
1.770841330289840698e-02 -2.688888087868690491e-02 5.618521571159362793e-02 -1.554332859814167023e-02 5.793030187487602234e-02 -3.956389799714088440e-02 2.235464286059141159e-03 -4.551979154348373413e-02 -3.048970364034175873e-02 2.261526323854923248e-02
5.501344567164778709e-04 -2.313058450818061829e-02 -3.255296871066093445e-02 -2.597230672836303711e-02 -7.091983407735824585e-02 -7.769455015659332275e-02 -3.366392571479082108e-03 6.098226830363273621e-02 -1.577923540025949478e-03 -2.284939587116241455e-02
-1.993503607809543610e-02 3.856641054153442383e-02 -4.129740223288536072e-02 -7.622274011373519897e-02 1.432061288505792618e-02 9.021664410829544067e-02 5.075016990303993225e-02 5.566516146063804626e-02 -3.608965501189231873e-02 -2.824451774358749390e-02
9.943168610334396362e-03 -1.857531629502773285e-02 7.111882418394088745e-02 5.944364145398139954e-02 6.452853977680206299e-02 5.239051580429077148e-02 3.868431970477104187e-02 -1.084418315440416336e-02 2.045003883540630341e-02 4.327215254306793213e-02
-8.989564143121242523e-03 2.162975445389747620e-02 5.129291117191314697e-02 -3.807163983583450317e-02 -3.559596464037895203e-02 4.518705606460571289e-02 -3.986966330558061600e-03 -7.156487554311752319e-02 -7.067476212978363037e-02 2.735598944127559662e-02
4.187418520450592041e-02 6.937642395496368408e-02 6.373708136379718781e-03 4.663360863924026489e-02 5.317376926541328430e-02 -4.559198394417762756e-02 3.756691515445709229e-02 -4.458423703908920288e-02 -3.553291410207748413e-02 -7.987466640770435333e-03
-1.854721270501613617e-02 8.539021015167236328e-02 -2.218269184231758118e-02 -2.255449816584587097e-02 -7.812453806400299072e-02 4.580961167812347412e-02 -8.059315383434295654e-02 -2.583834901452064514e-02 -8.677316457033157349e-02 -2.573749795556068420e-02
-3.237086534500122070e-02 -4.341864213347434998e-02 -2.916938997805118561e-02 -1.355204358696937561e-02 -4.931001737713813782e-02 -1.635378040373325348e-02 2.666226215660572052e-02 7.117189466953277588e-02 -5.601586773991584778e-02 2.644374966621398926e-02
-7.162389904260635376e-02 7.564576715230941772e-02 7.340598851442337036e-02 -2.680804580450057983e-02 -3.120340965688228607e-02 -3.086791001260280609e-02 -8.840719237923622131e-03 1.602142862975597382e-02 7.400385290384292603e-02 9.889543056488037109e-03
4.697606340050697327e-02 2.655233070254325867e-02 -1.394849270582199097e-03 -5.858267471194267273e-02 3.414469584822654724e-02 3.949982672929763794e-02 8.541236817836761475e-02 -7.776250690221786499e-02 4.988589882850646973e-02 6.790541112422943115e-02
6.564013659954071045e-02 -4.403547570109367371e-02 5.124877393245697021e-02 2.595057897269725800e-02 -1.776622980833053589e-02 1.404732745140790939e-02 2.585245482623577118e-02 -1.084823627024888992e-02 -1.145669724792242050e-02 1.905694603919982910e-02
5.725511908531188965e-02 1.265785191208124161e-02 -1.153570599853992462e-02 5.856842547655105591e-02 -2.861175127327442169e-02 -6.422781199216842651e-02 -1.921763643622398376e-02 -1.635791733860969543e-02 7.242685556411743164e-02 -4.724297299981117249e-02
-4.106509685516357422e-02 3.700440749526023865e-02 -5.925459787249565125e-02 -3.217156231403350830e-02 -2.572146616876125336e-02 -1.174083165824413300e-02 -7.934758812189102173e-02 -7.289623469114303589e-02 -7.195401191711425781e-02 -7.583915442228317261e-02
6.035541743040084839e-02 6.936572492122650146e-02 4.805116355419158936e-02 1.558910030871629715e-02 7.504579424858093262e-02 -3.301841020584106445e-02 1.071293652057647705e-02 9.572564624249935150e-03 4.808179289102554321e-02 -8.509013056755065918e-02
-3.032805584371089935e-02 6.993250548839569092e-02 -8.567962795495986938e-02 6.453225016593933105e-02 4.280153661966323853e-02 7.867328822612762451e-03 -2.003292366862297058e-02 4.619837924838066101e-02 -4.821530729532241821e-02 2.032584883272647858e-02
-5.724181234836578369e-02 6.045899912714958191e-02 -3.268044441938400269e-02 -2.327358163893222809e-02 2.829387597739696503e-02 -1.176628842949867249e-02 -6.836824119091033936e-02 8.880788087844848633e-02 5.254176259040832520e-02 5.844829976558685303e-02
-1.576265506446361542e-02 5.344654247164726257e-02 -5.673788115382194519e-02 -9.957814216613769531e-02 -2.214294672012329102e-02 -4.519373178482055664e-02 -2.800364233553409576e-02 5.694084987044334412e-02 1.373971253633499146e-02 4.813766106963157654e-02
-2.214135415852069855e-02 -1.121678762137889862e-02 -3.793692216277122498e-02 6.612509489059448242e-02 -4.854933544993400574e-02 6.994256377220153809e-02 6.662593781948089600e-02 -1.314830593764781952e-02 6.263486295938491821e-02 3.617552295327186584e-02
-7.567656785249710083e-02 -1.322006713598966599e-02 8.015617728233337402e-02 3.458913043141365051e-02 -2.608819864690303802e-02 4.551968723535537720e-02 -1.378822256810963154e-03 8.855845779180526733e-02 3.868475556373596191e-02 5.177721753716468811e-02
-6.486923247575759888e-02 -5.402781814336776733e-02 6.966780126094818115e-02 5.610699206590652466e-02 -9.156195446848869324e-03 2.461951039731502533e-02 -6.828473508358001709e-02 3.973109647631645203e-02 -4.821028932929039001e-02 -6.807858496904373169e-02
7.565065473318099976e-02 -6.809225678443908691e-02 -8.429043740034103394e-02 -5.966515466570854187e-02 2.003709413111209869e-02 3.708392614498734474e-03 6.591723859310150146e-02 8.376159239560365677e-04 1.523953769356012344e-02 3.137584775686264038e-02
-7.243834435939788818e-02 6.959907710552215576e-02 4.017385095357894897e-02 1.135419961065053940e-02 -2.848879620432853699e-02 7.049586623907089233e-03 1.578166149556636810e-02 -4.874041676521301270e-02 4.312579706311225891e-02 -4.601958394050598145e-02
-2.792054228484630585e-02 -7.357966154813766479e-02 -1.027237065136432648e-02 5.246461555361747742e-02 -2.319040335714817047e-02 6.133509427309036255e-02 -1.167922653257846832e-02 -6.550171971321105957e-02 -4.271921701729297638e-03 -5.768833309412002563e-02
5.814061313867568970e-02 3.404291719198226929e-02 -5.583508685231208801e-02 1.743643730878829956e-02 -1.913683675229549408e-02 -6.092356145381927490e-02 -1.715127751231193542e-02 9.575773030519485474e-02 3.280228376388549805e-02 6.980378925800323486e-02
-7.235056161880493164e-02 -1.007321849465370178e-02 -5.493087228387594223e-04 -5.007082968950271606e-02 -6.597840040922164917e-02 -1.250202418304979801e-03 3.442752733826637268e-02 6.396711617708206177e-02 3.531570732593536377e-02 4.809723049402236938e-02
-1.257642358541488647e-02 -3.215483203530311584e-02 -7.411985099315643311e-02 -5.939633771777153015e-02 -5.988288670778274536e-02 1.191931217908859253e-02 -6.079307943582534790e-02 -4.677282273769378662e-02 2.670928835868835449e-03 -6.400892883539199829e-02
7.616363465785980225e-02 6.748246401548385620e-02 -7.966015487909317017e-02 7.484275102615356445e-02 -1.084582041949033737e-02 -4.727188497781753540e-02 -2.814537379890680313e-03 -7.517630606889724731e-02 -9.013865143060684204e-02 4.214122146368026733e-02
5.755054205656051636e-02 3.373992815613746643e-02 4.990420117974281311e-02 -7.559029757976531982e-02 5.730759352445602417e-02 -6.441389769315719604e-02 4.963771253824234009e-02 3.006601333618164062e-02 -8.063932880759239197e-03 -5.304025020450353622e-03
8.243792690336704254e-03 -1.930761523544788361e-02 6.483506411314010620e-02 7.990348339080810547e-02 2.109578810632228851e-02 -8.874434232711791992e-02 -7.869421690702438354e-02 6.997454166412353516e-02 1.874445006251335144e-02 5.490476265549659729e-02
-4.253149405121803284e-02 3.364743432030081749e-03 -4.636028781533241272e-02 -1.697854697704315186e-02 -2.609130181372165680e-02 2.748701488599181175e-03 1.307333167642354965e-02 3.862892091274261475e-02 7.185110449790954590e-02 1.194504555314779282e-02
-2.756003662943840027e-02 -7.627680897712707520e-02 2.160640805959701538e-02 -9.147779643535614014e-02 8.002998679876327515e-02 -4.570648819208145142e-02 4.158529452979564667e-03 4.628250375390052795e-03 -5.594052840024232864e-03 -4.195636603981256485e-03
-4.327009245753288269e-02 4.848558455705642700e-02 3.190050274133682251e-02 5.138743296265602112e-02 -7.239794731140136719e-02 3.860889747738838196e-02 -2.075590565800666809e-02 -5.778434872627258301e-02 3.479985520243644714e-02 -2.954645082354545593e-02
-6.837581098079681396e-02 5.698291212320327759e-02 -4.671570658683776855e-02 4.732020944356918335e-02 -4.898599814623594284e-03 -7.153444737195968628e-02 -1.078049186617136002e-02 -6.257100403308868408e-02 -1.490024104714393616e-02 5.641017481684684753e-02
3.504242002964019775e-02 -5.670481547713279724e-02 -3.394444286823272705e-02 -3.257644549012184143e-02 1.658065244555473328e-02 9.539879858493804932e-03 1.924109086394309998e-02 1.996161788702011108e-02 8.582760393619537354e-02 -5.302604404278099537e-04
-4.360478371381759644e-02 5.839270353317260742e-02 -3.248437121510505676e-02 2.177030406892299652e-02 7.353549823164939880e-03 -3.222288098186254501e-03 2.998942323029041290e-02 -7.893266528844833374e-02 -1.564181409776210785e-02 -1.948174647986888885e-02
6.778278946876525879e-02 7.504874467849731445e-02 -6.524045486003160477e-03 -4.715250059962272644e-02 4.624560102820396423e-02 -2.779234573245048523e-02 6.029583979398012161e-03 -5.131101980805397034e-02 3.900584951043128967e-02 6.410150788724422455e-03
-3.996443375945091248e-02 -1.926409453153610229e-02 5.687967315316200256e-02 -8.710858225822448730e-02 6.145633384585380554e-02 -6.264899671077728271e-02 8.634349331259727478e-03 -4.293325170874595642e-02 -6.041049212217330933e-02 3.910380601882934570e-02
-4.035717248916625977e-02 -6.691779196262359619e-02 -4.515885934233665466e-02 4.514463990926742554e-02 -3.634034469723701477e-02 4.506937786936759949e-02 3.886294737458229065e-02 5.225739255547523499e-02 5.048158764839172363e-02 3.968020156025886536e-02
-3.467584773898124695e-02 2.572220750153064728e-02 2.320617437362670898e-02 4.621803760528564453e-02 2.480975724756717682e-02 4.106647148728370667e-02 -1.424715481698513031e-02 -7.572311442345380783e-03 6.406134460121393204e-03 -6.253112852573394775e-02
2.523720613680779934e-04 4.180903732776641846e-02 6.916903704404830933e-02 5.920318141579627991e-02 4.656389355659484863e-02 3.838014602661132812e-02 -1.562382280826568604e-02 -1.499538775533437729e-02 -5.688415840268135071e-02 -9.510970115661621094e-02
-4.672532901167869568e-02 7.078721374273300171e-02 7.286775857210159302e-02 1.618996029719710350e-03 6.147946417331695557e-02 -8.262690156698226929e-02 9.235506877303123474e-03 3.509604185819625854e-02 -2.946472726762294769e-02 3.928615525364875793e-02
-7.642226666212081909e-02 -5.129843950271606445e-03 6.196673586964607239e-02 7.396111637353897095e-02 -3.268421068787574768e-02 -2.553226239979267120e-02 -1.010092254728078842e-02 3.167960047721862793e-02 -6.144596263766288757e-02 4.935226752422749996e-04
-5.323860421776771545e-02 -8.271188288927078247e-02 -5.843723192811012268e-02 2.128315158188343048e-03 -3.786978870630264282e-02 1.842203736305236816e-02 4.933184012770652771e-03 -4.959721118211746216e-02 1.429045759141445160e-02 1.344775129109621048e-02
-4.459561035037040710e-02 1.417256519198417664e-02 3.174508921802043915e-03 1.280561462044715881e-02 -4.874230548739433289e-02 -5.295465141534805298e-02 -1.054280065000057220e-02 -3.295441716909408569e-02 -5.483000725507736206e-02 -4.408420249819755554e-02
-4.259131103754043579e-02 4.100150987505912781e-02 6.026843935251235962e-02 -1.796422339975833893e-02 -5.702516064047813416e-02 8.077748864889144897e-02 6.950856000185012817e-02 1.194148883223533630e-02 2.477071061730384827e-02 -1.542942505329847336e-02
4.389546066522598267e-02 -1.103820092976093292e-02 -1.895103417336940765e-02 -7.169162482023239136e-02 4.210306704044342041e-02 7.968276739120483398e-02 8.566261827945709229e-02 -3.197315335273742676e-02 3.424496203660964966e-02 4.394818097352981567e-02
-6.144252140074968338e-03 3.809088229900225997e-05 5.239327903836965561e-03 5.508654564619064331e-02 3.552438283804804087e-04 -1.739145442843437195e-02 3.224640339612960815e-02 6.007227674126625061e-02 -8.470204472541809082e-02 -8.385906368494033813e-02
8.339743316173553467e-02 -8.728618919849395752e-02 -7.460095733404159546e-02 -4.796830564737319946e-02 -3.348160907626152039e-02 -4.154704045504331589e-03 -2.894139103591442108e-02 -4.203412309288978577e-02 3.062969818711280823e-02 9.111410379409790039e-02
2.803465723991394043e-02 1.822294108569622040e-02 -2.068839967250823975e-02 2.190592139959335327e-02 3.696341440081596375e-02 1.703036762773990631e-02 -5.972164124250411987e-02 -2.991222590208053589e-02 -5.313471704721450806e-02 -7.947011291980743408e-02
-4.635512456297874451e-02 -6.549370288848876953e-02 -3.969042003154754639e-02 3.087283112108707428e-02 7.048378139734268188e-02 1.797016710042953491e-02 5.996478348970413208e-02 -1.926160603761672974e-02 1.141473418101668358e-03 -1.242666598409414291e-02
4.599383100867271423e-02 -3.539429977536201477e-02 -4.923705384135246277e-02 -6.619330495595932007e-02 -2.992412261664867401e-02 -4.571597278118133545e-02 2.503520622849464417e-02 -6.090744212269783020e-02 -9.887330234050750732e-03 -3.977932035923004150e-02
6.464578956365585327e-02 -1.719050854444503784e-02 -8.498416095972061157e-02 2.581494161859154701e-03 2.955309860408306122e-02 -6.681881379336118698e-03 3.887379169464111328e-02 -3.980357944965362549e-02 -8.235510438680648804e-02 9.989340603351593018e-02
-5.912126600742340088e-02 -5.361204594373703003e-02 -2.788643352687358856e-02 1.545988116413354874e-02 -1.674757571890950203e-03 -7.195129245519638062e-02 8.306942880153656006e-03 6.212816759943962097e-02 6.147236749529838562e-02 -3.518384695053100586e-02
2.030217461287975311e-02 -3.888027276843786240e-03 1.683203876018524170e-02 -2.119122631847858429e-02 -3.546833619475364685e-02 5.352745577692985535e-02 -1.818977994844317436e-03 4.639015346765518188e-02 2.295713312923908234e-02 6.851612776517868042e-02
-2.575728297233581543e-02 -4.167555831372737885e-03 3.817019984126091003e-02 7.001778483390808105e-02 4.741013422608375549e-02 3.239944111555814743e-03 -6.483022123575210571e-02 2.933045290410518646e-02 -4.548678919672966003e-02 -4.187371954321861267e-02
-2.048815949819982052e-04 -4.230000078678131104e-02 -8.099450170993804932e-02 3.901834413409233093e-02 -1.238655764609575272e-02 -8.087640255689620972e-02 -3.523935005068778992e-02 8.543669246137142181e-03 -5.750373750925064087e-02 -2.959832176566123962e-02
-7.092610001564025879e-02 -4.597843810915946960e-02 -4.083314910531044006e-02 4.695567116141319275e-02 2.603409811854362488e-02 -7.366123795509338379e-02 -4.829489067196846008e-02 -4.122658446431159973e-02 8.333599567413330078e-02 7.445734739303588867e-02
1.322668418288230896e-02 -7.243409752845764160e-02 -6.786801666021347046e-02 5.613964423537254333e-02 -8.263917267322540283e-02 4.623350873589515686e-02 4.431417584419250488e-02 -8.146848529577255249e-03 -1.613332144916057587e-02 5.659401416778564453e-02
4.656022042036056519e-02 -3.414680436253547668e-02 1.733170007355511189e-03 -3.550207987427711487e-02 2.636462636291980743e-02 -5.252044647932052612e-02 -9.298293292522430420e-02 8.678889274597167969e-02 -7.063102722167968750e-02 -4.256817698478698730e-02
-7.384625077247619629e-02 5.463980883359909058e-02 -2.845611609518527985e-02 4.731519613415002823e-03 -1.166006922721862793e-02 -4.203711450099945068e-02 4.235941544175148010e-02 6.253399699926376343e-02 -7.606633007526397705e-02 2.906756103038787842e-02
7.887974381446838379e-03 -6.991319358348846436e-02 3.648392856121063232e-02 2.183138206601142883e-02 -7.855526357889175415e-02 2.981018833816051483e-02 4.751455038785934448e-02 -2.419194020330905914e-02 8.096519857645034790e-02 -4.107712581753730774e-02
-6.409846246242523193e-02 2.342069707810878754e-02 -4.080577194690704346e-02 2.613668143749237061e-02 -1.161478087306022644e-02 1.759435236454010010e-02 -2.969449851661920547e-03 5.571636557579040527e-02 -4.246666654944419861e-02 -9.107484482228755951e-03
6.742202490568161011e-02 2.178404852747917175e-02 9.521749615669250488e-02 6.848444789648056030e-02 7.331674546003341675e-02 -1.350209023803472519e-02 -5.964088439941406250e-02 -3.188178315758705139e-02 -3.942862153053283691e-02 -2.303303917869925499e-03
7.770756725221872330e-03 4.883964876967183955e-08 -2.344051375985145569e-02 -6.952916085720062256e-02 -3.542945161461830139e-02 1.084194052964448929e-02 6.949578225612640381e-02 -3.020638227462768555e-02 -3.157712891697883606e-02 5.122855654917657375e-04
4.060352966189384460e-02 5.421606078743934631e-02 3.148354589939117432e-02 -4.229477420449256897e-02 4.326819628477096558e-02 -2.385358326137065887e-02 -3.783571301028132439e-03 -5.667730420827865601e-02 -5.819977726787328720e-03 -6.986755877733230591e-02
4.084808379411697388e-02 -7.777445949614048004e-03 -6.095436587929725647e-02 -5.045538023114204407e-02 1.113227475434541702e-02 -2.966034226119518280e-02 1.009279862046241760e-01 3.422177955508232117e-02 -6.364679336547851562e-02 -7.744195312261581421e-02
1.882277056574821472e-02 2.215702459216117859e-02 4.848144575953483582e-02 2.295120852068066597e-03 -1.541558373719453812e-02 6.941208243370056152e-02 9.087308496236801147e-02 -9.912506490945816040e-02 1.081494614481925964e-02 8.952246978878974915e-03
-7.396843284368515015e-02 -4.585661925375461578e-03 3.410006314516067505e-02 -3.082725591957569122e-02 -6.785685569047927856e-02 2.544839680194854736e-02 -8.776348084211349487e-03 -1.857630535960197449e-02 -7.123177498579025269e-02 9.142066352069377899e-03
-7.031733542680740356e-02 -2.876954525709152222e-02 7.674778997898101807e-02 -8.494772017002105713e-02 -6.019046902656555176e-02 -2.234277501702308655e-02 5.153554677963256836e-02 6.709785759449005127e-02 3.570003807544708252e-02 -4.279066994786262512e-02
-4.384959116578102112e-02 4.293339699506759644e-02 -6.860619038343429565e-02 -9.511074423789978027e-02 4.710961133241653442e-02 -2.660433948040008545e-02 -5.170666053891181946e-02 -4.819013923406600952e-02 7.667125016450881958e-02 -3.767583519220352173e-02
3.935902565717697144e-02 -4.123340919613838196e-02 3.170181438326835632e-02 -7.215195894241333008e-02 -5.572174862027168274e-02 3.192526474595069885e-02 -2.818618714809417725e-02 7.256178557872772217e-02 1.456335093826055527e-02 -3.906948491930961609e-02
3.677419200539588928e-02 9.885528683662414551e-02 -4.689174145460128784e-02 7.380085438489913940e-02 -2.787505974993109703e-03 -6.598194688558578491e-02 -2.637147530913352966e-02 -4.099459946155548096e-02 -7.526704668998718262e-02 8.420387655496597290e-02
5.865347757935523987e-02 7.302661240100860596e-02 -4.044405743479728699e-02 -5.951993912458419800e-02 -4.952111095190048218e-02 5.400061234831809998e-02 -2.971724048256874084e-02 -2.648519165813922882e-02 6.736087799072265625e-02 -2.192965894937515259e-02
4.552218597382307053e-03 -4.364070296287536621e-02 6.839589029550552368e-02 -7.207553088665008545e-02 -8.714024722576141357e-02 8.988345414400100708e-02 -6.162190437316894531e-02 6.240802258253097534e-02 3.308495506644248962e-02 -1.131051592528820038e-02
-7.206690311431884766e-02 -5.203468352556228638e-02 -2.351286588236689568e-03 3.578470647335052490e-02 -1.271250192075967789e-02 -4.809707775712013245e-02 2.793153561651706696e-02 4.973481874912977219e-03 -2.160744555294513702e-02 3.391713649034500122e-02
-5.485831573605537415e-02 -1.964639127254486084e-02 -8.882065117359161377e-02 4.311979934573173523e-02 6.779812974855303764e-04 2.735486999154090881e-02 -4.782435670495033264e-02 -5.035029724240303040e-02 6.287002563476562500e-02 2.920211758464574814e-03
-4.395300149917602539e-02 5.782602727413177490e-02 2.854331105481833220e-04 2.016764506697654724e-02 3.132158517837524414e-02 3.118122182786464691e-02 -6.254393607378005981e-02 -2.374811097979545593e-03 7.534366101026535034e-02 6.873825937509536743e-02
2.430728822946548462e-02 7.459069043397903442e-02 -2.206429839134216309e-02 6.013417616486549377e-02 -2.410400193184614182e-03 2.314218506217002869e-02 1.559963077306747437e-02 -7.545399665832519531e-02 -6.566598266363143921e-02 1.543693896383047104e-02
6.088986620306968689e-02 -2.295100362971425056e-03 -6.208313629031181335e-02 -4.407317191362380981e-02 1.467232964932918549e-02 -3.317398577928543091e-02 4.454693943262100220e-02 -3.321370482444763184e-02 -3.918223548680543900e-03 -1.417775079607963562e-02
5.260732024908065796e-02 -9.715640917420387268e-03 -6.259900331497192383e-02 2.686644904315471649e-02 9.932463057339191437e-03 -2.653014287352561951e-02 -4.735400155186653137e-02 4.887324199080467224e-02 2.745107375085353851e-02 -4.110191389918327332e-02
-6.440804805606603622e-03 -6.327858567237854004e-02 3.807469503954052925e-03 -6.312716752290725708e-02 1.996826007962226868e-02 7.998683303594589233e-02 -7.522599399089813232e-02 -1.472443621605634689e-02 6.900908052921295166e-02 2.402100525796413422e-02
-1.735883578658103943e-02 7.305559515953063965e-02 3.561380133032798767e-02 -7.284002751111984253e-02 -6.464620679616928101e-02 -5.666172876954078674e-02 3.280410170555114746e-02 -1.561348047107458115e-02 3.986833244562149048e-02 1.802477054297924042e-02
6.850699894130229950e-03 -4.331243224442005157e-03 -6.451066583395004272e-02 -6.382695585489273071e-02 5.753308907151222229e-02 -2.717871218919754028e-02 -1.892635412514209747e-02 5.674360692501068115e-02 5.859349668025970459e-02 -2.057938277721405029e-02
-3.082102350890636444e-02 -1.667200401425361633e-02 -3.544186055660247803e-02 4.900780320167541504e-02 -3.290484100580215454e-02 3.607182577252388000e-02 -5.966540426015853882e-02 -3.706912696361541748e-02 3.258785605430603027e-02 2.329969406127929688e-02
-1.375699043273925781e-02 -6.188610941171646118e-02 5.153902247548103333e-02 -1.453587412834167480e-02 -5.739906802773475647e-02 -4.600092023611068726e-02 -6.085973232984542847e-02 4.356939462013542652e-04 6.405986845493316650e-03 3.424345329403877258e-02
-2.156664244830608368e-02 -1.893682777881622314e-02 -6.441874802112579346e-02 -7.336036860942840576e-02 -4.558016732335090637e-02 -7.617934793233871460e-02 -6.404476612806320190e-02 -2.982816100120544434e-02 -5.679551139473915100e-02 7.177418563514947891e-03
-3.531242534518241882e-02 7.145678251981735229e-02 3.158060088753700256e-02 -4.653032124042510986e-02 -2.111238427460193634e-02 -6.990908086299896240e-02 -7.971485145390033722e-03 3.538155183196067810e-02 -5.576041992753744125e-03 7.357361167669296265e-02
-4.199177026748657227e-02 5.149291455745697021e-02 -6.724599748849868774e-02 -3.399265184998512268e-02 4.702455922961235046e-02 -9.375523775815963745e-03 6.636749953031539917e-02 -6.172998622059822083e-02 4.134640097618103027e-02 1.431121397763490677e-02
-6.189995631575584412e-02 3.232091665267944336e-02 7.349864393472671509e-02 -5.688871443271636963e-02 8.126778155565261841e-02 7.639136165380477905e-02 -4.254443570971488953e-02 -4.203630238771438599e-02 -6.649622321128845215e-02 4.470894113183021545e-02
-6.533988052979111671e-04 6.131738424301147461e-02 1.704593561589717865e-02 1.838309504091739655e-02 -6.188501790165901184e-02 4.107023403048515320e-02 5.694700777530670166e-02 -7.125321030616760254e-02 1.204416155815124512e-02 6.641496717929840088e-02
7.058856636285781860e-02 -1.366418506950139999e-02 5.764304846525192261e-02 5.225480720400810242e-02 7.399311661720275879e-02 5.638495087623596191e-02 9.421834349632263184e-02 -8.235536515712738037e-02 4.047060012817382812e-02 2.249052003026008606e-02
-2.595758624374866486e-02 7.894024252891540527e-02 1.080455482006072998e-01 -7.338618487119674683e-02 -6.249418854713439941e-02 -8.530557900667190552e-02 -8.774338662624359131e-02 6.456474959850311279e-02 -1.387576106935739517e-02 -6.603033840656280518e-02
-6.649375706911087036e-02 -2.126073092222213745e-02 -6.809607613831758499e-03 4.222173243761062622e-02 2.005676738917827606e-03 4.492719192057847977e-03 -6.757932156324386597e-02 6.272231042385101318e-02 -5.571130290627479553e-02 3.068613447248935699e-02
4.981643706560134888e-02 4.371354356408119202e-02 -4.443239048123359680e-02 -9.185802191495895386e-03 -3.374198079109191895e-02 1.067990902811288834e-02 6.330928206443786621e-02 7.410592585802078247e-02 -4.532596841454505920e-02 -4.668167233467102051e-02
1.846976950764656067e-02 4.259900376200675964e-02 4.225612804293632507e-02 3.004140220582485199e-02 -4.199557006359100342e-02 -5.770624801516532898e-02 2.390849590301513672e-02 -2.674013562500476837e-02 5.498421192169189453e-02 4.801445454359054565e-02
-7.559670507907867432e-02 -4.532083868980407715e-02 8.870444446802139282e-02 1.120874937623739243e-02 -7.585946470499038696e-02 -6.920057535171508789e-02 -1.966696418821811676e-02 2.153662033379077911e-02 3.514845157042145729e-03 -7.955609261989593506e-02
1.688490994274616241e-02 -3.383847326040267944e-02 7.410634309053421021e-02 1.436876785010099411e-02 -3.993066027760505676e-02 -5.820361152291297913e-02 5.080341920256614685e-02 -3.411346673965454102e-02 -5.367445573210716248e-02 5.484905093908309937e-02
-3.101042099297046661e-02 6.853335350751876831e-02 -7.667171210050582886e-02 -6.633198261260986328e-02 7.220165431499481201e-02 -2.598566561937332153e-02 -7.032638788223266602e-02 -5.789408460259437561e-02 -2.615711838006973267e-02 5.395137891173362732e-02
-2.841811440885066986e-02 -2.365214517340064049e-03 1.986004970967769623e-02 -5.005993694067001343e-02 -6.225803494453430176e-02 4.180417861789464951e-03 -1.143343746662139893e-02 6.535574048757553101e-02 4.027951508760452271e-02 -6.090065836906433105e-02
8.651206735521554947e-04 -3.411124274134635925e-02 -2.880188263952732086e-02 4.258968308568000793e-02 4.595710709691047668e-02 3.681358648464083672e-03 -8.170171827077865601e-02 3.656575456261634827e-02 4.454520239960402250e-04 7.143561542034149170e-02
5.973916500806808472e-02 6.431432813405990601e-02 4.176785051822662354e-02 -6.493622064590454102e-02 5.577114596962928772e-02 -5.745327472686767578e-02 5.349021032452583313e-02 7.491473108530044556e-02 6.454069912433624268e-02 -1.596767688170075417e-03
5.203785747289657593e-02 6.963165104389190674e-02 -7.199752330780029297e-02 4.327050596475601196e-02 -4.359689354896545410e-02 4.170490801334381104e-02 3.804906457662582397e-02 5.728711560368537903e-02 5.813649296760559082e-02 3.411728143692016602e-02
-1.886548846960067749e-02 1.290194038301706314e-02 -6.975880265235900879e-02 7.382590323686599731e-02 7.892263680696487427e-02 7.150992751121520996e-02 3.888163715600967407e-02 -3.085524030029773712e-02 3.786630183458328247e-02 -4.108570516109466553e-02
3.517546877264976501e-02 -8.677671663463115692e-03 4.435670003294944763e-02 3.614554414525628090e-03 4.414496570825576782e-02 5.848170444369316101e-02 5.659867450594902039e-02 -4.968218132853507996e-02 5.499911308288574219e-02 2.265146235004067421e-03
3.586496785283088684e-02 4.190403968095779419e-02 4.450594261288642883e-02 -6.786701083183288574e-02 9.735153056681156158e-03 -3.225594758987426758e-02 4.677613265812397003e-03 2.534096315503120422e-02 -3.981760889291763306e-02 -4.269042238593101501e-02
4.208851605653762817e-02 -7.388789672404527664e-03 -1.114363898523151875e-03 7.450662553310394287e-02 -9.917982667684555054e-02 5.185755714774131775e-02 4.422942642122507095e-03 -9.218640625476837158e-02 4.222403839230537415e-02 -3.021673671901226044e-02
4.200525581836700439e-02 5.835524201393127441e-02 2.369283698499202728e-02 -7.351569086313247681e-02 -5.395362153649330139e-02 3.585215285420417786e-02 4.866291768848896027e-03 -2.506342902779579163e-02 1.006433293223381042e-01 -7.909929007291793823e-02
-4.180150479078292847e-02 -5.890476983040571213e-03 1.249960716813802719e-02 -5.774598568677902222e-02 4.751684516668319702e-02 -5.728580430150032043e-02 -3.446847200393676758e-02 -8.154992759227752686e-02 6.668860465288162231e-02 -4.246341064572334290e-02
-5.995969474315643311e-02 -1.715032756328582764e-02 3.359156195074319839e-03 -8.177779614925384521e-03 -5.145529285073280334e-02 7.057213783264160156e-02 -3.599646687507629395e-02 -1.998112350702285767e-02 5.811084434390068054e-02 -2.894557313993573189e-03
-7.218353915959596634e-03 4.842416569590568542e-02 -5.216858349740505219e-03 7.642964273691177368e-02 -1.208791323006153107e-02 -7.043431513011455536e-03 -4.122263193130493164e-02 -6.813382357358932495e-02 -4.123680666089057922e-02 1.553278695791959763e-02
-5.768328905105590820e-03 -5.188752710819244385e-02 3.150044009089469910e-02 6.612445693463087082e-03 -7.053698599338531494e-02 2.930529229342937469e-02 4.546441510319709778e-02 -7.498633861541748047e-02 3.349074348807334900e-02 6.324338167905807495e-02
2.909632772207260132e-02 3.626050427556037903e-02 4.072577878832817078e-02 -5.249907448887825012e-02 -7.545784860849380493e-02 -2.455272153019905090e-02 -7.031906861811876297e-03 -2.982093766331672668e-02 -7.707855850458145142e-02 6.133224442601203918e-02
-6.618896126747131348e-02 -7.484245300292968750e-02 -6.498856842517852783e-02 -2.974480390548706055e-02 2.564525417983531952e-02 -3.564832359552383423e-02 -7.167491316795349121e-02 -5.874543637037277222e-02 3.499102219939231873e-02 -3.756505623459815979e-02
-1.254583802074193954e-02 -5.223948881030082703e-02 7.342094928026199341e-02 3.613786399364471436e-02 3.039646893739700317e-03 4.589960351586341858e-02 -3.359294310212135315e-02 -1.348457764834165573e-02 1.040808670222759247e-02 -5.650184676051139832e-02
1.223197579383850098e-02 7.958795875310897827e-02 -1.744231022894382477e-02 6.586853414773941040e-02 5.837945640087127686e-02 -4.295874852687120438e-03 -6.448604166507720947e-02 -3.853636607527732849e-02 -1.192430872470140457e-02 -1.342102512717247009e-02
-7.322692871093750000e-02 -6.629587709903717041e-02 -2.064325846731662750e-02 9.444395452737808228e-02 1.226841099560260773e-02 1.445799972862005234e-02 -8.990823477506637573e-02 -7.106067240238189697e-02 7.801627740263938904e-03 5.267261713743209839e-02
-5.007778480648994446e-02 -6.531383097171783447e-02 5.189959332346916199e-02 -1.239339821040630341e-02 1.760908961296081543e-02 7.114542275667190552e-02 4.569508135318756104e-02 5.953539162874221802e-02 -1.242176629602909088e-02 2.758433669805526733e-02
-7.312487810850143433e-02 -3.693053498864173889e-02 5.318552628159523010e-02 1.714248396456241608e-02 6.503322720527648926e-02 -2.254821360111236572e-02 -6.451489776372909546e-02 -3.044475801289081573e-03 -1.157776918262243271e-02 -7.319168001413345337e-02
1.561580132693052292e-02 8.496630936861038208e-02 -6.697873771190643311e-02 -6.096142530441284180e-02 2.162751043215394020e-03 1.898274384438991547e-02 -4.913693293929100037e-02 -2.765580080449581146e-02 -6.557642668485641479e-02 -4.426118731498718262e-02
2.818176150321960449e-02 3.027412667870521545e-02 7.094277441501617432e-02 -2.079610247164964676e-03 -1.618854887783527374e-02 8.098232001066207886e-02 -7.579834759235382080e-02 -1.746794022619724274e-02 -5.102233588695526123e-02 5.604493618011474609e-02
2.311053127050399780e-02 -6.911484058946371078e-03 1.545055210590362549e-02 -4.920209571719169617e-02 5.408754199743270874e-02 5.565385147929191589e-02 3.047427535057067871e-02 -8.463766425848007202e-03 6.890282034873962402e-02 4.709380865097045898e-02
-6.283070892095565796e-02 -7.376850396394729614e-02 6.223484873771667480e-02 1.695363596081733704e-02 7.579044252634048462e-02 -3.558163763955235481e-03 -7.052127271890640259e-02 -8.261042088270187378e-02 1.378627028316259384e-02 2.735862694680690765e-02
3.420624881982803345e-02 -6.132782902568578720e-03 6.437882781028747559e-02 -6.895241141319274902e-02 -4.706870764493942261e-02 -1.970071904361248016e-02 -2.177822589874267578e-02 -6.328808609396219254e-03 3.119309060275554657e-02 4.453264176845550537e-02
-3.932198882102966309e-02 1.862872391939163208e-02 2.850615046918392181e-02 -3.140804544091224670e-02 -6.594798713922500610e-02 4.644181951880455017e-02 8.341981470584869385e-02 -3.768834471702575684e-02 6.597634404897689819e-02 -4.465438798069953918e-02
-5.584590882062911987e-02 7.585266232490539551e-02 6.946220993995666504e-02 -4.149070754647254944e-02 -4.047919437289237976e-02 -3.252108395099639893e-02 -1.041905023157596588e-02 -1.132044661790132523e-02 -4.582361504435539246e-02 1.181889139115810394e-02
4.876962676644325256e-02 -7.567646447569131851e-03 -2.694551274180412292e-02 -1.434252783656120300e-02 2.573076076805591583e-02 -3.186416998505592346e-02 -6.088805571198463440e-02 -5.257813259959220886e-02 8.910450153052806854e-03 1.559895742684602737e-02
2.979795634746551514e-02 -4.595876485109329224e-02 4.786327481269836426e-04 4.770606011152267456e-02 2.341254055500030518e-02 -2.567498758435249329e-02 4.567892849445343018e-02 2.169444411993026733e-02 -5.814298242330551147e-02 -9.856387972831726074e-03
3.250533342361450195e-02 8.059675991535186768e-02 7.357884198427200317e-02 1.590427197515964508e-02 6.008087843656539917e-02 2.439624443650245667e-02 -1.991263963282108307e-02 -6.512236595153808594e-02 -5.160221084952354431e-02 -1.997558586299419403e-02
