2.878194302320480347e-02 4.282902553677558899e-02 -1.967984996736049652e-02 4.895891621708869934e-02 -1.391495577991008759e-02 -3.119633346796035767e-02 2.225555293262004852e-02 -5.903561599552631378e-03 3.592932224273681641e-02 4.318856075406074524e-02 -2.654393576085567474e-02 -4.879220947623252869e-02 -8.159966208040714264e-03 2.888325043022632599e-02 1.891990541480481625e-03 4.650836810469627380e-03 -1.390592544339597225e-03 4.370124638080596924e-02 1.475028973072767258e-02 -2.755059301853179932e-02 2.715707756578922272e-02 -1.054687518626451492e-02 1.918197423219680786e-02 -2.677279710769653320e-02 -3.330885665491223335e-03 -9.032988920807838440e-03 2.860323712229728699e-02 3.791342303156852722e-02 -1.078529097139835358e-02 2.060252986848354340e-02 3.047121502459049225e-02 2.783156745135784149e-02 -4.348878189921379089e-02 3.330979263409972191e-03 1.025129575282335281e-02 2.226671762764453888e-02 4.967104271054267883e-02 -4.491708800196647644e-02 1.085544005036354065e-02 3.670683130621910095e-02 -1.781635358929634094e-02 6.030667107552289963e-03 4.253498464822769165e-02 -3.021330200135707855e-02 3.391887247562408447e-02 4.607151821255683899e-02 2.667530439794063568e-03 -2.644178457558155060e-02 -4.042359534651041031e-03 -1.426295842975378036e-02 -4.600239172577857971e-02 -5.973480641841888428e-03 -2.132895868271589279e-03 -2.140053734183311462e-02 -1.954855211079120636e-02 4.568474739789962769e-02 -5.639823153614997864e-03 2.511553652584552765e-02 3.239140659570693970e-02 -2.407602965831756592e-02 -1.599585637450218201e-02 2.562893182039260864e-02 1.989717967808246613e-02 3.258465975522994995e-02 1.341012120246887207e-02 8.774753659963607788e-03 2.215266786515712738e-02 1.580458134412765503e-02 -2.968725003302097321e-02 -3.006773255765438080e-02 -3.892768174409866333e-02 3.770554438233375549e-02 3.682848811149597168e-02 2.475972846150398254e-02 4.780335351824760437e-02 -2.666275948286056519e-02 -9.410574100911617279e-03 -4.703372344374656677e-02 4.690823331475257874e-02 2.505392767488956451e-02 3.150261566042900085e-02 3.053801832720637321e-03 2.955429814755916595e-02 4.661981761455535889e-02 -1.297814492136240005e-02 -3.249504789710044861e-02 -3.214820101857185364e-02 -4.840869456529617310e-02 -4.022482037544250488e-02 1.835005357861518860e-02 -1.018094364553689957e-02 1.956694759428501129e-02 -8.526727557182312012e-03 1.090810354799032211e-02 1.191411726176738739e-02 -4.353813454508781433e-02 2.368660271167755127e-02 4.718592390418052673e-02 3.541699424386024475e-02 -3.090198850259184837e-03 -8.976578712463378906e-03 -2.542222291231155396e-02 -3.553159162402153015e-02 -3.619193285703659058e-02 1.147344335913658142e-02 -9.878662414848804474e-03 -4.700283706188201904e-02 -4.386460408568382263e-02 4.341571033000946045e-02 -1.731421798467636108e-02 5.307947751134634018e-03 4.407953098416328430e-02 3.997221589088439941e-02 -7.767250295728445053e-03 -2.327495254576206207e-02 1.464589498937129974e-03 9.616111405193805695e-03 1.150683593004941940e-02 -3.117609582841396332e-02 -3.164496738463640213e-03 -3.044710494577884674e-02 -3.375722095370292664e-03 4.736541211605072021e-02 -3.177551925182342529e-02 -4.565831646323204041e-02 -1.036649197340011597e-02 -4.026784747838973999e-02 4.501641541719436646e-02 -2.753361687064170837e-02 3.091941107413731515e-05 2.551272511482238770e-02 1.254268083721399307e-02 -3.391393646597862244e-02 3.820816054940223694e-03 -3.116841055452823639e-02 -3.492299094796180725e-02 -3.639021888375282288e-02 -8.838883601129055023e-03 2.621817588806152344e-02 -6.336909253150224686e-03 1.893638446927070618e-02 4.526328667998313904e-02 1.579515286721289158e-03 -3.441752493381500244e-02 1.301261130720376968e-02 -4.811609163880348206e-02 -2.512637525796890259e-02 2.624204568564891815e-02 -3.718860819935798645e-02 1.075569074600934982e-02 -3.287404030561447144e-02 -3.462377935647964478e-02 3.702932596206665039e-02 -2.733027935028076172e-02 -1.838964596390724182e-02 -4.505641013383865356e-02 -2.585968375205993652e-02 1.803714036941528320e-02 2.524639479815959930e-02 4.838812723755836487e-02 -1.261802203953266144e-02 -1.055459212511777878e-02 2.405799180269241333e-02 4.048579186201095581e-02 -4.913387447595596313e-02 3.962891548871994019e-02 -1.746557094156742096e-02 2.248863317072391510e-02 4.789067804813385010e-02 2.985643409192562103e-02 -4.594950750470161438e-02 3.802936896681785583e-02 -4.973033070564270020e-02 2.725851489230990410e-03 3.315180540084838867e-02 -3.407068923115730286e-02 4.303486645221710205e-02 3.460277244448661804e-02 -1.853969879448413849e-02 -3.098715282976627350e-02 2.426244877278804779e-02 -2.923807129263877869e-02 4.315361008048057556e-02 -1.414862554520368576e-02 7.660229690372943878e-03 3.950582817196846008e-02 4.198113828897476196e-02 -1.846376433968544006e-02 4.638160392642021179e-02 -3.740829601883888245e-02 -1.922246441245079041e-02 4.271095618605613708e-02 1.999880187213420868e-03 3.557646647095680237e-02 1.163289416581392288e-02 1.654558256268501282e-02 3.440865501761436462e-02 -3.097396902740001678e-02 1.348054036498069763e-02 -4.625752626452594995e-04 1.165574137121438980e-02 -3.005861118435859680e-02 2.107373252511024475e-02 -4.647359251976013184e-03 2.107432484626770020e-02 3.950828313827514648e-02 3.689299151301383972e-02 2.611283585429191589e-02 4.639643058180809021e-02 2.930371277034282684e-02 -1.999117620289325714e-02 3.468082472681999207e-02 4.979146271944046021e-02 -4.191585630178451538e-02 -1.650492474436759949e-02 2.273931913077831268e-02 -1.974547468125820160e-02 -1.527423411607742310e-02 5.142804700881242752e-03 -4.825643077492713928e-02 -4.748225212097167969e-02 4.852398857474327087e-02 3.167870640754699707e-02 3.911818563938140869e-02 -2.529995143413543701e-02 5.242034792900085449e-02 8.884310722351074219e-03 -3.248873725533485413e-02 -2.072977088391780853e-02 -2.314167283475399017e-02 9.995352476835250854e-03 -3.772635012865066528e-02 1.868268474936485291e-02 4.627319797873497009e-02 7.568603847175836563e-03 1.488742046058177948e-02 3.302650898694992065e-02 4.819560050964355469e-02 -6.173692177981138229e-03 -3.605828806757926941e-02 4.673561453819274902e-02 3.136168792843818665e-02 3.568867966532707214e-02 -4.711282253265380859e-02 -4.517076537013053894e-02 2.253935672342777252e-02 4.612342268228530884e-02 -4.357120394706726074e-02 -3.001955337822437286e-02 3.743609040975570679e-02 1.704770512878894806e-02 -1.108434703201055527e-02 2.926223352551460266e-02 8.341336622834205627e-03 3.466567769646644592e-02 4.341394826769828796e-02 3.369801118969917297e-02 -3.667502105236053467e-02 -2.250437997281551361e-02 3.997882455587387085e-02 6.789748556911945343e-03 2.568357065320014954e-02 -2.786046452820301056e-02 -2.288012206554412842e-02 2.332021854817867279e-02 -5.971680860966444016e-03 1.553247030824422836e-02 -3.705669939517974854e-02 4.499211907386779785e-02 1.224496052600443363e-03 -5.968975368887186050e-03 2.110431529581546783e-02 -3.273180872201919556e-02 -2.401383034884929657e-02 1.495607290416955948e-02 1.090395171195268631e-02 3.043149411678314209e-02 4.433622956275939941e-02 -1.065186411142349243e-02 -4.935029521584510803e-02 2.812036126852035522e-02 -3.631147556006908417e-03 3.208772838115692139e-02 2.005818858742713928e-02 1.677105575799942017e-02 -6.014760583639144897e-04 3.876046091318130493e-02 -3.137233853340148926e-02 -2.957655861973762512e-02 -3.678891807794570923e-02 1.712423376739025116e-02 -4.534969106316566467e-02 -3.218079730868339539e-02 -4.289081692695617676e-02 3.187174350023269653e-02 -2.722491882741451263e-02 3.210689872503280640e-02 -3.714028745889663696e-02 4.483774676918983459e-02 -2.571300417184829712e-02 -4.051994159817695618e-02 2.315702661871910095e-02 -3.816752135753631592e-02 -3.181518241763114929e-02 1.596069522202014923e-02 2.248016931116580963e-02 -4.154449701309204102e-02 4.307445138692855835e-02 -3.470926359295845032e-02 -2.794976346194744110e-02 -3.643837943673133850e-02 8.211864158511161804e-03 2.684641815721988678e-02 3.494746237993240356e-02 -2.954477444291114807e-02 -3.265489265322685242e-02 8.025403134524822235e-03 2.715924195945262909e-02 3.324410691857337952e-02 3.367943689227104187e-02 -3.053396940231323242e-02 4.869550094008445740e-02 3.229110687971115112e-02 -9.072588291019201279e-04 1.020513381808996201e-02 -3.048694320023059845e-02 -1.778959669172763824e-02 -6.100174505263566971e-03 2.884187502786517143e-03 1.578625105321407318e-02 -3.168230131268501282e-02 3.804511949419975281e-02 -2.861225418746471405e-02 4.216165468096733093e-02 1.954233460128307343e-02 -1.782633364200592041e-02 4.975954815745353699e-02 4.796132072806358337e-02 -4.536421597003936768e-02 4.311989247798919678e-02 -2.656874433159828186e-02 3.669707803055644035e-03 4.786155372858047485e-02 2.613112889230251312e-02 4.512667655944824219e-02 3.325692936778068542e-02 4.455986991524696350e-02 1.797318272292613983e-02 1.789045147597789764e-02 -1.460000406950712204e-03 -3.406185656785964966e-02 -2.344132587313652039e-02 5.931668449193239212e-03 3.593195229768753052e-02 -1.393254753202199936e-02 6.498526781797409058e-03 -3.884487226605415344e-02 2.592513151466846466e-02 3.916963562369346619e-02 3.143881633877754211e-02 -4.759509116411209106e-02 1.261618267744779587e-02 -1.661717426031827927e-03 3.262526169419288635e-02 1.274091005325317383e-02 -2.040722034871578217e-02 3.575319889932870865e-03 2.132285945117473602e-02 4.697551205754280090e-02 -4.391551390290260315e-02 9.870707290247082710e-04 -4.755125939846038818e-02 2.124716760590672493e-03 4.054502025246620178e-02 -2.200045250356197357e-02 -4.501075297594070435e-02 -4.623844474554061890e-02 -2.269040234386920929e-02 2.810027822852134705e-02 -3.684124210849404335e-03 -3.693200647830963135e-02 -6.328132003545761108e-03 1.607208885252475739e-02 1.355971582233905792e-02 4.208368435502052307e-02 -6.382089573889970779e-03 4.399549588561058044e-02 3.540697321295738220e-02 4.982485249638557434e-02 -5.879936739802360535e-03 4.258077591657638550e-02 -4.479585215449333191e-02 2.882167883217334747e-02 -3.562090173363685608e-02 -4.994700476527214050e-02 4.757646098732948303e-02 1.610576175153255463e-02 1.061568688601255417e-02 3.699981048703193665e-02 -4.380926862359046936e-02 1.688334532082080841e-02 -1.646994240581989288e-02 2.849538996815681458e-02 1.874340348877012730e-03 -3.457852080464363098e-02 -4.976126924157142639e-02 -2.191505581140518188e-02 1.997606083750724792e-02 -4.631135240197181702e-02 -4.638488590717315674e-02 4.916350543498992920e-02 -3.085720352828502655e-02 -3.643392771482467651e-02 3.785742446780204773e-02 -2.051804214715957642e-02 -3.878311254084110260e-03 -4.218944907188415527e-02 2.938149496912956238e-02 -1.295208465307950974e-03 3.499937057495117188e-02 2.252089790999889374e-03 3.368098661303520203e-02 -2.304149419069290161e-02 4.035839438438415527e-02 -2.567348070442676544e-03 -1.784474216401576996e-02 -3.250117972493171692e-02 3.368160501122474670e-02 -4.527827352285385132e-02 -4.935410991311073303e-02 1.217294950038194656e-02 4.708920419216156006e-02 -4.571326449513435364e-02 -3.091943822801113129e-02 -1.922129839658737183e-02 2.941039018332958221e-02 1.899732305901125073e-04 -1.872539333999156952e-02 -2.580421604216098785e-02 4.139624163508415222e-02 3.209108114242553711e-02 2.286635572090744972e-03 -3.249994292855262756e-02 -1.175107993185520172e-02 2.167123556137084961e-02 -3.107003681361675262e-02 3.987381607294082642e-02 1.962495036423206329e-02 -5.084591917693614960e-03 4.564682021737098694e-02 -3.888145089149475098e-02 1.544385869055986404e-02 2.672701887786388397e-02 2.619664650410413742e-03 -1.148742157965898514e-02 -1.375499088317155838e-02 4.835111275315284729e-02 -1.442654058337211609e-02 -1.626358483918011189e-03 5.139373242855072021e-02 4.560359194874763489e-02 -2.177736535668373108e-02 -4.477110505104064941e-02 -6.210259161889553070e-03 4.046571627259254456e-02 -2.577992156147956848e-02 -3.189419209957122803e-02 9.639367461204528809e-03 4.898526892066001892e-02 4.215009510517120361e-02 -4.200302064418792725e-02 -4.480939731001853943e-02 -2.791220694780349731e-02 1.090945326723158360e-03 4.500775411725044250e-02 -3.604736924171447754e-02 1.304359082132577896e-02 3.104144893586635590e-02 -4.210165515542030334e-02 3.873966634273529053e-02 -7.211220450699329376e-03 4.117933288216590881e-02 4.586074873805046082e-02 1.664116047322750092e-02 -2.336202422156929970e-03 -9.410147555172443390e-03 4.305243492126464844e-02 1.655920222401618958e-02 3.606325387954711914e-02 8.131467620842158794e-04 1.410683337599039078e-02 8.554442785680294037e-03 2.109171450138092041e-02 -4.152657836675643921e-02 -4.340290650725364685e-02 3.251751512289047241e-02 -1.034086663275957108e-02 -4.544673860073089600e-02 -2.264111675322055817e-02 -2.629638463258743286e-02 1.628539711236953735e-02 3.600000590085983276e-02 -3.012972883880138397e-02 9.315962903201580048e-03 6.080348975956439972e-03 -7.701817085035145283e-04 1.491359062492847443e-02 -2.169732749462127686e-02 -4.069162998348474503e-03 4.143597930669784546e-02 3.297439590096473694e-02 4.475907608866691589e-02 1.400517212459817529e-04 -2.986767701804637909e-02 1.349369063973426819e-02 4.387274011969566345e-02 -1.051278598606586456e-02 -6.469985470175743103e-03 8.215901441872119904e-03 4.183032736182212830e-02 2.944399602711200714e-02 4.287115857005119324e-02 2.698651328682899475e-02 5.558964796364307404e-03 4.308843053877353668e-03 -3.711181506514549255e-02 4.431338235735893250e-02 1.148923207074403763e-02 4.379536956548690796e-02 2.628117799758911133e-02 6.833060644567012787e-03 -4.981657490134239197e-02 -2.889481000602245331e-02 3.378864377737045288e-02 -2.688903920352458954e-02 1.142606232315301895e-02 -1.212954521179199219e-02 -4.399828240275382996e-02 4.849509149789810181e-02 4.244404286146163940e-02 4.431974515318870544e-02 -3.559816628694534302e-02 1.955281244590878487e-03 2.104772627353668213e-02 3.575189784169197083e-02 2.014685422182083130e-02 6.363807711750268936e-03 -4.842480644583702087e-02 -1.004181895405054092e-02 3.204898384865373373e-04 2.686520665884017944e-02 -1.780383102595806122e-02 4.067530855536460876e-02 -8.517916314303874969e-03 -4.223310574889183044e-02 -1.589181832969188690e-02 -1.274141855537891388e-02 3.532331204041838646e-03 2.263856865465641022e-02 8.003412745893001556e-03 -7.995347492396831512e-03 -6.799363996833562851e-03 -6.047989241778850555e-03 4.886213690042495728e-02 2.722096070647239685e-02 3.826320171356201172e-02 -4.595375806093215942e-02 -4.430460929870605469e-02 3.611378371715545654e-02 -6.553126149810850620e-04 -3.328077122569084167e-02 -4.358430579304695129e-02 3.452591598033905029e-02 -3.089665202423930168e-03 3.388154134154319763e-02 -1.363889221101999283e-02 -4.505962878465652466e-02 -1.353702857159078121e-03 4.497171193361282349e-02 3.213692456483840942e-02 -1.445572637021541595e-02 -1.842617988586425781e-02 7.407245691865682602e-03 4.523004218935966492e-02 1.851513236761093140e-02 -1.977125369012355804e-02 4.845518246293067932e-02 2.963203005492687225e-02 2.442280761897563934e-02 6.156979128718376160e-03 4.453251510858535767e-02 3.304100409150123596e-02 -4.383622435852885246e-04 1.078653987497091293e-02 -4.397574067115783691e-02 1.031671278178691864e-02 3.072848357260227203e-02 1.704690419137477875e-02 -1.940701715648174286e-02 -4.020339995622634888e-02 1.905746571719646454e-02 -2.097733132541179657e-02 4.361161217093467712e-02 -4.418000951409339905e-02 9.498161263763904572e-03 7.136024069041013718e-03 1.451132167130708694e-02 -4.566327109932899475e-02 -4.832347109913825989e-02 -7.173971738666296005e-03 -3.547494858503341675e-02 6.507318932563066483e-03 -2.741263993084430695e-02 6.145696970634162426e-04 4.599490389227867126e-02 2.140735648572444916e-02 -3.696035593748092651e-02 1.249035727232694626e-02 -2.419968508183956146e-02 -1.152772828936576843e-02 -3.468774259090423584e-02 2.661887556314468384e-02 4.774734377861022949e-02 4.874484613537788391e-02 1.766461506485939026e-02 4.157220199704170227e-02 1.301761623471975327e-02 1.772073656320571899e-02 -3.647345304489135742e-02 4.988179542124271393e-03 -2.976408973336219788e-02 2.843963727355003357e-02 7.371662184596061707e-03 -1.564540900290012360e-02 -1.752068474888801575e-02 -4.592382162809371948e-02 -3.315600007772445679e-02 -4.762288555502891541e-02 -4.101416096091270447e-02 4.076982662081718445e-02 -2.779211476445198059e-02 5.077305436134338379e-02 4.728086641989648342e-04 2.030022814869880676e-02 1.013815309852361679e-02 -4.375891014933586121e-02 -2.990656718611717224e-02 5.873214453458786011e-03 -2.537919208407402039e-02 4.200248420238494873e-02 2.394470013678073883e-02 3.177696838974952698e-02 1.515177637338638306e-02 -4.038017243146896362e-03 2.534599229693412781e-02 -3.573366440832614899e-03 -3.404801338911056519e-02 1.598808169364929199e-02 1.789796166121959686e-02 -2.491570450365543365e-02 1.220664195716381073e-02 -2.980764396488666534e-02 -3.532332135364413261e-03 -1.142198103480041027e-03 -4.397373273968696594e-02 1.854089833796024323e-02 -4.104287177324295044e-02 2.887819334864616394e-02 -4.001329466700553894e-02 -2.351780049502849579e-02 3.151403740048408508e-02 -8.324626833200454712e-03 -2.878369763493537903e-03 -3.920610994100570679e-02 -1.714774779975414276e-02 -1.718619838356971741e-02 1.621378585696220398e-02 -3.462181612849235535e-02 3.577476739883422852e-02 -1.465674303472042084e-02 -1.344139687716960907e-02 -1.921006664633750916e-02 -2.192433923482894897e-02 2.976266294717788696e-02 2.205411717295646667e-02 -3.569109365344047546e-02 1.351832412183284760e-02 7.164586335420608521e-03 -7.159970700740814209e-03 3.432494401931762695e-02 -2.367033250629901886e-02 -4.286319389939308167e-02 -1.832508109509944916e-02 -1.551368087530136108e-02 -3.392877802252769470e-02 -4.805633053183555603e-02 2.386037632822990417e-02 1.144530344754457474e-02 -4.030444473028182983e-02 3.487369045615196228e-03 -3.977961093187332153e-02 -3.307659551501274109e-02 -6.008987838868051767e-05 -4.753518104553222656e-02 2.662822790443897247e-02 5.119082704186439514e-02 1.967582665383815765e-02 -1.532144006341695786e-02 3.599916025996208191e-02 -1.747414655983448029e-02 3.019101172685623169e-02 -6.837217137217521667e-03 -1.950203999876976013e-02 2.942461706697940826e-02 -3.682272508740425110e-02 5.117943882942199707e-02 -3.078827448189258575e-02 5.638071801513433456e-03 2.339510433375835419e-02 3.340977430343627930e-02 6.089719012379646301e-03 -3.886257484555244446e-02 -2.838935330510139465e-02 8.660458028316497803e-03 -4.587303847074508667e-04 -1.476570218801498413e-02 3.496719151735305786e-02 -1.203492656350135803e-02 -9.473243728280067444e-03 -1.456332160159945488e-03 -1.506641041487455368e-02 4.358922317624092102e-02 -1.635850034654140472e-02 -4.725077375769615173e-02 -3.652626648545265198e-02 -3.894684836268424988e-02 -2.426785789430141449e-02 1.183019392192363739e-02 -8.014907507458701730e-05 -2.980132587254047394e-02 -1.652301475405693054e-02 -2.005091868340969086e-02 4.519729316234588623e-02 4.448920115828514099e-02 2.410583198070526123e-03 4.633381962776184082e-02 -4.354333132505416870e-02 1.813661307096481323e-02 -5.047034099698066711e-02 -3.511026874184608459e-02 4.268884658813476562e-03 2.157115377485752106e-04 2.033720538020133972e-02 4.001581296324729919e-02 1.699776761233806610e-02 4.670258238911628723e-02 3.951968997716903687e-02 3.678604587912559509e-02 2.394340187311172485e-02 2.318680286407470703e-02 -4.214096348732709885e-03 2.382952487096190453e-03 -3.183700889348983765e-02 9.509914554655551910e-03 4.314760118722915649e-02 -4.878647625446319580e-02 -1.164370868355035782e-02 -3.895126283168792725e-02 2.863751165568828583e-02 4.608672484755516052e-02 -2.366687543690204620e-02 3.255964443087577820e-02 4.297072067856788635e-02 -4.951112717390060425e-02 -3.612711280584335327e-02 1.210341881960630417e-02 -6.322340574115514755e-03 -4.559307917952537537e-02 -2.788993157446384430e-02 -7.523123640567064285e-03 -1.286861603148281574e-03 2.438663318753242493e-02 -2.435014769434928894e-02 -2.394798211753368378e-02 -1.802376098930835724e-02 6.899754051119089127e-03 9.018554352223873138e-03 2.644821442663669586e-02 1.413777191191911697e-02 3.184081986546516418e-02 -1.277209073305130005e-02 4.797431826591491699e-02 2.191258035600185394e-02 2.207683771848678589e-02 7.017200812697410583e-03 -1.031486969441175461e-02 3.053128346800804138e-02 3.144737705588340759e-02 4.024569690227508545e-02 3.095383383333683014e-02 2.794888801872730255e-02 -2.459617704153060913e-02 4.041529819369316101e-02 -1.400562236085534096e-03 2.746562100946903229e-02 3.317578509449958801e-02 3.556611761450767517e-02 -4.358803853392601013e-02 -4.602492600679397583e-02 -3.924425318837165833e-02 4.935108125209808350e-02 -4.453347623348236084e-02 5.542067345231771469e-03 -3.488165885210037231e-02 2.099411003291606903e-02 4.169972240924835205e-02 -2.650920674204826355e-02 -1.591847278177738190e-02 -2.954139001667499542e-02 -2.957543544471263885e-02 9.903481230139732361e-03 2.878247760236263275e-02 7.322499994188547134e-03 4.835037514567375183e-02 3.979870234616100788e-04 7.669010083191096783e-04 1.343994308263063431e-02 1.426414382876828313e-04 -2.301245555281639099e-02 -2.514533884823322296e-02 1.534388680011034012e-02 -4.099925979971885681e-02 -9.748965501785278320e-03 -3.218262270092964172e-02 8.900203742086887360e-03 2.767283841967582703e-02 6.101427134126424789e-03 -1.835314370691776276e-02 -4.080382734537124634e-02 -2.183410152792930603e-02 4.869362711906433105e-02 -1.010455004870891571e-02 3.348792344331741333e-02 4.857656732201576233e-02 4.617771878838539124e-02 -3.164688497781753540e-02 2.622933685779571533e-02 3.710226621478796005e-03 5.695277824997901917e-03 1.000317186117172241e-02 -4.046718031167984009e-02 1.938910223543643951e-02 -2.294985018670558929e-02 4.579954221844673157e-02 -4.623995482688769698e-05 -2.410273626446723938e-02 -1.777642592787742615e-02 -3.706150874495506287e-02 -1.056713890284299850e-02 -2.304499410092830658e-02 -3.987782448530197144e-02 3.327671671286225319e-03 -3.015810437500476837e-02 -1.897873543202877045e-02 2.270106226205825806e-03 -6.534945685416460037e-03 8.419487625360488892e-03 2.270626462996006012e-02 -2.875330392271280289e-03 3.871672227978706360e-02 2.320569753646850586e-02 -2.249845117330551147e-02 -1.272395718842744827e-02 3.700213506817817688e-02 4.129382222890853882e-02 1.612259511603042483e-04 4.401685670018196106e-02 -4.341452196240425110e-02 2.886372804641723633e-02 4.851797595620155334e-02 -1.657034829258918762e-02 -2.789794281125068665e-02 3.829384222626686096e-02 4.038783162832260132e-02 4.686537757515907288e-02 1.513802632689476013e-02 -7.107530720531940460e-03 -4.418237134814262390e-02 1.177128683775663376e-02 -4.749882593750953674e-02 -1.343138283118605614e-03 -3.493881225585937500e-02 -2.871777163818478584e-03 -4.165228828787803650e-02 4.114731773734092712e-02 4.518903791904449463e-02 -3.008694015443325043e-02 -4.134117439389228821e-02 3.489603521302342415e-03 -2.871071733534336090e-02 1.943929307162761688e-02 -1.874223165214061737e-02 3.464526683092117310e-02 -2.117091603577136993e-02 -4.545182734727859497e-02 1.511949580162763596e-02 -1.950287818908691406e-02 4.827764350920915604e-03 2.221128344535827637e-02 1.392592582851648331e-02 8.279650472104549408e-03 -9.694201871752738953e-03 -3.401640057563781738e-02 -4.168374929577112198e-03 -3.800478577613830566e-02 -2.762123709544539452e-03 3.303551673889160156e-02 -1.358011621050536633e-03 3.949007391929626465e-02 1.794555597007274628e-02 2.250000275671482086e-02 4.799001291394233704e-02 9.106212295591831207e-03 3.463118523359298706e-02 -2.265648171305656433e-02 -3.165676444768905640e-02 -1.088287099264562130e-03 1.280468888580799103e-02 1.526658516377210617e-02 6.458045099861919880e-04 2.719572745263576508e-02 2.719984389841556549e-02 3.527585789561271667e-02 1.497250702232122421e-02 -4.728009179234504700e-02 -4.169974010437726974e-03 4.027020558714866638e-02 2.296593785285949707e-02 4.243548214435577393e-02 4.015120491385459900e-02 1.660894788801670074e-02 -1.756791211664676666e-02 1.561685837805271149e-02 2.913219854235649109e-02 -3.248023986816406250e-02 -1.179137174040079117e-02 2.063158154487609863e-02 -3.498182073235511780e-02 3.210398182272911072e-02 3.699160367250442505e-02 -1.774846389889717102e-02 -3.041848307475447655e-03 -4.721407592296600342e-02 2.583276713266968727e-03 2.139937318861484528e-02 3.583775833249092102e-02 2.418090030550956726e-02 2.542126923799514771e-02 -1.172558590769767761e-02 4.255942627787590027e-02 3.832751186564564705e-03 -3.805382177233695984e-02 -2.248072763904929161e-03 -2.821869775652885437e-02 2.760504186153411865e-02 -1.430261693894863129e-02 4.239714518189430237e-02 1.975965453311800957e-03 2.396560274064540863e-02 -1.377125736325979233e-02 2.243017032742500305e-02 3.646221756935119629e-02 1.939402520656585693e-02 1.170541811734437943e-02 -5.999659653753042221e-03 4.932049661874771118e-02 -1.991245523095130920e-02 1.766311563551425934e-02 -2.816309221088886261e-02 1.971819624304771423e-02 4.167636856436729431e-02 3.583486378192901611e-02 2.534168958663940430e-02 2.399611845612525940e-02 -1.123367063701152802e-02 -1.554963551461696625e-02 6.721860729157924652e-03 1.663973368704319000e-02 -6.209885235875844955e-03 -3.668305650353431702e-02 -4.302624240517616272e-02 -4.391398280858993530e-02 2.651428990066051483e-02 -2.505709417164325714e-02 -3.165960684418678284e-02 -3.535819053649902344e-02 -2.507819607853889465e-02 3.213253617286682129e-02 3.864810615777969360e-02 -4.674467816948890686e-02 2.796272560954093933e-02 3.879982978105545044e-02 -4.215078428387641907e-02 1.849035359919071198e-02 3.289610147476196289e-02 1.253413036465644836e-02 -5.032984539866447449e-02 -1.686430908739566803e-02 3.929375484585762024e-02 1.156565453857183456e-02 -3.549307584762573242e-02 -6.220018491148948669e-03 -3.666372597217559814e-02 -2.975654788315296173e-02 2.467343769967556000e-02 4.112005606293678284e-02 -2.998134866356849670e-02 1.301199197769165039e-02 3.646003827452659607e-02 2.461115084588527679e-02 3.145053237676620483e-02 -2.863046713173389435e-02 -1.917705312371253967e-02 -2.223856560885906219e-02 2.831171639263629913e-02 2.565474435687065125e-02 1.981858164072036743e-02 -1.280410401523113251e-02 4.798471555113792419e-02 1.908619329333305359e-02 -2.394693717360496521e-02 2.905758842825889587e-02 3.427819162607192993e-02 3.574999421834945679e-02 -1.581173017621040344e-02 -7.180237211287021637e-03 5.050937179476022720e-03 2.608189173042774200e-02 1.041138172149658203e-02 -1.767779514193534851e-02 2.945913700386881828e-03 4.009489342570304871e-02 2.801188034936785698e-03 -1.167683862149715424e-02 -2.460816502571105957e-02 -2.960536815226078033e-02 -4.342139139771461487e-02 -1.322941016405820847e-02 -2.897182106971740723e-02 2.148594707250595093e-02 3.919329121708869934e-02 -1.711895503103733063e-02 -1.870955713093280792e-02 1.418539695441722870e-02 -1.429324317723512650e-02 -1.280339248478412628e-02 3.507936745882034302e-02 -3.038451820611953735e-02 -1.089968997985124588e-02 1.641810988076031208e-03 1.544910483062267303e-02 3.117093257606029510e-02 -4.535384476184844971e-02 -4.289415478706359863e-02 -4.274168983101844788e-02 -1.348474156111478806e-02 -2.382380887866020203e-02 -3.074748255312442780e-02 -4.237744957208633423e-02 -1.247474085539579391e-02 -1.757456734776496887e-02 -4.027642682194709778e-02 4.057985171675682068e-02 -2.746920660138130188e-02 3.516888990998268127e-02 -4.890491813421249390e-02 -5.453884135931730270e-03 -4.236503690481185913e-02 4.383611679077148438e-02 -3.386987000703811646e-02 -7.410672958940267563e-03 -2.684279344975948334e-03 -4.435503482818603516e-02 1.268963050097227097e-02 -3.116244822740554810e-02 -6.627813912928104401e-03 3.197062760591506958e-02 1.163119636476039886e-02 7.760552223771810532e-03 -9.785550646483898163e-03 3.099121898412704468e-02 6.954048760235309601e-03 4.801998287439346313e-02 -1.592150144279003143e-02 -3.633053228259086609e-02 -2.958918176591396332e-02 2.880978025496006012e-02 -7.033371832221746445e-03 3.033635765314102173e-02 -2.477654255926609039e-02 -2.276132814586162567e-02 3.721242398023605347e-02 4.937877133488655090e-02 -2.170599624514579773e-02 -3.856677561998367310e-02 2.771298959851264954e-02 -3.231581673026084900e-02 7.207941729575395584e-03 3.660902753472328186e-02 -8.135084062814712524e-03 -2.488607540726661682e-02 2.027410827577114105e-02 4.921083524823188782e-02 -2.231501229107379913e-02 -2.861500531435012817e-02 -2.421546541154384613e-02 -1.105046551674604416e-02 -1.511310320347547531e-02 -5.577181931585073471e-03 2.858928218483924866e-02 -1.684989035129547119e-02 3.824666514992713928e-02 1.107941381633281708e-02 -4.851195961236953735e-02 3.628853708505630493e-02 8.445382118225097656e-03 -3.587535768747329712e-02 2.490840852260589600e-02 4.027190059423446655e-02 4.214398190379142761e-02 -4.899238701909780502e-03 4.176677763462066650e-02 4.946900159120559692e-02 2.799024619162082672e-02 -2.093289978802204132e-02 2.025569975376129150e-02 3.355769068002700806e-02 2.152313664555549622e-02 -4.694310575723648071e-02 3.503966704010963440e-02 4.308874532580375671e-02 -4.536497965455055237e-02 1.997398026287555695e-02 -4.735604301095008850e-02 -1.261552143841981888e-02 1.913721859455108643e-02 -5.023005232214927673e-02 -5.001192912459373474e-02 3.098965249955654144e-02 -3.916770592331886292e-02 -3.068688884377479553e-02 1.847612112760543823e-02 1.778227835893630981e-02 -3.480556607246398926e-02 -7.294627372175455093e-03 -6.298319436609745026e-03 1.808024384081363678e-02 1.347152516245841980e-02 2.855006232857704163e-02 -2.066561765968799591e-02 1.132336631417274475e-02 5.672278814017772675e-03 2.955788560211658478e-02 -3.762143477797508240e-02 4.230059310793876648e-02 2.027864940464496613e-02 -4.721886664628982544e-02 -2.627223171293735504e-02 -3.272055462002754211e-02 2.792829275131225586e-02 4.825848340988159180e-02 -6.678067147731781006e-03 2.150101400911808014e-02 -3.701195493340492249e-02 -2.547862753272056580e-02 4.850989580154418945e-02 -6.321855820715427399e-03 2.435371838510036469e-02 -4.920624569058418274e-02 -3.379309177398681641e-02 -3.160805627703666687e-02 1.899797096848487854e-02 -2.443179674446582794e-02 -3.241242468357086182e-02 6.361508276313543320e-04 4.367891326546669006e-02 2.597028948366641998e-02 3.742261230945587158e-02 -4.591155052185058594e-02 1.100974902510643005e-02 4.378736950457096100e-03 2.506344206631183624e-02 -3.851942718029022217e-02 4.572125896811485291e-02 1.876414753496646881e-02 -1.464393362402915955e-02 -1.908102445304393768e-02 1.103950664401054382e-02 2.320734411478042603e-02 4.224897921085357666e-02 3.162154229357838631e-03 -3.019547089934349060e-02 -7.440467365086078644e-03 -2.796676196157932281e-02 2.567287161946296692e-02 -7.402359042316675186e-03 -2.355879917740821838e-02 1.234982907772064209e-02 1.415306329727172852e-02 4.798605293035507202e-02 -2.514473535120487213e-02 2.468640217557549477e-03 2.949596196413040161e-02 -1.307689864188432693e-02 2.129528485238552094e-02 -1.724075525999069214e-02 -2.392521500587463379e-02 2.282591536641120911e-02 -2.502408064901828766e-02 3.497803211212158203e-02 4.502301570028066635e-03 5.007879063487052917e-02 -3.900977596640586853e-02 9.537984617054462433e-03 -2.564772963523864746e-02 -2.948275022208690643e-02 4.173061624169349670e-02 -3.564045205712318420e-02 -2.177477627992630005e-02 -2.624370716512203217e-02 -1.977127045392990112e-02 -4.071392863988876343e-02 1.849732734262943268e-02 3.108058124780654907e-02 -1.340361498296260834e-02 7.672762498259544373e-03 2.447264082729816437e-02 4.474964737892150879e-02 4.752933979034423828e-02 -1.137408707290887833e-02 2.397133968770503998e-02 1.904703490436077118e-02 -7.248520851135253906e-03 1.475727651268243790e-02 2.074116654694080353e-02 -2.014910103753209114e-03 1.204157155007123947e-02 3.736538439989089966e-02 -2.923841401934623718e-02 -7.157177606131881475e-08 3.058303333818912506e-02 -4.186911880970001221e-02 5.178433842957019806e-03 -3.195623867213726044e-04 -5.951066035777330399e-03 -4.027465824037790298e-03 4.470141977071762085e-02 9.894642047584056854e-03 3.912511095404624939e-02 2.248442266136407852e-03 -4.675220698118209839e-02 3.177447617053985596e-02 -4.141413047909736633e-02 9.474853985011577606e-03 3.169974684715270996e-02 1.022893469780683517e-02 2.654596604406833649e-02 4.597303632181137800e-04 -4.561970010399818420e-02 4.062507301568984985e-02 -4.813997820019721985e-02 -3.025255911052227020e-02 -2.530540712177753448e-02 1.538295578211545944e-02 4.670073464512825012e-02 1.555274985730648041e-02 3.828358650207519531e-02 2.092044986784458160e-02 1.226516719907522202e-02 3.518324345350265503e-02 -3.022268787026405334e-02 9.641181677579879761e-03 1.274030935019254684e-02 -3.736623376607894897e-02 -3.619625931605696678e-03 -4.854415729641914368e-02 2.648226357996463776e-02 4.700310528278350830e-02 1.957991719245910645e-02 2.682315930724143982e-02 -6.350274663418531418e-03 -1.090170443058013916e-02 -6.930937059223651886e-03 -4.672959074378013611e-02 -1.753547973930835724e-02 -3.452319651842117310e-02 2.843730896711349487e-02 7.392357569187879562e-03 -2.705494686961174011e-02 -4.408430680632591248e-02 3.244818747043609619e-02 -1.606759056448936462e-02 -1.810614950954914093e-02 4.433569684624671936e-02 -3.986203111708164215e-03 -3.031870722770690918e-02 4.771976545453071594e-02 2.204919420182704926e-02 -2.910593152046203613e-02 -8.165985345840454102e-03 3.442722186446189880e-02 4.870903491973876953e-02 1.067829597741365433e-02 4.415152966976165771e-02 -3.515221551060676575e-02 1.370497606694698334e-02 2.329993247985839844e-02 3.067732043564319611e-02 4.761806875467300415e-02 9.325855411589145660e-03 -3.367328271269798279e-02 1.561827957630157471e-03 -4.888232052326202393e-02 1.445957575924694538e-03 3.467888385057449341e-02 -3.857229650020599365e-02 -2.793452003970742226e-03 1.720744743943214417e-02 3.954064100980758667e-02 -7.621606811881065369e-03 -5.686630960553884506e-03 1.017952337861061096e-02 3.950842842459678650e-02 8.370759896934032440e-03 2.701864391565322876e-02 -6.726959254592657089e-03 -2.733117155730724335e-02 3.264125436544418335e-02 4.650755226612091064e-02 -1.882478035986423492e-02 3.111623460426926613e-03 3.364875540137290955e-02 -1.790034212172031403e-02 3.614955022931098938e-02 -5.626298487186431885e-03 8.242269977927207947e-03 4.906572028994560242e-02 -8.227061480283737183e-03 3.914317116141319275e-02 4.747009649872779846e-02 -2.076435461640357971e-02 -2.493931539356708527e-02 -8.708518929779529572e-03 2.408661693334579468e-02 2.094857394695281982e-02 4.760059528052806854e-03 -4.483375325798988342e-02 -2.816956862807273865e-02 -3.799923881888389587e-02 -1.752187497913837433e-02 2.699351636692881584e-03 4.092597216367721558e-02 -1.058149524033069611e-02 -1.211401261389255524e-02 1.822422444820404053e-02 1.781024597585201263e-02 3.198205307126045227e-02 -4.386999458074569702e-02 -3.066691756248474121e-02 1.154226157814264297e-02 3.316395357251167297e-02 1.840374898165464401e-03 -6.756799761205911636e-03 -3.593178838491439819e-02 2.641631662845611572e-02 3.136218339204788208e-02 4.440312460064888000e-02 1.439608260989189148e-02 4.278210178017616272e-02 -3.156814724206924438e-02 4.513211548328399658e-02 -1.561741926707327366e-03 6.393007468432188034e-03 -1.928478665649890900e-02 4.111588373780250549e-02 -1.916477270424365997e-02 1.352274697273969650e-02 1.023841183632612228e-02 -1.636857911944389343e-02 -3.289651125669479370e-02 1.924663037061691284e-02 5.302052479237318039e-03 3.647947683930397034e-02 4.201071336865425110e-02 -6.948614493012428284e-03 4.969068616628646851e-02 4.690766707062721252e-02 2.085297740995883942e-02 7.938953116536140442e-03 1.444282662123441696e-02 4.114857688546180725e-02 -2.662143297493457794e-02 -3.808017075061798096e-02 4.153821989893913269e-02 -2.547380328178405762e-02 -1.153223961591720581e-02 -3.532533347606658936e-02 -3.748400136828422546e-02 -1.152894925326108932e-02 3.033254481852054596e-02 -3.380765765905380249e-02 2.714392729103565216e-03 -2.653757343068718910e-03 2.318650484085083008e-02 -2.982630208134651184e-02 4.188610613346099854e-02 -4.025307670235633850e-02 3.077175840735435486e-02 1.347218267619609833e-02 2.651683799922466278e-02 -2.766790241003036499e-02 -3.073902614414691925e-02 -7.969764992594718933e-03 -3.274907916784286499e-02 4.857202246785163879e-02 2.450813911855220795e-02 4.743636026978492737e-02 -5.011583119630813599e-02 -9.064166806638240814e-04 -1.186468056403100491e-03 1.643911004066467285e-02 1.445546187460422516e-02 7.226469460874795914e-03 1.729748025536537170e-02 2.874392457306385040e-02 -1.532389596104621887e-02 1.940841972827911377e-02 3.992179036140441895e-02 1.882535777986049652e-02 3.698566928505897522e-02 -2.722768113017082214e-02 2.658701129257678986e-02 4.075437784194946289e-02 -1.082242280244827271e-02 3.419796936213970184e-03 -1.139218825846910477e-02 -1.809710077941417694e-02 1.502864435315132141e-02 2.500501275062561035e-02 -3.438755869865417480e-02 -1.745708473026752472e-02 -2.912456402555108070e-03 -1.043726038187742233e-02 4.390940442681312561e-02 2.791376039385795593e-02 -2.934547606855630875e-03 3.972907364368438721e-02 -2.985726110637187958e-02 -3.728049248456954956e-02 -4.036580771207809448e-02 -3.718200325965881348e-02 -4.059740900993347168e-02 4.282684251666069031e-02 2.911824919283390045e-02 -4.510152339935302734e-02 3.020329587161540985e-02 -3.264151141047477722e-02 -2.152624540030956268e-02 -2.040044032037258148e-02 4.547693766653537750e-03 1.478884741663932800e-02 1.340463478118181229e-02 4.497247561812400818e-02 -2.157407440245151520e-02 2.706898003816604614e-02 -4.006159305572509766e-02 -3.419524431228637695e-02 3.139636665582656860e-02 4.555879905819892883e-02 4.161613434553146362e-02 -4.070054565090686083e-04 -1.524320058524608612e-02 1.665280200541019440e-02 -2.717137150466442108e-02 2.934207580983638763e-02 -4.919230937957763672e-03 2.726311329752206802e-03 1.460017357021570206e-02 -2.391463704407215118e-02 -2.664680220186710358e-02 -2.947059459984302521e-02 8.971681818366050720e-03 2.674558199942111969e-02 -1.832884736359119415e-02 -3.970481827855110168e-02 2.426237612962722778e-02 -2.319890819489955902e-02 4.045663774013519287e-02 5.026909336447715759e-02 4.147680848836898804e-02 2.455037832260131836e-02 -4.213686659932136536e-02 -4.438003525137901306e-03 3.364936634898185730e-02 -9.869919158518314362e-03 -1.704082265496253967e-02 -4.308398813009262085e-02 4.704066365957260132e-02 3.344861045479774475e-02 3.221283480525016785e-02 8.793368004262447357e-03 -3.150092065334320068e-02 3.364102169871330261e-02 2.958241850137710571e-02 -1.447554584592580795e-02 3.088515438139438629e-02 4.675688222050666809e-02 4.950517416000366211e-02 -2.901858417317271233e-03 -5.456414539366960526e-03 -4.157524928450584412e-02 4.282914474606513977e-02 -4.740064963698387146e-02 -6.351990625262260437e-03 -3.487593680620193481e-02 5.201885476708412170e-03 1.108922064304351807e-02 -1.770418882369995117e-02 -1.971833407878875732e-02 4.898501560091972351e-02 -3.840219601988792419e-02 3.647854924201965332e-02 -1.585287041962146759e-02 -2.263505570590496063e-02 3.936984390020370483e-02 -1.627219654619693756e-02 -5.841751117259263992e-03 1.444307155907154083e-02 4.643935710191726685e-03 -1.347907446324825287e-02 3.704265505075454712e-02 1.261294446885585785e-02 -4.715885967016220093e-02 1.257193647325038910e-02 -3.194711729884147644e-02 -4.076350107789039612e-02 4.453019797801971436e-02 4.533300176262855530e-02 3.556816838681697845e-03 -5.036661867052316666e-03 3.599086031317710876e-02 2.159487688913941383e-03 -3.442563116550445557e-02 7.847169414162635803e-03 -2.815387211740016937e-02 -2.038967609405517578e-02 2.012178488075733185e-02 4.993834346532821655e-02 3.456383571028709412e-02 -1.549313776195049286e-02 -2.899206057190895081e-02 4.719012975692749023e-02 -3.221971169114112854e-02 -8.892063051462173462e-03 -9.327148087322711945e-03 1.725887134671211243e-02 4.610517993569374084e-02 2.576290816068649292e-02 1.287721446715295315e-03 5.334799177944660187e-03 -9.965891018509864807e-03 2.779560536146163940e-02 3.600346669554710388e-02 1.358903292566537857e-02 -1.405909564346075058e-02 -5.759929772466421127e-03 4.668973758816719055e-02 4.569717869162559509e-02 -6.432289723306894302e-03 -4.959009587764739990e-02 -2.192722400650382042e-03 4.869788885116577148e-02 4.435931146144866943e-02 -3.673435375094413757e-02 -4.036073759198188782e-02 3.722395002841949463e-02 4.699202999472618103e-02 1.921322941780090332e-02 2.616334147751331329e-02 3.671556012704968452e-03 -4.413377121090888977e-02 -3.663246706128120422e-02 -3.683162480592727661e-02 1.324657164514064789e-02 4.544496536254882812e-02 -4.795768484473228455e-02 3.307783603668212891e-02 4.165638238191604614e-02 -1.454858761280775070e-02 2.200015634298324585e-02 -1.845131814479827881e-02 2.954527549445629120e-02 -2.384211122989654541e-02 1.626856625080108643e-02 -6.213247310370206833e-03 7.221461739391088486e-03 3.230464085936546326e-02 4.390184581279754639e-02 -4.435074329376220703e-02 -3.317997977137565613e-02 -1.606867089867591858e-02 -2.777623198926448822e-02 1.654013246297836304e-02 1.018335096887312829e-04 1.098208222538232803e-02 9.431464597582817078e-03 -2.003815025091171265e-02 -2.744360081851482391e-02 4.552726075053215027e-02 -1.519490405917167664e-02 -1.914818957448005676e-02 3.441200777888298035e-02 -1.593939587473869324e-02 3.615161404013633728e-02 1.114871818572282791e-02 -3.451532498002052307e-02 1.968825049698352814e-02 2.795406430959701538e-02 5.368125159293413162e-03 -4.743687435984611511e-02 -4.737413674592971802e-02 -9.766810573637485504e-03 -1.747816242277622223e-02 -5.040861666202545166e-03 -2.218485809862613678e-02 3.210817277431488037e-02 -1.725057372823357582e-03 2.765755727887153625e-02 4.142387211322784424e-02 3.270073235034942627e-02 4.397168383002281189e-02 5.003475025296211243e-02 -1.175997592508792877e-02 -1.537126023322343826e-02 -2.534107491374015808e-02 2.654618024826049805e-02 4.428102448582649231e-02 3.816127032041549683e-02 1.447628065943717957e-02 -3.232645988464355469e-02 3.996165096759796143e-02 -2.533958293497562408e-02 -3.558439901098608971e-03 1.442452333867549896e-02 -4.565079882740974426e-02 2.569529972970485687e-02 2.439395152032375336e-02 -3.406185656785964966e-02 2.847652137279510498e-02 3.981285169720649719e-02 1.740286126732826233e-02 3.925982117652893066e-02 -1.945431903004646301e-02 -1.393888238817453384e-02 2.739413082599639893e-02 4.824751988053321838e-02 2.684490568935871124e-02 2.542199753224849701e-02 -2.733773738145828247e-02 1.484770700335502625e-02 8.278713561594486237e-03 4.645970091223716736e-02 -2.356429398059844971e-02 -4.107780754566192627e-02 -9.965839795768260956e-03 -3.373405430465936661e-03 1.761920936405658722e-02 1.117627415806055069e-02 2.677278406918048859e-02 5.565098021179437637e-03 -1.152449287474155426e-03 9.706527926027774811e-03 -1.328681968152523041e-02 -5.702942144125699997e-03 4.903455451130867004e-02 2.184270881116390228e-02 -8.213392458856105804e-03 -2.595175057649612427e-02 6.538841989822685719e-05 2.727646939456462860e-02 -2.902358211576938629e-02 -4.918964207172393799e-02 -2.068635635077953339e-02 1.432384643703699112e-02 -3.771645575761795044e-02 -3.158184140920639038e-02 2.686641551554203033e-02 1.085542235523462296e-02 -4.864688590168952942e-02 1.206026226282119751e-02 2.896048873662948608e-02 -5.195837933570146561e-03 -5.163231864571571350e-03 1.651529408991336823e-02 4.541252180933952332e-02 -2.105897478759288788e-02 1.173747051507234573e-02 -2.721490524709224701e-02 -1.728839240968227386e-03 -4.825254157185554504e-02 2.998534776270389557e-02 -3.923092409968376160e-02 4.423549398779869080e-02 4.624708369374275208e-02 3.473345562815666199e-02 4.595296829938888550e-02 1.027784310281276703e-02 -4.696006327867507935e-02 -4.179777950048446655e-02 -4.813977703452110291e-02 4.868324100971221924e-02 5.112812668085098267e-02 -3.287390992045402527e-02 -2.550129033625125885e-02 4.822655394673347473e-02 3.132053464651107788e-02 -3.398770466446876526e-02 2.047268860042095184e-02 -3.281944990158081055e-02 -3.448168188333511353e-02 9.310234338045120239e-03 -4.092063009738922119e-02 -2.440029382705688477e-02 1.919576153159141541e-02 -8.017245563678443432e-04 3.184352070093154907e-02 -2.706469967961311340e-02 -3.913889080286026001e-02 1.560841780155897141e-02 -3.568392992019653320e-02 8.253853768110275269e-03 3.857775405049324036e-02 2.268363349139690399e-02 -7.344854995608329773e-03 3.484462574124336243e-02 1.306865364313125610e-02 -5.003507249057292938e-03 -1.657329266890883446e-03 6.601932691410183907e-04 3.288074955344200134e-02 -4.693710058927536011e-02 -9.983099997043609619e-03 2.778928494080901146e-03 -1.715282164514064789e-02 3.702036663889884949e-02 4.928469657897949219e-02 -2.320896647870540619e-02 -4.391266964375972748e-03 1.356918457895517349e-02 4.078356921672821045e-02 -4.135191813111305237e-02 1.208744850009679794e-02 -4.137199372053146362e-02 2.398136816918849945e-02 -1.920885220170021057e-02 3.266087174415588379e-02 3.313436731696128845e-02 4.386368021368980408e-02 2.687187306582927704e-02 2.489461749792098999e-02 -2.123614959418773651e-02 1.264583319425582886e-03 1.231827493757009506e-02 -3.171888366341590881e-02 4.077510908246040344e-02 -1.070222910493612289e-02 4.266004264354705811e-02 1.624409668147563934e-02 -1.372149586677551270e-02 4.358526691794395447e-02 1.902790390886366367e-03 1.295944862067699432e-02 -2.290168218314647675e-02 -3.241892904043197632e-02 3.150385245680809021e-02 -2.678811363875865936e-02 1.098628621548414230e-02 1.584132388234138489e-02 -3.344321623444557190e-03 -4.785552620887756348e-02 2.451517619192600250e-03 3.360465541481971741e-02 -3.700867667794227600e-02 1.761678792536258698e-02 -2.164798602461814880e-02 -2.533928491175174713e-02 1.136576570570468903e-02 4.413950815796852112e-02 1.754628494381904602e-02 3.344326838850975037e-02 -3.443158417940139771e-02 -3.995201736688613892e-02 3.483851999044418335e-02 -3.596184030175209045e-02 3.557083010673522949e-02 -3.515321016311645508e-02 4.356247931718826294e-02 6.939408369362354279e-03 1.889124698936939240e-02 -3.861789777874946594e-02 3.606795892119407654e-02 -4.842694848775863647e-02 -1.752259209752082825e-02 -1.492529176175594330e-02 2.735511586070060730e-02 4.870524257421493530e-02 -4.451157152652740479e-02 -4.735372960567474365e-02 4.436368122696876526e-02 3.020728006958961487e-02 4.976361989974975586e-02 -4.049535095691680908e-02 2.445869334042072296e-02 -3.964782506227493286e-02 8.813323453068733215e-03 5.000101402401924133e-03 2.815410681068897247e-02 2.272140234708786011e-03 2.841816470026969910e-02 5.848430097103118896e-03 -1.533400733023881912e-02 -4.801769182085990906e-02 -4.292802885174751282e-02 -1.046163868159055710e-02 2.207772247493267059e-02 -1.462784782052040100e-02 2.027293667197227478e-02 -3.840099275112152100e-02 -2.048231475055217743e-02 -1.139658130705356598e-02 1.712603121995925903e-02 -4.333877563476562500e-02 6.044039968401193619e-03 2.895734831690788269e-02 -1.148705184459686279e-02 2.645144425332546234e-02 4.080751910805702209e-02 5.457391496747732162e-03 -2.042718976736068726e-02 5.019323900341987610e-03 4.617447406053543091e-02 -4.680224508047103882e-02 -4.307169467210769653e-02 -2.355151437222957611e-02 -3.291977941989898682e-02 2.226364985108375549e-02 9.947934187948703766e-03 2.345198020339012146e-02 -4.081321880221366882e-02 3.273989772424101830e-03 2.748863771557807922e-02 -6.995786097832024097e-04 2.041426487267017365e-02 2.405435778200626373e-02 -3.256147354841232300e-02 4.106960445642471313e-02 -4.752839356660842896e-02 6.233052350580692291e-03 1.580625399947166443e-02 -2.147544547915458679e-02 -4.206636175513267517e-02 3.730942844413220882e-04 -4.191549122333526611e-02 -2.241876721382141113e-02 -5.219013430178165436e-03 -2.086513675749301910e-02 -3.389488160610198975e-02 -4.548559710383415222e-02 4.770269617438316345e-02 -2.245557308197021484e-02 1.173544768244028091e-02 -8.014972321689128876e-03 -6.332314806059002876e-04 3.429935500025749207e-02 -2.292722463607788086e-02 -6.796866189688444138e-03 1.530786138027906418e-02 1.735687628388404846e-02 3.231753781437873840e-02 1.216776575893163681e-02 -8.966308087110519409e-03 3.201688826084136963e-02 4.116786643862724304e-02 2.416261099278926849e-02 6.951329298317432404e-03 -4.138662479817867279e-03 -3.170945122838020325e-02 -2.426623925566673279e-02 4.954897984862327576e-02 -4.491449147462844849e-02 -1.141230948269367218e-02 -1.284332247450947762e-03 -1.058828551322221756e-02 -4.006031528115272522e-02 -3.161431103944778442e-02 -4.923782870173454285e-02 -1.042820513248443604e-02 2.553967526182532310e-03 -1.267487555742263794e-02 -2.913857810199260712e-02 4.100490361452102661e-02 -3.929639235138893127e-02 -2.995264902710914612e-02 1.332281157374382019e-02 -3.870205953717231750e-02 -3.377848863601684570e-02 3.682452812790870667e-02 3.810991346836090088e-02 4.645790532231330872e-02 2.122899331152439117e-02 -2.698271302506327629e-03 -1.109993364661931992e-02 -2.767872251570224762e-02 4.450586438179016113e-02 -3.666694462299346924e-02 -3.309914842247962952e-02 1.972158811986446381e-02 -4.527843743562698364e-02 1.055839704349637032e-03 3.904041647911071777e-02 -1.772530935704708099e-02 2.633701451122760773e-02 4.920020699501037598e-02 -1.621558517217636108e-02 2.600348368287086487e-02 1.668104343116283417e-02 -5.173744168132543564e-03 8.212313987314701080e-03 2.980682440102100372e-02 -1.642407104372978210e-02 -3.710438311100006104e-02 -1.234751660376787186e-02 4.451275989413261414e-02 2.598671801388263702e-02 -6.617561448365449905e-04 2.688323520123958588e-02 1.347341109067201614e-02 -1.929101720452308655e-02 -3.616670891642570496e-02 -2.875848859548568726e-02 -2.619517594575881958e-02 3.478913009166717529e-02 -6.463210098445415497e-03 1.467956043779850006e-02 3.331454843282699585e-02 -4.396109655499458313e-02 -2.304249629378318787e-02 1.321359537541866302e-03 3.918044641613960266e-02 -4.145746678113937378e-02 7.855917327105998993e-03 -4.939733073115348816e-02 -4.511444270610809326e-02 -3.449301421642303467e-02 1.219305442646145821e-03 1.386155560612678528e-02 -1.331430859863758087e-03 8.465144201181828976e-04 3.816131968051195145e-03 -3.648149222135543823e-02 1.700218394398689270e-02 -8.891459554433822632e-03 -2.935076132416725159e-02 -1.564523577690124512e-02 -2.619463019073009491e-02 4.470571503043174744e-02 2.034798450767993927e-02 3.321261703968048096e-02 -1.804328896105289459e-02 -7.506042253226041794e-03 4.993008822202682495e-02 4.156786203384399414e-02 -3.011547215282917023e-02 -1.694151014089584351e-02 -4.849696531891822815e-02 3.994478657841682434e-02 -2.688050828874111176e-02 1.304214075207710266e-02 2.038598526269197464e-03 4.651876538991928101e-02 4.790101200342178345e-02 1.217317953705787659e-02 3.254375234246253967e-02 2.072837948799133301e-02 3.788224980235099792e-02 -8.425449952483177185e-03 2.621398307383060455e-02 1.567233912646770477e-02 -3.523522056639194489e-03 1.369697228074073792e-02 2.161890454590320587e-02 -2.583030983805656433e-02 -2.898143138736486435e-03 -3.170013055205345154e-02 -3.833381086587905884e-02 4.405139386653900146e-02 4.851564299315214157e-03 1.468103029765188694e-03 6.748474668711423874e-03 -1.734278351068496704e-02 2.385367825627326965e-02 4.014358296990394592e-02 2.564790472388267517e-02 2.055268548429012299e-02 -2.877728268504142761e-02 2.843026630580425262e-02 3.332821652293205261e-02 -1.611436344683170319e-02 1.945916935801506042e-02 2.995033189654350281e-02 -3.466237336397171021e-02 4.642248526215553284e-02 4.501753300428390503e-02 -1.797142624855041504e-02 -2.343399263918399811e-02 -3.145284578204154968e-02 -3.880829736590385437e-02 -1.636757142841815948e-02 -1.835817121900618076e-03 -4.696399718523025513e-02 4.789772629737854004e-02 2.698869630694389343e-02 -1.448693312704563141e-02 -1.352035347372293472e-02 -3.601393476128578186e-02 -4.392142593860626221e-02 -1.181997545063495636e-02 -1.687060482800006866e-02 -4.130727052688598633e-02 -4.762303084135055542e-03 -1.206091418862342834e-02 -1.159321796149015427e-02 4.426307976245880127e-02 -2.545274980366230011e-02 -1.701242290437221527e-02 3.398078028112649918e-03 9.503037435933947563e-04 -7.450777571648359299e-03
-2.260016463696956635e-02 -1.616785675287246704e-02 7.126266602426767349e-03 -4.137790575623512268e-02 -4.945950955152511597e-02 -4.277553409337997437e-02 1.697324961423873901e-02 -2.024780213832855225e-02 -1.702673360705375671e-02 1.173108723014593124e-02 -1.334415003657341003e-02 2.368924953043460846e-02 -4.238058999180793762e-02 -3.469748422503471375e-02 -2.718946523964405060e-02 8.253479027189314365e-04 -2.331398986279964447e-02 3.757192566990852356e-02 -3.724911063909530640e-02 -6.013465113937854767e-03 -4.701640456914901733e-02 6.314519123407080770e-05 2.229604870080947876e-02 -1.707829721271991730e-02 1.838988438248634338e-02 -1.477163098752498627e-02 4.608050733804702759e-02 -8.385672699660062790e-04 -1.630407199263572693e-02 1.085014175623655319e-02 1.911278441548347473e-02 -5.374813918024301529e-03 -1.264218799769878387e-02 -3.651149943470954895e-02 -4.328946396708488464e-02 3.297656029462814331e-02 -7.642477750778198242e-03 -2.024375647306442261e-02 -3.005564585328102112e-02 1.626981422305107117e-02 -3.384125232696533203e-02 -4.191021621227264404e-02 9.380644187331199646e-03 2.185697434470057487e-03 -2.561074215918779373e-03 3.652228042483329773e-02 -3.175135236233472824e-03 3.478506952524185181e-02 4.163222387433052063e-03 -3.334130719304084778e-02 -2.737384056672453880e-03 2.107624150812625885e-02 -4.125691205263137817e-02 3.294394165277481079e-02 -3.986587747931480408e-02 1.677035354077816010e-02 4.047629609704017639e-02 -1.917763799428939819e-02 2.852631546556949615e-02 2.040587924420833588e-02 1.012300234287977219e-02 9.668212383985519409e-03 3.700456395745277405e-02 -3.092486003879457712e-04 -1.991421729326248169e-02 -3.474573045969009399e-02 4.866366833448410034e-02 -3.336177207529544830e-03 1.265622582286596298e-02 3.285484015941619873e-02 3.720408305525779724e-02 -4.162017256021499634e-02 -2.887216862291097641e-03 -2.294647693634033203e-02 -2.293767035007476807e-02 7.994780316948890686e-03 -7.934340275824069977e-03 -4.558062646538019180e-03 -1.237212214618921280e-03 -3.315701335668563843e-02 9.982739575207233429e-03 -9.593031369149684906e-03 -3.536497056484222412e-02 3.781443834304809570e-02 -2.133497409522533417e-02 -4.788200929760932922e-02 -4.318471252918243408e-02 -1.932915486395359039e-02 -1.399146206676959991e-02 -2.459554933011531830e-02 2.417950332164764404e-02 -3.892156854271888733e-02 2.904032170772552490e-02 3.344560787081718445e-02 -4.731457307934761047e-02 -4.535592347383499146e-02 1.309986226260662079e-02 -4.359605908393859863e-02 2.600620128214359283e-02 -4.015237092971801758e-02 3.191961208358407021e-03 -8.140808902680873871e-03 -2.648652158677577972e-02 -2.509492076933383942e-02 -2.397775836288928986e-02 3.558327630162239075e-02 -1.281742006540298462e-03 -1.510728709399700165e-02 -2.026823721826076508e-02 -3.175711957737803459e-03 -3.335939347743988037e-02 -2.806022763252258301e-02 1.002683397382497787e-02 -3.279678151011466980e-02 3.569130226969718933e-02 2.471294812858104706e-02 2.859861403703689575e-02 3.626117482781410217e-02 -2.918255887925624847e-02 2.538854442536830902e-02 1.807438395917415619e-02 -2.415235340595245361e-02 2.552359178662300110e-02 -4.033710062503814697e-02 -3.062232397496700287e-02 -3.856918215751647949e-02 4.498194158077239990e-02 -2.797231636941432953e-02 -6.145149935036897659e-03 -9.300857782363891602e-03 -4.838087409734725952e-02 -4.242337122559547424e-02 -1.610078476369380951e-02 -9.806937538087368011e-03 2.407370693981647491e-02 -1.535590644925832748e-02 4.146522656083106995e-02 -7.291901856660842896e-03 -4.170010797679424286e-03 4.623604938387870789e-02 4.190127179026603699e-02 -3.058176487684249878e-02 1.365010533481836319e-02 4.761618562042713165e-03 -2.237105555832386017e-02 -2.186979539692401886e-02 -1.732317544519901276e-02 -3.884938731789588928e-02 -8.943708380684256554e-04 2.027990482747554779e-02 4.690651223063468933e-02 1.341929193586111069e-02 4.927647113800048828e-02 1.646278426051139832e-02 7.031847722828388214e-03 -4.166079312562942505e-02 4.858144000172615051e-02 -4.998267162591218948e-03 -3.001084178686141968e-02 4.936636239290237427e-02 2.130437083542346954e-02 -2.402937412261962891e-02 4.392451047897338867e-02 4.643974080681800842e-02 4.317998513579368591e-02 4.040022566914558411e-02 1.055375393480062485e-02 -3.625969961285591125e-02 1.332885440206155181e-04 -6.482079625129699707e-03 2.236425690352916718e-02 4.143974930047988892e-02 -2.410994283854961395e-02 4.177550226449966431e-02 -2.104700542986392975e-02 6.792311090975999832e-03 -2.055738866329193115e-02 4.034454002976417542e-02 -3.633082658052444458e-02 2.452624030411243439e-02 1.052665989845991135e-02 -9.489951655268669128e-03 -2.787644229829311371e-02 8.842722512781620026e-03 -1.751028560101985931e-02 3.989971429109573364e-02 4.689925815910100937e-03 -2.670437470078468323e-02 -1.925826817750930786e-02 -5.346960853785276413e-03 2.251352183520793915e-02 -4.236601665616035461e-02 -4.226790741086006165e-02 -4.041004925966262817e-02 -4.649985209107398987e-02 3.123143455013632774e-03 -2.406750619411468506e-02 2.430487237870693207e-02 -2.571213617920875549e-02 -3.260990371927618980e-03 2.081171423196792603e-02 2.715485915541648865e-02 3.927975147962570190e-02 -2.651134878396987915e-02 4.499848932027816772e-02 -1.798423007130622864e-02 -4.482622444629669189e-02 -4.650118201971054077e-02 -1.199382077902555466e-02 1.413178816437721252e-02 1.638889126479625702e-02 -1.093614660203456879e-02 3.200918203219771385e-03 1.819926872849464417e-02 -3.089222125709056854e-02 -1.911165378987789154e-02 3.010495379567146301e-02 -2.047874964773654938e-02 -8.557278662919998169e-03 -9.337622672319412231e-03 -3.582544997334480286e-02 1.833105832338333130e-02 1.758117787539958954e-02 -4.913834854960441589e-02 -7.186573464423418045e-03 3.874652087688446045e-02 1.812004670500755310e-02 -2.817147783935070038e-02 -4.807868599891662598e-02 4.454104602336883545e-02 2.995123341679573059e-02 -1.779003627598285675e-02 2.165337093174457550e-02 -3.728896263055503368e-04 -2.420400828123092651e-02 -4.071461781859397888e-02 4.265737161040306091e-02 -1.083339937031269073e-02 2.811348065733909607e-02 -2.424920350313186646e-02 -2.040119282901287079e-02 -1.610789075493812561e-02 2.406216599047183990e-02 -3.909660503268241882e-02 3.655868396162986755e-02 -8.698326535522937775e-03 -3.248558565974235535e-02 3.542319312691688538e-02 8.563318289816379547e-03 1.460414100438356400e-02 -5.005405098199844360e-02 -1.888988167047500610e-02 4.471713304519653320e-02 5.258300807327032089e-03 -4.741142317652702332e-02 3.353687375783920288e-02 3.158943355083465576e-02 -1.525801047682762146e-02 1.101329457014799118e-03 4.283699765801429749e-02 3.796432912349700928e-02 4.567443206906318665e-02 -4.670797288417816162e-02 1.265461184084415436e-02 -1.602258905768394470e-02 -3.764259442687034607e-02 2.960038557648658752e-02 4.885706305503845215e-02 -4.898770526051521301e-02 3.918324038386344910e-02 1.778917503543198109e-04 3.655471652746200562e-02 -3.899168968200683594e-02 -3.805182129144668579e-02 2.279424667358398438e-02 -6.639719940721988678e-03 -2.906543575227260590e-02 -3.219813806936144829e-03 2.841856516897678375e-02 4.213986545801162720e-02 3.144660592079162598e-02 -4.364094138145446777e-02 -2.801200374960899353e-02 4.167953506112098694e-02 2.602933347225189209e-02 -3.306168690323829651e-02 -2.494262345135211945e-02 -1.243845559656620026e-02 -1.610136032104492188e-02 -2.518658153712749481e-02 4.513581749051809311e-03 5.062514543533325195e-02 -4.128961265087127686e-02 2.296250872313976288e-02 -4.210260882973670959e-02 1.671402528882026672e-02 -3.508483245968818665e-02 -1.699008047580718994e-02 4.710594564676284790e-02 2.300341613590717316e-02 2.336744964122772217e-02 -2.124446630477905273e-02 -2.883091941475868225e-02 -4.393443465232849121e-02 -3.209025040268898010e-02 2.215375564992427826e-02 1.107278629206120968e-03 1.605103909969329834e-02 9.077496826648712158e-03 -1.653217710554599762e-02 5.670349579304456711e-03 -6.493266671895980835e-03 -8.513862267136573792e-03 1.806196570396423340e-02 -3.120697289705276489e-02 4.183309152722358704e-02 -1.260398887097835541e-02 -4.702714085578918457e-02 -4.803510010242462158e-02 -1.269584055989980698e-02 -3.928564116358757019e-02 -1.939915865659713745e-02 -3.002384677529335022e-02 4.074518010020256042e-02 2.657295204699039459e-02 3.311755508184432983e-02 1.202894095331430435e-02 -1.531849987804889679e-02 -3.894662857055664062e-02 -9.678781963884830475e-03 -2.338146045804023743e-02 2.567723952233791351e-02 -2.264854870736598969e-02 -3.033202700316905975e-02 -4.006823524832725525e-02 5.002221092581748962e-03 -9.465645067393779755e-03 -4.456096142530441284e-02 2.989734336733818054e-02 2.127235755324363708e-02 3.777586296200752258e-02 3.787768259644508362e-02 -3.170414641499519348e-02 -4.003574699163436890e-02 3.765280172228813171e-02 4.765907675027847290e-02 -3.295059129595756531e-02 4.936468228697776794e-02 1.607139967381954193e-02 -3.194888308644294739e-02 -5.411342717707157135e-03 -1.712702959775924683e-02 2.285743132233619690e-02 -1.842704077716916800e-04 4.562680795788764954e-02 -5.370520986616611481e-03 -2.574598044157028198e-02 4.804503172636032104e-02 4.501111805438995361e-02 2.118766075000166893e-03 4.286196082830429077e-02 1.393160969018936157e-02 3.402138128876686096e-02 -4.043907672166824341e-02 1.711734943091869354e-02 3.769786283373832703e-02 -4.546917974948883057e-02 -4.730721935629844666e-02 -4.221276938915252686e-02 1.847505383193492889e-02 -4.193633422255516052e-02 -4.896475747227668762e-02 1.741563156247138977e-02 1.097078435122966766e-02 -2.798938937485218048e-02 1.739125698804855347e-02 -6.484471959993243217e-04 -2.379571460187435150e-02 9.497177787125110626e-03 -1.221168134361505508e-02 1.266284938901662827e-02 -4.001033306121826172e-02 3.749328479170799255e-02 -4.755359143018722534e-03 1.483798492699861526e-02 5.214154254645109177e-03 4.973427951335906982e-02 -3.152557089924812317e-02 -7.975339889526367188e-03 4.458669200539588928e-02 1.222695410251617432e-02 -4.336031526327133179e-02 -4.618548601865768433e-02 9.613376110792160034e-03 1.496694609522819519e-02 1.053598057478666306e-02 -6.458002608269453049e-03 3.527571633458137512e-02 -1.974882185459136963e-02 -2.790549024939537048e-02 1.407792512327432632e-02 -2.265459299087524414e-02 -2.966353856027126312e-02 5.477441940456628799e-03 1.485473942011594772e-02 2.869294583797454834e-02 4.317872226238250732e-03 1.200686115771532059e-02 4.887845367193222046e-02 4.870531708002090454e-02 -1.871840842068195343e-02 -9.896417148411273956e-03 2.717841044068336487e-02 2.206602878868579865e-02 1.877384632825851440e-02 2.146982029080390930e-02 -5.217553582042455673e-03 3.097896929830312729e-03 -2.364949905313551426e-04 1.785894483327865601e-02 -3.664866462349891663e-02 7.524846587330102921e-03 1.495674811303615570e-02 4.716623574495315552e-02 -7.261108607053756714e-03 6.348824594169855118e-03 -2.783175930380821228e-02 1.037339214235544205e-03 -2.400149777531623840e-02 -2.045327611267566681e-02 2.837346633896231651e-03 -4.377717152237892151e-02 4.839178547263145447e-02 1.949197612702846527e-02 4.995293915271759033e-02 -2.214534394443035126e-02 -7.500382140278816223e-03 3.057074360549449921e-02 3.541968017816543579e-02 -3.325736150145530701e-02 -1.934465207159519196e-02 -2.565018646419048309e-02 3.282105550169944763e-02 2.095136232674121857e-02 3.031551092863082886e-02 7.256977725774049759e-03 -3.537039831280708313e-02 1.458719093352556229e-02 -4.837338346987962723e-03 -1.259065791964530945e-02 -1.824137754738330841e-02 4.635116830468177795e-02 -3.080875054001808167e-02 2.659710124135017395e-02 1.935670152306556702e-02 -3.756405040621757507e-02 -3.492518514394760132e-02 -2.316237427294254303e-02 1.659773290157318115e-02 -4.006684198975563049e-02 -9.663831442594528198e-03 -2.081878297030925751e-02 -4.801990091800689697e-02 4.812838975340127945e-03 -2.658646926283836365e-02 3.275698516517877579e-03 2.601439598947763443e-03 -1.188249047845602036e-02 -2.954056486487388611e-02 -4.876848682761192322e-02 3.179053589701652527e-02 2.665048651397228241e-02 -1.697128266096115112e-02 2.326063998043537140e-02 -1.691488921642303467e-02 1.118969358503818512e-02 -2.263776957988739014e-02 -4.473556578159332275e-02 -1.883962005376815796e-02 5.496820434927940369e-03 -1.549095101654529572e-02 -1.188983209431171417e-02 -3.601475432515144348e-02 -2.583718486130237579e-02 -1.437223632819950581e-03 -4.234939068555831909e-02 -2.582108788192272186e-02 1.482105813920497894e-02 -3.911118209362030029e-02 -2.551549673080444336e-02 9.240850806236267090e-03 -1.378103997558355331e-02 -4.462225362658500671e-02 -2.467916905879974365e-02 -2.990422025322914124e-02 -4.485992342233657837e-02 -3.732494637370109558e-02 1.609343290328979492e-02 1.087982766330242157e-02 -1.554749719798564911e-02 -2.007611468434333801e-02 3.538009896874427795e-02 -4.142498224973678589e-02 -2.112542279064655304e-03 3.767589805647730827e-05 -2.405044808983802795e-02 2.282186783850193024e-02 -4.972654208540916443e-02 1.703002257272601128e-03 2.829271741211414337e-02 4.054981470108032227e-02 -3.720352426171302795e-02 -4.030776023864746094e-02 -3.559531271457672119e-02 4.547026008367538452e-02 4.556104168295860291e-02 -3.957004472613334656e-02 -2.530738897621631622e-02 2.540780790150165558e-02 -2.413323707878589630e-02 9.564464911818504333e-03 2.240865491330623627e-02 3.443563822656869888e-03 2.624841965734958649e-02 4.010784998536109924e-02 -2.667529881000518799e-02 -5.781768821179866791e-03 3.742266446352005005e-02 -4.785196855664253235e-02 -4.139807447791099548e-02 -1.241578813642263412e-02 -3.405649214982986450e-03 -4.014435037970542908e-02 3.668982069939374924e-03 -3.731781244277954102e-02 -1.297438424080610275e-02 -5.951819475740194321e-03 4.415380209684371948e-02 -1.195435598492622375e-02 -2.406100556254386902e-02 1.893839240074157715e-02 -3.117823414504528046e-02 -4.446539655327796936e-02 -2.452801913022994995e-02 -1.920011080801486969e-02 5.037255957722663879e-02 8.844744414091110229e-03 -2.828898467123508453e-02 9.754276834428310394e-03 2.574730850756168365e-02 1.877692900598049164e-02 2.736326307058334351e-03 3.389262035489082336e-02 2.601816318929195404e-03 -2.923341840505599976e-02 1.489310991019010544e-02 8.760155178606510162e-03 -1.212200056761503220e-02 -3.204564377665519714e-02 -1.987970992922782898e-02 4.241799190640449524e-02 4.844176396727561951e-02 -1.351742167025804520e-02 -2.943426370620727539e-02 2.360179089009761810e-02 3.539393097162246704e-02 -1.030248962342739105e-02 -4.479578882455825806e-02 1.542371604591608047e-02 2.876485930755734444e-03 -2.950525470077991486e-02 -2.679764665663242340e-02 1.556559745222330093e-02 4.205818846821784973e-02 -1.894045388326048851e-03 -1.984946615993976593e-02 -3.393135964870452881e-02 -9.484726935625076294e-03 1.933360099792480469e-02 -5.070184543728828430e-02 -2.984088845551013947e-02 3.439255058765411377e-02 1.316686626523733139e-03 -1.330838818103075027e-02 -1.734211295843124390e-02 6.623981054872274399e-03 3.498832508921623230e-02 -4.620027914643287659e-02 -2.146819606423377991e-02 1.721973158419132233e-02 2.520409412682056427e-02 -4.569387063384056091e-02 2.905305474996566772e-02 -4.999530315399169922e-02 -1.768521964550018311e-02 -1.281904801726341248e-02 2.143424935638904572e-02 3.212405368685722351e-02 -3.992125391960144043e-02 -4.405334591865539551e-02 1.110199256800115108e-03 1.383871585130691528e-02 3.945387527346611023e-02 -4.168309271335601807e-02 2.398227527737617493e-02 3.596300631761550903e-02 1.936459541320800781e-02 -4.357242211699485779e-02 4.797476157546043396e-02 3.698238730430603027e-02 4.466348886489868164e-02 7.755603292025625706e-04 -1.655866741202771664e-03 2.319363318383693695e-02 -4.484730772674083710e-03 -1.590042375028133392e-02 3.638642653822898865e-02 3.686164692044258118e-02 3.294538334012031555e-02 -4.561174288392066956e-02 4.075784608721733093e-02 1.484319195151329041e-02 9.058198891580104828e-03 -4.702140018343925476e-02 -4.235019534826278687e-02 6.507547106593847275e-03 4.496819525957107544e-02 -4.295680671930313110e-02 4.159942269325256348e-02 4.055634140968322754e-02 4.136347770690917969e-02 -4.429508373141288757e-02 4.895998910069465637e-02 2.926678210496902466e-02 1.230792142450809479e-02 -1.655755564570426941e-02 5.083144176751375198e-03 1.478062104433774948e-02 2.633561380207538605e-03 1.034284196794033051e-02 -4.702524468302726746e-02 -2.900667302310466766e-02 -3.969326615333557129e-02 2.140568941831588745e-02 -1.834451779723167419e-02 -3.757033497095108032e-02 -3.166408464312553406e-02 3.195104748010635376e-02 -4.882948473095893860e-03 4.979738220572471619e-02 -2.186460793018341064e-02 3.436229377985000610e-02 -4.862910881638526917e-02 1.702029071748256683e-02 -1.452044676989316940e-02 2.970822155475616455e-02 -2.168431319296360016e-02 -3.814843297004699707e-02 2.472964860498905182e-02 2.743362076580524445e-02 -1.847606152296066284e-02 3.141031414270401001e-02 2.163597755134105682e-02 5.104457959532737732e-02 -5.786869674921035767e-03 -3.304527699947357178e-02 -2.699922397732734680e-02 4.853996261954307556e-02 4.107187315821647644e-02 -8.537082932889461517e-03 -2.618175186216831207e-02 4.332096874713897705e-02 4.708614666014909744e-03 -4.616163298487663269e-02 -8.304877206683158875e-03 4.691129550337791443e-02 8.930413052439689636e-03 -5.978437839075922966e-04 -4.060332849621772766e-02 5.858656950294971466e-03 2.401113323867321014e-02 2.559634111821651459e-02 4.844852164387702942e-02 4.290412366390228271e-02 6.809769198298454285e-03 -1.205633976496756077e-03 -4.745143279433250427e-02 -2.559269405901432037e-02 -4.267624393105506897e-02 -2.447076514363288879e-02 4.488961026072502136e-02 4.350722208619117737e-02 -4.122842475771903992e-02 -2.008860185742378235e-02 -9.749632328748703003e-03 -1.546661835163831711e-02 3.873419761657714844e-02 2.394594624638557434e-02 3.584219515323638916e-02 9.419162757694721222e-03 -2.639863267540931702e-02 4.196523502469062805e-02 -4.413442313671112061e-02 2.374063991010189056e-02 1.331122219562530518e-02 -3.628128767013549805e-02 3.043030016124248505e-02 4.495147988200187683e-02 1.201161090284585953e-02 -2.382051199674606323e-02 -3.717016056180000305e-02 -3.738115727901458740e-02 -2.764462679624557495e-02 -3.660058602690696716e-02 -4.593035206198692322e-02 -3.247067797929048538e-04 1.910655573010444641e-02 -4.145846236497163773e-03 2.484957687556743622e-02 -9.368881728732958436e-05 3.780387341976165771e-02 4.321205243468284607e-02 -4.234040528535842896e-02 3.347955644130706787e-02 1.622843183577060699e-02 4.234849661588668823e-02 -1.422543078660964966e-02 -1.781184971332550049e-02 -4.283699765801429749e-02 -1.505020540207624435e-02 1.714767329394817352e-02 3.652393072843551636e-02 -4.439367726445198059e-02 4.529481753706932068e-02 4.495964199304580688e-02 4.803311452269554138e-02 2.504711970686912537e-02 4.367648437619209290e-02 4.902082681655883789e-02 1.076583191752433777e-02 3.486508270725607872e-03 -3.309417515993118286e-02 -2.454937249422073364e-02 4.147796332836151123e-02 3.599225729703903198e-02 -4.616012051701545715e-02 4.272431880235671997e-02 1.149635645560920238e-04 -1.567916013300418854e-02 3.140779584646224976e-02 1.938276924192905426e-02 1.466101035475730896e-02 -4.149449989199638367e-02 2.523593604564666748e-02 3.695811331272125244e-02 3.776095435023307800e-02 2.365639060735702515e-02 -4.516556113958358765e-02 -1.150650437921285629e-02 4.907669126987457275e-02 -4.192529246211051941e-02 3.208065778017044067e-02 1.799556240439414978e-02 1.637271780055016279e-04 -1.822373247705399990e-03 3.353900462388992310e-02 -2.624599821865558624e-02 3.094200231134891510e-02 -2.026448585093021393e-02 2.478872798383235931e-02 2.062363177537918091e-02 3.883083164691925049e-02 -2.957642637193202972e-02 -3.297870233654975891e-02 -4.228436201810836792e-02 4.038092866539955139e-02 4.890197142958641052e-02 2.454983070492744446e-03 -4.273396730422973633e-02 -4.688360169529914856e-02 -3.026890009641647339e-02 -2.030572853982448578e-02 -2.490746974945068359e-02 -2.620470710098743439e-02 1.210253313183784485e-02 -4.375944659113883972e-02 -1.575217396020889282e-02 4.026306793093681335e-02 4.257504642009735107e-02 -5.738093983381986618e-03 2.708362415432929993e-03 -3.780499473214149475e-02 1.182279782369732857e-03 9.251918643712997437e-03 2.142464183270931244e-02 -2.579917758703231812e-02 -4.811333119869232178e-02 4.142866469919681549e-03 8.179150521755218506e-03 4.877185821533203125e-02 -8.638068684376776218e-04 3.357224538922309875e-02 -2.889785543084144592e-02 -2.737247198820114136e-02 4.564727842807769775e-02 2.495556138455867767e-02 2.599440701305866241e-02 -1.053961832076311111e-02 -1.934350148076191545e-04 8.291600272059440613e-03 -2.735048346221446991e-02 -3.568472457118332386e-04 -1.447775866836309433e-02 1.679223775863647461e-02 -2.932827919721603394e-03 -1.186535228043794632e-03 1.395136676728725433e-02 3.331773728132247925e-02 -7.860839366912841797e-03 -3.332884609699249268e-02 2.939275279641151428e-02 -3.822897002100944519e-02 3.560312464833259583e-02 3.621203452348709106e-02 4.203383252024650574e-02 2.259896136820316315e-02 3.697630390524864197e-02 -9.356883354485034943e-03 1.893078163266181946e-02 -4.149957001209259033e-02 1.842484250664710999e-02 2.589449286460876465e-02 8.459477685391902924e-03 3.352954238653182983e-02 3.983113169670104980e-02 1.583933271467685699e-02 -1.976201124489307404e-02 -2.896891906857490540e-02 1.685521216131746769e-03 2.661141939461231232e-02 2.667946182191371918e-02 -1.705797575414180756e-02 -2.642513439059257507e-02 -2.479254454374313354e-02 4.632111638784408569e-02 1.702605560421943665e-02 -2.714098803699016571e-02 -4.748680442571640015e-02 -4.496842995285987854e-02 4.295662790536880493e-02 1.255626790225505829e-02 -4.832922481000423431e-03 2.711083367466926575e-02 1.690643839538097382e-02 -2.221323549747467041e-02 2.945530973374843597e-02 -1.671246811747550964e-02 -1.557024847716093063e-02 1.003180514089763165e-03 -3.740946203470230103e-02 -4.119888879358768463e-03 -3.044673427939414978e-02 9.494677186012268066e-03 -1.790665788576006889e-03 3.914947062730789185e-02 -2.742988802492618561e-02 2.721863985061645508e-02 1.975112035870552063e-02 1.252596452832221985e-02 -3.905268386006355286e-03 -4.074808210134506226e-02 -1.633330620825290680e-02 -3.424941375851631165e-02 4.983500391244888306e-02 -4.273299500346183777e-02 6.785892415791749954e-03 1.667475327849388123e-02 4.669286310672760010e-03 -2.779814973473548889e-02 -4.175145179033279419e-02 -4.978581797331571579e-03 3.965145722031593323e-02 3.681303188204765320e-02 3.715593367815017700e-02 -8.509776555001735687e-03 4.057097434997558594e-02 1.471906062215566635e-02 1.620975323021411896e-02 2.103281766176223755e-02 -2.222246862947940826e-02 2.302791178226470947e-02 -2.085255086421966553e-02 9.789647534489631653e-03 4.816988110542297363e-02 -3.997165337204933167e-02 1.018343959003686905e-02 -3.151793405413627625e-02 1.114671584218740463e-02 2.088666334748268127e-02 -9.946336038410663605e-03 -2.434699796140193939e-02 9.851788170635700226e-03 -2.855974435806274414e-02 -1.211697980761528015e-02 -1.849137991666793823e-02 3.721917048096656799e-02 -3.930864389985799789e-03 8.237039437517523766e-04 -2.945880219340324402e-02 7.009730208665132523e-03 2.807185240089893341e-02 -3.988483920693397522e-02 -1.636080257594585419e-02 1.041704975068569183e-02 -4.304565861821174622e-02 -3.765067784115672112e-03 3.989533707499504089e-02 -1.740824989974498749e-02 -4.873521253466606140e-02 -1.628153026103973389e-02 4.204644262790679932e-02 2.991960570216178894e-02 3.383400849997997284e-03 3.602693602442741394e-02 -4.696188494563102722e-02 -1.887652091681957245e-02 -2.035541459918022156e-02 -3.753614053130149841e-02 -3.119876235723495483e-02 3.299408033490180969e-02 -1.833176985383033752e-02 2.953317388892173767e-02 -3.920525684952735901e-02 3.869642317295074463e-02 -3.735123202204704285e-02 2.827767748385667801e-04 -5.756434984505176544e-03 -1.284149475395679474e-02 4.813663661479949951e-02 -2.895342558622360229e-02 -2.439952641725540161e-02 2.754633128643035889e-02 -1.157728582620620728e-02 4.694602265954017639e-02 3.489116439595818520e-03 -6.295062135905027390e-03 9.776622056961059570e-03 -4.096134752035140991e-02 2.046119235455989838e-02 -2.178727276623249054e-02 -2.740604802966117859e-02 -3.302676603198051453e-02 -1.129753794521093369e-02 4.951052367687225342e-02 2.624635957181453705e-02 -2.448235824704170227e-02 2.482763491570949554e-02 2.139843814074993134e-02 8.697061799466609955e-03 -8.838206529617309570e-03 3.439952060580253601e-02 2.870384790003299713e-02 -3.046272881329059601e-02 4.693418368697166443e-02 -4.465093836188316345e-02 3.586933389306068420e-02 -2.009236253798007965e-02 3.404987230896949768e-02 9.938200935721397400e-03 4.915369302034378052e-02 2.434454858303070068e-02 -4.740550648421049118e-03 -2.730356529355049133e-02 -3.251451253890991211e-02 2.669447846710681915e-02 1.651314832270145416e-02 4.378578159958124161e-03 7.734965533018112183e-03 6.654089083895087242e-04 -1.194114796817302704e-02 1.835390459746122360e-03 -4.621895030140876770e-02 -9.977340698242187500e-03 -3.125971928238868713e-02 -5.047737807035446167e-02 -4.061462730169296265e-02 -1.140908710658550262e-02 -1.038243412040174007e-03 -2.603110671043395996e-02 4.389552772045135498e-02 -3.562518581748008728e-02 -1.265015546232461929e-02 -2.182204090058803558e-02 5.388326011598110199e-03 4.496083781123161316e-02 -3.077348135411739349e-02 4.222285933792591095e-03 -4.868730157613754272e-02 -3.095536679029464722e-02 -4.752777144312858582e-02 -2.015217766165733337e-02 6.360705010592937469e-04 9.994176216423511505e-03 5.142255127429962158e-02 -2.405659994110465050e-03 3.432990517467260361e-03 -2.418497577309608459e-02 1.571325212717056274e-02 -4.240052402019500732e-02 -3.912810981273651123e-02 -4.208286851644515991e-02 4.814063012599945068e-02 2.412637881934642792e-02 2.448352426290512085e-02 -1.212720107287168503e-02 -2.224168181419372559e-02 -2.665920555591583252e-02 5.108077824115753174e-02 1.190927065908908844e-02 -2.839859202504158020e-02 -3.122273646295070648e-02 -9.316256269812583923e-03 5.908827297389507294e-03 -1.219159550964832306e-02 4.199663922190666199e-02 -3.418967127799987793e-02 2.100933901965618134e-02 1.386618893593549728e-02 -3.658702224493026733e-02 -2.233061753213405609e-02 3.496117517352104187e-02 -4.018054902553558350e-02 -1.694478280842304230e-02 3.541176766157150269e-02 2.741879224777221680e-02 1.946568302810192108e-02 3.562577813863754272e-02 3.390553593635559082e-02 -4.615220800042152405e-02 2.654604613780975342e-02 4.572293162345886230e-02 -3.657557815313339233e-02 2.935525588691234589e-02 -2.569437492638826370e-05 3.023713827133178711e-02 1.320761907845735550e-02 3.488705679774284363e-02 -4.062462132424116135e-03 -1.869399659335613251e-02 -1.060691941529512405e-02 3.315275534987449646e-02 1.528717018663883209e-02 6.238894071429967880e-03 3.332930803298950195e-02 3.479401115328073502e-03 -2.085936442017555237e-02 -2.558962628245353699e-02 -2.835996076464653015e-02 2.141899988055229187e-02 -1.073562912642955780e-02 4.478315263986587524e-02 1.642518118023872375e-02 3.345736116170883179e-02 -5.690076854079961777e-03 -3.996389359235763550e-02 3.410170599818229675e-02 4.868885036557912827e-03 -2.722214721143245697e-02 7.571756839752197266e-03 5.025124922394752502e-02 4.327681660652160645e-02 4.395408555865287781e-02 -3.581836074590682983e-02 -1.650567725300788879e-02 7.397319190204143524e-03 3.751105442643165588e-02 1.854444853961467743e-02 -2.842251211404800415e-02 2.240399830043315887e-02 -1.480152923613786697e-02 1.331621035933494568e-02 4.111633822321891785e-02 -3.348618047311902046e-03 4.287568107247352600e-02 -1.142440270632505417e-02 5.040245130658149719e-03 2.976756915450096130e-02 7.894385606050491333e-03 -3.309048712253570557e-02 2.424317225813865662e-02 -2.581719681620597839e-02 -6.208525504916906357e-03 4.564329981803894043e-02 -3.339859470725059509e-02 -4.125974699854850769e-02 -3.598523885011672974e-02 -4.622898623347282410e-02 2.833090536296367645e-02 -3.158055618405342102e-02 -1.601183414459228516e-02 4.220260307192802429e-02 1.525991503149271011e-02 -4.577669873833656311e-02 4.146982356905937195e-02 -4.134676977992057800e-02 2.031473629176616669e-02 1.170114148408174515e-02 -1.247114874422550201e-02 -4.069541767239570618e-02 -1.592012308537960052e-02 4.977121017873287201e-03 -4.078330844640731812e-02 4.409420862793922424e-02 -2.935917861759662628e-02 4.776956140995025635e-02 2.964873425662517548e-02 3.117934055626392365e-02 -5.042994860559701920e-03 4.150421172380447388e-02 7.957298657856881618e-04 -1.715415716171264648e-02 -4.372627288103103638e-02 3.760982304811477661e-02 -1.928735524415969849e-02 4.537857696413993835e-02 -1.723213493824005127e-02 -1.066568400710821152e-02 4.193724319338798523e-02 -4.631269723176956177e-02 -4.631436243653297424e-02 2.912538871169090271e-02 4.573729634284973145e-02 4.312601685523986816e-02 3.926383703947067261e-02 1.308542769402265549e-02 4.311804473400115967e-02 2.339612692594528198e-02 2.311512455344200134e-02 -3.279697149991989136e-02 4.068484064191579819e-03 -4.202916845679283142e-02 -4.931742441840469837e-04 -3.666783869266510010e-02 -6.809977814555168152e-03 9.126248769462108612e-03 4.884311929345130920e-02 -1.595933176577091217e-02 4.365330096334218979e-03 1.461554202251136303e-03 1.387040689587593079e-02 2.944548428058624268e-02 -4.750821739435195923e-02 -3.756317496299743652e-02 3.426220268011093140e-02 -3.702443465590476990e-02 -2.180293947458267212e-02 2.265964448451995850e-02 3.433047235012054443e-02 -3.887893259525299072e-02 9.867168031632900238e-03 -2.862346358597278595e-02 3.656272217631340027e-02 3.139150142669677734e-02 4.522430244833230972e-03 -4.805894196033477783e-02 4.917928948998451233e-02 -5.671641789376735687e-03 -3.755807504057884216e-02 1.135726179927587509e-02 -6.672456860542297363e-03 -3.785964846611022949e-02 1.094334665685892105e-02 1.332723535597324371e-02 5.125166382640600204e-03 -3.380429372191429138e-02 4.992568120360374451e-02 -1.925249025225639343e-02 3.426140174269676208e-02 -4.004275053739547729e-02 4.270580783486366272e-02 1.076553389430046082e-02 -3.167605400085449219e-02 -3.872269764542579651e-02 1.028120238333940506e-02 -1.521670538932085037e-02 4.653711244463920593e-02 -3.929485380649566650e-02 8.928473107516765594e-03 -2.288490161299705505e-02 4.000552743673324585e-02 5.760236177593469620e-03 -1.919628120958805084e-02 -3.527921391651034355e-03 4.214689880609512329e-02 9.670010767877101898e-03 -9.194095619022846222e-03 3.486823290586471558e-02 3.631799295544624329e-02 -2.736979722976684570e-02 3.911357745528221130e-02 -4.459718987345695496e-02 3.783129155635833740e-02 -3.442317619919776917e-02 1.857310347259044647e-02 -1.012754999101161957e-02 4.322282224893569946e-02 -1.875045150518417358e-02 -4.261231049895286560e-03 4.660593718290328979e-02 -4.884751886129379272e-02 1.398655679076910019e-02 -3.127120668068528175e-03 4.709469212684780359e-04 -4.439648240804672241e-02 -6.693688221275806427e-03 -1.198216248303651810e-02 -2.400352060794830322e-02 -3.540700674057006836e-02 9.825772605836391449e-03 1.206364110112190247e-02 -1.854209043085575104e-02 -4.854210838675498962e-02 -8.222434553317725658e-04 1.673177257180213928e-02 2.032358944416046143e-02 -4.574343934655189514e-02 4.844534676522016525e-03 4.350616037845611572e-02 -4.263025894761085510e-02 4.663459211587905884e-02 2.535440027713775635e-02 -1.208180841058492661e-02 2.246940508484840393e-02 2.978717535734176636e-02 1.518825069069862366e-02 8.439444936811923981e-04 1.255370676517486572e-03 -3.460785746574401855e-02 -4.581065103411674500e-02 4.064025729894638062e-02 1.084752473980188370e-02 4.298357665538787842e-02 -1.634481921792030334e-02 4.722807556390762329e-02 1.641062833368778229e-02 -4.474137723445892334e-02 -2.888252958655357361e-02 -1.662962324917316437e-02 4.318048804998397827e-02 -4.011208936572074890e-02 1.001685857772827148e-02 -1.196975819766521454e-02 -1.186762563884258270e-02 5.307395011186599731e-03 1.318786013871431351e-02 4.375207796692848206e-02 3.132010251283645630e-02 3.496866906061768532e-03 3.355947136878967285e-02 -4.541761428117752075e-02 7.752698380500078201e-03 -3.551934659481048584e-02 -4.043131694197654724e-02 -1.471781823784112930e-02 -1.038389932364225388e-02 -1.110013853758573532e-02 -4.892604425549507141e-02 3.960248455405235291e-02 -2.468239516019821167e-02 3.438821062445640564e-02 -4.039795696735382080e-02 2.718022279441356659e-02 9.891539812088012695e-03 -1.392917335033416748e-02 -2.329509705305099487e-02 2.205422706902027130e-02 -1.034734770655632019e-02 -2.324155718088150024e-02 -1.110877096652984619e-02 3.319715708494186401e-02 -1.604181900620460510e-02 4.914018884301185608e-02 4.163731262087821960e-02 1.508310623466968536e-02 2.474306151270866394e-02 3.913439810276031494e-02 4.539943113923072815e-02 -4.402417689561843872e-02 2.776965498924255371e-02 -2.363242395222187042e-02 -4.615245759487152100e-02 5.073196813464164734e-02 -3.951639309525489807e-02 3.259587287902832031e-02 -3.070267848670482635e-03 9.990106336772441864e-03 -2.310688421130180359e-02 -1.688119955360889435e-02 3.955993428826332092e-02 -3.355779126286506653e-02 -1.905865594744682312e-02 1.891326345503330231e-02 8.810049854218959808e-03 4.135705903172492981e-02 -1.438517309725284576e-02 4.001106321811676025e-02 -1.524969842284917831e-02 -7.352130487561225891e-03 3.793591633439064026e-02 -1.090288907289505005e-02 -4.626471549272537231e-02 2.027202956378459930e-02 2.971656806766986847e-02 6.002841051667928696e-03 3.319888561964035034e-02 -1.072790659964084625e-02 -1.637573540210723877e-02 -4.336925223469734192e-02 -3.932654857635498047e-02 3.765443712472915649e-02 -4.718526732176542282e-03 6.257241126149892807e-03 1.628127880394458771e-02 3.152868896722793579e-02 -5.061057209968566895e-02 -1.387839671224355698e-02 -3.867097944021224976e-02 2.147271297872066498e-03 1.173685397952795029e-02 -3.619364649057388306e-02 4.793445020914077759e-02 -2.974274009466171265e-02 -2.787563763558864594e-02 -2.332084998488426208e-02 -6.755361333489418030e-03 -1.026369724422693253e-02 -4.067765548825263977e-02 3.271686285734176636e-02 -2.850491367280483246e-02 -4.071988165378570557e-02 -4.569244012236595154e-02 3.867031261324882507e-02 2.781444415450096130e-02 2.149618230760097504e-02 1.465077325701713562e-02 -4.692643135786056519e-02 -1.945994608104228973e-02 5.911288782954216003e-03 4.449970647692680359e-02 -3.930624946951866150e-02 -3.550844965502619743e-03 1.022850046865642071e-03 1.294687855988740921e-02 -1.375156175345182419e-02 2.553676813840866089e-02 -2.106428332626819611e-02 9.611422196030616760e-03 2.835955843329429626e-02 2.892018109560012817e-02 5.827079527080059052e-03 -3.883363679051399231e-02 3.220363706350326538e-02 -4.508657380938529968e-02 7.711854297667741776e-03 -3.205037862062454224e-02 4.096123203635215759e-02 3.027599304914474487e-02 -3.815307049080729485e-03 -6.985893473029136658e-03 -3.872442618012428284e-02 -2.477757632732391357e-02 4.816611856222152710e-02 3.724077716469764709e-02 3.903229162096977234e-02 -4.577065259218215942e-02 -2.113224007189273834e-02 -3.116362961009144783e-03 4.768906906247138977e-02 -1.588490977883338928e-02 -4.090891033411026001e-02 -2.255397848784923553e-03 -2.337771095335483551e-02 -2.223598770797252655e-02 -8.907029405236244202e-03 2.122908271849155426e-02 3.010338544845581055e-02 1.671960204839706421e-02 3.240557014942169189e-02 1.444009970873594284e-02 -7.854272611439228058e-03 -3.089917590841650963e-03 3.290292993187904358e-02 -1.196798589080572128e-02 -6.422789767384529114e-03 2.960476838052272797e-02 1.779976487159729004e-02 -7.354751578532159328e-04 -3.318087011575698853e-02 -4.061058908700942993e-02 1.911891275085508823e-03 -4.897425696253776550e-02 -3.401122987270355225e-02 4.011821933090686798e-03 -3.742894157767295837e-02 1.013267226517200470e-02 2.931620739400386810e-02 -3.041521273553371429e-02 -3.195402026176452637e-02 -4.540262371301651001e-02 7.846000604331493378e-03 -3.973793238401412964e-02 8.072299882769584656e-03 -2.203472889959812164e-02 1.403751131147146225e-02 2.329705469310283661e-02 1.968875713646411896e-02 -4.238558188080787659e-02 -2.929043024778366089e-02 2.774146199226379395e-02 1.372833643108606339e-02 -3.849164769053459167e-02 3.868777677416801453e-02 -4.052316769957542419e-03 5.044961720705032349e-02 3.062493540346622467e-02 -3.801238490268588066e-03 4.337652772665023804e-02 -4.056024923920631409e-02 4.915397614240646362e-02 -1.447259727865457535e-02 -5.422844551503658295e-03 -4.062328860163688660e-02 2.146705985069274902e-02 -1.448131166398525238e-02 4.304609075188636780e-02 -3.321245685219764709e-02 4.451901093125343323e-02 4.933722689747810364e-02 4.946711659431457520e-02 -1.433501113206148148e-02 -2.311798185110092163e-02 -1.066064927726984024e-02 6.923159584403038025e-03 -4.624684527516365051e-02 3.037944436073303223e-02 3.437314555048942566e-02 -6.678889505565166473e-03 -3.894924372434616089e-02 -2.325641922652721405e-02 -2.147449366748332977e-02 1.084107160568237305e-02 1.919029466807842255e-02 1.794916577637195587e-02 2.591126598417758942e-02 8.103348314762115479e-03 -3.380333259701728821e-02 2.892677672207355499e-02 -1.525543816387653351e-02 -6.046920316293835640e-05 -4.825203865766525269e-02 -1.524410489946603775e-02 1.923608221113681793e-02 -1.701773330569267273e-02 -2.106397226452827454e-02 2.193433418869972229e-02 3.634160012006759644e-02 -3.744012862443923950e-02 -4.541140794754028320e-02 -7.803590502589941025e-03 -4.071424901485443115e-02 2.268775552511215210e-02 -2.208336256444454193e-02 -2.763146907091140747e-02 -3.835320472717285156e-02 -7.693339139223098755e-03 3.646216646302491426e-04 3.973559662699699402e-02 -3.706604242324829102e-02 3.566950559616088867e-02 1.563101634383201599e-02 3.231995273381471634e-03 2.790708281099796295e-02 2.029248140752315521e-02 -3.292641043663024902e-02 2.937635034322738647e-02 7.237353827804327011e-03 1.874127984046936035e-02 -1.178160216659307480e-02 4.387087374925613403e-02 2.814954519271850586e-02 2.834063023328781128e-02 2.640691353008151054e-03 2.356047742068767548e-02 -1.088469568639993668e-02 1.036305725574493408e-02 -2.475411072373390198e-02 4.682322591543197632e-02 4.611983895301818848e-02 2.960801124572753906e-02 -3.952506929636001587e-02 2.847278723493218422e-03 -5.782414227724075317e-03 -6.961659993976354599e-03 2.604518830776214600e-02 3.971289843320846558e-02 -8.877268061041831970e-03 -4.902145639061927795e-02 -4.700922220945358276e-02 4.459545761346817017e-02 4.030632227659225464e-02 3.470080206170678139e-03 -3.600022289901971817e-03 1.860856078565120697e-02 -1.801021583378314972e-02 -7.059684954583644867e-03 4.752171412110328674e-02 2.973021194338798523e-02 -3.205434232950210571e-02 -3.554788604378700256e-02 8.418412879109382629e-03 1.270164549350738525e-02 -2.826067619025707245e-02 4.065038636326789856e-02 -1.012960541993379593e-02 9.108169935643672943e-03 2.578973770141601562e-02 -3.478577733039855957e-02 4.220492765307426453e-02 1.774531556293368340e-03 -4.458268359303474426e-02 2.444539777934551239e-02 -2.145168371498584747e-03 -4.436567425727844238e-02 -5.645890720188617706e-03 3.711228724569082260e-03 -3.269349411129951477e-02 -4.488590732216835022e-02 -2.241507172584533691e-02 3.013222478330135345e-02 1.966228894889354706e-02 -2.174603007733821869e-02 -1.986245438456535339e-02 -2.203761599957942963e-02 -4.134272038936614990e-02 4.548021033406257629e-02 -3.716276213526725769e-02 -3.688145428895950317e-02 -2.040290972217917442e-03 4.707442224025726318e-02 3.308985382318496704e-02 -1.526508014649152756e-02 1.698695681989192963e-02 -2.494606375694274902e-02 1.412019599229097366e-02 7.620017509907484055e-03 -4.216964170336723328e-02 2.455094270408153534e-02 -4.769102111458778381e-02 2.757443673908710480e-02 5.274028982967138290e-03 -1.862488314509391785e-02 1.075983047485351562e-02 3.010691329836845398e-02 7.512362673878669739e-03 -4.385397583246231079e-02 4.159828275442123413e-02 -1.201860886067152023e-02 -4.815252125263214111e-02 -4.408219456672668457e-02 3.573831170797348022e-02 2.399766817688941956e-02 2.555014193058013916e-02 4.524090141057968140e-02 4.672683309763669968e-03 2.870921045541763306e-02 1.275573740713298321e-03 4.654401168227195740e-02 -1.376155856996774673e-02 -4.230377078056335449e-02 -2.149520814418792725e-02 3.230219334363937378e-02 4.669722542166709900e-02 9.462017565965652466e-03 3.219460695981979370e-02 -1.561809517443180084e-02 6.095034070312976837e-03 -1.937034167349338531e-02 3.741179406642913818e-02 1.883359812200069427e-02 2.593522332608699799e-02 -4.008605703711509705e-02 1.305253989994525909e-02 -2.283131703734397888e-02 -4.528503119945526123e-02 1.744167320430278778e-02 4.369864612817764282e-02 -1.195841003209352493e-02 2.609240356832742691e-03 4.818503931164741516e-02 5.402595736086368561e-03 -1.343298470601439476e-03 3.871499001979827881e-02 -3.196692094206809998e-02 -4.653074219822883606e-02 -4.150734748691320419e-03 -4.106558859348297119e-02 -1.024090498685836792e-02 4.233425855636596680e-02 4.394197463989257812e-02 -4.862749576568603516e-02 -1.030172454193234444e-03 3.080026246607303619e-02 3.441026806831359863e-02 3.749367594718933105e-02 1.779570803046226501e-02 7.543976884335279465e-03 3.807904198765754700e-02 -2.859038673341274261e-02 -3.010269999504089355e-02 3.313414007425308228e-02 -2.459287457168102264e-02 -2.405770868062973022e-02 -1.613550446927547455e-02 1.990515738725662231e-02 2.169980853796005249e-02 -7.117475382983684540e-03 -3.522225469350814819e-02 -3.467851504683494568e-02 4.761592298746109009e-02 3.758914535865187645e-04 -2.805585227906703949e-02 -1.561732869595289230e-02 -3.212800249457359314e-03 2.104404009878635406e-02 4.794783517718315125e-02 -3.211867436766624451e-02 3.027615509927272797e-02 -1.188630145043134689e-02 -2.777229435741901398e-02 2.846543863415718079e-02 -4.775119945406913757e-02 2.368702180683612823e-02 -3.773947805166244507e-02 -2.140158414840698242e-02 -3.684453666210174561e-02 6.007878109812736511e-03 4.422872141003608704e-02 -4.078354686498641968e-02 -2.904064720496535301e-03 1.370298769325017929e-02 -3.022003918886184692e-02 -1.463641971349716187e-02 3.853839822113513947e-03 -3.913566097617149353e-02 -3.706518094986677170e-03 4.699198529124259949e-02 1.974223926663398743e-02 1.640902645885944366e-02 -5.270652007311582565e-03 3.422592952847480774e-02 -3.798102959990501404e-02 3.847208619117736816e-02 4.900866374373435974e-02 8.203477598726749420e-03 -2.875650115311145782e-02 -2.965012006461620331e-02 -5.435593891888856888e-03 4.236878827214241028e-02 -4.985921084880828857e-02 -1.813444681465625763e-02 -1.336163189262151718e-02 -4.453919082880020142e-02 2.395505458116531372e-02 5.369653925299644470e-03 -9.254502132534980774e-03 2.196870744228363037e-02 3.701852634549140930e-02 -1.738775707781314850e-02 5.560361314564943314e-03 3.314859420061111450e-02 -4.225404933094978333e-02 -8.486123406328260899e-04 4.466377198696136475e-03 -9.034635499119758606e-03 4.946802556514739990e-02 4.303195700049400330e-02 -4.098544269800186157e-02 3.277784213423728943e-02 2.072567306458950043e-02 -3.254991397261619568e-02 1.068394165486097336e-02 -3.344134613871574402e-02 3.044990589842200279e-03 -4.148380458354949951e-02 -1.378282322548329830e-03 -3.401004895567893982e-02 3.919691592454910278e-02 -6.592072080820798874e-03 -3.991881757974624634e-02 -1.092783547937870026e-02 -3.738339245319366455e-02 -1.716857962310314178e-02 4.780999198555946350e-02 -4.834933951497077942e-02 -3.461698442697525024e-02 -1.946414634585380554e-02 -4.276764020323753357e-02 1.938520558178424835e-02 -2.947475388646125793e-02 2.758724614977836609e-02 1.124724559485912323e-02 4.135715961456298828e-02 3.153454279527068138e-03 9.010085836052894592e-03 -6.130121648311614990e-03 3.897761553525924683e-02 1.471433788537979126e-03 9.315538336522877216e-04 -2.022510208189487457e-02 -1.585996709764003754e-02 -3.977894410490989685e-02 4.457446932792663574e-02 4.872549325227737427e-02 1.232454204000532627e-03 4.740035906434059143e-02 1.533128879964351654e-02 3.739505633711814880e-02 4.681514576077461243e-03 3.101819381117820740e-02 3.390185162425041199e-02 4.283835738897323608e-02 4.086941853165626526e-02 -4.083598963916301727e-03 -1.462906971573829651e-02 -3.013783600181341171e-03 -4.690735787153244019e-02 9.295568801462650299e-03 4.291570186614990234e-02 -3.129763528704643250e-02 -4.141982644796371460e-03 4.955831915140151978e-02 -1.582250930368900299e-02 1.883319020271301270e-02 -2.034253673627972603e-03 2.181260613724589348e-03 -4.060515388846397400e-02 2.099272795021533966e-02 -4.085537046194076538e-02 9.743050672113895416e-03 2.518831752240657806e-02 1.866792328655719757e-02 -2.648206986486911774e-02 -4.497136175632476807e-02 2.825157251209020615e-03 -2.295404486358165741e-02 -1.467862632125616074e-02 -4.302382585592567921e-04 4.360476508736610413e-02 8.590067736804485321e-03 2.766893245279788971e-02 -1.135418377816677094e-02 6.604371592402458191e-03 2.219225279986858368e-02 -2.499966137111186981e-02 2.962409891188144684e-02 -4.675137996673583984e-02 -2.691679261624813080e-02 1.060580648481845856e-02 -2.958583179861307144e-03 1.320562511682510376e-02 3.098595328629016876e-02 -2.303048595786094666e-02 1.433971803635358810e-02 -2.321949601173400879e-02 2.178474888205528259e-02 -4.491519182920455933e-02 3.984113037586212158e-02 3.105074167251586914e-02 4.912820085883140564e-02 -3.771238774061203003e-02 2.096239291131496429e-02 7.137853652238845825e-03 -4.958756268024444580e-02 2.741046808660030365e-02 2.742836996912956238e-02 1.732815057039260864e-02 8.921139873564243317e-03 -4.189993068575859070e-02 3.397950902581214905e-02 -1.175670791417360306e-02 -1.617784984409809113e-02 -4.146636649966239929e-02 -7.451128214597702026e-03 -8.215327979996800423e-04 3.890365362167358398e-02 4.099763184785842896e-02 -4.814916104078292847e-02 -3.404418751597404480e-02 2.139059826731681824e-03 3.944795951247215271e-02 4.295399039983749390e-02 1.277761813253164291e-02 -2.652698196470737457e-02 2.424661256372928619e-02 3.509589284658432007e-02 2.090064622461795807e-02 3.102524206042289734e-02 -2.302674204111099243e-02 2.429994195699691772e-02 2.290629968047142029e-02 1.582676917314529419e-02 -2.072702161967754364e-02 -2.541853487491607666e-02 4.159953445196151733e-02 7.707787211984395981e-03 -2.854489162564277649e-02 -2.512366324663162231e-02 -1.238918676972389221e-02 2.839129045605659485e-02 -6.662190426141023636e-04 -2.688963897526264191e-02 4.323553666472434998e-02 -4.597883298993110657e-02 4.837445542216300964e-02 1.940405927598476410e-02 3.593838959932327271e-02 1.507269497960805893e-02 -1.459158491343259811e-02 -3.607219830155372620e-02 1.376375276595354080e-02 3.634693846106529236e-02 1.217939984053373337e-02 -1.947378180921077728e-02 3.629778325557708740e-02 4.633322358131408691e-02 -4.055905714631080627e-02 -4.424768686294555664e-02 -3.580507263541221619e-02 -1.831209100782871246e-02 -3.585867956280708313e-02 -1.310984324663877487e-02 2.158141141990199685e-04 -2.014048583805561066e-02 3.725682571530342102e-02 -3.098357096314430237e-02 4.309841245412826538e-02 -1.094255410134792328e-02 -3.371052443981170654e-02 5.744126625359058380e-03 -6.723278202116489410e-03 9.860142134130001068e-03 -4.374986141920089722e-02 2.754359692335128784e-02 4.657723754644393921e-02 1.962505467236042023e-02 -3.939822316169738770e-02 -3.386064246296882629e-02 3.127700835466384888e-02 3.647552058100700378e-02 -2.257568202912807465e-02 -4.545960202813148499e-02 -4.742207005620002747e-03 4.609883576631546021e-02 -9.633781388401985168e-03 4.548392817378044128e-02 -3.816069290041923523e-02 -4.952988401055335999e-02 3.235793113708496094e-02 1.956631802022457123e-02 -1.805608160793781281e-02 -2.705426188185811043e-03 -2.935352176427841187e-02 2.874004095792770386e-02 -3.865691251121461391e-04 2.012732997536659241e-02 4.468690138310194016e-03 