-3.737639263272285461e-02 -3.663564473390579224e-02 4.668168723583221436e-02 5.673833657056093216e-04 -4.041156172752380371e-02 -1.981094293296337128e-02 -4.525676742196083069e-02 1.744469814002513885e-02 7.566816639155149460e-03 8.307598531246185303e-03 2.018049173057079315e-02 -4.742963984608650208e-02 -3.150823712348937988e-02 -3.550408408045768738e-03 6.342459470033645630e-03 5.634897202253341675e-02 -2.302019111812114716e-02 2.080550882965326309e-03 3.729178383946418762e-02 4.989112168550491333e-02 2.935939282178878784e-02 -2.343343757092952728e-02 3.357378020882606506e-02 -4.078459460288286209e-03 4.290568083524703979e-02 -2.546397596597671509e-02 1.404173485934734344e-02 -3.206187114119529724e-02 3.869113698601722717e-02 -1.680887769907712936e-03 3.234590962529182434e-02 1.451251655817031860e-02 -4.238903895020484924e-02 4.360492527484893799e-02 2.507172152400016785e-02 -2.818635478615760803e-02 3.158694133162498474e-02 -4.113972932100296021e-02 5.960149224847555161e-03 -7.644747383892536163e-03 5.547103937715291977e-03 4.051463305950164795e-02 4.762131720781326294e-02 2.156935818493366241e-02 -3.218322992324829102e-02 1.324825803749263287e-03 -4.003175348043441772e-02 6.171588599681854248e-02 -1.820319266698788851e-05 4.216159880161285400e-02 2.206619596108794212e-03 -3.680752217769622803e-02 4.589937254786491394e-02 1.468898728489875793e-02 -3.765424713492393494e-02 -8.098005317151546478e-03 5.380582436919212341e-02 -1.368806324899196625e-02 1.989728026092052460e-02 9.830933064222335815e-03 4.026385396718978882e-02 2.980317547917366028e-02 -2.074296958744525909e-02 2.811461314558982849e-02 -2.745068818330764771e-02 -8.958965772762894630e-04 -8.786347694694995880e-03 4.482911899685859680e-02 -5.572448484599590302e-03 3.918373957276344299e-03 4.335253685712814331e-02 -2.417662553489208221e-02 -2.434792742133140564e-02 4.858008027076721191e-02 -3.891544416546821594e-02 -1.555692311376333237e-02 3.040407225489616394e-02 -6.598470266908407211e-03 3.498457744717597961e-02 -4.485910385847091675e-02 -3.486226499080657959e-02 2.333031594753265381e-02 3.488207980990409851e-02 -4.470779746770858765e-02 -3.505581244826316833e-02 4.306020587682723999e-02 1.249613560503348708e-04 -9.308728389441967010e-03 -3.120994009077548981e-02 -1.496302615851163864e-02 -4.181981831789016724e-02 -2.248133718967437744e-02 2.043144963681697845e-02 3.118917904794216156e-02 6.425017956644296646e-03 -2.736369892954826355e-02 -2.215505763888359070e-02 1.225047558546066284e-02 -1.894770748913288116e-02 2.453901991248130798e-02 1.244734041392803192e-03 1.215691026300191879e-02 -4.603833705186843872e-02 3.893258050084114075e-02 -7.997466251254081726e-03 -9.449698962271213531e-03 -1.450691185891628265e-02 -4.773681238293647766e-02 2.568118087947368622e-02 6.661306135356426239e-03 -2.235304191708564758e-02 3.150238841772079468e-02 3.145705536007881165e-02 -2.296311967074871063e-02 4.178271815180778503e-02 -5.183949321508407593e-02 -2.793593145906925201e-02 1.810346171259880066e-02 -4.820936918258666992e-02 -2.955811843276023865e-02 -2.457780204713344574e-02 -3.849638253450393677e-02 2.287728153169155121e-02 -4.720772802829742432e-02 3.187763690948486328e-02 -4.252674803137779236e-02 2.687755273655056953e-03 -2.899727970361709595e-02 1.926937885582447052e-02 1.760615385137498379e-03 3.435733169317245483e-02 3.298628702759742737e-02 -3.785757347941398621e-02 -3.495180979371070862e-02 2.471967600286006927e-03 3.961698710918426514e-02 2.894468791782855988e-02 2.289979159832000732e-02 -2.343459799885749817e-02 -3.934517875313758850e-02 -1.909428089857101440e-02 -2.752459608018398285e-03 -1.219605654478073120e-02 2.986381947994232178e-02 6.063327193260192871e-03 2.147877402603626251e-02 -4.117309581488370895e-03 -1.320686470717191696e-02 -3.287229314446449280e-02 -2.761672809720039368e-02 3.267314657568931580e-02 -2.448172122240066528e-02 1.718631386756896973e-02 6.182807032018899918e-03 -2.295927330851554871e-02 1.933066174387931824e-02 8.649316732771694660e-04 1.109689846634864807e-02 -3.436585888266563416e-02 5.751642957329750061e-02 2.427751943469047546e-02 -3.817222896032035351e-04 -4.329245537519454956e-02 3.114471398293972015e-02 -4.329875484108924866e-02 -1.716552674770355225e-02 1.631354168057441711e-02 4.025055840611457825e-02 2.697890438139438629e-02 3.126994147896766663e-02 2.440217509865760803e-02 -5.149121582508087158e-02 -4.258007928729057312e-02 4.103020206093788147e-02 3.553244099020957947e-02 2.684867382049560547e-02 -7.861098274588584900e-03 -1.616048254072666168e-02 1.750538870692253113e-02 3.843932226300239563e-02 -5.057245027273893356e-03 -4.502280056476593018e-02 1.330673042684793472e-02 -3.562347590923309326e-02 1.503735687583684921e-02 2.444817870855331421e-02 -2.941218949854373932e-02 4.838475584983825684e-02 4.206386860460042953e-03 -1.075270026922225952e-02 -3.522820770740509033e-02 3.013144992291927338e-02 2.524734474718570709e-02 1.920256204903125763e-02 1.922776550054550171e-02 1.039241719990968704e-02 5.604439973831176758e-02 -4.020192474126815796e-02 1.855551823973655701e-02 -2.630575932562351227e-02 -1.041562296450138092e-03 -4.693952947854995728e-02 -3.774435818195343018e-02 -3.985499590635299683e-02 4.726039245724678040e-02 -6.181474775075912476e-03 -1.240763254463672638e-02 -3.894586488604545593e-02 -1.382404100149869919e-02 3.644851595163345337e-02 -2.464392455294728279e-03 4.445946216583251953e-02 -1.533852890133857727e-02 3.817821294069290161e-02 1.369315106421709061e-02 -4.556896165013313293e-03 8.315517567098140717e-03 -2.829611860215663910e-02 1.186014991253614426e-02 -1.262426003813743591e-02 4.523409903049468994e-02 1.467018201947212219e-02 2.803169563412666321e-02 -2.037941105663776398e-02 7.948875427246093750e-03 5.467294529080390930e-02 -2.285670861601829529e-02 2.450793236494064331e-02 -3.221607208251953125e-02 5.160346254706382751e-02 4.400966688990592957e-02 -4.470076411962509155e-02 4.138673096895217896e-02 2.257145754992961884e-02 2.314232476055622101e-02 -9.943772107362747192e-03 -3.269417211413383484e-02 -1.841477490961551666e-02 -4.290242120623588562e-02 4.290519282221794128e-02 1.199515443295240402e-02 1.030172966420650482e-02 5.124284885823726654e-03 2.402218244969844818e-02 1.457502506673336029e-02 -4.373367875814437866e-02 -2.058566082268953323e-03 -3.557997941970825195e-02 -2.982360869646072388e-02 2.817497355863451958e-03 -2.161290496587753296e-02 -1.213297899812459946e-02 2.565888315439224243e-02 2.052473276853561401e-02 -8.993575349450111389e-03 -1.351942121982574463e-02 1.572171039879322052e-02 4.615530744194984436e-02 4.884333536028862000e-02 2.436986193060874939e-02 9.706618264317512512e-03 -1.257862616330385208e-02 -2.166186086833477020e-02 -2.485131472349166870e-02 3.498513996601104736e-02 -3.661240264773368835e-02 -3.159124776721000671e-02 -1.709457673132419586e-02 -3.331280546262860298e-03 2.387081645429134369e-02 -4.914874956011772156e-02 -4.539908468723297119e-02 2.885397337377071381e-02 -3.523982316255569458e-02 -3.738737478852272034e-02 -3.054311312735080719e-02 -1.501538697630167007e-02 2.994322404265403748e-02 -2.225545421242713928e-02 -1.855188421905040741e-02 -2.592870406806468964e-02 1.614850200712680817e-02 2.873243950307369232e-02 4.810521379113197327e-02 -3.382560610771179199e-02 7.785426452755928040e-03 -1.446074107661843300e-03 2.996568009257316589e-02 2.794868126511573792e-02 -4.564283415675163269e-02 1.576765254139900208e-02 9.675703011453151703e-03 -2.013852633535861969e-02 1.629110239446163177e-02 2.068553119897842407e-02 4.894480109214782715e-02 2.532176300883293152e-02 3.715078532695770264e-02 -1.051401346921920776e-02 3.953504562377929688e-02 3.746843710541725159e-02 -3.771850094199180603e-02 3.014705143868923187e-02 3.277757763862609863e-02 -3.636622428894042969e-02 2.320222370326519012e-02 -1.930044032633304596e-02 1.822687336243689060e-03 1.623970083892345428e-02 4.880095832049846649e-03 -8.835387416183948517e-03 2.282169833779335022e-02 -1.497823838144540787e-02 -3.843725845217704773e-02 -3.805401548743247986e-02 1.339495554566383362e-02 -4.760748147964477539e-02 3.897073492407798767e-02 -2.659312449395656586e-02 2.704616077244281769e-02 -3.785454854369163513e-02 -4.292613640427589417e-02 3.494080901145935059e-02 -1.525415480136871338e-02 5.886796861886978149e-03 3.100409731268882751e-02 2.788655227050185204e-03 4.545135423541069031e-03 8.484439924359321594e-03 3.983445465564727783e-02 4.797093570232391357e-03 2.505160681903362274e-02 1.967691816389560699e-02 -1.187334302812814713e-02 3.185341507196426392e-02 -4.765056818723678589e-02 1.364303752779960632e-02 7.274725008755922318e-03 5.081829801201820374e-02 -3.913103416562080383e-02 -4.503143951296806335e-02 -4.714581742882728577e-02 1.524104923009872437e-02 1.006146147847175598e-02 -2.968528307974338531e-02 1.975864358246326447e-02 -1.993385888636112213e-02 7.693052757531404495e-03 -9.812815114855766296e-03 -4.902438726276159286e-03 2.650106698274612427e-02 3.963557258248329163e-02 4.492722824215888977e-02 -4.244861658662557602e-03 -3.314439579844474792e-02 3.633025335147976875e-04 -2.578961662948131561e-02 -3.730263561010360718e-02 4.159917682409286499e-02 4.528262838721275330e-02 3.608880937099456787e-02 3.402627538889646530e-03 -8.069303818047046661e-03 9.984104894101619720e-03 1.088735181838274002e-02 -3.257485851645469666e-02 2.737632021307945251e-02 2.100243605673313141e-02 -2.295947261154651642e-02 -2.101941592991352081e-02 4.670451208949089050e-02 -1.199397072196006775e-02 2.394781447947025299e-02 -1.317394804209470749e-02 -1.310178171843290329e-02 4.622239246964454651e-02 3.535127639770507812e-02 -8.204764686524868011e-03 1.172034163028001785e-02 2.209658361971378326e-02 1.800977438688278198e-02 3.461509943008422852e-02 9.781182743608951569e-03 -2.287880284711718559e-03 -3.606816381216049194e-02 2.433377504348754883e-02 4.189777653664350510e-03 3.284071013331413269e-02 -2.849680930376052856e-02 -2.666677720844745636e-02 -3.989122807979583740e-02 1.807670295238494873e-02 -4.115334898233413696e-02 -7.650490151718258858e-04 3.416228294372558594e-02 1.216295920312404633e-02 -2.613444998860359192e-02 -3.816016763448715210e-02 4.857052490115165710e-02 4.011365585029125214e-03 2.876845374703407288e-02 -4.335859417915344238e-02 -3.751329332590103149e-02 2.255408465862274170e-02 3.890267014503479004e-02 -1.520567666739225388e-02 4.702869802713394165e-02 3.048503026366233826e-02 -4.378086701035499573e-02 2.890932932496070862e-02 2.393369190394878387e-02 1.830893568694591522e-02 -5.439937114715576172e-03 -2.346490276977419853e-03 5.292165651917457581e-02 2.738845348358154297e-02 8.438093937002122402e-04 1.517244335263967514e-02 4.744577780365943909e-02 1.217627804726362228e-02 -2.236384339630603790e-02 -3.703151270747184753e-02 -3.783147037029266357e-02 1.536907348781824112e-02 -7.151274476200342178e-03 -1.052396744489669800e-02 1.477598585188388824e-02 -8.453779853880405426e-03 -4.899937193840742111e-03 -2.339238487184047699e-02 2.002924447879195213e-03 -1.491229166276752949e-03 -3.163545206189155579e-02 9.067980572581291199e-03 2.323019318282604218e-02 2.940219826996326447e-02 -2.871623029932379723e-03 -5.040356889367103577e-02 1.754413731396198273e-02 -3.037336096167564392e-02 -1.087068463675677776e-03 3.989647701382637024e-02 -4.369949549436569214e-02 -4.813481494784355164e-02 1.762411929666996002e-02 -3.156287223100662231e-02 2.622539643198251724e-03 4.452762380242347717e-02 -3.814580664038658142e-02 -5.652324482798576355e-02 -2.768439054489135742e-02 -1.302575226873159409e-02 -2.149378648027777672e-03 3.273362666368484497e-02 -2.345649339258670807e-02 -6.673492491245269775e-03 -2.079387567937374115e-02 -2.011775039136409760e-02 2.209374308586120605e-02 2.185812778770923615e-02 -3.361237933859229088e-03 -4.981527850031852722e-02 1.804916188120841980e-02 5.259488150477409363e-02 2.741545252501964569e-02 -2.502561733126640320e-02 -1.551354583352804184e-02 -5.587575491517782211e-03 -1.926194317638874054e-02 4.691482987254858017e-03 3.357387334108352661e-02 4.226713627576828003e-02 5.101082101464271545e-02 3.599727526307106018e-02 5.246870592236518860e-02 -4.535344988107681274e-02 -1.191747933626174927e-02 -4.844653606414794922e-02 5.214254185557365417e-02 1.059888582676649094e-02 2.133229561150074005e-02 -3.181237354874610901e-02 -4.215646907687187195e-02 3.363372012972831726e-02 -3.073767200112342834e-02 5.308069288730621338e-02 -4.151345416903495789e-02 1.184020284563302994e-02 4.018234461545944214e-02 -2.101939730346202850e-02 -2.144558168947696686e-02 -1.138672512024641037e-02 3.003991022706031799e-02 3.134746849536895752e-02 2.518893405795097351e-02 7.772683165967464447e-03 2.269282937049865723e-03 4.737387597560882568e-02 -1.467912830412387848e-02 2.552931383252143860e-02 -2.290342748165130615e-02 3.905244916677474976e-02 -4.015387222170829773e-02 -2.851305529475212097e-02 1.349981594830751419e-02 -3.323677554726600647e-02 -2.198891341686248779e-02 5.246123671531677246e-02 3.612580941990017891e-03 4.293069988489151001e-02 5.430768802762031555e-02 -4.602471739053726196e-02 4.978713393211364746e-02 4.653247445821762085e-02 2.548673190176486969e-02 -1.343370508402585983e-02 3.841315954923629761e-02 -1.261099334806203842e-02 9.673461318016052246e-03 3.880515869241207838e-04 -1.286916527897119522e-02 2.809870615601539612e-02 5.037400871515274048e-02 -4.566961526870727539e-02 9.039846248924732208e-03 2.578505687415599823e-02 -2.251168899238109589e-02 3.111984208226203918e-02 4.907378181815147400e-02 -3.420291468501091003e-02 3.167602047324180603e-02 3.720464184880256653e-02 -2.557716332376003265e-02 -1.478225085884332657e-02 2.565013431012630463e-02 -1.897010393440723419e-02 4.194977506995201111e-02 2.905106171965599060e-02 4.376444034278392792e-03 2.414025366306304932e-02 -4.136404767632484436e-02 -4.959871247410774231e-02 1.518420502543449402e-02 4.366321489214897156e-02 2.149269357323646545e-02 -2.754137478768825531e-02 2.390914596617221832e-03 5.636963061988353729e-03 3.074902109801769257e-03 3.800738602876663208e-02 3.630009666085243225e-02 -4.449190571904182434e-02 3.878258913755416870e-02 2.425646409392356873e-02 5.655754823237657547e-03 -3.772463649511337280e-02 2.581912279129028320e-02 9.996648877859115601e-03 -1.506539620459079742e-02 1.597090810537338257e-02 -7.525361608713865280e-03 3.544378792867064476e-03 -3.950614854693412781e-02 3.939981013536453247e-02 3.584137186408042908e-02 1.726282946765422821e-02 4.099621623754501343e-02 -1.227304246276617050e-02 1.517395302653312683e-02 5.023938603699207306e-03 -2.536417543888092041e-02 4.491733759641647339e-02 -2.628600783646106720e-02 2.453286387026309967e-02 3.167564421892166138e-02 4.463793709874153137e-02 4.122033342719078064e-02 -3.219455853104591370e-02 -4.257589951157569885e-02 2.999172918498516083e-02 4.983804747462272644e-02 1.546273939311504364e-02 2.879071235656738281e-02 4.373702406883239746e-02 2.979262173175811768e-02 2.626473642885684967e-02 3.142393752932548523e-02 1.920488849282264709e-02 -7.179674692451953888e-03 -4.796968400478363037e-02 4.791274294257164001e-02 -1.031385269016027451e-02 3.694133087992668152e-02 4.895806685090065002e-02 2.197352796792984009e-02 -3.054876346141099930e-03 -2.606227993965148926e-02 -2.895616181194782257e-02 -2.105928212404251099e-02 1.673539914190769196e-02 -4.236895591020584106e-02 -1.950792502611875534e-03 1.939335092902183533e-02 -1.762427017092704773e-02 -3.621531650424003601e-02 -1.482845377177000046e-02 1.175509858876466751e-02 4.286737367510795593e-02 3.219766169786453247e-02 1.141000166535377502e-02 3.640075027942657471e-02 -2.206923381891101599e-04 -4.058482870459556580e-02 1.337916031479835510e-02 -4.388127010315656662e-03 4.184681177139282227e-02 1.098293717950582504e-02 -3.393087908625602722e-02 5.494834855198860168e-03 5.202783271670341492e-02 -5.049162358045578003e-02 4.421621561050415039e-02 1.454320270568132401e-03 2.939180703833699226e-03 8.930319920182228088e-03 -3.280689567327499390e-02 3.556212410330772400e-02 -1.564425416290760040e-02 2.073238790035247803e-02 1.955604553222656250e-02 -9.444879367947578430e-03 -3.259880095720291138e-02 -2.996769361197948456e-02 -7.497153244912624359e-03 8.907125331461429596e-03 -2.366214431822299957e-02 1.466707326471805573e-02 2.368370629847049713e-02 1.473289169371128082e-02 1.254503335803747177e-02 -8.633208461105823517e-03 1.079928688704967499e-02 -3.829446434974670410e-02 3.853540122509002686e-02 -1.093189930543303490e-03 -4.693551361560821533e-02 8.853009901940822601e-03 -2.694776095449924469e-02 -2.463609911501407623e-02 4.201754927635192871e-02 -1.595430821180343628e-02 -3.540154173970222473e-02 2.869069203734397888e-02 -2.508282661437988281e-02 3.550799563527107239e-02 3.020750544965267181e-02 -1.609962061047554016e-02 3.345317766070365906e-02 1.472537778317928314e-02 -2.826447784900665283e-02 -3.107508085668087006e-02 -5.023961886763572693e-03 -2.583188191056251526e-02 2.306060306727886200e-02 2.177497185766696930e-02 2.468364872038364410e-02 -2.399053238332271576e-02 3.387585282325744629e-02 2.312213368713855743e-02 4.141112416982650757e-02 3.369653970003128052e-02 -4.511874169111251831e-02 -3.334504738450050354e-02 -4.916776716709136963e-02 -3.329120203852653503e-02 -1.540857180953025818e-02 4.163483157753944397e-02 -2.975147031247615814e-02 1.473564933985471725e-02 -3.933567181229591370e-02 9.683965705335140228e-03 3.618901968002319336e-02 2.111414074897766113e-02 -4.453784320503473282e-03 -1.706930436193943024e-02 1.383817289024591446e-02 4.979802668094635010e-02 7.585574872791767120e-03 -2.240027301013469696e-02 -3.676639869809150696e-02 5.100980028510093689e-02 3.697490692138671875e-02 -1.749860495328903198e-02 -5.540285259485244751e-02 -4.388423636555671692e-02 3.121428936719894409e-02 1.197530515491962433e-02 -4.580954089760780334e-03 -1.192230917513370514e-02 4.790747910737991333e-02 1.812230609357357025e-02 5.048770830035209656e-02 -2.643917873501777649e-02 -1.453420985490083694e-02 -3.967014327645301819e-02 -2.271609939634799957e-02 3.944709151983261108e-02 4.196351394057273865e-03 2.862250059843063354e-02 2.735494170337915421e-03 5.673926323652267456e-02 -2.157107554376125336e-02 2.481050230562686920e-02 3.259800001978874207e-02 -3.652842342853546143e-02 -2.053636871278285980e-02 1.674507185816764832e-02 -2.098665758967399597e-02 -4.320818185806274414e-02 -3.731809183955192566e-02 -1.213902700692415237e-02 -3.591088950634002686e-02 -2.346912771463394165e-02 1.135700568556785583e-02 4.885111004114151001e-03 3.588162129744887352e-03 5.341218411922454834e-02 1.300934329628944397e-02 4.578379169106483459e-02 -2.923487313091754913e-02 -1.529906876385211945e-03 4.892121627926826477e-02 1.449831016361713409e-02 1.581741729751229286e-03 2.547980472445487976e-02 7.749065756797790527e-03 -3.204159811139106750e-02 -9.903903119266033173e-04 -4.300983622670173645e-02 -2.697531692683696747e-02 -1.650412566959857941e-02 3.820417821407318115e-02 8.861660957336425781e-03 -2.279769256711006165e-02 4.910884797573089600e-02 -3.145686164498329163e-02 3.765778988599777222e-02 1.890154927968978882e-02 1.056470349431037903e-02 3.812577947974205017e-02 -2.288549393415451050e-02 1.609889790415763855e-02 -8.785868994891643524e-04 4.816091805696487427e-02 2.254208549857139587e-02 3.282455727458000183e-02 -4.557030275464057922e-02 -2.781599573791027069e-02 3.514247015118598938e-02 3.287762030959129333e-02 3.412364749237895012e-03 -4.182914644479751587e-02 -1.479473616927862167e-02 3.921552002429962158e-02 -2.400667779147624969e-02 -2.537623979151248932e-02 -3.062417730689048767e-02 -2.604999206960201263e-02 3.939642757177352905e-02 -6.126192584633827209e-02 -5.639217793941497803e-03 -4.807707667350769043e-02 2.568203024566173553e-03 -3.433809056878089905e-02 -4.352558971731923521e-05 3.070606850087642670e-02 4.283832013607025146e-02 -1.763661578297615051e-02 1.601560506969690323e-04 -1.117451814934611320e-03 -4.358335211873054504e-02 -2.478423714637756348e-02 -4.374602437019348145e-02 2.668773941695690155e-02 4.333668202161788940e-02 1.316621620208024979e-02 -3.493359684944152832e-02 -3.554780781269073486e-02 -4.534292221069335938e-02 4.493679106235504150e-02 1.296516787260770798e-02 8.790888823568820953e-03 3.214199841022491455e-02 2.539531886577606201e-02 -2.763570472598075867e-02 -1.098628342151641846e-02 1.921523921191692352e-02 1.879758900031447411e-03 -7.370584644377231598e-03 -7.766175083816051483e-03 -2.676265127956867218e-02 4.951284825801849365e-02 4.241687431931495667e-02 2.336326986551284790e-02 4.372170567512512207e-02 -3.500874154269695282e-03 -1.501611433923244476e-02 1.047180499881505966e-02 2.729646302759647369e-02 -3.913972526788711548e-02 2.350697061046957970e-03 -3.373131528496742249e-02 4.093194380402565002e-02 -6.278248503804206848e-03 -1.823222823441028595e-02 5.391698330640792847e-02 1.856092363595962524e-02 -1.199286617338657379e-02 5.524058360606431961e-03 -1.299028564244508743e-02 3.370652347803115845e-02 -5.240605399012565613e-02 2.986355498433113098e-02 2.170035615563392639e-02 -1.646625623106956482e-02 -4.059926792979240417e-02 5.265411734580993652e-02 -1.508896891027688980e-02 -4.242197424173355103e-02 5.709720775485038757e-03 -4.005417972803115845e-02 -2.597887068986892700e-02 -2.430321276187896729e-02 -3.324184194207191467e-02 2.132578939199447632e-02 -6.449424661695957184e-03 4.521629959344863892e-02 -3.144335746765136719e-02 -4.320205003023147583e-02 -3.862973302602767944e-02 6.139768287539482117e-03 2.246657386422157288e-02 -1.980126090347766876e-02 -3.218236565589904785e-02 3.164247050881385803e-02 3.237899765372276306e-02 -1.842788048088550568e-02 -5.530468653887510300e-03 4.853610321879386902e-02 1.809327676892280579e-02 -2.202416025102138519e-02 7.882416248321533203e-03 -1.551682688295841217e-02 7.473075296729803085e-03 1.203462295234203339e-02 -1.544860750436782837e-02 3.738471120595932007e-02 4.124757647514343262e-02 2.354935370385646820e-02 -2.558271028101444244e-02 -4.458561539649963379e-02 1.278609689325094223e-02 -5.308118183165788651e-03 2.522983355447649956e-03 -1.161908381618559361e-03 -3.130744211375713348e-03 2.165127731859683990e-02 -2.060248330235481262e-02 -2.333152852952480316e-02 4.564587771892547607e-02 4.007595032453536987e-02 -2.605357207357883453e-02 3.287510573863983154e-02 2.207360602915287018e-02 -2.094808593392372131e-02 -3.930177539587020874e-02 1.403446309268474579e-02 6.802788935601711273e-03 -3.775197267532348633e-02 -4.253859072923660278e-02 3.652388695627450943e-03 -4.663337767124176025e-02 3.622634708881378174e-02 -1.911265775561332703e-02 1.677895896136760712e-02 -1.575083844363689423e-02 2.178421616554260254e-02 -2.867309004068374634e-02 -3.201249055564403534e-03 -4.487010091543197632e-02 3.493998572230339050e-02 1.382622867822647095e-02 -2.053933590650558472e-02 3.765648230910301208e-02 3.573834151029586792e-02 -3.189769759774208069e-02 -3.695904463529586792e-02 2.973067760467529297e-02 -1.992892101407051086e-02 4.484679922461509705e-02 9.572916664183139801e-03 4.328187927603721619e-02 1.037063635885715485e-02 4.595975950360298157e-02 -1.505896449089050293e-02 2.319600433111190796e-02 -3.414826095104217529e-02 -4.092305898666381836e-03 2.865595370531082153e-02 3.832173720002174377e-02 1.278563577216118574e-04 -1.744097284972667694e-02 4.201589897274971008e-02 1.227850560098886490e-02 -2.114533446729183197e-02 2.635376714169979095e-02 -3.335323557257652283e-02 -6.947290617972612381e-03 -3.270511329174041748e-02 2.716828882694244385e-02 -5.742580164223909378e-03 3.675190731883049011e-03 3.293362259864807129e-02 -2.223348431289196014e-02 -4.697031341493129730e-03 -8.617232553660869598e-03 -2.670172601938247681e-02 2.485634200274944305e-02 1.746711134910583496e-02 1.225177478045225143e-02 -4.605709016323089600e-02 2.331622317433357239e-02 -4.014477133750915527e-03 2.893075719475746155e-02 -4.852634295821189880e-02 1.876798830926418304e-02 -3.114289045333862305e-02 1.595770381391048431e-02 4.640775173902511597e-02 6.253128871321678162e-03 -4.278978705406188965e-02 3.107912372797727585e-03 2.735091000795364380e-02 -1.807834021747112274e-02 1.800148002803325653e-02 4.922563582658767700e-02 2.982017770409584045e-02 -4.599260538816452026e-02 1.432813238352537155e-02 9.600592893548309803e-04 3.170783817768096924e-02 3.836258547380566597e-03 2.715494297444820404e-02 2.477627061307430267e-02 -3.028161451220512390e-02 9.403737261891365051e-03 -9.820176055654883385e-04 9.273865260183811188e-03 4.470735415816307068e-02 -3.160831704735755920e-02 2.587840706110000610e-02 -3.322113677859306335e-02 2.345302514731884003e-02 2.963088452816009521e-02 5.261133611202239990e-02 -8.095728233456611633e-03 -9.069653227925300598e-03 -1.348401978611946106e-02 4.872664809226989746e-02 4.771823063492774963e-02 -4.232542961835861206e-02 -4.972877725958824158e-02 3.016555868089199066e-02 -2.632785029709339142e-02 -2.654821798205375671e-02 -2.629576995968818665e-02 2.067100256681442261e-02 4.279877617955207825e-02 -9.294289164245128632e-03 -7.682006340473890305e-03 -1.540034171193838120e-02 2.494068816304206848e-02 4.202590510249137878e-02 2.574219368398189545e-02 -1.522233989089727402e-02 1.203957386314868927e-02 -6.469959858804941177e-03 -4.088446870446205139e-02 -6.056161131709814072e-03 1.479683793149888515e-03 5.463165417313575745e-02 -3.873460460454225540e-03 1.876551099121570587e-02 1.832018420100212097e-02 4.317777231335639954e-02 3.172681480646133423e-02 4.923720657825469971e-02 -1.765333348885178566e-03 3.505583480000495911e-02 8.345374837517738342e-03 -2.080084010958671570e-02 2.733717113733291626e-02 2.585965767502784729e-02 2.550399489700794220e-02 4.034200310707092285e-02 1.662884652614593506e-02 2.805903926491737366e-02 2.297802455723285675e-02 -3.150732442736625671e-02 2.691927738487720490e-02 3.045218810439109802e-02 2.757494337856769562e-02 3.364145383238792419e-02 -3.714374825358390808e-02 -2.714154869318008423e-02 4.487310349941253662e-02 -3.471862524747848511e-02 -1.108711026608943939e-02 -8.827178739011287689e-03 -2.033782657235860825e-03 5.568440631031990051e-02 5.456920713186264038e-02 -1.735331676900386810e-02 2.235634997487068176e-02 -2.851049043238162994e-02 -6.402419414371252060e-03 -4.228773340582847595e-02 -2.825337462127208710e-02 -1.538217440247535706e-02 -4.185938835144042969e-02 5.589028075337409973e-02 -5.063040554523468018e-02 2.167112007737159729e-02 7.323370873928070068e-02 3.157037869095802307e-02 -4.388542473316192627e-02 -2.522603794932365417e-02 -5.941707175225019455e-03 3.026708960533142090e-02 5.061021540313959122e-03 -1.257413066923618317e-02 -4.537532571703195572e-03 -3.244164586067199707e-02 1.823255233466625214e-02 3.113995306193828583e-02 -3.436638414859771729e-02 -4.828588292002677917e-02 -3.818514198064804077e-02 -3.047097241505980492e-03 -7.086854311637580395e-04 6.209347397089004517e-02 3.263020142912864685e-02 -2.771017700433731079e-02 -5.665611475706100464e-03 6.667181849479675293e-02 -4.406810738146305084e-03 -4.762913286685943604e-02 3.178880782797932625e-03 4.040780290961265564e-02 -6.767990067601203918e-03 3.320331498980522156e-02 2.318506501615047455e-02 -3.328652819618582726e-03 5.877269431948661804e-03 4.908002540469169617e-02 1.511729229241609573e-02 4.025625437498092651e-02 1.143832225352525711e-02 4.723202437162399292e-02 1.916008256375789642e-02 1.825162395834922791e-02 2.593715488910675049e-02 -3.540086746215820312e-02 3.130203112959861755e-02 2.948867715895175934e-02 -2.858492545783519745e-03 4.921219125390052795e-02 -5.196339637041091919e-02 -4.432764835655689240e-03 -5.071619898080825806e-02 -3.927143290638923645e-02 -5.743509531021118164e-02 2.804246731102466583e-02 9.662392549216747284e-03 3.884131833910942078e-02 4.007997922599315643e-03 4.841405525803565979e-02 -2.739021740853786469e-02 2.747624181210994720e-02 -3.331153839826583862e-02 -3.159002214670181274e-02 -1.036692038178443909e-02 -2.872219122946262360e-02 -3.116967715322971344e-02 4.032231122255325317e-02 -3.191759064793586731e-02 1.790127158164978027e-02 1.226850040256977081e-02 -3.685956448316574097e-02 -4.298260807991027832e-02 4.340940713882446289e-02 -3.260863944888114929e-03 4.920680075883865356e-02 5.466166138648986816e-02 1.008863002061843872e-02 4.815524816513061523e-02 -2.390228584408760071e-02 3.315903618931770325e-02 8.707975968718528748e-03 -1.499641034752130508e-02 4.323970526456832886e-02 -2.394871041178703308e-02 -6.591642275452613831e-03 1.109271403402090073e-02 6.998730357736349106e-03 -3.251437470316886902e-02 1.981097459793090820e-02 -4.919627681374549866e-02 5.063067376613616943e-02 2.593392133712768555e-02 3.607191890478134155e-02 1.207735389471054077e-02 -3.443083912134170532e-02 2.022070251405239105e-02 1.968801207840442657e-02 5.522112175822257996e-02 1.432101521641016006e-02 -1.415327657014131546e-02 6.725643575191497803e-02 1.823039166629314423e-02 -1.639662869274616241e-02 -4.280627518892288208e-02 -1.276857126504182816e-02 -4.288309440016746521e-02 4.619595035910606384e-02 5.760484933853149414e-02 -1.994144637137651443e-03 1.274165511131286621e-02 5.305163189768791199e-02 -2.699868939816951752e-02 2.965153194963932037e-02 4.104049131274223328e-02 3.483757004141807556e-02 4.126022011041641235e-02 4.085602704435586929e-03 -3.377892449498176575e-02 5.295027419924736023e-02 5.626963451504707336e-02 -2.660613320767879486e-02 5.175033584237098694e-02 3.687994182109832764e-02 -1.482912804931402206e-02 -2.824257686734199524e-02 -2.366057783365249634e-02 -5.088508874177932739e-02 3.221737686544656754e-03 -1.671782694756984711e-02 -2.179958391934633255e-03 -1.681208959780633450e-03 -1.381493546068668365e-02 1.266627758741378784e-02 -1.287714950740337372e-02 -4.532085731625556946e-03 -2.262029796838760376e-02 5.629002116620540619e-03 3.863564506173133850e-02 -2.398444712162017822e-02 3.929992020130157471e-02 -6.101746112108230591e-03 -3.690122812986373901e-02 -6.441899575293064117e-03 4.942277446389198303e-02 4.085284844040870667e-02 -3.538424521684646606e-02 2.137205004692077637e-02 1.148070022463798523e-02 3.741429373621940613e-02 4.944154247641563416e-02 -3.674997016787528992e-03 -4.392427206039428711e-02 1.259608753025531769e-02 9.425080381333827972e-03 -2.071811445057392120e-02 -1.157415471971035004e-02 -4.758972302079200745e-02 3.012336604297161102e-02 -1.688595302402973175e-02 3.053229860961437225e-02 3.394360840320587158e-02 3.723147511482238770e-02 1.024525729008018970e-03 3.362943651154637337e-03 4.334449023008346558e-02 -1.595419365912675858e-03 2.879165299236774445e-02 2.663765102624893188e-02 2.073983103036880493e-02 3.146849945187568665e-02 -1.860848255455493927e-02 3.076695464551448822e-02 2.133727073669433594e-02 3.596124425530433655e-02 1.671568490564823151e-02 5.009896308183670044e-02 -2.217630855739116669e-02 -1.502601522952318192e-02 8.105963468551635742e-03 -4.111548885703086853e-02 -8.575847372412681580e-03 2.035944163799285889e-02 7.880788296461105347e-03 -1.704457402229309082e-02 1.787426508963108063e-02 4.062990471720695496e-02 3.076402097940444946e-02 -3.848678246140480042e-02 8.276093751192092896e-03 5.232979357242584229e-02 -1.538705639541149139e-02 -4.004879295825958252e-02 4.090325906872749329e-02 3.372313687577843666e-03 1.852213032543659210e-02 3.817938640713691711e-02 2.033282304182648659e-03 3.667022287845611572e-02 -2.510130219161510468e-02 -2.500766515731811523e-02 -3.117562830448150635e-02 5.003618076443672180e-03 3.635787218809127808e-02 -3.928532451391220093e-02 2.160709723830223083e-02 -1.217075809836387634e-02 4.179561138153076172e-02 -1.815109141170978546e-02 -1.146693062037229538e-02 -2.004366368055343628e-02 5.033186450600624084e-02 2.948612906038761139e-02 -3.786728531122207642e-02 4.942469671368598938e-02 -1.125357020646333694e-02 2.368774265050888062e-02 4.272242542356252670e-03 -3.838915005326271057e-02 4.482888057827949524e-02 -3.989430889487266541e-02 8.900275453925132751e-03 2.810648828744888306e-02 -1.941673830151557922e-02 -3.233493864536285400e-02 -6.003461312502622604e-03 9.264321997761726379e-03 -2.017045207321643829e-02 4.962781071662902832e-02 -4.628502205014228821e-02 -1.796212396584451199e-03 3.979841992259025574e-02 -2.374007180333137512e-02 4.824907984584569931e-03 -3.623389452695846558e-02 4.085991159081459045e-02 4.962182044982910156e-02 5.373134277760982513e-03 -2.985287457704544067e-02 -1.136723789386451244e-03 1.898119226098060608e-02 2.371660247445106506e-02 -1.750883087515830994e-02 2.281447872519493103e-02 -2.287373319268226624e-02 -3.534193709492683411e-02 -2.067215368151664734e-02 -3.269183635711669922e-02 -9.061490185558795929e-03 -2.409002371132373810e-02 4.107024893164634705e-02 -3.293062373995780945e-02 -1.105029229074716568e-02 -2.021455205976963043e-02 -5.575601011514663696e-03 2.439092099666595459e-02 2.904961258172988892e-02 5.404904112219810486e-02 -4.506254103034734726e-03 4.170020669698715210e-02 1.677107810974121094e-02 -3.525934647768735886e-03 -3.622327372431755066e-02 3.759144805371761322e-03 -1.294459775090217590e-02 -2.452475391328334808e-02 9.621138684451580048e-03 1.952014677226543427e-02 -6.362174637615680695e-03 -3.681579977273941040e-02 2.792266942560672760e-02 -1.618514209985733032e-02 3.081219270825386047e-02 4.572844598442316055e-03 2.855976345017552376e-03 -1.758722774684429169e-02 2.596430666744709015e-02 1.174146868288516998e-02 -4.292527213692665100e-02 4.984449595212936401e-02 -3.220129758119583130e-02 2.146065607666969299e-02 1.560697704553604126e-02 -2.406221441924571991e-02 -1.486573182046413422e-02 5.066963378340005875e-03 7.932038046419620514e-03 1.150724571198225021e-02 -1.707740314304828644e-02 -4.842570051550865173e-03 3.509203344583511353e-02 1.820049434900283813e-02 3.504393249750137329e-02 -2.744190208613872528e-02 -1.224451791495084763e-02 -3.229646384716033936e-02 -1.544322259724140167e-02 2.799496287479996681e-03 -3.359056636691093445e-02 8.712005801498889923e-03 -1.595613546669483185e-02 2.804674953222274780e-02 2.617059089243412018e-02 2.122580446302890778e-02 1.269247103482484818e-02 1.217501936480402946e-03 4.277702048420906067e-02 -4.252160713076591492e-02 3.718783333897590637e-02 -3.904679790139198303e-02 -3.568828105926513672e-02 2.116488991305232048e-03 -1.382841076701879501e-02 3.086339496076107025e-02 -4.878543317317962646e-02 3.183449804782867432e-02 -1.196854095906019211e-02 -1.758256368339061737e-02 -4.833430424332618713e-02 3.866197168827056885e-02 1.855786517262458801e-02 -1.375011634081602097e-02 4.946078360080718994e-02 8.832840248942375183e-03 1.503360806964337826e-03 1.170549262315034866e-02 -3.113674558699131012e-02 -2.549934573471546173e-02 3.224899619817733765e-02 -4.388755187392234802e-02 4.642778262495994568e-02 1.658327504992485046e-02 2.493866346776485443e-02 3.614008054137229919e-02 -4.214678332209587097e-02 -4.379843547940254211e-02 -1.651161909103393555e-02 1.783343218266963959e-02 3.821134939789772034e-02 1.302171591669321060e-02 2.400819584727287292e-02 1.698656566441059113e-02 1.622289605438709259e-02 3.219778463244438171e-02 -2.802713587880134583e-02 -4.769746586680412292e-02 -1.553226448595523834e-02 1.534001715481281281e-02 2.129169926047325134e-02 -2.683904208242893219e-02 -1.047098636627197266e-02 3.527381457388401031e-03 3.609219938516616821e-02 -2.621350251138210297e-02 4.926577582955360413e-02 8.281102403998374939e-03 1.607722416520118713e-02 -1.876047998666763306e-02 -3.194375336170196533e-02 -2.998747862875461578e-02 -2.447555959224700928e-02 -3.558682277798652649e-02 3.904313966631889343e-02 3.738760948181152344e-02 5.117673799395561218e-02 1.621799729764461517e-02 2.532501704990863800e-02 -2.664842642843723297e-02 -2.270892076194286346e-02 3.971531242132186890e-02 -3.907380998134613037e-02 -4.603515565395355225e-02 1.555343717336654663e-02 4.206176102161407471e-02 1.958296075463294983e-02 -3.439579159021377563e-02 4.478850960731506348e-02 1.867319457232952118e-02 1.374467741698026657e-02 -1.013782713562250137e-02 -1.712219975888729095e-02 -3.959036245942115784e-02 2.347215637564659119e-02 -2.773439628072082996e-04 -3.307411447167396545e-02 2.707049809396266937e-02 -3.292706981301307678e-02 4.345243051648139954e-02 -4.497812688350677490e-02 4.055474698543548584e-02 5.278244242072105408e-02 -4.850089608225971460e-04 -2.804866433143615723e-02 -8.674085140228271484e-03 5.123392865061759949e-02 1.852535083889961243e-02 -2.508698590099811554e-02 -2.641964890062808990e-02 -4.226328432559967041e-02 5.400186870247125626e-03 -2.873394638299942017e-02 4.372971504926681519e-02 2.717305347323417664e-02 2.880272828042507172e-02 -1.785649172961711884e-02 -4.712172970175743103e-02 -2.164464257657527924e-02 -1.707247085869312286e-02 4.288772121071815491e-02 -2.926640585064888000e-02 3.167020529508590698e-02 2.962980791926383972e-02 3.491592407226562500e-02 6.793793290853500366e-03 2.228663861751556396e-02 2.892536856234073639e-02 -1.070025470107793808e-02 -2.683855406939983368e-02 -2.989898622035980225e-02 3.294007107615470886e-02 4.155535250902175903e-02 1.688328385353088379e-02 -4.437183961272239685e-02 5.356324091553688049e-02 -1.730153150856494904e-02 2.425144799053668976e-02 -7.704520830884575844e-04 3.457547724246978760e-02 4.440930858254432678e-02 -8.559185080230236053e-03 -7.777308579534292221e-03 -2.475144900381565094e-02 2.533021755516529083e-02 4.356562346220016479e-02 3.760086372494697571e-02 -4.252089932560920715e-02 1.820987649261951447e-02 4.243488609790802002e-02 -4.751716554164886475e-02 -2.020651474595069885e-02 4.807373881340026855e-02 -3.535764664411544800e-02 9.709124453365802765e-03 -1.714152470231056213e-02 -9.973057545721530914e-03 2.281167730689048767e-02 -4.602622240781784058e-02 -5.059954896569252014e-02 -1.638696878217160702e-03 4.288445785641670227e-02 -4.685956612229347229e-02 -9.586579166352748871e-03 3.572444990277290344e-02 3.512311354279518127e-02 5.039386451244354248e-02 2.244763635098934174e-02 3.058258676901459694e-03 -4.416324570775032043e-02 3.890769183635711670e-02 -1.957026869058609009e-02 -4.074016958475112915e-02 -1.673963665962219238e-02 -1.932025700807571411e-02 -1.928131096065044403e-02 -5.905470345169305801e-03 -4.320819303393363953e-02 -2.817506156861782074e-02 4.606393352150917053e-02 -2.294347062706947327e-02 -3.401072695851325989e-02 7.968124933540821075e-03 7.304765749722719193e-03 -1.176659017801284790e-02 -8.808555081486701965e-03 1.230080518871545792e-02 -2.669613435864448547e-02 -4.101759195327758789e-02 -3.704452142119407654e-02 -3.405785188078880310e-02 -3.276013210415840149e-02 3.626058250665664673e-02 4.589948803186416626e-02 -3.526147454977035522e-02 -2.007387019693851471e-02 -4.761545360088348389e-02 7.426206022500991821e-03 4.292467981576919556e-02 -7.092115003615617752e-03 2.171831391751766205e-02 3.775498270988464355e-02 -7.675663218833506107e-04 4.849587008357048035e-02 1.252394448965787888e-02 -8.249991573393344879e-03 -2.759590744972229004e-02 3.036543354392051697e-02 9.770233882591128349e-04 -4.030571132898330688e-02 3.275616466999053955e-02 -3.999491780996322632e-02 3.131589666008949280e-02 -3.969448059797286987e-02 -2.353120781481266022e-02 -8.725600317120552063e-03 -1.758411526679992676e-03 -3.113184869289398193e-02 1.093395240604877472e-02 2.425930928438901901e-03 -1.730971783399581909e-02 -4.578334838151931763e-02 -1.669922843575477600e-02 4.311545565724372864e-02 2.971590496599674225e-02 -2.153910323977470398e-02 2.482394874095916748e-02 1.633887179195880890e-02 -1.028780918568372726e-02 2.057288028299808502e-02 -4.387682303786277771e-02 -5.056530609726905823e-02 -2.076800912618637085e-02 -1.159963104873895645e-02 4.309354349970817566e-02 -3.414114192128181458e-02 -3.666032105684280396e-02 -3.331447392702102661e-02 2.397469244897365570e-02 -3.415382653474807739e-02 -3.232071176171302795e-02 -6.309459917247295380e-03 -4.094361513853073120e-02 1.120095141232013702e-02 3.640120103955268860e-02 -2.573167905211448669e-02 2.300045080482959747e-02 5.770941264927387238e-03 4.965888708829879761e-02 2.668976038694381714e-02 2.394081093370914459e-02 -4.296962544322013855e-02 -1.741842366755008698e-02 3.968925029039382935e-02 -2.938239276409149170e-02 -3.230011463165283203e-02 -5.979492794722318649e-03 6.233400199562311172e-03 -4.145934805274009705e-02 -2.978033944964408875e-02 -3.781437408179044724e-03 1.775306183844804764e-03 -6.047569680958986282e-03 -3.798199817538261414e-02 -3.090075775980949402e-02 1.722212322056293488e-02 1.488403789699077606e-02 -3.449708223342895508e-02 -4.100853577256202698e-02 -8.731482550501823425e-03 -3.243550285696983337e-02 -1.725580357015132904e-02 4.007989913225173950e-02 -8.705353364348411560e-03 2.573795057833194733e-02 -1.843835227191448212e-02 4.468832910060882568e-02 2.529918588697910309e-02 -5.225926288403570652e-04 -4.593318328261375427e-02 -3.707007691264152527e-02 1.019032113254070282e-02 2.945528551936149597e-02 4.358007758855819702e-02 -2.108958363533020020e-02 1.458759605884552002e-02 -1.053562015295028687e-02 9.041536599397659302e-03 -1.782135292887687683e-02 3.186329826712608337e-02 1.904674246907234192e-02 1.879379898309707642e-02 -6.119656562805175781e-02 1.514623127877712250e-02 2.259378135204315186e-02 2.720184810459613800e-02 -1.526264473795890808e-02 -1.880871690809726715e-02 1.489637047052383423e-02 -2.561285533010959625e-02 6.182037293910980225e-02 4.366008937358856201e-02 5.599223449826240540e-02 -3.837962821125984192e-02 -3.635786473751068115e-02 9.957973845303058624e-03 7.876163348555564880e-03 5.169772543013095856e-03 1.160177402198314667e-02 -2.359927073121070862e-02 1.909426786005496979e-02 -1.201095758005976677e-03 -5.575973913073539734e-02 -5.454484489746391773e-04 -4.636890254914760590e-03 -1.314913970418274403e-03 1.143367867916822433e-02 3.022644110023975372e-02 -1.110196020454168320e-02 -2.071358449757099152e-02 4.364411532878875732e-02 -6.119648460298776627e-03 6.408185511827468872e-02 -1.348814228549599648e-03 1.318775303661823273e-02 -2.154060080647468567e-02 -2.585295215249061584e-02 -1.999873109161853790e-02 3.547250106930732727e-02 2.062002569437026978e-02 -3.966080397367477417e-02 6.509993970394134521e-02 5.442855134606361389e-02 -1.674156053923070431e-03 5.595788732171058655e-02 -4.080840572714805603e-02 -5.639847740530967712e-02 7.389795035123825073e-03 4.681527987122535706e-02 -4.322221968322992325e-03 -7.163764908909797668e-03 1.741207577288150787e-02 -3.865755721926689148e-02 1.160109881311655045e-02 -4.054539278149604797e-02 5.299822241067886353e-02 2.939843200147151947e-02 5.903097242116928101e-02 3.857795521616935730e-02 1.152935437858104706e-02 -2.412272617220878601e-02 -5.501859821379184723e-03 -3.790485486388206482e-02 -2.348297275602817535e-02 -1.433629821985960007e-02 -1.516391616314649582e-02 -4.160106182098388672e-02 -7.963068783283233643e-03 -1.221763435751199722e-02 -3.712546825408935547e-02 3.260933980345726013e-02 3.476419299840927124e-02 3.925510495901107788e-02 4.518103972077369690e-02 -4.837198182940483093e-02 -2.902204170823097229e-02 -4.540648683905601501e-02 7.257847581058740616e-03 -2.271375246345996857e-02 1.073205564171075821e-02 -3.645054250955581665e-02 4.416298866271972656e-02 -1.956062763929367065e-02 2.269945666193962097e-02 2.418209612369537354e-02 2.339026890695095062e-02 -4.297319054603576660e-02 -3.629292128607630730e-03 -5.191388539969921112e-03 3.919643908739089966e-02 -2.388853766024112701e-02 -1.855567097663879395e-02 -4.350059479475021362e-02 -3.630947321653366089e-02 3.918639197945594788e-02 -1.710928976535797119e-02 2.834000252187252045e-02 -3.285919129848480225e-02 8.176610805094242096e-03 -4.303223919123411179e-03 -2.197564207017421722e-02 -1.762229576706886292e-02 -2.627180702984333038e-02 -3.306781873106956482e-02 1.634765416383743286e-02 -1.643398217856884003e-02 -2.595537155866622925e-02 -4.359625652432441711e-02 -4.690472409129142761e-02 7.227782043628394604e-04 2.202912792563438416e-02 2.835420705378055573e-02 2.417245507240295410e-02 -1.909893564879894257e-02 1.331214420497417450e-02 3.652445971965789795e-02 7.792715448886156082e-03 -2.273361384868621826e-02 -2.933571860194206238e-02 -1.483708340674638748e-02 4.509383067488670349e-02 -4.631581902503967285e-02 2.813108265399932861e-03 -2.929698489606380463e-02 -3.557087853550910950e-02 3.540122136473655701e-02 2.242092229425907135e-02 2.570688538253307343e-02 -2.118821442127227783e-02 -3.404086828231811523e-02 -2.142907865345478058e-02 2.255200035870075226e-02 -2.637973427772521973e-02 3.338772803544998169e-02 -9.576629847288131714e-03 -2.604793384671211243e-02 -1.255719084292650223e-02 -1.494775642640888691e-03 1.010442152619361877e-02 -1.317156199365854263e-02 2.881121076643466949e-02 -3.618900850415229797e-02 2.974515222012996674e-02 4.758710041642189026e-02 -5.302777048200368881e-03 -6.591603625565767288e-03 -4.027671739459037781e-02 2.509443834424018860e-02 1.204193849116563797e-02 3.029324347153306007e-03 -5.279414728283882141e-02 2.479963004589080811e-02 -2.944810502231121063e-02 2.766869030892848969e-02 1.921365223824977875e-02 -3.749308362603187561e-02 -9.312517940998077393e-03 2.865014830604195595e-03 -4.133083671331405640e-02 -3.810283169150352478e-02 1.272380352020263672e-02 4.562785848975181580e-02 4.742220416665077209e-02 -1.829402334988117218e-02 -2.815516851842403412e-02 4.520406946539878845e-02 2.182987518608570099e-02 4.250023979693651199e-03 4.245756193995475769e-02 -2.754254266619682312e-03 6.741684675216674805e-02 5.872139334678649902e-02 6.452427804470062256e-02 9.621471166610717773e-03 2.176833897829055786e-02 -9.691345505416393280e-03 -1.880204118788242340e-02 1.442848052829504013e-02 5.098752677440643311e-02 -1.711824908852577209e-02 -1.581347733736038208e-02 -1.400229055434465408e-02 2.404199913144111633e-02 1.942591555416584015e-02 4.596618562936782837e-02 -2.074092812836170197e-02 2.762695774435997009e-02 1.133022084832191467e-02 2.311549149453639984e-02 9.280609898269176483e-03 3.434089943766593933e-02 4.582206904888153076e-02 -3.152706846594810486e-02 -4.931711032986640930e-02 -3.952019661664962769e-02 -2.088674809783697128e-03 4.463781788945198059e-02 4.788083955645561218e-02 1.002783700823783875e-02 4.592007398605346680e-02 1.602553576231002808e-02 -1.177853345870971680e-02 -2.290269732475280762e-02 4.205789789557456970e-02 2.059547603130340576e-02 -4.398168623447418213e-02 -3.846928477287292480e-02 -3.525068983435630798e-02 -2.114453911781311035e-02 -3.911378979682922363e-02 8.354008197784423828e-03 1.132359378971159458e-03 -1.704580150544643402e-02 3.204643353819847107e-02 -2.458839863538742065e-02 2.011922188103199005e-02 1.070578675717115402e-02 -1.096823159605264664e-02 4.656265303492546082e-02 -5.301838275045156479e-03 1.669927127659320831e-02 -4.209807887673377991e-02 -3.853081539273262024e-02 3.532538563013076782e-02 4.620948433876037598e-02 1.146630290895700455e-02 -1.882406137883663177e-02 -5.799023900181055069e-03 -4.682618007063865662e-02 4.526679590344429016e-02 -2.576810866594314575e-02 -4.447120428085327148e-02 2.641268074512481689e-02 4.831270501017570496e-02 -1.686948351562023163e-02 3.416037559509277344e-02 -1.579222641885280609e-02 -3.412587568163871765e-02 -3.840233758091926575e-02 -1.987206935882568359e-02 2.578416652977466583e-02 2.856400422751903534e-02 1.248758286237716675e-02 4.457727447152137756e-02 2.094493806362152100e-02 4.147823527455329895e-02 4.537380486726760864e-02 -2.155693806707859039e-02 2.109290845692157745e-02 1.337859313935041428e-02 -4.685556516051292419e-02 -3.080978291109204292e-03 2.574713900685310364e-02 4.360464867204427719e-03 -2.624335885047912598e-02 -2.757268771529197693e-02 1.387123297899961472e-02 4.464729875326156616e-02 -2.502257190644741058e-02 -3.211399167776107788e-02 1.909058727324008942e-02 4.388846457004547119e-02 2.917288802564144135e-03 -2.123583294451236725e-02 3.850840777158737183e-02 -1.327622402459383011e-02 1.621490344405174255e-02 -2.624364569783210754e-03 3.445242345333099365e-02 -1.263527851551771164e-02 -1.287219952791929245e-02 1.559503003954887390e-02 1.301696710288524628e-02 3.855986148118972778e-02 4.228583350777626038e-02 1.506607048213481903e-02 -3.369222162291407585e-03 1.528453547507524490e-02 7.904614321887493134e-03 3.936219215393066406e-02 2.389931492507457733e-02 -3.991091623902320862e-02 -3.790602460503578186e-02 5.241794884204864502e-02 1.668622344732284546e-02 -2.784154750406742096e-02 -4.170448053628206253e-03 -3.082374855875968933e-02 7.537957280874252319e-03 -1.210769452154636383e-02 5.779559796792455018e-05 4.936747625470161438e-02 3.126567602157592773e-02 -1.971485465764999390e-02 1.752659119665622711e-02 -3.322039172053337097e-02 -2.396938204765319824e-02 -3.138409182429313660e-02 -2.553284913301467896e-02 2.315133437514305115e-02 -3.567403554916381836e-02 -1.086362730711698532e-02 5.547479260712862015e-03 -1.430416852235794067e-02 4.194841161370277405e-02 -1.974344812333583832e-02 1.545957289636135101e-02 5.615483969449996948e-03 3.620998933911323547e-02 -4.923943895846605301e-03 8.462992496788501740e-03 2.321905829012393951e-02 -3.552645072340965271e-02 1.027118135243654251e-02 -3.666831413283944130e-03 1.219187490642070770e-02 -2.009023725986480713e-02 -4.151025786995887756e-02 2.300921268761157990e-02 -7.720928639173507690e-03 -4.916100576519966125e-02 3.958744928240776062e-02 2.423239871859550476e-02 1.275543682277202606e-02 -2.939797565340995789e-02 -4.097925871610641479e-02 -7.474104873836040497e-03 1.287932507693767548e-02 -4.835179448127746582e-02 3.012351132929325104e-02 6.901200395077466965e-03 5.254755262285470963e-03 1.640378125011920929e-02 2.228963747620582581e-02 2.747478708624839783e-02 -1.089876797050237656e-02 4.294793307781219482e-02 -2.733286283910274506e-02 3.322152048349380493e-02 -2.606043592095375061e-02 5.017998814582824707e-02 1.204008795320987701e-02 3.182668983936309814e-02 -3.609206154942512512e-02 -8.932652883231639862e-03 -4.508783668279647827e-02 -1.047967467457056046e-02 -2.694435045123100281e-02 -2.576909586787223816e-02 3.978843986988067627e-02 -1.182696549221873283e-03 -3.666976839303970337e-02 4.798885062336921692e-02 2.725928649306297302e-02 4.750468954443931580e-02 2.075881138443946838e-02 8.906539529561996460e-03 -1.539684552699327469e-02 2.756808884441852570e-02 2.437395788729190826e-02 -4.573389142751693726e-02 -3.800681233406066895e-02 -3.456824272871017456e-02 -2.535392530262470245e-02 3.738434240221977234e-02 5.024747550487518311e-02 3.649779362604022026e-03 -3.958154097199440002e-02 4.495351016521453857e-02 2.115459181368350983e-02 -1.852843910455703735e-02 -8.117165416479110718e-03 4.258615896105766296e-02 3.597373887896537781e-02 -5.000291764736175537e-02 -4.011588543653488159e-02 -4.124481603503227234e-02 -2.746449038386344910e-02 4.634711891412734985e-03 2.178251184523105621e-02 3.772340714931488037e-02 4.784824326634407043e-02 -2.023244649171829224e-02 1.717460341751575470e-02 4.238535463809967041e-02 4.725406691431999207e-02 3.028938919305801392e-02 -1.598933339118957520e-02 -3.387186303734779358e-02 3.385887295007705688e-02 7.863872684538364410e-03 4.614005982875823975e-02 2.480120630934834480e-03 -4.038986563682556152e-02 3.092692047357559204e-02 -4.549997299909591675e-02 2.191226184368133545e-02 1.357348076999187469e-02 -7.111807353794574738e-03 4.926991090178489685e-02 -4.184563830494880676e-02 2.688870020210742950e-02 4.650638625025749207e-02 1.274892501533031464e-02 3.006403706967830658e-02 2.986558713018894196e-02 -3.409732505679130554e-02 2.409858442842960358e-02 -1.372982375323772430e-02 -4.409359302371740341e-03 -4.557657241821289062e-02 -4.799532890319824219e-02 3.979444038122892380e-03 2.593305660411715508e-03 -2.312355861067771912e-02 3.148268535733222961e-02 -9.635005146265029907e-03 2.622838690876960754e-02 2.260285988450050354e-02 -8.319345302879810333e-03 3.576862066984176636e-02 -3.379733487963676453e-02 4.938716068863868713e-03 8.932637050747871399e-03 -8.966502733528614044e-03 -4.623001441359519958e-02 4.421362653374671936e-02 4.869062919169664383e-03 -6.584042683243751526e-03 2.565933018922805786e-02 2.647335827350616455e-02 -4.186150617897510529e-03 -4.394984617829322815e-02 -3.516056574881076813e-03 7.885495200753211975e-03 -1.584056392312049866e-02 -1.696102507412433624e-02 3.264944627881050110e-02 4.897520877420902252e-03 -3.959626704454421997e-02 8.318081963807344437e-04 -2.844862826168537140e-02 -1.774299517273902893e-02
5.489300005137920380e-03 -3.059277683496475220e-02 3.636385500431060791e-02 3.385549783706665039e-02 -1.397244352847337723e-02 2.611770294606685638e-02 1.321423891931772232e-02 -3.391485288739204407e-02 7.182253897190093994e-02 -1.848257891833782196e-02 -2.502025477588176727e-02 -5.533617362380027771e-02 -2.315244404599070549e-03 -7.186851929873228073e-03 -1.760290935635566711e-02 6.554590910673141479e-02 2.241298352601006627e-04 -1.081011723726987839e-02 -3.241567686200141907e-02 -3.483620937913656235e-03 3.629442653618752956e-04 -2.921766228973865509e-02 -8.828606456518173218e-03 -4.974620789289474487e-02 -4.594041034579277039e-02 -3.174671158194541931e-02 3.675549849867820740e-02 -5.024333670735359192e-02 -2.664530090987682343e-02 -3.455862402915954590e-02 4.011613130569458008e-02 3.516247496008872986e-02 3.543948009610176086e-02 3.057667985558509827e-02 1.614160649478435516e-02 4.193490371108055115e-02 2.614809945225715637e-02 1.827169768512248993e-02 5.039929971098899841e-02 1.466408092528581619e-02 5.914185568690299988e-02 -3.658140776678919792e-03 -4.413628578186035156e-02 2.966393018141388893e-03 4.936113581061363220e-02 4.468959197402000427e-02 4.892069846391677856e-02 3.116822056472301483e-02 -1.025158818811178207e-02 4.084709286689758301e-02 -3.204987943172454834e-02 2.744163759052753448e-02 1.059579756110906601e-02 5.530892522074282169e-04 -1.740200817584991455e-02 -2.009881474077701569e-02 4.538763314485549927e-03 -4.151105508208274841e-02 2.257277257740497589e-02 9.412972256541252136e-03 -8.707943372428417206e-03 1.971047371625900269e-03 -3.893327713012695312e-02 4.480740055441856384e-02 3.923615068197250366e-02 -1.837131753563880920e-02 4.598432034254074097e-02 -3.322038426995277405e-02 1.247985661029815674e-02 4.684283211827278137e-02 -3.341346606612205505e-02 1.166491862386465073e-02 2.501595392823219299e-02 3.341202624142169952e-03 3.493272513151168823e-02 -4.220116138458251953e-02 3.644309937953948975e-02 -4.841213580220937729e-03 4.983586724847555161e-03 -2.146209124475717545e-03 2.181567810475826263e-02 -2.328315982595086098e-03 -3.915687277913093567e-02 -4.281733557581901550e-02 -4.275092110037803650e-02 2.346461638808250427e-02 1.214418280869722366e-02 1.590967550873756409e-02 -2.869386225938796997e-02 -3.320306912064552307e-02 1.886077225208282471e-02 -4.823440220206975937e-03 -4.790095612406730652e-02 -2.453466132283210754e-02 2.438855916261672974e-02 3.353365883231163025e-02 -2.229197137057781219e-02 -1.213280856609344482e-02 -2.571301301941275597e-03 1.378997135907411575e-02 4.656068980693817139e-02 -2.172387205064296722e-02 2.771718055009841919e-02 -5.174149200320243835e-02 1.136969658546149731e-03 1.086940173991024494e-03 -1.012527663260698318e-02 -1.651420071721076965e-02 -2.869015187025070190e-02 4.632866382598876953e-02 -4.722279682755470276e-02 1.719698123633861542e-02 -1.619909331202507019e-02 -3.485830873250961304e-02 -5.593532696366310120e-03 -1.393890753388404846e-02 4.145926982164382935e-02 9.290146408602595329e-04 3.065164759755134583e-02 -3.964183852076530457e-02 3.282655403017997742e-02 -7.084971293807029724e-03 6.470223423093557358e-03 1.779556460678577423e-02 2.437813580036163330e-02 4.124213382601737976e-02 -3.569781407713890076e-02 -2.163008600473403931e-02 -3.890470834448933601e-03 -4.927010461688041687e-02 3.644342720508575439e-02 2.616652287542819977e-02 -3.560430184006690979e-02 2.830690145492553711e-02 -2.827465347945690155e-02 1.042908336967229843e-02 1.564980298280715942e-02 2.745546773076057434e-02 4.103224352002143860e-02 5.109684541821479797e-03 -4.498219117522239685e-02 1.639489829540252686e-02 -5.798277910798788071e-03 -2.616570331156253815e-02 2.301898412406444550e-02 2.858333289623260498e-02 1.102103665471076965e-02 7.723294547758996487e-04 -3.202296793460845947e-02 3.925155103206634521e-02 2.806825935840606689e-02 -3.852134570479393005e-02 -2.344041503965854645e-02 -7.037099567241966724e-04 2.625655382871627808e-02 2.641875483095645905e-02 -1.630795933306217194e-02 -1.201638858765363693e-02 2.337662503123283386e-02 3.576324880123138428e-02 5.394203215837478638e-02 1.973288692533969879e-02 -2.795099094510078430e-02 -2.514519542455673218e-02 -1.639879122376441956e-02 5.190738290548324585e-02 -2.955691143870353699e-02 -3.510277345776557922e-02 4.105471074581146240e-02 7.213554810732603073e-03 1.987057179212570190e-02 -2.840216085314750671e-02 -2.992574870586395264e-02 -3.320115804672241211e-02 -3.184271231293678284e-02 -4.381680116057395935e-02 -7.757416460663080215e-03 4.891127347946166992e-02 -1.542463339865207672e-02 -2.206129021942615509e-02 -4.486746340990066528e-02 5.904679745435714722e-02 2.476985752582550049e-02 1.487473055021837354e-04 -3.143987804651260376e-02 3.695464879274368286e-02 4.608009755611419678e-02 1.584458351135253906e-02 3.905084449797868729e-03 7.402764167636632919e-03 1.647681742906570435e-02 -3.915145993232727051e-03 -4.325586557388305664e-02 -1.261707302182912827e-02 5.354230292141437531e-03 2.140010334551334381e-02 6.358878687024116516e-03 -1.336667779833078384e-02 4.169525578618049622e-03 2.946715615689754486e-02 5.377630889415740967e-02 2.934979088604450226e-02 -1.137418765574693680e-02 1.037602126598358154e-02 -4.870678856968879700e-02 4.798334091901779175e-02 2.954949811100959778e-02 -6.158567965030670166e-03 2.630408387631177902e-03 -4.442726820707321167e-02 -2.908750995993614197e-02 1.084099151194095612e-02 5.653836415149271488e-04 3.405143320560455322e-02 -3.646469116210937500e-02 -5.033222213387489319e-02 -1.256277225911617279e-02 -3.308843076229095459e-02 1.349173020571470261e-02 -5.794620141386985779e-02 -2.521066553890705109e-02 3.478267043828964233e-02 3.351898118853569031e-02 -7.169127464294433594e-03 1.744954474270343781e-02 -3.183447115588933229e-04 2.274825237691402435e-02 -2.651956304907798767e-02 -3.226225450634956360e-02 4.313928261399269104e-02 -1.847046241164207458e-02 1.978938467800617218e-02 -9.023667313158512115e-03 2.358515746891498566e-02 6.874659447930753231e-04 -3.067568177357316017e-03 -4.090213775634765625e-02 -2.743942476809024811e-02 -3.296031057834625244e-02 4.263778403401374817e-02 6.664540152996778488e-03 3.009068407118320465e-02 -2.834037877619266510e-02 3.762299194931983948e-02 -4.742341488599777222e-02 4.510872811079025269e-02 2.108644880354404449e-02 -2.127824351191520691e-02 -4.297305829823017120e-03 1.531216409057378769e-02 -1.218062639236450195e-02 -1.066761184483766556e-02 1.707789674401283264e-02 4.516585543751716614e-02 -3.179385885596275330e-02 9.979688562452793121e-03 -2.035614289343357086e-02 3.321768250316381454e-03 6.827644538134336472e-04 4.697654396295547485e-02 2.667159773409366608e-02 -3.802467137575149536e-02 -4.042815044522285461e-02 2.655298914760351181e-03 2.826771140098571777e-02 -3.553527221083641052e-02 5.106372758746147156e-02 -2.556688711047172546e-02 -1.334600802510976791e-02 -2.689727768301963806e-02 -1.222755201160907745e-02 2.159333415329456329e-02 -4.368954896926879883e-02 -3.172277286648750305e-02 4.624575749039649963e-02 4.546522721648216248e-02 -6.366939283907413483e-03 -1.670988649129867554e-02 4.226557537913322449e-02 3.502214793115854263e-03 -1.457142177969217300e-02 4.361017048358917236e-02 1.990570873022079468e-02 -4.104363173246383667e-02 4.328129068017005920e-02 -7.478392682969570160e-03 3.651700913906097412e-02 -4.449529200792312622e-02 1.545375399291515350e-02 -4.575429111719131470e-02 -1.216904912143945694e-02 3.971063345670700073e-02 3.504735231399536133e-02 3.042249009013175964e-02 1.027266029268503189e-02 -1.373330596834421158e-02 -1.906327903270721436e-02 -2.959462068974971771e-02 4.355052486062049866e-02 -1.916334964334964752e-02 3.854690864682197571e-02 -2.382462657988071442e-02 1.774692907929420471e-02 2.851537987589836121e-02 -2.359938248991966248e-02 2.624635398387908936e-02 -3.048765705898404121e-03 -1.898786425590515137e-02 -1.530147343873977661e-02 -2.545023150742053986e-02 -2.484082803130149841e-02 -1.006984896957874298e-02 -3.123123012483119965e-02 -3.206638619303703308e-02 -3.821648284792900085e-02 2.420676499605178833e-02 -3.291682153940200806e-02 3.404299542307853699e-02 -3.133464232087135315e-02 1.615364849567413330e-02 -3.173486515879631042e-02 1.972518116235733032e-02 -4.116253927350044250e-02 2.321479097008705139e-02 -3.400056809186935425e-02 -2.771310741081833839e-03 4.467904940247535706e-02 -4.302015528082847595e-02 2.495761495083570480e-03 2.825523726642131805e-02 -3.341384604573249817e-02 6.590476725250482559e-03 1.102944370359182358e-02 -4.635924473404884338e-02 -2.329020947217941284e-02 9.765250608325004578e-03 -1.440076250582933426e-02 2.113711275160312653e-02 -4.712561890482902527e-02 -5.301635246723890305e-03 -5.853522103279829025e-03 3.844534233212471008e-02 4.456838965415954590e-02 -4.836767911911010742e-02 -1.944594644010066986e-02 4.893881082534790039e-02 -2.569432184100151062e-02 -2.565963566303253174e-02 -8.523195981979370117e-03 4.781962931156158447e-02 2.231759764254093170e-02 -5.734660662710666656e-04 -4.798526316881179810e-02 3.567630657926201820e-03 1.976038143038749695e-02 2.602514624595642090e-02 -8.208897896111011505e-03 -6.192892789840698242e-03 4.767619445919990540e-02 -2.650357224047183990e-02 1.348112826235592365e-03 5.088968919153558090e-06 3.120626322925090790e-02 2.452780865132808685e-02 1.018120441585779190e-02 1.179708819836378098e-02 -8.855596184730529785e-03 -3.248456865549087524e-02 3.289732150733470917e-03 4.500109702348709106e-02 -2.690800838172435760e-02 -2.652286551892757416e-02 -3.243755921721458435e-02 -5.051711946725845337e-02 7.896405644714832306e-03 9.903312660753726959e-03 -8.506833110004663467e-04 1.267022639513015747e-02 -3.388646245002746582e-02 -4.383526742458343506e-03 -2.652257680892944336e-02 -3.076798841357231140e-02 1.202030014246702194e-02 -2.524698385968804359e-03 4.971706308424472809e-03 -2.320599183440208435e-02 4.103133920580148697e-03 4.391122609376907349e-02 -2.033708430826663971e-02 2.302319742739200592e-02 -9.791052434593439102e-05 -4.435143247246742249e-02 4.162271041423082352e-03 -3.831506147980690002e-02 2.628878224641084671e-03 1.196205988526344299e-02 4.773460328578948975e-02 -2.491716668009757996e-02 5.353130865842103958e-03 -3.024042584002017975e-02 1.826253719627857208e-02 -1.659956388175487518e-02 1.957337185740470886e-02 3.495393320918083191e-02 -1.943484693765640259e-02 -1.930152066051959991e-02 9.891605935990810394e-03 -1.976845227181911469e-02 1.856106333434581757e-02 3.516605868935585022e-02 5.040028132498264313e-03 4.278292879462242126e-02 4.758109524846076965e-02 4.197580739855766296e-02 2.267126552760601044e-02 1.424660719931125641e-02 4.532093554735183716e-02 4.387241974472999573e-02 1.846229843795299530e-02 -3.118396364152431488e-02 -7.491503842175006866e-03 -2.737894281744956970e-02 1.054705213755369186e-02 3.586728498339653015e-02 -4.462588205933570862e-02 -1.043175067752599716e-02 4.124245140701532364e-03 8.601160719990730286e-03 -4.957921802997589111e-02 4.883385077118873596e-02 3.182152286171913147e-02 -1.154474634677171707e-02 2.192433178424835205e-02 -1.095987483859062195e-02 -8.688887581229209900e-03 1.006226614117622375e-02 -2.056325599551200867e-02 -4.374481365084648132e-02 2.683070860803127289e-02 5.444535985589027405e-02 1.518469024449586868e-02 2.871009521186351776e-02 -1.146795134991407394e-02 -3.216703236103057861e-02 2.501826919615268707e-02 2.822630852460861206e-02 3.503644466400146484e-02 -2.748378366231918335e-02 2.031729556620121002e-02 2.952946163713932037e-02 -2.805826952680945396e-03 -2.254056185483932495e-02 -8.692737319506704807e-04 3.773120045661926270e-02 4.374112561345100403e-02 1.587638817727565765e-02 8.868235163390636444e-03 -2.236484736204147339e-02 3.113208338618278503e-03 -5.559894815087318420e-02 2.189351990818977356e-02 3.007005713880062103e-02 8.392906747758388519e-03 3.291451558470726013e-02 -3.356927540153264999e-03 -4.081630706787109375e-02 -3.015176579356193542e-02 1.088446471840143204e-02 5.973521620035171509e-03 9.827993810176849365e-03 5.106797814369201660e-02 -3.314697369933128357e-02 -4.222898557782173157e-02 1.870747655630111694e-02 8.208479732275009155e-03 1.244792342185974121e-02 -2.118295431137084961e-02 -8.517036214470863342e-03 -3.935163840651512146e-02 -2.910755947232246399e-02 -1.470081601291894913e-02 3.538103401660919189e-02 4.161430150270462036e-02 -2.455463074147701263e-02 -4.589551687240600586e-02 4.983077943325042725e-02 5.498423427343368530e-02 -1.066037453711032867e-02 3.452930226922035217e-02 1.205328945070505142e-02 4.097379744052886963e-02 1.092906948179006577e-02 4.168624058365821838e-02 3.436073288321495056e-02 3.539945185184478760e-02 -1.248779334127902985e-02 1.421232242137193680e-02 -2.620453946292400360e-02 3.759330883622169495e-02 -2.834862656891345978e-02 -2.607786655426025391e-02 8.422185666859149933e-03 -2.334656938910484314e-02 4.719151556491851807e-02 7.018733303993940353e-03 -4.360099509358406067e-02 1.241428684443235397e-02 -4.321891441941261292e-02 -3.521852940320968628e-02 5.945465713739395142e-02 -2.130685374140739441e-02 6.024530623108148575e-03 -3.697401657700538635e-02 3.201290965080261230e-02 -3.938645869493484497e-02 5.779717466793954372e-04 -3.706187009811401367e-02 3.895634040236473083e-02 -1.530028786510229111e-02 -5.027425941079854965e-04 -1.929651573300361633e-02 -4.825010895729064941e-02 2.019963786005973816e-02 1.390765421092510223e-02 3.689903067424893379e-03 -5.039822310209274292e-03 -1.747684553265571594e-02 3.287713974714279175e-02 -1.556317973881959915e-02 3.075268119573593140e-02 -3.987316042184829712e-02 2.267526835203170776e-02 2.528654970228672028e-02 -8.352722972631454468e-03 3.209452703595161438e-02 -4.252475500106811523e-02 -1.785145513713359833e-02 3.253487497568130493e-02 -1.791545376181602478e-02 -1.190132647752761841e-02 1.371737103909254074e-02 -2.432842366397380829e-02 7.037686649709939957e-03 3.902852535247802734e-02 2.689876593649387360e-02 4.213180765509605408e-02 3.608494997024536133e-02 -4.709281027317047119e-02 4.697871208190917969e-02 -2.245412766933441162e-02 4.020999372005462646e-02 4.328741878271102905e-02 -3.737199353054165840e-03 9.683619253337383270e-03 1.870705932378768921e-02 -5.251890048384666443e-03 2.655304968357086182e-02 4.623507708311080933e-02 -1.575138792395591736e-02 2.261704066768288612e-03 -2.683755569159984589e-02 5.993576720356941223e-03 4.840176925063133240e-02 4.249892756342887878e-02 -1.211205869913101196e-02 1.818657293915748596e-02 3.459766879677772522e-02 -2.464431151747703552e-02 1.141996122896671295e-02 -3.995961695909500122e-02 4.267073050141334534e-02 -3.647570312023162842e-02 4.499627277255058289e-02 -1.825075596570968628e-02 9.095924906432628632e-03 -3.586367890238761902e-02 5.820606648921966553e-02 -1.047181710600852966e-02 4.784236475825309753e-02 2.814972028136253357e-02 -2.684015035629272461e-02 -2.844009548425674438e-02 -4.666955396533012390e-02 -8.695514872670173645e-03 2.257253788411617279e-02 2.950356714427471161e-02 2.847454324364662170e-02 -4.489931836724281311e-02 3.818235173821449280e-02 5.486487224698066711e-02 2.640171162784099579e-02 2.717325463891029358e-02 4.550165310502052307e-02 -2.610807120800018311e-02 2.324377186596393585e-02 -7.948944345116615295e-03 -4.189081862568855286e-02 -2.108287997543811798e-02 4.706996679306030273e-02 -2.309396304190158844e-02 -1.753291301429271698e-02 -1.302553340792655945e-02 -2.948259189724922180e-02 -3.077430091798305511e-02 4.310217127203941345e-02 1.505809277296066284e-02 1.230071578174829483e-02 -1.013092696666717529e-02 4.218691214919090271e-02 1.438422035425901413e-02 1.491210609674453735e-02 1.365740597248077393e-02 -4.026542231440544128e-02 -3.052356839179992676e-02 -3.409011289477348328e-02 3.780457377433776855e-02 2.719281986355781555e-02 -4.219983890652656555e-02 3.536934778094291687e-02 4.770472645759582520e-02 2.926602028310298920e-02 -1.575757935643196106e-02 1.107169501483440399e-02 1.839055866003036499e-02 -1.405517105013132095e-02 4.602840170264244080e-02 -2.217249758541584015e-02 -9.132284671068191528e-03 -1.084237452596426010e-02 -3.414597734808921814e-02 1.330682076513767242e-02 4.486754536628723145e-02 -2.700769715011119843e-02 -1.394481956958770752e-02 1.585820689797401428e-02 -1.369026303291320801e-02 -1.558851543813943863e-02 1.879626512527465820e-02 4.822110757231712341e-03 2.260989882051944733e-02 3.814311698079109192e-02 3.802621038630604744e-03 4.662998020648956299e-02 2.660948596894741058e-02 -3.815264627337455750e-02 -2.585427090525627136e-02 4.094803333282470703e-02 -4.069751873612403870e-02 -5.710605066269636154e-03 3.053709864616394043e-02 -5.122380331158638000e-02 -7.662425749003887177e-03 -3.872030228376388550e-02 3.144577378407120705e-03 -4.408052191138267517e-02 4.660775139927864075e-02 -1.882150024175643921e-02 1.517270784825086594e-02 1.074666064232587814e-02 -5.247255321592092514e-03 4.078687354922294617e-02 5.817449185997247696e-03 -4.599787760525941849e-03 1.768346689641475677e-02 7.879245094954967499e-03 -2.369515784084796906e-02 3.123417310416698456e-02 2.171347290277481079e-02 -1.272716745734214783e-02 -9.710777550935745239e-03 5.123824626207351685e-02 -3.342255204916000366e-02 2.625821158289909363e-03 5.222906544804573059e-02 1.015320420265197754e-02 -8.268128149211406708e-03 1.446652319282293320e-02 5.322704091668128967e-02 -2.246474474668502808e-02 9.123094496317207813e-04 -3.292199596762657166e-02 2.687412314116954803e-02 -4.894946701824665070e-03 -1.321118883788585663e-02 -3.024609945714473724e-02 -1.069966144859790802e-02 1.245854981243610382e-02 5.003842338919639587e-02 -2.713332138955593109e-02 -3.198289126157760620e-02 -1.068578753620386124e-02 -5.738582462072372437e-03 9.381651761941611767e-04 -4.866055771708488464e-02 1.275170780718326569e-02 4.233729466795921326e-02 -2.822370827198028564e-02 -6.953604985028505325e-03 -3.993582352995872498e-02 -4.421309381723403931e-02 -2.421189844608306885e-02 1.690082624554634094e-02 -4.541236907243728638e-02 -1.399525720626115799e-02 5.496286973357200623e-02 -2.973675541579723358e-02 -2.590368874371051788e-02 2.007308416068553925e-02 3.915140032768249512e-02 -2.801853045821189880e-02 3.538092225790023804e-02 1.727544888854026794e-02 -2.882279455661773682e-02 4.507926106452941895e-02 -1.475063804537057877e-02 -1.418864633888006210e-02 1.203466393053531647e-02 5.112876743078231812e-02 -3.344072960317134857e-03 -3.209104016423225403e-02 -3.580034896731376648e-02 4.204013198614120483e-02 8.421763777732849121e-03 4.741581529378890991e-02 -1.015769690275192261e-02 -3.890110179781913757e-02 4.107438027858734131e-02 2.217911183834075928e-02 3.746424615383148193e-02 -3.797183558344841003e-02 -4.409015178680419922e-02 -2.918294444680213928e-02 -9.139525704085826874e-03 -3.111258614808320999e-03 -4.164746403694152832e-02 1.065424177795648575e-02 1.325580105185508728e-02 -9.685878641903400421e-03 4.100734740495681763e-02 9.164986200630664825e-03 3.075719811022281647e-02 -3.762499243021011353e-02 -2.502477727830410004e-02 2.037657052278518677e-02 8.949365466833114624e-03 1.247451454401016235e-02 -2.744110859930515289e-02 2.821138873696327209e-02 1.888692192733287811e-02 -4.213529452681541443e-02 -3.565108031034469604e-02 3.630359470844268799e-02 4.086348414421081543e-02 9.540271945297718048e-03 3.955047577619552612e-02 2.320439741015434265e-02 -3.305619955062866211e-02 3.478211909532546997e-02 -3.236382082104682922e-02 5.105745047330856323e-03 4.656919836997985840e-02 1.295625045895576477e-02 5.429687909781932831e-03 4.805565252900123596e-02 1.621389761567115784e-02 -1.700323633849620819e-02 -2.845103852450847626e-03 -2.214009501039981842e-02 1.104389876127243042e-02 3.037387877702713013e-02 -9.209857089444994926e-04 -1.568810828030109406e-02 4.617463797330856323e-02 1.458120159804821014e-02 -9.545897133648395538e-03 2.479854039847850800e-02 -1.811988465487957001e-02 -4.050065204501152039e-02 2.458099275827407837e-02 -5.082145705819129944e-02 3.229106217622756958e-02 -3.924116864800453186e-02 4.377222806215286255e-02 5.248106643557548523e-02 3.280171193182468414e-03 -1.975684612989425659e-02 2.614957839250564575e-02 7.122255396097898483e-03 -2.249927446246147156e-02 -2.897032536566257477e-03 3.694535046815872192e-02 2.042349986732006073e-02 3.998403996229171753e-02 -9.705372154712677002e-03 -2.708294801414012909e-02 -2.742055058479309082e-02 -7.122218143194913864e-03 1.580953598022460938e-02 2.432171441614627838e-02 1.197515241801738739e-02 9.972422383725643158e-03 5.477847531437873840e-03 -2.372613875195384026e-03 -1.143964380025863647e-02 -3.094891645014286041e-02 5.612831562757492065e-03 3.811499848961830139e-02 -3.128680586814880371e-02 -1.048059947788715363e-02 -2.754960767924785614e-02 2.112511172890663147e-02 6.215635687112808228e-03 1.416565850377082825e-02 3.112391754984855652e-02 2.709284424781799316e-02 5.324886739253997803e-02 -4.929655417799949646e-02 6.575439870357513428e-02 4.728658124804496765e-03 -2.136545814573764801e-02 -4.608667269349098206e-02 -2.105245366692543030e-02 2.125682123005390167e-02 2.571017667651176453e-02 2.933496795594692230e-02 -4.770858958363533020e-02 2.810944058001041412e-02 -1.137485634535551071e-02 2.818525582551956177e-02 1.669199205935001373e-02 -3.200301900506019592e-02 -1.127134263515472412e-02 -2.276013046503067017e-02 -4.800592362880706787e-02 8.892779238522052765e-03 -3.898064792156219482e-02 1.135822478681802750e-02 -1.553980913013219833e-02 3.283078223466873169e-02 -3.027745708823204041e-02 5.042362958192825317e-02 4.750568047165870667e-02 3.141438961029052734e-02 2.926164679229259491e-02 -1.128734834492206573e-02 2.111008577048778534e-02 2.227114047855138779e-03 3.356881067156791687e-02 2.355145663022994995e-02 -4.836453869938850403e-02 -4.216987267136573792e-02 -1.091702096164226532e-02 -3.912845626473426819e-02 -8.782436139881610870e-03 -4.041336849331855774e-02 -3.364834189414978027e-02 -2.758027520030736923e-03 1.641791313886642456e-02 -2.107248455286026001e-02 -4.970828071236610413e-02 -2.471812628209590912e-02 2.562123537063598633e-02 -3.556753322482109070e-02 5.001933127641677856e-02 -3.414547815918922424e-02 -2.931662835180759430e-03 -4.612676426768302917e-02 4.669883474707603455e-02 4.386339709162712097e-02 4.086326062679290771e-02 4.674512520432472229e-02 5.061331670731306076e-03 -3.907155990600585938e-02 3.790964558720588684e-02 -2.106492593884468079e-02 3.448557481169700623e-02 -4.001750145107507706e-03 -1.128374040126800537e-02 4.287691041827201843e-02 -9.925832971930503845e-03 -2.726669609546661377e-02 2.502330392599105835e-02 -4.284985736012458801e-02 -9.506215341389179230e-03 -6.171308923512697220e-03 1.266981195658445358e-02 -3.649918735027313232e-02 -2.027408778667449951e-02 -4.066063091158866882e-02 -1.620373129844665527e-02 -3.245691535994410515e-03 -6.590796168893575668e-03 -3.545468673110008240e-02 3.491916507482528687e-02 3.298211470246315002e-02 1.705567352473735809e-02 2.867080457508563995e-02 2.762067690491676331e-02 1.432073418982326984e-03 1.363716321066021919e-03 4.996064677834510803e-02 -2.573965489864349365e-02 -6.560398731380701065e-03 -5.004668235778808594e-02 5.952453985810279846e-02 -2.565919421613216400e-02 -1.482693571597337723e-02 -2.172849886119365692e-02 2.636968716979026794e-02 4.017129540443420410e-02 -3.236895799636840820e-02 -1.131006609648466110e-02 -4.577715881168842316e-03 1.350595802068710327e-02 -2.291008830070495605e-02 2.066332381218671799e-03 1.026872452348470688e-02 -1.949705556035041809e-02 1.928479038178920746e-02 -4.756167254527099431e-05 -3.237755969166755676e-02 -4.791221022605895996e-02 -4.994364921003580093e-03 5.719761829823255539e-03 -4.393763840198516846e-02 2.027368545532226562e-02 2.574093826115131378e-02 -9.030473418533802032e-03 5.985459312796592712e-02 3.517457470297813416e-02 2.220626547932624817e-02 4.265637695789337158e-02 -4.521928727626800537e-03 -3.657197952270507812e-02 -3.872560709714889526e-02 1.109722349792718887e-02 -2.687791548669338226e-02 -4.421139508485794067e-02 2.845269255340099335e-02 1.797098293900489807e-02 4.660172015428543091e-02 2.829301403835415840e-03 1.856604963541030884e-02 -7.068071048706769943e-03 -1.539377029985189438e-02 -3.683287277817726135e-02 -1.835806481540203094e-02 -2.084387838840484619e-02 -1.493615936487913132e-02 -3.888201341032981873e-02 2.349663525819778442e-03 5.212729447521269321e-04 -1.323920395225286484e-02 -2.723329141736030579e-02 -4.064194485545158386e-02 4.413589835166931152e-02 -1.179219572804868221e-03 -3.974233567714691162e-02 -2.412692643702030182e-02 2.523087151348590851e-02 5.002413690090179443e-02 -2.129096910357475281e-02 -3.053582040593028069e-03 -2.647588402032852173e-02 -1.499523967504501343e-02 -2.328101545572280884e-02 -9.655129164457321167e-03 -4.446463659405708313e-02 5.150978919118642807e-03 1.288202032446861267e-02 7.835151627659797668e-03 1.047343481332063675e-02 -4.076816886663436890e-02 1.568770222365856171e-02 4.011495329905301332e-04 4.294941946864128113e-02 2.177838608622550964e-02 -2.115943096578121185e-02 -4.624710232019424438e-02 3.528813645243644714e-02 -3.170238435268402100e-02 -5.802183877676725388e-03 5.436538904905319214e-02 2.874200977385044098e-02 1.396113634109497070e-02 -1.097914390265941620e-02 -8.806058904156088829e-04 1.180097274482250214e-02 -4.305278882384300232e-02 2.126597613096237183e-02 -8.735495619475841522e-03 -1.962587051093578339e-02 5.522578954696655273e-02 3.804515674710273743e-02 2.343006618320941925e-02 -3.431099001318216324e-03 -3.138987720012664795e-02 2.081596851348876953e-02 2.724476344883441925e-02 2.083782106637954712e-03 -1.504233339801430702e-03 8.928900584578514099e-03 4.058770462870597839e-02 -3.965368028730154037e-03 -4.902844130992889404e-02 -3.792635351419448853e-02 5.887202918529510498e-02 -2.907310239970684052e-02 9.792361408472061157e-03 4.842970892786979675e-02 -1.214740239083766937e-02 2.380951493978500366e-02 1.062067877501249313e-02 -1.698794076219201088e-03 3.507019206881523132e-02 3.194954246282577515e-02 1.761244051158428192e-02 2.683122456073760986e-02 3.103549033403396606e-02 1.620681583881378174e-02 1.921813003718852997e-02 -1.447194442152976990e-02 5.921143665909767151e-02 4.581122100353240967e-02 2.120075980201363564e-03 -6.063511222600936890e-02 5.330687388777732849e-02 6.751603633165359497e-02 -3.901110962033271790e-02 7.725779432803392410e-03 6.826703995466232300e-02 -2.321668528020381927e-02 1.687164977192878723e-02 2.670779451727867126e-02 2.567661926150321960e-03 -5.943576805293560028e-03 3.815900301560759544e-03 4.518104344606399536e-02 -4.458755999803543091e-02 7.494016084820032120e-03 -7.529642316512763500e-04 1.135747600346803665e-02 2.319486252963542938e-02 -8.642948232591152191e-03 8.088065683841705322e-02 -7.512328028678894043e-02 6.072582304477691650e-02 -6.541406037285923958e-04 -2.634987980127334595e-02 -4.441949725151062012e-02 5.404205620288848877e-02 2.072518458589911461e-03 2.297399751842021942e-02 -1.975804194808006287e-02 9.455835446715354919e-03 -2.214664220809936523e-02 1.158901024609804153e-02 -5.623350851237773895e-03 -1.811699755489826202e-02 -8.663141168653964996e-03 3.885225951671600342e-02 6.675043702125549316e-02 6.733513623476028442e-02 9.468409419059753418e-02 1.859194785356521606e-02 -1.835388503968715668e-02 -1.586251892149448395e-02 4.170735180377960205e-02 2.779979631304740906e-02 -4.418762028217315674e-02 5.781114846467971802e-02 6.951722502708435059e-02 2.756495773792266846e-02 3.819536417722702026e-02 2.496806206181645393e-03 -2.736619114875793457e-02 1.278209965676069260e-03 2.394097298383712769e-02 5.626913905143737793e-02 2.394104935228824615e-02 1.440562587231397629e-02 3.252920508384704590e-02 3.451339900493621826e-02 1.176503580063581467e-02 5.206982791423797607e-02 3.804702777415513992e-03 6.172437220811843872e-02 -4.712291993200778961e-03 -1.590697653591632843e-02 -7.787077222019433975e-03 1.746342331171035767e-02 -1.113116741180419922e-02 3.498188452795147896e-03 -1.441340707242488861e-02 2.766184695065021515e-02 -6.415229290723800659e-02 -1.892776601016521454e-02 7.113070785999298096e-02 -2.212948724627494812e-02 -1.500807981938123703e-02 -2.246128395199775696e-02 -3.139828890562057495e-02 2.853390946984291077e-02 1.022712979465723038e-02 9.815083816647529602e-03 3.346538543701171875e-02 -3.295525163412094116e-02 2.853506989777088165e-02 -2.467571571469306946e-02 -4.569689184427261353e-02 -1.476847939193248749e-02 -5.658918060362339020e-03 -3.211323544383049011e-02 -4.968756437301635742e-02 -6.975549273192882538e-03 -1.344958413392305374e-02 -3.533155843615531921e-02 3.245370090007781982e-02 3.815793246030807495e-02 -2.712495625019073486e-02 3.802774101495742798e-02 2.863169834017753601e-02 1.142036635428667068e-03 3.487724752631038427e-04 -4.129627346992492676e-02 6.657283008098602295e-02 1.329865679144859314e-02 6.351452320814132690e-04 4.038311913609504700e-02 -1.073845662176609039e-02 -8.397622033953666687e-03 -3.985201194882392883e-02 9.153279475867748260e-03 -5.085673928260803223e-02 6.039161607623100281e-02 2.748169749975204468e-02 -3.061530180275440216e-02 4.060703888535499573e-02 -2.478912286460399628e-02 3.319701552391052246e-02 -5.133473314344882965e-04 -2.099298406392335892e-03 4.109556786715984344e-03 -4.359717294573783875e-02 2.258006855845451355e-02 5.284532532095909119e-02 -3.795269131660461426e-02 -3.645213693380355835e-02 -5.686422809958457947e-03 7.060965150594711304e-02 -1.960555091500282288e-02 -3.018892556428909302e-02 -4.528772830963134766e-02 2.361244335770606995e-02 1.921803876757621765e-02 1.899562031030654907e-02 -4.415193106979131699e-03 4.467909783124923706e-02 3.936539217829704285e-02 -1.439320505596697330e-03 4.271407425403594971e-02 -4.657463356852531433e-02 -9.994626976549625397e-03 -1.770243234932422638e-02 5.186983384191989899e-03 6.678515579551458359e-03 1.480238512158393860e-02 1.067769713699817657e-02 -4.140276834368705750e-02 3.161979548167437315e-04 -1.152863726019859314e-03 -1.734780520200729370e-02 -4.364532977342605591e-02 3.822975605726242065e-02 -3.726486489176750183e-02 6.595654413104057312e-03 2.591964416205883026e-02 1.164986286312341690e-02 -2.963654510676860809e-02 3.048204816877841949e-02 3.533064201474189758e-02 4.397937282919883728e-02 -9.992440231144428253e-03 3.860885975882411003e-03 2.088944800198078156e-02 1.433367934077978134e-02 -3.414076939225196838e-02 3.458414599299430847e-02 4.283176735043525696e-02 -4.266339819878339767e-03 -6.644245702773332596e-03 -1.812464743852615356e-02 3.545785875758156180e-05 -3.359677642583847046e-02 2.372119203209877014e-02 -2.773792296648025513e-02 -2.018130756914615631e-02 -3.309186920523643494e-02 -4.098033532500267029e-02 -2.738855546340346336e-03 -3.656075522303581238e-02 -3.800350427627563477e-02 -5.106877908110618591e-02 -1.473580021411180496e-02 3.588634729385375977e-02 3.229876235127449036e-02 -1.677218638360500336e-02 3.538073226809501648e-02 -2.597117237746715546e-02 -5.084974318742752075e-02 -1.491705700755119324e-02 3.228251636028289795e-02 2.276964299380779266e-02 4.260918125510215759e-02 1.469503343105316162e-02 -1.448534429073333740e-02 2.056989260017871857e-02 -1.481928490102291107e-02 8.338185027241706848e-03 3.746103122830390930e-02 -4.212815314531326294e-02 -1.546820718795061111e-02 -8.744482882320880890e-03 1.734610274434089661e-02 -2.363131614401936531e-03 1.539810094982385635e-02 5.172016564756631851e-03 -4.113303497433662415e-02 4.732175171375274658e-02 3.991902247071266174e-02 4.581956192851066589e-02 4.859486222267150879e-02 5.584804341197013855e-03 5.034415517002344131e-03 4.943282529711723328e-02 -3.037665411829948425e-02 4.818808287382125854e-02 9.129989892244338989e-03 -1.888883486390113831e-02 -3.843069449067115784e-02 3.612750023603439331e-02 3.056129068136215210e-02 -1.546003576368093491e-02 2.330823242664337158e-02 4.574397206306457520e-02 -3.479587659239768982e-02 3.144698590040206909e-02 -3.220448270440101624e-02 6.309777498245239258e-03 4.349762946367263794e-02 1.627035811543464661e-02 -3.883319720625877380e-02 -2.352808415889739990e-02 -4.671368375420570374e-02 1.084716711193323135e-02 -1.674213074147701263e-02 3.185702115297317505e-02 3.317735716700553894e-02 4.887588694691658020e-02 2.225989662110805511e-02 1.446716487407684326e-02 -4.772257059812545776e-02 -2.706501446664333344e-02 3.965063020586967468e-02 1.571834646165370941e-02 3.603823110461235046e-02 3.522427380084991455e-02 4.202855378389358521e-02 -3.081440925598144531e-02 -4.880664404481649399e-03 2.581338025629520416e-02 2.150165848433971405e-02 4.700956121087074280e-02 3.869777545332908630e-02 -3.200040012598037720e-02 1.707972027361392975e-02 -1.238089893013238907e-02 3.517907485365867615e-02 4.661357402801513672e-02 -2.853813581168651581e-02 3.420417429879307747e-03 -1.288069644942879677e-03 -9.291335009038448334e-03 -1.789124496281147003e-02 4.853708297014236450e-02 -3.596541285514831543e-02 1.314820721745491028e-03 2.393585816025733948e-02 -3.635988384485244751e-02 4.621699452400207520e-02 -2.628328464925289154e-02 2.625691518187522888e-02 -4.131300747394561768e-02 4.266305640339851379e-02 2.744763344526290894e-02 1.727337017655372620e-03 -1.277923677116632462e-02 2.489844337105751038e-02 -4.666947200894355774e-02 4.011821001768112183e-02 1.407968625426292419e-02 -4.307717550545930862e-03 -3.908310830593109131e-02 2.192969992756843567e-02 2.697693184018135071e-02 4.171755537390708923e-02 5.167718231678009033e-02 -3.942631930112838745e-02 3.946439176797866821e-02 -2.143509872257709503e-02 4.881814494729042053e-02 3.543341904878616333e-02 4.629399627447128296e-03 6.321120599750429392e-05 -3.101797960698604584e-02 2.002407796680927277e-02 -3.930905461311340332e-02 -3.654012084007263184e-02 3.458110243082046509e-02 3.675050800666213036e-03 -4.759862646460533142e-02 -2.196821384131908417e-02 3.579030930995941162e-02 1.452644262462854385e-02 -1.390183577314019203e-03 4.213866591453552246e-02 -3.491649404168128967e-02 -3.259475156664848328e-02 2.736484818160533905e-02 -4.413937777280807495e-02 -3.267003968358039856e-02 1.354975812137126923e-02 -9.892956353724002838e-03 3.327383100986480713e-02 7.519878447055816650e-03 4.840222373604774475e-02 3.711809590458869934e-02 1.092053111642599106e-02 -3.667538613080978394e-02 3.078750893473625183e-02 -1.414819713681936264e-02 -5.036796629428863525e-02 -1.352705806493759155e-02 4.907104000449180603e-02 -3.109963051974773407e-02 -8.844404481351375580e-03 4.356080666184425354e-02 2.006975561380386353e-02 1.387137570418417454e-03 -2.680021710693836212e-02 1.396267209202051163e-02 3.110919706523418427e-02 4.200385883450508118e-02 -1.260100957006216049e-02 -1.460826769471168518e-02 8.172032423317432404e-03 -7.141421549022197723e-03 2.863329276442527771e-02 9.629728272557258606e-03 -1.300560217350721359e-02 -2.163701131939888000e-02 -2.258393168449401855e-02 1.752088591456413269e-02 6.905581336468458176e-03 3.423192724585533142e-02 -4.567040130496025085e-02 -1.395755726844072342e-02 -2.900868840515613556e-02 -3.966646268963813782e-02 -1.039561815559864044e-02 -4.441474750638008118e-02 -1.493961550295352936e-02 -2.069409564137458801e-02 -3.513683751225471497e-02 -9.191032499074935913e-03 3.515329957008361816e-02 5.216187983751296997e-02 -9.911590255796909332e-03 -2.691684663295745850e-02 4.025863483548164368e-03 -2.565241046249866486e-02 -4.752844106405973434e-03 4.647357761859893799e-02 -9.564357809722423553e-03 2.154788002371788025e-02 2.594664692878723145e-02 -2.878880128264427185e-03 -3.009042516350746155e-02 7.477960083633661270e-03 4.210383445024490356e-02 1.626895926892757416e-02 7.409977260977029800e-03 -3.833392262458801270e-02 3.878556936979293823e-02 -4.584372788667678833e-02 3.246680647134780884e-02 2.977716177701950073e-02 -1.267763203941285610e-03 -1.383720617741346359e-02 6.118315737694501877e-03 4.234435781836509705e-02 1.102331746369600296e-02 -2.226500026881694794e-02 3.096373192965984344e-02 1.530908420681953430e-02 -2.382324077188968658e-02 2.504370734095573425e-02 -1.448983047157526016e-02 1.980412518605589867e-03 7.109825673978775740e-05 -4.278965666890144348e-02 -2.628474123775959015e-02 5.061357747763395309e-03 -1.533178146928548813e-02 5.140859261155128479e-02 -3.245845064520835876e-02 5.182619392871856689e-02 -3.471236303448677063e-02 2.730522118508815765e-02 -1.208033692091703415e-02 -4.406269267201423645e-02 -2.366016432642936707e-02 -2.763206837698817253e-03 -4.068734124302864075e-02 1.924982666969299316e-02 4.369698092341423035e-02 1.527930982410907745e-02 -3.966160491108894348e-02 -2.977968007326126099e-02 4.853149875998497009e-03 -1.764161325991153717e-02 -2.850685082376003265e-02 4.468758590519428253e-03 1.101588737219572067e-02 4.717144742608070374e-02 3.156869113445281982e-02 -4.390217363834381104e-02 -2.629614435136318207e-02 1.856696605682373047e-02 3.460090979933738708e-02 -1.370268128812313080e-02 -2.255756966769695282e-02 -1.359907444566488266e-02 3.126705810427665710e-02 -3.312369436025619507e-02 -2.100550569593906403e-02 1.019815169274806976e-02 1.140181533992290497e-02 -1.451713591814041138e-02 -7.306071929633617401e-03 3.589090332388877869e-02 -5.113804712891578674e-02 2.363603003323078156e-02 1.051460299640893936e-02 4.128847643733024597e-02 -3.015433810651302338e-02 1.238086167722940445e-02 4.619835689663887024e-02 1.543304603546857834e-02 1.753837242722511292e-02 3.479855880141258240e-02 4.560948908329010010e-02 3.816355392336845398e-02 -1.650159596465528011e-03 3.239435702562332153e-02 2.069169655442237854e-02 -1.178704202175140381e-02 1.495495438575744629e-02 2.960515022277832031e-02 3.527291119098663330e-02 1.887341961264610291e-02 4.381967708468437195e-02 6.023290567100048065e-03 -2.425777539610862732e-02 4.118632897734642029e-02 -1.754043810069561005e-02 -3.508571302518248558e-03 -5.127489939332008362e-02 4.130703955888748169e-02 1.225145161151885986e-02 -3.205817192792892456e-02 -3.505028784275054932e-02 -5.965444259345531464e-03 -4.631095752120018005e-02 2.198224328458309174e-02 2.381746098399162292e-02 -4.922670125961303711e-02 -4.315223917365074158e-02 -4.839937016367912292e-02 -3.432586044073104858e-02 1.429313328117132187e-02 -3.127012029290199280e-02 2.366505004465579987e-02 -9.702112525701522827e-03 -1.146824797615408897e-03 5.790558643639087677e-03 -4.670911654829978943e-02 2.239079028367996216e-02 -5.783687811344861984e-03 -3.581553697586059570e-02 2.107142657041549683e-02 5.848333705216646194e-03 3.713075071573257446e-02 -1.760488003492355347e-02 2.168033830821514130e-02 1.035058172419667244e-03 -2.071090042591094971e-03 2.642260305583477020e-02 5.194280762225389481e-03 1.380279101431369781e-02 -2.027747407555580139e-02 -7.138205226510763168e-03 -3.215704858303070068e-02 -3.221811726689338684e-02 1.166806835681200027e-02 4.737528786063194275e-02 -2.152900584042072296e-02 -4.619458690285682678e-02 2.654239907860755920e-02 1.258045528084039688e-02 4.289371892809867859e-02 4.941923543810844421e-02 3.684005513787269592e-02 -4.166889563202857971e-02 -2.684215828776359558e-02 8.096698671579360962e-03 -4.553473368287086487e-02 3.820600977633148432e-04 -3.283475711941719055e-02 -2.072406560182571411e-02 6.841541267931461334e-03 1.454908773303031921e-02 -4.849620535969734192e-02 1.544398441910743713e-02 -1.533460151404142380e-02 2.293983288109302521e-02 3.227662667632102966e-02 8.478968404233455658e-03 3.669275715947151184e-02 8.473549969494342804e-03 4.197238385677337646e-02 4.717033728957176208e-02 -2.909283712506294250e-02 -4.463281482458114624e-02 -2.723652683198451996e-02 1.425252389162778854e-02 8.511167834512889385e-04 -4.867984727025032043e-02 3.980425745248794556e-02 3.531585261225700378e-02 -4.210831224918365479e-02 2.620529010891914368e-02 -4.577212035655975342e-03 -1.769771799445152283e-03 4.370671696960926056e-03 -7.014007773250341415e-03 1.102137565612792969e-02 3.251004219055175781e-02 3.409245237708091736e-02 -1.107739470899105072e-02 6.060285028070211411e-03 4.503368213772773743e-02 -2.636111900210380554e-02 4.720113426446914673e-02 -3.183499723672866821e-02 3.939808532595634460e-02 -4.690758418291807175e-03 -3.923284634947776794e-02 4.879833757877349854e-02 -5.220757331699132919e-03 -1.206913497298955917e-02 2.147448249161243439e-02 1.349448575638234615e-03 3.663454949855804443e-02 2.410584501922130585e-02 8.914937265217304230e-03 1.879670657217502594e-02 3.658364713191986084e-02 3.521720319986343384e-02 4.276680201292037964e-02 -3.468009829521179199e-02 -2.637983113527297974e-02 -3.818302601575851440e-02 -4.782820492982864380e-02 -3.321933094412088394e-03 3.543957695364952087e-02 -2.380898036062717438e-02 5.228125303983688354e-02 -4.459631070494651794e-02 1.844230294227600098e-02 -3.361687064170837402e-02 5.302716419100761414e-02 -2.872290089726448059e-02 1.563584082759916782e-03 4.709728434681892395e-02 -3.772486373782157898e-02 -3.064808063209056854e-02 4.285881295800209045e-02 -4.288727045059204102e-02 2.633241564035415649e-02 -1.265141461044549942e-02 2.755306288599967957e-02 -2.388184145092964172e-02 2.549680136144161224e-02 -1.634112000465393066e-02 2.226296812295913696e-02 8.501523733139038086e-02 -9.678248316049575806e-03 5.137928202748298645e-02 -1.738251000642776489e-02 1.694977656006813049e-02 -5.601443350315093994e-02 -3.629940748214721680e-02 -1.348044257611036301e-02 2.973884716629981995e-02 -2.632215386256575584e-03 1.745316258165985346e-04 -1.961602829396724701e-02 1.240225322544574738e-02 2.956442162394523621e-02 1.233651768416166306e-02 1.097797974944114685e-02 8.053617179393768311e-02 -2.658046595752239227e-02 2.419117139652371407e-03 4.774542152881622314e-02 7.298130076378583908e-03 2.133228816092014313e-02 1.948531530797481537e-02 8.797783404588699341e-03 5.090570077300071716e-02 2.408112399280071259e-02 -2.344348700717091560e-03 1.752251759171485901e-02 4.341308027505874634e-02 -6.471405923366546631e-02 -2.830571308732032776e-02 7.131362706422805786e-02 7.580997794866561890e-02 8.399254083633422852e-02 7.097258418798446655e-02 -1.005281810648739338e-03 4.604890570044517517e-02 4.709383938461542130e-03 -4.557831212878227234e-02 -3.014707006514072418e-03 2.303627086803317070e-03 1.971811987459659576e-02 -4.161318019032478333e-02 5.729401856660842896e-02 5.093608424067497253e-02 -1.608610525727272034e-02 7.204374298453330994e-03 4.131690040230751038e-02 3.297086432576179504e-02 1.686221733689308167e-02 -3.254263428971171379e-03 7.310217618942260742e-02 4.129992797970771790e-02 1.097892411053180695e-03 6.123607605695724487e-02 -1.123879011720418930e-02 -2.745668590068817139e-02 3.873663023114204407e-02 -1.125735230743885040e-02 4.094012454152107239e-02 -1.822627522051334381e-02 -3.651210293173789978e-02 -3.906802088022232056e-02 7.950513623654842377e-03 -7.042885292321443558e-03 -1.638663560152053833e-02 3.240407630801200867e-02 -3.395614447072148323e-03 -3.018917981535196304e-03 4.583908244967460632e-02 6.288232281804084778e-03 5.204916000366210938e-02 -2.754611335694789886e-02 2.885271981358528137e-02 2.416713535785675049e-02 6.378865800797939301e-03 -4.323083534836769104e-02 5.882201716303825378e-03 -8.539732545614242554e-03 1.012299396097660065e-02 -2.374910004436969757e-02 -3.877232968807220459e-02 2.009983547031879425e-02 -2.833255380392074585e-02 1.340543478727340698e-02 1.978382468223571777e-02 -3.186783567070960999e-02 -4.363137111067771912e-02 -3.508778661489486694e-02 2.828026423230767250e-03 2.491204813122749329e-02 4.485956579446792603e-02 -4.228003323078155518e-02 8.872326463460922241e-03 2.700719982385635376e-02 -2.972806431353092194e-02 2.714073471724987030e-02 -1.047089602798223495e-02 3.677478432655334473e-02 8.220114745199680328e-03 2.016886696219444275e-02 -4.171299934387207031e-02 3.009355627000331879e-02 -4.570852965116500854e-02 -9.132986888289451599e-03 3.358505666255950928e-02 3.028011135756969452e-02 -4.908325150609016418e-02 6.195995025336742401e-03 -6.556268781423568726e-03 9.563003666698932648e-03 -2.489879541099071503e-02 -4.810174554586410522e-02 -1.728259958326816559e-02 -3.227141452953219414e-03 -3.622906282544136047e-02 -2.765274234116077423e-02 -3.871183842420578003e-02 -1.710653863847255707e-02 2.511804364621639252e-02 1.440365053713321686e-02 4.093343764543533325e-02 4.502918943762779236e-02 -7.969360053539276123e-02 6.765118334442377090e-03 2.664157934486865997e-02 3.821874409914016724e-02 7.989075034856796265e-03 6.489957123994827271e-02 4.185597598552703857e-02 3.678372129797935486e-02 3.352435771375894547e-03 -2.463992685079574585e-02 -5.717417970299720764e-02 1.074508670717477798e-02 1.413308735936880112e-02 -1.848160871304571629e-03 4.399006138555705547e-04 1.213859021663665771e-02 5.119220586493611336e-04 3.492042422294616699e-02 -2.640994824469089508e-02 -2.573185600340366364e-02 3.451977856457233429e-03 2.853076346218585968e-02 -2.885227836668491364e-02 2.370599471032619476e-02 9.757827036082744598e-03 -1.427974179387092590e-02 -5.209194868803024292e-02 9.818142279982566833e-03 -4.753405973315238953e-02 1.754107512533664703e-02 3.419526666402816772e-02 5.025258660316467285e-02 -4.012946411967277527e-02 -1.404374279081821442e-02 -4.946653917431831360e-02 -2.431165240705013275e-02 2.203258872032165527e-02 3.042962960898876190e-02 5.431660264730453491e-02 -3.402981907129287720e-02 -4.088311921805143356e-03 -7.234670221805572510e-03 -1.748924702405929565e-02 -1.653773151338100433e-02 -3.285676613450050354e-02 -4.072463139891624451e-03 4.131270945072174072e-02 -1.537973526865243912e-02 3.046323731541633606e-02 -5.587651208043098450e-02 1.377696078270673752e-02 -4.697424545884132385e-02 4.383442178368568420e-02 -8.696219883859157562e-03 -1.853667385876178741e-02 -6.228849291801452637e-03 3.552693873643875122e-02 2.181180054321885109e-03 -8.915328420698642731e-03 4.756389930844306946e-02 3.710272535681724548e-02 -1.167912851087749004e-03 6.319056730717420578e-03 4.691540077328681946e-02 -9.006678126752376556e-03 2.456178655847907066e-03 1.354083884507417679e-02 7.624930702149868011e-03 2.977323159575462341e-02 1.968185603618621826e-02 3.459592163562774658e-02 1.112693734467029572e-02 3.943340480327606201e-02 3.308677300810813904e-02 -1.887361146509647369e-02 3.568841144442558289e-02 -2.639427781105041504e-02 -2.506476081907749176e-02 2.131593227386474609e-02 -4.469191189855337143e-03 -3.794183582067489624e-02 2.700178883969783783e-02 2.376101911067962646e-02 -1.374210231006145477e-03 4.106807336211204529e-02 -2.732847072184085846e-02 3.788109123706817627e-02 -3.747960180044174194e-02 -5.006688460707664490e-02 -4.305808246135711670e-02 3.776790574193000793e-02 -3.653138130903244019e-02 2.365575544536113739e-02 -3.335551545023918152e-02 9.318695403635501862e-03 3.818589448928833008e-02 -2.596385590732097626e-02 -1.376140583306550980e-02 3.370171040296554565e-02 -1.812939718365669250e-02 -1.228795573115348816e-02 -2.991596423089504242e-02 3.483855724334716797e-02 -2.774587832391262054e-02 9.567634202539920807e-03 2.396951988339424133e-02 -5.029035732150077820e-02 3.803862258791923523e-02 4.631186649203300476e-02 -1.245065033435821533e-02 2.500501833856105804e-02 -1.905745826661586761e-02 1.005766540765762329e-02 -3.698757290840148926e-02 -2.462655678391456604e-02 -1.683547534048557281e-02 -1.127924118191003799e-02 -3.650484234094619751e-02 -3.916495665907859802e-02 4.111283645033836365e-02 4.352033138275146484e-02 -2.615145407617092133e-02 3.133776411414146423e-02 1.461532711982727051e-02 -4.068818315863609314e-02 -1.437043212354183197e-02 4.244178533554077148e-02 4.792955890297889709e-02 -2.688036300241947174e-02 1.513947546482086182e-02 -4.273864626884460449e-02 -9.990490972995758057e-03 -3.722115606069564819e-02 2.422424964606761932e-02 -3.469994291663169861e-02 3.235658258199691772e-02 4.137130454182624817e-02 3.092680126428604126e-02 2.737467177212238312e-03 -1.737263798713684082e-02 4.382202401757240295e-03 3.861733525991439819e-02 3.889712505042552948e-03 2.461636438965797424e-02 2.148130163550376892e-02 -4.709266498684883118e-02 -9.293830022215843201e-03 2.392064407467842102e-02 -4.388816654682159424e-02 