6.142943724989891052e-02 -5.843076482415199280e-02 -5.220978707075119019e-02 4.929350316524505615e-02 5.463933944702148438e-02 6.210551038384437561e-02 -6.447340548038482666e-02 1.661176048219203949e-02 4.057217761874198914e-02 -2.293978445231914520e-02
3.660517185926437378e-02 1.130851451307535172e-02 -3.791043534874916077e-02 -6.718394160270690918e-02 2.181786112487316132e-03 -5.505518242716789246e-02 -2.398206293582916260e-02 -4.095681011676788330e-02 -2.699975483119487762e-02 -2.516941912472248077e-02
3.347983211278915405e-02 1.687648147344589233e-02 -2.895055338740348816e-02 1.840605586767196655e-02 6.447988748550415039e-02 6.755571067333221436e-02 -6.389290839433670044e-02 3.990199416875839233e-02 -6.902076303958892822e-02 7.288527488708496094e-02
-1.337339170277118683e-02 6.545794755220413208e-02 -5.067897215485572815e-02 1.930625736713409424e-02 1.211277209222316742e-02 3.681444376707077026e-02 -9.181288070976734161e-03 3.051372617483139038e-02 3.933844342827796936e-02 -9.962325915694236755e-03
-3.640573937445878983e-03 6.420733034610748291e-02 2.345543121919035912e-03 -7.342396676540374756e-02 -5.226054787635803223e-02 5.400761216878890991e-02 6.101704761385917664e-02 -3.475208207964897156e-02 -1.727318018674850464e-02 -3.549229353666305542e-02
1.139361131936311722e-02 7.039103657007217407e-02 -6.851711124181747437e-02 2.083723247051239014e-02 4.264324903488159180e-02 5.892371758818626404e-02 4.918117448687553406e-02 1.200882717967033386e-02 -2.493201568722724915e-02 -6.460633873939514160e-02
2.061969041824340820e-02 6.953098624944686890e-02 1.669934764504432678e-02 2.683565020561218262e-02 6.739947199821472168e-02 3.839920088648796082e-02 -6.206867843866348267e-02 8.759975433349609375e-03 -3.776764264330267906e-03 -1.127050723880529404e-02
-7.880284683778882027e-04 -6.400362402200698853e-02 5.250532925128936768e-02 -6.579267233610153198e-02 2.657403796911239624e-02 -6.477534025907516479e-02 -5.024434253573417664e-02 -7.163850218057632446e-02 -5.437261983752250671e-02 1.273111533373594284e-02
-8.196203969419002533e-03 2.304856479167938232e-02 -6.775309890508651733e-02 1.423013396561145782e-02 7.186274975538253784e-02 -2.306879905518144369e-04 -4.298996552824974060e-02 -9.346033446490764618e-03 3.890975564718246460e-02 -2.375510707497596741e-02
2.638469636440277100e-02 3.963879495859146118e-02 1.487864530645310879e-03 -6.797306239604949951e-02 -1.628583413548767567e-03 7.136856019496917725e-02 2.866842783987522125e-03 -4.646988213062286377e-02 -7.525495439767837524e-02 3.001645207405090332e-02
1.733544841408729553e-02 7.567953318357467651e-02 6.168822199106216431e-02 3.545716032385826111e-02 6.123005971312522888e-02 -3.762191906571388245e-02 -4.489829763770103455e-02 8.000940084457397461e-03 2.981392608489841223e-04 -2.155813947319984436e-02
5.893338471651077271e-02 1.329933642409741879e-03 4.324734956026077271e-02 7.328581432375358418e-06 3.069102950394153595e-02 6.571103632450103760e-02 4.655957221984863281e-02 -5.760497599840164185e-02 -3.493760153651237488e-02 4.097205772995948792e-02
-7.541589438915252686e-02 2.149832621216773987e-02 5.932941660284996033e-02 -3.142339363694190979e-02 -1.849506236612796783e-02 -4.022640362381935120e-02 -1.357177831232547760e-02 -3.324479237198829651e-02 -1.287738140672445297e-02 -6.535304337739944458e-02
-1.195135340094566345e-02 7.101982831954956055e-02 2.634585648775100708e-02 3.214014321565628052e-02 2.357663400471210480e-02 -2.741838619112968445e-02 -5.047767236828804016e-02 -8.798731490969657898e-03 4.825608804821968079e-02 2.189531177282333374e-02
6.069755926728248596e-02 -5.827820673584938049e-02 4.034196212887763977e-02 -1.457436196506023407e-02 -5.300281941890716553e-02 7.254657894372940063e-02 5.283144116401672363e-02 -2.499932795763015747e-02 5.290223658084869385e-02 -3.224589303135871887e-02
-5.563899502158164978e-02 -1.947181485593318939e-02 5.473602190613746643e-02 7.379203569144010544e-03 -3.902869648300111294e-04 -1.188223343342542648e-02 -2.126837335526943207e-02 -3.039146773517131805e-02 6.313531845808029175e-02 -6.339147686958312988e-02
-7.456264924257993698e-03 -7.481534779071807861e-02 -7.452502101659774780e-02 7.388158887624740601e-02 -4.693720862269401550e-02 -4.670639056712388992e-03 -7.193725556135177612e-02 1.324273273348808289e-02 7.998540066182613373e-03 -4.405075684189796448e-02
2.266837982460856438e-03 -1.457561645656824112e-02 7.377964258193969727e-02 1.363287563435733318e-03 -2.227423153817653656e-02 -2.495261840522289276e-02 4.647268354892730713e-02 -2.108198963105678558e-02 -7.320217043161392212e-02 6.764031946659088135e-02
-6.130457669496536255e-02 -5.366675555706024170e-02 6.057352758944034576e-03 1.955735962837934494e-03 5.909504368901252747e-03 -6.607788056135177612e-02 -8.273293264210224152e-03 1.771367387846112251e-03 2.654456533491611481e-02 -2.161751873791217804e-02
-1.061102468520402908e-02 -2.578933723270893097e-02 -3.199036419391632080e-02 1.539785042405128479e-02 3.073959425091743469e-02 5.455838516354560852e-02 6.028578500263392925e-04 4.501179791986942291e-04 2.689337171614170074e-02 -5.835401639342308044e-02
-6.413421034812927246e-02 -2.016492933034896851e-02 7.576502859592437744e-03 -6.040565669536590576e-02 4.422384873032569885e-02 -6.959215551614761353e-02 5.500500649213790894e-02 -4.990654811263084412e-02 -4.146005585789680481e-02 -1.845871843397617340e-02
4.075326398015022278e-02 2.334044314920902252e-02 -3.643581271171569824e-02 1.221831329166889191e-02 8.083072490990161896e-03 2.508583106100559235e-02 1.934132911264896393e-02 -7.587990909814834595e-02 -6.484299898147583008e-02 4.584559705108404160e-03
-3.603416681289672852e-02 -4.837720468640327454e-02 5.990701913833618164e-02 -5.646465346217155457e-03 -2.498347312211990356e-02 3.709783777594566345e-02 1.770518906414508820e-02 4.618369787931442261e-02 -3.346453234553337097e-02 7.257942110300064087e-02
-2.505744621157646179e-02 -3.611303865909576416e-02 -1.936410181224346161e-02 -6.250627338886260986e-02 -4.825840145349502563e-02 -1.391014922410249710e-02 -1.606637262739241123e-03 2.019008621573448181e-02 -5.364795774221420288e-02 -5.531214550137519836e-02
4.518762975931167603e-02 6.879822164773941040e-02 -6.561413407325744629e-02 -6.754159182310104370e-02 3.221014887094497681e-02 4.238520562648773193e-02 6.382495164871215820e-02 -4.486522823572158813e-02 -1.197454426437616348e-02 -4.594607651233673096e-02
6.482099741697311401e-02 3.818146884441375732e-02 1.819505915045738220e-02 -3.815556317567825317e-02 -6.753586232662200928e-02 7.106507569551467896e-02 -2.016678079962730408e-02 -4.481448978185653687e-02 5.140574276447296143e-02 -9.308372624218463898e-03
-2.968297153711318970e-02 -3.456505388021469116e-02 -7.113201171159744263e-02 3.873673081398010254e-02 -7.434535026550292969e-02 -2.832415886223316193e-02 7.098590582609176636e-02 4.437559843063354492e-02 4.011731967329978943e-02 -2.999702841043472290e-02
-5.651048198342323303e-02 -4.598000645637512207e-02 -6.315546482801437378e-02 2.524879295378923416e-03 1.955742947757244110e-02 9.629388339817523956e-03 1.667202636599540710e-02 6.239807233214378357e-02 -6.753032654523849487e-02 -1.598040759563446045e-02
-4.419721662998199463e-03 2.313184738159179688e-02 -7.629409432411193848e-02 -4.607595130801200867e-02 6.613776832818984985e-02 -3.397577442228794098e-03 -6.128855422139167786e-02 3.165062889456748962e-02 -1.559619605541229248e-02 -2.380796708166599274e-02
-7.075214385986328125e-02 4.710775613784790039e-02 4.222121462225914001e-02 -1.926004327833652496e-02 -2.477436885237693787e-02 8.854364044964313507e-03 -1.513686124235391617e-02 -1.737168431282043457e-02 -6.136420741677284241e-02 -4.369189962744712830e-02
2.860860899090766907e-02 2.930479682981967926e-02 4.710402339696884155e-02 -6.124575063586235046e-02 -7.329039275646209717e-02 -1.131739467382431030e-02 -1.820780336856842041e-02 2.985312603414058685e-02 -6.949726492166519165e-02 3.093161992728710175e-02
-1.396999228745698929e-02 -3.452089428901672363e-02 3.603551536798477173e-03 -2.181218191981315613e-02 7.325397431850433350e-02 3.307506442070007324e-02 -9.840324521064758301e-03 4.291250929236412048e-02 -6.379964761435985565e-03 -5.029636621475219727e-02
-3.776067495346069336e-02 4.894404113292694092e-02 -2.251326851546764374e-02 -5.534808710217475891e-02 -8.862149901688098907e-03 -3.486708272248506546e-03 4.755652975291013718e-03 6.119350343942642212e-02 -4.710305016487836838e-03 4.060291871428489685e-02
-3.423108533024787903e-02 -7.371438201516866684e-03 -4.584388516377657652e-04 -4.236071184277534485e-02 4.591961391270160675e-03 -5.998991057276725769e-02 -4.712999239563941956e-02 -1.324831275269389153e-03 2.185535617172718048e-03 5.030309781432151794e-02
-1.036176737397909164e-02 -3.151428187265992165e-03 5.050238594412803650e-02 -6.140863150358200073e-02 3.065292909741401672e-02 2.465890534222126007e-02 -1.291957567445933819e-03 1.269866991788148880e-02 2.229149825870990753e-02 -6.608188897371292114e-02
4.343769047409296036e-03 -3.976342082023620605e-02 -1.004080101847648621e-02 -8.160159923136234283e-03 3.691082447767257690e-02 -5.528673902153968811e-02 -6.027637422084808350e-02 5.386682227253913879e-02 9.849485941231250763e-04 -1.669458486139774323e-02
5.827030539512634277e-02 -2.995297871530056000e-02 1.588619314134120941e-02 1.173664932139217854e-03 6.201427802443504333e-02 2.229152433574199677e-02 -6.343036890029907227e-02 7.010852918028831482e-03 -4.890385270118713379e-02 7.586567848920822144e-02
4.777177702635526657e-03 -8.125731721520423889e-03 -6.892376113682985306e-03 3.956103324890136719e-02 1.920105330646038055e-02 5.108047276735305786e-02 -1.241367682814598083e-02 2.794206701219081879e-02 -6.532147526741027832e-02 2.852982841432094574e-02
2.313468139618635178e-03 -5.325204879045486450e-02 6.637745350599288940e-02 -6.978490203619003296e-02 -1.546827377751469612e-03 5.793919786810874939e-02 1.759584993124008179e-02 6.700766086578369141e-02 -2.729076705873012543e-02 -3.150127828121185303e-02
7.614547759294509888e-02 -7.124160230159759521e-02 -6.635484844446182251e-02 -1.660146936774253845e-02 -2.631041919812560081e-03 5.249089747667312622e-02 2.300994284451007843e-02 1.864602416753768921e-02 -5.605404451489448547e-02 4.355735331773757935e-02
5.103498324751853943e-02 5.741852149367332458e-02 4.805147647857666016e-03 -3.555541485548019409e-02 2.019663155078887939e-02 -1.845206134021282196e-02 6.322545558214187622e-02 5.590257700532674789e-03 1.916992850601673126e-02 -4.392576590180397034e-02
3.976577147841453552e-02 4.058488830924034119e-02 -9.427945129573345184e-03 2.369554527103900909e-02 7.423650473356246948e-02 -3.801589831709861755e-02 -1.463486719876527786e-02 7.220049202442169189e-02 2.215985022485256195e-02 2.677215076982975006e-02
2.352668903768062592e-02 -5.004225671291351318e-02 -5.451149865984916687e-02 6.619229167699813843e-02 6.510277837514877319e-02 -2.787178754806518555e-02 -7.578790187835693359e-03 -3.405700623989105225e-02 6.880958378314971924e-02 6.727220863103866577e-02
5.127777159214019775e-02 -3.665123879909515381e-02 6.476324796676635742e-02 5.500052869319915771e-02 -3.200160712003707886e-02 -4.776661843061447144e-02 3.122586943209171295e-02 7.559791207313537598e-02 4.554368555545806885e-02 -4.004104435443878174e-02
4.944532364606857300e-02 3.210444003343582153e-02 5.874928459525108337e-02 4.001643881201744080e-02 -3.799430280923843384e-02 -6.310933083295822144e-02 6.622850196436047554e-04 4.237874969840049744e-02 3.517813514918088913e-03 -1.823327317833900452e-02
2.597079426050186157e-02 7.006856612861156464e-03 -6.475685629993677139e-03 4.998151585459709167e-02 3.728899359703063965e-02 -5.140520632266998291e-02 -2.769364416599273682e-02 5.865722149610519409e-02 -7.545376569032669067e-02 -5.805823951959609985e-02
-5.982151487842202187e-04 -4.029818624258041382e-02 5.102856829762458801e-02 -6.399283558130264282e-02 -1.822249218821525574e-02 1.677037589251995087e-02 -5.844619125127792358e-02 2.058881893754005432e-02 -7.050387561321258545e-02 1.149357995018362999e-03
5.802958086133003235e-02 -1.391736790537834167e-02 5.233463644981384277e-02 7.463502138853073120e-02 -2.994389273226261139e-02 1.279187481850385666e-02 7.400371879339218140e-02 -5.420394986867904663e-02 5.192606896162033081e-02 -5.218121409416198730e-02
-2.821022085845470428e-02 -6.331386417150497437e-02 -2.712580561637878418e-02 -5.747831985354423523e-02 -7.409550994634628296e-02 -7.141347974538803101e-02 3.090041317045688629e-02 -6.067718192934989929e-02 1.925707794725894928e-02 -5.929930508136749268e-02
-6.775136291980743408e-02 -1.863925904035568237e-02 4.426334053277969360e-02 4.232259839773178101e-02 -1.544752996414899826e-02 5.932860076427459717e-02 -3.744762018322944641e-02 3.924292325973510742e-02 -5.823721736669540405e-02 7.555598858743906021e-03
1.322896871715784073e-02 3.824237734079360962e-02 -2.496959455311298370e-02 5.501229688525199890e-02 -7.581333816051483154e-02 -6.636199355125427246e-02 -6.494492292404174805e-02 -1.982922665774822235e-02 3.193318843841552734e-02 -1.583896763622760773e-02
-1.279578823596239090e-02 -4.193900898098945618e-02 -5.298023298382759094e-02 2.402435429394245148e-02 5.618867278099060059e-02 -8.377798832952976227e-03 4.120121151208877563e-02 -3.485746309161186218e-02 -3.490927070379257202e-02 -2.300822176039218903e-02
1.461044303141534328e-03 1.448845397680997849e-02 -6.671717856079339981e-03 1.884294301271438599e-02 -5.762687325477600098e-02 -4.242916032671928406e-02 -6.806343793869018555e-02 2.905535884201526642e-02 3.524291515350341797e-02 3.833805769681930542e-02
-3.336023539304733276e-02 5.768818780779838562e-02 5.087608098983764648e-02 -6.511758267879486084e-02 4.029159247875213623e-02 2.821552194654941559e-02 5.093888565897941589e-02 -5.010914057493209839e-02 4.494612663984298706e-02 -7.396234571933746338e-02
-6.958018988370895386e-02 -8.350921416422352195e-05 -7.362732291221618652e-02 -3.636628389358520508e-02 4.295172542333602905e-02 -7.376727461814880371e-02 6.533073633909225464e-02 -6.659924518316984177e-03 -7.129253447055816650e-02 -7.317140698432922363e-02
-5.667327716946601868e-02 -2.877852693200111389e-02 -7.246772199869155884e-02 -2.368322573602199554e-02 -2.627778612077236176e-02 -4.272981733083724976e-02 1.316468790173530579e-02 -4.682134091854095459e-02 -1.296113710850477219e-02 1.237439736723899841e-02
-6.206324324011802673e-02 3.267459943890571594e-02 -5.897654965519905090e-02 -2.013371139764785767e-02 3.990106284618377686e-02 -2.354572713375091553e-02 -4.120980575680732727e-02 4.886497184634208679e-02 -4.197667166590690613e-02 6.635298579931259155e-02
-1.888725161552429199e-02 2.645667456090450287e-02 6.206621602177619934e-02 7.157859206199645996e-02 3.472832217812538147e-02 4.855572804808616638e-02 2.604297176003456116e-02 6.196109950542449951e-02 -7.314005494117736816e-02 -4.188588634133338928e-02
5.286147445440292358e-02 -7.006382197141647339e-02 3.360012918710708618e-02 -5.683261156082153320e-02 6.689061969518661499e-02 -2.408393472433090210e-02 5.592065863311290741e-03 -2.901886589825153351e-03 3.738647699356079102e-02 -5.858613178133964539e-02
-3.209870483260601759e-04 1.095874514430761337e-02 -3.545672819018363953e-02 -6.039430201053619385e-02 -2.322507835924625397e-02 1.794009283185005188e-02 3.545693587511777878e-03 2.114958316087722778e-02 -5.568687920458614826e-04 6.352223455905914307e-02
3.300176560878753662e-02 -3.482353687286376953e-02 -1.903173699975013733e-02 6.266394164413213730e-03 -2.691481076180934906e-02 7.184655964374542236e-02 -6.460292637348175049e-02 -3.271159529685974121e-02 5.687756929546594620e-03 -1.553455553948879242e-02
6.996611598879098892e-03 4.201152548193931580e-02 3.129488602280616760e-02 2.075473405420780182e-02 -5.387047305703163147e-03 -4.041402414441108704e-02 7.458514720201492310e-02 7.487563043832778931e-02 -4.697502031922340393e-02 -7.561781257390975952e-02
-1.922409608960151672e-02 3.302161023020744324e-02 5.654317792505025864e-03 7.525554299354553223e-02 1.196066942065954208e-02 -1.036947779357433319e-02 -6.925339344888925552e-03 7.041281461715698242e-02 6.271527707576751709e-02 7.064579427242279053e-02
-1.678971201181411743e-02 6.068638712167739868e-02 1.854070089757442474e-02 -2.637722715735435486e-02 4.908104240894317627e-02 -3.364904224872589111e-02 -7.288256287574768066e-02 -4.034684505313634872e-03 -9.680227376520633698e-03 -4.765212163329124451e-02
1.277867518365383148e-02 -4.179907590150833130e-02 1.755194854922592640e-03 7.498626410961151123e-02 6.422832608222961426e-02 7.337460666894912720e-02 -7.422430068254470825e-02 3.322202712297439575e-02 -3.812420368194580078e-02 1.505818869918584824e-02
-3.544364869594573975e-02 5.075579043477773666e-03 -3.095455467700958252e-02 -2.393981069326400757e-02 2.087972126901149750e-02 -5.994845181703567505e-02 4.902111366391181946e-02 -7.465610280632972717e-03 1.850005052983760834e-02 -3.111989609897136688e-02
6.187346577644348145e-02 6.487948354333639145e-03 -4.776707291603088379e-02 4.410063102841377258e-02 5.828524380922317505e-02 3.962240368127822876e-02 -7.580257486552000046e-03 5.576749797910451889e-03 9.780461899936199188e-03 1.072357967495918274e-02
7.027873769402503967e-03 8.103075437247753143e-03 -4.861795157194137573e-02 -2.286097221076488495e-02 -3.989189490675926208e-02 7.208175957202911377e-02 -4.623142536729574203e-03 3.169840946793556213e-02 7.144160568714141846e-03 3.822250291705131531e-02
4.739541560411453247e-02 -7.181189209222793579e-02 -7.242313772439956665e-02 5.882186070084571838e-02 7.085966318845748901e-02 5.474573746323585510e-02 5.456128716468811035e-02 -3.918211907148361206e-03 6.755754351615905762e-02 -1.435735262930393219e-02
-3.989375010132789612e-02 -6.324573606252670288e-02 1.393423974514007568e-02 -4.033075645565986633e-02 2.179600298404693604e-02 -7.199640572071075439e-02 -5.956567823886871338e-02 -4.972351342439651489e-02 7.261268794536590576e-03 -5.961120873689651489e-02
4.704907163977622986e-02 -3.412393853068351746e-03 1.446949783712625504e-02 5.495050922036170959e-02 8.707724511623382568e-03 -6.501173484139144421e-04 -6.525041162967681885e-02 2.166336216032505035e-02 -4.902478680014610291e-02 2.627637609839439392e-02
-2.320437505841255188e-02 1.193188875913619995e-02 1.544045284390449524e-03 -1.968948915600776672e-02 1.932943612337112427e-02 1.262351311743259430e-02 -2.105989493429660797e-02 -4.074095934629440308e-02 -2.916490193456411362e-03 -7.616274524480104446e-03
-6.184190511703491211e-02 1.917762868106365204e-02 5.407744646072387695e-02 3.967060521245002747e-02 1.899689063429832458e-02 -5.019691213965415955e-02 -3.865371271967887878e-02 -6.613613665103912354e-02 -1.532096229493618011e-02 -3.937004506587982178e-02
-1.614307053387165070e-02 -2.645729668438434601e-02 -5.685986950993537903e-03 7.538377307355403900e-03 -2.561192400753498077e-02 -6.380508095026016235e-02 6.762212514877319336e-02 -5.002896860241889954e-02 3.594817221164703369e-02 -6.606336683034896851e-02
-5.238241516053676605e-03 8.973564952611923218e-03 -5.746272578835487366e-02 -7.565896213054656982e-02 -6.291767209768295288e-02 -6.659875623881816864e-03 5.739424005150794983e-02 -3.081642091274261475e-02 2.546294406056404114e-02 3.876359760761260986e-02
-4.767058417201042175e-02 -5.256718024611473083e-02 1.717696711421012878e-02 5.067498236894607544e-02 6.095095723867416382e-02 6.321182101964950562e-02 3.714225068688392639e-02 -1.688215509057044983e-02 -6.769684702157974243e-02 6.686972081661224365e-02
2.507381699979305267e-02 3.387316316366195679e-02 2.550289221107959747e-02 -2.950653899461030960e-03 -7.429988682270050049e-02 -3.382213786244392395e-02 2.299614064395427704e-02 -4.461285099387168884e-02 7.614636560901999474e-04 2.287959679961204529e-02
-5.688256397843360901e-02 -4.488674458116292953e-03 -6.591819971799850464e-02 6.445497274398803711e-02 7.039954513311386108e-02 -1.470921095460653305e-02 -1.590490899980068207e-02 -3.745923191308975220e-02 -6.299627572298049927e-02 -1.486436347477138042e-03
2.982980571687221527e-02 -2.432335354387760162e-02 -5.778906052000820637e-04 -5.400139489211142063e-04 6.248884275555610657e-02 5.749251320958137512e-02 3.343605622649192810e-02 5.447363853454589844e-02 1.831531152129173279e-02 4.528934881091117859e-02
-4.344359785318374634e-02 -3.583283105399459600e-04 3.924613445997238159e-02 3.707526996731758118e-02 -9.780006483197212219e-03 6.713083386421203613e-02 4.209723323583602905e-02 1.499712187796831131e-02 -3.387586399912834167e-02 5.480097606778144836e-03
-2.103030495345592499e-02 -3.064137883484363556e-02 4.494764283299446106e-02 -4.337139427661895752e-02 7.040862739086151123e-02 -3.217870369553565979e-02 -6.846498697996139526e-02 5.483448132872581482e-02 2.957420423626899719e-02 -3.651325404644012451e-02
5.805142968893051147e-02 1.454752869904041290e-02 -2.078990638256072998e-02 3.765678964555263519e-03 -1.265248935669660568e-02 4.074114561080932617e-02 3.014189377427101135e-02 5.584809184074401855e-02 -2.165540680289268494e-02 -2.452545799314975739e-02
-7.544928044080734253e-02 -4.631384834647178650e-02 4.725880920886993408e-02 4.083073511719703674e-02 6.164189055562019348e-02 -4.110468551516532898e-02 -1.872458495199680328e-02 3.714488446712493896e-02 -7.415712624788284302e-02 6.365464627742767334e-02
-6.570227444171905518e-02 1.090827211737632751e-02 2.875525970011949539e-03 2.071616053581237793e-02 -4.434695094823837280e-02 4.294923041015863419e-03 2.213537460193037987e-03 -3.880026191473007202e-02 2.234905399382114410e-02 -4.364517331123352051e-02
-5.907500162720680237e-02 5.708093568682670593e-02 4.108282923698425293e-02 1.714681638986803591e-05 6.208642199635505676e-02 8.198983035981655121e-03 -1.512162154540419579e-03 3.210920095443725586e-02 7.548427581787109375e-02 -5.971339717507362366e-02
6.591574288904666901e-03 2.600856591016054153e-03 -3.947472199797630310e-02 -7.573006302118301392e-02 1.852943748235702515e-02 -4.050743207335472107e-02 4.984732344746589661e-02 -2.528961934149265289e-02 4.290364217013120651e-03 -6.872870773077011108e-02
4.060047119855880737e-02 2.646394819021224976e-02 4.187190160155296326e-02 -6.955535709857940674e-02 -2.341905981302261353e-02 -6.305190920829772949e-02 -2.740563265979290009e-02 5.886035785079002380e-02 5.483991280198097229e-02 6.537369638681411743e-02
-3.689941391348838806e-02 -2.814969420433044434e-02 -5.373717471957206726e-02 3.988911956548690796e-02 6.151926890015602112e-02 -1.775702089071273804e-02 9.545206092298030853e-03 -7.730992883443832397e-02 7.702196389436721802e-02 6.074394285678863525e-02
-1.291573420166969299e-02 1.385117229074239731e-02 -3.313881531357765198e-02 1.226289430633187294e-03 5.997424572706222534e-02 1.142601203173398972e-02 2.432808279991149902e-02 -4.335286095738410950e-02 -3.278560936450958252e-02 5.307834595441818237e-02
-6.858517415821552277e-03 -5.672551691532135010e-02 4.887544736266136169e-02 -3.370051272213459015e-03 -1.102241408079862595e-02 -6.026950199156999588e-03 -4.704444855451583862e-02 1.327931298874318600e-03 -1.268680207431316376e-02 1.470876764506101608e-02
5.693143978714942932e-02 2.925627492368221283e-02 3.081494197249412537e-02 -5.655508115887641907e-02 1.398889720439910889e-02 6.363905221223831177e-02 -3.662642324343323708e-03 -1.927280612289905548e-02 -5.275664106011390686e-02 5.492064356803894043e-02
1.858826959505677223e-03 -8.576029911637306213e-03 -3.446105495095252991e-02 -6.159649696201086044e-03 -2.475270070135593414e-02 -5.707220733165740967e-02 4.990969598293304443e-02 -4.953032359480857849e-03 5.153511464595794678e-02 -3.586513176560401917e-02
4.179516807198524475e-03 3.523189947009086609e-02 5.713255144655704498e-03 4.495903849601745605e-02 -1.638462953269481659e-02 -3.663187846541404724e-02 6.715048849582672119e-02 7.148545980453491211e-02 -1.378962118178606033e-02 5.873059481382369995e-02
-2.459551766514778137e-02 -7.579013705253601074e-02 -5.350913852453231812e-02 -6.708864867687225342e-02 -4.747747257351875305e-02 -4.124714806675910950e-02 6.879073381423950195e-02 -6.884834170341491699e-02 -5.427766591310501099e-04 4.173905029892921448e-02
-6.326831132173538208e-02 2.384030073881149292e-02 3.845222294330596924e-03 -5.696334689855575562e-02 -6.299436092376708984e-02 5.699938535690307617e-02 7.352134585380554199e-02 -3.100779652595520020e-02 -5.405991524457931519e-02 -1.636992022395133972e-02
2.713291719555854797e-02 1.426951680332422256e-02 -6.128730252385139465e-02 1.603263616561889648e-02 -4.078256897628307343e-03 -3.768799453973770142e-02 -1.064309501089155674e-03 -5.570039153099060059e-02 -5.116819962859153748e-02 7.426092401146888733e-03
4.245238751173019409e-02 -2.283606864511966705e-02 -1.124141830950975418e-02 -3.301446884870529175e-02 1.757712662220001221e-02 6.580857932567596436e-02 -4.528411664068698883e-04 2.433908870443701744e-03 7.004576921463012695e-02 -6.115593016147613525e-02
4.419819265604019165e-02 -2.021128498017787933e-02 -4.575362429022789001e-02 3.332857787609100342e-02 -1.926303096115589142e-02 -9.967143647372722626e-03 3.904081881046295166e-02 6.490631960332393646e-03 -4.565863870084285736e-03 -2.836228907108306885e-02
-5.948970839381217957e-02 5.675517395138740540e-02 -6.947612762451171875e-02 -1.975195296108722687e-02 2.193855121731758118e-02 7.324223965406417847e-02 1.883361861109733582e-02 4.047541320323944092e-02 6.941923499107360840e-02 6.627521663904190063e-02
4.986815038137137890e-04 -3.996437042951583862e-02 -6.157695502042770386e-02 2.075652405619621277e-02 6.841793656349182129e-02 2.969955466687679291e-02 -7.659869641065597534e-02 -1.851597917266190052e-03 -1.185658201575279236e-02 -2.383735403418540955e-02
2.007665485143661499e-02 1.970352046191692352e-02 7.068444788455963135e-02 1.660389825701713562e-02 -5.414618179202079773e-02 -8.302195346914231777e-04 -5.431176163256168365e-03 5.287513136863708496e-02 -3.118913061916828156e-02 3.042116202414035797e-02
-6.072996184229850769e-02 3.452103957533836365e-02 -1.498695276677608490e-02 -6.289628148078918457e-02 2.293594367802143097e-02 -7.065504789352416992e-02 -1.651222584769129753e-03 1.678552292287349701e-02 -3.437070176005363464e-02 7.588775455951690674e-02
4.912264645099639893e-03 -7.510654628276824951e-02 7.270443718880414963e-03 -4.274950176477432251e-02 2.117557637393474579e-02 6.143689155578613281e-02 -6.011428683996200562e-02 -3.842274472117424011e-02 -1.469445787370204926e-02 1.146753318607807159e-02
1.081887166947126389e-02 8.164774626493453979e-03 6.716861575841903687e-02 -4.678804427385330200e-02 6.495260447263717651e-02 6.986715644598007202e-02 -4.835832118988037109e-02 7.451232522726058960e-02 5.495944991707801819e-03 5.673657171428203583e-03
1.736023277044296265e-02 -1.177833136171102524e-02 1.847787946462631226e-02 4.692987725138664246e-02 -2.087541669607162476e-02 -3.609116747975349426e-02 -1.903589069843292236e-02 3.293803706765174866e-02 -6.584785878658294678e-02 2.154078893363475800e-02
3.750834846869111061e-03 -5.826596170663833618e-02 -1.232006959617137909e-02 7.414256036281585693e-02 4.125403612852096558e-02 6.306833121925592422e-03 5.597153678536415100e-02 -1.165460143238306046e-02 1.292666140943765640e-02 8.506367157679051161e-05
-5.100158974528312683e-02 6.012072041630744934e-02 7.337410748004913330e-02 7.176947593688964844e-02 -6.123637780547142029e-02 2.857717499136924744e-02 -2.771395817399024963e-02 -4.217272996902465820e-02 -1.834727823734283447e-02 2.216128399595618248e-03
7.296491879969835281e-03 -2.152042835950851440e-02 7.473366707563400269e-02 6.267011165618896484e-02 7.016589492559432983e-02 6.050950661301612854e-02 1.876656152307987213e-02 5.964066460728645325e-02 -4.491855204105377197e-02 1.874642819166183472e-02
-1.557989232242107391e-02 3.379874676465988159e-02 1.829438027925789356e-03 -7.192794978618621826e-02 -5.380309000611305237e-02 -5.900312960147857666e-02 -6.954448670148849487e-02 -1.693272963166236877e-02 -6.454670429229736328e-02 -6.883518397808074951e-02
-6.828609108924865723e-02 -7.365455478429794312e-02 4.023174941539764404e-02 -1.740536838769912720e-02 5.001065880060195923e-02 -7.549413945525884628e-03 3.639406338334083557e-02 -6.059818342328071594e-02 -3.560094162821769714e-02 -3.674161806702613831e-02
-5.384659394621849060e-02 5.134015157818794250e-02 -5.567862093448638916e-02 -4.671735689043998718e-02 5.231251940131187439e-02 -1.603787392377853394e-02 -3.642387315630912781e-02 1.640671305358409882e-02 -6.052239611744880676e-02 5.554535239934921265e-02
-1.084461528807878494e-02 3.040341101586818695e-02 5.085200816392898560e-02 3.196532651782035828e-02 7.542868703603744507e-02 3.174780681729316711e-02 -2.678473293781280518e-02 -6.667699781246483326e-04 4.835111554712057114e-03 2.844925783574581146e-02
-3.400293365120887756e-02 -2.771934494376182556e-02 -3.322558011859655380e-03 3.570660948753356934e-02 -4.321966320276260376e-02 -3.062129206955432892e-02 -3.164608776569366455e-02 -1.865911670029163361e-02 -2.278000488877296448e-02 -7.199198007583618164e-02
-6.188900396227836609e-02 3.020120598375797272e-02 1.082812552340328693e-03 -9.412483312189579010e-03 -6.503458321094512939e-02 -2.939053997397422791e-02 3.371639410033822060e-03 -5.857031326740980148e-03 -9.328316897153854370e-03 7.135386765003204346e-02
1.363005489110946655e-02 6.564758718013763428e-02 -6.403740495443344116e-02 -1.083003636449575424e-02 -6.627876311540603638e-02 -5.012127384543418884e-02 -8.328377734869718552e-04 5.547685176134109497e-02 -2.409863844513893127e-02 5.192163959145545959e-02
-6.553202122449874878e-02 4.294235631823539734e-02 -2.424529986456036568e-03 -3.800754994153976440e-02 -1.599692553281784058e-02 -4.090071190148591995e-03 -6.358557939529418945e-02 -4.024052992463111877e-02 -5.634254589676856995e-02 4.339103028178215027e-02
-4.789794608950614929e-02 2.768334560096263885e-02 6.420300900936126709e-02 2.959880791604518890e-02 7.078471034765243530e-02 3.259834600612521172e-03 1.714652217924594879e-02 5.766324698925018311e-02 2.287876419723033905e-02 3.574979305267333984e-02
-3.685996681451797485e-02 -1.417727023363113403e-02 -8.127845823764801025e-03 -7.308369874954223633e-02 -2.953296154737472534e-02 7.007239013910293579e-02 5.026608332991600037e-02 -6.555003114044666290e-03 -2.853303216397762299e-02 4.094205796718597412e-02
-1.412311755120754242e-02 -1.047887466847896576e-02 3.230472281575202942e-02 4.272731021046638489e-02 -6.012944877147674561e-02 -2.426025457680225372e-02 4.845651611685752869e-02 -7.403376698493957520e-02 -3.870100481435656548e-03 6.578829139471054077e-02
1.293842215090990067e-02 6.766105443239212036e-02 -2.179492637515068054e-02 5.802144855260848999e-02 5.155583098530769348e-02 4.264363273978233337e-02 3.632180392742156982e-02 1.032179594039916992e-02 4.288151860237121582e-02 2.351205423474311829e-02
-5.494583025574684143e-02 -4.883262515068054199e-02 -1.803455315530300140e-02 -2.619503298774361610e-03 2.946577966213226318e-02 -5.229305848479270935e-02 6.597987562417984009e-02 2.651017345488071442e-02 -1.058402354829013348e-03 7.569807767868041992e-02
-1.636203937232494354e-02 5.290930275805294514e-04 1.895113289356231689e-02 -6.779365241527557373e-02 -7.098452746868133545e-02 3.436075896024703979e-02 -5.656572058796882629e-02 -4.669267311692237854e-02 3.570504859089851379e-02 -3.642455115914344788e-02
-4.491361603140830994e-02 5.137734115123748779e-02 5.592267960309982300e-02 -2.450975961983203888e-02 6.538194417953491211e-02 -6.604390591382980347e-02 6.211028248071670532e-02 -2.704312093555927277e-02 1.311401720158755779e-03 7.481413334608078003e-02
-4.517372325062751770e-02 -3.804759308695793152e-02 1.827297545969486237e-02 -5.389960110187530518e-02 1.964292861521244049e-02 -1.940274983644485474e-02 3.594341874122619629e-02 -1.188929099589586258e-02 -6.671892851591110229e-02 -3.059571050107479095e-02
-2.907941862940788269e-02 -5.151272052899003029e-04 -4.297459870576858521e-02 1.416765525937080383e-02 -1.447475235909223557e-02 -2.866581641137599945e-02 6.048869341611862183e-02 1.613831147551536560e-02 -3.800587728619575500e-02 -2.498093247413635254e-02
3.900912031531333923e-02 6.434438377618789673e-02 4.661083966493606567e-02 2.883106842637062073e-02 5.710264295339584351e-02 -3.892527520656585693e-02 -2.066728100180625916e-02 -8.631158620119094849e-03 6.225566938519477844e-02 5.725330859422683716e-02
1.892865076661109924e-02 9.179551154375076294e-03 3.659359365701675415e-02 -4.141025617718696594e-02 -4.041380807757377625e-02 -1.072658132761716843e-02 4.096413962543010712e-03 -3.057609871029853821e-02 -7.357312738895416260e-02 -1.259649544954299927e-02
-6.298028677701950073e-02 3.280593780800700188e-03 7.375822961330413818e-02 1.686399243772029877e-02 -4.929149895906448364e-02 3.925797715783119202e-02 2.633935399353504181e-02 2.921339124441146851e-02 4.397685639560222626e-03 -4.019561037421226501e-02
-4.821277782320976257e-02 -1.027583330869674683e-02 5.066025629639625549e-02 6.827133893966674805e-02 -1.845287508331239223e-03 1.366328651783987880e-04 4.127311706542968750e-02 -5.515658855438232422e-02 -4.801168292760848999e-02 7.519476115703582764e-02
-3.822352364659309387e-02 -6.285120546817779541e-02 1.411943789571523666e-02 6.137954071164131165e-03 1.875708438456058502e-02 -2.176755852997303009e-02 -3.558510914444923401e-02 4.924927651882171631e-02 -2.399355359375476837e-02 2.210005652159452438e-03
-6.118756905198097229e-02 -3.995815664529800415e-02 1.034036837518215179e-02 -6.570171564817428589e-02 -5.446550622582435608e-02 5.105966236442327499e-03 5.013106763362884521e-02 -4.294096678495407104e-02 -4.749857261776924133e-02 4.922883585095405579e-03
3.263374045491218567e-02 -3.307440131902694702e-02 1.353123225271701813e-02 6.928101927042007446e-02 -2.265992015600204468e-02 2.499068714678287506e-02 3.182983025908470154e-02 -1.146126445382833481e-02 -2.127674408257007599e-02 -7.188920676708221436e-02
6.846222095191478729e-03 -5.230221152305603027e-02 -3.078406117856502533e-02 -6.217246875166893005e-02 2.753724344074726105e-02 -7.075855135917663574e-02 -5.771795660257339478e-02 -1.931867003440856934e-02 2.608471550047397614e-02 2.823291905224323273e-02
-4.482212476432323456e-03 -2.817791886627674103e-02 2.566711977124214172e-02 -2.763229422271251678e-02 -2.055612392723560333e-02 6.124535202980041504e-02 -5.919111892580986023e-02 -6.814816594123840332e-02 7.124458998441696167e-02 -5.785056948661804199e-02
3.186075761914253235e-02 -1.382069662213325500e-03 3.616477921605110168e-02 1.730935066007077694e-03 2.373272739350795746e-02 -5.036886036396026611e-02 -3.500368446111679077e-02 2.829281613230705261e-02 7.304691243916749954e-03 -9.496368467807769775e-03
6.341611035168170929e-03 3.205240145325660706e-02 -5.618444085121154785e-02 -6.049170345067977905e-02 -6.714789569377899170e-02 -7.261961698532104492e-02 -5.003876518458127975e-03 7.473541796207427979e-02 -4.797230660915374756e-02 2.967358008027076721e-02
4.119068384170532227e-02 -6.152110174298286438e-02 -3.128992393612861633e-02 3.492682054638862610e-02 6.699853390455245972e-02 5.785549059510231018e-02 -1.048342976719141006e-02 -3.798360377550125122e-02 -6.556931883096694946e-02 5.470401048660278320e-02
5.172912403941154480e-02 -4.075960814952850342e-02 -4.122618585824966431e-02 -6.894119828939437866e-02 7.557691633701324463e-02 -4.669401049613952637e-02 3.397859632968902588e-02 -7.310234755277633667e-02 -5.442537833005189896e-03 -5.714367702603340149e-02
-7.500720024108886719e-02 -4.973742365837097168e-02 -6.804592162370681763e-02 2.994730137288570404e-02 -4.274053871631622314e-02 8.344414643943309784e-03 -6.693883240222930908e-02 1.134738419204950333e-02 -2.695141360163688660e-03 3.476276248693466187e-02
7.323871552944183350e-02 6.852810084819793701e-02 -5.401019006967544556e-02 -2.402516268193721771e-02 -4.210009053349494934e-02 2.229765057563781738e-02 -7.504905760288238525e-02 -5.040325224399566650e-02 -4.925050958991050720e-02 -5.999247729778289795e-02
-1.850327476859092712e-02 6.321117281913757324e-03 -4.140601679682731628e-02 4.572503641247749329e-02 -5.330320447683334351e-02 -7.174985110759735107e-02 -5.819150060415267944e-02 3.100131172686815262e-03 -5.096457432955503464e-03 6.703525781631469727e-02
5.013666674494743347e-02 -7.435595989227294922e-02 -3.219408914446830750e-02 -1.631687954068183899e-02 2.104984037578105927e-02 -2.166345715522766113e-02 -5.956720560789108276e-02 -5.409236997365951538e-02 4.598098993301391602e-02 4.943449422717094421e-02
3.803565725684165955e-02 1.801391690969467163e-02 -4.474649578332901001e-02 2.082208544015884399e-02 -5.067262798547744751e-03 -3.327509015798568726e-02 -2.192194946110248566e-02 4.588367417454719543e-02 6.816563196480274200e-03 -4.938246309757232666e-02
4.162349551916122437e-02 4.728191718459129333e-02 -2.134931646287441254e-02 1.168191153556108475e-02 -7.034429907798767090e-02 -1.874284446239471436e-02 5.958868563175201416e-02 -5.252563953399658203e-02 -6.532080471515655518e-02 -6.561876833438873291e-02
7.533805817365646362e-02 7.677441835403442383e-02 -2.867677062749862671e-02 -4.367253556847572327e-02 -7.558028399944305420e-02 -3.206960111856460571e-02 -2.650110423564910889e-02 -5.186498910188674927e-02 -5.775838345289230347e-02 -4.968729987740516663e-02
2.060061320662498474e-02 -4.460040479898452759e-02 3.012509830296039581e-02 -6.639250367879867554e-02 -1.608438789844512939e-02 4.577617719769477844e-02 -5.583652481436729431e-02 -4.613779857754707336e-02 1.899873092770576477e-02 6.206410005688667297e-02
-5.708337575197219849e-02 -7.400336116552352905e-02 -7.276027649641036987e-02 4.021452367305755615e-02 -3.460640087723731995e-02 5.097903311252593994e-02 -6.581982970237731934e-02 -4.823844134807586670e-02 2.546721510589122772e-02 -1.741103269159793854e-02
8.147841319441795349e-03 3.392869606614112854e-03 -1.240314822643995285e-02 2.176838368177413940e-02 -2.378627471625804901e-02 3.180266544222831726e-02 -9.599635377526283264e-03 -2.782088331878185272e-02 -2.631394006311893463e-02 1.525512710213661194e-02
-7.577301561832427979e-02 5.562835559248924255e-02 1.503721438348293304e-02 -1.928746700286865234e-02 -5.443074926733970642e-02 -7.266955822706222534e-02 5.479316040873527527e-02 -1.847061514854431152e-02 -6.359779834747314453e-02 5.916831269860267639e-02
-3.757194802165031433e-02 -1.837869733572006226e-02 1.342842471785843372e-03 1.728788018226623535e-03 4.663411527872085571e-02 -2.042454108595848083e-02 6.892336159944534302e-02 -4.837935790419578552e-03 -7.128973305225372314e-02 5.105490610003471375e-02
5.141104385256767273e-02 -4.302480071783065796e-02 4.683063551783561707e-02 -7.553586363792419434e-02 1.193098607473075390e-03 -4.138617962598800659e-02 -6.916193524375557899e-04 -1.943102292716503143e-02 -6.318343430757522583e-02 -4.383565112948417664e-02
6.483078747987747192e-02 -7.126908004283905029e-02 4.918559268116950989e-02 -5.906470119953155518e-02 5.537003278732299805e-02 -6.761526316404342651e-02 -3.273770958185195923e-02 1.956968754529953003e-02 6.424174457788467407e-02 2.361676096916198730e-02
-5.562377721071243286e-02 -1.635346561670303345e-02 -1.991555094718933105e-03 3.748515248298645020e-02 -7.580751925706863403e-02 4.866947978734970093e-02 -5.649264901876449585e-02 -4.471741616725921631e-03 -3.032887727022171021e-02 3.759618848562240601e-02
-3.602559491991996765e-02 2.679866738617420197e-02 -2.526265196502208710e-02 7.371544092893600464e-02 2.226480282843112946e-02 3.218236565589904785e-02 4.534781724214553833e-02 2.857376448810100555e-02 7.259397953748703003e-02 6.682774424552917480e-02
-1.566383615136146545e-02 2.704918384552001953e-03 -2.177873998880386353e-02 2.053215540945529938e-02 7.523241639137268066e-02 5.471484735608100891e-02 -7.892858237028121948e-03 -5.441092327237129211e-02 -6.795788556337356567e-02 -7.268575578927993774e-02
-2.642792277038097382e-02 4.440660774707794189e-02 -4.036276414990425110e-02 -2.373862639069557190e-02 -4.525905847549438477e-02 4.362645000219345093e-02 -1.474788691848516464e-02 -7.234910875558853149e-02 -6.864561140537261963e-02 5.142876878380775452e-02
-2.138319797813892365e-02 2.257125638425350189e-02 -5.606490746140480042e-02 -6.132920831441879272e-02 -2.880000695586204529e-02 3.966168314218521118e-02 2.135976403951644897e-02 2.655358426272869110e-02 -3.300202637910842896e-02 -3.290199115872383118e-02
4.003141820430755615e-02 6.664592772722244263e-02 2.819022350013256073e-02 1.889166794717311859e-02 -3.991830721497535706e-02 -5.016345903277397156e-02 -4.312801361083984375e-02 -1.221620943397283554e-03 5.431915447115898132e-02 6.106185540556907654e-02
-6.041266024112701416e-02 3.645123541355133057e-02 7.468779105693101883e-03 7.225681841373443604e-02 6.266532838344573975e-02 2.569228224456310272e-02 -1.594810746610164642e-02 -3.353499993681907654e-02 -7.403077185153961182e-02 -5.647542700171470642e-02
-2.796999551355838776e-02 2.902921475470066071e-02 -5.221617966890335083e-02 7.722982019186019897e-02 5.327694863080978394e-02 5.985560826957225800e-03 4.711035639047622681e-03 -7.431174814701080322e-02 -2.792326547205448151e-02 -5.036780983209609985e-02
4.419463500380516052e-02 5.022888258099555969e-02 5.104521289467811584e-03 4.378197342157363892e-02 -5.067583918571472168e-02 5.882780998945236206e-02 -6.889768876135349274e-03 5.654615163803100586e-02 7.139448076486587524e-02 5.271204933524131775e-02
-8.998273406177759171e-04 -2.162528038024902344e-02 2.554768696427345276e-02 9.242214262485504150e-03 1.819254830479621887e-02 -3.777083382010459900e-02 4.744177684187889099e-02 8.660117164254188538e-03 -1.173608005046844482e-02 -6.153087690472602844e-02
1.247575972229242325e-02 5.609209463000297546e-02 1.369202788919210434e-02 -2.693651989102363586e-02 -1.600967533886432648e-02 -5.164771899580955505e-02 5.045996978878974915e-02 3.488691989332437515e-03 -5.474842339754104614e-02 7.225183397531509399e-02
-6.296131759881973267e-02 3.403557464480400085e-02 5.161891132593154907e-02 3.253317670896649361e-03 -9.681505151093006134e-03 -3.865990787744522095e-02 7.710375939495861530e-04 -7.085610181093215942e-02 3.134575672447681427e-03 6.855309754610061646e-02
2.582184039056301117e-03 -3.613733500242233276e-02 2.003649249672889709e-02 -2.838040515780448914e-02 -6.836764514446258545e-02 3.967233002185821533e-02 2.951478119939565659e-03 6.943368166685104370e-02 -7.863572798669338226e-03 5.502470582723617554e-02
-1.267408579587936401e-02 5.383674520999193192e-03 -2.141215652227401733e-02 5.194957926869392395e-02 2.107892930507659912e-02 1.551263593137264252e-02 5.860326439142227173e-02 2.635176107287406921e-02 -2.063426189124584198e-02 -3.757528215646743774e-02
2.606075070798397064e-02 1.645601913332939148e-02 4.257377237081527710e-02 6.181567907333374023e-02 6.113263219594955444e-02 5.645425245165824890e-02 -5.446978844702243805e-03 -4.622539505362510681e-02 -5.225809663534164429e-02 1.854977570474147797e-02
-5.497156083583831787e-02 -3.205561637878417969e-02 6.562823057174682617e-02 2.854318916797637939e-02 -5.727532878518104553e-02 -5.445278808474540710e-02 -5.589371919631958008e-02 6.342813372611999512e-02 -4.193330556154251099e-02 -5.762574076652526855e-02
2.594810165464878082e-02 -4.756898432970046997e-02 1.391514111310243607e-02 2.215656079351902008e-02 6.680268794298171997e-02 -2.449696417897939682e-03 -7.398287206888198853e-02 -1.461554970592260361e-02 -6.461472809314727783e-02 1.973871700465679169e-02
2.308309340151026845e-04 -7.142724096775054932e-02 9.063705801963806152e-03 -4.225280135869979858e-02 7.497584074735641479e-02 -5.054682865738868713e-02 5.584705248475074768e-02 9.037110023200511932e-03 -6.595779955387115479e-02 -4.780706390738487244e-02
-6.076027173548936844e-03 3.446085751056671143e-02 2.859331853687763214e-02 7.181064784526824951e-02 -3.505576029419898987e-02 1.936426386237144470e-02 -5.107361450791358948e-02 5.142691731452941895e-02 -1.293384935706853867e-02 -2.527424320578575134e-02
-4.552439600229263306e-02 -5.875930935144424438e-02 4.349656775593757629e-02 5.462818220257759094e-02 6.298279762268066406e-02 9.397787041962146759e-03 3.546225279569625854e-02 -1.598916389048099518e-02 6.689111888408660889e-02 8.269697427749633789e-03
5.720308423042297363e-02 -7.164023071527481079e-02 3.580397751647979021e-04 -5.443499889224767685e-03 4.419236257672309875e-02 -1.158577576279640198e-02 -1.458167098462581635e-03 5.981098487973213196e-02 -5.635896697640419006e-02 1.475552469491958618e-02
-1.601893221959471703e-03 1.261928677558898926e-02 -1.781379617750644684e-02 4.802717268466949463e-02 4.328503459692001343e-02 7.416737824678421021e-02 4.236859083175659180e-02 -2.666639909148216248e-02 -2.742080949246883392e-02 1.105924230068922043e-02
-7.733259350061416626e-02 -2.977551519870758057e-02 4.758763685822486877e-02 -3.324232250452041626e-02 5.388551577925682068e-02 6.526157259941101074e-03 -1.346151344478130341e-02 -3.232944756746292114e-02 5.153826996684074402e-02 -7.084071636199951172e-02
-5.519635602831840515e-02 3.926940262317657471e-02 -7.556639611721038818e-02 7.193116098642349243e-02 5.074045807123184204e-02 -4.031604621559381485e-03 4.140585660934448242e-02 -4.289095476269721985e-02 -5.429658293724060059e-02 7.104727625846862793e-02
3.743020817637443542e-02 4.910179600119590759e-02 8.577843196690082550e-03 3.732178732752799988e-02 7.581458985805511475e-02 9.180548600852489471e-03 -6.082731485366821289e-02 7.206615060567855835e-02 4.291559383273124695e-02 6.459297984838485718e-02
5.984448269009590149e-02 6.015748158097267151e-02 -7.469765096902847290e-02 -4.033307358622550964e-02 3.819259256124496460e-02 -5.095006152987480164e-02 -2.597095817327499390e-02 2.921977266669273376e-02 -4.197963699698448181e-02 3.378856927156448364e-02
5.180326476693153381e-02 -5.163839831948280334e-02 -1.737571507692337036e-02 -7.455062866210937500e-02 3.885662590619176626e-04 -5.794544517993927002e-02 -3.763208910822868347e-02 -3.848117589950561523e-02 7.355024665594100952e-02 -1.753835752606391907e-02
-6.523060798645019531e-02 3.807695955038070679e-02 4.912879317998886108e-02 -7.404613494873046875e-02 2.934912964701652527e-02 1.726579666137695312e-02 5.507163703441619873e-02 3.174888715147972107e-02 -7.114122807979583740e-02 3.520173579454421997e-02
-6.443260610103607178e-02 6.252788752317428589e-02 3.916558995842933655e-02 -4.260317981243133545e-02 4.919067025184631348e-02 -1.404215395450592041e-02 -1.482150331139564514e-02 -1.424155104905366898e-02 -7.591194659471511841e-02 -5.775128304958343506e-02
-3.396175801753997803e-02 -1.876294426620006561e-02 -5.078605189919471741e-02 -4.158499836921691895e-02 3.237999510020017624e-03 -3.340640291571617126e-02 2.774088643491268158e-02 5.081712827086448669e-02 -5.460362881422042847e-02 4.942369088530540466e-02
-1.945321075618267059e-02 -1.637155190110206604e-02 -1.196503080427646637e-02 3.880824521183967590e-02 -4.338612779974937439e-03 -6.092774495482444763e-02 6.855729967355728149e-02 -6.731270998716354370e-02 5.940447747707366943e-02 -6.635265052318572998e-02
-4.988210648298263550e-02 1.107673533260822296e-02 7.414760440587997437e-02 8.908352814614772797e-03 -3.368087112903594971e-02 -2.273074723780155182e-02 4.888434708118438721e-02 2.355397865176200867e-02 6.273352354764938354e-02 -4.953891411423683167e-02
-1.789038814604282379e-02 1.755297370254993439e-02 -6.506600230932235718e-02 -7.321111857891082764e-02 2.393388003110885620e-02 -5.822968110442161560e-02 1.133799832314252853e-02 -2.267089486122131348e-02 -4.090669751167297363e-02 6.613752245903015137e-02
4.651671648025512695e-02 -6.696990132331848145e-02 6.030573509633541107e-03 -6.401253491640090942e-02 -2.875152043998241425e-02 -5.438861623406410217e-02 6.798333674669265747e-02 -7.156591117382049561e-02 5.505042150616645813e-02 -4.216317832469940186e-02
-5.873735249042510986e-02 2.994635142385959625e-02 3.954317420721054077e-02 -6.926696002483367920e-02 3.538870438933372498e-02 -1.679988764226436615e-02 -6.354905664920806885e-02 4.228305816650390625e-02 -6.129934266209602356e-02 -4.362995736300945282e-03
3.439486771821975708e-02 -1.830051303841173649e-03 3.304925933480262756e-02 2.101326547563076019e-02 -7.416079193353652954e-02 -7.428941875696182251e-02 -7.435415685176849365e-02 -4.426543787121772766e-02 -4.218307510018348694e-02 -6.092118471860885620e-02
-3.897403180599212646e-02 7.031299918889999390e-02 1.361868064850568771e-02 -6.438581645488739014e-02 -4.363166540861129761e-02 -3.171367943286895752e-02 -5.902545899152755737e-02 -7.831455208361148834e-03 2.817248366773128510e-02 6.282666325569152832e-02
1.201465167105197906e-02 -1.114030834287405014e-03 4.838992655277252197e-02 -1.661526272073388100e-03 -7.444051653146743774e-02 -5.684983357787132263e-02 -2.514983061701059341e-03 -3.078931383788585663e-02 8.632993325591087341e-03 -2.981391362845897675e-02
6.704416126012802124e-02 6.950377952307462692e-03 3.264940530061721802e-02 -1.356210280209779739e-02 -6.028505787253379822e-02 2.256517671048641205e-02 -2.687111683189868927e-02 4.434208944439888000e-02 4.567342624068260193e-02 -6.493565626442432404e-03
-5.389176309108734131e-02 1.376313529908657074e-02 5.722163245081901550e-02 4.258085042238235474e-02 1.679156534373760223e-02 1.897258311510086060e-02 -5.847955867648124695e-02 -1.293284259736537933e-02 2.893827296793460846e-02 1.430494803935289383e-02
1.231831498444080353e-02 -1.091139949858188629e-02 5.312600359320640564e-02 -3.429788351058959961e-02 5.418208986520767212e-02 -7.055181078612804413e-03 -7.815225981175899506e-03 6.062129884958267212e-02 -6.813665479421615601e-02 7.425786554813385010e-02
5.484946817159652710e-02 -3.198155015707015991e-02 -6.927555054426193237e-02 -6.835204362869262695e-02 2.313238568603992462e-02 -5.096733570098876953e-02 4.646945372223854065e-02 6.105704978108406067e-02 -4.018514230847358704e-02 1.100510451942682266e-02
-6.131296046078205109e-03 2.741840295493602753e-02 4.834976047277450562e-02 1.903457194566726685e-02 -2.301732636988162994e-02 -3.085068985819816589e-02 2.487966418266296387e-02 6.165494397282600403e-02 -3.937971591949462891e-02 -2.577106468379497528e-02
-3.788680955767631531e-02 -4.731641709804534912e-02 5.835527926683425903e-02 -4.821872711181640625e-02 -7.057201117277145386e-02 5.784593895077705383e-02 -1.512776128947734833e-02 4.444013349711894989e-03 -5.267940089106559753e-02 -1.109099015593528748e-02
-5.560183525085449219e-02 5.699291080236434937e-02 1.007795520126819611e-02 -3.415494784712791443e-02 -1.438888814300298691e-02 1.222810428589582443e-02 -7.501815259456634521e-02 -1.061735488474369049e-02 2.577262185513973236e-02 -6.263083219528198242e-02
-3.036608919501304626e-02 5.845678970217704773e-02 7.014352083206176758e-02 2.858484722673892975e-02 5.294796824455261230e-02 4.031194001436233521e-02 -6.914522498846054077e-02 4.169758036732673645e-02 2.893561311066150665e-02 -5.825638771057128906e-02
4.542439803481101990e-02 2.301301062107086182e-02 -5.746059864759445190e-02 3.974031656980514526e-02 -2.094790339469909668e-02 2.929064072668552399e-02 -6.847133487462997437e-02 6.003236770629882812e-02 2.482095919549465179e-02 2.118695713579654694e-02
-2.477284520864486694e-02 9.863486513495445251e-03 3.000040724873542786e-02 -2.673470228910446167e-02 -1.789491809904575348e-02 -7.215191423892974854e-02 2.997978962957859039e-02 -2.011315897107124329e-02 5.267928168177604675e-02 -2.595787681639194489e-02
3.190567076671868563e-04 -6.261352449655532837e-02 7.190732657909393311e-02 4.989576712250709534e-02 -3.883050382137298584e-02 2.118898741900920868e-02 3.325187042355537415e-02 -6.533671170473098755e-03 -4.266795516014099121e-02 5.871606245636940002e-02
1.578212156891822815e-02 -3.123957850039005280e-02 4.549723584204912186e-03 6.164946407079696655e-02 -6.467713415622711182e-02 -2.051391825079917908e-02 6.976424157619476318e-02 -5.798858776688575745e-02 -7.413333654403686523e-02 5.637354403734207153e-02
-3.775718808174133301e-02 -3.965783864259719849e-02 -6.716217100620269775e-02 -2.841877564787864685e-02 2.015598118305206299e-02 5.177458003163337708e-02 -5.440831184387207031e-02 6.229018419981002808e-02 6.450179219245910645e-02 -5.750219151377677917e-02
-3.453120216727256775e-02 5.092331767082214355e-02 2.508528344333171844e-02 -2.039499208331108093e-02 -5.444909632205963135e-02 9.834387339651584625e-03 -5.380620434880256653e-02 -4.653883352875709534e-02 6.893277168273925781e-02 4.721001535654067993e-02
-3.938707336783409119e-02 -2.127106115221977234e-02 4.676124453544616699e-02 -7.493520528078079224e-02 4.042495042085647583e-02 6.792039424180984497e-02 5.905811116099357605e-02 2.029678784310817719e-02 -1.605412550270557404e-02 -4.042493179440498352e-02
-2.146057598292827606e-02 -1.648573204874992371e-03 -1.742820814251899719e-02 -4.763516783714294434e-02 -5.990203842520713806e-02 6.696397811174392700e-02 -4.826568067073822021e-02 5.995285138487815857e-02 -7.199837267398834229e-02 3.360265493392944336e-02
-5.088502913713455200e-02 5.982328206300735474e-02 -2.614387683570384979e-02 -5.968505516648292542e-03 -5.440771207213401794e-02 2.002370543777942657e-03 5.958813056349754333e-02 -3.841269388794898987e-02 6.285399198532104492e-02 -2.296033874154090881e-02
-4.284134134650230408e-02 4.150909557938575745e-02 -5.723669379949569702e-02 -1.810105144977569580e-02 6.126083806157112122e-02 6.182151660323143005e-02 1.241265144199132919e-02 -6.050055474042892456e-02 -2.526067942380905151e-02 1.896427012979984283e-02
1.780624873936176300e-02 -3.105510212481021881e-02 -3.406935557723045349e-02 3.687505796551704407e-02 5.191686004400253296e-02 -5.476326867938041687e-02 -4.224275797605514526e-02 -6.714101135730743408e-02 -5.563287809491157532e-02 -6.637419015169143677e-02
-1.789807865861803293e-04 4.475164040923118591e-02 1.626101881265640259e-02 -5.347416922450065613e-02 -5.128244310617446899e-02 -4.395816475152969360e-02 7.864443585276603699e-03 4.458381235599517822e-02 -2.529674582183361053e-02 -3.222387656569480896e-02
2.101454138755798340e-02 -3.864920139312744141e-02 7.744736038148403168e-03 4.799948632717132568e-02 -4.948872327804565430e-02 3.552458807826042175e-02 2.874251455068588257e-02 6.276080012321472168e-02 -3.786859288811683655e-02 2.484958060085773468e-02
-1.660546660423278809e-02 -3.613487258553504944e-02 5.390971153974533081e-02 1.698841154575347900e-02 6.854604464024305344e-03 -6.922850012779235840e-02 7.732329517602920532e-02 -5.277364701032638550e-02 9.572605602443218231e-03 2.295968309044837952e-02
-1.131391525268554688e-02 3.573922067880630493e-02 -1.585381850600242615e-02 5.337865650653839111e-02 7.546493411064147949e-02 -6.290663778781890869e-02 -4.211944341659545898e-02 -1.134599000215530396e-02 -6.443068385124206543e-03 1.991005986928939819e-02
-4.095686599612236023e-02 6.652952730655670166e-02 -4.182868078351020813e-02 6.956822425127029419e-02 9.521683678030967712e-03 -7.119089365005493164e-02 -9.908664040267467499e-03 -2.594741806387901306e-02 -2.010792121291160583e-02 -6.440401822328567505e-02
-4.858165606856346130e-02 4.248563572764396667e-02 -6.411563605070114136e-02 -7.372265309095382690e-02 1.299314014613628387e-02 -4.216622561216354370e-02 2.705322206020355225e-02 -3.591298684477806091e-02 -3.389941155910491943e-02 1.147397607564926147e-02
7.281591743230819702e-02 2.261153981089591980e-02 -3.614605218172073364e-02 -1.322161126881837845e-02 -2.703925711102783680e-04 -1.165129058063030243e-02 1.519453898072242737e-02 2.581540681421756744e-02 -6.075933575630187988e-03 -2.560190670192241669e-02
-3.358980268239974976e-02 3.190886229276657104e-02 -5.558630824089050293e-02 -7.528915884904563427e-04 -6.647580116987228394e-02 -2.690256200730800629e-02 -2.689662389457225800e-02 2.114217029884457588e-03 9.327727369964122772e-03 2.453008294105529785e-02
-7.162089645862579346e-02 3.943571448326110840e-02 7.039241492748260498e-02 7.607556879520416260e-03 5.285267531871795654e-02 5.701433122158050537e-02 3.030165284872055054e-02 1.546625047922134399e-02 -2.655314281582832336e-02 5.480135977268218994e-02
-4.440534114837646484e-02 8.712830021977424622e-03 -5.740681290626525879e-02 4.918187484145164490e-02 -6.850904226303100586e-02 7.593392580747604370e-02 5.595243722200393677e-02 2.573742717504501343e-02 -2.289541997015476227e-02 8.854434825479984283e-03
4.206521436572074890e-03 -1.959748752415180206e-02 6.076924502849578857e-02 -1.279601454734802246e-02 1.497240550816059113e-02 -1.049033459275960922e-02 -1.746365800499916077e-02 -3.391164913773536682e-02 4.435051605105400085e-02 -7.326047867536544800e-02
2.864117361605167389e-02 4.439025372266769409e-02 3.964509814977645874e-02 -1.767351059243083000e-03 -7.331161201000213623e-02 -5.311977490782737732e-02 -3.733963146805763245e-02 -2.473697438836097717e-02 -6.552968919277191162e-02 -4.273188114166259766e-02
-2.134289592504501343e-02 -7.257422432303428650e-03 5.925929173827171326e-02 -1.572314463555812836e-02 4.517325013875961304e-02 -4.863320663571357727e-02 -3.953045979142189026e-02 -1.151312422007322311e-02 3.418190637603402138e-03 5.558324232697486877e-02
5.355791375041007996e-02 3.328543901443481445e-02 -3.805824741721153259e-02 7.441777735948562622e-02 -5.587503686547279358e-02 7.714190986007452011e-03 -1.467449776828289032e-02 -5.494822189211845398e-02 4.644578695297241211e-02 3.101974353194236755e-02
-3.983871266245841980e-02 5.470000952482223511e-02 3.043192438781261444e-02 -3.557213023304939270e-02 6.075120344758033752e-02 3.295775502920150757e-02 2.231030911207199097e-02 -7.632710039615631104e-02 -5.384650081396102905e-02 1.083563640713691711e-02
4.906841367483139038e-02 5.359646677970886230e-02 7.584540639072656631e-03 4.787560552358627319e-03 7.550347596406936646e-02 -1.513262465596199036e-02 6.551068276166915894e-02 -5.253279209136962891e-02 -2.725609391927719116e-02 7.402057945728302002e-02
-4.307844489812850952e-02 -7.889087498188018799e-02 2.173739671707153320e-02 -5.651183053851127625e-02 -2.177947014570236206e-02 6.178467720746994019e-02 -5.006799846887588501e-02 1.445372402667999268e-02 -6.518042087554931641e-02 -4.098493233323097229e-02
6.170612573623657227e-02 6.149124237708747387e-04 7.126042246818542480e-02 -7.391380518674850464e-02 -1.089837867766618729e-02 6.119250133633613586e-02 2.023535594344139099e-02 -5.493852496147155762e-02 -6.517724692821502686e-02 -6.222260650247335434e-03
-1.724947616457939148e-02 -6.393310427665710449e-02 -6.315120961517095566e-03 4.601969569921493530e-02 2.778664790093898773e-02 -1.121175009757280350e-02 -1.739372685551643372e-02 -2.730880118906497955e-02 -6.410783529281616211e-02 -6.751433759927749634e-02
-6.689127534627914429e-02 5.526927858591079712e-02 3.452686592936515808e-02 -1.872949115931987762e-02 -5.636769533157348633e-02 -3.499443456530570984e-02 3.805616870522499084e-02 -5.440811067819595337e-02 4.356042947620153427e-03 6.194290146231651306e-02
-6.322362460196018219e-03 -3.873775899410247803e-02 -1.867754571139812469e-02 4.586574807763099670e-02 -3.119375742971897125e-02 -4.845567047595977783e-03 -4.725224897265434265e-02 1.043128874152898788e-02 -3.375415876507759094e-02 2.084395661950111389e-02
-2.509081363677978516e-02 -2.885982394218444824e-02 7.924250327050685883e-03 2.034949883818626404e-02 -1.401612535119056702e-02 -7.520633935928344727e-02 -2.297476492822170258e-02 -7.217895984649658203e-02 5.826320033520460129e-03 -3.827166557312011719e-02
7.256088405847549438e-02 -7.110428065061569214e-02 1.066375640220940113e-03 7.037250790745019913e-03 -1.764881983399391174e-02 -1.707279868423938751e-02 5.053709074854850769e-02 -4.059763997793197632e-02 -7.405964192003011703e-03 -3.290630131959915161e-02
6.903838366270065308e-03 5.636831745505332947e-02 -6.448211520910263062e-02 2.267987281084060669e-02 7.355131953954696655e-02 7.633573375642299652e-03 6.108952686190605164e-02 -4.348916932940483093e-02 -2.810932695865631104e-03 -7.638272363692522049e-03
-3.815760836005210876e-02 1.399256754666566849e-02 -3.441606462001800537e-02 -4.027642682194709778e-02 4.348563402891159058e-02 -7.177145686000585556e-03 -2.279742620885372162e-02 1.292844023555517197e-02 1.171319372951984406e-02 -1.080979313701391220e-02
4.658965766429901123e-02 6.263563036918640137e-02 -4.474260658025741577e-02 -5.476269498467445374e-02 -6.692222505807876587e-02 -8.828436024487018585e-03 -1.654573902487754822e-02 -4.034837707877159119e-02 -9.590991772711277008e-03 2.565670572221279144e-02
1.849728077650070190e-02 7.637308444827795029e-03 6.607389450073242188e-02 -4.834570735692977905e-02 5.246532335877418518e-02 1.250614691525697708e-02 4.432837665081024170e-02 3.481229767203330994e-02 -2.174983918666839600e-02 7.303503155708312988e-02
-4.197902232408523560e-02 -1.892812736332416534e-02 -6.799102574586868286e-02 6.737475842237472534e-02 -3.060644492506980896e-02 6.408682465553283691e-02 1.637279614806175232e-02 -6.339853256940841675e-02 -5.685457214713096619e-02 4.205457400530576706e-03
-3.970487043261528015e-02 7.156308740377426147e-02 -4.119729157537221909e-03 -3.196807205677032471e-02 1.149011310189962387e-02 6.585413217544555664e-02 -7.138260453939437866e-02 -2.110596932470798492e-02 3.105797618627548218e-02 1.285266503691673279e-02
7.993270643055438995e-03 -2.694546710699796677e-03 3.876374289393424988e-02 5.479537323117256165e-02 9.141263552010059357e-03 -3.880700469017028809e-02 6.993950158357620239e-02 1.579247415065765381e-03 -3.398638218641281128e-02 -6.473132222890853882e-02
6.203616969287395477e-03 -7.335238158702850342e-02 -1.560477446764707565e-02 -2.849933132529258728e-02 5.922413431107997894e-03 6.970375776290893555e-02 7.970200851559638977e-03 -4.153552278876304626e-02 5.382854864001274109e-02 4.642451647669076920e-03
4.097469896078109741e-02 -5.415439605712890625e-03 6.738759577274322510e-02 -5.442594736814498901e-02 -1.306175440549850464e-02 -5.560365691781044006e-02 4.527374356985092163e-02 -2.456456795334815979e-02 -7.023257762193679810e-02 -3.934381529688835144e-02
-2.365591377019882202e-02 3.519678860902786255e-02 1.095510926097631454e-02 1.385089848190546036e-02 5.528409034013748169e-02 1.359361968934535980e-02 -1.407303847372531891e-02 3.693884983658790588e-02 -6.037845462560653687e-02 1.348021253943443298e-02
4.971568286418914795e-02 3.721588850021362305e-02 -4.421794041991233826e-02 -4.438074678182601929e-02 3.244217857718467712e-02 -5.077099427580833435e-02 -1.907006464898586273e-02 -1.833889074623584747e-02 5.150534212589263916e-02 -2.161334641277790070e-02
-2.991483919322490692e-02 -1.669050939381122589e-02 7.326077204197645187e-03 -4.230126366019248962e-02 4.758973419666290283e-02 4.444321617484092712e-02 -4.994429275393486023e-02 -2.130203135311603546e-02 4.554039239883422852e-02 5.547669902443885803e-02
-3.959857393056154251e-03 2.397401444613933563e-02 4.990200698375701904e-02 -6.687107030302286148e-03 5.247053876519203186e-02 1.218015793710947037e-02 1.381543837487697601e-02 -6.221986841410398483e-03 -3.008774947375059128e-03 -5.281885713338851929e-02
-5.812241882085800171e-02 3.412460908293724060e-03 -6.759773939847946167e-02 4.952454566955566406e-02 4.860449582338333130e-02 -1.712366379797458649e-02 -4.119870718568563461e-03 1.764866523444652557e-02 -3.780890256166458130e-02 3.080656379461288452e-02
-1.804122328758239746e-02 -5.962628126144409180e-02 -7.438835501670837402e-02 -6.331961601972579956e-02 4.584548994898796082e-02 6.089700385928153992e-02 -5.868414416909217834e-02 5.755657330155372620e-02 5.269068479537963867e-02 -7.128792256116867065e-02
2.322634123265743256e-02 -1.195900622406043112e-04 -7.479268312454223633e-02 -2.519099507480859756e-03 2.882990520447492599e-03 -3.606581594794988632e-03 6.681900471448898315e-02 1.876464858651161194e-02 -4.530964419245719910e-02 -6.983476877212524414e-02
-2.790746977552771568e-03 5.878155678510665894e-02 -5.823899433016777039e-02 1.257958728820085526e-02 6.235372275114059448e-02 -6.748989969491958618e-02 -5.645699426531791687e-02 -1.675231941044330597e-02 -1.405261456966400146e-02 2.483115717768669128e-02
-5.112435296177864075e-02 1.944749616086483002e-03 5.858431011438369751e-02 -5.897772032767534256e-03 1.849893294274806976e-02 -3.007190302014350891e-02 4.356988519430160522e-02 -2.869336633011698723e-03 -3.723993524909019470e-02 -6.069337949156761169e-02
3.280451893806457520e-02 -7.384265959262847900e-02 1.463420782238245010e-02 -6.020138505846261978e-03 -4.584674257785081863e-03 -3.207745403051376343e-02 5.138115957379341125e-02 -2.704801969230175018e-02 3.027917584404349327e-03 -1.500633172690868378e-02
-3.922788053750991821e-02 -5.611842125654220581e-02 4.978780820965766907e-02 -1.222917623817920685e-02 5.527257546782493591e-02 -1.667786389589309692e-03 1.336248125880956650e-02 -7.072620838880538940e-02 3.000093996524810791e-02 -1.884038001298904419e-02
-5.641780793666839600e-03 -1.975293643772602081e-02 -6.390593200922012329e-02 6.733672227710485458e-03 -5.749157071113586426e-02 1.696531474590301514e-02 -5.639030784368515015e-02 1.609534956514835358e-02 -6.934848148375749588e-03 2.717127650976181030e-02
2.642147801816463470e-02 -9.606609120965003967e-03 -1.177780330181121826e-02 4.062116518616676331e-02 -4.581456631422042847e-02 4.662755131721496582e-02 -2.348183654248714447e-02 1.092355791479349136e-02 3.998405858874320984e-02 -4.681603237986564636e-02
-4.277501627802848816e-02 -3.361556306481361389e-02 4.631249979138374329e-02 -3.343177214264869690e-02 -7.507009804248809814e-02 -2.955743297934532166e-02 3.090338967740535736e-02 -4.644264467060565948e-03 -1.516614202409982681e-02 -5.034144222736358643e-02
5.894281715154647827e-02 -1.366324815899133682e-02 6.176634132862091064e-02 3.495379909873008728e-02 6.279806792736053467e-02 5.899800732731819153e-02 1.958492444828152657e-03 -4.348721727728843689e-02 5.837734043598175049e-02 -5.215372890233993530e-02
3.459206968545913696e-02 6.295540183782577515e-02 3.801136091351509094e-02 -4.346305131912231445e-02 -1.668726094067096710e-02 4.632757231593132019e-02 6.746599078178405762e-02 5.855592899024486542e-03 -2.488769777119159698e-02 -5.503112822771072388e-02
-3.699782863259315491e-02 2.967220731079578400e-02 -6.494332104921340942e-02 1.524042524397373199e-02 2.066286094486713409e-02 -3.782995045185089111e-02 2.866569533944129944e-02 -1.909276843070983887e-02 4.000727087259292603e-02 -3.743409365415573120e-02
4.271224513649940491e-02 3.439907729625701904e-02 2.207027375698089600e-02 -5.233169998973608017e-03 3.227508068084716797e-02 5.028193071484565735e-02 3.272482007741928101e-02 -3.193767741322517395e-02 -3.439951315522193909e-02 1.388784404844045639e-02
2.413227222859859467e-02 6.113832816481590271e-02 4.439073801040649414e-02 -6.484876573085784912e-02 -6.582649797201156616e-02 -6.012218445539474487e-02 7.687337696552276611e-02 -1.578096486628055573e-02 -2.339797466993331909e-02 -7.169754803180694580e-02
-4.766549170017242432e-02 5.394000187516212463e-02 -2.841249108314514160e-02 -2.996955625712871552e-02 7.998970337212085724e-03 -7.096962071955204010e-03 7.958178175613284111e-04 -1.819432526826858521e-02 -5.591893568634986877e-02 -5.936860665678977966e-02
1.593071781098842621e-02 -2.997040050104260445e-03 5.623579397797584534e-02 -4.246994480490684509e-02 4.986700415611267090e-02 9.638604708015918732e-03 7.028326392173767090e-02 -4.520268738269805908e-02 4.013787582516670227e-02 5.250089615583419800e-02
-1.972513832151889801e-02 -3.409634530544281006e-02 -9.825063170865178108e-04 1.830613054335117340e-02 3.499320521950721741e-02 -2.778084250167012215e-03 -5.907890945672988892e-02 3.547328710556030273e-02 -7.314912974834442139e-02 -1.455951388925313950e-02
6.571937352418899536e-02 -3.605591366067528725e-03 -8.281282149255275726e-03 -6.796631962060928345e-02 4.450132697820663452e-02 -3.343573585152626038e-02 -5.879815295338630676e-02 2.340860292315483093e-02 1.659305882640182972e-03 -1.133992988616228104e-02
7.114727795124053955e-02 -2.035477571189403534e-02 -7.203160226345062256e-02 -7.250528037548065186e-02 2.908572554588317871e-02 -7.036619633436203003e-02 6.363566964864730835e-02 -7.187872380018234253e-02 4.985830187797546387e-02 2.973727881908416748e-02
-1.863008178770542145e-02 -6.820112466812133789e-02 3.701414167881011963e-02 2.578128827735781670e-03 -3.847407549619674683e-02 -6.750182807445526123e-02 -3.599193319678306580e-02 7.534419000148773193e-02 -2.763474360108375549e-02 -1.026062481105327606e-02
3.792270272970199585e-02 3.015724010765552521e-02 6.344580650329589844e-02 -7.288289070129394531e-02 8.936313912272453308e-03 6.117595732212066650e-02 5.367966741323471069e-02 7.120560109615325928e-02 -8.199528791010379791e-03 -5.661301687359809875e-02
7.608063519001007080e-02 -3.105437941849231720e-02 4.960987251251935959e-03 -5.440822988748550415e-02 6.044092401862144470e-02 -4.783850535750389099e-02 2.556391060352325439e-02 5.188496410846710205e-02 -1.299258880317211151e-02 -1.197961624711751938e-02
-6.420937180519104004e-02 -7.170014828443527222e-02 4.353997297585010529e-03 -7.362581789493560791e-02 4.430110007524490356e-02 1.411440549418330193e-03 1.794068515300750732e-02 -4.732273519039154053e-02 -6.264074146747589111e-02 -7.378862355835735798e-04
-4.007127135992050171e-02 -6.662461161613464355e-02 -2.357047609984874725e-02 -6.692241877317428589e-03 5.284260585904121399e-02 5.114526674151420593e-02 4.527710378170013428e-02 5.870794877409934998e-02 1.250908523797988892e-02 2.653279900550842285e-02
5.828507617115974426e-02 -6.216872949153184891e-03 -3.741304576396942139e-02 1.609304361045360565e-02 1.765551231801509857e-02 -3.855604212731122971e-03 -2.592732757329940796e-02 -2.604005392640829086e-03 1.357279997318983078e-02 2.782988734543323517e-02
6.658746302127838135e-02 -1.463711634278297424e-02 -4.601918905973434448e-02 -2.087328210473060608e-02 7.175706326961517334e-03 -1.323848217725753784e-02 4.081775993108749390e-02 -8.610129356384277344e-03 -2.609100192785263062e-02 6.060639023780822754e-02
2.696519717574119568e-02 -5.615859851241111755e-02 -3.192729502916336060e-02 -5.671121180057525635e-03 -5.255994573235511780e-02 -8.315306156873703003e-03 3.913332149386405945e-02 2.016141451895236969e-02 -7.601581513881683350e-02 -1.196219585835933685e-02
6.943972408771514893e-02 3.319634869694709778e-02 -1.930037327110767365e-02 -1.298613380640745163e-02 6.572173535823822021e-02 4.609408229589462280e-02 -3.134641051292419434e-02 -5.462710279971361160e-03 4.152755439281463623e-02 1.752428524196147919e-02
2.310433238744735718e-02 7.348678261041641235e-02 -4.198293760418891907e-02 -4.005347192287445068e-02 6.722290068864822388e-02 2.867927588522434235e-02 -6.532786786556243896e-02 1.942641101777553558e-02 -7.202278939075767994e-04 6.983749568462371826e-02
2.894032932817935944e-02 -4.885045066475868225e-02 7.246384769678115845e-02 5.469418317079544067e-02 -1.948031969368457794e-02 -1.162380259484052658e-02 -1.132584176957607269e-02 -2.737599052488803864e-02 3.221648931503295898e-02 -2.960449829697608948e-02
5.900159478187561035e-02 6.778115872293710709e-03 -2.684457227587699890e-02 5.758572369813919067e-02 4.216959699988365173e-02 -1.402471680194139481e-02 1.112219179049134254e-03 5.461139604449272156e-02 -2.531251870095729828e-02 -1.469651516526937485e-02
-7.126046717166900635e-02 5.584658309817314148e-02 5.053040385246276855e-02 -1.114894077181816101e-02 -4.933489020913839340e-03 -4.287667199969291687e-02 5.318076815456151962e-03 -6.211940571665763855e-02 2.351995930075645447e-02 3.521286696195602417e-02
6.361119449138641357e-02 -4.465078935027122498e-02 8.781713433563709259e-03 6.239165738224983215e-02 7.545995991677045822e-03 -5.376910790801048279e-02 -3.652497753500938416e-02 -1.888911426067352295e-02 -3.642100095748901367e-02 4.443174228072166443e-02
6.404850631952285767e-02 3.341163694858551025e-02 -6.534332036972045898e-02 -4.219846054911613464e-02 -1.274627167731523514e-02 6.881151348352432251e-02 -2.596799843013286591e-02 2.158955298364162445e-02 -6.122193858027458191e-02 -6.568750739097595215e-02
1.304508931934833527e-02 4.032367840409278870e-02 6.603200733661651611e-02 -1.426592469215393066e-02 -2.398764528334140778e-02 6.593793630599975586e-02 1.548379473388195038e-02 6.619540601968765259e-02 -7.719822693616151810e-03 -1.032092049717903137e-02
-1.694198581390082836e-03 -3.360962867736816406e-02 1.357703655958175659e-02 5.300569534301757812e-02 4.904032126069068909e-02 -9.512345306575298309e-03 1.055830158293247223e-02 6.902143359184265137e-02 4.411801346577703953e-04 -4.813403636217117310e-02
1.792943105101585388e-03 6.352658569812774658e-02 1.415747310966253281e-02 -7.544432301074266434e-03 -7.091740518808364868e-02 2.460400015115737915e-02 2.872217074036598206e-02 -5.393239110708236694e-02 -5.206958949565887451e-02 6.631197035312652588e-02
-3.978392854332923889e-02 -1.643449999392032623e-02 -7.364773750305175781e-02 3.841651137918233871e-03 7.504959404468536377e-02 -1.906307600438594818e-02 -4.174713417887687683e-02 -5.628881976008415222e-02 6.764291971921920776e-02 4.894079640507698059e-02
4.432361572980880737e-02 -1.577359996736049652e-02 -1.394866965711116791e-02 2.714510075747966766e-02 -2.557431347668170929e-02 3.391978144645690918e-02 7.049997150897979736e-02 7.296068221330642700e-02 7.417202740907669067e-02 1.688152179121971130e-02
1.322126854211091995e-02 -3.743484616279602051e-02 -7.416573911905288696e-02 -7.406417746096849442e-03 -4.203564301133155823e-02 -4.727267101407051086e-02 5.645914003252983093e-02 -3.427157411351799965e-03 6.717249751091003418e-02 4.054519161581993103e-02
6.241431087255477905e-02 -4.490901529788970947e-02 -2.403688989579677582e-02 6.098596006631851196e-02 -6.655316799879074097e-02 -4.458245262503623962e-02 4.238146170973777771e-02 -4.509477689862251282e-02 5.930980294942855835e-02 3.066285327076911926e-02
-6.058576516807079315e-03 -7.579644210636615753e-03 3.658724203705787659e-02 1.521537452936172485e-02 -6.024254113435745239e-02 4.999962821602821350e-02 3.810426220297813416e-02 -6.774095445871353149e-02 -2.205673605203628540e-02 -5.219241231679916382e-02
2.523551322519779205e-02 4.339119885116815567e-03 -6.751149147748947144e-02 4.783076047897338867e-02 1.476712990552186966e-02 7.552000880241394043e-02 1.810932904481887817e-02 -3.508780524134635925e-02 5.559551343321800232e-02 -5.007710680365562439e-02
-3.088691737502813339e-03 5.669920891523361206e-02 4.558821767568588257e-02 6.834073457866907120e-03 2.629327215254306793e-02 -3.670965787023305893e-03 4.041886702179908752e-02 -2.682513091713190079e-03 6.386930495500564575e-02 5.436759814620018005e-02
7.756691426038742065e-03 7.495526969432830811e-02 1.109135895967483521e-02 -9.240994229912757874e-03 -4.625746607780456543e-02 -7.267147302627563477e-02 2.876713126897811890e-02 7.576391100883483887e-02 -4.157079011201858521e-02 -3.711540251970291138e-02
-4.615672677755355835e-02 -3.576217964291572571e-02 -1.303214859217405319e-02 6.780011206865310669e-02 -8.267856203019618988e-03 6.230712309479713440e-02 4.151678830385208130e-02 -7.072707265615463257e-02 2.080243313685059547e-03 -6.879624724388122559e-02
-3.211395815014839172e-03 -3.022625856101512909e-02 4.766903817653656006e-02 -1.073739025741815567e-02 -6.532685458660125732e-02 -5.057778954505920410e-02 -6.447514891624450684e-02 1.882307603955268860e-02 -2.483871392905712128e-02 -2.023400738835334778e-02
6.593701243400573730e-02 -3.391740471124649048e-02 -1.883232966065406799e-02 3.825280815362930298e-02 6.633192300796508789e-02 3.794252499938011169e-02 3.690082579851150513e-02 1.927082799375057220e-02 4.592375084757804871e-02 9.198088198900222778e-03
4.552758857607841492e-02 -5.653106141835451126e-03 2.868697606027126312e-02 6.994428485631942749e-02 4.627522453665733337e-02 -6.482336670160293579e-02 4.252346977591514587e-02 -1.351176295429468155e-02 -2.690716180950403214e-03 -4.568022489547729492e-02
-5.848750844597816467e-02 -5.710266157984733582e-02 5.987534299492835999e-02 -6.725949794054031372e-02 -5.070183053612709045e-02 -2.201153198257088661e-03 1.758314296603202820e-02 -4.359532147645950317e-02 4.329700767993927002e-02 -1.712387427687644958e-02
-3.528384491801261902e-02 4.912278801202774048e-02 -1.359198521822690964e-02 2.589445374906063080e-02 -6.084512174129486084e-02 -8.488953113555908203e-03 3.215876594185829163e-02 1.423705276101827621e-02 -1.022651884704828262e-02 -8.143142797052860260e-03
5.742534995079040527e-03 -3.379920870065689087e-02 4.680908098816871643e-02 2.290177531540393829e-02 -1.902896352112293243e-02 6.126480177044868469e-02 -5.963266268372535706e-02 -6.626764684915542603e-02 -1.057681441307067871e-02 2.703748270869255066e-02
-1.345390733331441879e-02 -3.726513823494315147e-03 -3.386058658361434937e-02 4.112678393721580505e-02 -5.313151050359010696e-03 4.656904190778732300e-02 2.939435839653015137e-02 3.134298324584960938e-02 -1.778586395084857941e-02 -1.620720885694026947e-02
6.048170849680900574e-02 1.397246378473937511e-04 1.413888670504093170e-02 2.000408992171287537e-02 -3.176708472892642021e-03 -6.621057540178298950e-02 -6.461764127016067505e-02 -5.944859236478805542e-02 -2.729991637170314789e-02 -4.627222940325737000e-02
-2.405211515724658966e-02 5.798022821545600891e-02 3.257695585489273071e-02 2.086897194385528564e-02 1.986982300877571106e-02 -3.171129524707794189e-02 -1.970236375927925110e-02 3.716007267939858139e-05 2.802144549787044525e-02 2.292471379041671753e-02
6.531348079442977905e-02 6.005480885505676270e-02 -5.478833988308906555e-02 -3.755000187084078789e-03 4.201515763998031616e-02 -3.856264799833297729e-02 -5.675024166703224182e-02 -6.595370918512344360e-02 2.238411083817481995e-02 5.458428524434566498e-03
2.354175969958305359e-02 -6.409580260515213013e-02 3.158390894532203674e-02 -4.819641634821891785e-02 5.307985842227935791e-02 3.643177449703216553e-02 6.129519268870353699e-02 -1.021368801593780518e-02 -4.447029531002044678e-02 -4.670293256640434265e-02
-6.275825947523117065e-02 -7.207718491554260254e-02 6.024407967925071716e-02 2.338374266400933266e-03 -1.665147766470909119e-02 -5.053507164120674133e-02 -6.903486064402386546e-05 -3.247135132551193237e-02 2.921614609658718109e-02 6.078964844346046448e-02
4.669612646102905273e-02 1.180517859756946564e-02 5.823633447289466858e-02 4.092713817954063416e-03 -5.093162134289741516e-02 2.215864509344100952e-02 4.723266232758760452e-03 6.462613493204116821e-02 6.690533831715583801e-03 -6.562674790620803833e-02
-4.112911969423294067e-02 -6.454648077487945557e-02 -2.229842171072959900e-02 2.614093758165836334e-02 1.694539561867713928e-02 3.096007183194160461e-02 -5.276505276560783386e-02 9.893717942759394646e-04 9.624993428587913513e-03 -2.903962321579456329e-02
2.589996159076690674e-02 -6.311359256505966187e-02 -5.981338024139404297e-02 -8.455988951027393341e-03 1.852678833529353142e-03 5.750229209661483765e-02 7.414320856332778931e-02 2.001586370170116425e-02 -7.524151355028152466e-02 6.741373240947723389e-02
-1.790576614439487457e-02 -2.984574809670448303e-02 -2.724978141486644745e-02 -2.296381443738937378e-02 3.918788582086563110e-02 -1.713061891496181488e-02 4.504808411002159119e-02 6.075837463140487671e-02 -3.298249840736389160e-02 3.464219719171524048e-02
-1.440346520394086838e-02 1.795185729861259460e-02 1.327373739331960678e-02 4.420321062207221985e-02 2.878944156691431999e-03 4.436462000012397766e-02 -7.456493377685546875e-02 -6.240244954824447632e-02 5.471875891089439392e-02 4.172514006495475769e-02
-1.366485469043254852e-02 4.697339609265327454e-02 1.628796220757067204e-03 -3.659014403820037842e-02 5.684522166848182678e-02 -7.492412626743316650e-02 4.848439618945121765e-02 -7.109932601451873779e-02 -4.853610694408416748e-02 -2.018303377553820610e-03
7.393196970224380493e-02 -1.245801523327827454e-02 -5.234390869736671448e-02 8.022393099963665009e-03 1.406348962336778641e-02 6.786113232374191284e-02 4.016082361340522766e-02 1.420162059366703033e-02 3.284826129674911499e-02 -5.737332999706268311e-02
-3.777376934885978699e-02 1.366816554218530655e-02 7.553814351558685303e-02 6.396713107824325562e-02 4.170732200145721436e-02 -2.994867973029613495e-03 -4.555012285709381104e-02 -5.558901280164718628e-02 4.340614378452301025e-02 -3.596662729978561401e-02
5.015058908611536026e-03 3.892345353960990906e-02 3.290333598852157593e-02 -3.457721695303916931e-02 -1.547973603010177612e-02 -2.017954736948013306e-02 1.597510650753974915e-02 -5.881179496645927429e-02 -3.834258764982223511e-02 -5.001883581280708313e-02
-6.538467016071081161e-03 -2.114987932145595551e-02 2.917329035699367523e-02 4.045470152050256729e-03 -6.895590107887983322e-03 7.349023222923278809e-02 -1.192840468138456345e-02 1.243741437792778015e-02 -6.706407666206359863e-02 4.133876413106918335e-03
-1.389907766133546829e-02 -6.301659741438925266e-04 6.525100022554397583e-02 5.282777920365333557e-02 -1.954808831214904785e-02 1.877908222377300262e-02 5.503052845597267151e-02 -5.363001674413681030e-02 -5.752085149288177490e-02 -4.614405333995819092e-03
1.871067658066749573e-02 5.667866021394729614e-02 7.413959503173828125e-02 2.561947796493768692e-03 -3.616354241967201233e-02 -1.990341581404209137e-03 2.940066903829574585e-02 8.939950726926326752e-03 4.759384319186210632e-02 -2.864059805870056152e-02
2.427553059533238411e-03 5.341668054461479187e-02 -4.804741125553846359e-03 6.212439015507698059e-02 -4.300633072853088379e-02 3.279023617506027222e-02 -2.309545874595642090e-02 -4.501303285360336304e-02 -5.184391140937805176e-02 -6.644327193498611450e-02
6.194688612595200539e-04 1.572203077375888824e-02 1.683215610682964325e-02 1.400120928883552551e-02 4.099636524915695190e-02 2.856275252997875214e-02 2.668548375368118286e-02 -6.738806515932083130e-02 1.428804546594619751e-02 -6.200671941041946411e-02
1.265850476920604706e-02 8.032418554648756981e-04 -5.724709853529930115e-02 -6.700424849987030029e-02 -2.517045475542545319e-02 2.851504646241664886e-02 4.428222402930259705e-02 -6.955383718013763428e-02 2.040772931650280952e-03 4.318074882030487061e-02
6.209795176982879639e-02 4.626354947686195374e-02 6.044572964310646057e-02 6.299085170030593872e-02 3.618420287966728210e-02 4.480338841676712036e-02 3.930521011352539062e-02 -1.479905471205711365e-02 9.692333638668060303e-03 -4.324757680296897888e-02
7.613291591405868530e-02 -6.247755140066146851e-02 7.507868856191635132e-02 2.171691507101058960e-03 4.477603361010551453e-02 7.543406635522842407e-02 2.913154475390911102e-02 2.802208438515663147e-02 -6.198120117187500000e-02 -4.974280297756195068e-02
1.486275065690279007e-02 -1.221297029405832291e-02 6.405922025442123413e-02 4.145082458853721619e-02 2.430351916700601578e-03 3.312692511826753616e-03 3.342339396476745605e-02 1.602784171700477600e-02 5.421269312500953674e-02 -3.777617961168289185e-02
-5.878141149878501892e-02 1.021478604525327682e-02 -6.953164190053939819e-02 -1.044273003935813904e-02 -3.291569277644157410e-02 -2.947203256189823151e-02 -6.174862384796142578e-02 4.439805448055267334e-02 -2.271634899079799652e-02 -5.427138879895210266e-02
-5.623291060328483582e-02 5.704184621572494507e-02 4.709644988179206848e-02 -6.518428772687911987e-02 -6.033355742692947388e-02 -5.911704897880554199e-02 2.713304013013839722e-02 1.892945729196071625e-02 -1.510903332382440567e-02 -2.713176980614662170e-02
1.253700163215398788e-02 -5.730148032307624817e-02 2.720194496214389801e-02 -4.576447606086730957e-02 4.036209732294082642e-02 -5.408124998211860657e-02 -2.038821950554847717e-02 5.525802075862884521e-02 -3.156407969072461128e-03 -4.186599329113960266e-02
-2.560701407492160797e-02 2.193277888000011444e-02 2.115811966359615326e-02 -3.916670009493827820e-02 3.995705395936965942e-02 1.515674684196710587e-02 -5.665983259677886963e-02 -9.706203825771808624e-03 1.184109319001436234e-02 2.552466467022895813e-02
2.372732199728488922e-02 3.810319304466247559e-02 -1.415414363145828247e-02 2.019246667623519897e-02 5.366303026676177979e-02 6.029044091701507568e-02 -5.036729574203491211e-02 -1.279656891711056232e-03 -8.684423752129077911e-03 -6.569734308868646622e-03
4.528572037816047668e-02 -3.121669031679630280e-02 7.452215999364852905e-02 9.982373565435409546e-03 4.569827765226364136e-02 5.439702793955802917e-02 4.735337197780609131e-02 2.940691541880369186e-03 -1.636078022420406342e-02 -9.920694865286350250e-04
7.576050609350204468e-02 -7.121050357818603516e-02 -1.660448312759399414e-02 -4.513671994209289551e-02 -1.287119742482900620e-02 4.714888334274291992e-02 -1.751353556755930185e-04 -7.245936989784240723e-02 2.307539246976375580e-02 3.147847950458526611e-02
-5.885931476950645447e-02 6.343011278659105301e-03 -3.412936627864837646e-02 7.611939311027526855e-02 -3.072462603449821472e-02 -7.554776221513748169e-02 -7.296968996524810791e-02 -3.104607202112674713e-02 -3.681977093219757080e-02 5.926246568560600281e-02
-3.067604638636112213e-02 6.693501770496368408e-02 -2.966930530965328217e-02 3.880670666694641113e-02 1.381137408316135406e-02 2.831130661070346832e-02 -2.608760818839073181e-02 6.351897865533828735e-02 3.878826275467872620e-02 7.751018740236759186e-03
2.789954841136932373e-02 2.782116644084453583e-02 -6.878471374511718750e-02 -1.922176405787467957e-02 9.376059286296367645e-03 -5.769548565149307251e-02 4.634886607527732849e-02 -6.538614630699157715e-02 4.375988245010375977e-02 -7.448442280292510986e-02
1.252198405563831329e-02 7.575585693120956421e-02 7.339378446340560913e-02 3.403489664196968079e-02 7.354910671710968018e-02 2.702075429260730743e-02 -7.625108957290649414e-02 -5.508132651448249817e-02 -7.126614451408386230e-02 -1.430143043398857117e-02
5.173355340957641602e-02 -7.745516020804643631e-03 4.291637241840362549e-02 5.630741268396377563e-02 6.016020849347114563e-02 -5.425946041941642761e-02 -7.194431126117706299e-02 5.203273892402648926e-02 1.786513626575469971e-02 -5.431792885065078735e-02
-5.758951231837272644e-02 6.164016947150230408e-02 4.007093608379364014e-02 -7.193203270435333252e-02 2.665431238710880280e-02 5.783651024103164673e-02 5.334743484854698181e-02 5.993222817778587341e-02 4.170115664601325989e-02 -1.971213705837726593e-02
3.676823154091835022e-02 -5.406524240970611572e-02 -3.471136465668678284e-02 5.413076281547546387e-02 4.747499525547027588e-02 2.161358855664730072e-02 -3.134845197200775146e-02 -4.646745044738054276e-03 -6.664080917835235596e-02 2.411598525941371918e-02
1.348192337900400162e-02 3.023799508810043335e-02 -9.662522003054618835e-03 -5.288200080394744873e-02 6.452504545450210571e-02 3.186871111392974854e-02 4.458468034863471985e-02 1.637346670031547546e-02 -6.673628091812133789e-02 3.454444231465458870e-04
5.741003528237342834e-02 5.869241431355476379e-02 -3.724389150738716125e-02 -6.382686644792556763e-02 -2.885435707867145538e-02 5.081605538725852966e-02 -7.498524338006973267e-02 -3.652651235461235046e-02 -8.650522679090499878e-03 2.702102996408939362e-02
-7.418095320463180542e-02 2.430864237248897552e-02 9.310862980782985687e-03 7.731988094747066498e-03 -4.612164571881294250e-02 -5.931555293500423431e-03 3.704661875963211060e-02 -4.735086113214492798e-03 1.721013803035020828e-03 5.746247619390487671e-02
-4.733765870332717896e-02 5.781513080000877380e-02 3.868913277983665466e-02 -7.127955555915832520e-02 4.622003436088562012e-02 5.420286208391189575e-02 -3.779515624046325684e-02 2.689423970878124237e-02 1.282513514161109924e-02 -7.126270234584808350e-02
-4.787070676684379578e-03 -9.752701036632061005e-03 -6.719855219125747681e-02 -3.386002033948898315e-02 1.823713444173336029e-02 -1.929876767098903656e-02 1.714361831545829773e-02 6.811884231865406036e-03 6.053467281162738800e-03 5.359667912125587463e-02
6.857981439679861069e-03 -5.759606137871742249e-02 6.053354218602180481e-02 -1.535411924123764038e-02 -2.836016938090324402e-02 2.314985496923327446e-03 -5.373070016503334045e-02 2.182293124496936798e-02 -6.904625892639160156e-02 3.067227452993392944e-02
3.990083560347557068e-02 -6.263279169797897339e-02 -7.414218038320541382e-02 -5.339524522423744202e-02 2.933903969824314117e-02 4.923555999994277954e-02 7.265288382768630981e-02 -4.366511479020118713e-02 4.999642819166183472e-02 6.311169266700744629e-02
-4.095865041017532349e-02 4.307671636343002319e-02 6.852975487709045410e-02 -7.053096592426300049e-02 -1.890977658331394196e-02 1.372625492513179779e-02 3.493710607290267944e-02 4.628823697566986084e-02 2.860528789460659027e-02 -7.387780398130416870e-02
2.269083447754383087e-02 2.132724598050117493e-02 6.156872212886810303e-02 -4.206874594092369080e-02 1.406081486493349075e-02 5.690194666385650635e-02 7.605730742216110229e-02 4.380429891170933843e-05 5.234603583812713623e-02 -2.845722716301679611e-03
-5.874302983283996582e-02 -4.966804385185241699e-02 -3.145740181207656860e-02 3.347449377179145813e-02 -5.733723286539316177e-03 6.558154523372650146e-02 -1.047891844063997269e-02 1.294692046940326691e-02 -1.235620863735675812e-02 6.618422269821166992e-02
-3.743197023868560791e-02 4.818660393357276917e-02 -1.513580791652202606e-02 4.224310070276260376e-02 9.576277807354927063e-03 -7.059168070554733276e-02 -6.685010343790054321e-02 -2.340760082006454468e-02 3.143795952200889587e-02 -3.333694860339164734e-02
-6.313912570476531982e-02 6.144252419471740723e-02 6.408229470252990723e-02 -2.534535527229309082e-02 2.683009207248687744e-02 -6.054702401161193848e-02 -6.474734097719192505e-02 5.846075713634490967e-03 3.629364073276519775e-02 -5.623439326882362366e-02
4.593761637806892395e-02 6.478577852249145508e-02 -3.585983440279960632e-02 -7.020283490419387817e-02 -1.107868459075689316e-02 -4.187362792436033487e-04 -2.369890548288822174e-02 4.304749891161918640e-03 3.143589198589324951e-02 -5.250686407089233398e-02
-1.278271805495023727e-02 3.437550738453865051e-02 3.256795927882194519e-02 1.078701112419366837e-02 -2.057541720569133759e-02 3.304719179868698120e-02 -5.412634462118148804e-02 1.016070879995822906e-02 3.348068147897720337e-02 2.621983550488948822e-02
-1.766214333474636078e-02 -5.147840827703475952e-02 1.356986910104751587e-02 2.013731282204389572e-03 3.621020168066024780e-02 -1.833010092377662659e-02 2.738039381802082062e-02 3.123379498720169067e-02 -5.043720081448554993e-02 -5.367612838745117188e-02
5.700200796127319336e-02 -6.758061796426773071e-02 6.098197400569915771e-02 -6.743498146533966064e-02 -1.137738674879074097e-02 2.347975969314575195e-03 7.056984305381774902e-02 -6.025977805256843567e-02 -1.387926563620567322e-02 -3.833600878715515137e-02
-2.017598599195480347e-03 6.820868700742721558e-02 1.756195165216922760e-02 -7.072465959936380386e-03 3.223554790019989014e-02 1.712520793080329895e-02 6.993579864501953125e-02 -3.203133121132850647e-02 1.513804215937852859e-02 -4.319746792316436768e-02
-3.266821056604385376e-02 6.286644935607910156e-02 -6.368000805377960205e-02 -3.209234029054641724e-02 3.772929683327674866e-02 9.670878760516643524e-03 -3.871061280369758606e-02 5.303677543997764587e-02 3.632331266999244690e-02 -2.186845615506172180e-02
-1.659338944591581821e-03 1.052379794418811798e-02 -6.533413380384445190e-02 5.904714018106460571e-02 -3.538442403078079224e-02 -3.487180545926094055e-02 3.262885287404060364e-02 2.855725586414337158e-02 3.946275264024734497e-02 2.646024338901042938e-02
-4.509771615266799927e-02 1.239608973264694214e-02 -3.858496993780136108e-02 -1.299484260380268097e-02 5.565709248185157776e-02 -8.777801878750324249e-03 -3.151631727814674377e-02 7.528424263000488281e-02 4.299897700548171997e-02 3.951685503125190735e-02
-3.008382767438888550e-02 6.734838336706161499e-02 1.920360699295997620e-02 -3.497522696852684021e-02 -1.056400500237941742e-02 -7.409173995256423950e-02 1.302193757146596909e-02 6.145259831100702286e-03 -7.410542666912078857e-02 7.397936284542083740e-02
3.363161534070968628e-02 -2.281767502427101135e-02 4.461870342493057251e-02 -4.299928992986679077e-02 -2.504931576550006866e-02 1.525646448135375977e-02 6.891563534736633301e-02 -3.546945750713348389e-03 5.963106825947761536e-02 5.299052596092224121e-02
-7.094044238328933716e-02 -5.099107697606086731e-02 1.946825906634330750e-02 5.546823516488075256e-02 5.931034311652183533e-02 -7.401661574840545654e-02 1.158695388585329056e-02 -1.678162813186645508e-02 -3.877903148531913757e-02 3.833007812500000000e-02
6.016970798373222351e-02 5.804582685232162476e-02 4.704595357179641724e-02 5.456620082259178162e-02 4.175919108092784882e-03 5.271974578499794006e-02 7.237303256988525391e-02 -1.982119493186473846e-02 -2.135317213833332062e-02 3.698236867785453796e-02
3.900118172168731689e-02 2.526221214793622494e-04 1.708493195474147797e-02 5.642959475517272949e-02 -7.582161575555801392e-02 -1.484269276261329651e-02 -3.774475306272506714e-03 -6.490155309438705444e-02 -2.019677497446537018e-02 -2.708716876804828644e-02
-1.059504132717847824e-02 -2.233295701444149017e-02 2.504052221775054932e-02 4.790064692497253418e-02 -6.051442027091979980e-02 7.143282890319824219e-02 7.273165136575698853e-02 1.702897832728922367e-03 4.961341246962547302e-02 6.109132990241050720e-02
-3.787496313452720642e-02 -4.671587422490119934e-02 -6.397221703082323074e-03 1.062564551830291748e-02 5.180886015295982361e-03 -3.447300754487514496e-03 -7.397715747356414795e-02 5.410562455654144287e-02 -4.152046516537666321e-02 -6.628987938165664673e-02
-2.249737456440925598e-02 -1.294560916721820831e-02 -6.659252196550369263e-02 4.843141138553619385e-02 4.084290936589241028e-02 5.905258003622293472e-03 3.733384981751441956e-02 2.526362985372543335e-02 1.195774972438812256e-02 4.861658066511154175e-02
4.318258538842201233e-02 -8.658811450004577637e-03 7.545210421085357666e-02 -4.180282354354858398e-02 -7.480989396572113037e-02 -3.122415766119956970e-02 -1.334572955965995789e-02 9.756670333445072174e-03 -2.601483650505542755e-02 -5.700585618615150452e-02
-1.407650299370288849e-02 -1.151222735643386841e-02 -7.232691347599029541e-02 5.738281644880771637e-03 -5.941806361079216003e-03 -3.398144990205764771e-02 5.257089156657457352e-03 3.071418032050132751e-02 -1.165998168289661407e-02 2.125095762312412262e-02
6.622177362442016602e-02 -4.165675118565559387e-02 5.083084106445312500e-02 4.660984501242637634e-02 -6.757206469774246216e-02 2.986845001578330994e-02 -2.887210808694362640e-03 5.729416012763977051e-02 -2.401081658899784088e-02 4.616479948163032532e-02
9.667669422924518585e-03 7.163826376199722290e-02 5.340720713138580322e-02 -7.374859414994716644e-03 -7.425023615360260010e-02 6.231876090168952942e-02 3.982982598245143890e-03 4.641139134764671326e-02 -4.006373137235641479e-02 -1.646740362048149109e-02
2.483982406556606293e-02 -1.648775860667228699e-02 -5.491226166486740112e-02 9.925210848450660706e-03 -1.221297401934862137e-02 -1.359700784087181091e-02 6.772891432046890259e-02 4.783223569393157959e-02 4.093057010322809219e-03 5.051347985863685608e-02
2.235336974263191223e-02 -3.652966022491455078e-02 -4.272227361798286438e-02 7.231730222702026367e-02 5.108264740556478500e-03 3.023945726454257965e-02 -2.129055932164192200e-02 -2.172891423106193542e-02 1.534269563853740692e-02 1.977656781673431396e-02
-4.935801774263381958e-02 1.037330739200115204e-02 -4.601259902119636536e-02 -1.615376025438308716e-02 -1.474437117576599121e-02 6.542447954416275024e-02 7.038477808237075806e-02 -4.181885346770286560e-02 5.325443670153617859e-02 2.952334471046924591e-02
5.645124614238739014e-02 2.516740560531616211e-02 4.836506396532058716e-02 -5.079834721982479095e-03 6.478812545537948608e-02 3.134426660835742950e-03 5.579280480742454529e-02 -6.273251771926879883e-02 1.453626900911331177e-02 -5.010480433702468872e-02
-4.194400459527969360e-02 -2.200487814843654633e-02 -3.924200683832168579e-02 -1.021808199584484100e-02 -5.010997876524925232e-02 5.588057637214660645e-02 5.580236390233039856e-02 3.644826635718345642e-02 1.393036637455224991e-02 -6.001506745815277100e-02
-6.821813434362411499e-02 -1.214508898556232452e-02 3.619984164834022522e-02 5.921252816915512085e-02 7.488251477479934692e-02 2.560353092849254608e-02 8.020712994039058685e-03 9.641229175031185150e-03 3.902275487780570984e-02 7.053973525762557983e-02
-1.739817671477794647e-02 4.334088787436485291e-02 -4.867639392614364624e-02 -2.773769199848175049e-02 -6.143647804856300354e-02 -6.227463111281394958e-02 1.919310726225376129e-02 -3.178144991397857666e-02 4.513366147875785828e-02 6.365920603275299072e-02
-5.917689204216003418e-02 1.034065242856740952e-02 2.864470891654491425e-02 -2.472998760640621185e-02 8.682733401656150818e-03 8.358393795788288116e-03 -1.423481665551662445e-02 4.931938275694847107e-02 -3.459404036402702332e-02 -4.734551534056663513e-02
6.176386401057243347e-02 4.620987176895141602e-02 -3.845478594303131104e-02 -3.370090201497077942e-02 -3.386955708265304565e-02 6.330473721027374268e-02 -3.688474185764789581e-03 3.293471783399581909e-02 7.389418780803680420e-02 3.503985702991485596e-03
4.883398488163948059e-02 1.934839598834514618e-02 2.966443262994289398e-02 3.408449888229370117e-02 5.581277981400489807e-02 -5.807154253125190735e-02 8.499360643327236176e-03 -6.872327625751495361e-02 -2.708597481250762939e-02 1.126068644225597382e-02
5.123633146286010742e-02 2.230011485517024994e-02 -6.913524121046066284e-02 -5.998183973133563995e-03 1.225214544683694839e-02 5.582167208194732666e-02 -7.581172883510589600e-02 -6.979392468929290771e-02 -6.958746910095214844e-02 5.896351113915443420e-02
-4.148406442254781723e-03 -6.956339627504348755e-02 1.625441201031208038e-02 -4.089033231139183044e-02 -5.647427216172218323e-02 6.062734499573707581e-02 -2.393607422709465027e-02 6.541655212640762329e-02 -4.611095041036605835e-02 -3.970294725149869919e-03
-2.597522735595703125e-02 -6.458037346601486206e-02 -5.650647729635238647e-02 3.634462133049964905e-02 -7.529271394014358521e-02 2.710248343646526337e-02 -5.696838349103927612e-02 2.966979704797267914e-02 4.873440414667129517e-02 1.119284145534038544e-02
-2.092131786048412323e-02 -1.586880534887313843e-02 -5.755583941936492920e-02 6.325325369834899902e-02 3.350986400619149208e-03 1.751801744103431702e-02 -1.587081514298915863e-02 -7.535586506128311157e-02 -1.097607333213090897e-02 -1.514433696866035461e-02
-7.468415051698684692e-02 -1.302315294742584229e-02 -6.794524192810058594e-02 -2.314084582030773163e-02 6.618127971887588501e-02 3.295671939849853516e-02 -5.631183832883834839e-02 1.492857094854116440e-02 4.706016927957534790e-02 3.489039093255996704e-02
-1.857021078467369080e-02 -3.384520858526229858e-02 3.027386032044887543e-02 -1.295012328773736954e-02 5.454881861805915833e-02 3.411849588155746460e-02 4.830968007445335388e-02 7.062296569347381592e-02 -5.355973541736602783e-02 -2.052073180675506592e-02
-2.191013656556606293e-02 -6.859798729419708252e-02 3.311398252844810486e-02 2.045320533215999603e-02 2.382177673280239105e-02 6.412699818611145020e-02 -8.555132895708084106e-03 -4.184164479374885559e-02 7.127919048070907593e-02 3.687528427690267563e-03
-5.614928528666496277e-02 6.746403127908706665e-02 3.027536533772945404e-02 -3.437608107924461365e-02 4.462673515081405640e-02 -2.263802476227283478e-02 -5.735111609101295471e-02 3.986422345042228699e-02 4.371275752782821655e-02 -6.140803173184394836e-02
5.590987205505371094e-02 5.149079114198684692e-02 5.211354792118072510e-02 -7.279241830110549927e-02 6.582400202751159668e-02 -4.457158967852592468e-02 2.264085784554481506e-02 6.501463055610656738e-02 -2.931355684995651245e-02 -6.418187171220779419e-02
-5.169413611292839050e-02 -6.055087596178054810e-02 -7.783614099025726318e-02 -7.093682140111923218e-02 3.576061502099037170e-02 2.412253990769386292e-02 -6.366156041622161865e-02 2.332914061844348907e-02 5.925949290394783020e-02 5.923678725957870483e-02
1.831276714801788330e-02 4.538976028561592102e-02 -3.034876286983489990e-02 -6.448135524988174438e-02 -5.714590195566415787e-03 -5.437474325299263000e-02 -3.270542249083518982e-02 3.561792150139808655e-02 -1.198587846010923386e-02 -2.857467904686927795e-02
6.249248608946800232e-02 3.332568705081939697e-02 3.146977350115776062e-02 -5.578690394759178162e-02 -9.643034078180789948e-03 5.989233031868934631e-02 5.623107403516769409e-02 -1.135143917053937912e-02 6.982816755771636963e-02 1.519708242267370224e-02
-1.459051389247179031e-02 4.109697043895721436e-02 7.372344378381967545e-03 -6.235792860388755798e-02 -3.498173877596855164e-02 -9.345988743007183075e-03 -4.760548099875450134e-02 -4.961484298110008240e-02 -2.396369352936744690e-02 6.373117119073867798e-02
2.058816608041524887e-03 1.805469207465648651e-02 7.385742664337158203e-02 1.598296314477920532e-02 1.936273463070392609e-02 2.672543190419673920e-02 -8.713775314390659332e-03 6.233888119459152222e-02 -5.175309628248214722e-02 2.363686077296733856e-02
